<?xml version="1.0"?>
<opencv_storage>
<my_svm type_id="opencv-ml-svm">
  <svm_type>C_SVC</svm_type>
  <kernel><type>LINEAR</type></kernel>
  <C>1.</C>
  <term_criteria><epsilon>2.2204460492503131e-16</epsilon>
    <iterations>1000000</iterations></term_criteria>
  <var_all>108160</var_all>
  <var_count>108160</var_count>
  <class_count>2</class_count>
  <class_labels type_id="opencv-matrix">
    <rows>1</rows>
    <cols>2</cols>
    <dt>i</dt>
    <data>
      0 1</data></class_labels>
  <sv_total>1</sv_total>
  <support_vectors>
    <_>
      -3.21406617e-07 -1.95880574e-07 1.96198869e-07 7.30664794e-07
      1.28257159e-06 1.77817674e-06 2.21840946e-06 2.65869517e-06
      3.19250580e-06 3.67385587e-06 4.04120055e-06 4.22475705e-06
      4.31592161e-06 4.19628577e-06 3.82961025e-06 3.25965993e-06
      2.62751587e-06 1.97147619e-06 1.34939694e-06 8.74098191e-07
      4.82412815e-07 1.56132927e-07 -1.58258288e-07 -4.64333283e-07
      -6.86528494e-07 -8.61587068e-07 -9.81620019e-07 -1.00254920e-06
      -8.85769907e-07 -5.89563854e-07 -7.94715049e-08 5.61833133e-07
      1.31512468e-06 2.11904330e-06 2.94986694e-06 3.69723989e-06
      4.25126836e-06 4.53941038e-06 4.61683521e-06 4.59768398e-06
      4.33332980e-06 3.86921965e-06 3.07669347e-06 2.37882341e-06
      1.73104866e-06 1.12939699e-06 6.23079700e-07 1.16694842e-07
      -3.16679575e-07 -3.21841355e-07 -2.70318395e-07 -2.49059269e-07
      2.74517163e-07 2.81109976e-07 3.36729926e-07 4.24468368e-07
      5.23749691e-07 5.92143692e-07 6.33282468e-07 6.67970028e-07
      7.17513785e-07 8.13915619e-07 1.00738521e-06 1.26240934e-06
      1.53051576e-06 1.72427792e-06 1.79029109e-06 1.69615635e-06
      1.42817771e-06 1.04522917e-06 6.26782935e-07 2.63443440e-07
      1.30785915e-08 -1.15012980e-07 -1.72214015e-07 -2.17674270e-07
      -2.54114553e-07 -3.07452126e-07 -3.61786050e-07 -4.14033252e-07
      -4.40208709e-07 -3.56302763e-07 -1.22908261e-07 2.14687958e-07
      6.34500282e-07 1.07596179e-06 1.46126229e-06 1.69638554e-06
      1.76421929e-06 1.69881366e-06 1.60681952e-06 1.53163228e-06
      1.51087431e-06 1.43362013e-06 1.27970895e-06 9.96453764e-07
      6.31785554e-07 2.17607450e-07 -1.89871969e-07 -5.19791115e-07
      -6.97247629e-07 -7.71763837e-07 -8.08458651e-07 -8.23840253e-07
      -5.13289820e-07 -5.36344714e-07 -6.07304116e-07 -7.52261144e-07
      -9.71382178e-07 -1.23161033e-06 -1.49374978e-06 -1.73343358e-06
      -1.89665741e-06 -1.95038797e-06 -1.84132284e-06 -1.56081717e-06
      -1.18754429e-06 -8.03228829e-07 -4.54516140e-07 -1.92836438e-07
      -5.56954234e-08 9.91346916e-09 -2.34573716e-09 -6.10627211e-08
      -9.12220841e-08 -3.21373292e-08 9.16432867e-08 2.51222360e-07
      3.83668493e-07 4.75159112e-07 5.22378343e-07 4.75536325e-07
      3.42847528e-07 1.97159451e-07 7.02973963e-08 -1.08988258e-08
      -5.70344554e-08 -8.19271051e-08 -1.78685909e-07 -3.66278499e-07
      -5.74606531e-07 -7.16672787e-07 -7.74029729e-07 -7.73004047e-07
      -7.09419453e-07 -6.49229264e-07 -6.66887502e-07 -7.63678656e-07
      -9.23960101e-07 -1.09049643e-06 -1.24758139e-06 -1.36024926e-06
      -1.42220563e-06 -1.46573529e-06 -1.47541834e-06 -1.48699849e-06
      -3.97704616e-06 -3.90691184e-06 -3.70833550e-06 -3.37078563e-06
      -2.93722655e-06 -2.43332875e-06 -1.95008829e-06 -1.52528628e-06
      -1.09663404e-06 -6.84828933e-07 -3.41612093e-07 -4.62637537e-08
      1.89671510e-07 3.33393587e-07 3.82579600e-07 3.48520672e-07
      2.41290422e-07 1.06970731e-07 -4.99073991e-08 -1.78075354e-07
      -2.85776736e-07 -3.55460372e-07 -3.03441169e-07 -9.97472043e-08
      1.86628867e-07 5.32545755e-07 8.62463935e-07 1.07636208e-06
      1.09731855e-06 9.00985754e-07 5.65249195e-07 2.43881544e-07
      -1.10317160e-07 -4.49537140e-07 -6.90602974e-07 -7.68999030e-07
      -6.35517665e-07 -3.74432403e-07 -3.62877515e-08 3.48093607e-07
      6.37540211e-07 5.41643487e-07 3.22996272e-07 1.13941823e-07
      -1.76793961e-07 -5.26544682e-07 -8.74518548e-07 -1.13838701e-06
      -1.32497416e-06 -1.44785656e-06 -1.51066615e-06 -1.53254791e-06
      -4.03266040e-06 -3.93111895e-06 -3.63996128e-06 -3.11485496e-06
      -2.35288940e-06 -1.35094240e-06 -2.19575469e-07 9.06901050e-07
      2.01631451e-06 2.92807454e-06 3.43293073e-06 3.44626142e-06
      3.15727584e-06 2.71291674e-06 2.18479840e-06 1.61587525e-06
      1.04772107e-06 5.53728285e-07 1.46067947e-07 -1.23916280e-07
      -2.88790005e-07 -3.21152442e-07 -2.48856765e-07 -7.43100870e-08
      1.35050641e-07 4.27221153e-07 6.41350027e-07 7.03660817e-07
      6.21264348e-07 3.67415680e-07 -2.12754756e-08 -3.79020435e-07
      -7.45117518e-07 -9.52279095e-07 -1.01386968e-06 -9.05384297e-07
      -5.89913441e-07 -2.64127120e-08 6.19539946e-07 1.20120467e-06
      1.57296984e-06 1.86281613e-06 2.08910592e-06 2.17682737e-06
      1.74676791e-06 1.07460517e-06 4.51468026e-07 -2.68702820e-08
      -3.33498576e-07 -5.10259554e-07 -5.96127904e-07 -6.09180574e-07
      -1.36271888e-06 -1.36761287e-06 -1.39082795e-06 -1.33256719e-06
      -1.07997846e-06 -5.67989389e-07 1.80822013e-07 1.05354195e-06
      1.99399392e-06 2.84326552e-06 3.47998730e-06 3.78532241e-06
      3.69073155e-06 3.23970676e-06 2.61034825e-06 2.00542217e-06
      1.46217087e-06 8.46713590e-07 2.05814970e-07 -2.18703320e-07
      -3.48586923e-07 -2.86930316e-07 -1.71099721e-08 4.53386804e-07
      7.92831088e-07 8.49040873e-07 7.60982118e-07 6.46187743e-07
      5.41457268e-07 4.04532813e-07 5.69143417e-08 -4.98337499e-07
      -1.01962803e-06 -1.27991791e-06 -1.48775564e-06 -1.51425650e-06
      -1.15895818e-06 -5.13845976e-07 2.33725615e-07 1.09551854e-06
      1.96671840e-06 2.37584095e-06 2.45891192e-06 2.26712928e-06
      1.63887591e-06 9.10220820e-07 2.28920470e-07 -3.14905350e-07
      -6.87531383e-07 -9.36179163e-07 -1.09339260e-06 -1.13588044e-06
      -1.27927262e-06 -1.38156793e-06 -1.65922415e-06 -1.99045985e-06
      -2.17659385e-06 -1.91967501e-06 -1.27668704e-06 -5.66261576e-07
      7.74241542e-08 5.55322231e-07 9.32023283e-07 1.21260143e-06
      1.43370335e-06 1.65531810e-06 1.79833046e-06 1.75248317e-06
      1.42586032e-06 8.39664438e-07 7.01108647e-08 -6.14331668e-07
      -1.04220862e-06 -9.06118032e-07 -4.66148776e-07 -2.83149376e-07
      -2.47430080e-07 -3.49921464e-07 -4.98268321e-07 -6.14172393e-07
      -6.27740690e-07 -5.60664716e-07 -4.27594443e-07 -2.94295120e-07
      -3.21021105e-07 -7.13628026e-07 -8.65603113e-07 -7.01599731e-07
      -3.13364808e-07 2.76231049e-07 1.01245814e-06 1.62950016e-06
      2.02660431e-06 2.11680481e-06 2.00733007e-06 1.71126362e-06
      9.41580652e-07 1.77154163e-07 -5.15837939e-07 -1.06925154e-06
      -1.45569277e-06 -1.68378710e-06 -1.79996289e-06 -1.83453221e-06
      -2.07993685e-06 -2.11305223e-06 -2.17326942e-06 -2.13845442e-06
      -1.84420105e-06 -1.39440726e-06 -9.50165202e-07 -6.49183789e-07
      -4.40593737e-07 -3.06073730e-07 -2.54341245e-07 -2.46910986e-07
      -1.72856048e-07 1.52308388e-07 5.35293168e-07 7.76550849e-07
      7.91598836e-07 5.85907515e-07 2.60529191e-07 1.38604335e-07
      3.85786194e-07 9.22362347e-07 1.16691376e-06 1.23997199e-06
      1.27778549e-06 1.23522204e-06 1.09338771e-06 8.47521676e-07
      4.01329999e-07 6.64370292e-09 -2.22469112e-07 -1.85203902e-07
      7.35451309e-08 3.21595962e-07 5.04752336e-07 6.53544305e-07
      9.12526104e-07 1.52334803e-06 2.16796366e-06 2.57686793e-06
      2.73141177e-06 2.64206028e-06 2.17357751e-06 1.50641006e-06
      8.69620408e-07 3.49098741e-07 -3.81835434e-08 -2.74946871e-07
      -3.49090925e-07 -3.01659554e-07 -2.38258011e-07 -2.18590770e-07
      -6.22415428e-07 -6.63970866e-07 -7.54357927e-07 -8.12432006e-07
      -8.07482593e-07 -8.02052966e-07 -7.99155430e-07 -8.07763229e-07
      -8.44320084e-07 -8.93763001e-07 -8.65912682e-07 -5.27139207e-07
      -8.25014155e-08 4.88089995e-07 9.75997864e-07 1.21449762e-06
      1.21246057e-06 1.05960601e-06 9.92753257e-07 9.90168246e-07
      1.10181850e-06 1.37901986e-06 1.54182692e-06 1.61120045e-06
      1.43488376e-06 1.11455813e-06 7.80759422e-07 4.60024097e-07
      1.45433148e-07 -7.02995635e-08 -1.49441846e-07 -8.21025594e-08
      1.35426362e-07 3.63505450e-07 7.19099319e-07 1.11681379e-06
      1.66467487e-06 2.20468996e-06 2.64348932e-06 2.94123652e-06
      3.04618015e-06 2.91411857e-06 2.61941068e-06 2.24985774e-06
      1.83238592e-06 1.46676996e-06 1.21781738e-06 1.13463420e-06
      1.23940163e-06 1.38406165e-06 1.45971080e-06 1.47290439e-06
      4.01610379e-07 2.67762744e-07 -6.94593467e-08 -4.89844126e-07
      -8.05562308e-07 -1.03779109e-06 -1.17936725e-06 -1.17334207e-06
      -1.01681110e-06 -5.52307426e-07 1.90575463e-07 1.11553209e-06
      1.85880731e-06 2.32067373e-06 2.45582532e-06 2.39582255e-06
      2.15632622e-06 1.75189075e-06 1.20553000e-06 6.38775475e-07
      3.15895250e-07 2.65333568e-07 2.44040876e-07 2.01987859e-07
      7.56886109e-08 -9.93965301e-08 -2.38927186e-07 -3.33942609e-07
      -3.05272692e-07 -1.58970209e-07 5.22267953e-08 2.69728105e-07
      6.06783715e-07 1.21961409e-06 1.68460110e-06 1.89480090e-06
      2.14775582e-06 2.45975411e-06 2.74224180e-06 3.18052935e-06
      3.59283194e-06 3.75127979e-06 3.68195401e-06 3.47662649e-06
      3.24629877e-06 2.94328493e-06 2.76281799e-06 2.67844894e-06
      2.65245922e-06 2.63899551e-06 2.58487376e-06 2.56619774e-06
      -1.39076315e-06 -1.46504169e-06 -1.64432709e-06 -1.86921307e-06
      -2.09039013e-06 -2.24220253e-06 -2.20919082e-06 -1.86831903e-06
      -1.17735249e-06 -1.50973051e-07 1.05557035e-06 2.09730911e-06
      2.72311240e-06 2.93194785e-06 2.79037795e-06 2.47817297e-06
      2.01693751e-06 1.49246716e-06 1.00670593e-06 5.08744790e-07
      1.25280962e-07 6.68263809e-08 1.38814841e-07 1.52396410e-07
      1.78573544e-07 2.45463866e-07 3.47331479e-07 4.25042089e-07
      4.66216704e-07 5.32039053e-07 6.47136801e-07 8.73323643e-07
      1.23589882e-06 1.53114865e-06 1.78045286e-06 1.86977729e-06
      1.95418306e-06 2.10595294e-06 2.22069116e-06 2.47998560e-06
      2.77702293e-06 2.81814573e-06 2.69378506e-06 2.61261926e-06
      2.42960004e-06 2.06357845e-06 1.91487629e-06 1.95318739e-06
      2.00790441e-06 1.93455276e-06 1.88295655e-06 1.88103388e-06
      -3.14562362e-06 -3.15936677e-06 -3.14514068e-06 -3.01405316e-06
      -3.02700300e-06 -3.20197432e-06 -2.91981451e-06 -2.44679109e-06
      -1.71992440e-06 -8.68413053e-07 -3.17144924e-07 1.94883938e-07
      6.33892455e-07 9.24652340e-07 1.10144015e-06 1.16755939e-06
      1.04306764e-06 7.23627295e-07 4.67440003e-07 1.49967747e-07
      -2.87583163e-07 -5.80572248e-07 -6.73922102e-07 -7.33052673e-07
      -9.20329001e-07 -1.17230388e-06 -1.42799445e-06 -1.52442999e-06
      -1.46936804e-06 -1.31121465e-06 -1.07309438e-06 -7.27148404e-07
      -2.83147585e-07 1.59142445e-07 4.65929929e-07 7.03228238e-07
      7.23451706e-07 7.94521327e-07 8.13829502e-07 7.96361974e-07
      7.00482758e-07 3.00444952e-07 -9.39771283e-08 -3.59100966e-07
      -3.23749305e-07 -3.57480644e-07 -5.41085512e-07 -9.54215011e-07
      -1.30670674e-06 -1.51564586e-06 -1.63670472e-06 -1.66912037e-06
      -3.59943374e-06 -3.57803901e-06 -3.34412994e-06 -3.06768879e-06
      -3.36946277e-06 -3.40417523e-06 -3.13648798e-06 -2.66587335e-06
      -2.00703380e-06 -1.50176675e-06 -1.21390110e-06 -9.91746447e-07
      -7.90258298e-07 -6.39667746e-07 -4.23533180e-07 -2.26082619e-07
      -1.57202848e-07 -2.56551573e-07 -5.06251524e-07 -6.65104722e-07
      -7.30759155e-07 -9.91179490e-07 -1.49199946e-06 -1.78431344e-06
      -1.91930894e-06 -1.97474697e-06 -1.97329609e-06 -1.90117066e-06
      -1.79772610e-06 -1.65042104e-06 -1.43403736e-06 -1.19379058e-06
      -8.49118578e-07 -3.74923530e-07 -1.09766162e-07 6.04542620e-08
      2.48254139e-07 2.92151981e-07 4.06371015e-07 7.21633796e-07
      8.42128372e-07 6.43926114e-07 2.49683580e-07 1.46979417e-07
      1.81265051e-07 3.88204064e-08 -4.01154040e-07 -1.07512653e-06
      -1.88747481e-06 -2.64001847e-06 -3.08666472e-06 -3.25264341e-06
      -4.31157741e-06 -4.25174267e-06 -4.06439040e-06 -3.79957942e-06
      -3.33325647e-06 -2.91845663e-06 -2.62875824e-06 -1.92681955e-06
      -8.68686016e-07 1.73083095e-07 7.12257531e-07 8.07186780e-07
      6.54622568e-07 3.55455285e-07 9.95983527e-08 -1.06829354e-07
      -3.06584525e-07 -3.52925326e-07 -3.67594765e-07 -5.62107857e-07
      -7.05774312e-07 -8.71568204e-07 -9.74227987e-07 -1.02054742e-06
      -9.53198821e-07 -7.68996188e-07 -5.16329237e-07 -2.77315110e-07
      -7.59770273e-08 8.04292668e-08 8.12248189e-08 3.99706330e-08
      -2.71009402e-08 -2.54359890e-07 -4.12470484e-07 -3.03876902e-07
      4.86276228e-08 4.24484540e-07 6.96738425e-07 7.78358924e-07
      7.89668206e-07 8.91581351e-07 1.02546960e-06 1.22074039e-06
      1.22783183e-06 1.08491474e-06 8.08993946e-07 1.67687034e-07
      -7.17056196e-07 -1.52257951e-06 -2.05660308e-06 -2.27849478e-06
      -3.89792058e-06 -3.85206386e-06 -3.72267141e-06 -3.46611114e-06
      -3.11405665e-06 -2.74766353e-06 -2.40985582e-06 -2.11714155e-06
      -1.79801793e-06 -1.40507984e-06 -9.12245639e-07 -5.27753116e-07
      -3.31836446e-07 -3.40621170e-07 -5.07276354e-07 -7.25751647e-07
      -9.03180194e-07 -9.72441285e-07 -9.17132297e-07 -7.34863534e-07
      -4.94086237e-07 -3.63047150e-07 -2.25454912e-07 -7.17585777e-08
      8.12697323e-08 2.25753766e-07 3.84634376e-07 5.05177297e-07
      5.81726738e-07 5.88352975e-07 4.88095282e-07 3.18177825e-07
      1.61665085e-07 -1.86160110e-09 -1.89774809e-07 -3.25862061e-07
      -2.00399356e-07 -2.08402298e-07 -1.74758128e-07 -1.02703048e-07
      5.02798301e-08 2.23938414e-07 3.32823845e-07 5.59516138e-07
      1.02599654e-06 1.46237517e-06 1.76623610e-06 1.74765762e-06
      1.44728324e-06 1.04964283e-06 7.31907676e-07 5.72162548e-07
      -3.27507883e-06 -3.21245443e-06 -2.99854128e-06 -2.55143073e-06
      -1.98704674e-06 -1.58272849e-06 -1.40679026e-06 -1.22243387e-06
      -1.01455532e-06 -8.86937357e-07 -6.72370504e-07 -3.59205586e-07
      3.75413300e-08 4.54266001e-07 7.45520254e-07 9.28514339e-07
      9.91021807e-07 9.41302858e-07 8.95594951e-07 8.26679752e-07
      6.30667955e-07 5.11554219e-07 5.38997085e-07 5.79775531e-07
      5.82191944e-07 5.66911694e-07 5.58903423e-07 5.39972348e-07
      4.98380928e-07 4.49854838e-07 4.31815664e-07 3.94626340e-07
      3.50056183e-07 2.94753960e-07 2.60196344e-07 2.15381746e-07
      1.78293377e-07 1.18179138e-07 6.29731360e-08 8.05550755e-08
      2.11430446e-07 4.46495278e-07 7.12573808e-07 8.57900488e-07
      1.20091727e-06 1.53513474e-06 1.78447613e-06 1.91613094e-06
      1.83966370e-06 1.67271639e-06 1.44219734e-06 1.28749241e-06
      -2.21861205e-06 -2.15106274e-06 -1.93972642e-06 -1.56969861e-06
      -1.25335509e-06 -6.50732261e-07 1.41209156e-07 8.69885412e-07
      1.42147883e-06 1.66500138e-06 1.89726927e-06 2.01224452e-06
      2.17382444e-06 2.29950570e-06 2.23994903e-06 1.96426686e-06
      1.54104794e-06 1.04745209e-06 6.27845623e-07 3.82529663e-07
      3.03743491e-07 2.95511398e-07 2.25300894e-07 1.24641957e-07
      4.24160653e-08 -2.45076084e-08 -1.12786438e-07 -2.03307238e-07
      -2.93198241e-07 -3.36838298e-07 -3.11963987e-07 -1.79569724e-07
      7.60048238e-08 4.15067717e-07 7.84870338e-07 1.09594771e-06
      1.16433739e-06 1.22694291e-06 1.30178432e-06 1.27202975e-06
      1.06304799e-06 8.25230074e-07 7.19367392e-07 7.04174397e-07
      6.97627740e-07 6.36570348e-07 5.15848342e-07 1.40493697e-07
      -5.14798330e-07 -8.95007645e-07 -1.16418880e-06 -1.27791350e-06
      -9.22565732e-07 -9.62772560e-07 -1.04922776e-06 -1.13674662e-06
      -1.19009530e-06 -1.24816643e-06 -1.39708163e-06 -1.49928837e-06
      -1.71923227e-06 -1.81134999e-06 -1.74759327e-06 -1.62305821e-06
      -1.47587355e-06 -1.15541854e-06 -8.84632868e-07 -7.58301780e-07
      -8.54588166e-07 -7.51282585e-07 -5.10089706e-07 -1.96426029e-07
      8.73918182e-08 2.56977984e-07 2.89124586e-07 2.20877197e-07
      1.10404656e-07 -1.81079933e-08 -1.35153485e-07 -2.10161573e-07
      -2.65123930e-07 -2.56240810e-07 -2.07916770e-07 -1.49023052e-07
      -1.15606007e-07 -1.77903303e-07 -3.50956668e-07 -5.97357086e-07
      -8.69550092e-07 -1.05715890e-06 -1.14251259e-06 -1.23872019e-06
      -1.30709770e-06 -1.29860200e-06 -1.17975765e-06 -9.49146397e-07
      -7.34832554e-07 -5.89007357e-07 -4.84592647e-07 -4.14021741e-07
      -4.61073626e-07 -5.26254894e-07 -5.83880137e-07 -6.20721664e-07
      7.64441040e-07 7.26329972e-07 6.13197869e-07 4.43381964e-07
      2.22235528e-07 -5.68072238e-08 -4.50845050e-07 -8.29420514e-07
      -1.10125484e-06 -1.35287803e-06 -1.63505854e-06 -1.87264709e-06
      -2.05396327e-06 -2.15069213e-06 -2.10150552e-06 -1.87962314e-06
      -1.52412724e-06 -1.08580025e-06 -6.22244045e-07 -2.15312184e-07
      7.52150413e-08 3.14298802e-07 4.98447662e-07 6.28922635e-07
      7.16686827e-07 7.62355114e-07 7.78632739e-07 7.65994912e-07
      7.42676548e-07 6.91482967e-07 5.81503684e-07 3.95502212e-07
      1.30472571e-07 -1.77596405e-07 -5.06600543e-07 -8.37744153e-07
      -1.15429179e-06 -1.42484657e-06 -1.64317271e-06 -1.78483458e-06
      -1.79680228e-06 -1.65739982e-06 -1.37413531e-06 -8.95254914e-07
      -2.65329163e-07 2.38760322e-07 5.65251298e-07 8.47779177e-07
      1.08868346e-06 1.28408226e-06 1.41981923e-06 1.46787602e-06
      1.32993875e-07 1.66503327e-07 2.32850155e-07 3.11115542e-07
      3.51413547e-07 3.60007476e-07 3.77916535e-07 3.84199296e-07
      3.63752946e-07 3.12222028e-07 2.18755133e-07 1.23758866e-07
      -7.16435977e-09 -1.55911792e-07 -3.26264683e-07 -4.78018194e-07
      -5.90504158e-07 -6.08437233e-07 -5.37004894e-07 -3.90637979e-07
      -1.73839538e-07 6.59892194e-08 2.92241481e-07 4.90888908e-07
      6.20101048e-07 6.90116053e-07 7.08429866e-07 6.79855418e-07
      6.50862148e-07 5.95770757e-07 5.16954003e-07 4.46155894e-07
      3.70453904e-07 2.84747728e-07 1.98792875e-07 9.29774941e-08
      -1.30913929e-08 -1.43088073e-07 -3.07471424e-07 -4.63404319e-07
      -6.05848527e-07 -6.96705740e-07 -6.73836439e-07 -5.87196837e-07
      -4.70529955e-07 -3.65920215e-07 -3.25068982e-07 -3.83451237e-07
      -4.63931485e-07 -5.97352539e-07 -7.25079019e-07 -7.53921654e-07
      -1.07050653e-06 -1.05848255e-06 -1.01278920e-06 -8.97480163e-07
      -7.28905718e-07 -4.65979014e-07 -1.62601978e-07 9.66966951e-08
      3.11514583e-07 4.39231968e-07 4.91690457e-07 4.90682226e-07
      4.14285410e-07 2.78913717e-07 9.09713975e-08 -9.08472515e-08
      -2.18639371e-07 -2.46732384e-07 -2.15071537e-07 -1.16861600e-07
      2.32556268e-08 1.70647013e-07 2.75090031e-07 3.14582707e-07
      2.57516234e-07 1.66880838e-07 7.40656816e-08 1.06676863e-08
      5.08811535e-11 1.23447308e-09 3.78514322e-08 9.12839937e-08
      1.16561864e-07 7.20623419e-08 -6.15619555e-08 -2.63207795e-07
      -4.74341277e-07 -6.89010051e-07 -8.89056139e-07 -9.68631639e-07
      -9.25754250e-07 -8.18582691e-07 -6.74481953e-07 -6.18773356e-07
      -6.34257503e-07 -7.25795473e-07 -9.00795726e-07 -1.07608366e-06
      -1.22262327e-06 -1.36257711e-06 -1.43796785e-06 -1.45606043e-06
      9.71195533e-08 9.95078722e-08 1.10805800e-07 1.27098161e-07
      1.34454311e-07 1.35597205e-07 1.69252772e-07 2.22502166e-07
      2.72203124e-07 3.09003639e-07 3.17189716e-07 2.31775886e-07
      1.23333507e-07 3.65158144e-08 -1.98869454e-08 1.13860796e-08
      1.05710690e-07 1.96972692e-07 2.73220650e-07 3.38927293e-07
      3.70402034e-07 3.59894500e-07 2.66892272e-07 1.09381858e-07
      -7.50982991e-08 -2.38532408e-07 -3.13801650e-07 -2.73413463e-07
      -1.74705875e-07 -4.60225600e-08 9.19125753e-08 1.73316892e-07
      1.56867969e-07 7.63772476e-08 -5.55437580e-08 -1.97902864e-07
      -3.28783187e-07 -4.09689250e-07 -4.38994221e-07 -4.49609331e-07
      -4.13087577e-07 -3.08557162e-07 -1.56694696e-07 2.88756965e-08
      2.19049682e-07 3.87415838e-07 5.15697934e-07 5.92342076e-07
      6.32522983e-07 6.53058862e-07 6.57238900e-07 6.41698591e-07
      6.97564360e-07 7.11773055e-07 7.42923532e-07 7.33769753e-07
      7.16047737e-07 6.34145010e-07 4.78352888e-07 2.94846615e-07
      1.11963324e-07 -1.22837003e-08 -7.80712952e-08 -1.23004028e-07
      -9.65966223e-08 -6.24392484e-08 -3.05616226e-08 4.32224851e-08
      1.62024108e-07 2.83687115e-07 4.10200869e-07 5.19860464e-07
      6.18537911e-07 7.07785034e-07 7.56925715e-07 7.21009712e-07
      5.93853599e-07 4.06442638e-07 2.82644777e-07 2.29675493e-07
      2.17462969e-07 2.58568235e-07 3.07886268e-07 3.19980728e-07
      2.63780464e-07 1.46835148e-07 4.26297788e-08 1.36334166e-09
      4.33306901e-08 1.76371870e-07 3.93059679e-07 6.14837916e-07
      8.58217504e-07 1.07778590e-06 1.18524383e-06 1.17957825e-06
      1.10446558e-06 1.00137379e-06 9.23703965e-07 8.58880753e-07
      8.51494178e-07 8.94142374e-07 9.40830319e-07 9.41658527e-07
      -6.53088676e-08 -6.65201227e-08 -6.09746422e-08 -5.01442692e-08
      -6.88636081e-09 9.94898031e-08 2.26780202e-07 4.04671994e-07
      6.02755563e-07 7.67283552e-07 8.30198417e-07 8.19190859e-07
      7.50208301e-07 6.45658645e-07 5.66174663e-07 5.11605776e-07
      4.66715278e-07 4.50112907e-07 4.75763187e-07 5.58920703e-07
      6.44261888e-07 6.84572285e-07 6.45880107e-07 5.54914266e-07
      4.58858949e-07 3.93927365e-07 3.61900675e-07 3.66007413e-07
      4.10724937e-07 5.11227313e-07 6.08445475e-07 6.70571978e-07
      6.79845357e-07 6.13209636e-07 5.02718080e-07 4.01601113e-07
      3.53427112e-07 3.71516904e-07 4.72379583e-07 6.37070912e-07
      8.15893770e-07 9.84315648e-07 1.07792152e-06 1.12299392e-06
      1.13003478e-06 1.08356448e-06 1.01105149e-06 8.95298854e-07
      7.85783641e-07 7.19090679e-07 6.73309955e-07 6.70058057e-07
      -2.43873274e-07 -2.00056363e-07 -8.10225416e-08 1.45693065e-07
      4.45216187e-07 7.76754121e-07 1.07058349e-06 1.26405280e-06
      1.30834292e-06 1.18981268e-06 9.69366283e-07 7.60365197e-07
      5.65171035e-07 4.25985775e-07 3.59045487e-07 3.28982765e-07
      2.85685616e-07 2.38118389e-07 1.71933124e-07 2.73427485e-08
      -2.11055976e-07 -5.16153023e-07 -7.66603819e-07 -8.74271336e-07
      -8.62626166e-07 -7.54973144e-07 -6.04733316e-07 -3.89889152e-07
      -1.15111419e-07 1.93172383e-07 4.89276545e-07 7.67007634e-07
      1.00270893e-06 1.17546301e-06 1.24770440e-06 1.20085053e-06
      1.06926666e-06 8.70461179e-07 6.27336874e-07 4.14102090e-07
      2.26372862e-07 1.16331996e-07 7.58899859e-08 1.06300845e-07
      1.62293944e-07 2.08405027e-07 2.12119375e-07 1.77528122e-07
      1.13552268e-07 1.01447419e-07 7.81093092e-08 7.77678082e-08
      -6.61710553e-09 6.96195741e-08 2.61095693e-07 5.60435012e-07
      8.98934218e-07 1.09503571e-06 1.12354485e-06 1.01760304e-06
      8.12265341e-07 5.53574353e-07 3.24068452e-07 1.18385032e-07
      -2.93586844e-08 -9.00377088e-08 -8.89576341e-08 -2.60446580e-08
      6.12481870e-08 1.52159799e-07 1.99017265e-07 1.25545043e-07
      -2.60980055e-08 -1.99941539e-07 -3.58782671e-07 -5.10731581e-07
      -6.47938634e-07 -7.68187590e-07 -8.67200072e-07 -8.94646803e-07
      -8.09477342e-07 -6.50922686e-07 -4.44031230e-07 -1.85887046e-07
      9.09765916e-08 3.80489638e-07 6.90283571e-07 9.23112566e-07
      1.08473432e-06 9.91460411e-07 6.86273950e-07 3.90194913e-07
      1.94672239e-07 1.32602068e-07 2.32465112e-07 4.38983932e-07
      6.61271429e-07 8.66405685e-07 1.04860067e-06 1.21121036e-06
      1.33904689e-06 1.45609533e-06 1.53410122e-06 1.55383213e-06
      -4.72012118e-07 -4.81078530e-07 -4.96695122e-07 -5.34126343e-07
      -5.99995019e-07 -6.35158642e-07 -6.13523753e-07 -5.39333826e-07
      -4.20874102e-07 -2.57081922e-07 -6.05518196e-08 1.00279024e-07
      1.97693041e-07 2.21994753e-07 1.74484796e-07 1.08243128e-07
      4.58076741e-08 3.08254613e-08 6.25335517e-08 1.28140002e-07
      2.15985310e-07 2.96917960e-07 3.70159484e-07 3.80540712e-07
      3.34885982e-07 2.05237242e-07 1.50648187e-08 -1.86117902e-07
      -3.39844746e-07 -4.37820233e-07 -5.00171382e-07 -5.15335614e-07
      -4.69882110e-07 -3.54767394e-07 -1.42873319e-07 1.39862664e-07
      4.36056325e-07 6.75447438e-07 8.23993275e-07 8.59481361e-07
      7.02637124e-07 5.36035316e-07 4.72336495e-07 5.09977156e-07
      6.19456557e-07 7.71776854e-07 9.90025114e-07 1.21710571e-06
      1.41432099e-06 1.54654435e-06 1.60376487e-06 1.62248784e-06
      -1.09840403e-06 -1.09247162e-06 -1.04186836e-06 -9.64815740e-07
      -8.52110475e-07 -6.97121038e-07 -5.29910324e-07 -3.63568859e-07
      -2.22140187e-07 -7.58050547e-08 1.69822005e-08 5.26597255e-08
      7.92104302e-08 1.03883892e-07 1.50184633e-07 2.48953910e-07
      4.40182163e-07 7.03927640e-07 9.53319670e-07 1.17087984e-06
      1.33811056e-06 1.41029818e-06 1.44145122e-06 1.44203671e-06
      1.38665962e-06 1.27243777e-06 1.11903591e-06 9.41797509e-07
      7.38253220e-07 5.14621604e-07 2.59086306e-07 -2.92912112e-08
      -2.85984754e-07 -4.39556658e-07 -4.46484194e-07 -2.94038216e-07
      -5.56376065e-08 1.96719242e-07 4.24600785e-07 5.96733742e-07
      6.64768322e-07 5.75730667e-07 3.92184489e-07 1.69686075e-07
      -8.82582185e-09 -1.04784498e-07 -1.53505468e-07 -1.29592834e-07
      -4.29900062e-08 5.52125030e-08 1.45347940e-07 1.90917660e-07
      -2.72430725e-07 -2.50150180e-07 -1.57857514e-07 -1.50371715e-08
      1.72522348e-07 3.36027824e-07 4.59137112e-07 5.16170076e-07
      4.92641561e-07 4.17478049e-07 3.00918771e-07 1.78685582e-07
      1.45944881e-07 2.11452146e-07 3.26827603e-07 4.87669070e-07
      7.51887285e-07 1.02563149e-06 1.22046720e-06 1.34390712e-06
      1.41807914e-06 1.47064225e-06 1.51552422e-06 1.56744386e-06
      1.59489605e-06 1.59956517e-06 1.61559512e-06 1.60114882e-06
      1.49635412e-06 1.30881733e-06 1.02364174e-06 6.68514645e-07
      3.28712957e-07 4.03669596e-08 -2.01977215e-07 -3.77355747e-07
      -4.70033285e-07 -4.26140815e-07 -2.38144551e-07 4.20254871e-08
      3.36560504e-07 5.05147966e-07 4.89551667e-07 3.68183862e-07
      1.84680758e-07 -3.67096078e-08 -2.57526068e-07 -4.51920641e-07
      -6.14381520e-07 -7.46927526e-07 -8.29190128e-07 -8.64245351e-07
      -2.72734638e-07 -2.42726344e-07 -2.00005090e-07 -1.20779788e-07
      -5.38830562e-08 5.64402614e-09 5.73662327e-08 1.10215737e-07
      1.80578070e-07 2.21794608e-07 2.44689119e-07 2.83679270e-07
      3.27917235e-07 3.25715604e-07 2.34573733e-07 9.70124319e-08
      -1.11997160e-07 -3.58162509e-07 -5.81031259e-07 -7.08002290e-07
      -7.50443576e-07 -7.35349772e-07 -6.56226405e-07 -5.16366640e-07
      -3.00248672e-07 -1.00901580e-08 3.25562581e-07 5.93335983e-07
      7.31684565e-07 7.54937730e-07 6.68667269e-07 4.57597537e-07
      1.82875667e-07 -1.28996788e-07 -3.78106336e-07 -5.35747176e-07
      -5.94441872e-07 -5.51918731e-07 -4.05170226e-07 -2.09200550e-07
      1.89155180e-08 2.36199568e-07 3.99420998e-07 4.85401529e-07
      5.14632916e-07 4.78195261e-07 4.83038491e-07 4.80845983e-07
      4.67185970e-07 4.58022015e-07 4.57705028e-07 4.37287298e-07
      -1.81512135e-07 -1.53278393e-07 -1.32056286e-07 -8.04404934e-08
      -6.29770938e-08 -4.68519374e-08 -6.46082086e-08 -1.07765011e-07
      -1.58333833e-07 -2.32794250e-07 -3.03311680e-07 -3.15707950e-07
      -3.96876203e-07 -5.58807244e-07 -7.65453194e-07 -9.89803311e-07
      -1.30197225e-06 -1.61442972e-06 -1.84249461e-06 -1.84640248e-06
      -1.77512186e-06 -1.64623646e-06 -1.43212071e-06 -1.20047719e-06
      -9.46698378e-07 -6.00597048e-07 -2.18169419e-07 7.86014240e-08
      2.52384694e-07 2.92836944e-07 2.54576491e-07 2.03628105e-07
      2.25882914e-07 2.72498710e-07 3.20633660e-07 4.20084291e-07
      5.25758026e-07 6.08362029e-07 7.06760659e-07 6.52209053e-07
      5.19735863e-07 4.04646698e-07 3.69421116e-07 3.19476385e-07
      2.72204915e-07 2.82307155e-07 3.05377995e-07 3.11301790e-07
      3.09885877e-07 3.38880540e-07 3.61720197e-07 3.74150744e-07
      9.36493620e-08 7.41356203e-08 4.60703795e-08 -1.17357157e-09
      -7.66452999e-08 -1.99094515e-07 -3.28597707e-07 -4.72406668e-07
      -6.45170189e-07 -8.10562767e-07 -8.97701398e-07 -9.17223645e-07
      -9.76063006e-07 -1.02781394e-06 -1.05555830e-06 -1.12606165e-06
      -1.23789221e-06 -1.36938775e-06 -1.48128800e-06 -1.41263365e-06
      -1.08373501e-06 -7.41840893e-07 -4.68445393e-07 -2.50192642e-07
      -9.42097156e-09 2.99912415e-07 5.20354831e-07 6.68156531e-07
      7.23722167e-07 7.02352907e-07 6.73100487e-07 6.87409852e-07
      7.20835544e-07 7.65882419e-07 8.62931870e-07 1.02783622e-06
      1.01722526e-06 8.70647170e-07 4.94889491e-07 2.38106002e-09
      -3.90612968e-07 -6.43976534e-07 -8.19896741e-07 -9.79871061e-07
      -1.06009861e-06 -9.66943844e-07 -8.47883598e-07 -7.00673922e-07
      -5.33644368e-07 -4.00305794e-07 -2.94399399e-07 -2.38517288e-07
      -5.69195436e-07 -5.69945655e-07 -5.67816357e-07 -5.89336878e-07
      -5.76482307e-07 -5.61274646e-07 -5.32553486e-07 -5.11778751e-07
      -5.09528093e-07 -5.31561000e-07 -5.58137401e-07 -6.26792030e-07
      -6.53895597e-07 -6.32481317e-07 -4.89249373e-07 -1.89808077e-07
      2.23955936e-07 3.89871872e-07 -8.75031247e-08 -5.05198216e-07
      -4.49042233e-07 -2.21126157e-07 -1.01243003e-07 -7.91649697e-08
      -7.18603062e-08 -7.36883976e-08 -6.46563194e-08 1.02782645e-08
      6.20204617e-08 1.54181564e-07 2.14221075e-07 2.59503537e-07
      1.40181584e-07 -1.11087779e-07 -4.74573483e-07 -7.29717613e-07
      -4.47904284e-07 -1.85767220e-07 -2.72390196e-07 -4.43711087e-07
      -5.70212933e-07 -5.83004919e-07 -5.20474316e-07 -3.01922427e-07
      -3.88167791e-08 1.41122882e-07 1.67928405e-07 9.85882664e-08
      -1.82254800e-09 -1.03354168e-07 -1.94470957e-07 -2.22033179e-07
      -4.50579904e-07 -4.32556590e-07 -3.84927830e-07 -3.37043417e-07
      -2.79168773e-07 -1.98158006e-07 -1.42941076e-07 -1.20801062e-07
      -1.53150083e-07 -2.41340530e-07 -3.73581230e-07 -5.38091854e-07
      -5.97990322e-07 -5.55467238e-07 -3.68831252e-07 -4.61944261e-09
      5.38312065e-07 9.47694957e-07 1.25833571e-06 1.40809777e-06
      1.27012095e-06 1.03523359e-06 7.80798530e-07 4.25672340e-07
      -7.79956766e-10 -5.05033427e-07 -8.52200628e-07 -9.38600749e-07
      -7.68603059e-07 -4.82119844e-07 -2.93582616e-07 -2.93373859e-07
      -4.73406317e-07 -7.33807553e-07 -9.92662081e-07 -1.05914125e-06
      -1.00180455e-06 -9.22675042e-07 -6.13966904e-07 -2.08273391e-07
      -1.91168667e-07 -3.14630313e-07 -3.72850423e-07 -3.97910185e-07
      -4.39577605e-07 -5.33745890e-07 -6.02964633e-07 -6.21643437e-07
      -6.20083540e-07 -5.83115650e-07 -5.86676776e-07 -5.92993217e-07
      5.29698355e-07 4.96578423e-07 3.86770836e-07 2.17987804e-07
      -1.42457235e-09 -2.23531487e-07 -4.36598498e-07 -6.28468001e-07
      -7.64304332e-07 -8.36475408e-07 -8.54689858e-07 -8.05952368e-07
      -6.71765633e-07 -4.68343615e-07 -1.84423925e-07 1.76267974e-07
      5.42513362e-07 7.34676519e-07 5.65311439e-07 2.84412579e-07
      -1.30418854e-07 -5.86474982e-07 -9.12108703e-07 -1.23952373e-06
      -1.53541532e-06 -1.60616162e-06 -1.61942876e-06 -1.56786587e-06
      -1.48876654e-06 -1.56608337e-06 -1.78285018e-06 -2.18273203e-06
      -2.64305618e-06 -2.88806064e-06 -2.78415678e-06 -2.30048227e-06
      -1.56168551e-06 -9.20789148e-07 -6.74365083e-07 -5.55170402e-07
      -4.88841920e-07 -4.70888750e-07 -4.10739887e-07 -3.49607689e-07
      -2.84629664e-07 -2.04409687e-07 -1.20486533e-07 -1.98827479e-08
      5.82444351e-08 1.19625767e-07 1.72930342e-07 1.95396581e-07
      2.40574476e-08 1.67419358e-08 -3.31302346e-08 -1.09535520e-07
      -2.23470153e-07 -4.00604819e-07 -6.30187685e-07 -8.70253757e-07
      -1.12161854e-06 -1.30903254e-06 -1.41015414e-06 -1.38707833e-06
      -1.21028927e-06 -8.72374926e-07 -4.99534224e-07 -1.90820927e-07
      -1.06993824e-07 -3.77183142e-07 -8.16395868e-07 -1.13600197e-06
      -1.61952153e-06 -2.04509115e-06 -2.39883843e-06 -2.61423224e-06
      -2.66381653e-06 -2.73581372e-06 -2.78154971e-06 -2.74207696e-06
      -2.71413273e-06 -2.95539712e-06 -3.34077117e-06 -3.63279241e-06
      -3.73782450e-06 -3.47265245e-06 -2.84345083e-06 -2.07346238e-06
      -1.23962502e-06 -6.18893182e-07 -1.67464236e-07 -1.48322972e-08
      -1.73113534e-07 -3.30083481e-07 -4.12017386e-07 -3.95796235e-07
      -3.00011379e-07 -1.28157964e-07 -2.07314699e-08 -5.27188995e-08
      -2.04068996e-07 -4.24323531e-07 -5.76345087e-07 -6.46611397e-07
      -7.73697366e-07 -7.58477370e-07 -7.30882050e-07 -6.95414144e-07
      -6.57560747e-07 -6.45344699e-07 -6.90422951e-07 -8.12548478e-07
      -1.00737134e-06 -1.19688639e-06 -1.29755472e-06 -1.26792179e-06
      -1.09123539e-06 -7.88621094e-07 -4.34975419e-07 -7.38889696e-08
      1.63816708e-07 1.93636055e-07 3.19216191e-08 -3.38637307e-07
      -8.03856665e-07 -1.27075828e-06 -1.71553859e-06 -2.06482923e-06
      -2.29058719e-06 -2.36713936e-06 -2.33632591e-06 -2.23007646e-06
      -2.14375586e-06 -2.24816790e-06 -2.45914407e-06 -2.66159373e-06
      -2.72325133e-06 -2.62205799e-06 -2.35133075e-06 -1.88400418e-06
      -1.28281840e-06 -6.90646345e-07 -4.95400911e-07 -5.41759562e-07
      -7.55008443e-07 -1.03253967e-06 -1.31829927e-06 -1.56198007e-06
      -1.75293769e-06 -1.90663218e-06 -1.98074054e-06 -1.98319731e-06
      -1.92255629e-06 -1.82979556e-06 -1.77572679e-06 -1.77119932e-06
      -5.91323783e-07 -5.61701313e-07 -4.76530914e-07 -3.87691642e-07
      -3.13212951e-07 -2.74215637e-07 -2.46304978e-07 -2.61095607e-07
      -2.57512710e-07 -2.54062570e-07 -1.63433967e-07 4.56539162e-09
      2.34574287e-07 4.70902620e-07 6.98521603e-07 8.16930253e-07
      7.95891765e-07 6.31080127e-07 3.25487179e-07 -1.02125938e-07
      -5.68087671e-07 -1.01264868e-06 -1.37795018e-06 -1.58720218e-06
      -1.67041242e-06 -1.63755840e-06 -1.50242113e-06 -1.31087279e-06
      -1.04456456e-06 -7.85252723e-07 -6.03416254e-07 -5.75979072e-07
      -5.33405000e-07 -5.37139499e-07 -5.30880186e-07 -5.13559996e-07
      -4.97788903e-07 -4.17505845e-07 -3.34365836e-07 -3.06762331e-07
      -3.51345307e-07 -4.81586540e-07 -6.75030265e-07 -8.55550581e-07
      -9.55247742e-07 -9.35769094e-07 -7.84989084e-07 -5.69971803e-07
      -3.25785123e-07 -1.16860079e-07 -1.06217080e-09 3.54694443e-08
      -2.69443092e-07 -2.51462410e-07 -2.04363332e-07 -1.70486288e-07
      -1.44070583e-07 -1.36408062e-07 -1.42662458e-07 -1.37673013e-07
      -1.02138195e-07 -2.46715559e-09 1.32691639e-07 2.56052004e-07
      3.61479294e-07 4.15446323e-07 4.34060752e-07 3.45754955e-07
      2.12053507e-07 7.64743646e-08 -2.18702194e-08 -3.63182160e-08
      5.98147754e-09 5.14330409e-08 6.82458108e-08 1.21280465e-07
      1.63778950e-07 1.92390686e-07 2.19795353e-07 2.80994499e-07
      3.65838417e-07 4.65418907e-07 6.00767464e-07 7.54443249e-07
      8.54341181e-07 8.71727650e-07 7.80504820e-07 6.51523237e-07
      5.50182619e-07 5.00192471e-07 5.18185402e-07 5.66982294e-07
      6.18711795e-07 6.52938581e-07 6.50596121e-07 6.10668621e-07
      5.06181721e-07 4.04876459e-07 3.27651662e-07 2.96030407e-07
      2.87139500e-07 2.75058625e-07 2.73597351e-07 2.74191763e-07
      3.20958236e-07 2.99887290e-07 2.43528319e-07 1.70105281e-07
      1.15391899e-07 9.70487832e-08 1.10829944e-07 1.78600615e-07
      2.40862278e-07 3.39002639e-07 3.67707486e-07 3.06416240e-07
      1.73479833e-07 -1.34243727e-08 -2.39593618e-07 -4.45132571e-07
      -5.18665104e-07 -4.52813225e-07 -2.46587888e-07 8.05639786e-08
      4.94039625e-07 9.37036134e-07 1.33932599e-06 1.62793060e-06
      1.78679750e-06 1.80166217e-06 1.71297370e-06 1.62061042e-06
      1.51930476e-06 1.39320935e-06 1.25841348e-06 1.16963622e-06
      1.08823110e-06 9.87794465e-07 8.20702326e-07 6.32226772e-07
      4.90104412e-07 4.30170672e-07 4.65227203e-07 5.33663410e-07
      5.73922421e-07 6.02619480e-07 6.25772770e-07 6.54914174e-07
      7.18122351e-07 7.82443749e-07 8.52902076e-07 9.06541004e-07
      8.88661759e-07 8.32165028e-07 7.62426453e-07 7.27947452e-07
      -9.31632513e-08 -1.04316129e-07 -1.25738680e-07 -1.14145614e-07
      -1.00656067e-07 -4.92903709e-08 8.98938453e-08 2.70316377e-07
      4.90322577e-07 7.04108174e-07 8.81440087e-07 9.67110054e-07
      9.66861649e-07 9.30266140e-07 9.18901662e-07 9.05045681e-07
      8.75105059e-07 8.23011362e-07 7.56745294e-07 7.01243778e-07
      6.78309732e-07 6.75832155e-07 7.12583187e-07 7.35014680e-07
      7.69279666e-07 8.61017668e-07 1.03080140e-06 1.22707581e-06
      1.38978487e-06 1.48495167e-06 1.47824369e-06 1.39714916e-06
      1.27637441e-06 1.11915313e-06 9.32819546e-07 7.01340753e-07
      3.86643848e-07 -1.17548060e-08 -3.19190093e-07 -4.08392793e-07
      -2.68179349e-07 -2.67519553e-08 2.18383931e-07 4.25351800e-07
      6.04083141e-07 7.62494949e-07 8.82558879e-07 9.16243323e-07
      8.14466546e-07 6.52492474e-07 5.84461930e-07 5.60568026e-07
      2.74733566e-07 2.76633358e-07 2.92978484e-07 3.51121400e-07
      4.24428976e-07 5.18469221e-07 6.06652463e-07 6.87858346e-07
      7.08754783e-07 6.66107780e-07 6.59959767e-07 6.85179202e-07
      7.42857537e-07 8.87396709e-07 9.43507473e-07 1.00022839e-06
      1.06041705e-06 1.08157042e-06 1.08904248e-06 1.09873736e-06
      1.07827111e-06 1.07798405e-06 1.10515373e-06 1.09736163e-06
      1.03276398e-06 8.81272229e-07 7.54744747e-07 6.68370603e-07
      6.04813010e-07 5.31513081e-07 5.45896228e-07 6.52714448e-07
      7.91011189e-07 8.98957865e-07 9.33145316e-07 8.94824097e-07
      8.27266263e-07 6.89855142e-07 4.93151276e-07 2.68848027e-07
      6.49617178e-08 -1.25977408e-07 -1.85222689e-07 -7.04633649e-08
      6.64483366e-08 1.68074891e-07 7.70777788e-08 2.11369038e-08
      2.32330244e-08 4.66545629e-08 9.65047633e-08 1.22856406e-07
      1.01104854e-06 1.02706815e-06 1.06367952e-06 1.13171347e-06
      1.21137896e-06 1.24283588e-06 1.20593597e-06 1.11935651e-06
      9.36514198e-07 6.04659306e-07 2.08507331e-07 -2.12835886e-07
      -5.60853039e-07 -7.21442063e-07 -7.84838960e-07 -7.78614947e-07
      -7.07521394e-07 -5.64501477e-07 -3.62977460e-07 -1.02779481e-07
      1.52488354e-07 3.95628064e-07 5.85894156e-07 6.99368115e-07
      7.07274864e-07 5.74460728e-07 3.76111814e-07 1.86544739e-07
      9.00711470e-08 8.72600410e-08 2.17251440e-07 4.64720358e-07
      7.52713788e-07 9.09040523e-07 8.99987469e-07 7.85880445e-07
      6.12856468e-07 4.36971789e-07 2.83201416e-07 1.45384334e-07
      -1.09859712e-07 -2.50189544e-07 -1.47769853e-07 4.74844448e-08
      1.65560067e-07 -1.15059024e-07 -4.23107537e-07 -5.95732160e-07
      -5.96815426e-07 -5.38791710e-07 -4.61893762e-07 -4.33042885e-07
      -7.56885640e-07 -7.14710097e-07 -5.95122799e-07 -4.12298164e-07
      -1.99301184e-07 -4.85857328e-08 3.57847121e-08 -4.36374670e-09
      -1.34445628e-07 -3.48994860e-07 -7.30048725e-07 -1.15582668e-06
      -1.36935284e-06 -1.44973558e-06 -1.52089842e-06 -1.56388796e-06
      -1.65212532e-06 -1.76941330e-06 -1.87739090e-06 -1.91338904e-06
      -1.80876589e-06 -1.61639400e-06 -1.38730672e-06 -1.10935969e-06
      -8.86552471e-07 -7.69036262e-07 -7.47228000e-07 -7.20845378e-07
      -6.49404001e-07 -5.35280435e-07 -4.28389882e-07 -3.10996967e-07
      -2.18418307e-07 -1.61283680e-07 -1.81918494e-07 -2.86913547e-07
      -4.12749671e-07 -4.96795565e-07 -5.65972471e-07 -6.20963419e-07
      -7.69727990e-07 -8.11672123e-07 -5.64647792e-07 -2.39441448e-07
      4.46337722e-08 1.96839693e-07 2.14181568e-07 1.30830529e-07
      4.01009537e-08 -5.83438098e-09 -2.81843384e-08 -4.01075191e-08
      -1.51831944e-06 -1.50289850e-06 -1.40302018e-06 -1.27067347e-06
      -1.11617669e-06 -9.81138783e-07 -8.66905964e-07 -8.00304917e-07
      -8.20809305e-07 -9.34403033e-07 -1.03452078e-06 -9.49016339e-07
      -6.25661073e-07 -3.27500032e-07 -2.18030863e-07 -3.93000988e-07
      -1.06654034e-06 -2.07749304e-06 -3.00904640e-06 -3.59227261e-06
      -3.73269017e-06 -3.65684036e-06 -3.45253875e-06 -3.11698341e-06
      -2.74796366e-06 -2.37382733e-06 -2.07359676e-06 -1.90728076e-06
      -1.66327038e-06 -1.30138551e-06 -1.01070680e-06 -8.51187281e-07
      -8.94513221e-07 -1.01353851e-06 -1.06456116e-06 -1.01386229e-06
      -8.76831621e-07 -6.96586085e-07 -5.32691331e-07 -4.10315778e-07
      -2.55060570e-07 -4.46373804e-07 -6.29033252e-07 -5.79222501e-07
      -4.41874136e-07 -1.27147118e-07 1.62816505e-07 2.05545206e-07
      -8.09968004e-09 -2.44239203e-07 -4.34178759e-07 -5.07909647e-07
      4.75018055e-07 4.73913786e-07 5.15983515e-07 5.72533281e-07
      6.23886990e-07 6.71801217e-07 7.83488929e-07 9.61801788e-07
      1.14867078e-06 1.38498945e-06 1.61570199e-06 1.64451319e-06
      1.55671785e-06 1.60464151e-06 1.66323184e-06 1.23519862e-06
      -1.78398409e-07 -1.69882389e-06 -2.97269298e-06 -3.65716755e-06
      -3.73403554e-06 -3.57601880e-06 -3.13455257e-06 -2.58223758e-06
      -2.22129870e-06 -1.72709372e-06 -1.23280154e-06 -7.48785965e-07
      -2.32005462e-07 2.58740954e-07 5.58911722e-07 5.56752696e-07
      1.63124852e-07 -4.66730881e-07 -7.79421498e-07 -7.44029592e-07
      -2.86241885e-07 4.02267659e-07 1.17254297e-06 1.77911159e-06
      2.18818809e-06 2.46684158e-06 2.52783070e-06 1.67358598e-06
      7.82303232e-07 1.85367512e-07 -2.29005664e-07 -5.24122981e-07
      -7.10312293e-07 -9.12985058e-07 -1.09049370e-06 -1.13993815e-06
      6.74862918e-07 7.38845017e-07 8.87229078e-07 1.10930239e-06
      1.33048798e-06 1.52113932e-06 1.62564868e-06 1.61156083e-06
      1.56816054e-06 1.62430160e-06 1.59984336e-06 1.37915686e-06
      1.23081361e-06 1.28233614e-06 9.94835318e-07 4.18658487e-07
      -4.84288933e-07 -1.38718872e-06 -2.35343032e-06 -2.92261961e-06
      -2.90515436e-06 -2.33561786e-06 -1.51001188e-06 -5.80201061e-07
      2.71230846e-07 8.90072158e-07 1.26946327e-06 1.63252400e-06
      1.97978443e-06 2.21128653e-06 2.16004560e-06 1.79655649e-06
      1.18744163e-06 4.38328271e-07 -3.02865146e-07 -7.59485772e-07
      -5.91778587e-07 3.48144837e-08 7.94629898e-07 1.48723041e-06
      1.98243015e-06 2.05872516e-06 1.43196678e-06 6.43341991e-07
      -2.89769673e-07 -1.06741288e-06 -1.72542798e-06 -1.82436440e-06
      -1.58850833e-06 -1.30962212e-06 -1.05976801e-06 -9.62766308e-07
      -3.60068867e-07 -2.97985736e-07 -1.79512824e-07 -3.67342281e-08
      4.54624498e-08 6.91393325e-08 -6.73570142e-08 -3.69004169e-07
      -7.85443888e-07 -1.13671535e-06 -1.16990145e-06 -9.22802371e-07
      -5.89599779e-07 -5.73608752e-08 3.64665908e-07 6.74357182e-07
      7.46517742e-07 6.41413749e-07 1.73920029e-07 -1.46081277e-07
      -8.04819038e-08 -1.85480198e-09 2.28901939e-07 7.57554119e-07
      9.58327291e-07 9.06696869e-07 8.27569181e-07 7.41795361e-07
      7.13193572e-07 7.15598276e-07 9.15790906e-07 1.17368381e-06
      1.47467108e-06 1.52094276e-06 1.14127852e-06 5.50465188e-07
      2.07154059e-07 1.98013510e-07 3.83941710e-07 4.69057710e-07
      3.08453082e-07 1.48637213e-07 1.20722632e-08 -4.68216598e-07
      -7.10613222e-07 -1.00051932e-06 -1.11620898e-06 -8.93640731e-07
      -4.83763188e-07 -4.17071462e-08 2.40387863e-07 3.25465379e-07
      -4.73050449e-07 -4.96999121e-07 -5.51292032e-07 -6.59757916e-07
      -8.41114115e-07 -1.08003962e-06 -1.34416518e-06 -1.47985384e-06
      -1.39640008e-06 -1.10706264e-06 -7.07512584e-07 -2.93932032e-07
      3.91919002e-07 9.49435787e-07 1.16808064e-06 1.15108173e-06
      8.99670567e-07 4.86890144e-07 8.33766478e-08 -2.73751652e-07
      -3.53424383e-07 -4.47553191e-07 -5.45460807e-07 -6.68560972e-07
      -7.26352312e-07 -8.47447041e-07 -1.08810821e-06 -1.33186825e-06
      -1.43343095e-06 -1.38968096e-06 -1.15150692e-06 -6.84837460e-07
      1.60597423e-07 8.03657599e-07 1.15479577e-06 1.14754880e-06
      1.30310718e-06 1.69871851e-06 1.63330685e-06 1.34969321e-06
      1.06153539e-06 9.01328747e-07 9.29045825e-07 1.19262245e-06
      1.44543924e-06 1.48716742e-06 1.26420002e-06 1.34357026e-06
      1.61792718e-06 1.89437310e-06 2.01941270e-06 2.02956880e-06
      -2.83646493e-08 -4.14282155e-08 -3.33490675e-08 -7.07729413e-08
      -9.95339988e-08 -1.06394474e-07 -3.41360860e-08 9.66550644e-08
      2.74114427e-07 5.02797946e-07 7.54573080e-07 9.65244567e-07
      9.91545789e-07 7.54001007e-07 2.78626857e-07 -3.55502067e-07
      -1.06840730e-06 -1.78702840e-06 -2.20450897e-06 -2.34394020e-06
      -2.53855660e-06 -2.44112562e-06 -2.01862031e-06 -1.48674644e-06
      -9.18024000e-07 -6.36850075e-07 -7.05295008e-07 -9.61794626e-07
      -1.26291309e-06 -1.68003737e-06 -2.06119762e-06 -2.27317855e-06
      -2.24568066e-06 -1.92305424e-06 -1.43119780e-06 -9.30522958e-07
      -3.52317670e-07 5.02533908e-08 1.64846313e-07 1.21660307e-07
      -2.15745466e-08 -1.79327415e-07 -6.91844306e-08 5.08048572e-07
      1.12273381e-06 1.48104573e-06 1.56024851e-06 1.44534715e-06
      1.17469540e-06 9.31943987e-07 7.89259332e-07 7.40845564e-07
      -5.07305970e-07 -4.55412646e-07 -2.99445759e-07 -8.09431739e-08
      1.76884384e-07 3.84741895e-07 5.17020055e-07 5.75310821e-07
      5.71488386e-07 5.11758174e-07 4.52041718e-07 3.48282470e-07
      1.88692042e-07 -3.96992199e-08 -3.57227805e-07 -8.48162244e-07
      -1.49577204e-06 -2.12298278e-06 -2.57409215e-06 -2.79246387e-06
      -2.74973263e-06 -2.51825236e-06 -1.98839530e-06 -1.28922147e-06
      -6.18806723e-07 -1.48935968e-07 -4.14923704e-08 -2.65399592e-07
      -6.53945790e-07 -1.11177417e-06 -1.61395974e-06 -2.17262800e-06
      -2.70366218e-06 -3.10075620e-06 -3.17214494e-06 -2.95546602e-06
      -2.72010811e-06 -2.45902061e-06 -2.26443422e-06 -2.25096824e-06
      -2.19720596e-06 -1.52745542e-06 -7.80102880e-07 -6.76625120e-08
      5.34713308e-07 8.82868676e-07 9.10517997e-07 7.47128524e-07
      4.00011658e-07 -5.67112011e-08 -3.85974175e-07 -4.97749284e-07
      -1.22434449e-06 -1.14550380e-06 -8.96482277e-07 -5.56829093e-07
      -2.35500451e-07 6.88295714e-08 4.74017469e-07 9.46672060e-07
      1.50595031e-06 1.84024566e-06 1.61651269e-06 1.40659472e-06
      1.09808366e-06 6.10638324e-07 1.11885015e-07 -1.48332518e-07
      -3.35377962e-07 -7.05568652e-07 -1.26886266e-06 -1.76235062e-06
      -1.49983407e-06 -8.42497116e-07 -5.96981010e-07 -4.11562723e-07
      -1.27251454e-07 2.94124902e-07 8.47977788e-07 5.97636301e-07
      6.24723668e-08 -5.07780840e-07 -1.10082533e-06 -1.66848861e-06
      -2.49966797e-06 -2.63673815e-06 -2.73358364e-06 -2.67609607e-06
      -3.08269387e-06 -3.57067734e-06 -3.18676689e-06 -2.63089305e-06
      -1.92272500e-06 -1.37997552e-06 -7.44230192e-07 -1.26479534e-07
      2.38482016e-07 4.05263137e-07 4.80492702e-07 2.89056814e-08
      -3.07123543e-07 -4.90849743e-07 -9.71417307e-07 -1.25111239e-06
      -4.33515623e-08 -9.52186241e-08 -1.58478613e-07 -2.03809790e-07
      -1.57978221e-07 -9.03209525e-08 4.31827019e-08 2.26769032e-07
      3.36244256e-07 3.33240507e-07 1.54833302e-07 -1.18504367e-07
      -5.35759625e-07 -9.37118443e-07 -1.06487539e-06 -1.08395182e-06
      -1.02441209e-06 -9.16727174e-07 -8.23949620e-07 -7.25655582e-07
      -7.38640779e-07 -8.74472846e-07 -9.73505053e-07 -1.00258978e-06
      -1.26594057e-06 -1.57240322e-06 -1.78963182e-06 -1.98954012e-06
      -2.19973685e-06 -2.24583482e-06 -2.11706424e-06 -1.78705693e-06
      -1.42683996e-06 -9.60685384e-07 -6.23514950e-07 -4.71973010e-07
      -4.69602753e-07 -3.28151856e-07 -1.55245758e-07 -3.11035762e-07
      -4.55360578e-07 -4.23268460e-07 -3.28094728e-07 -1.98975798e-07
      2.50459276e-09 2.78324165e-07 5.74542071e-07 7.88665261e-07
      8.85398890e-07 9.35312300e-07 9.09408243e-07 8.83220423e-07
      -2.18591651e-08 4.94088610e-08 -2.20144170e-08 -2.97067206e-08
      3.68290323e-08 5.78469930e-08 6.24242986e-08 1.26400238e-07
      3.15536965e-07 4.10670111e-07 2.88807115e-07 -2.55944563e-08
      -3.43948130e-07 -6.51281596e-07 -8.91564639e-07 -1.09207781e-06
      -1.08526262e-06 -9.27752694e-07 -8.61948308e-07 -7.91303421e-07
      -8.14630823e-07 -8.91903312e-07 -9.48771230e-07 -1.00270643e-06
      -1.35178857e-06 -1.61462731e-06 -1.81627706e-06 -2.02936781e-06
      -2.14299939e-06 -2.06537811e-06 -1.92462562e-06 -1.75441016e-06
      -1.34723768e-06 -9.14974066e-07 -7.12669532e-07 -6.16776049e-07
      -5.62354558e-07 -3.96884303e-07 -2.85419361e-07 -4.47498081e-07
      -5.13734506e-07 -4.40838960e-07 -3.89306734e-07 -3.21033440e-07
      -1.97448671e-07 8.57838955e-08 5.58701458e-07 7.91575246e-07
      7.63141827e-07 7.81741903e-07 8.16343572e-07 8.64565891e-07
      5.29604023e-08 1.39708774e-07 1.18288163e-07 1.01549894e-07
      2.19835101e-07 9.26001746e-08 -1.76582606e-08 -3.84020318e-08
      1.35680850e-07 2.66936183e-07 2.68829069e-07 6.12255349e-08
      -6.95033293e-08 -1.85651515e-07 -4.34508081e-07 -7.80330367e-07
      -8.75899559e-07 -7.75577632e-07 -7.00064504e-07 -7.50048116e-07
      -8.08434777e-07 -9.22734614e-07 -9.50432991e-07 -1.07590074e-06
      -1.51980748e-06 -1.74949730e-06 -1.88378795e-06 -2.16325338e-06
      -2.17288471e-06 -1.94609038e-06 -1.63842844e-06 -1.48879701e-06
      -1.20126083e-06 -8.18964281e-07 -7.62080560e-07 -7.08207892e-07
      -6.07831453e-07 -4.30261139e-07 -4.35676469e-07 -4.41090720e-07
      -4.99754208e-07 -3.56339598e-07 -3.48703850e-07 -3.53012041e-07
      -2.66010346e-07 -6.97835958e-08 4.59962024e-07 5.93482127e-07
      5.52048959e-07 5.93623383e-07 6.30982640e-07 6.90957165e-07
      4.05294003e-07 4.13406951e-07 2.82025439e-07 2.23766591e-07
      3.21623389e-07 1.34126552e-07 -1.20125748e-07 -7.58331709e-08
      9.33790929e-08 1.28047361e-07 2.01041900e-07 1.24429590e-07
      8.11176477e-08 1.52382924e-07 -8.96492907e-08 -3.01847763e-07
      -4.37400416e-07 -4.53483381e-07 -4.94634548e-07 -5.68587836e-07
      -6.29278816e-07 -7.95637334e-07 -8.25646850e-07 -9.46216403e-07
      -1.46256946e-06 -1.73970443e-06 -1.89180514e-06 -2.18289438e-06
      -2.15366185e-06 -1.77129664e-06 -1.25075849e-06 -1.03349350e-06
      -1.03615253e-06 -8.20381388e-07 -5.55694896e-07 -4.30977082e-07
      -4.69414033e-07 -5.24095753e-07 -5.96493123e-07 -4.56529619e-07
      -3.80462694e-07 -2.83286823e-07 -2.91873675e-07 -2.20364299e-07
      -1.33914185e-07 -5.70182337e-08 3.39396877e-07 5.03086312e-07
      4.81020720e-07 5.40817553e-07 5.69817075e-07 6.07415870e-07
      3.00401751e-07 1.46940295e-07 1.35142002e-07 1.90538813e-07
      3.36274411e-07 2.37919210e-07 -7.32926964e-08 -6.57963426e-08
      1.25854442e-07 6.91126516e-08 7.73914834e-08 3.09522505e-08
      6.35751647e-08 1.83592888e-07 7.02556093e-08 6.01057906e-08
      8.47494785e-09 -1.29197957e-07 -2.36460423e-07 -3.45328573e-07
      -4.78799507e-07 -6.30447232e-07 -6.63690287e-07 -6.47471779e-07
      -1.11164070e-06 -1.40470513e-06 -1.62408014e-06 -1.86066120e-06
      -1.71819340e-06 -1.29093314e-06 -8.32686908e-07 -5.84825329e-07
      -7.53021823e-07 -6.39424286e-07 -2.40205281e-07 4.67594035e-08
      -1.04417893e-07 -3.56683131e-07 -4.80263850e-07 -3.65614142e-07
      -2.79888610e-07 -1.91913202e-07 -1.73192817e-07 -1.93862242e-08
      1.99143191e-08 -4.28551772e-08 1.77347431e-07 4.11203615e-07
      5.50324671e-07 6.65749837e-07 6.86368935e-07 6.64730010e-07
      1.17019241e-07 -8.45448085e-08 -5.38692895e-08 7.97448163e-10
      1.31317776e-07 1.99741450e-07 -1.95372998e-08 -3.31950787e-08
      9.59892290e-08 -2.16985629e-08 -1.30980254e-07 -1.55928547e-07
      -3.36589565e-08 7.07298611e-08 9.46491667e-08 2.24619470e-07
      3.26927420e-07 2.72671997e-07 1.03290816e-07 -1.19961825e-07
      -3.58783950e-07 -7.04670413e-07 -9.31988552e-07 -7.80386756e-07
      -9.00909527e-07 -1.04084472e-06 -1.03962282e-06 -1.12840428e-06
      -9.61218689e-07 -5.13238376e-07 -1.84093437e-07 -1.65467171e-07
      -4.63128345e-07 -3.98876921e-07 2.40877913e-08 1.61956748e-07
      -1.17115362e-09 -2.19325941e-07 -1.65283382e-07 -1.14839658e-07
      -1.71355097e-07 -6.82886778e-08 -2.53624255e-09 1.54960105e-07
      1.90385023e-07 -9.29196275e-09 7.28152472e-08 3.28138952e-07
      4.94924109e-07 6.31916862e-07 7.72839371e-07 8.43279850e-07
      -8.12089311e-08 -1.97994254e-07 -1.92861748e-07 -9.55002477e-08
      -7.04215308e-09 1.25609356e-10 -1.15877576e-07 4.71929411e-08
      1.87485014e-07 -1.18830513e-07 -2.27896720e-07 -2.11058989e-07
      -1.07075124e-07 -1.36712988e-08 -9.46637546e-10 1.81799621e-07
      4.71962295e-07 5.71199848e-07 5.31808382e-07 2.43443026e-07
      -1.18578726e-07 -5.88208366e-07 -1.17617469e-06 -1.11777433e-06
      -9.28757572e-07 -8.47341937e-07 -5.91913192e-07 -4.01172542e-07
      -2.19025310e-07 1.70727986e-07 3.52687209e-07 9.58139452e-08
      -1.68332363e-07 -1.70738701e-07 -2.51372185e-08 3.64454387e-08
      -8.61366800e-08 -1.50629774e-07 1.00280033e-07 8.17448509e-08
      -5.72234704e-08 -3.40826176e-08 6.69250539e-08 2.25914746e-07
      3.19835237e-07 1.57819599e-07 5.39605729e-08 2.58205830e-07
      4.18326778e-07 5.73810723e-07 7.81709275e-07 8.27721806e-07
      -3.30309234e-07 -3.00671758e-07 -1.02040005e-07 9.25085928e-08
      9.13250702e-08 -2.33945912e-08 -6.92228852e-08 1.43969544e-07
      2.63020070e-07 -5.66831737e-08 -1.22208803e-07 -1.69684600e-09
      9.33676958e-08 1.29979924e-07 3.16989350e-08 1.59594578e-07
      4.17316102e-07 5.17269541e-07 6.45827413e-07 6.09205017e-07
      1.89515831e-07 -3.67172589e-07 -9.37555853e-07 -1.24814301e-06
      -1.10077985e-06 -7.69321900e-07 -4.47060842e-07 -7.33392769e-09
      2.87910325e-07 3.31863021e-07 3.23781649e-07 2.27118520e-07
      1.01446972e-07 2.15005436e-08 -3.86945898e-09 -5.23960964e-08
      -2.68672096e-07 -1.87741605e-07 3.41735529e-08 7.88835450e-08
      7.69975514e-08 1.07751198e-07 1.00371167e-07 1.97600258e-07
      3.48840700e-07 2.31354832e-07 1.06684034e-07 1.66917076e-07
      2.37052177e-07 2.93497180e-07 4.77828166e-07 6.44654278e-07
      -1.82315389e-07 -1.31023228e-07 7.76232980e-08 3.79552830e-07
      5.08946073e-07 4.28336563e-07 4.27437385e-07 3.37406959e-07
      2.85378746e-07 6.02630408e-08 4.82657327e-08 1.32084722e-07
      1.81553929e-07 3.07022361e-07 2.26011792e-07 7.98406248e-08
      1.08672744e-07 1.01359646e-07 1.74193715e-07 2.96547455e-07
      7.27933980e-08 -1.77880807e-07 -6.23612550e-07 -1.06470054e-06
      -1.07936341e-06 -7.80548476e-07 -4.22817010e-07 -5.34639977e-09
      1.63899614e-07 3.21039479e-08 -4.47617374e-08 2.71617981e-08
      9.11715325e-09 -4.14496384e-08 1.51773449e-09 -1.46419566e-07
      -3.24518197e-07 -2.22132130e-07 -2.29087334e-07 -1.90406070e-07
      1.87535463e-08 1.24018285e-07 1.68163695e-07 1.55964798e-07
      2.83714172e-07 2.71852031e-07 1.77319961e-07 2.43782750e-07
      3.51581946e-07 4.07660934e-07 5.29801014e-07 6.51665573e-07
      4.74488360e-07 3.91097046e-07 4.49059314e-07 5.76351397e-07
      8.02336842e-07 9.02410818e-07 9.59391741e-07 8.02662953e-07
      5.19095124e-07 2.37211310e-07 9.74155014e-08 8.04429874e-08
      1.09868019e-07 3.50302315e-07 3.77395111e-07 1.31811120e-07
      -1.06885722e-07 -3.01088193e-07 -3.69770902e-07 -4.67533567e-07
      -5.96792688e-07 -5.61953129e-07 -7.00407213e-07 -1.04637672e-06
      -1.09229586e-06 -8.42640986e-07 -4.80877134e-07 -1.43349482e-07
      -3.95923649e-08 -1.96640343e-07 -4.17552968e-07 -4.43207682e-07
      -4.21926728e-07 -5.14951637e-07 -4.65870556e-07 -3.13673382e-07
      -2.42252554e-07 -1.21426439e-07 -1.95474797e-07 -2.78543723e-07
      -1.18210636e-07 5.72162655e-08 1.12777229e-07 1.08701798e-07
      1.31868191e-07 2.76597291e-07 2.86432908e-07 2.72407846e-07
      6.63236847e-07 9.02098918e-07 9.32554201e-07 9.49944820e-07
      5.87081502e-07 7.13745521e-07 7.35773085e-07 6.25980874e-07
      7.51954929e-07 9.14525401e-07 1.17102911e-06 1.18695311e-06
      1.04004630e-06 6.05590799e-07 1.33518512e-07 2.31433344e-08
      -9.78120873e-09 3.79521794e-07 5.75152910e-07 3.91293412e-07
      8.71341115e-08 -3.70494917e-07 -7.45724776e-07 -9.25916027e-07
      -1.08957306e-06 -1.01794672e-06 -1.08669269e-06 -1.12702912e-06
      -1.13191891e-06 -9.87922135e-07 -6.01750457e-07 -2.18822763e-07
      -9.09837539e-08 -2.37627447e-07 -5.58456975e-07 -7.74001876e-07
      -8.92187529e-07 -9.64302103e-07 -8.78953301e-07 -4.52796627e-07
      -1.27739156e-07 2.33207640e-08 -1.39130547e-08 -5.88989586e-08
      -2.62721755e-07 5.57574644e-08 2.60166274e-07 3.82380620e-07
      3.96635528e-07 4.54972536e-07 4.79529660e-07 5.21506649e-07
      8.50923527e-07 1.20012328e-06 1.36320875e-06 1.41181965e-06
      4.30242068e-07 4.30862684e-07 4.84989243e-07 4.29543093e-07
      4.20785398e-07 6.62803700e-07 1.02000809e-06 1.13709893e-06
      1.26933605e-06 1.02228546e-06 4.78231186e-07 7.09868218e-08
      1.73040671e-09 3.68308093e-07 8.27852602e-07 8.24914082e-07
      5.63484434e-07 1.46145060e-08 -6.22938842e-07 -8.73855470e-07
      -1.09512951e-06 -1.26086638e-06 -1.33563890e-06 -1.33070159e-06
      -1.08748100e-06 -9.66037078e-07 -7.14813439e-07 -2.87752584e-07
      -4.41681784e-08 -9.89390827e-08 -4.48267116e-07 -7.86231283e-07
      -1.05507024e-06 -1.27182182e-06 -1.10823851e-06 -4.90353102e-07
      7.51069322e-08 3.84966228e-07 4.73845773e-07 3.80331471e-07
      1.20640067e-07 1.61292490e-07 3.96236516e-07 5.57165947e-07
      7.17306193e-07 8.55776932e-07 8.70042072e-07 7.73337263e-07
      7.89022749e-07 9.93863864e-07 1.28463660e-06 1.44160492e-06
      3.95446790e-07 3.06949119e-07 1.99334934e-07 1.84201511e-07
      1.54660128e-07 3.22966571e-07 7.16423131e-07 8.91717377e-07
      1.07050857e-06 9.93204253e-07 8.89225703e-07 4.61957427e-07
      1.80217043e-07 3.36223735e-07 9.91453817e-07 1.30607418e-06
      1.18038542e-06 5.77607636e-07 -1.77629687e-07 -4.69411845e-07
      -7.15376757e-07 -1.12274859e-06 -1.32291404e-06 -1.29969135e-06
      -1.04676451e-06 -8.37928610e-07 -7.00531814e-07 -3.46308752e-07
      3.48677887e-08 1.26660325e-07 -1.26943362e-07 -5.78212280e-07
      -7.01539591e-07 -9.99996928e-07 -9.51262734e-07 -3.75663063e-07
      2.92754066e-07 8.25847962e-07 1.18432581e-06 1.14205318e-06
      7.27629924e-07 3.87981913e-07 4.78088964e-07 4.83447650e-07
      8.18067690e-07 1.13625492e-06 1.23144787e-06 1.01651904e-06
      6.09158178e-07 7.72901956e-07 9.76909405e-07 1.17056618e-06
      3.21664857e-07 4.86677777e-07 3.45055923e-07 3.06336915e-07
      7.68889876e-08 1.68001279e-07 4.93814127e-07 7.37447692e-07
      9.84380677e-07 9.77203626e-07 8.55787903e-07 9.23794857e-07
      7.41994256e-07 7.13790655e-07 1.07139044e-06 1.60413754e-06
      1.71850388e-06 1.16832575e-06 4.48264416e-07 6.57803980e-08
      -1.01961831e-07 -6.36343771e-07 -8.81550079e-07 -8.98832297e-07
      -7.82540326e-07 -6.39481812e-07 -6.21495246e-07 -3.98909179e-07
      1.20704769e-07 3.52397564e-07 2.60109971e-07 -8.03883111e-08
      -2.40664150e-07 -3.86557332e-07 -3.97916011e-07 3.45696058e-08
      5.49617141e-07 1.18337312e-06 1.67937162e-06 1.85824206e-06
      1.48788365e-06 9.61849651e-07 6.75047829e-07 4.49938057e-07
      6.66111475e-07 1.08705001e-06 1.28130637e-06 1.18089031e-06
      7.07178231e-07 5.46425383e-07 5.86845999e-07 6.98073450e-07
      3.08831886e-07 4.48685341e-07 3.94511801e-07 5.61056027e-07
      3.96645618e-07 1.97019858e-07 3.80060158e-07 5.87377599e-07
      7.92729679e-07 9.33443005e-07 8.84384406e-07 8.58077385e-07
      1.05339166e-06 1.16416766e-06 1.22270148e-06 1.55448129e-06
      1.91271715e-06 1.57345085e-06 9.83748009e-07 6.13815246e-07
      4.61147920e-07 -5.09930542e-09 -3.06497697e-07 -3.81372473e-07
      -3.82874532e-07 -4.15011925e-07 -4.59766682e-07 -3.14124890e-07
      2.16537657e-07 5.30039642e-07 5.75722765e-07 3.47551435e-07
      1.37932958e-07 5.78386015e-08 1.73989619e-07 4.83468796e-07
      8.21944411e-07 1.36401979e-06 1.79987035e-06 2.00573572e-06
      1.84434941e-06 1.47982416e-06 1.05563606e-06 6.52103438e-07
      5.79229891e-07 7.78324818e-07 1.06401910e-06 1.12595058e-06
      9.26109976e-07 5.08903213e-07 1.43136603e-07 2.23731675e-07
      5.56203304e-07 6.29390115e-07 4.05936760e-07 4.30410125e-07
      5.36431514e-07 3.32287215e-07 2.81555884e-07 4.62868599e-07
      6.37753033e-07 7.12195288e-07 6.99102031e-07 5.88383955e-07
      9.92502692e-07 1.07587255e-06 8.29942110e-07 9.35214985e-07
      1.27891087e-06 1.50609367e-06 1.22152096e-06 1.00311604e-06
      7.88239220e-07 4.25437662e-07 1.51430527e-07 3.69516222e-08
      -6.48111254e-08 -2.66310423e-07 -3.35627078e-07 -1.84046897e-07
      2.48484298e-07 5.69828217e-07 7.29611543e-07 6.02767045e-07
      3.28502040e-07 2.23282242e-07 2.32431944e-07 5.00497549e-07
      7.57905582e-07 1.20042910e-06 1.47684477e-06 1.56446322e-06
      1.55849170e-06 1.54603083e-06 1.30659453e-06 8.32149283e-07
      4.33423423e-07 3.75516464e-07 6.01573959e-07 7.53594861e-07
      5.96102836e-07 5.34280957e-07 -5.22829104e-08 -1.78987193e-07
      6.25443079e-07 7.01248382e-07 4.66702460e-07 3.49406690e-07
      3.73226385e-07 3.15409835e-07 2.60001087e-07 3.64346448e-07
      4.95427457e-07 5.59413536e-07 5.09232791e-07 4.41783982e-07
      6.23127960e-07 7.10054053e-07 4.18617105e-07 4.19016629e-07
      6.53409472e-07 9.86913278e-07 1.22818142e-06 1.07534447e-06
      7.13569136e-07 4.86618262e-07 3.11855786e-07 2.08031310e-07
      -6.86992365e-08 -3.82797396e-07 -4.34114895e-07 -1.74858158e-07
      1.55608760e-07 3.64186292e-07 6.53548966e-07 7.16662782e-07
      4.48344167e-07 3.22586573e-07 2.36133445e-07 2.65713282e-07
      4.57938427e-07 6.51486289e-07 8.18523063e-07 8.45749810e-07
      8.56855024e-07 1.05182937e-06 1.08433198e-06 8.00691680e-07
      2.30935768e-07 1.10685434e-07 2.80499762e-07 4.59234968e-07
      3.87613682e-07 2.54850534e-07 -8.28745854e-08 -3.53604548e-07
      5.99920213e-07 7.26541202e-07 5.46302715e-07 4.10086358e-07
      3.31130110e-07 2.66016343e-07 2.38559494e-07 2.98265405e-07
      3.77090629e-07 4.02305545e-07 3.03156611e-07 3.36577330e-07
      3.45256410e-07 3.83804633e-07 1.35097565e-07 8.25421509e-08
      1.53558361e-07 5.57965450e-07 8.28257214e-07 6.09394817e-07
      2.88587643e-07 2.90166838e-07 2.23681198e-07 1.47295651e-07
      -1.71219270e-07 -3.92795727e-07 -4.30996295e-07 -1.68943544e-07
      3.60256216e-08 9.95602818e-08 4.01406112e-07 6.16225520e-07
      5.92156653e-07 4.51893243e-07 2.93555217e-07 1.15576505e-07
      1.40897072e-07 1.37123635e-07 1.77436903e-07 1.67899117e-07
      1.68458058e-07 2.74435564e-07 5.03577098e-07 5.01254306e-07
      1.09391600e-07 -7.71240138e-08 1.33461057e-07 3.07295181e-07
      3.03439890e-07 9.44502503e-08 -1.68253166e-07 -2.57185150e-07
      7.31548823e-07 8.33829347e-07 6.69394751e-07 4.23847951e-07
      3.29990627e-07 2.52930676e-07 2.34059215e-07 1.91981044e-07
      2.01056395e-07 2.01261827e-07 1.67154226e-07 2.69525714e-07
      2.18020986e-07 2.36381581e-07 5.00259247e-08 -7.13518986e-08
      -4.67005599e-08 2.15074806e-07 4.43281863e-07 3.78365826e-07
      1.69394838e-07 2.44425792e-07 1.42013619e-07 -1.79566555e-07
      -3.70626282e-07 -3.89533113e-07 -3.21274513e-07 -5.94059699e-08
      5.16359613e-08 -4.14549000e-08 1.63941522e-07 3.76317558e-07
      5.16512159e-07 5.88911860e-07 4.03582703e-07 2.06155491e-07
      9.24857417e-08 -1.23735788e-07 -2.37683224e-07 -2.72710196e-07
      -2.76230566e-07 -1.71003393e-07 -4.18021138e-08 7.04113461e-08
      -3.56953365e-08 -1.51096529e-07 -2.34571651e-08 8.75294006e-08
      1.60168682e-07 2.20404786e-07 1.55017602e-07 1.73040974e-07
      8.70667748e-07 9.50773369e-07 7.90804620e-07 4.35342088e-07
      3.01448068e-07 2.34140728e-07 1.42600541e-07 5.55809621e-08
      3.11616013e-08 -1.28074058e-08 9.41844824e-09 1.89086350e-07
      1.68263114e-07 1.32419430e-07 6.24470289e-08 -1.38678033e-07
      -1.86042058e-07 6.13856841e-08 3.25424679e-07 3.71818629e-07
      2.26135398e-07 1.44738692e-07 -9.15875091e-08 -5.41959309e-07
      -6.94070252e-07 -6.00690328e-07 -4.44943964e-07 -1.09331403e-07
      1.25071239e-07 -1.11501270e-08 9.06345221e-08 2.52189835e-07
      4.42556768e-07 6.10169593e-07 5.20300887e-07 2.36774810e-07
      9.36712752e-08 -1.71834031e-07 -3.75062598e-07 -4.67230876e-07
      -4.05025389e-07 -3.62802723e-07 -3.81104996e-07 -3.18032136e-07
      -2.72875923e-07 -1.86684261e-07 -5.43734835e-08 4.13298515e-08
      4.35830882e-09 3.30770092e-07 5.81645224e-07 6.86819249e-07
      1.05350659e-06 9.77965442e-07 7.89971352e-07 4.23651585e-07
      2.76660501e-07 1.71312919e-07 2.75515912e-08 -9.69632623e-08
      -7.17949860e-08 -1.32073893e-07 -9.21592687e-08 4.79979327e-08
      -1.03465272e-08 3.39466695e-08 6.21306739e-08 -2.54702197e-08
      -1.29538805e-07 7.63729986e-08 3.99008258e-07 5.56100247e-07
      4.90357877e-07 2.39627866e-07 -1.36315066e-07 -5.05988794e-07
      -7.42935583e-07 -7.51184871e-07 -7.13601423e-07 -3.74047715e-07
      3.75598965e-08 7.43759117e-08 1.69518231e-07 2.97572882e-07
      4.93016444e-07 6.46294552e-07 5.91627497e-07 3.68512730e-07
      1.32128207e-07 -7.78784326e-08 -2.18642029e-07 -3.66031713e-07
      -3.80306375e-07 -3.53459228e-07 -4.49367377e-07 -5.22109701e-07
      -4.22507895e-07 -3.06539476e-07 -1.34982571e-07 -8.79379201e-08
      -8.74799184e-08 2.82432694e-07 7.16367651e-07 7.78045262e-07
      1.18763160e-06 1.06759364e-06 8.16120576e-07 5.11592759e-07
      2.73973171e-07 8.33536689e-08 -7.00310139e-08 -1.82532744e-07
      -1.48676122e-07 -1.38207938e-07 -6.27439576e-08 7.95679540e-08
      -5.84915902e-08 -1.55765747e-07 1.22926531e-08 1.21139706e-07
      7.34211127e-08 2.03226705e-07 5.17763112e-07 7.62831064e-07
      8.28352256e-07 5.42150133e-07 6.69761988e-08 -2.92308670e-07
      -5.13635200e-07 -6.31823468e-07 -7.03865680e-07 -4.86606780e-07
      -5.66601024e-08 1.21340349e-07 2.65360967e-07 4.63960021e-07
      6.32318120e-07 6.88910177e-07 6.37515768e-07 4.49556296e-07
      2.03841054e-07 2.49457077e-08 -1.03514388e-07 -3.11816933e-07
      -2.86590847e-07 -2.41111394e-07 -4.01021481e-07 -5.30684929e-07
      -5.23893846e-07 -5.37123128e-07 -4.30710458e-07 -3.62682471e-07
      -2.30952580e-07 3.18967111e-08 2.93358227e-07 2.43073657e-07
      1.18759579e-06 1.07038716e-06 8.17572186e-07 5.08151743e-07
      2.59934097e-07 -3.85462506e-09 -1.42807323e-07 -1.70292239e-07
      -1.69401744e-07 -1.77023693e-07 -1.13059059e-07 6.67133406e-08
      -3.63335140e-08 -1.87548508e-07 -1.34782724e-07 6.52222880e-08
      1.74087376e-07 2.04900545e-07 3.42900051e-07 6.14051430e-07
      7.05246919e-07 5.14064482e-07 2.93933994e-07 3.27769776e-08
      -1.95862881e-07 -3.80105007e-07 -4.85311432e-07 -3.98333412e-07
      -8.25221562e-08 6.74567175e-08 2.25816748e-07 5.57114333e-07
      6.82661664e-07 6.84588770e-07 5.39516805e-07 2.19455870e-07
      5.58719861e-08 3.40969386e-08 -1.08861656e-07 -3.32447570e-07
      -2.71382788e-07 -1.95035099e-07 -3.89993346e-07 -5.25460734e-07
      -5.56101725e-07 -7.00175292e-07 -6.38301060e-07 -5.63149229e-07
      -4.53128052e-07 -2.25649202e-07 -6.15954363e-08 -3.97417530e-08
      1.10046699e-06 1.02655292e-06 8.04648437e-07 4.79530229e-07
      1.69938616e-07 -9.76947021e-08 -1.74157208e-07 -1.27415177e-07
      -8.99515769e-08 -1.29751740e-07 -1.52337947e-07 3.51310021e-08
      1.62397953e-08 -9.69746665e-08 -1.07068161e-07 -4.01104323e-08
      -3.90786390e-08 -8.13669487e-08 -7.77140770e-08 -7.24332239e-09
      8.35598541e-08 -3.47003883e-08 -1.08704681e-08 1.04981730e-07
      1.00482630e-07 -1.06228768e-07 -2.31475468e-07 -2.57773905e-07
      -7.48503837e-08 -2.84069284e-08 6.29106083e-08 3.20962158e-07
      3.41826222e-07 3.26994297e-07 1.70158700e-07 -1.17666126e-07
      -2.68764012e-07 -2.00967477e-07 -1.83267645e-07 -3.42382606e-07
      -3.20417342e-07 -2.30678779e-07 -3.81159680e-07 -5.07160678e-07
      -5.05725609e-07 -6.60896205e-07 -7.16147554e-07 -6.44738748e-07
      -5.34744572e-07 -4.08648788e-07 -2.33787574e-07 -1.54916577e-07
      1.11353779e-06 1.00375780e-06 7.90137335e-07 4.85904138e-07
      1.64642742e-07 -1.43823897e-07 -2.00343337e-07 -1.05081355e-07
      -6.63034641e-08 -9.81094104e-08 -5.74791663e-08 4.59801583e-08
      -5.22244719e-08 -1.26723037e-07 -8.43872172e-08 -1.33835982e-07
      -3.13224007e-07 -4.06317696e-07 -3.95856091e-07 -4.13030193e-07
      -4.15473750e-07 -5.31871478e-07 -4.80684378e-07 -2.48107511e-07
      -4.51368543e-08 1.41215240e-09 2.21924772e-08 -1.30862944e-07
      -1.25169436e-07 -7.96261119e-08 -1.46057701e-07 -1.14626275e-07
      -1.81467968e-07 -2.68790473e-07 -3.19455665e-07 -4.15198997e-07
      -5.28583655e-07 -4.07124247e-07 -3.01027001e-07 -3.26067180e-07
      -2.93021316e-07 -2.39555078e-07 -3.43725475e-07 -3.90947491e-07
      -3.51890520e-07 -4.96062057e-07 -5.74943556e-07 -5.95922018e-07
      -5.00612089e-07 -4.19369229e-07 -2.38702626e-07 -1.37107634e-07
      1.17954278e-06 1.01905528e-06 7.45468697e-07 4.54924248e-07
      1.82232782e-07 -7.18173325e-08 -1.40699868e-07 -6.84011781e-08
      -1.06186597e-07 -1.57732259e-07 -1.10159199e-07 -8.74122392e-08
      -1.90189951e-07 -2.06452881e-07 -2.19565280e-07 -3.13532155e-07
      -4.84953716e-07 -5.45292153e-07 -5.04458797e-07 -4.66204341e-07
      -4.62206600e-07 -6.40507494e-07 -7.50856657e-07 -6.18410866e-07
      -4.37291135e-07 -2.02135752e-07 8.83807658e-08 -2.69751901e-08
      -1.45876427e-07 -1.77725184e-07 -3.31149920e-07 -3.87607002e-07
      -4.23215596e-07 -5.57794635e-07 -7.03477781e-07 -7.79418883e-07
      -7.05373793e-07 -4.90833088e-07 -3.33590435e-07 -2.27013601e-07
      -1.17132686e-07 -5.90145888e-08 -1.64547401e-07 -2.06478262e-07
      -1.93054859e-07 -2.95411837e-07 -4.10926106e-07 -4.77045774e-07
      -3.76679651e-07 -2.24910480e-07 -4.62126408e-08 5.13904901e-08
      1.24549035e-06 1.11408212e-06 7.54701944e-07 4.42128112e-07
      1.81042680e-07 -5.91354841e-08 -7.32343395e-08 4.87474638e-09
      -1.29222713e-07 -2.09669835e-07 -2.00947426e-07 -1.89539236e-07
      -3.34873050e-07 -3.26236915e-07 -3.64343606e-07 -3.23307262e-07
      -3.91760892e-07 -4.74619782e-07 -3.95092428e-07 -1.93313369e-07
      -9.99210883e-08 -2.82529527e-07 -5.82924997e-07 -6.88403361e-07
      -5.30398665e-07 -3.22979190e-07 -1.51494053e-08 -5.25223136e-08
      -1.54620281e-07 -2.98378495e-07 -5.19731714e-07 -6.29369822e-07
      -5.38548818e-07 -4.48059865e-07 -4.84040697e-07 -5.01872364e-07
      -5.20797983e-07 -3.97589048e-07 -2.51108673e-07 -1.38496489e-07
      6.71668019e-08 2.09036855e-07 1.59907088e-07 1.73135732e-07
      1.69355356e-08 -1.24447268e-07 -2.67489725e-07 -3.20134433e-07
      -2.60085500e-07 -2.08038351e-08 2.27979470e-07 2.63845038e-07
      1.28313218e-06 1.17772709e-06 8.13440636e-07 4.71713179e-07
      1.99217595e-07 -2.29645689e-08 -3.48758249e-08 8.24273627e-08
      -6.97249618e-08 -1.65235136e-07 -1.09575787e-07 -2.14283020e-07
      -3.69601253e-07 -4.19787767e-07 -4.69349771e-07 -3.45208917e-07
      -3.05516721e-07 -3.00549800e-07 -1.76781796e-07 1.25616083e-07
      4.60791597e-07 4.69471559e-07 9.02624677e-08 -2.40881178e-07
      -3.06137508e-07 -2.64431549e-07 -1.31427740e-07 -1.57254533e-07
      -2.25542436e-07 -2.69911993e-07 -4.66485233e-07 -7.33654019e-07
      -8.74192949e-07 -8.42500867e-07 -6.49304582e-07 -3.69198290e-07
      -8.40987582e-08 1.84967028e-08 2.00176729e-08 2.57426986e-08
      1.62238535e-07 2.18972147e-07 2.16409987e-07 3.23686379e-07
      1.60864218e-07 2.94373805e-08 -8.35384029e-08 -2.12178833e-07
      -1.87514345e-07 5.98587988e-08 3.73200010e-07 4.00045991e-07
      1.31662807e-06 1.27151156e-06 9.35259379e-07 5.11794383e-07
      2.04048249e-07 2.85465838e-08 3.45850530e-08 1.45742945e-07
      -1.07302247e-08 1.32101929e-08 9.49209777e-08 -4.61206078e-08
      -2.23953649e-07 -3.63010287e-07 -4.02708764e-07 -2.94330817e-07
      -3.44719837e-07 -2.11684807e-07 -2.53753427e-08 2.03189686e-07
      4.70004096e-07 6.45800242e-07 6.40452640e-07 4.66682110e-07
      1.82342959e-07 -3.43272575e-08 -1.22668666e-07 -6.72211797e-08
      -1.46567245e-07 -1.43651789e-07 -1.67066318e-07 -4.46801835e-07
      -7.28284874e-07 -8.88321267e-07 -8.84433689e-07 -6.96506788e-07
      -3.26640844e-07 7.34847239e-10 1.99480027e-07 1.96636293e-07
      2.35184217e-07 1.96762372e-07 7.23696942e-08 2.15145079e-07
      1.37069520e-07 3.39680462e-08 -1.47322572e-08 -1.56805726e-07
      -1.65098470e-07 1.54082649e-08 2.21597730e-07 2.69498088e-07
      1.30788874e-06 1.30344063e-06 1.02529918e-06 5.49171716e-07
      1.77386198e-07 4.51688535e-08 8.58790941e-08 1.06506846e-07
      5.01389898e-08 1.35047799e-07 1.82382450e-07 2.03128735e-07
      -3.17081188e-08 -2.44177585e-07 -3.75777716e-07 -4.16653592e-07
      -4.29557730e-07 -1.97426331e-07 4.65825778e-08 1.22410157e-07
      1.94120517e-07 3.36363797e-07 6.38002234e-07 7.80235041e-07
      4.83100791e-07 2.04880138e-07 4.31016396e-08 1.82405380e-08
      -7.19948758e-08 1.97287608e-08 7.70583739e-08 -2.59021093e-09
      -3.54407547e-07 -6.59544412e-07 -8.10402696e-07 -7.19352670e-07
      -3.69284948e-07 -6.49882637e-08 1.41650830e-07 2.47804650e-07
      4.22408078e-07 3.38019191e-07 1.13767967e-07 9.53678096e-08
      1.50576341e-07 4.11555696e-08 1.50170631e-08 -1.15277629e-07
      -2.09662247e-07 -1.63812516e-07 -6.56256063e-08 -6.78206149e-08
      1.16621879e-06 1.20094603e-06 9.45731188e-07 5.41652071e-07
      1.33084725e-07 -2.71656635e-08 4.43633503e-08 -5.70305270e-09
      -3.33298225e-08 1.44952935e-07 1.85894834e-07 1.76369724e-07
      1.70712212e-07 -7.83243692e-08 -2.79426473e-07 -6.68345479e-07
      -7.24515189e-07 -2.99286313e-07 4.58073650e-08 -5.01814981e-08
      -4.93856191e-08 1.32682018e-07 5.08974608e-07 7.38185292e-07
      6.32606145e-07 3.43561283e-07 1.49372028e-07 6.68667894e-08
      -3.81081549e-08 7.76262326e-08 2.43568735e-07 2.32842211e-07
      -7.86900429e-08 -4.91369519e-07 -9.50109552e-07 -1.06878576e-06
      -8.14093369e-07 -4.26108187e-07 -5.60906983e-08 1.99073440e-07
      4.59819319e-07 4.63736797e-07 3.18163018e-07 2.50524238e-07
      3.52268302e-07 9.91266518e-08 1.72090360e-08 -6.66830715e-08
      -2.03551593e-07 -2.47574405e-07 -2.52163119e-07 -2.84010923e-07
      1.03313994e-06 1.06772848e-06 9.04368449e-07 5.81504821e-07
      1.75582286e-07 -9.63965334e-08 -3.28495631e-08 -8.13831065e-08
      -1.16526209e-07 -8.11978218e-09 3.60812358e-08 1.49005297e-08
      6.94870010e-08 3.40948851e-08 -3.43475961e-07 -8.98251642e-07
      -1.14068007e-06 -8.77637888e-07 -4.25414612e-07 -5.49536594e-07
      -7.24609208e-07 -2.89141070e-07 3.05921958e-07 6.43753879e-07
      6.37952098e-07 4.71736143e-07 2.67995489e-07 1.75952309e-07
      1.24549757e-07 2.05504378e-07 3.75146044e-07 4.31317801e-07
      1.05157682e-07 -5.84911447e-07 -1.42465035e-06 -1.94532413e-06
      -1.89263812e-06 -1.54791098e-06 -1.02610909e-06 -4.90720538e-07
      -6.42904325e-08 2.40433735e-07 3.32385923e-07 3.44182439e-07
      3.87909466e-07 1.22165957e-07 -1.34699548e-07 -1.79482910e-07
      -2.58172690e-07 -3.10553872e-07 -3.35775496e-07 -3.75242820e-07
      1.01431363e-06 9.95290179e-07 8.62807155e-07 6.36725645e-07
      2.98679879e-07 3.76186504e-09 -2.40381297e-08 -9.81109523e-08
      -1.37059459e-07 -3.74600972e-08 -2.58000483e-08 -1.36685443e-07
      -1.64270787e-07 -2.08695866e-07 -5.34746334e-07 -9.20967750e-07
      -1.27296653e-06 -1.41555756e-06 -1.27571309e-06 -1.07259802e-06
      -1.30846706e-06 -9.56929739e-07 -6.99690403e-08 5.01962006e-07
      6.50292748e-07 5.89345518e-07 4.66701181e-07 4.02865396e-07
      2.85279015e-07 2.71873063e-07 3.82739586e-07 3.71795608e-07
      5.57636000e-08 -5.87391185e-07 -1.43776924e-06 -2.13271665e-06
      -2.36968253e-06 -2.25906274e-06 -1.86173861e-06 -1.27399358e-06
      -6.77650235e-07 -3.20380678e-07 -3.17789315e-08 2.22486179e-07
      2.30874093e-07 -3.23216831e-08 -3.03306450e-07 -3.49059860e-07
      -3.64800314e-07 -3.79509629e-07 -3.33909867e-07 -3.69045097e-07
      9.47622311e-07 8.90031345e-07 7.23450000e-07 6.11794633e-07
      3.87041638e-07 1.63704826e-07 1.48806734e-07 3.13622479e-08
      -4.16816803e-08 1.27302940e-07 1.21363712e-07 -1.50409562e-07
      -3.04802882e-07 -5.32136312e-07 -7.33227694e-07 -7.86134365e-07
      -1.12790269e-06 -1.51766903e-06 -1.51557140e-06 -1.32866273e-06
      -1.41552641e-06 -1.37536847e-06 -6.39193047e-07 1.77614339e-07
      6.17397006e-07 7.45610862e-07 6.76225341e-07 5.54653695e-07
      3.93799468e-07 3.12067300e-07 4.36261359e-07 4.24085187e-07
      2.15927898e-07 -2.47758294e-07 -8.56892655e-07 -1.51131258e-06
      -1.96027236e-06 -2.08427559e-06 -1.80626444e-06 -1.32395553e-06
      -9.03799162e-07 -5.89289755e-07 -2.14577256e-07 1.61277143e-07
      9.90325262e-08 -1.25130171e-07 -3.22138618e-07 -4.35224678e-07
      -4.59184520e-07 -4.22936751e-07 -2.96242064e-07 -3.17259634e-07
      7.95547123e-07 7.69501071e-07 5.42954581e-07 4.42126776e-07
      3.53749328e-07 2.76823982e-07 2.77904434e-07 1.21231750e-07
      4.75486885e-08 2.65540621e-07 3.92776087e-07 6.88094701e-08
      -1.34585008e-07 -4.87766215e-07 -9.25944391e-07 -6.77615105e-07
      -6.22314531e-07 -9.73973101e-07 -1.22307233e-06 -9.82614779e-07
      -9.63498451e-07 -1.24162113e-06 -8.70968336e-07 -2.01749245e-07
      3.37104296e-07 6.69059034e-07 8.06540243e-07 6.42106045e-07
      3.89849987e-07 1.77077155e-07 2.67592185e-07 3.20187951e-07
      4.74195730e-07 3.91246942e-07 3.93035613e-08 -6.01533372e-07
      -1.12235193e-06 -1.34626100e-06 -1.25790359e-06 -9.52731341e-07
      -7.44761905e-07 -5.28491512e-07 -2.43975535e-07 7.05996683e-08
      1.88938678e-08 -1.47200382e-07 -2.23671151e-07 -3.43650640e-07
      -3.94941594e-07 -4.02870000e-07 -2.30833649e-07 -1.63719363e-07
      6.85005716e-07 5.91184005e-07 4.44110839e-07 2.77864842e-07
      2.13832280e-07 2.48060132e-07 2.92214679e-07 9.09265481e-08
      1.07145492e-08 2.90791263e-07 5.01556485e-07 4.45503076e-07
      2.11842860e-07 -1.37187769e-07 -6.62981222e-07 -6.26647534e-07
      -2.83292877e-07 -2.69763433e-07 -3.92218794e-07 -3.34042483e-07
      -1.48846468e-07 -4.34996480e-07 -6.35758056e-07 -2.75279973e-07
      2.34880844e-07 5.61954437e-07 7.65698985e-07 7.04813203e-07
      4.70718049e-07 2.46529964e-07 6.40367759e-08 1.24999161e-07
      3.59807586e-07 5.73488080e-07 4.63691265e-07 2.11215720e-08
      -5.19266052e-07 -8.41507131e-07 -8.93815638e-07 -7.82675215e-07
      -7.42135285e-07 -5.05533876e-07 -2.66447216e-07 -1.50916563e-07
      -2.05318344e-07 -2.09077527e-07 -1.56024683e-07 -2.28495239e-07
      -1.80541065e-07 -1.92278563e-07 -1.32655813e-07 -6.45910632e-08
      7.99785198e-07 5.91296157e-07 3.54725188e-07 1.25728661e-07
      3.87385093e-08 1.50045167e-07 2.00935332e-07 6.65563320e-08
      6.58088055e-08 2.49929741e-07 4.20438823e-07 5.22938137e-07
      4.86931242e-07 3.02608839e-07 -1.57264893e-07 -4.71872681e-07
      -2.61058716e-07 -5.48774679e-08 -2.97191729e-08 3.26727907e-08
      2.76627446e-07 1.61793494e-07 -1.53548356e-07 -1.24570761e-07
      2.26332673e-07 5.27462589e-07 7.35269509e-07 7.50287711e-07
      5.98095653e-07 5.10046505e-07 2.88106236e-07 6.58548274e-08
      3.72307909e-07 5.74024057e-07 3.93532844e-07 2.18452612e-07
      -1.71364761e-07 -3.32164461e-07 -4.87724265e-07 -4.66183366e-07
      -3.70619262e-07 -2.14250392e-07 -2.11393171e-07 -3.74126159e-07
      -4.78053551e-07 -4.02412070e-07 -3.01313150e-07 -3.00154312e-07
      -8.79241639e-08 3.63514268e-08 -1.61163705e-08 -5.44962049e-08
      8.00836858e-07 5.13196539e-07 2.06650597e-07 -6.17194829e-08
      -2.11800568e-07 -1.64139507e-07 -1.59483431e-08 2.71224856e-08
      2.37660927e-07 4.07360773e-07 4.53392261e-07 5.05231299e-07
      4.57869390e-07 5.42629834e-07 3.05902546e-07 -8.02634048e-08
      -2.08607077e-07 -1.49928795e-07 8.23287327e-10 9.97863694e-08
      2.64622543e-07 3.08868266e-07 1.58375428e-07 -2.93731905e-09
      -3.26224914e-08 2.12198330e-07 5.79214543e-07 6.62616287e-07
      6.50087827e-07 6.90040110e-07 6.04541128e-07 3.48442683e-07
      4.34028806e-07 4.33021711e-07 1.67999957e-07 3.51445206e-09
      2.28354779e-07 1.61467426e-07 -1.55476570e-07 -1.98941351e-07
      -5.01872925e-08 1.67028844e-07 1.21812548e-07 -1.47869656e-07
      -4.03704007e-07 -4.79475602e-07 -5.04631487e-07 -5.00023305e-07
      -2.36580021e-07 4.10598062e-08 1.23436251e-07 4.10847392e-08
      6.44126885e-07 4.11508864e-07 9.01633115e-08 -2.38052749e-07
      -4.17369051e-07 -4.58674350e-07 -3.48939125e-07 -3.83992180e-08
      2.20336460e-07 4.27981774e-07 4.64758699e-07 4.03534131e-07
      3.21437284e-07 3.17458841e-07 3.82522728e-07 3.33976089e-07
      2.97736982e-08 -1.90667535e-07 -2.03978587e-07 -5.90902971e-08
      2.08546510e-07 3.29186292e-07 1.94480180e-07 -7.71563720e-08
      -3.10800885e-07 -1.93741215e-07 1.88000527e-07 3.93041546e-07
      4.69363670e-07 6.79833022e-07 7.66194319e-07 6.05306184e-07
      5.48259152e-07 4.62854644e-07 1.10265461e-07 -1.76088299e-08
      2.18345079e-07 3.09839891e-07 1.50731942e-08 -1.47953516e-08
      1.29546251e-07 2.54045347e-07 4.20940381e-07 3.41182442e-07
      -2.82097421e-08 -2.67800317e-07 -4.70301785e-07 -6.18742263e-07
      -4.25198863e-07 -4.71054875e-08 1.89844201e-07 1.88793379e-07
      5.14679641e-07 3.56019399e-07 6.34370210e-08 -2.43896409e-07
      -4.97278108e-07 -6.18233571e-07 -4.78886136e-07 -1.80525333e-07
      2.41678553e-08 2.26109563e-07 2.57335074e-07 1.57340864e-07
      9.59935562e-08 7.17423490e-08 2.01012909e-07 4.35079926e-07
      2.97132061e-07 -1.08635156e-07 -3.09473393e-07 -2.06387028e-07
      3.58071195e-09 1.10213001e-07 -8.07483644e-08 -3.10237397e-07
      -4.24372416e-07 -3.74627433e-07 -2.25679671e-07 -1.33918931e-09
      1.38125429e-07 3.76670215e-07 6.11280996e-07 6.20510946e-07
      5.60722810e-07 5.50977347e-07 2.65238498e-07 7.16402653e-08
      1.36769444e-07 1.01178820e-07 3.61615520e-08 2.40737535e-07
      3.50316157e-07 3.51346074e-07 5.33476623e-07 6.58414081e-07
      3.30558123e-07 -5.45291741e-08 -2.24279589e-07 -4.41968837e-07
      -3.54024650e-07 -9.04589754e-08 1.13198752e-07 1.24447681e-07
      4.51520862e-07 3.60053861e-07 4.20605453e-08 -2.32908263e-07
      -4.77728861e-07 -6.57071269e-07 -5.14962778e-07 -2.60522512e-07
      -1.62236475e-07 -3.75316525e-08 4.92640488e-08 2.16182592e-08
      -7.51614593e-08 -2.52417806e-07 -6.24922407e-08 2.69266764e-07
      3.04288136e-07 1.32419629e-07 -2.72427165e-08 -2.99692786e-08
      -2.31570185e-09 2.10742002e-08 -2.27577772e-07 -3.99588117e-07
      -3.69180725e-07 -3.47785942e-07 -3.42146421e-07 -2.55042437e-07
      -2.24159734e-07 -3.87594632e-08 2.86932334e-07 4.39332382e-07
      4.78827701e-07 5.01279544e-07 3.31602337e-07 7.05918950e-08
      -1.09007622e-07 -2.33112004e-07 -2.20565738e-07 1.31725841e-07
      3.52144127e-07 4.50011186e-07 5.83192048e-07 6.79057734e-07
      6.02723048e-07 2.51267096e-07 -2.36186111e-08 -2.51867533e-07
      -2.67669776e-07 -1.50225446e-07 1.03567084e-08 8.33787173e-09
      3.76604874e-07 3.93278413e-07 5.57443300e-08 -2.76629123e-07
      -5.01777549e-07 -6.42696079e-07 -4.51506850e-07 -2.50161747e-07
      -3.71873227e-07 -2.60712966e-07 -7.33445020e-08 8.77959394e-08
      2.19121663e-08 -2.91983980e-07 -2.66633265e-07 1.72391186e-08
      1.87563955e-07 2.30866789e-07 3.54244463e-07 4.18743156e-07
      3.44114511e-07 7.53995550e-08 -2.27327448e-07 -3.09425758e-07
      -2.82808884e-07 -3.37513740e-07 -3.84092232e-07 -2.87010437e-07
      -1.44650059e-07 -1.01975999e-07 -1.86993958e-08 2.51131070e-07
      4.14368174e-07 3.89819149e-07 3.28650202e-07 1.99018729e-07
      -1.24082192e-07 -3.36299138e-07 -3.98297828e-07 -1.52548481e-07
      9.51076871e-08 2.61949481e-07 4.41916455e-07 5.17795741e-07
      4.63997992e-07 2.43233302e-07 -5.41273373e-08 -2.32589855e-07
      -3.23321700e-07 -3.27880542e-07 -1.41081188e-07 -1.04143275e-07
      1.77975380e-07 2.17526562e-07 -1.44625592e-08 -3.23941521e-07
      -4.04714228e-07 -4.63500356e-07 -3.03423036e-07 -1.52366212e-07
      -3.45394938e-07 -3.29166397e-07 -1.22324082e-07 1.50479423e-07
      1.59607694e-07 -6.02116259e-08 -7.04695964e-08 4.72056314e-08
      8.95279086e-08 2.83819247e-07 5.38305301e-07 6.35064396e-07
      6.26981091e-07 4.59924848e-07 4.78403557e-08 -1.72591584e-07
      -2.17960348e-07 -2.30658230e-07 -4.31729575e-07 -5.64741583e-07
      -5.63662525e-07 -5.63971923e-07 -3.47541373e-07 1.32407024e-07
      3.77403865e-07 1.55489730e-07 8.80884556e-08 2.57512198e-07
      1.96231156e-07 -5.18575725e-08 -2.38520812e-07 -3.50710621e-07
      -2.73557760e-07 -1.38451014e-07 4.60230076e-08 1.15239303e-07
      1.16346015e-07 5.87930558e-08 -1.53915877e-07 -2.42500192e-07
      -3.34050554e-07 -3.81802892e-07 -1.77206530e-07 -8.03942015e-08
      -1.27797676e-07 1.12342002e-09 -3.55435823e-08 -1.32176510e-07
      -2.24166584e-07 -2.46206412e-07 -1.48607427e-07 4.73049582e-08
      -3.74530913e-08 -5.54436177e-08 5.45179759e-08 2.48609553e-07
      1.90658128e-07 1.41654937e-07 2.24647366e-07 3.09655462e-07
      2.78532553e-07 4.12002805e-07 6.08028643e-07 5.68195162e-07
      5.79330219e-07 6.83510962e-07 4.41854127e-07 1.65860342e-07
      -8.58840252e-08 -2.98765940e-07 -3.87539558e-07 -5.14134115e-07
      -5.19094385e-07 -5.95685037e-07 -5.00070769e-07 -2.34869020e-07
      5.22951673e-08 -8.06135247e-08 -1.99923562e-07 1.23746503e-07
      3.28287115e-07 3.06648388e-07 2.10220861e-07 -3.12578656e-08
      -1.86222380e-07 -6.56920252e-09 6.48629310e-08 -5.05000628e-08
      -4.43371455e-08 1.08206655e-09 -4.70108006e-08 -5.30731548e-08
      -9.38546378e-08 -1.69648388e-07 -8.72107506e-08 3.44048701e-08
      -1.42662344e-07 -1.14017116e-08 1.10801132e-07 1.41170773e-07
      1.78285884e-08 -1.01208215e-07 -8.42226484e-08 3.63653072e-08
      3.03931301e-07 4.42045803e-07 4.84791713e-07 5.37981748e-07
      4.73446477e-07 2.89096022e-07 3.50645593e-07 4.90967011e-07
      4.55549326e-07 5.69343570e-07 7.23631217e-07 5.31779904e-07
      3.01900798e-07 3.26359242e-07 4.33879848e-07 4.05459417e-07
      1.81733441e-07 -1.12062231e-07 -9.11477613e-08 -3.87578005e-08
      -1.48654621e-07 -2.30308856e-07 -1.65386709e-07 -1.27532431e-07
      -1.70862279e-07 -2.71344845e-07 -1.73164850e-07 1.00056541e-08
      2.46564412e-07 3.19771516e-07 3.79747974e-07 2.91037793e-07
      1.13871025e-07 2.87388673e-07 2.74290670e-07 2.12638056e-07
      1.70249450e-07 2.21585537e-07 3.37794035e-07 4.85953194e-07
      4.00238832e-07 3.13921987e-07 3.01276032e-07 3.47366466e-07
      7.55666250e-08 1.60338075e-07 3.97859793e-07 4.16869199e-07
      1.59066374e-07 -9.12530069e-08 -1.88341104e-07 -3.49941303e-08
      3.75907490e-07 7.58761303e-07 8.51520213e-07 6.99330997e-07
      5.26496819e-07 2.56607109e-07 2.46512286e-07 4.80326321e-07
      5.29469162e-07 5.41913209e-07 6.44267175e-07 5.55238955e-07
      2.08452789e-07 -4.62139766e-08 8.42742978e-08 3.24395216e-07
      2.37252920e-07 -1.33967575e-08 -4.84011338e-08 -4.75004178e-08
      -1.72978986e-07 -1.25829814e-07 -1.63321427e-08 2.23775398e-08
      3.25324692e-08 -9.32996471e-08 -3.64183990e-08 8.15223942e-08
      2.97453198e-07 3.51958505e-07 2.79409107e-07 1.54595014e-07
      1.41099406e-07 3.67021613e-07 4.41061161e-07 4.31126892e-07
      3.78218118e-07 5.68011956e-07 7.83799521e-07 9.73618967e-07
      9.65361778e-07 9.48513843e-07 1.00278692e-06 9.81243147e-07
      2.68317478e-07 3.70334106e-07 5.72067449e-07 7.42249142e-07
      3.61211733e-07 -4.57142342e-08 -2.43091591e-07 -1.15655986e-07
      3.27127680e-07 6.59566524e-07 7.75558647e-07 7.90381307e-07
      5.80149901e-07 2.87748691e-07 1.85645575e-07 3.92575686e-07
      5.93859625e-07 5.46125193e-07 5.77505091e-07 5.95716244e-07
      1.44319714e-07 -2.15995499e-07 -2.13904841e-07 6.76393483e-08
      1.47384824e-07 1.66293475e-07 2.43005132e-07 1.32312437e-07
      -1.11181379e-07 -2.69847476e-07 -2.03218377e-07 -4.11300825e-08
      1.42060671e-07 4.68510741e-08 2.48326804e-09 2.58605525e-07
      5.24074665e-07 4.88586124e-07 3.41040817e-07 4.45039454e-08
      -2.55500936e-07 -8.12869700e-08 3.47935071e-07 5.96582197e-07
      5.60687965e-07 8.24926417e-07 1.11451379e-06 1.24276823e-06
      1.28715533e-06 1.37784139e-06 1.71415832e-06 1.83290365e-06
      2.43989376e-07 3.65138305e-07 5.80202141e-07 7.75900844e-07
      6.01911836e-07 4.25866133e-08 -2.65434124e-07 -1.78162722e-07
      1.59084934e-07 4.22416491e-07 5.91538537e-07 7.40214603e-07
      7.47106469e-07 4.87831528e-07 2.24449906e-07 2.09420335e-07
      2.52760628e-07 2.78013744e-07 3.93275002e-07 5.22624475e-07
      1.69534871e-07 -2.04348495e-07 -2.44959864e-07 -2.42369168e-07
      -1.98025518e-07 8.97960319e-08 4.71107342e-07 4.19729304e-07
      4.65185614e-08 -2.07961449e-07 -3.00519702e-07 -9.20721916e-08
      2.34613069e-07 2.09118753e-07 9.31770785e-08 1.12280304e-07
      4.19564259e-07 4.90725768e-07 3.38949377e-07 5.96018062e-08
      -3.43741704e-07 -5.25733981e-07 -2.12553502e-07 3.32718315e-07
      5.13044881e-07 8.45348723e-07 1.21631706e-06 1.24660130e-06
      1.30331728e-06 1.45784031e-06 1.82696908e-06 2.21376627e-06
      2.13468667e-07 2.66597425e-07 3.66859354e-07 5.97956500e-07
      6.15440456e-07 1.41263115e-07 -2.03021258e-07 -2.64649032e-07
      -1.78892378e-07 5.56562476e-08 3.16037017e-07 5.95362224e-07
      7.73274564e-07 6.92883816e-07 2.94358045e-07 3.31370877e-08
      -4.98893264e-08 -8.95011638e-08 -5.64380862e-08 9.57704245e-08
      -4.11883194e-09 -1.36132002e-07 -1.67754024e-07 -2.40200706e-07
      -3.35622076e-07 -1.75214743e-09 4.14813826e-07 5.08192841e-07
      2.85800610e-07 1.24442522e-07 -1.27196117e-07 -1.57018306e-07
      8.75506316e-08 2.59162562e-07 2.64071105e-07 7.02973537e-08
      2.50661483e-08 1.49884201e-07 2.04248039e-07 7.20917868e-08
      -2.29670320e-07 -4.84332986e-07 -4.71426858e-07 -1.68526554e-07
      1.27433111e-07 6.06216076e-07 1.11188808e-06 1.23640234e-06
      1.20530638e-06 1.31804302e-06 1.56440126e-06 1.93294181e-06
      5.00871465e-07 4.41383179e-07 4.07016557e-07 4.74340851e-07
      5.16240391e-07 2.99219437e-07 -2.09096509e-08 -1.62917900e-07
      -3.49397027e-07 -3.26836783e-07 -1.51743549e-07 2.08334427e-07
      6.74602518e-07 7.36182358e-07 3.91821004e-07 1.06225308e-07
      -4.12051904e-09 -2.15253621e-07 -3.10172680e-07 -1.85646215e-07
      -2.45709856e-07 -1.64846995e-07 -1.88798470e-08 -4.34525944e-08
      -4.33853558e-08 7.18443047e-08 1.68385370e-07 3.20547628e-07
      3.10410741e-07 2.02122536e-07 5.47712062e-08 -2.06210217e-07
      -3.18851363e-07 -4.05398026e-08 3.36495987e-07 2.84921953e-07
      -5.08718401e-08 -3.52016798e-08 2.16781004e-07 2.54653315e-07
      1.84094290e-07 -6.88815334e-08 -2.12431928e-07 -1.51572038e-07
      7.40053778e-08 5.15765521e-07 1.05667539e-06 1.44539626e-06
      1.29435568e-06 1.28578665e-06 1.34494826e-06 1.62849892e-06
      1.02783531e-06 9.11009920e-07 7.64727588e-07 6.44227669e-07
      5.10589132e-07 3.37342158e-07 4.39780869e-08 -9.29248216e-08
      -3.31306552e-07 -5.28419150e-07 -5.58325098e-07 -4.02673749e-07
      1.11386917e-07 4.67567276e-07 3.51843909e-07 2.05847854e-07
      1.21386037e-07 -1.68747960e-07 -4.68777756e-07 -4.85881174e-07
      -5.50883897e-07 -4.03934450e-07 -1.25833523e-07 3.07415533e-08
      -5.71728194e-08 -4.18401047e-09 7.86784593e-09 7.28492324e-08
      7.48904867e-08 1.81192412e-08 -2.67247504e-08 -2.88588240e-07
      -5.52129848e-07 -3.73863458e-07 1.31764040e-07 3.34537020e-07
      1.31548177e-07 1.32630632e-07 3.06762587e-07 2.93056928e-07
      2.43228413e-07 2.76240939e-07 1.95300373e-07 2.17693156e-07
      2.61842587e-07 5.34099115e-07 1.03955142e-06 1.50553331e-06
      1.57503814e-06 1.48590152e-06 1.39304996e-06 1.49335449e-06
      1.28948159e-06 1.22758934e-06 1.09035454e-06 8.88391355e-07
      5.89145941e-07 3.36987284e-07 8.95350638e-08 -3.13159454e-08
      -2.25502390e-07 -3.99670739e-07 -5.36226253e-07 -5.60803926e-07
      -2.86509760e-07 1.73947271e-07 2.23435279e-07 1.94983656e-07
      2.44360706e-07 3.65349031e-08 -4.02525558e-07 -6.50015068e-07
      -7.25083737e-07 -5.58037470e-07 -3.07542479e-07 -1.14895087e-07
      -1.92133143e-07 -9.90156650e-08 -3.43182194e-08 -1.78555082e-09
      -4.30184741e-08 -1.62990673e-07 -2.20401674e-07 -1.94290578e-07
      -4.21810967e-07 -4.53915305e-07 -1.45187016e-07 1.42223882e-07
      1.87655914e-07 2.21005806e-07 3.03717826e-07 2.52603712e-07
      1.32510209e-07 1.57505411e-07 1.10412678e-07 1.69959762e-07
      4.00195347e-07 5.57725571e-07 9.82632400e-07 1.44560852e-06
      1.67482608e-06 1.66133623e-06 1.58377770e-06 1.43759678e-06
      1.89801383e-07 2.10141962e-07 2.60983882e-07 2.72554018e-07
      1.86044304e-07 6.50887415e-08 -6.17705354e-09 -9.67211307e-08
      -1.39517965e-07 -3.74131091e-08 2.92900904e-09 5.02145205e-08
      5.06617965e-08 9.95517535e-09 -7.40071187e-08 -5.80864423e-08
      -4.41943371e-08 -5.55960824e-08 -8.73198900e-08 -1.91104419e-07
      -2.66777477e-07 -2.44366248e-07 -3.36070798e-07 -3.37367652e-07
      -1.89685537e-07 -7.01959046e-10 8.38154151e-08 1.14185916e-07
      -2.07379909e-08 -1.49433163e-07 -1.73090683e-07 -2.19089259e-07
      -3.21363842e-07 -3.55764001e-07 -4.06335516e-07 -4.26370747e-07
      -3.53295718e-07 -4.24442504e-07 -3.86650242e-07 -2.02578306e-07
      -8.05076823e-08 -1.17616594e-07 -1.12898064e-07 -6.41673452e-08
      -6.10948376e-08 -5.87890909e-08 4.15946708e-08 1.87377850e-07
      2.49236933e-07 2.03592691e-07 1.53867205e-07 6.35598667e-08
      2.21144347e-07 1.49258980e-07 1.13744349e-07 3.47991893e-08
      1.38871590e-08 8.47734238e-09 3.98455455e-08 -6.97364086e-08
      -1.44257626e-07 -1.33332350e-07 -6.39397655e-08 -4.65823220e-08
      -4.83468376e-08 6.80337706e-08 8.00386246e-08 3.10304777e-08
      -8.00831579e-09 -1.00862003e-08 3.80024900e-08 2.64783173e-09
      -1.47307475e-07 -2.73464508e-07 -3.02765756e-07 -3.79847336e-07
      -3.66186867e-07 -1.95139535e-07 -6.59967441e-08 -3.58106007e-08
      -2.37197497e-08 -1.30791449e-07 -2.25962992e-07 -2.36401036e-07
      -3.44705427e-07 -4.61732412e-07 -4.56409055e-07 -4.19906428e-07
      -3.45413127e-07 -2.40475714e-07 -2.08568267e-07 -1.22673214e-07
      -3.05044026e-08 2.45088909e-08 -1.00209716e-08 -3.50189246e-08
      -4.20340420e-08 -2.88133037e-08 3.32077725e-08 2.20505626e-07
      2.92826769e-07 2.98464954e-07 2.37548591e-07 1.00253537e-07
      3.63582558e-07 1.50665116e-07 4.65374441e-08 -7.39938955e-08
      -1.56171993e-07 -1.41198228e-07 -6.42645901e-08 -8.09148162e-08
      -1.48267432e-07 -1.45534386e-07 -1.57673298e-07 -1.29045958e-07
      -1.31753978e-07 -3.66110058e-08 1.49363387e-07 1.41070586e-07
      4.53204798e-08 -1.99907682e-08 1.06040918e-08 1.24183799e-07
      7.59196013e-08 -1.26655081e-07 -2.96077189e-07 -3.74211737e-07
      -4.68530430e-07 -4.61092810e-07 -3.16047760e-07 -2.29713365e-07
      -2.19254559e-07 -1.67380179e-07 -2.06037996e-07 -2.28092517e-07
      -3.04140002e-07 -4.20267497e-07 -4.91148967e-07 -4.62409844e-07
      -3.39396536e-07 -1.94493140e-07 -7.21380502e-08 2.54558561e-08
      6.09414883e-08 8.34408169e-08 5.24644008e-08 1.78579285e-08
      -5.38111671e-08 -5.31580007e-08 3.49029206e-09 1.52479046e-07
      2.98371958e-07 3.09484818e-07 2.76886880e-07 1.38009170e-07
      3.88451099e-07 2.22178443e-07 3.78617173e-08 -7.79056464e-08
      -2.12378794e-07 -2.80657048e-07 -1.91435930e-07 -1.31946194e-07
      -1.92823308e-07 -1.67348674e-07 -1.60309270e-07 -1.84185410e-07
      -1.98718610e-07 -1.65954347e-07 2.80837966e-08 1.68949967e-07
      1.55372476e-07 -6.96871005e-09 -1.01914729e-07 -2.29620145e-09
      1.43522584e-07 1.07962151e-07 -1.38455817e-07 -3.41092885e-07
      -4.59311735e-07 -5.91170988e-07 -6.21244794e-07 -5.11335259e-07
      -4.67865078e-07 -4.17486632e-07 -2.36565782e-07 -1.54929936e-07
      -2.22126502e-07 -3.10546056e-07 -4.08030104e-07 -4.57324916e-07
      -3.80887002e-07 -2.06895564e-07 -7.19102999e-08 4.17626218e-08
      9.21089338e-08 1.27096115e-07 4.45272690e-08 1.05381863e-08
      -4.04941645e-08 -1.20858658e-07 -7.87999426e-08 2.46020075e-08
      1.80541932e-07 3.05957400e-07 2.44105792e-07 1.58220487e-07
      8.45931964e-08 1.88756175e-07 8.04679701e-08 -4.03672900e-08
      -1.96165914e-07 -3.24079366e-07 -3.29409914e-07 -2.17480448e-07
      -1.95517430e-07 -2.50909522e-07 -2.13322735e-07 -1.62468126e-07
      -2.27121035e-07 -2.09266346e-07 -6.55934755e-08 7.80628611e-08
      2.03697638e-07 1.48768152e-07 -8.98530530e-08 -1.54946918e-07
      -4.79464539e-08 1.11816078e-07 5.62315030e-08 -2.11354205e-07
      -3.93405116e-07 -5.07739685e-07 -6.49404285e-07 -7.45786735e-07
      -7.31438092e-07 -6.92594256e-07 -5.25085113e-07 -2.04582790e-07
      -9.14724296e-08 -1.55077117e-07 -2.60287550e-07 -3.29343237e-07
      -3.50303310e-07 -2.43568252e-07 -7.46977236e-08 2.12133244e-08
      7.81642200e-08 1.05583233e-07 8.93256384e-08 1.19791057e-08
      -1.90293932e-08 -9.24941617e-08 -2.12591374e-07 -9.44453191e-08
      4.37975949e-08 1.33731959e-07 2.30301310e-07 1.48381773e-07
      -2.30454674e-07 -5.04622122e-08 3.05083492e-09 -5.37214788e-08
      -1.72651681e-07 -3.38232496e-07 -4.18004248e-07 -3.00608832e-07
      -2.21450904e-07 -2.14420751e-07 -2.05204799e-07 -1.55315789e-07
      -1.63801360e-07 -1.85342145e-07 -1.11719210e-07 4.63880205e-08
      1.53607374e-07 2.46441431e-07 9.19252372e-08 -1.33798565e-07
      -2.14864443e-07 -1.10145677e-07 1.96995380e-08 -8.88876528e-08
      -3.32314613e-07 -4.40068561e-07 -4.62591714e-07 -6.44258137e-07
      -7.85638633e-07 -8.32716978e-07 -7.52882670e-07 -4.80398285e-07
      -1.56638777e-07 1.01331041e-08 -4.14702228e-08 -1.69653703e-07
      -2.32236744e-07 -2.00327847e-07 -1.00945165e-07 -1.90371487e-08
      5.91198948e-08 1.11852543e-07 1.04487199e-07 1.04384078e-07
      6.50555521e-08 2.98369187e-08 -1.43514029e-07 -1.90262071e-07
      -1.92979588e-08 2.27611991e-08 4.33669172e-08 1.89213054e-07
      -2.83805576e-07 -2.26600818e-07 -1.67699426e-07 -6.86730814e-08
      -1.70885031e-07 -2.93857852e-07 -4.12313199e-07 -3.48070159e-07
      -1.85699719e-07 -1.31998391e-07 -9.91121070e-08 -2.17057821e-08
      -4.40728165e-08 -1.32699057e-07 -8.83069333e-08 2.83417130e-08
      1.72387445e-07 2.50532395e-07 2.35208432e-07 6.17584703e-08
      -2.27968570e-07 -3.40779906e-07 -2.35078289e-07 -9.61852180e-08
      -2.03989259e-07 -3.74714091e-07 -3.62034314e-07 -3.36841254e-07
      -5.45165790e-07 -7.42048258e-07 -8.18366232e-07 -6.55813949e-07
      -3.87767216e-07 -5.65995784e-08 1.33890097e-07 3.81403673e-08
      -1.19426289e-07 -1.88363416e-07 -1.32480807e-07 -9.13216738e-08
      -1.81779267e-08 8.56668763e-08 1.62703969e-07 2.09222179e-07
      2.39160215e-07 2.40013094e-07 1.36170229e-07 -3.18287618e-08
      -4.12307735e-08 -6.10742319e-08 -1.08233124e-07 -4.72788244e-08
      -8.05822040e-08 -1.89702732e-07 -2.55178207e-07 -1.46409818e-07
      -4.69373234e-08 -1.43874885e-07 -3.34100548e-07 -3.11571625e-07
      -1.76400846e-07 1.22764678e-08 3.89969443e-08 1.75731643e-07
      2.19115975e-07 2.81797696e-08 -5.63967362e-08 -1.26110553e-08
      1.38314491e-07 2.53271651e-07 2.50540864e-07 2.03721683e-07
      -1.34936737e-08 -3.09405124e-07 -4.11720691e-07 -2.38413122e-07
      -8.29811952e-08 -1.61824531e-07 -2.93775571e-07 -2.38205317e-07
      -2.25610364e-07 -4.32987008e-07 -6.76157697e-07 -7.07462675e-07
      -5.27863563e-07 -2.73234036e-07 3.38838788e-08 1.80135331e-07
      4.48350370e-08 -9.44064453e-08 -1.21750844e-07 -9.90194451e-08
      -8.91170799e-08 -1.91367917e-08 1.62588734e-07 3.31332245e-07
      4.02212862e-07 4.24235054e-07 2.93553768e-07 2.24987588e-07
      1.58244490e-07 -5.55781554e-09 -1.89005476e-07 -2.58467850e-07
      2.33421076e-07 -1.00240092e-08 -1.57269881e-07 -2.32473752e-07
      -4.15021333e-08 1.27714310e-08 -1.49138586e-07 -2.48636638e-07
      -1.18198642e-07 6.16551645e-08 1.72293213e-07 2.04397395e-07
      2.94634930e-07 2.26295214e-07 6.77869281e-08 -1.50739830e-08
      3.27040794e-08 1.99733051e-07 2.12560366e-07 1.84378791e-07
      1.50514282e-07 -1.16350847e-07 -3.36441758e-07 -3.75249385e-07
      -1.55919949e-07 -1.88601454e-08 -1.28204420e-07 -2.04264964e-07
