<?xml version="1.0"?>
<opencv_storage>
<my_svm type_id="opencv-ml-svm">
  <svm_type>C_SVC</svm_type>
  <kernel><type>LINEAR</type></kernel>
  <C>1.</C>
  <term_criteria><epsilon>2.2204460492503131e-16</epsilon>
    <iterations>1000000</iterations></term_criteria>
  <var_all>108160</var_all>
  <var_count>108160</var_count>
  <class_count>2</class_count>
  <class_labels type_id="opencv-matrix">
    <rows>1</rows>
    <cols>2</cols>
    <dt>i</dt>
    <data>
      0 1</data></class_labels>
  <sv_total>1</sv_total>
  <support_vectors>
    <_>
      4.98470740e-07 4.16336064e-07 2.17797037e-07 3.42353967e-09
      -2.22804118e-07 -4.21644643e-07 -5.47349146e-07 -6.32168735e-07
      -6.20676929e-07 -5.51274525e-07 -4.10685345e-07 -2.07270460e-07
      2.34804780e-08 1.87011295e-07 4.74415003e-07 7.99283214e-07
      1.09794826e-06 1.31245463e-06 1.37191080e-06 1.33443018e-06
      1.22099584e-06 1.09829784e-06 1.02855313e-06 1.02343870e-06
      1.12768953e-06 1.27294709e-06 1.36453195e-06 1.40703162e-06
      1.33288700e-06 1.15234593e-06 8.27056169e-07 5.60358842e-07
      3.62045938e-07 2.36798940e-07 1.93603668e-07 1.62227479e-07
      1.69703554e-07 1.70869384e-07 1.36274508e-07 2.65572950e-08
      -1.94867951e-07 -4.24622499e-07 -6.36828815e-07 -8.41207395e-07
      -9.91631282e-07 -1.10745452e-06 -1.11664849e-06 -9.31806483e-07
      -6.61200659e-07 -4.31836867e-07 -2.69095978e-07 -2.03603321e-07
      2.64885216e-07 2.52639779e-07 2.16338307e-07 1.35729209e-07
      5.13362366e-08 -5.25952260e-08 -1.48340504e-07 -2.22251188e-07
      -2.84565886e-07 -3.21350171e-07 -3.36047719e-07 -3.51189811e-07
      -3.69764280e-07 -4.06205430e-07 -4.46972194e-07 -3.92557922e-07
      -2.52915669e-07 -1.50568582e-07 -6.42962519e-08 -3.36124124e-08
      -6.53015277e-08 -9.94113449e-08 -1.24350777e-07 -1.18537862e-07
      -6.50468834e-08 1.88399198e-08 1.19449126e-07 2.18359176e-07
      2.84942331e-07 3.17505084e-07 3.13403689e-07 3.09810474e-07
      3.32671391e-07 3.84735102e-07 4.37483777e-07 4.84303428e-07
      4.80757478e-07 4.37983886e-07 3.89006459e-07 3.28740043e-07
      2.38097201e-07 1.27582169e-07 -2.97712202e-08 -1.89094422e-07
      -3.23478446e-07 -4.18185635e-07 -4.35078732e-07 -3.90935014e-07
      -3.22243181e-07 -2.54131152e-07 -2.07154031e-07 -1.95840045e-07
      1.76749694e-07 2.22947193e-07 3.34549412e-07 3.91152071e-07
      3.77277388e-07 2.75123000e-07 1.29382599e-07 -3.84637424e-08
      -2.13402444e-07 -3.68002418e-07 -5.17189335e-07 -6.64785944e-07
      -7.76184777e-07 -8.59249269e-07 -9.04686772e-07 -9.22069262e-07
      -9.05283514e-07 -8.62418858e-07 -7.50853417e-07 -6.72127783e-07
      -6.40408132e-07 -6.39954806e-07 -6.52234121e-07 -6.44454133e-07
      -6.42676298e-07 -6.22528546e-07 -5.59446619e-07 -4.54231639e-07
      -2.97938499e-07 -9.02342521e-08 1.60843058e-07 4.16933858e-07
      6.59015029e-07 9.11864277e-07 1.12257544e-06 1.29402940e-06
      1.37459165e-06 1.37062739e-06 1.28890838e-06 1.16430488e-06
      1.02053116e-06 8.25089728e-07 5.80431674e-07 3.42632688e-07
      1.56263667e-07 6.86251482e-08 6.56409895e-08 1.29334083e-07
      1.78869158e-07 2.43611851e-07 2.79192932e-07 2.95688096e-07
      8.10361087e-07 8.78286698e-07 1.08491702e-06 1.21399012e-06
      1.11395480e-06 9.68610266e-07 7.59102932e-07 4.71939131e-07
      1.58150556e-07 -1.31587740e-07 -3.59525956e-07 -5.02177670e-07
      -5.21870277e-07 -4.60185248e-07 -3.50814503e-07 -2.22864969e-07
      -1.14687460e-07 -5.89734235e-08 -9.43827700e-08 -2.03799971e-07
      -2.24610602e-07 -2.52115768e-07 -2.78950779e-07 -3.00000949e-07
      -3.60381648e-07 -4.09662761e-07 -4.31557311e-07 -3.91959105e-07
      -2.85073185e-07 -1.26774580e-07 9.91709825e-08 3.67060863e-07
      6.49395759e-07 9.76149749e-07 1.33072069e-06 1.56029625e-06
      1.60549223e-06 1.53705548e-06 1.41049077e-06 1.26916768e-06
      1.16270996e-06 1.09652319e-06 9.91202569e-07 8.42297879e-07
      7.20966341e-07 6.98199472e-07 7.43826376e-07 8.22671950e-07
      9.23500238e-07 1.13173689e-06 1.30712249e-06 1.37112033e-06
      1.78672508e-06 1.79214396e-06 1.66813675e-06 1.51097061e-06
      1.56167266e-06 1.58383216e-06 1.42669933e-06 1.06291225e-06
      5.78617801e-07 9.07246687e-08 -2.59478355e-07 -3.99267037e-07
      -3.34077356e-07 -1.20274663e-07 1.89229397e-07 5.58545651e-07
      8.91037530e-07 1.09319706e-06 1.11707982e-06 9.77061291e-07
      6.35223216e-07 3.51388024e-07 2.37720400e-07 1.72087525e-07
      8.80475355e-08 -8.32752267e-09 -1.39606541e-07 -2.50511050e-07
      -3.13201753e-07 -3.21793522e-07 -2.48935009e-07 -7.59329453e-08
      2.09859735e-07 5.21976006e-07 7.82791574e-07 1.00818033e-06
      1.11413794e-06 1.06206699e-06 9.39254733e-07 8.38312872e-07
      8.26257690e-07 8.37427308e-07 8.61708827e-07 8.80511948e-07
      8.35695914e-07 7.29127748e-07 6.43268777e-07 5.87637828e-07
      5.49915796e-07 5.56061480e-07 5.88909359e-07 6.13290808e-07
      2.10415510e-06 2.10133589e-06 2.12134182e-06 2.25180270e-06
      2.53835219e-06 2.64631967e-06 2.34135587e-06 1.82485030e-06
      1.20357004e-06 5.94368885e-07 1.10891548e-07 -1.84406758e-07
      -2.49612668e-07 -9.50249515e-08 1.70577522e-07 4.91972855e-07
      7.98882979e-07 1.03039963e-06 1.13272608e-06 8.87384090e-07
      5.11142275e-07 3.07729550e-07 2.97659057e-07 4.21662406e-07
      5.76667333e-07 6.05220521e-07 5.94054541e-07 5.38368511e-07
      4.47806372e-07 3.47848697e-07 2.96816637e-07 3.83040998e-07
      6.20790729e-07 9.97223765e-07 1.40793861e-06 1.53336975e-06
      1.35496578e-06 1.05095376e-06 7.19204934e-07 4.29022208e-07
      2.30899786e-07 2.29037227e-07 1.81305680e-07 1.54079220e-08
      -1.16623212e-07 -1.94263635e-07 -2.95782996e-07 -4.15893084e-07
      -4.90700813e-07 -4.89492550e-07 -4.37023175e-07 -3.92028426e-07
      2.06000891e-06 2.03504851e-06 2.01057992e-06 1.98839393e-06
      1.87492719e-06 1.70248506e-06 1.40655902e-06 1.00550835e-06
      5.94171581e-07 2.48193402e-07 4.47239970e-08 -3.63217616e-08
      -2.40452795e-08 9.95829481e-08 3.04119595e-07 5.51828009e-07
      7.43302280e-07 8.33238857e-07 8.39651420e-07 5.97403243e-07
      2.28315557e-07 5.25093995e-08 1.85713688e-07 3.98732766e-07
      6.17891601e-07 7.95024448e-07 8.66376865e-07 8.38814515e-07
      7.29025032e-07 6.25988889e-07 5.98203371e-07 6.73459624e-07
      7.88216141e-07 9.78402568e-07 1.02749448e-06 9.83679911e-07
      6.81942481e-07 2.39318439e-07 -1.86133136e-07 -5.54157907e-07
      -8.99260385e-07 -1.15103364e-06 -1.25394820e-06 -1.31584329e-06
      -1.39297424e-06 -1.39228734e-06 -1.39412327e-06 -1.35547873e-06
      -1.23850555e-06 -1.11347970e-06 -9.75748776e-07 -9.31263344e-07
      8.17720945e-07 8.47615354e-07 9.08706852e-07 9.48822276e-07
      9.10543861e-07 7.21078266e-07 4.55946605e-07 2.27229677e-07
      5.32620277e-08 -1.33543567e-08 9.06871911e-09 7.91308921e-08
      1.98742981e-07 3.43965496e-07 4.81338645e-07 5.91251080e-07
      6.55107499e-07 6.69634630e-07 6.86959311e-07 6.44870283e-07
      5.39786356e-07 3.99600424e-07 3.16130979e-07 3.17354051e-07
      3.63437493e-07 4.28572605e-07 5.04901038e-07 5.97892836e-07
      7.16816771e-07 7.63167122e-07 7.60733428e-07 6.99890961e-07
      5.93013965e-07 5.38960194e-07 3.52501047e-07 2.77631518e-08
      -3.30502360e-07 -6.86664578e-07 -9.90806257e-07 -1.21771359e-06
      -1.35430332e-06 -1.38350299e-06 -1.32864182e-06 -1.25112274e-06
      -1.17287072e-06 -1.06399921e-06 -1.00772775e-06 -1.02852641e-06
      -9.62170134e-07 -8.52882636e-07 -7.70115491e-07 -7.55328529e-07
      1.11954046e-06 1.18633818e-06 1.29845091e-06 1.32980483e-06
      1.19903154e-06 8.17601290e-07 3.38205894e-07 -8.65181633e-08
      -3.99093580e-07 -5.22656535e-07 -4.98879842e-07 -3.76144186e-07
      -1.89896852e-07 1.16197345e-08 1.29110120e-07 1.33193410e-07
      4.18746815e-08 -3.72318283e-08 -4.21504502e-08 -2.40693314e-08
      -8.76171029e-08 -2.00646369e-07 -3.34044472e-07 -4.00983907e-07
      -4.10837714e-07 -3.66733190e-07 -2.45996745e-07 -8.15271832e-08
      1.13742153e-07 2.52377106e-07 3.24024569e-07 3.18081391e-07
      2.54162728e-07 1.08901823e-07 -6.26331200e-08 -3.24591241e-07
      -6.34651826e-07 -8.51165112e-07 -8.98727137e-07 -7.54403459e-07
      -4.45058248e-07 -1.72802874e-08 4.66931368e-07 8.90562035e-07
      1.23072255e-06 1.39790473e-06 1.30435853e-06 1.03272180e-06
      7.32303874e-07 5.13140321e-07 3.57541865e-07 3.06534133e-07
      1.26036105e-06 1.21071491e-06 1.00163481e-06 6.42057898e-07
      1.94500146e-07 -2.70956036e-07 -7.02329999e-07 -9.83042810e-07
      -1.09928760e-06 -1.07022311e-06 -9.44541512e-07 -7.52245683e-07
      -5.29251110e-07 -3.47509541e-07 -2.58673481e-07 -2.85380054e-07
      -3.95263214e-07 -5.99642817e-07 -8.30141630e-07 -1.02910906e-06
      -1.10008705e-06 -1.11603970e-06 -1.07388837e-06 -9.45888360e-07
      -7.21863387e-07 -4.49598502e-07 -1.79933465e-07 5.65657459e-08
      2.66629087e-07 4.26525986e-07 4.72213969e-07 4.63410061e-07
      4.68460854e-07 4.58204198e-07 4.07061663e-07 2.46595960e-07
      6.31824406e-08 -9.43079996e-08 -1.91519533e-07 -1.11021208e-07
      1.27663853e-07 5.17004310e-07 1.03732486e-06 1.64718460e-06
      2.20960533e-06 2.57836336e-06 2.73810383e-06 2.76292076e-06
      2.74160993e-06 2.71334420e-06 2.65204380e-06 2.63613902e-06
      4.09864612e-07 3.95942209e-07 3.56354690e-07 2.70578852e-07
      1.52544999e-07 3.52878473e-08 -6.56278232e-08 -1.86811775e-07
      -2.83276364e-07 -3.60145009e-07 -3.75635437e-07 -3.36702129e-07
      -2.42378775e-07 -1.47688297e-07 -1.01613089e-07 -1.33818205e-07
      -1.76657906e-07 -2.08095344e-07 -3.26168816e-07 -4.85325359e-07
      -6.28463113e-07 -7.11247253e-07 -7.32781018e-07 -6.86319765e-07
      -5.65646531e-07 -4.06832839e-07 -2.67202267e-07 -1.55971691e-07
      -4.70248906e-08 6.50962875e-08 1.80249685e-07 2.98389637e-07
      4.15232449e-07 5.61783054e-07 7.45140426e-07 8.72253850e-07
      8.25943744e-07 7.16549096e-07 5.78632353e-07 5.26481870e-07
      5.04837431e-07 5.87820523e-07 8.01747149e-07 1.15629859e-06
      1.59197918e-06 1.89119316e-06 2.05601532e-06 2.15999648e-06
      2.21955497e-06 2.36892242e-06 2.52191126e-06 2.61215450e-06
      1.03969278e-07 1.79707101e-07 4.56310090e-07 8.26728240e-07
      1.09714074e-06 9.96176141e-07 6.88792852e-07 4.54762187e-07
      2.77075003e-07 1.19717143e-07 -4.76179771e-08 -2.09424172e-07
      -2.95357779e-07 -3.18580533e-07 -3.42386159e-07 -2.89776267e-07
      -1.17437459e-07 7.03783201e-08 1.98770778e-07 2.94235434e-07
      2.02006390e-07 -3.23032374e-08 -1.67594820e-07 -2.14412040e-07
      -2.57474426e-07 -3.13941655e-07 -3.32421166e-07 -3.34772267e-07
      -3.22094110e-07 -2.82204184e-07 -1.65819131e-07 2.26835830e-08
      2.99045013e-07 6.50053551e-07 8.61711612e-07 9.27384008e-07
      6.56421435e-07 3.27515920e-07 1.40903120e-08 -2.28387975e-07
      -2.81788033e-07 -1.49768780e-07 3.98737718e-08 2.70995656e-07
      4.74955471e-07 5.18983086e-07 4.29911836e-07 4.01975171e-07
      5.06099866e-07 7.68942982e-07 9.58885380e-07 1.06460629e-06
      1.08339668e-06 1.15386104e-06 1.36602898e-06 1.25998361e-06
      6.94101004e-07 1.98968749e-07 -2.02612327e-07 -3.24766233e-07
      -3.68234993e-07 -4.43187901e-07 -5.38099357e-07 -6.55128247e-07
      -7.06324613e-07 -6.65031848e-07 -6.04284025e-07 -4.51190374e-07
      -1.70590624e-07 9.67578941e-08 4.05600360e-07 6.60426963e-07
      7.75647152e-07 7.46675653e-07 6.26582391e-07 4.83699353e-07
      3.34992421e-07 2.01976050e-07 1.13079281e-07 6.34122728e-08
      2.49000767e-08 -1.09798890e-08 -2.89131101e-08 1.64133294e-08
      2.59558504e-07 4.82728410e-07 6.02854016e-07 5.28625890e-07
      4.13748381e-07 2.44285616e-07 1.40731814e-07 7.88543275e-08
      1.47512836e-07 2.65192199e-07 3.34653947e-07 3.33905575e-07
      2.12426528e-07 3.37028219e-08 -1.82217264e-07 -3.11200580e-07
      -3.30208763e-07 -8.42179162e-08 2.01152716e-07 3.35148883e-07
      1.66079269e-06 1.58419289e-06 1.32316461e-06 9.69382882e-07
      3.77956951e-07 -4.04032252e-10 -1.20178001e-07 -5.67585197e-08
      -8.30879543e-08 -2.05775947e-07 -3.59207434e-07 -4.94461460e-07
      -3.79554308e-07 -9.64203153e-08 2.36894664e-07 5.92588719e-07
      1.00668876e-06 1.29639341e-06 1.33736683e-06 1.28292425e-06
      1.22313986e-06 1.07821950e-06 7.69091400e-07 5.05954461e-07
      2.79151664e-07 1.35159326e-07 4.39673791e-08 2.13453717e-08
      -1.59476610e-08 -3.62282222e-08 4.61356287e-08 2.77316559e-07
      4.89531772e-07 5.96657685e-07 6.06040487e-07 6.28950090e-07
      7.77628884e-07 9.68704057e-07 1.23513894e-06 1.56847250e-06
      1.91746449e-06 2.08665188e-06 2.14004058e-06 2.09452810e-06
      1.89482466e-06 1.54735926e-06 1.11072256e-06 8.19628781e-07
      5.92226229e-07 4.31423388e-07 4.88499495e-07 5.39057680e-07
      6.66667574e-07 6.21522076e-07 5.28279486e-07 4.04716445e-07
      1.91440918e-07 5.83585802e-08 -7.67971926e-08 -4.70738087e-07
      -1.01276339e-06 -1.57841453e-06 -2.02897581e-06 -2.27460259e-06
      -2.24206724e-06 -1.98961197e-06 -1.65091228e-06 -1.31467607e-06
      -9.17319824e-07 -5.23514757e-07 -1.42582152e-07 2.23899960e-07
      5.37441281e-07 7.42773125e-07 6.28800308e-07 4.29003251e-07
      2.46382768e-07 1.04222167e-07 -1.57669184e-08 -8.87815332e-08
      -1.91300273e-07 -2.07972917e-07 -1.68807048e-07 -1.32172687e-07
      -1.53433191e-07 -1.43585268e-07 -2.05118283e-07 -3.99637401e-07
      -5.11327812e-07 -4.42591585e-07 -3.08282154e-07 -3.28458079e-08
      2.41726980e-07 3.59436712e-07 4.67808007e-07 5.53243126e-07
      6.84791985e-07 9.06377522e-07 1.10835629e-06 1.26670875e-06
      1.39148744e-06 1.46255150e-06 1.58595969e-06 1.62460185e-06
      5.64983281e-07 6.25077917e-07 6.79040852e-07 6.81035658e-07
      5.96080781e-07 -5.52772228e-09 -8.58420549e-07 -1.75710329e-06
      -2.54014140e-06 -3.04726905e-06 -3.33393655e-06 -3.48102049e-06
      -3.42805311e-06 -3.21709649e-06 -2.85222950e-06 -2.40712279e-06
      -2.00270006e-06 -1.60497530e-06 -1.19941274e-06 -8.06156379e-07
      -4.57393071e-07 -1.49352147e-07 1.03735424e-07 2.84014391e-07
      3.97282747e-07 4.45265755e-07 4.04457410e-07 2.88936064e-07
      1.93884375e-07 1.48657634e-07 5.37551372e-08 -1.09089420e-07
      -2.43664800e-07 -3.97001060e-07 -6.48274124e-07 -8.73493946e-07
      -1.05644222e-06 -1.19862943e-06 -1.35484629e-06 -1.46665320e-06
      -1.52692132e-06 -1.59747526e-06 -1.51110407e-06 -1.26184739e-06
      -8.72211729e-07 -3.53288499e-07 2.49803549e-07 8.92384207e-07
      1.41242106e-06 1.53083147e-06 1.60508182e-06 1.64414371e-06
      8.17597709e-07 8.76311219e-07 9.49178286e-07 1.03617685e-06
      1.13613703e-06 1.17222748e-06 6.49554522e-07 -1.39089209e-07
      -9.11867403e-07 -1.52956795e-06 -1.91643358e-06 -2.04225557e-06
      -1.92608672e-06 -1.62407480e-06 -1.11710551e-06 -5.27110274e-07
      -5.52407675e-09 3.38966174e-07 4.56880372e-07 3.57602318e-07
      2.91927961e-07 2.73880119e-07 2.82177410e-07 3.00506628e-07
      3.47015913e-07 4.27295390e-07 5.12091788e-07 5.71043245e-07
      6.80819142e-07 7.02196246e-07 6.57677845e-07 5.43494139e-07
      4.10824498e-07 3.05501914e-07 2.55035928e-07 3.38718650e-07
      4.13383134e-07 3.36431526e-07 1.40413476e-07 -2.69627094e-08
      -2.12651159e-07 -3.91688786e-07 -4.67702733e-07 -5.71590817e-07
      -6.18578497e-07 -4.47092873e-07 -3.93620603e-08 2.71864309e-07
      4.31495494e-07 5.75575541e-07 5.61885599e-07 5.40215751e-07
      3.39256275e-07 4.24893983e-07 6.52523170e-07 1.01834382e-06
      1.42038334e-06 1.75849652e-06 1.91525555e-06 1.69432155e-06
      1.22079905e-06 7.48921082e-07 4.38337366e-07 2.25347492e-07
      8.56199591e-08 -5.73467673e-09 -4.16074499e-08 -9.88027438e-08
      -2.47753320e-07 -4.04202098e-07 -4.38077336e-07 -4.42493047e-07
      -4.10795280e-07 -3.33372583e-07 -1.96552250e-07 -6.32895549e-08
      5.88322067e-08 1.62371848e-07 2.58686271e-07 3.55414102e-07
      4.15849286e-07 4.06204833e-07 3.68399213e-07 2.88148271e-07
      1.23464687e-07 -1.14520276e-07 -3.88780933e-07 -4.07543553e-07
      -2.76027720e-07 -6.80447831e-09 2.40227422e-07 3.51321376e-07
      3.88677165e-07 4.01905226e-07 4.53734827e-07 4.93635355e-07
      5.65216055e-07 6.71556677e-07 6.19286141e-07 2.31567995e-07
      -1.84516836e-07 -4.51809001e-07 -5.69057818e-07 -6.19338607e-07
      1.43254283e-07 1.75003109e-07 2.48238393e-07 3.32945859e-07
      4.19259038e-07 5.17234241e-07 6.83068606e-07 8.35648734e-07
      9.83751647e-07 1.00622344e-06 9.79131528e-07 9.18766659e-07
      8.24628444e-07 6.94185530e-07 5.46002923e-07 3.95329323e-07
      2.25420692e-07 1.58469078e-08 -2.38283405e-07 -3.80302566e-07
      -3.20493882e-07 -1.67403826e-07 6.08905237e-09 1.64565051e-07
      2.87278993e-07 3.53849146e-07 3.79846313e-07 3.79408220e-07
      3.08668689e-07 2.54126320e-07 1.80881756e-07 1.21301383e-07
      3.30502914e-08 -7.08704491e-08 -1.92715774e-07 -3.22173264e-07
      -5.15034230e-07 -7.18570504e-07 -9.29031842e-07 -1.01651563e-06
      -9.60469151e-07 -8.41198300e-07 -7.17509522e-07 -6.49970389e-07
      -6.62116008e-07 -6.99644318e-07 -7.48124251e-07 -7.55616441e-07
      -7.21721392e-07 -6.88858904e-07 -6.55618976e-07 -6.62087189e-07
      5.76850198e-07 5.74442140e-07 5.62561979e-07 5.37009726e-07
      4.75423036e-07 3.65946505e-07 2.28788281e-07 2.13870109e-07
      3.50013266e-07 5.01554894e-07 6.35012896e-07 6.87012459e-07
      6.46099124e-07 5.37788083e-07 4.08909131e-07 2.12119716e-07
      1.02766471e-08 -1.36264987e-07 -2.22224614e-07 -2.65497846e-07
      -2.94349547e-07 -2.66949428e-07 -2.08071370e-07 -1.20148300e-07
      -3.96264461e-08 5.34099076e-09 1.21972121e-09 -3.19097424e-08
      -8.67127099e-08 -1.40312906e-07 -1.94220021e-07 -1.81323671e-07
      -1.15131492e-07 2.54801229e-08 1.87295640e-07 3.61956040e-07
      5.38625557e-07 6.87862723e-07 8.13889301e-07 9.62324293e-07
      1.01873695e-06 7.90003185e-07 4.90447178e-07 2.47206259e-07
      7.84546828e-08 -1.79703488e-08 -7.83546312e-08 -1.01067997e-07
      -9.37453066e-08 -3.07947978e-08 5.03748225e-08 7.98398219e-08
      3.55225922e-07 3.15153414e-07 2.23290414e-07 9.72047758e-08
      -4.62854999e-08 -2.00641466e-07 -3.36749167e-07 -4.19081090e-07
      -4.53085988e-07 -4.38691501e-07 -3.69066015e-07 -2.71894436e-07
      -1.62418999e-07 -6.16605078e-08 -4.50207249e-09 -1.89244957e-08
      -7.76115243e-08 -1.70384837e-07 -2.30740426e-07 -2.79271717e-07
      -3.18752427e-07 -2.98360078e-07 -2.32640360e-07 -1.54188484e-07
      -9.04328701e-08 -5.29296003e-08 -4.78543782e-08 -3.97904465e-08
      -5.03500956e-08 -9.21999828e-08 -1.16817375e-07 -1.32410605e-07
      -1.00464476e-07 2.92867455e-08 2.62516551e-07 5.90357558e-07
      9.50006552e-07 1.25396753e-06 1.46043976e-06 1.56657575e-06
      1.52754239e-06 1.33996286e-06 1.09636630e-06 8.66282505e-07
      7.55962333e-07 7.79400409e-07 8.12794326e-07 7.09615108e-07
      5.49503000e-07 3.89365596e-07 2.76780838e-07 2.33171647e-07
      -1.59196944e-07 -1.65521485e-07 -2.03784239e-07 -2.66956448e-07
      -3.32719992e-07 -4.04914459e-07 -4.60988304e-07 -5.02544253e-07
      -5.20473861e-07 -5.03832723e-07 -4.29710724e-07 -2.94580587e-07
      -1.10853954e-07 9.29220292e-08 2.65940798e-07 3.60521256e-07
      4.36653124e-07 4.81436359e-07 5.11398639e-07 5.39669998e-07
      5.96723794e-07 6.82070208e-07 7.45694535e-07 7.67526672e-07
      7.56719032e-07 7.06489971e-07 6.41494637e-07 5.89541571e-07
      5.95031167e-07 6.45602029e-07 7.13672136e-07 7.49491505e-07
      7.58947863e-07 7.19602156e-07 6.60927014e-07 6.08280402e-07
      5.78515653e-07 6.11224607e-07 7.44998204e-07 9.91872184e-07
      1.01910155e-06 9.72832026e-07 9.90602985e-07 9.57472935e-07
      8.90243768e-07 8.54313726e-07 8.35381798e-07 7.51889786e-07
      5.94907362e-07 3.94201692e-07 2.42885847e-07 1.92691417e-07
      -2.15957016e-07 -1.86350093e-07 -1.17724035e-07 -1.11355047e-09
      1.15551984e-07 1.99050817e-07 2.44031952e-07 2.17939927e-07
      1.49422036e-07 7.45943112e-08 2.23291465e-08 3.03533199e-08
      1.10899535e-07 2.49886682e-07 3.77516102e-07 4.50369186e-07
      5.08500932e-07 6.10483141e-07 7.24309928e-07 8.28813540e-07
      9.26615542e-07 9.82840106e-07 9.76616889e-07 9.47756746e-07
      8.71604925e-07 7.75915282e-07 6.89958767e-07 6.08834853e-07
      5.99018790e-07 6.51175583e-07 7.02743932e-07 7.86952057e-07
      8.53580786e-07 8.58542478e-07 7.52823780e-07 5.72495594e-07
      3.99110519e-07 3.08873325e-07 2.78820607e-07 3.14317305e-07
      3.89151126e-07 5.05671039e-07 7.09698497e-07 1.05230708e-06
      1.45823935e-06 1.76829144e-06 1.85393424e-06 1.80111601e-06
      1.65756376e-06 1.48351853e-06 1.36287520e-06 1.33579113e-06
      1.51371140e-07 1.63525343e-07 2.31160598e-07 3.44850747e-07
      4.74028127e-07 6.09607753e-07 7.27860083e-07 7.88599948e-07
      8.28699399e-07 7.98673170e-07 7.20949913e-07 6.38819529e-07
      5.72331373e-07 5.62043624e-07 6.01157979e-07 6.19696607e-07
      5.93026925e-07 5.43685360e-07 4.39812112e-07 3.26370923e-07
      2.30359547e-07 1.66475019e-07 2.07816512e-07 2.94749270e-07
      3.82376157e-07 4.51381624e-07 4.44287821e-07 3.71594098e-07
      2.41708477e-07 1.02078985e-07 -1.11821885e-08 -5.24271258e-08
      -1.19287149e-08 1.47489402e-07 3.75370092e-07 6.13434167e-07
      8.24958761e-07 9.70739165e-07 1.02422507e-06 9.80314667e-07
      8.97280245e-07 7.98357405e-07 6.86372971e-07 6.16542707e-07
      6.45766079e-07 7.45401451e-07 9.52032565e-07 1.21042785e-06
      1.46338027e-06 1.65576796e-06 1.77010361e-06 1.80486052e-06
      -5.54024560e-08 -2.19718626e-08 7.82410012e-08 2.09233022e-07
      3.73972853e-07 5.46930778e-07 6.73481395e-07 7.47524552e-07
      7.49756111e-07 6.81557822e-07 5.72875422e-07 4.33906280e-07
      3.15208183e-07 2.23250581e-07 1.41316804e-07 6.28422256e-08
      -7.91427812e-09 -1.05668022e-07 -1.82297086e-07 -1.84662682e-07
      -9.94586600e-08 8.33555802e-08 3.04628145e-07 5.32004321e-07
      7.61109618e-07 9.54334837e-07 1.06406355e-06 1.09344683e-06
      1.01301453e-06 8.18345029e-07 5.92358788e-07 3.04085034e-07
      1.20679715e-08 -2.05349167e-07 -2.82996950e-07 -2.02309124e-07
      -4.09411349e-08 1.36794824e-07 2.95025927e-07 3.97354910e-07
      4.18464111e-07 3.66739357e-07 2.36639352e-07 1.39331519e-07
      1.12249296e-07 1.33931650e-07 2.22868749e-07 3.55387641e-07
      5.13158909e-07 6.81668268e-07 7.92465755e-07 8.24300116e-07
      2.14572054e-07 2.28929864e-07 2.72403838e-07 3.28837558e-07
      3.78095194e-07 4.14088959e-07 4.09624960e-07 4.03623886e-07
      3.59008567e-07 3.00710070e-07 2.06067725e-07 8.13801861e-08
      -4.97252373e-08 -1.94182121e-07 -3.17799362e-07 -4.14701844e-07
      -4.31211788e-07 -3.76887755e-07 -2.40389625e-07 -3.74173510e-08
      2.02120589e-07 4.76150348e-07 7.41485565e-07 9.83322934e-07
      1.16507476e-06 1.29432624e-06 1.37521488e-06 1.38755320e-06
      1.35767118e-06 1.28562669e-06 1.15941339e-06 9.74572686e-07
      7.01916008e-07 3.48684551e-07 -1.88383300e-08 -3.22191113e-07
      -5.08341145e-07 -5.56244174e-07 -5.10825657e-07 -4.12758283e-07
      -3.13121404e-07 -2.45656025e-07 -2.11197388e-07 -2.22314142e-07
      -2.65388195e-07 -3.01601204e-07 -2.96696442e-07 -2.42606490e-07
      -1.70814417e-07 -9.84610296e-08 -4.94463919e-08 -3.68666591e-08
      1.01901423e-06 9.80366394e-07 8.93596223e-07 7.69226801e-07
      6.26627127e-07 4.81440225e-07 3.75512428e-07 3.17030953e-07
      2.67113791e-07 2.22833549e-07 1.84154842e-07 1.43784263e-07
      4.83088911e-08 -4.63487346e-08 -1.36139192e-07 -1.98710339e-07
      -2.33460540e-07 -2.26310519e-07 -1.46912740e-07 3.93715212e-08
      2.82647136e-07 4.82391897e-07 6.33193849e-07 7.61241324e-07
      8.33409899e-07 8.57268503e-07 8.14639179e-07 7.55790268e-07
      6.80975631e-07 6.37064488e-07 6.10007760e-07 6.00987278e-07
      6.14171597e-07 5.95448114e-07 4.93242624e-07 2.81973598e-07
      4.40104095e-08 -1.53703411e-07 -2.85043370e-07 -3.43956913e-07
      -3.56423328e-07 -3.73110709e-07 -4.20333777e-07 -4.56678094e-07
      -5.07181483e-07 -5.39349799e-07 -5.68463861e-07 -5.56794589e-07
      -5.05363346e-07 -4.68344382e-07 -4.23951661e-07 -3.98020291e-07
      2.37943311e-07 1.96018064e-07 8.74607053e-08 -7.08821233e-08
      -2.47165502e-07 -4.08873603e-07 -5.42924738e-07 -6.43967553e-07
      -7.10135680e-07 -7.51084428e-07 -7.71423117e-07 -7.85837244e-07
      -7.79146660e-07 -7.19113132e-07 -6.25922894e-07 -4.97554254e-07
      -3.51004104e-07 -1.78716519e-07 1.85615665e-08 1.89284393e-07
      3.30095247e-07 4.17125079e-07 4.42649622e-07 4.03168940e-07
      3.53414435e-07 3.00653198e-07 2.60642338e-07 2.52982602e-07
      2.37072342e-07 2.67569305e-07 3.82453834e-07 5.12999350e-07
      6.34338051e-07 7.42909094e-07 8.06774892e-07 8.03034709e-07
      7.83904795e-07 7.39418113e-07 6.46564274e-07 5.26469421e-07
      4.39361344e-07 4.00545446e-07 3.59980618e-07 3.34681317e-07
      3.68988253e-07 4.18565719e-07 5.04900868e-07 6.18679394e-07
      7.54769246e-07 8.85088184e-07 9.82931169e-07 1.02061654e-06
      -5.25897519e-07 -5.42181624e-07 -6.21638662e-07 -7.13681970e-07
      -7.95243977e-07 -8.47500246e-07 -8.60864645e-07 -8.47192837e-07
      -7.95317533e-07 -7.02409238e-07 -5.96761311e-07 -4.80987637e-07
      -3.13401017e-07 -1.87965981e-07 -5.74543293e-08 1.37115748e-07
      3.11436338e-07 4.96284770e-07 7.05367881e-07 8.80494781e-07
      9.57495672e-07 8.97358063e-07 7.62328568e-07 5.88489513e-07
      4.30776197e-07 2.76477039e-07 1.83483081e-07 1.31294598e-07
      1.22972281e-07 1.60411389e-07 2.97816712e-07 4.94731751e-07
      6.86184080e-07 8.78814490e-07 9.85463203e-07 9.62225158e-07
      9.03420244e-07 8.63105527e-07 8.73405270e-07 8.80291964e-07
      8.41025610e-07 8.10109100e-07 8.22682637e-07 8.10721190e-07
      8.07589629e-07 8.17531713e-07 8.36168226e-07 8.43703674e-07
      8.60289845e-07 8.99214285e-07 9.13377505e-07 9.03934904e-07
      3.58212759e-07 3.36428201e-07 2.62420400e-07 1.57755409e-07
      8.84219631e-08 4.88463385e-08 9.13166076e-08 1.82528893e-07
      3.39844689e-07 5.38713039e-07 7.05775392e-07 7.80927280e-07
      8.16334762e-07 7.87225588e-07 8.12407734e-07 8.16450267e-07
      8.37913319e-07 9.24596804e-07 1.07265498e-06 1.21451251e-06
      1.29519663e-06 1.24204064e-06 1.06102789e-06 8.03716773e-07
      5.51783955e-07 3.40918234e-07 2.35827130e-07 2.02349710e-07
      2.87689261e-07 4.21976125e-07 5.86680869e-07 8.11442021e-07
      9.79905508e-07 1.03585307e-06 9.21282322e-07 6.80373148e-07
      4.14548111e-07 2.25281198e-07 1.76777036e-07 2.90584694e-07
      4.06232800e-07 4.82846872e-07 5.36703851e-07 5.34908395e-07
      4.15066296e-07 2.85350239e-07 1.41199848e-07 1.39730738e-09
      -1.28842188e-07 -2.24942156e-07 -2.97452345e-07 -3.15037084e-07
      -1.58850270e-07 -1.80251391e-07 -1.87860181e-07 -1.33005727e-07
      -1.94761309e-08 1.41216375e-07 3.52139949e-07 6.04082800e-07
      8.32510977e-07 9.81070002e-07 1.02481135e-06 9.55242967e-07
      7.99895645e-07 6.59025034e-07 5.04165882e-07 3.15226799e-07
      2.06436241e-07 1.83889043e-07 2.90053265e-07 5.01164550e-07
      7.64244248e-07 9.68519998e-07 9.84690473e-07 8.74933562e-07
      7.46913827e-07 6.41596557e-07 5.43159956e-07 4.95304619e-07
      5.66499864e-07 6.79324785e-07 7.36653817e-07 7.75200249e-07
      7.33510831e-07 5.49435356e-07 2.71469105e-07 2.77556147e-08
      -1.60869988e-07 -2.21795304e-07 -1.37350312e-07 2.60322164e-08
      1.24304293e-07 1.37646040e-07 8.71683170e-08 4.32015845e-08
      -8.41587422e-08 -2.35044240e-07 -3.86804970e-07 -5.16682576e-07
      -6.31470527e-07 -6.96718928e-07 -7.15711053e-07 -7.10531026e-07
      -3.46176989e-07 -3.38755740e-07 -3.20868622e-07 -2.52176477e-07
      -1.68123734e-07 -3.99885671e-08 4.06441032e-08 7.19552347e-08
      5.08543714e-08 -2.18442437e-08 -1.32338059e-07 -2.08622438e-07
      -2.45376327e-07 -1.85422664e-07 -9.42339682e-08 4.12574224e-08
      1.72272607e-07 2.49454189e-07 1.82229755e-07 8.36076524e-08
      -8.39435543e-09 3.53624650e-08 1.15445253e-07 1.93374774e-07
      2.66045248e-07 3.30325065e-07 3.24926248e-07 3.31227682e-07
      3.66416572e-07 4.12993870e-07 3.94967714e-07 3.28515171e-07
      2.28127504e-07 3.95676070e-09 -2.24235976e-07 -3.53715052e-07
      -3.16500092e-07 -1.75030266e-07 -1.07096760e-07 -1.66904613e-07
      -2.94706126e-07 -4.22922881e-07 -5.25776613e-07 -5.83082453e-07
      -5.57216254e-07 -4.92802428e-07 -4.02522062e-07 -3.08303498e-07
      -2.18482569e-07 -1.41290613e-07 -9.64184466e-08 -9.57550697e-08
      6.03503452e-08 4.76395101e-08 9.14512110e-09 -6.01915104e-08
      -1.82244108e-07 -3.25059148e-07 -4.84729981e-07 -6.60046908e-07
      -8.56395559e-07 -1.03874663e-06 -1.19955178e-06 -1.22816721e-06
      -1.08648169e-06 -8.73427098e-07 -5.96591462e-07 -1.69055866e-07
      2.45796798e-07 5.43572696e-07 6.50682125e-07 5.14351314e-07
      1.55288419e-07 -1.46650265e-07 -3.84314973e-07 -5.31787350e-07
      -5.68370353e-07 -4.59231785e-07 -2.88746037e-07 -5.95628151e-08
      1.25276458e-07 2.31292390e-07 2.66768211e-07 2.27655818e-07
      1.78336279e-07 1.24140797e-07 1.65984503e-07 4.24906091e-07
      5.71107933e-07 4.09173111e-07 2.34731189e-07 2.36215456e-08
      -2.85560375e-08 6.45217284e-08 1.94650482e-07 2.69685643e-07
      2.97431257e-07 2.63432440e-07 2.22572680e-07 1.84363060e-07
      1.63696797e-07 1.59518549e-07 1.73012253e-07 1.95781070e-07
      -7.56301120e-08 -1.24769812e-07 -2.30867016e-07 -4.10899133e-07
      -5.99585746e-07 -8.00553607e-07 -9.78819344e-07 -1.09135976e-06
      -1.16000035e-06 -1.19808794e-06 -1.21193682e-06 -1.17986986e-06
      -1.06022424e-06 -9.69286930e-07 -8.73626732e-07 -7.17545902e-07
      -4.73435705e-07 -1.46211406e-07 2.25342148e-07 4.05816905e-07
      8.34810479e-08 -3.07013551e-07 -5.02384580e-07 -5.38862878e-07
      -4.18974793e-07 -9.76649801e-08 2.60250971e-07 6.24178085e-07
      8.35419542e-07 8.67117933e-07 7.55495819e-07 5.28726673e-07
      2.90215638e-07 2.64424784e-07 5.50650498e-07 1.00452246e-06
      1.27363592e-06 1.06321659e-06 5.93317168e-07 2.82290273e-07
      4.32344436e-08 -2.53522074e-07 -5.45021578e-07 -7.26469011e-07
      -8.18606111e-07 -8.82294273e-07 -9.29648706e-07 -9.32227181e-07
      -9.22701417e-07 -8.82715426e-07 -8.31574653e-07 -7.93667425e-07
      1.04002034e-07 8.44227728e-08 4.56646525e-08 -2.27029560e-08
      -9.32805904e-08 -1.69472315e-07 -2.42258750e-07 -2.96003549e-07
      -3.61678559e-07 -4.26519506e-07 -4.63364785e-07 -5.12337863e-07
      -5.33176149e-07 -5.21053664e-07 -4.54783844e-07 -3.82288675e-07
      -2.73899786e-07 -3.21561970e-07 -4.73445283e-07 -5.23683980e-07
      -3.39761897e-07 -4.36111861e-07 -6.15766908e-07 -6.22991990e-07
      -4.56474623e-07 -1.18445662e-07 1.39803930e-07 2.94107906e-07
      4.60711249e-07 5.98476163e-07 7.30000011e-07 8.45601619e-07
      9.58393343e-07 1.15171872e-06 1.28572708e-06 1.31897173e-06
      1.25118299e-06 1.17778313e-06 1.04301398e-06 8.44914211e-07
      5.92163929e-07 2.13389811e-07 -2.37321458e-07 -7.38918800e-07
      -1.15236878e-06 -1.39072438e-06 -1.48611616e-06 -1.50013261e-06
      -1.45239710e-06 -1.37949769e-06 -1.30092292e-06 -1.28608281e-06
      -1.35092373e-08 3.11264827e-08 1.26042764e-07 2.57562391e-07
      3.67789227e-07 4.79570076e-07 6.01126999e-07 7.01569547e-07
      7.54337236e-07 7.98054430e-07 8.31263776e-07 8.30817271e-07
      8.09639062e-07 7.46325270e-07 6.14858379e-07 4.03611523e-07
      1.41862074e-07 -1.24952564e-07 -3.49401773e-07 -4.84688485e-07
      -5.92392553e-07 -7.15113856e-07 -7.91945126e-07 -7.45146451e-07
      -5.46606657e-07 -1.36946909e-07 3.29854231e-07 7.16083832e-07
      9.35577361e-07 1.01570186e-06 1.03513003e-06 1.05200104e-06
      1.06351195e-06 1.09569964e-06 1.21268795e-06 1.36021913e-06
      1.45125455e-06 1.41704618e-06 1.24088513e-06 1.04372054e-06
      8.79537197e-07 7.39277311e-07 5.67313919e-07 3.53288215e-07
      1.69022869e-07 5.81454813e-08 -2.08379127e-08 -1.63447609e-07
      -2.80906335e-07 -3.78467831e-07 -4.29207205e-07 -4.68095465e-07
      -1.43001884e-07 -1.24742471e-07 -7.70332065e-08 3.37936013e-09
      1.03835816e-07 2.15159233e-07 3.39598131e-07 4.49580995e-07
      5.59197872e-07 6.76485342e-07 7.30794795e-07 6.65644620e-07
      4.57977961e-07 2.08045520e-07 -7.29869640e-08 -3.43510919e-07
      -5.42212206e-07 -6.92858407e-07 -7.91830473e-07 -8.49696733e-07
      -8.77083949e-07 -8.55304620e-07 -7.38640551e-07 -5.24357347e-07
      -2.46111199e-07 9.00088324e-08 3.85800632e-07 6.66716005e-07
      9.10581434e-07 1.07675817e-06 1.07873450e-06 9.68182576e-07
      7.44030331e-07 4.48184664e-07 2.02060747e-07 2.05282440e-08
      -1.59920447e-07 -2.83469944e-07 -3.00193932e-07 -2.65155364e-07
      -1.71936890e-07 -4.39655112e-09 1.08445505e-07 1.12121946e-07
      5.12977394e-08 -4.77784496e-08 -1.11941290e-07 -1.96542075e-07
      -2.82853023e-07 -3.45448598e-07 -4.01145456e-07 -4.28894822e-07
      3.89724057e-08 1.38320377e-08 -6.26792485e-08 -1.75644530e-07
      -2.56979490e-07 -2.87820654e-07 -2.81652603e-07 -2.46631203e-07
      -1.91745357e-07 -1.75253902e-07 -1.99775442e-07 -2.31288027e-07
      -3.67274140e-07 -5.17361627e-07 -6.45468617e-07 -7.34002697e-07
      -7.79758864e-07 -8.06389608e-07 -7.40662642e-07 -6.47213369e-07
      -4.86928627e-07 -2.77402137e-07 2.01517221e-08 3.03929738e-07
      4.97357803e-07 6.25156758e-07 6.79014931e-07 6.51981111e-07
      5.44568650e-07 3.77045268e-07 1.32178670e-07 -1.57217301e-07
      -4.41594949e-07 -6.74718308e-07 -8.43817986e-07 -9.80574896e-07
      -1.05926199e-06 -1.03885782e-06 -8.99232248e-07 -6.83330200e-07
      -4.89626188e-07 -2.85836109e-07 -1.08868903e-07 6.24159284e-08
      1.91314115e-07 2.39413282e-07 2.36828825e-07 8.96217358e-08
      -7.11740213e-08 -1.59032936e-07 -2.09705888e-07 -2.02747216e-07
      -2.64293078e-07 -2.49140328e-07 -2.04225188e-07 -1.17449090e-07
      -2.67302465e-08 5.50334427e-08 1.16368653e-07 1.61688732e-07
      1.79044051e-07 1.61567186e-07 9.05414694e-08 1.55297428e-08
      -6.42869296e-08 -1.16119288e-07 -9.39799918e-08 -4.36320455e-08
      1.74427051e-08 1.28264503e-07 2.91393974e-07 4.64760149e-07
      6.45079524e-07 8.06698154e-07 1.00232160e-06 1.14671116e-06
      1.20623531e-06 1.16501053e-06 1.00240698e-06 7.30388933e-07
      4.25245418e-07 1.43064057e-07 -5.37268328e-08 -2.07490032e-07
      -3.23380021e-07 -4.32000917e-07 -4.92911227e-07 -5.96045368e-07
      -7.10186157e-07 -8.08113668e-07 -8.77292848e-07 -8.46209161e-07
      -7.93501897e-07 -6.95686197e-07 -5.22392440e-07 -3.35245090e-07
      -1.36179480e-07 4.63939251e-08 1.98037853e-07 2.72605774e-07
      2.82504260e-07 2.01102310e-07 1.25853205e-07 1.23579824e-07
      2.13629562e-07 2.53164842e-07 3.43019053e-07 4.79707751e-07
      5.98700240e-07 6.91190962e-07 7.23231608e-07 7.08407470e-07
      6.76338743e-07 6.23275469e-07 5.95993413e-07 5.81953316e-07
      5.95722099e-07 6.40483165e-07 7.65487357e-07 9.69296593e-07
      1.18881258e-06 1.37348388e-06 1.53179849e-06 1.68980660e-06
      1.80479253e-06 1.88747185e-06 1.89027821e-06 1.82163217e-06
      1.69521843e-06 1.51121094e-06 1.31709396e-06 1.09821531e-06
      9.02657689e-07 7.76515151e-07 7.50217168e-07 8.04922479e-07
      8.98619589e-07 1.00634361e-06 1.05399204e-06 1.02094509e-06
      8.56821657e-07 6.12631311e-07 3.28701333e-07 1.18888124e-07
      2.05354382e-08 -1.58320468e-08 7.12320940e-08 2.14140528e-07
      3.89754888e-07 5.01563591e-07 5.34284823e-07 4.77198057e-07
      4.06616238e-07 3.09709719e-07 2.67215910e-07 2.71240509e-07
      1.80376901e-07 1.81455007e-07 1.43334347e-07 9.28076886e-08
      4.74004302e-08 2.74579239e-08 7.68569208e-08 1.84337893e-07
      3.68420444e-07 6.44542922e-07 8.78099399e-07 1.00243483e-06
      1.09312680e-06 1.14964246e-06 1.19363153e-06 1.28252111e-06
      1.36049619e-06 1.40118038e-06 1.35814207e-06 1.27295777e-06
      1.17783509e-06 1.15365378e-06 1.15207013e-06 1.21386790e-06
      1.30442390e-06 1.37558197e-06 1.41843304e-06 1.40454040e-06
      1.32591060e-06 1.24622079e-06 1.16386229e-06 1.14384886e-06
      1.19140293e-06 1.30384080e-06 1.44328988e-06 1.62841275e-06
      1.80985000e-06 1.97695203e-06 2.10386020e-06 2.07721246e-06
      1.90477476e-06 1.68565145e-06 1.47754656e-06 1.33757624e-06
      1.20204402e-06 1.00857801e-06 7.75014712e-07 4.68613422e-07
      2.19254488e-07 4.98252355e-08 -5.39262928e-08 -1.25050860e-07
      -6.67795987e-08 -6.43113012e-08 -9.40105309e-08 -1.63078624e-07
      -2.45860207e-07 -3.15666057e-07 -3.37142239e-07 -2.49569979e-07
      -3.79050711e-08 2.82835543e-07 5.11704116e-07 6.72196109e-07
      7.03750743e-07 6.54218354e-07 5.94776907e-07 5.35255538e-07
      4.55442859e-07 3.32110773e-07 1.42011999e-07 -1.13822750e-07
      -3.65631223e-07 -4.57797483e-07 -2.79717824e-07 7.07775953e-08
      4.66660737e-07 8.46636794e-07 1.17204934e-06 1.41848795e-06
      1.51089012e-06 1.43511113e-06 1.20078175e-06 8.60265231e-07
      4.82119049e-07 1.02053427e-07 -1.77488985e-07 -2.72939872e-07
      -1.31431918e-07 1.58853595e-07 5.26179747e-07 8.13810402e-07
      9.60183115e-07 1.03200364e-06 1.01915907e-06 9.53428241e-07
      7.29890189e-07 4.24687727e-07 1.61954915e-07 5.51178267e-08
      7.58229746e-09 3.33803563e-08 4.62833256e-08 2.23369252e-08
      4.01320843e-09 -2.36867859e-08 -4.72993413e-08 -1.32026798e-07
      -2.81931193e-07 -4.40297470e-07 -5.49455649e-07 -5.49741060e-07
      -4.17664694e-07 -2.40396076e-07 -3.55607810e-08 7.21463849e-08
      1.11053780e-08 -1.46637532e-07 -3.36534470e-07 -5.10143934e-07
      -5.81429845e-07 -5.77977346e-07 -5.46720059e-07 -5.47949355e-07
      -4.99666498e-07 -3.51837315e-07 2.00592645e-08 4.63835789e-07
      8.57445229e-07 1.17401146e-06 1.38524365e-06 1.49931952e-06
      1.46119316e-06 1.21875200e-06 8.07399772e-07 2.32984888e-07
      -4.52944505e-07 -1.15046851e-06 -1.73059072e-06 -2.14209877e-06
      -2.24354403e-06 -1.97518193e-06 -1.49294954e-06 -1.07149981e-06
      -6.28578618e-07 -1.90330695e-07 1.49710544e-07 2.08474134e-07
      -8.96272709e-08 -3.54490595e-07 -4.92064430e-07 -4.62289051e-07
      -3.82588752e-07 -2.73272718e-07 -2.15768850e-07 -1.92021673e-07
      3.14964836e-07 2.61497689e-07 1.43540078e-07 -1.73729511e-08
      -1.88253452e-07 -2.90577674e-07 -2.25420422e-07 -1.33126221e-07
      4.13211296e-08 3.30028627e-07 7.02880300e-07 8.98276483e-07
      7.46274281e-07 2.47454835e-07 -2.22078612e-07 -5.55241400e-07
      -7.54705297e-07 -8.42856139e-07 -8.14866951e-07 -6.96126619e-07
      -5.11845201e-07 -3.36777418e-07 -5.18636476e-08 2.27689625e-07
      4.44100465e-07 5.09954646e-07 4.96244468e-07 4.71254339e-07
      4.14287427e-07 2.81511774e-07 5.58323201e-08 -3.38955772e-07
      -9.49558398e-07 -1.66322343e-06 -2.27544297e-06 -2.72365855e-06
      -2.93320818e-06 -2.81198322e-06 -2.37648874e-06 -1.92469111e-06
      -1.44936769e-06 -8.35077174e-07 -2.47938431e-07 2.99930576e-07
      4.36105665e-07 3.10878761e-07 1.69689429e-07 -3.22861204e-08
      -2.83789035e-07 -5.53833786e-07 -7.47700255e-07 -7.91608670e-07
      6.95880260e-07 6.74189607e-07 5.83703468e-07 4.65091915e-07
      3.48953790e-07 2.67707890e-07 2.55661547e-07 2.81100199e-07
      4.12061922e-07 5.88902765e-07 6.16759110e-07 3.51930197e-07
      -2.61523809e-07 -8.10010306e-07 -1.22883216e-06 -1.37946142e-06
      -1.29649732e-06 -1.07116284e-06 -7.98446365e-07 -5.18213142e-07
      -2.89641264e-07 -1.46678460e-07 -8.37834264e-08 -2.56089572e-09
      -3.99164399e-08 -2.27687337e-07 -4.61454704e-07 -6.37115079e-07
      -6.89353612e-07 -6.64661457e-07 -6.23267397e-07 -6.78049275e-07
      -9.62547460e-07 -1.41332566e-06 -1.72155308e-06 -2.01204716e-06
      -2.25255121e-06 -2.33957371e-06 -2.22088397e-06 -2.02708679e-06
      -1.87490775e-06 -1.60494255e-06 -1.01875139e-06 -1.63390069e-07
      6.78784204e-07 1.06314155e-06 1.04309083e-06 6.87178215e-07
      3.75017891e-07 1.11191014e-07 -2.01328909e-08 -4.35290026e-08
      1.21661117e-06 1.22995016e-06 1.25628480e-06 1.26561656e-06
      1.26734244e-06 1.23018390e-06 1.15486830e-06 1.03529453e-06
      8.10866538e-07 6.09679489e-08 -7.09376422e-07 -1.34600145e-06
      -1.81546341e-06 -1.98305611e-06 -1.85511738e-06 -1.47919252e-06
      -9.67158371e-07 -3.89796043e-07 1.49583428e-07 6.09710014e-07
      7.94964762e-07 7.23566188e-07 5.37276549e-07 2.21501480e-07
      -1.33032117e-07 -4.97596147e-07 -7.84908707e-07 -9.28212557e-07
      -8.64829417e-07 -6.30908119e-07 -2.89808355e-07 4.32661516e-08
      1.92266157e-07 1.14020388e-07 -1.32898180e-07 -5.04692139e-07
      -9.33549927e-07 -1.28149486e-06 -1.43427360e-06 -1.48438755e-06
      -1.53355222e-06 -1.52605253e-06 -1.29777834e-06 -8.55873566e-07
      -1.53038187e-07 4.80744461e-07 7.68021209e-07 8.77139655e-07
      9.44455053e-07 1.00472926e-06 1.06964069e-06 1.09595339e-06
      8.57718305e-07 8.73501676e-07 9.30372607e-07 9.60739385e-07
      9.11200914e-07 7.77829030e-07 5.43935016e-07 1.89345116e-07
      -2.17382052e-07 -5.72610418e-07 -9.20342131e-07 -1.34158358e-06
      -1.53033625e-06 -1.46257150e-06 -1.06541177e-06 -5.51269636e-07
      -2.98915133e-08 4.93876712e-07 9.68561494e-07 1.33982189e-06
      1.43858563e-06 1.30423848e-06 1.10539497e-06 8.35252422e-07
      5.58587544e-07 3.36567894e-07 2.86064534e-07 3.98600775e-07
      6.97841188e-07 1.10727069e-06 1.53443625e-06 1.86027819e-06
      1.89193406e-06 1.57312797e-06 1.01365868e-06 2.92040227e-07
      -4.59236588e-07 -8.53655933e-07 -1.03900754e-06 -1.14484226e-06
      -1.22322683e-06 -1.20058769e-06 -1.08901247e-06 -8.65148024e-07
      -4.18020818e-07 1.93172497e-07 6.40053031e-07 9.20625951e-07
      1.01948660e-06 1.08230154e-06 1.11393661e-06 1.11659017e-06
      6.20621790e-07 5.91915239e-07 5.13869452e-07 4.14971083e-07
      3.08589193e-07 2.33718424e-07 1.38782795e-07 2.49154741e-08
      -8.18405397e-08 -1.38711442e-07 -2.02943426e-07 -4.53182196e-07
      -7.39183463e-07 -8.41540043e-07 -7.60916464e-07 -5.32026547e-07
      -1.74818069e-07 2.75489100e-07 7.36660240e-07 9.87021281e-07
      1.03628031e-06 9.27892870e-07 7.47989020e-07 6.27017641e-07
      5.61090872e-07 5.67789698e-07 7.40376436e-07 1.05751144e-06
      1.41696319e-06 1.62696585e-06 1.66296127e-06 1.48020456e-06
      1.14284001e-06 6.65266555e-07 8.17264478e-08 -2.02201591e-07
      -3.44074778e-07 -4.40879830e-07 -5.67892414e-07 -7.31589239e-07
      -8.27131259e-07 -8.95961762e-07 -8.72418752e-07 -6.36111508e-07
      -2.93033111e-07 5.62358302e-08 3.28201423e-07 5.48208448e-07
      6.09600363e-07 6.15445742e-07 6.01479258e-07 5.76708999e-07
      7.45952775e-07 7.01071883e-07 5.86533361e-07 4.70955996e-07
      4.26175689e-07 3.93052630e-07 3.64490944e-07 3.44593190e-07
      3.03095987e-07 2.28252460e-07 1.57540157e-07 8.57509903e-08
      4.24405613e-08 8.90410803e-08 2.09756521e-07 4.05219879e-07
      6.44016495e-07 8.33075205e-07 9.36827064e-07 9.07612048e-07
      2.01161583e-07 -4.32130236e-07 -8.50346112e-07 -1.03667765e-06
      -1.03347156e-06 -9.37839161e-07 -8.50428307e-07 -8.34369530e-07
      -9.37422897e-07 -1.09156110e-06 -1.22279118e-06 -1.30852754e-06
      -1.36099800e-06 -1.41746136e-06 -1.23379516e-06 -8.76707134e-07
      -1.02959018e-06 -1.10941903e-06 -1.07557025e-06 -1.10718065e-06
      -1.26259090e-06 -1.49321340e-06 -1.61026105e-06 -1.49712628e-06
      -1.19311107e-06 -8.46480930e-07 -5.46618082e-07 -3.92271119e-07
      -3.47192952e-07 -3.81303067e-07 -4.18992926e-07 -4.55037963e-07
      2.55823267e-07 2.54952596e-07 2.60118838e-07 2.95209389e-07
      3.55239877e-07 3.85744897e-07 4.27818463e-07 4.54234794e-07
      4.88103694e-07 5.34019989e-07 5.89465458e-07 3.85550095e-07
      1.78997283e-07 2.41698217e-07 5.45801527e-07 9.91253955e-07
      1.37888730e-06 1.56191834e-06 1.17518800e-06 3.88007265e-07
      -4.86065801e-07 -1.18128355e-06 -1.56170461e-06 -1.43930447e-06
      -1.16699471e-06 -8.27623239e-07 -5.72779641e-07 -4.63687741e-07
      -5.00160638e-07 -4.74116547e-07 -4.25438401e-07 -3.64013459e-07
      -3.08750089e-07 -3.07753027e-07 -2.62459594e-07 -2.59458766e-08
      1.52514573e-07 1.94837270e-07 1.21516052e-07 -1.36209096e-07
      -5.64955371e-07 -1.04795049e-06 -1.47297601e-06 -1.68914926e-06
      -1.44673197e-06 -1.08603433e-06 -7.91050297e-07 -5.32668366e-07
      -2.95933575e-07 -1.32079435e-07 -2.97256406e-08 -3.86829546e-09
      -4.60337759e-07 -4.50956861e-07 -4.01268295e-07 -3.10380216e-07
      -1.97197082e-07 -7.60990417e-08 4.60414196e-09 -3.76119544e-08
      -1.39432359e-07 -2.84367161e-07 -4.64720301e-07 -6.75129911e-07
      -8.34826778e-07 -9.03107775e-07 -8.65109996e-07 -7.54818473e-07
      -6.01995453e-07 -4.82395592e-07 -4.52944363e-07 -4.83299289e-07
      -7.06251626e-07 -7.53933534e-07 -5.57984663e-07 -4.68161460e-07
      -1.80012108e-07 2.11252271e-07 5.88848309e-07 8.86153430e-07
      1.07238225e-06 1.20275683e-06 1.40103134e-06 1.66884729e-06
      1.90331855e-06 2.04225307e-06 1.95499160e-06 1.95485813e-06
      2.00735167e-06 2.04285516e-06 1.92333664e-06 1.57483419e-06
      1.00729937e-06 4.22612032e-07 -6.85450701e-08 -4.22498886e-07
      -6.37387188e-07 -7.24838230e-07 -7.30037584e-07 -6.54416567e-07
      -5.17095600e-07 -3.00710525e-07 -1.41479802e-07 -8.00477764e-08
      -1.53855922e-07 -1.94240471e-07 -2.64010907e-07 -2.68434349e-07
      -2.70443707e-07 -2.82016714e-07 -4.95701101e-07 -7.07783045e-07
      -9.02520526e-07 -1.06666721e-06 -1.17524655e-06 -1.16078934e-06
      -1.07681683e-06 -1.29990315e-06 -1.96653104e-06 -2.69895941e-06
      -3.23884569e-06 -3.43681040e-06 -3.40325232e-06 -3.17838953e-06
      -2.55583518e-06 -1.66402094e-06 -1.02794127e-06 -2.17369404e-07
      5.43308715e-07 5.48994478e-07 5.28079340e-07 6.24185702e-07
      7.56995519e-07 8.80193454e-07 1.02703166e-06 8.49733112e-07
      9.01919464e-07 1.03765728e-06 1.08438769e-06 1.00554200e-06
      9.73383635e-07 9.93088747e-07 1.08903407e-06 1.20537709e-06
      1.05739275e-06 9.55418841e-07 8.79633205e-07 7.89152182e-07
      5.66410620e-07 1.34531135e-07 -2.96035012e-07 -5.51647645e-07
      -7.73308273e-07 -8.36542313e-07 -8.30859790e-07 -7.89978571e-07
      -9.22340746e-07 -9.08567301e-07 -9.24634946e-07 -8.75849139e-07
      -7.65361619e-07 -6.03521812e-07 -5.37974358e-07 -4.87530883e-07
      -4.82870348e-07 -5.67934649e-07 -5.93321943e-07 -3.57411494e-07
      -1.03623385e-07 -4.15620427e-08 9.86539490e-08 3.21408464e-07
      4.16872894e-07 2.28235209e-07 5.31486251e-08 1.26264457e-08
      1.83157063e-08 -2.05871359e-07 -3.72971783e-07 -3.42756891e-07
      -2.60409166e-07 -2.43950154e-07 -1.95000325e-07 -1.08744764e-07
      -1.21481758e-09 6.09552160e-08 9.27789898e-08 -5.55076944e-08
      -3.66205711e-07 -4.73356295e-07 -7.28427040e-07 -9.74419549e-07
      -9.22650372e-07 -7.81878953e-07 -7.84028430e-07 -7.71055568e-07
      -7.74214300e-07 -8.80039920e-07 -9.48814886e-07 -8.00327769e-07
      -7.17230819e-07 -6.49279286e-07 -4.94890003e-07 -2.43567712e-07
      1.35290819e-08 1.20984296e-07 1.26766977e-07 2.18238597e-07
      -9.25434620e-07 -9.12958456e-07 -8.71349982e-07 -8.62143509e-07
      -8.03348257e-07 -5.72690510e-07 -4.28618563e-07 -4.22489563e-07
      -5.81927736e-07 -7.12736266e-07 -6.28768134e-07 -3.68779354e-07
      -2.24522594e-07 -1.55861272e-07 6.61386181e-08 3.54272288e-07
      3.91341047e-07 1.84975377e-07 4.99526749e-08 -2.27168133e-08
      -4.44029666e-08 -1.72553584e-07 -3.10371860e-07 -3.32521267e-07
      -2.80683992e-07 -2.39150523e-07 -1.99369168e-07 -9.14564353e-08
      2.78112928e-08 7.42877404e-08 1.70734253e-07 1.73932726e-08
      -2.87303806e-07 -4.30590291e-07 -6.40726341e-07 -8.83292842e-07
      -7.96205825e-07 -7.27629470e-07 -8.02676652e-07 -8.41431074e-07
      -7.93271511e-07 -8.55335315e-07 -9.52916366e-07 -7.99762745e-07
      -7.30468855e-07 -7.33089678e-07 -6.66424455e-07 -4.64100111e-07
      -2.04947327e-07 -8.15224865e-08 -1.00638973e-08 1.65734278e-07
      -8.24555684e-07 -7.84951681e-07 -6.90765887e-07 -7.02553109e-07
      -7.42970713e-07 -5.06881577e-07 -2.78768454e-07 -3.24155906e-07
      -5.84189308e-07 -7.07558002e-07 -6.64786683e-07 -4.74930602e-07
      -4.14130341e-07 -3.13571235e-07 -5.10577287e-08 2.24296542e-07
      2.28065275e-07 1.66649698e-07 1.48609459e-07 7.69294601e-08
      -4.66039474e-08 -1.58497016e-07 -2.09723666e-07 -1.75815686e-07
      -1.85434772e-07 -2.32893385e-07 -1.86422000e-07 3.95919209e-08
      1.11881107e-07 6.86447237e-08 1.03967324e-07 4.26204672e-08
      -1.79930268e-07 -3.71259858e-07 -4.82026394e-07 -6.78938477e-07
      -6.62966272e-07 -6.47810339e-07 -7.05462696e-07 -8.26449764e-07
      -7.91633624e-07 -8.20220578e-07 -9.35714240e-07 -8.47925833e-07
      -7.71742634e-07 -7.70543863e-07 -7.22618154e-07 -6.56605664e-07
      -5.67974155e-07 -5.33314164e-07 -4.56453677e-07 -2.72921653e-07
      -6.37241101e-07 -5.33556374e-07 -4.84482428e-07 -5.05199580e-07
      -6.12449810e-07 -4.36688708e-07 -1.22983479e-07 -1.03333427e-07
      -3.72637913e-07 -4.92699598e-07 -4.98243480e-07 -5.15343515e-07
      -6.07503011e-07 -4.88711976e-07 -2.23589382e-07 -1.20942749e-08
      -2.52208832e-08 8.16482792e-09 1.59395512e-07 2.34001774e-07
      3.26362084e-08 -1.81434515e-07 -1.60337876e-07 -1.36951428e-08
      2.99602938e-08 -1.09643231e-07 -1.09677472e-07 1.64080433e-07
      1.47328876e-07 -9.32322131e-09 -9.86044597e-08 -4.00089384e-08
      -6.06521624e-08 -2.45983671e-07 -3.41169709e-07 -5.58428383e-07
      -5.82937332e-07 -5.34934543e-07 -4.62187359e-07 -5.82641292e-07
      -6.60068508e-07 -7.15913927e-07 -9.01613248e-07 -8.94441371e-07
      -8.78712001e-07 -8.35134870e-07 -7.54036705e-07 -7.88874672e-07
      -8.67277095e-07 -8.91097500e-07 -9.17179932e-07 -7.83768542e-07
      -4.66841612e-07 -4.06007842e-07 -2.82071284e-07 -2.88575933e-07
      -4.32833815e-07 -3.57541722e-07 -7.96159725e-08 9.64615765e-08
      -1.27797179e-07 -1.95386832e-07 -2.29369519e-07 -3.96160914e-07
      -5.72539250e-07 -5.61527315e-07 -4.37945204e-07 -3.45796622e-07
      -3.03868177e-07 -1.38132734e-07 8.38129779e-08 2.08509547e-07
      1.30257419e-07 -7.43207735e-08 -1.24997541e-07 1.08190385e-07
      2.42696387e-07 3.13117390e-08 5.04873405e-08 2.76476243e-07
      1.23793399e-07 -1.59569822e-07 -2.67618674e-07 -1.61712876e-07
      -8.71319870e-08 -1.35487880e-07 -2.02468129e-07 -3.50461761e-07
      -4.73067303e-07 -4.18365971e-07 -2.43937450e-07 -3.32194844e-07
      -5.14435840e-07 -6.17378760e-07 -7.28649297e-07 -7.94482389e-07
      -8.55992425e-07 -8.10538722e-07 -7.10424558e-07 -7.04094077e-07
      -8.82720769e-07 -9.26139535e-07 -9.12208634e-07 -9.34727382e-07
      -1.17852473e-07 -3.55550895e-07 -4.73580798e-07 -4.19654725e-07
      -3.54331775e-07 -1.82431890e-07 2.15639187e-08 1.57217983e-07
      5.95333454e-08 3.29016956e-08 -1.06912734e-09 -1.77447461e-07
      -3.20134120e-07 -3.12071563e-07 -3.03176279e-07 -3.91443422e-07
      -3.71857766e-07 -1.92124261e-07 -2.72478768e-08 9.79247687e-08
      1.60746708e-07 4.95765882e-08 -6.75532092e-08 1.50659602e-07
      3.41008416e-07 1.75971266e-07 2.50822779e-07 3.69484496e-07
      9.55820383e-08 -1.89385062e-07 -3.17446506e-07 -2.26621466e-07
      -1.11751667e-07 -1.51433824e-07 -1.61392947e-07 -1.95604386e-07
      -3.33897901e-07 -4.24955601e-07 -2.61375732e-07 -2.60330438e-07
      -4.54786999e-07 -5.18951026e-07 -5.11689564e-07 -5.70500958e-07
      -6.84250324e-07 -6.59961472e-07 -5.22168193e-07 -5.29877184e-07
      -6.78158699e-07 -6.56297345e-07 -5.38315248e-07 -6.34597313e-07
      1.59917107e-07 6.60047803e-08 -1.60460743e-07 -4.52789578e-07
      -5.26257622e-07 -3.77905735e-07 -1.22125599e-07 6.25443164e-08
      9.50461185e-08 1.47727590e-07 1.43212404e-07 3.32082628e-08
      -1.22292093e-07 -7.00935487e-08 -3.13552952e-08 -1.40589634e-07
      -2.12957517e-07 -1.34769707e-07 -6.72494309e-08 -5.20483656e-09
      1.20941863e-07 1.23789548e-07 -4.84413256e-08 9.37241396e-08
      3.25245537e-07 2.27453341e-07 3.65779414e-07 4.87291402e-07
      2.32228771e-07 -8.57685478e-08 -2.66674675e-07 -2.47324749e-07
      -1.55886553e-07 -1.85790029e-07 -9.16626988e-08 -4.65714898e-08
      -1.87638577e-07 -3.48248591e-07 -3.17745929e-07 -3.29441747e-07
      -4.95962922e-07 -5.32522392e-07 -4.73816101e-07 -4.56415876e-07
      -4.99845783e-07 -4.42617448e-07 -2.58581480e-07 -3.46274817e-07
      -4.83070323e-07 -4.29144251e-07 -2.89187597e-07 -3.67548068e-07
      -2.28511666e-07 6.88967461e-08 5.02918276e-08 -2.53479413e-07
      -5.00859642e-07 -4.84479870e-07 -3.31220178e-07 -1.85539065e-07
      -5.25714157e-08 8.19247248e-08 1.25063934e-07 7.47792370e-08
      2.40723974e-08 3.85075829e-08 8.32676506e-08 6.12329814e-08
      -1.39872123e-08 -1.00644733e-07 -8.24163351e-08 -7.68134178e-09
      8.62288871e-08 1.36569049e-08 -1.22264368e-07 -1.42182985e-08
      2.58960654e-07 1.79509996e-07 2.27913063e-07 3.59383876e-07
      2.27698976e-07 6.48810499e-08 -1.02356779e-07 -1.47063915e-07
      -1.56805825e-07 -1.81848606e-07 -7.27473477e-08 1.38547378e-07
      6.00127237e-08 -7.87643160e-08 -1.29742958e-07 -2.98006029e-07
      -5.79927587e-07 -6.64964034e-07 -5.96372900e-07 -5.16821274e-07
      -4.46637159e-07 -3.18450788e-07 -4.01692226e-08 -5.53396049e-08
      -1.75696101e-07 -1.33496101e-07 -8.41309458e-08 -1.09099581e-07
      -2.68224682e-07 -5.31090905e-08 -7.33132595e-08 -2.14710525e-07
      -2.25407774e-07 -2.22912689e-07 -3.15344437e-07 -3.32886287e-07
      -1.56164205e-07 -3.51205749e-08 2.90974871e-08 2.09970458e-10
      8.83375364e-08 1.80265246e-07 2.54289517e-07 1.10265944e-07
      1.33201459e-08 -1.45572272e-07 -1.93850170e-07 -5.87861138e-08
      -3.87557186e-08 -2.53792166e-07 -2.32020497e-07 -3.99943474e-08
      1.66503483e-07 8.02950737e-08 -6.18951859e-08 3.72308895e-09
      7.73442732e-09 -6.68166535e-08 5.05100815e-08 1.56408987e-07
      -8.64529692e-09 -8.21238473e-08 7.80732705e-08 3.56628931e-07
      2.37264402e-07 2.02437647e-07 1.19970466e-07 -5.77441170e-08
      -4.03148420e-07 -6.22445782e-07 -6.25623159e-07 -5.36487903e-07
      -4.20384538e-07 -3.07188884e-07 -6.30232293e-08 1.34837336e-07
      5.83518407e-08 5.85891291e-09 -4.24995505e-08 -7.80101530e-08
      3.43437723e-09 1.28455383e-07 9.87821913e-09 -1.85445160e-07
      -1.09521601e-07 8.78172202e-08 9.01074415e-08 -1.07348868e-07
      -8.02444831e-08 5.85264504e-09 1.05407125e-07 -3.70764610e-08
      1.43797765e-08 2.30960154e-07 4.64871505e-07 3.36012306e-07
      1.33839066e-07 -8.60228724e-08 -2.33199202e-07 -1.85618433e-07
      -2.07455003e-07 -4.54408564e-07 -3.47842672e-07 -1.49613637e-08
      1.68165499e-07 8.00720841e-08 -2.11861902e-07 -3.22577023e-07
      -2.67643316e-07 -1.88136823e-07 1.52342565e-07 4.37030053e-07
      1.73332992e-07 3.16565547e-08 2.56518831e-07 4.83166787e-07
      5.78901506e-07 6.92015590e-07 5.65755386e-07 3.08577057e-07
      -7.50327374e-08 -3.35115914e-07 -4.38830199e-07 -4.33664098e-07
      -4.23034919e-07 -3.95571959e-07 -1.31203734e-07 1.26721318e-07
      2.00187273e-07 1.96024743e-07 6.74315643e-08 -7.40297921e-08
      2.40141162e-07 3.48688616e-07 3.20880986e-07 5.55532189e-08
      -8.18488601e-08 1.64762255e-07 3.72816004e-07 2.11030198e-07
      1.04023236e-07 1.29107860e-07 2.51423018e-07 -7.50879252e-08
      -2.34528756e-07 -7.86671492e-08 2.66533164e-07 3.10945694e-07
      2.44257308e-07 9.41094811e-08 -1.87496582e-07 -1.98388420e-07
      -2.47571222e-07 -5.46747572e-07 -4.88767739e-07 -9.50735881e-08
      1.93498636e-07 1.89877895e-07 -3.70927786e-08 -2.21869229e-07
      -1.86866274e-07 -5.31214752e-08 3.69239586e-07 5.25383939e-07
      3.67543350e-07 2.40648490e-07 2.35347926e-07 3.60780348e-07
      6.23982430e-07 8.75920307e-07 8.99463998e-07 6.81095003e-07
      2.40187291e-07 -8.01211115e-08 -2.65269620e-07 -3.88028838e-07
      -5.12542670e-07 -6.12927181e-07 -4.23132690e-07 -1.00769917e-07
      1.22183167e-07 2.07490245e-07 9.96900482e-08 -1.02322410e-07
      1.07269244e-07 4.72520355e-07 6.80638379e-07 4.00822813e-07
      -1.72156078e-07 -1.88041881e-07 1.78020358e-07 4.01532645e-07
      5.01385500e-07 4.82199539e-07 4.04653008e-07 -6.78718024e-08
      -4.65566217e-07 -5.23193819e-07 -2.87909700e-07 -3.80228116e-08
      5.98908017e-08 2.73970215e-08 -1.59202386e-07 -2.41446486e-07
      -2.71148508e-07 -5.90358525e-07 -6.21577328e-07 -2.07830524e-07
      1.86669453e-07 2.98109114e-07 1.06339755e-07 -2.72716729e-08
      1.06319050e-07 2.77355326e-07 3.00902741e-07 2.79808518e-07
      1.91461197e-07 2.04660282e-07 1.85658379e-07 1.58247843e-07
      3.91433161e-07 6.95120889e-07 8.40428186e-07 8.08032667e-07
      4.05427500e-07 1.03518460e-07 -1.26727528e-07 -2.93127499e-07
      -5.55093379e-07 -7.63739934e-07 -8.13998952e-07 -6.66080950e-07
      -3.47681436e-07 -5.04728881e-08 -4.70079353e-09 -2.19379004e-07
      -2.91510020e-07 2.26402832e-07 7.07265428e-07 5.87746626e-07
      -9.32092519e-08 -3.98625701e-07 -1.75872174e-07 1.36887522e-07
      5.38832580e-07 8.49298033e-07 8.20831588e-07 2.29980955e-07
      -4.29915673e-07 -7.65279822e-07 -6.69143105e-07 -3.68684908e-07
      -1.91816966e-07 -1.91949439e-07 -2.93445481e-07 -3.94050630e-07
      -3.66071731e-07 -6.48747744e-07 -7.61409524e-07 -3.24945290e-07
      1.49865528e-07 3.65331033e-07 2.53954482e-07 1.15550371e-07
      1.80558303e-07 1.16346840e-07 -9.15346945e-08 -2.53633402e-07
      -2.93527108e-07 -2.40731794e-07 -2.25377775e-07 -1.78813352e-07
      1.13567907e-07 3.63420185e-07 3.80488871e-07 4.08565313e-07
      3.08061459e-07 -9.51444434e-09 -1.72498957e-07 -3.75243218e-07
      -6.19371122e-07 -7.52964866e-07 -9.71779741e-07 -1.02579077e-06
      -9.06383946e-07 -6.43693511e-07 -3.65450546e-07 -3.74348815e-07
      -5.37969413e-07 -1.64731276e-07 4.15049868e-07 6.43903945e-07
      1.54919860e-07 -2.38536728e-07 -2.44307500e-07 -5.01180608e-08
      3.73567076e-07 7.86954615e-07 1.08158326e-06 8.13304553e-07
      -9.48936432e-08 -7.33289937e-07 -8.25238033e-07 -5.65383345e-07
      -2.88072044e-07 -1.67362884e-07 -2.28543158e-07 -3.73794251e-07
      -4.24892647e-07 -6.81025710e-07 -8.86564351e-07 -4.87867339e-07
      7.14892678e-08 3.56339029e-07 3.74141905e-07 1.91314399e-07
      1.23143678e-07 -5.01350517e-09 -3.39710084e-07 -7.22379411e-07
      -8.56751342e-07 -8.97841915e-07 -9.50445497e-07 -8.37949699e-07
      -3.92962505e-07 -7.32274401e-08 6.24190974e-08 -6.81530850e-08
      3.35508901e-08 1.29781732e-08 -2.58247724e-07 -4.10629440e-07
      -5.77087064e-07 -5.87632769e-07 -9.59578074e-07 -9.79292508e-07
      -1.03858667e-06 -9.53445181e-07 -6.61508864e-07 -3.73941788e-07
      -6.87105569e-07 -5.03252238e-07 7.30471257e-08 4.30326935e-07
      3.61833997e-07 1.06915037e-08 -2.12719300e-07 -2.32269997e-07
      9.47708898e-08 4.61570579e-07 8.03195405e-07 1.11231861e-06
      3.89012115e-07 -4.44232768e-07 -7.96716790e-07 -7.22712514e-07
      -4.88871876e-07 -2.53924014e-07 -1.35563582e-07 -1.95185748e-07
      -2.62649849e-07 -5.44057116e-07 -8.73400722e-07 -5.93007883e-07
      -4.64030023e-08 2.92412238e-07 3.20672882e-07 1.88312384e-07
      9.40672678e-08 -7.34560217e-08 -3.77346623e-07 -8.85227507e-07
      -1.25229224e-06 -1.44583316e-06 -1.56661656e-06 -1.49434914e-06
      -1.19025322e-06 -8.03617013e-07 -4.35727969e-07 -1.31788923e-07
      -4.05672971e-08 5.25330250e-08 -1.46335125e-07 -3.75153945e-07
      -4.13317537e-07 -3.16689039e-07 -5.87684781e-07 -7.47071510e-07
      -7.14983344e-07 -7.70187739e-07 -6.07768868e-07 -1.88860412e-07
      -7.22840980e-07 -7.64582467e-07 -3.99854599e-07 4.56747635e-08
      2.39320713e-07 1.69527667e-07 -4.37322711e-08 -2.50656313e-07
      -1.34694119e-07 4.40881571e-08 2.94525705e-07 6.42651571e-07
      7.27096278e-07 -2.81564194e-08 -4.84495331e-07 -7.39046300e-07
      -7.00705925e-07 -4.94030985e-07 -2.61277023e-07 -1.15202880e-07
      -7.17383841e-09 -2.19285184e-07 -5.93961317e-07 -5.43167857e-07
      -9.27553288e-08 2.77068182e-07 2.85042290e-07 5.04196080e-08
      -3.46326949e-08 -1.21251674e-07 -4.22351178e-07 -7.97362361e-07
      -1.33288461e-06 -1.65964843e-06 -1.78391929e-06 -1.74196305e-06
      -1.55073315e-06 -1.21464802e-06 -8.53784627e-07 -4.39569220e-07
      -1.47633141e-08 1.49236214e-07 -1.58893712e-07 -5.07131290e-07
      -4.31291767e-07 -1.07749997e-07 -1.73334158e-07 -2.73432732e-07
      -3.28331367e-07 -3.55394263e-07 -3.72017666e-07 -8.58755485e-08
      -6.37934818e-07 -7.56488873e-07 -5.08617120e-07 -1.88321394e-07
      4.47133601e-08 1.08436687e-07 9.46669445e-08 -1.35204843e-07
      -1.88362478e-07 -1.84225414e-07 -6.12229059e-08 1.74758256e-07
      4.37625488e-07 1.76138713e-07 -7.17727247e-08 -3.69564475e-07
      -5.41894792e-07 -5.72783790e-07 -4.33723102e-07 -6.81761279e-08
      2.32543883e-07 1.36463044e-07 -2.71787258e-07 -3.76943746e-07
      -3.71498139e-08 3.68422661e-07 4.17069117e-07 -1.32463489e-08
      -2.69037741e-07 -3.52139722e-07 -5.28331952e-07 -7.49567619e-07
      -1.15758712e-06 -1.57045997e-06 -1.75375897e-06 -1.65842505e-06
      -1.48250615e-06 -1.12115015e-06 -7.65353718e-07 -4.51746189e-07
      -6.86588635e-08 1.34892261e-07 -1.81867236e-07 -6.74821251e-07
      -7.35296226e-07 -2.80218046e-07 -7.55210365e-08 -3.94095530e-08
      -4.24545306e-08 -5.40790595e-08 -1.35545221e-07 -2.85786790e-08
      -5.94987227e-07 -6.33024115e-07 -4.69386435e-07 -2.26520385e-07
      -4.34093010e-08 4.82423630e-08 4.39439916e-08 -7.63409886e-08
      -1.39077628e-07 -1.92539289e-07 -2.47056704e-07 -1.28714817e-07
      1.45982767e-07 9.16848464e-08 9.13863190e-08 -9.39195655e-09
      5.59991307e-08 -6.77479761e-08 -2.21976165e-07 -1.47312589e-08
      2.85409016e-07 3.33172210e-07 -4.73677062e-08 -1.82660543e-07
      3.55646108e-08 3.56598974e-07 5.20914625e-07 4.48648123e-08
      -4.60697152e-07 -7.05451214e-07 -8.53086704e-07 -8.96051915e-07
      -9.57747602e-07 -1.23509005e-06 -1.45528759e-06 -1.39056499e-06
      -1.13878662e-06 -7.35330104e-07 -3.47806406e-07 -1.06044048e-07
      7.00461769e-08 1.96869721e-07 -1.17650558e-07 -6.10350071e-07
      -8.64317485e-07 -5.26979704e-07 -3.00318248e-07 -1.66803133e-07
      -3.11412975e-08 9.25463652e-08 7.75119275e-08 9.02933408e-08
      -4.85098496e-07 -4.91481728e-07 -3.06356185e-07 -1.05303826e-07
      5.39139791e-08 1.04176671e-07 4.72577284e-08 -5.57795055e-08
      -5.87903948e-08 -8.16948216e-08 -1.94588210e-07 -2.08255955e-07
      -2.79275039e-08 9.63148921e-08 5.19017433e-08 6.64989273e-08
      2.47488799e-07 3.83550599e-07 2.78720108e-07 1.55862068e-07
      2.82256394e-07 2.47600894e-07 4.64193661e-08 -4.70643329e-08
      6.72087950e-08 2.71931839e-07 4.19140605e-07 1.20133706e-07
      -4.82102337e-07 -9.94258812e-07 -1.23999189e-06 -1.22596691e-06
      -9.92974492e-07 -9.59794420e-07 -9.28791565e-07 -9.95287678e-07
      -7.24917186e-07 -3.09010574e-07 -2.03403800e-08 1.11301517e-07
      1.36846737e-07 2.32116975e-07 7.35995087e-08 -2.68713677e-07
      -4.57131932e-07 -3.45164267e-07 -4.43872295e-07 -3.82884252e-07
      -6.91427857e-08 1.27884690e-07 2.09775294e-07 2.33161416e-07
      -2.51822115e-07 -2.71097292e-07 -1.66376765e-07 -3.40371145e-08
      1.56690376e-07 1.80269097e-07 1.35104500e-07 5.34684119e-08
      1.26755770e-08 5.77886148e-08 1.03482648e-07 6.94803148e-08
      1.37004974e-07 1.31231673e-07 1.53987454e-08 5.55619302e-08
      2.81752449e-07 2.57797950e-07 3.15083810e-07 2.32493761e-07
      3.62089537e-07 3.41399300e-07 1.97823624e-07 1.71026798e-07
      2.05400013e-07 2.43011982e-07 3.81158998e-07 2.24117798e-07
      -4.10209054e-07 -9.99013650e-07 -1.46184993e-06 -1.50082735e-06
      -1.17585466e-06 -9.06583352e-07 -7.12309941e-07 -4.87203636e-07
      -2.74859531e-07 -2.00345838e-08 1.20838678e-07 -1.45131320e-08
      -7.58643495e-08 1.49524865e-07 2.18590898e-07 4.40437908e-08
      -6.80572469e-08 -4.80724971e-09 -2.02183216e-07 -3.09557436e-07
      -4.78480047e-08 1.82970993e-07 2.26263239e-07 2.39734845e-07
      -2.03376786e-07 -8.21837176e-08 -2.74101293e-08 2.60937352e-08
      1.85365238e-07 4.93638090e-08 3.91106170e-08 8.49400266e-08
      5.48667316e-08 6.64940529e-08 7.19161761e-08 1.71536016e-07
      3.43683922e-07 2.39911628e-07 1.40651991e-07 1.93408837e-07
      2.80329942e-07 1.84497850e-07 1.37284417e-07 1.38814386e-07
      2.90408110e-07 4.23708371e-07 4.56624008e-07 4.96590189e-07
      4.93284745e-07 4.11072165e-07 5.12332861e-07 3.54362754e-07
      -2.26396608e-07 -8.74839372e-07 -1.43124976e-06 -1.55947248e-06
      -1.24565554e-06 -8.53521442e-07 -5.00832869e-07 -2.29961401e-07
      2.61853539e-09 1.71464180e-07 1.73948166e-07 -2.39061304e-08
      -1.53415556e-07 -9.74014753e-08 4.92563608e-08 1.22921080e-07
      4.05794367e-08 3.68352460e-08 -4.93524297e-08 -7.83536507e-08
      9.77475452e-08 2.41890632e-07 2.38519135e-07 2.07150208e-07
      -1.83925920e-07 -8.31248173e-08 -2.96511615e-09 6.78042724e-08
      6.80433416e-08 -5.49523804e-08 -1.20797424e-07 1.06343663e-08
      7.50990026e-08 2.87360251e-08 -1.10301826e-07 -1.88539644e-07
      -4.40119834e-08 1.66247389e-07 2.66030042e-07 4.03701875e-07
      3.80390418e-07 1.46639564e-07 4.91626260e-08 1.20560003e-07
      2.29566211e-07 4.11921661e-07 6.43209091e-07 7.86524879e-07
      7.95273365e-07 6.94879930e-07 6.69492067e-07 4.95642098e-07
      8.34632985e-08 -5.14359101e-07 -1.13067881e-06 -1.40496627e-06
      -1.16065519e-06 -7.19277239e-07 -3.43984624e-07 -1.49462949e-07
      4.06497875e-08 2.13176236e-07 1.90323050e-07 -7.66594965e-08
      -2.07868993e-07 -2.46456892e-07 -2.51943192e-07 -2.39277512e-07
      -1.26820481e-07 -1.58960700e-09 -3.25868932e-08 5.72287959e-08
      1.88054997e-07 2.22655373e-07 1.53929719e-07 2.37377179e-07
      -1.26787455e-07 -7.34594394e-08 2.13862972e-08 3.10495167e-08
      3.68313602e-09 -7.49118030e-08 -1.41062159e-07 -5.17500958e-08
      6.40426379e-08 8.43059880e-08 -7.11651680e-08 -2.33428992e-07
      -2.86966127e-07 -7.69901618e-08 1.99647417e-07 5.89157537e-07
      6.66426160e-07 3.91397123e-07 1.82662191e-07 2.20824191e-07
      2.96951015e-07 3.60305876e-07 6.29920635e-07 9.27752865e-07
      9.46672799e-07 9.16051420e-07 6.94956668e-07 5.04075786e-07
      2.31271173e-07 -1.22181731e-07 -5.96857262e-07 -9.57810130e-07
      -8.43717089e-07 -4.22827128e-07 -1.87851768e-07 -1.63809673e-07
      -8.81477646e-08 1.12003896e-07 1.89728041e-07 -1.30729305e-07
      -2.30839092e-07 -2.94548215e-07 -4.48981069e-07 -4.69144254e-07
      -3.45234497e-07 -1.36656610e-07 -7.22048696e-08 1.30636035e-08
      1.46479053e-07 9.83317108e-08 -5.00573520e-08 -1.67378076e-08
      -1.00027243e-07 -8.09920806e-08 1.25212232e-08 3.76359992e-08
      3.70022057e-08 -8.27356494e-09 -9.43223171e-08 -9.70455289e-08
      3.38052857e-08 5.56344233e-08 8.89961704e-09 -3.97579925e-08
      -2.45126273e-07 -1.79589549e-07 -6.31270254e-08 3.21604716e-07
      7.24318852e-07 7.16665909e-07 4.93342611e-07 3.82265938e-07
      2.61763262e-07 2.01395139e-07 4.03820621e-07 7.28375710e-07
      7.72353872e-07 7.18232513e-07 3.91475595e-07 1.88327107e-07
      7.07472125e-08 -2.05106758e-07 -4.41651935e-07 -5.96699124e-07
      -3.71671490e-07 2.60545843e-08 1.28550354e-07 4.82803522e-08
      -5.05833171e-08 -4.31665370e-08 7.32054346e-08 -1.53620661e-07
      -2.14975486e-07 -2.14810129e-07 -4.30926917e-07 -5.27665520e-07
      -4.48510036e-07 -2.55304030e-07 -7.56011787e-08 6.68071465e-09
      9.12888751e-08 3.37125421e-08 -1.70663583e-07 -2.03765410e-07
      -2.20056950e-08 -4.58202507e-08 2.77937726e-08 2.05950510e-08
      -2.50160372e-08 1.13627552e-08 -8.25239113e-08 -1.33659313e-07
      -2.55506247e-08 -4.22923421e-08 -3.49825093e-08 7.89878385e-08
      -3.72188147e-08 -9.97363827e-08 -1.18469771e-07 5.46292682e-08
      4.28565556e-07 5.74072715e-07 4.19675217e-07 2.46057567e-07
      -3.65542654e-08 -1.29025423e-07 8.65689742e-08 3.15253146e-07
      3.99654880e-07 2.84584502e-07 -8.46406234e-09 -1.12787880e-07
      -2.29319525e-07 -5.28993837e-07 -6.83599922e-07 -6.20829780e-07
      -3.06228600e-07 8.33654994e-08 2.48935578e-07 2.41314979e-07
      1.23644369e-07 -3.94722761e-08 -2.60193662e-08 -1.02637415e-07
      -1.74610761e-07 -1.10466559e-07 -2.90376136e-07 -3.99500664e-07
      -3.81972455e-07 -3.09465946e-07 -1.03770596e-07 3.70553614e-08
      7.25957392e-08 5.80099666e-08 -6.30935091e-08 -1.38922914e-07
      4.27059206e-08 -2.65310263e-08 -4.58522909e-09 5.29744852e-08
      -3.32111014e-08 2.63785632e-10 -1.88953457e-08 -6.53764687e-08
      -5.71128211e-08 -1.45411406e-07 -8.29006126e-08 8.28511837e-09
      -1.52688546e-08 -8.01916471e-08 -1.95709831e-07 -1.36795222e-07
      1.18976935e-07 3.27804486e-07 2.93333130e-07 9.93642004e-08
      -2.58802572e-07 -4.50358812e-07 -3.01101664e-07 -1.09271788e-07
      1.27042830e-08 -2.59649386e-08 -2.70874523e-07 -2.53929926e-07
      -3.63212706e-07 -7.19127172e-07 -8.69030146e-07 -7.83078576e-07
      -5.39443022e-07 -1.94900281e-07 1.20407407e-07 2.07188691e-07
      1.71629736e-07 -1.73243659e-08 -9.48797165e-08 -8.09386194e-08
      -1.16968799e-07 -9.56034611e-08 -1.01848094e-07 -1.99396027e-07
      -1.65723151e-07 -1.47759408e-07 -5.26112061e-08 4.20251958e-08
      3.35837491e-08 5.59475808e-08 3.98842026e-08 -4.05100877e-08
      1.08532392e-08 -1.02205824e-07 -1.47555113e-07 -1.25000994e-07
      -1.28019678e-07 -7.53429887e-08 -2.38334668e-08 8.01460800e-08
      5.82220459e-08 -1.09376323e-07 -1.22355326e-08 5.63574858e-08
      7.86434651e-09 -7.33572563e-08 -2.07578537e-07 -2.25835294e-07
      -1.47530486e-07 -3.70709219e-09 1.17235558e-07 1.15701113e-07
      -1.98324457e-07 -4.43697218e-07 -4.77608637e-07 -4.16648021e-07
      -3.02793666e-07 -2.93510425e-07 -4.69806764e-07 -3.18542874e-07
      -2.34007999e-07 -4.88521096e-07 -5.17675119e-07 -5.55729343e-07
      -5.59615046e-07 -4.31931085e-07 -1.31890388e-07 1.66707068e-07
      2.41481132e-07 3.88458261e-08 -1.17519875e-07 -1.59535475e-07
      -1.97000773e-07 -1.87869915e-07 -1.92506615e-08 -6.54449579e-08
      -1.49111301e-08 8.36331822e-08 8.32209039e-08 7.93287427e-08
      3.65473589e-08 5.35596314e-08 4.47420656e-10 -7.04697669e-08
      -1.18723321e-07 -2.27087767e-07 -3.10932563e-07 -3.21565693e-07
      -3.32422132e-07 -2.15327191e-07 -4.23967954e-08 8.47653325e-08
      1.32499380e-07 8.36382554e-08 1.07730777e-07 1.32246200e-07
      -6.17778051e-09 -2.64037112e-08 -1.68676834e-07 -3.16626085e-07
      -4.41704458e-07 -4.58336046e-07 -4.30173571e-07 -3.09562694e-07
      -1.14325537e-07 -2.44610703e-07 -3.85292935e-07 -5.00850206e-07
      -4.96815915e-07 -4.77677020e-07 -5.82933239e-07 -3.45080878e-07
      -1.35518420e-07 -1.09647324e-07 1.22990667e-08 -2.08953788e-09
      -1.21152411e-07 -2.21299288e-07 -3.03289767e-08 3.23120531e-07
      4.60033078e-07 2.96319882e-07 4.04541218e-08 -9.40716802e-08
      -1.52943230e-07 -1.62063273e-07 3.16116804e-08 -5.50449393e-08
      1.53284798e-08 1.67032539e-07 2.02570561e-07 1.05698049e-07
      3.27125598e-08 3.41138353e-08 -4.40548185e-08 -1.06534124e-07
      -1.44384387e-07 -2.51266670e-07 -3.54224142e-07 -3.79478678e-07
      -4.06417143e-07 -2.63929451e-07 -1.27211266e-07 1.27668356e-08
      1.83133551e-07 2.24343566e-07 2.20827957e-07 1.86876917e-07
      1.24176367e-08 3.44173579e-08 -5.72891388e-08 -2.71042438e-07
      -6.45437865e-07 -9.73220835e-07 -1.13799740e-06 -1.04932019e-06
      -6.95574329e-07 -3.18660341e-07 -2.19554977e-07 -4.22077193e-07
      -5.55534371e-07 -5.09787071e-07 -5.77250205e-07 -4.28196216e-07
      -2.80223304e-07 -1.52370191e-07 1.42698980e-07 2.76941307e-07
      2.86251520e-07 9.70844241e-08 1.57708811e-07 3.73167239e-07
      4.57629824e-07 4.30190170e-07 2.74823435e-07 1.26966370e-07
      3.64661510e-08 -1.04075596e-07 1.63093237e-08 -3.83272614e-08
      3.24129097e-08 1.61259933e-07 2.55935419e-07 1.13341912e-07
      -1.73714785e-08 -6.65851587e-08 -1.59870822e-07 -1.86313230e-07
      7.49500941e-08 -3.04862766e-08 -1.94347223e-07 -2.89507227e-07
      -3.19271180e-07 -1.81455320e-07 -2.03169947e-07 -1.77966442e-07
      -2.89865394e-08 2.13076490e-07 2.63845322e-07 2.65014904e-07
      1.53219531e-07 2.61074842e-08 -9.36435818e-09 -1.53481110e-07
      -8.22200718e-07 -1.46880268e-06 -1.80475365e-06 -1.78873131e-06
      -1.45078548e-06 -1.01222770e-06 -6.82295251e-07 -6.20019932e-07
      -7.33515037e-07 -7.68202312e-07 -7.71780492e-07 -7.01848762e-07
      -5.48355615e-07 -3.86809234e-07 -7.53814007e-08 1.62046803e-07
      3.22601352e-07 2.81023119e-07 3.25402027e-07 3.49037947e-07
      2.83118851e-07 2.26143612e-07 1.90000421e-07 1.55672083e-07
      1.56633376e-07 1.26730617e-08 8.15668528e-08 1.50863599e-10
      -1.54272914e-08 1.06320982e-07 2.11699685e-07 8.94702055e-08
      -1.61312386e-08 -1.15834716e-07 -2.70440410e-07 -3.20208130e-07
      4.91515721e-07 3.81991981e-07 1.63193519e-07 -9.12226099e-08
      -2.18939576e-07 -1.48304196e-07 -2.11703082e-07 -2.59128797e-07
      -2.05929851e-07 -9.90353044e-09 1.85310242e-07 3.40817223e-07
      1.95060721e-07 9.05440789e-09 -1.05866729e-08 -2.16561361e-07
      -1.13971203e-06 -1.97551094e-06 -2.33290189e-06 -2.30032879e-06
      -2.04358935e-06 -1.67187522e-06 -1.37353527e-06 -1.02094668e-06
      -1.02694196e-06 -1.02765614e-06 -1.06601954e-06 -9.90384819e-07
      -8.12403187e-07 -5.49214121e-07 -2.62198853e-07 -2.78997305e-08
      2.76470303e-07 4.48461293e-07 5.40523956e-07 5.66365202e-07
      4.41471116e-07 2.44402315e-07 5.72292365e-08 -2.88180253e-08
      1.05749024e-07 1.59091826e-07 1.53051843e-07 1.24034159e-07
      -3.90108816e-08 4.35296528e-08 1.57778970e-07 6.33496313e-08
      -8.98791885e-09 -1.29930413e-07 -2.86731989e-07 -3.86900410e-07
      8.69438793e-07 7.34580624e-07 5.19030095e-07 2.37215943e-07
      -1.27113529e-08 -1.26631122e-07 -2.31737332e-07 -3.00010782e-07
      -2.09332299e-07 3.27121832e-08 1.89451470e-07 4.13934856e-07
      3.42398124e-07 5.25690780e-08 -5.56256241e-09 -1.79772158e-07
      -1.15158809e-06 -2.09968789e-06 -2.42348892e-06 -2.38840994e-06
      -2.33812375e-06 -2.14715010e-06 -1.78098981e-06 -1.30138756e-06
      -1.16045646e-06 -1.09993618e-06 -1.19994991e-06 -1.21389724e-06
      -1.03800357e-06 -7.41749034e-07 -3.27973368e-07 -2.83977002e-08
      3.12912732e-07 5.97317694e-07 6.94562232e-07 6.19120385e-07
      5.56000259e-07 3.03820428e-07 -6.86639154e-08 -2.88901163e-07
      -1.13077569e-07 6.31601722e-08 1.01833564e-07 6.98795262e-08
      -6.50313439e-08 -3.02143341e-08 1.06387247e-07 4.92452905e-08
      -1.53817881e-09 -9.76857706e-08 -2.52302925e-07 -3.63701616e-07
      1.26774671e-06 1.08577490e-06 8.60020862e-07 5.86436784e-07
      2.41639071e-07 -1.42305137e-08 -1.44126773e-07 -2.63641823e-07
      -2.52418829e-07 4.00176390e-08 3.42709086e-07 5.14715339e-07
      5.64911090e-07 2.47729218e-07 1.07210155e-07 2.57667843e-08
      -7.35548042e-07 -1.44648743e-06 -1.64131325e-06 -1.62671347e-06
      -1.97821851e-06 -2.20164225e-06 -1.84323915e-06 -1.24103747e-06
      -1.02766353e-06 -9.24913138e-07 -1.02215711e-06 -1.09485268e-06
      -1.03910077e-06 -8.37981702e-07 -4.66293955e-07 1.18998722e-08
      4.51638243e-07 7.41663598e-07 5.55579561e-07 3.08899018e-07
      2.62903427e-07 2.87124102e-08 -3.44678057e-07 -5.77494063e-07
      -3.80962319e-07 -7.02088983e-08 3.65217403e-08 -2.51298502e-08
      -1.23933276e-07 -1.37747122e-07 -6.16201064e-08 -6.14274001e-08
      -4.44741950e-08 -9.79604309e-08 -1.74669921e-07 -2.63316622e-07
      1.55898931e-06 1.36300957e-06 1.15405612e-06 8.90531737e-07
      5.42306111e-07 2.42620729e-07 7.43023065e-08 -5.01210451e-08
      -1.49924048e-07 -4.14956647e-09 2.30436186e-07 3.85259312e-07
      5.20769788e-07 4.59606099e-07 3.38109174e-07 2.30876225e-07
      -3.06281407e-07 -9.02485567e-07 -1.02468903e-06 -8.48295258e-07
      -1.08365361e-06 -1.57717807e-06 -1.47832770e-06 -9.64880087e-07
      -7.70319787e-07 -7.47325487e-07 -8.09661685e-07 -7.70740144e-07
      -5.88714897e-07 -4.95097311e-07 -4.97864789e-07 -2.68863573e-07
      2.43947710e-07 7.08238304e-07 4.44981879e-07 1.40390441e-07
      -1.20732517e-08 -3.00658968e-07 -6.38696292e-07 -8.00221017e-07
      -5.48542403e-07 -2.33011974e-07 -9.99315120e-08 -1.68710912e-07
      -2.60752870e-07 -2.68345389e-07 -2.38784509e-07 -2.45890590e-07
      -1.95857865e-07 -1.60266282e-07 -2.01145994e-07 -1.74543175e-07
      1.48220659e-06 1.38424321e-06 1.19117885e-06 9.26867756e-07
      6.61454067e-07 5.11760220e-07 3.27867014e-07 2.18936805e-07
      1.14855659e-07 1.98640862e-07 2.08828695e-07 1.70724434e-07
      1.96153422e-07 3.27529563e-07 3.80287645e-07 2.91048252e-07
      -7.18493320e-10 -3.88858211e-07 -5.31079309e-07 -3.31438486e-07
      -5.43235330e-07 -9.56837312e-07 -1.07549374e-06 -7.33351442e-07
      -5.36626885e-07 -5.04082550e-07 -6.34344872e-07 -4.73084469e-07
      -4.76022315e-08 4.99470758e-08 -2.26086811e-07 -4.09550324e-07
      -4.57625582e-08 4.30326850e-07 6.06979143e-07 4.96430175e-07
      2.83827717e-07 -2.04504019e-07 -5.34905723e-07 -6.57075191e-07
      -4.70088793e-07 -3.34243254e-07 -2.94927418e-07 -2.89926163e-07
      -4.09097879e-07 -4.22984641e-07 -3.38964554e-07 -3.35416388e-07
      -3.06439802e-07 -2.19622279e-07 -2.37891427e-07 -1.58818565e-07
      1.24974122e-06 1.23670247e-06 1.08208224e-06 8.03786634e-07
      5.44333545e-07 4.40720271e-07 4.16956169e-07 4.49351944e-07
      4.70214900e-07 4.31790113e-07 3.56368048e-07 1.21736164e-07
      8.29731519e-08 1.19873135e-07 5.35442446e-08 -1.13863663e-07
      -4.09109369e-08 2.22446630e-08 -6.97613771e-08 5.21626227e-08
      -2.16408239e-07 -6.46838089e-07 -9.91319212e-07 -9.30013243e-07
      -6.46559499e-07 -4.42755521e-07 -3.68683516e-07 -2.01761111e-07
      1.32022393e-07 1.89968006e-07 -1.69153040e-07 -3.10905932e-07
      -8.28788700e-08 2.22360114e-07 3.52825566e-07 6.62878733e-07
      7.26788357e-07 2.18063917e-07 -2.38472296e-07 -2.57207660e-07
      -1.65272240e-07 -1.69199708e-07 -2.66370620e-07 -3.08670195e-07
      -3.94106479e-07 -4.73166210e-07 -4.48501339e-07 -3.60513042e-07
      -1.93862746e-07 -1.14045385e-07 -6.73069067e-08 5.17827914e-08
      9.29276098e-07 9.71515306e-07 9.87617454e-07 6.94938990e-07
      3.02234781e-07 1.07188896e-07 1.11413868e-07 2.05062435e-07
      3.89724534e-07 4.64403342e-07 3.85236234e-07 1.22510798e-07
      -4.12722159e-08 -2.44265816e-08 -4.70643080e-09 -2.42091033e-07
      -3.73780892e-07 -3.54198249e-07 -4.40075610e-07 -4.40992892e-07
      -3.96806598e-07 -6.18851175e-07 -1.08355891e-06 -1.30518265e-06
      -1.22241408e-06 -9.18361707e-07 -7.33146692e-07 -3.27736586e-07
      1.87326705e-07 3.09414673e-07 -9.42765652e-08 -2.82196027e-07
      -3.52604346e-08 1.08684318e-07 1.09575453e-07 4.50731022e-07
      7.25659220e-07 3.12172631e-07 -1.39772027e-07 -1.81654414e-07
      -1.04635838e-07 -8.66178169e-08 -7.50393951e-08 -1.43351258e-07
      -3.00270301e-07 -3.58824451e-07 -4.02970784e-07 -3.31892437e-07
      -9.98885099e-08 8.96908503e-08 1.74965422e-07 3.24133254e-07
      6.05902756e-07 6.76725392e-07 7.71773728e-07 5.94327105e-07
      1.66990461e-07 -1.09225709e-07 -1.22647435e-07 -1.68152411e-07
      -8.37769747e-08 5.81389372e-08 1.45583115e-07 6.40212079e-08
      -1.06608290e-07 -1.07743453e-07 -6.17502316e-09 -7.47307354e-08
      -2.38962997e-07 -3.68729360e-07 -6.32323747e-07 -8.61117314e-07
      -1.10763267e-06 -1.26145960e-06 -1.27166004e-06 -1.41881389e-06
      -1.52580617e-06 -1.35152936e-06 -1.15215073e-06 -6.99625161e-07
      -9.78554908e-08 2.59003144e-07 -1.40094212e-08 -2.31249615e-07
      2.99237568e-09 1.57817510e-07 9.56772865e-08 3.94595361e-07
      4.86519866e-07 1.58999015e-07 -3.04795066e-07 -4.05668459e-07
      -3.26072438e-07 -1.57805104e-07 2.74396843e-08 5.67885010e-08
      -9.84586350e-08 -1.93994481e-07 -2.86544434e-07 -2.93368629e-07
      -7.34441983e-08 2.23093750e-07 3.16140216e-07 3.19910129e-07
      3.97397798e-07 4.29545224e-07 5.01088266e-07 3.76061337e-07
      4.05597049e-08 -2.14786752e-07 -3.37933216e-07 -5.85860334e-07
      -5.89759964e-07 -4.20816434e-07 -4.02219484e-07 -4.26566885e-07
      -4.09252294e-07 -3.06561674e-07 -1.71096005e-07 -6.55078765e-08
      -1.25850931e-07 -2.50286348e-07 -5.63167816e-07 -9.21202911e-07
      -1.27180476e-06 -1.57742500e-06 -1.61097500e-06 -1.44681985e-06
      -1.36397034e-06 -1.27056990e-06 -1.23293410e-06 -1.05284698e-06
      -4.70507075e-07 2.75832446e-09 -1.67780900e-09 -9.35367623e-08
      8.40251175e-08 2.52340527e-07 1.22478454e-07 1.28801844e-07
      2.30361181e-07 2.92558355e-09 -3.90744333e-07 -6.68275106e-07
      -7.02968407e-07 -4.88566116e-07 -2.12388230e-07 -9.67618874e-08
      -2.35335893e-08 -1.07042801e-07 -2.83891552e-07 -2.96796429e-07
      -7.92076733e-08 1.89391102e-07 3.79096861e-07 4.04711642e-07
      3.32443250e-07 3.45034493e-07 3.84563123e-07 3.31528156e-07
      2.84190360e-08 -2.60665729e-07 -5.56271345e-07 -9.03945363e-07
      -1.03463844e-06 -8.62471893e-07 -8.28926829e-07 -9.09535402e-07
      -8.47352510e-07 -7.27937390e-07 -5.22648861e-07 -3.60740188e-07
      -3.53796651e-07 -4.76528015e-07 -6.38925030e-07 -8.86561111e-07
      -1.12381497e-06 -1.30931562e-06 -1.40989528e-06 -1.35393441e-06
      -1.13781857e-06 -8.59613124e-07 -8.35238097e-07 -8.58324199e-07
      -7.17324156e-07 -3.35124213e-07 -2.68688126e-07 -1.02376731e-07
      1.15049851e-07 2.56731965e-07 -9.38439015e-08 -1.62691578e-07
      -1.11405614e-08 -9.56588053e-08 -3.77362483e-07 -6.62442233e-07
      -7.64503852e-07 -7.04083561e-07 -5.50041079e-07 -3.09828891e-07
      -1.19418758e-07 -5.21228003e-08 -2.53736118e-07 -2.39355387e-07
      -1.34701096e-07 7.93817492e-08 3.59334706e-07 4.83876079e-07
      4.00850212e-07 4.20094466e-07 4.24299714e-07 2.90593306e-07
      5.58324693e-08 -2.05084262e-07 -4.40431251e-07 -8.44879423e-07
      -1.07987341e-06 -1.08253516e-06 -1.13044632e-06 -1.22640085e-06
      -1.15766522e-06 -1.05989056e-06 -8.56997985e-07 -7.49420394e-07
      -7.25711516e-07 -7.61956471e-07 -8.18620208e-07 -9.14683255e-07
      -1.07018980e-06 -1.09547125e-06 -9.79725087e-07 -8.87489080e-07
      -8.08932043e-07 -5.04263767e-07 -3.98201536e-07 -4.62964607e-07
      -4.54206400e-07 -3.94591012e-07 -4.44599124e-07 -3.46010182e-07
      -5.91367737e-08 6.15228473e-08 -2.49547639e-07 -3.14960886e-07
      -2.03886586e-07 -2.13764054e-07 -2.56245272e-07 -2.67584653e-07
      -3.44058577e-07 -4.25663956e-07 -4.16445630e-07 -2.46544261e-07
      -1.02363451e-07 -4.35185754e-08 -2.26962769e-07 -2.21569067e-07
      -1.93738245e-07 -9.28953625e-08 2.75589770e-07 4.63900108e-07
      5.07004529e-07 5.00747717e-07 3.94415480e-07 2.33214806e-07
      -4.15908694e-08 -2.47130799e-07 -3.84559485e-07 -5.19909463e-07
      -7.33041020e-07 -7.98665496e-07 -1.06035259e-06 -1.30271997e-06
      -1.31979152e-06 -1.22199936e-06 -1.05218703e-06 -9.95760956e-07
      -1.05357083e-06 -9.63526304e-07 -7.42281657e-07 -6.81149459e-07
      -7.29215913e-07 -7.78479659e-07 -6.21837444e-07 -3.89233378e-07
      -3.29596844e-07 -1.81587012e-07 -7.47480726e-08 -1.88721515e-07
      -2.37395511e-07 -2.17162565e-07 -3.08382255e-07 -3.06885795e-07
      -1.85082740e-07 -1.35739043e-07 -2.98939653e-07 -3.27629067e-07
      -2.24902664e-07 -2.39575030e-07 -2.85556808e-07 -1.63023159e-07
      -1.25842902e-07 -1.24917491e-07 -3.23680410e-07 -2.01193174e-07
      -5.09478966e-08 -2.52911558e-08 -2.58887411e-07 -2.36634051e-07
      -1.33991151e-07 -5.47096626e-08 2.07425501e-07 3.75038553e-07
      5.64617096e-07 5.42754549e-07 4.05628612e-07 2.44569719e-07
      -3.45477353e-08 -3.22110736e-07 -4.77160768e-07 -5.52984375e-07
      -5.75222998e-07 -5.52438792e-07 -6.71313103e-07 -1.04862170e-06
      -1.25388601e-06 -1.23495749e-06 -1.01502360e-06 -1.02325180e-06
      -1.13996407e-06 -9.86853365e-07 -6.47055288e-07 -4.88817477e-07
      -4.67211265e-07 -4.34823420e-07 -3.34059109e-07 -7.23685218e-08
      -1.01550000e-07 -9.74803172e-08 5.53933033e-09 -1.63772256e-07
      -2.83427653e-07 -1.19506524e-07 -2.16817782e-08 -1.86645039e-07
      -1.92104054e-07 -1.57228271e-07 -1.97031625e-07 -2.72733217e-07
      -2.20454567e-07 -1.67267771e-07 -2.03030410e-07 -2.06284255e-07
      -2.26037244e-07 -2.06417553e-07 -3.75798692e-07 -2.95330778e-07
      -7.14020345e-08 -7.51628662e-08 -2.49008622e-07 -3.20577755e-07
      -1.12787596e-07 -9.49316359e-08 -5.77433710e-08 8.74888286e-08
      5.07016011e-07 5.68890471e-07 4.05198136e-07 1.93570401e-07
      -2.38491484e-08 -3.82696214e-07 -5.94178005e-07 -6.96241045e-07
      -7.50712729e-07 -6.23160133e-07 -5.80512221e-07 -6.70193970e-07
      -8.88404372e-07 -8.68798054e-07 -7.20667856e-07 -6.98444524e-07
      -7.49912999e-07 -5.89535148e-07 -3.57987972e-07 -2.58336655e-07
      -1.62034326e-07 -2.28819076e-07 -1.99438063e-07 -1.06164933e-07
      -2.00036141e-07 -2.71907140e-07 -1.58990872e-07 -2.30934972e-07
      -3.67402322e-07 -1.87463471e-07 1.27487539e-07 9.17267116e-08
      -1.98524717e-08 -3.21101581e-08 -3.34683037e-08 -5.11951299e-08
      -1.22356951e-07 -8.79911468e-08 -8.54645918e-08 -1.50072438e-07
      -1.62735319e-07 -2.38280549e-07 -5.22516189e-07 -5.63111030e-07
      -2.95255802e-07 -1.52185393e-07 -2.26840683e-07 -3.59586437e-07
      -3.11019136e-07 -3.99549464e-07 -5.63554408e-07 -5.26622841e-07
      -6.85510404e-09 1.96567939e-07 1.41725025e-07 1.91052987e-08
      -1.84809693e-07 -4.42471929e-07 -5.47661955e-07 -5.85701173e-07
      -7.02160548e-07 -6.43855685e-07 -4.74539547e-07 -4.95022732e-07
      -3.63734472e-07 -2.11269551e-07 -2.00777208e-07 -2.31713742e-07
      -2.50246018e-07 4.87440524e-08 1.40436782e-07 8.45838244e-08
      1.73061807e-07 1.48982267e-07 4.09098710e-08 -1.55051325e-07
      -2.95027661e-07 -4.32052332e-07 -4.15114044e-07 -4.58515018e-07
      -5.32876356e-07 -3.49944003e-07 5.02004198e-08 2.40606767e-07
      1.41325486e-07 1.48107986e-07 1.59562646e-07 1.13123470e-07
      -4.72550141e-08 -1.31324583e-07 -2.16493305e-07 -2.28390775e-07
      -1.57969481e-07 -1.42868288e-07 -2.49991388e-07 -3.74513832e-07
      -3.28328667e-07 -1.88590747e-07 -1.36587886e-07 -3.29885751e-07
      -3.14376649e-07 -3.59268256e-07 -5.48918194e-07 -7.10535289e-07
      -5.99425050e-07 -4.17271934e-07 -3.71706875e-07 -2.65460983e-07
      -3.88623448e-07 -6.11991936e-07 -5.47550201e-07 -3.75818018e-07
      -4.00104085e-07 -4.38468561e-07 -2.83909429e-07 -2.34223734e-07
      -2.25588277e-08 2.93063493e-07 2.85104619e-07 1.63976509e-07
      1.23528565e-07 3.17394893e-07 4.19962504e-07 3.39985888e-07
      4.01694905e-07 3.61906672e-07 2.86538238e-07 1.03998183e-07
      -1.01299740e-07 -2.37729935e-07 -3.51909790e-07 -4.06547770e-07
      -6.16838861e-07 -5.87482191e-07 -2.70487732e-07 3.99362854e-08
      1.96996766e-07 2.99753680e-07 4.55243935e-07 4.05313045e-07
      1.99286688e-07 -1.09134952e-07 -2.75148892e-07 -2.90501163e-07
      -3.03175142e-07 -3.70213712e-07 -3.04888772e-07 -2.72195194e-07
      -3.51082747e-07 -3.72706808e-07 -3.76455489e-07 -4.21956855e-07
      -3.10181321e-07 -2.08812139e-07 -1.55223290e-07 -9.07544404e-08
      -8.75278658e-07 -8.17619082e-07 -7.38149367e-07 -5.83499059e-07
      -5.05221578e-07 -7.54855307e-07 -7.52212884e-07 -5.85942303e-07
      -5.39973598e-07 -4.32725159e-07 -2.84410419e-07 -7.70975817e-08
      1.60405349e-07 4.16668428e-07 5.46607339e-07 4.80893164e-07
      4.50965189e-07 5.02473483e-07 5.18979562e-07 5.16257785e-07
      6.00265935e-07 5.15182876e-07 3.99059019e-07 3.38940055e-07
      3.25290443e-07 1.74494090e-07 -9.05619260e-08 -2.54624666e-07
      -4.25537536e-07 -6.06903484e-07 -5.38707127e-07 -3.56883362e-07
      -6.91494151e-08 2.87657741e-07 6.30948989e-07 5.87626801e-07
      4.24756905e-07 1.40882449e-07 -1.67112816e-07 -3.26593010e-07
      -5.53256200e-07 -6.88195712e-07 -4.39783548e-07 -3.32028094e-07
      -4.75417608e-07 -5.90920024e-07 -6.63151525e-07 -7.13857901e-07
      -6.63206322e-07 -5.19492175e-07 -2.63141885e-07 -1.21928938e-08
      -6.54563166e-07 -7.63880905e-07 -7.58407623e-07 -6.19301886e-07
      -5.38871404e-07 -7.44759177e-07 -8.98955022e-07 -8.21272977e-07
      -8.42661677e-07 -7.03831915e-07 -4.17625699e-07 -2.74226409e-07
      -1.27884174e-08 2.52504890e-07 4.44044815e-07 5.35396680e-07
      7.54655218e-07 8.19243837e-07 7.39522704e-07 7.09956169e-07
      8.07552055e-07 6.95869346e-07 5.49150116e-07 5.90151444e-07
      7.41730048e-07 6.42161524e-07 3.89331348e-07 1.74747640e-07
      6.56241141e-08 -3.17462280e-07 -6.11971473e-07 -6.83116014e-07
      -5.09233132e-07 -2.11013798e-07 2.36800659e-07 6.02268074e-07
      4.53994261e-07 1.41485572e-07 -2.20485504e-07 -2.98421355e-07
      -5.63368530e-07 -8.31664124e-07 -6.39352095e-07 -3.77943479e-07
      -3.35833818e-07 -5.24537256e-07 -7.78713058e-07 -9.04595879e-07
      -1.01223770e-06 -1.12949817e-06 -1.06170069e-06 -8.17076398e-07
      -4.71774172e-07 -6.28127452e-07 -7.69292001e-07 -6.48384798e-07
      -5.51913217e-07 -7.29980286e-07 -8.38954179e-07 -8.00379951e-07
      -9.38022595e-07 -8.71668760e-07 -6.31133275e-07 -4.30240249e-07
      -1.81445429e-07 1.86310942e-07 4.00194494e-07 4.87259058e-07
      6.70277529e-07 7.19256320e-07 7.06257197e-07 7.67451297e-07
      8.04931801e-07 6.33153604e-07 5.30307091e-07 6.56874022e-07
      7.71031523e-07 7.04235390e-07 5.16853277e-07 4.05789336e-07
      3.07045752e-07 8.88840859e-08 -3.41807493e-07 -7.14281668e-07
      -7.92408798e-07 -6.11475514e-07 -2.51804522e-07 1.91187809e-07
      2.21841972e-07 -1.43990249e-07 -4.24685112e-07 -5.41323914e-07
      -5.55908230e-07 -6.58873830e-07 -5.75071908e-07 -3.57584383e-07
      -4.11750932e-07 -5.56383441e-07 -7.38372307e-07 -8.36746040e-07
      -1.03788238e-06 -1.38727694e-06 -1.53825783e-06 -1.47424487e-06
      -1.34692272e-07 -4.46315227e-07 -7.97685686e-07 -8.39503400e-07
      -7.37082757e-07 -7.35041340e-07 -7.93578693e-07 -7.11140501e-07
      -7.60028627e-07 -7.97210589e-07 -6.29133638e-07 -4.35721347e-07
      -2.03102758e-07 8.91440379e-08 3.06091920e-07 4.23352049e-07
      6.54084204e-07 6.83000849e-07 5.09245979e-07 5.41810493e-07
      6.44525642e-07 5.23848030e-07 4.99595728e-07 5.99799421e-07
      4.72989456e-07 3.89426788e-07 3.41743174e-07 2.75910310e-07
      2.82592993e-07 2.20419366e-07 -4.35170094e-10 -3.30482095e-07
      -5.72604108e-07 -5.94871551e-07 -4.23166142e-07 -1.06106199e-07
      4.32986731e-08 -3.19669994e-07 -7.67612562e-07 -9.16479166e-07
      -8.96710617e-07 -7.70068880e-07 -4.10750232e-07 -1.97027617e-07
      -4.41473361e-07 -6.95337405e-07 -7.07535435e-07 -7.64873789e-07
      -8.13212921e-07 -1.16428544e-06 -1.39340648e-06 -1.48374249e-06
      1.54056750e-07 -3.05921930e-07 -7.86531302e-07 -1.00690431e-06
      -9.96759013e-07 -8.48505579e-07 -8.13027498e-07 -7.71570114e-07
      -8.21510810e-07 -7.46073908e-07 -4.58473153e-07 -1.10729374e-07
      1.59474823e-07 2.84583507e-07 3.15656820e-07 3.60849754e-07
      5.70477823e-07 7.12786118e-07 5.90328625e-07 4.74254847e-07
      3.86287809e-07 4.04500241e-07 4.49307947e-07 4.82899793e-07
      2.49888672e-07 5.29588107e-08 1.90357152e-09 -2.19165432e-08
      -2.06003232e-08 4.62498413e-08 5.05218729e-08 -1.77060375e-08
      -1.85647750e-07 -2.85282596e-07 -2.12227249e-07 8.45450110e-09
      1.06577779e-07 -1.10916119e-07 -6.59298848e-07 -9.93708341e-07
      -1.14013471e-06 -1.05467245e-06 -7.50458582e-07 -4.47083750e-07
      -4.03995671e-07 -7.88326020e-07 -8.02339173e-07 -8.19671016e-07
      -8.34968205e-07 -9.11952327e-07 -1.03720799e-06 -1.16186413e-06
      8.77248212e-08 -2.64716220e-07 -7.83473752e-07 -1.11400584e-06
      -1.21066444e-06 -1.05935931e-06 -9.00152713e-07 -8.83160453e-07
      -9.88825605e-07 -9.31804664e-07 -5.42520468e-07 1.23032791e-07
      5.78697268e-07 6.23771939e-07 4.68972047e-07 3.79291436e-07
      4.81724612e-07 6.27397355e-07 5.97475605e-07 4.77965159e-07
      2.73415395e-07 2.99868532e-07 3.22399643e-07 3.11488236e-07
      1.60281417e-07 -2.37287412e-09 -9.07899746e-08 -1.39940155e-07
      -1.50747908e-07 -1.17079843e-07 -4.38461356e-08 4.25120028e-08
      2.32835635e-08 -2.73478467e-08 2.56781014e-08 2.32661066e-07
      1.94336934e-07 7.24119218e-08 -3.15957379e-07 -6.17957141e-07
      -8.96382005e-07 -1.01886508e-06 -8.78422611e-07 -6.92853689e-07
      -5.69225278e-07 -8.39384654e-07 -9.14801944e-07 -9.70053293e-07
      -1.07028609e-06 -1.09338930e-06 -1.04364858e-06 -1.11536497e-06
      -7.83554981e-08 -9.09610094e-08 -7.16613116e-08 -7.19168938e-08
      -5.68741712e-08 2.23492203e-09 2.22533769e-09 -2.02905319e-08
      -4.83784177e-08 -7.94733737e-08 -2.06419173e-07 -2.52022915e-07
      -2.03244241e-07 -7.69055717e-08 3.12263424e-08 8.56885549e-08
      1.00629649e-07 3.81409180e-08 -2.17873399e-08 -7.07928152e-08
      -6.97727032e-08 -1.56865937e-07 -1.37802829e-07 -3.74134146e-08
      -7.95166599e-08 -8.88959164e-08 3.61721320e-09 4.71310635e-08
      8.17405734e-08 9.76191483e-09 -7.74368090e-08 -9.21008265e-08
      -4.56586200e-08 -2.54301789e-08 1.14372609e-08 4.63346090e-08
      1.03111129e-08 3.33221770e-08 -1.02371601e-07 -2.03462832e-07
      -1.52663702e-07 -1.32416616e-07 -1.52947706e-07 -1.21579319e-07
      -3.87766477e-08 4.94491523e-08 8.14404686e-08 2.90266780e-08
      -3.71903432e-08 -4.82899303e-08 3.41969142e-09 -1.72455206e-08
      -1.03283483e-07 -3.20108207e-08 7.74599798e-08 7.15369453e-08
      -1.09414353e-08 -2.80297474e-08 -1.24844348e-08 -1.79335728e-08
      -2.01468158e-08 -3.87733436e-08 -7.78361056e-08 -1.66247133e-07
      -1.60920948e-07 -1.30215213e-07 -1.42985064e-08 7.08755579e-08
      1.29277112e-07 3.63909507e-08 -1.02882822e-07 -1.62262737e-07
      -1.47503656e-07 -1.62439832e-07 -2.14154738e-07 -1.26896623e-07
      -2.03661692e-08 -9.41991942e-08 -9.42970075e-08 6.27344088e-09
      1.05133417e-07 1.34260588e-07 3.07135721e-08 -5.67785570e-08
      -2.62499302e-08 7.10444992e-09 7.68848949e-08 1.48143712e-07
      1.46003956e-07 3.08447135e-08 -9.27636563e-08 -2.67684527e-07
      -2.90879967e-07 -1.66187547e-07 -9.98505740e-08 -7.90514036e-08
      1.00745927e-08 1.15794876e-07 2.23774819e-07 2.02582015e-07
      1.11582452e-07 5.25754107e-09 -6.52426513e-09 2.55339003e-08
      -1.40306142e-07 -5.66958711e-08 5.65270781e-08 1.79569426e-07
      7.03787890e-08 -2.31555912e-08 -4.34800604e-08 -7.79609532e-09
      -9.64828661e-09 -4.03669134e-08 -2.75135559e-08 -2.63288307e-08
      -1.07482904e-07 -1.51304036e-07 -1.29433204e-07 2.51977852e-08
      1.02488883e-07 7.17942044e-08 -9.67562386e-08 -2.28599802e-07
      -2.47069494e-07 -1.89095488e-07 -1.75094073e-07 -1.69610246e-07
      -8.06085083e-08 -3.59208343e-08 -1.11722827e-07 -1.13117906e-07
      2.26551333e-09 1.04091022e-07 8.67184369e-08 2.25279528e-08
      -3.92419643e-08 -3.71568021e-08 4.70388386e-08 1.33491511e-07
      1.05775158e-07 -1.96657588e-08 -9.81511477e-08 -2.06697905e-07
      -3.01873087e-07 -2.48114958e-07 -8.45839452e-08 7.27677829e-09
      9.07699160e-08 1.80803397e-07 2.50015859e-07 3.15372574e-07
      2.73600534e-07 1.85133274e-07 5.91969993e-08 1.52821009e-08
      -1.31196188e-07 -3.70039785e-08 1.69777348e-08 6.64946356e-08
      8.88365150e-08 -2.60231037e-08 -1.23685140e-07 -1.04858323e-07
      -3.60944981e-08 -4.72462638e-08 -9.26052550e-08 -3.68403654e-08
      -8.58086011e-08 -2.10923389e-07 -2.29580081e-07 -1.13191888e-07
      2.88867135e-08 7.18508630e-08 -6.88846580e-09 -1.86751635e-07
      -2.89778512e-07 -2.46322372e-07 -1.26706993e-07 -1.09851449e-07
      -1.28121457e-07 -6.22054017e-08 -3.31355992e-08 -9.85055948e-08
      -9.80195978e-08 -2.32090513e-10 5.13191090e-08 1.18506955e-08
      -4.29402043e-08 -5.68819623e-08 -4.12655758e-08 5.14516145e-08
      2.54219845e-08 -7.16339699e-08 -1.73158384e-07 -1.89326727e-07
      -2.05836670e-07 -1.82829893e-07 -9.06992810e-08 3.34482984e-08
      1.93600769e-07 2.88790943e-07 2.73707059e-07 2.79824832e-07
      2.97458001e-07 2.97586126e-07 2.01814387e-07 6.59741630e-08
      -1.54063216e-07 -4.07508196e-08 6.08818311e-08 2.03245083e-08
      -2.75249388e-08 -6.82107952e-08 -1.76509516e-07 -2.15393726e-07
      -1.39014759e-07 -6.09071833e-08 -7.10215460e-08 -1.05520030e-07
      -1.05264782e-07 -1.87316360e-07 -3.15278612e-07 -2.28835873e-07
      -6.71873934e-08 1.75252364e-08 3.96442843e-08 -3.36946187e-08
      -2.00466502e-07 -2.52882330e-07 -1.63422385e-07 -8.87045530e-08
      -1.19195320e-07 -1.27548930e-07 -4.72056527e-08 -2.31906263e-08
      -7.26105540e-08 -7.02598868e-08 -1.88563991e-08 -1.41206147e-09
      -3.02417966e-08 -6.68434481e-08 -4.93334156e-08 -4.47108413e-08
      -3.37740786e-08 -1.17716247e-07 -2.08770572e-07 -2.08333276e-07
      -1.66177372e-07 -8.79968525e-08 -3.60684425e-08 6.95817315e-09
      1.38275155e-07 3.53506351e-07 3.34111263e-07 2.22814265e-07
      1.61629728e-07 1.69174513e-07 2.20596277e-07 1.54691492e-07
      -9.24896852e-08 -9.57057296e-08 2.26420926e-08 6.65927828e-08
      -6.24239789e-08 -1.64791686e-07 -2.09497131e-07 -2.45799498e-07
      -2.21324910e-07 -1.09756591e-07 -4.56613520e-08 -3.83272507e-08
      -1.09851356e-07 -1.15071479e-07 -2.64489898e-07 -3.10160658e-07
      -1.79267090e-07 -6.88398671e-08 1.57461031e-08 7.09714598e-08
      1.80232256e-08 -1.35628810e-07 -1.70488306e-07 -1.48458298e-07
      -1.04105027e-07 -1.30111374e-07 -1.10453094e-07 -1.99973265e-08
      4.87147078e-09 -5.85856625e-08 -7.89439483e-08 -6.19175822e-08
      -3.79042078e-08 -5.95395306e-08 -6.82976378e-08 -7.53957821e-08
      -7.52666267e-08 -1.10960137e-07 -1.88241245e-07 -1.92688915e-07
      -1.19193118e-07 -4.73484150e-08 -3.82027174e-08 2.99329095e-08
      5.29400523e-08 1.40331778e-07 2.27438505e-07 1.54429046e-07
      7.22062836e-08 1.36319178e-08 6.45210889e-08 1.10228846e-07
      3.09814716e-08 -1.11662795e-08 -5.28361355e-09 3.30133716e-08
      1.66338925e-08 -1.50477263e-07 -2.52745053e-07 -2.29942970e-07
      -2.02177091e-07 -1.36582258e-07 -3.29761392e-08 5.16191498e-08
      -1.38165550e-08 -9.91002196e-08 -1.65488885e-07 -3.00021100e-07
      -2.75572518e-07 -1.70968221e-07 -7.61347536e-08 3.38085755e-08
      1.43002495e-07 1.02578127e-07 -4.38181793e-08 -1.34537245e-07
      -1.28235968e-07 -1.13863543e-07 -8.43611332e-08 -4.18190211e-08
      4.46664288e-08 2.81072587e-08 -7.80554217e-08 -1.24502648e-07
      -7.06064895e-08 -2.06984652e-08 -3.84049983e-08 -6.18034548e-08
      -9.04285500e-08 -1.05008212e-07 -1.30163414e-07 -1.24451304e-07
      -1.00083156e-07 -5.96394623e-09 -5.11946645e-08 -2.48465444e-08
      3.73666929e-08 2.72950218e-09 8.67834427e-09 6.13259417e-08
      3.27102718e-08 1.56411026e-08 -1.71659611e-08 5.22375139e-08
      9.34704403e-08 1.10206685e-07 9.40134157e-08 4.12583603e-08
      1.46726933e-08 -8.76298785e-08 -2.09551658e-07 -2.57497675e-07
      -1.47690940e-07 -6.36923119e-08 -2.18238302e-10 8.34362339e-08
      3.45169262e-08 -1.09471706e-07 -2.60690967e-07 -3.48523940e-07
      -3.27056199e-07 -2.67730258e-07 -1.73981988e-07 -5.83169495e-08
      7.57052092e-08 1.92842037e-07 1.14297023e-07 -2.35912871e-08
      -1.03470512e-07 -1.27812953e-07 -1.05869518e-07 -3.82724892e-08
      6.12951752e-08 8.24902244e-08 -1.63437637e-08 -1.15128138e-07
      -1.21532707e-07 3.84735337e-08 7.92829411e-08 -1.26626098e-09
      -9.63937108e-09 -4.36490595e-08 -1.02600595e-07 -1.11477220e-07
      -1.11614241e-07 -9.91036444e-08 -5.19954710e-08 -9.42797485e-08
      -3.54802658e-08 -1.43257246e-08 -4.34217249e-08 -2.10632791e-08
      3.31213563e-08 3.52032501e-08 4.12416910e-08 5.97941749e-08
      8.61435083e-08 7.00549947e-08 1.53493687e-07 1.22470240e-07
      5.03599793e-08 2.81177979e-08 -1.08588459e-07 -2.34620629e-07
      -2.09008107e-07 -1.13592847e-07 -8.60140847e-09 5.73033638e-08
