<?xml version="1.0"?>
<opencv_storage>
<my_svm type_id="opencv-ml-svm">
  <svm_type>C_SVC</svm_type>
  <kernel><type>LINEAR</type></kernel>
  <C>1.</C>
  <term_criteria><epsilon>2.2204460492503131e-16</epsilon>
    <iterations>1000000</iterations></term_criteria>
  <var_all>108160</var_all>
  <var_count>108160</var_count>
  <class_count>2</class_count>
  <class_labels type_id="opencv-matrix">
    <rows>1</rows>
    <cols>2</cols>
    <dt>i</dt>
    <data>
      0 1</data></class_labels>
  <sv_total>1</sv_total>
  <support_vectors>
    <_>
      1.38679013e-06 1.35286973e-06 1.25051497e-06 1.07283063e-06
      8.55455994e-07 6.61891249e-07 5.29968190e-07 5.06017329e-07
      5.84403381e-07 5.31532862e-07 4.37147008e-07 3.23468612e-07
      2.45887037e-07 1.60067032e-07 6.68366482e-08 -2.00769410e-08
      -7.87065630e-08 -1.43704085e-07 -2.35886873e-07 -2.54990766e-07
      -1.95908413e-07 -6.06116615e-08 1.15331368e-07 3.12674928e-07
      4.71873136e-07 6.05158789e-07 6.95215249e-07 7.26592248e-07
      7.56073575e-07 8.00378814e-07 8.39987649e-07 8.35960293e-07
      8.02144939e-07 7.42063548e-07 6.57625662e-07 5.55721954e-07
      3.47852222e-07 2.34469468e-07 2.03419916e-07 2.21114192e-07
      3.01047123e-07 3.84631875e-07 4.56012827e-07 4.13716208e-07
      2.83030914e-07 -1.79993069e-08 -3.86725162e-07 -7.88425211e-07
      -1.17944421e-06 -1.47973265e-06 -1.67156804e-06 -1.73760554e-06
      9.74207026e-08 8.93296104e-08 5.75722972e-08 4.35182201e-09
      -2.66839990e-08 -8.75007289e-11 8.09567808e-08 1.79154014e-07
      2.53934473e-07 2.87355022e-07 2.61311897e-07 2.19099149e-07
      2.15330985e-07 2.50720689e-07 2.36571012e-07 1.93467685e-07
      1.42048208e-07 4.21588453e-08 -7.76173437e-08 -1.64077150e-07
      -1.86292056e-07 -1.38468494e-07 -4.53880702e-08 6.91071591e-08
      1.74261359e-07 2.72333494e-07 3.47040128e-07 4.01285263e-07
      4.26651241e-07 4.29217408e-07 4.28644597e-07 4.01642239e-07
      3.54770407e-07 2.86975620e-07 1.89504846e-07 6.91067186e-08
      -4.23744524e-08 -1.19818409e-07 -1.51831799e-07 -1.13898885e-07
      -2.58760107e-08 8.25937576e-08 1.32436611e-07 1.20193008e-07
      7.77586919e-08 1.31947775e-09 -8.77669066e-08 -1.95524507e-07
      -2.95602177e-07 -3.70649161e-07 -3.95188863e-07 -3.97303495e-07
      1.64663348e-07 1.54578331e-07 1.27156213e-07 8.80046542e-08
      7.72301831e-08 1.15883431e-07 2.06211809e-07 3.56026533e-07
      5.35687889e-07 7.33604963e-07 9.27268275e-07 1.09575967e-06
      1.24721885e-06 1.36029132e-06 1.42226622e-06 1.42938461e-06
      1.41759779e-06 1.39358337e-06 1.29995090e-06 1.09561097e-06
      8.03264584e-07 5.09675203e-07 2.88236208e-07 1.43268451e-07
      7.63334711e-08 5.76548764e-08 4.96020824e-08 4.96104526e-08
      3.19935332e-08 -3.50947040e-08 -1.40558029e-07 -2.80958801e-07
      -4.27781799e-07 -5.31703847e-07 -5.57470742e-07 -4.95140000e-07
      -3.53895615e-07 -1.70808207e-07 2.32676278e-08 1.96958482e-07
      3.11722459e-07 2.98344077e-07 2.45459347e-07 2.08852043e-07
      1.96066878e-07 2.16811472e-07 2.89372792e-07 4.76105157e-07
      7.12405381e-07 9.27106385e-07 1.08147538e-06 1.13995600e-06
      6.79431992e-07 6.70808674e-07 6.67322809e-07 6.61194804e-07
      6.94949335e-07 7.75082015e-07 8.65910636e-07 9.08514096e-07
      9.61389446e-07 1.04374590e-06 1.14536135e-06 1.25075644e-06
      1.35687253e-06 1.40824397e-06 1.39559415e-06 1.33172853e-06
      1.25100667e-06 1.16390265e-06 1.06702078e-06 9.31431771e-07
      7.69199062e-07 5.40987742e-07 2.31922755e-07 -1.25835854e-07
      -4.73706081e-07 -7.77475066e-07 -9.86864279e-07 -1.09719656e-06
      -1.08845177e-06 -9.73941724e-07 -7.86754015e-07 -5.16768068e-07
      -1.73844668e-07 2.02733659e-07 5.20122512e-07 7.20846288e-07
      8.30524073e-07 8.81096923e-07 8.76280637e-07 8.13089798e-07
      7.37760331e-07 6.66664675e-07 6.18923366e-07 5.44056661e-07
      4.80250719e-07 5.12671818e-07 7.01776401e-07 9.99508302e-07
      1.36739743e-06 1.71859290e-06 1.97189274e-06 2.06012965e-06
      7.76024876e-07 7.52899723e-07 7.10053143e-07 6.53543623e-07
      5.94808853e-07 5.41244162e-07 5.00003352e-07 4.68137983e-07
      4.28419327e-07 3.93583605e-07 3.56441575e-07 2.96666713e-07
      2.16146589e-07 1.25381888e-07 6.70951081e-08 4.55310243e-08
      4.80038835e-08 6.31222932e-08 8.45458601e-08 8.87441303e-08
      5.80240780e-08 -7.33547711e-09 -1.28786425e-07 -3.32232901e-07
      -5.84036002e-07 -8.22371021e-07 -9.63116349e-07 -9.74994691e-07
      -8.45071270e-07 -5.84261102e-07 -2.28169512e-07 1.91029329e-07
      5.44641978e-07 6.89034835e-07 7.66070059e-07 7.93456650e-07
      7.71145210e-07 7.19381092e-07 6.40306666e-07 4.82090059e-07
      2.90896566e-07 8.99168029e-08 -6.30922798e-08 -1.15240852e-07
      -3.83116898e-08 1.79923759e-07 4.88031333e-07 8.06747266e-07
      1.11114275e-06 1.36806284e-06 1.54044653e-06 1.59477986e-06
      2.03537837e-07 2.11924842e-07 2.36902167e-07 3.11532801e-07
      4.17992993e-07 5.32474075e-07 6.47954835e-07 7.52436392e-07
      8.21498702e-07 8.30987631e-07 7.56205907e-07 5.75324236e-07
      2.92310744e-07 -1.84871443e-08 -2.71426444e-07 -4.21543461e-07
      -4.74413383e-07 -4.45628046e-07 -3.58958317e-07 -2.82051275e-07
      -2.16307299e-07 -1.30475385e-07 -3.32486749e-08 3.43413191e-08
      5.94540985e-08 6.95851341e-08 7.55390346e-08 9.82817667e-08
      1.79270103e-07 3.44143473e-07 4.93562311e-07 3.88395648e-07
      2.29351627e-07 9.31958084e-08 -1.76565944e-08 -1.19324980e-07
      -1.91576646e-07 -2.89549519e-07 -4.07498504e-07 -5.53285645e-07
      -7.04206855e-07 -7.74403475e-07 -6.98731867e-07 -4.68676518e-07
      -1.61580147e-07 1.30191879e-07 3.49523390e-07 4.69357673e-07
      4.99511430e-07 5.06225433e-07 5.17726505e-07 5.15781835e-07
      -6.23058554e-07 -5.91859987e-07 -5.10564519e-07 -3.51529337e-07
      -8.94610110e-08 2.52269189e-07 6.75830108e-07 1.14056422e-06
      1.57510669e-06 1.89029311e-06 2.00568661e-06 1.90231412e-06
      1.61556079e-06 1.13106637e-06 6.14379132e-07 2.51455077e-07
      8.61333334e-08 6.63961472e-08 1.27346851e-07 1.83191247e-07
      2.65720331e-07 3.50348330e-07 4.86061197e-07 6.40133692e-07
      7.24932136e-07 7.35462265e-07 6.79811137e-07 6.42559030e-07
      6.27500015e-07 5.82121515e-07 4.84805582e-07 3.54633642e-07
      2.04316621e-07 1.07238314e-07 -1.23550009e-07 -2.77708551e-07
      -3.20524236e-07 -3.03081237e-07 -2.94284007e-07 -2.99943395e-07
      -2.48584655e-07 -4.21469437e-08 2.58094275e-07 5.85679516e-07
      8.48226989e-07 1.01177659e-06 9.96444442e-07 7.11709049e-07
      3.84132960e-07 1.16770423e-07 -4.27575273e-08 -9.66883817e-08
      -6.83113171e-07 -6.54980965e-07 -5.53371876e-07 -3.42133063e-07
      -4.31320544e-08 2.94154546e-07 6.99853445e-07 1.11286693e-06
      1.48100889e-06 1.76998003e-06 1.90280991e-06 1.88088632e-06
      1.76816104e-06 1.57155955e-06 1.37126199e-06 1.15471744e-06
      9.84278017e-07 8.27748693e-07 6.75414242e-07 5.14891724e-07
      4.28909800e-07 3.87614335e-07 3.24472751e-07 1.95430175e-07
      1.55382853e-08 -1.70913395e-07 -3.29117768e-07 -4.24246394e-07
      -4.48686279e-07 -4.34307651e-07 -4.39535910e-07 -4.72209905e-07
      -4.91295566e-07 -4.16759548e-07 -2.43464285e-07 -4.15043360e-08
      1.48085078e-07 2.75828199e-07 3.92655693e-07 5.30928617e-07
      7.58110957e-07 1.10320264e-06 1.59408785e-06 2.10481198e-06
      2.35826133e-06 2.37964036e-06 2.11461224e-06 1.64891946e-06
      1.03357979e-06 4.14290810e-07 9.58814717e-09 -1.27355889e-07
      -3.50074629e-07 -3.41244970e-07 -3.34627714e-07 -3.09623630e-07
      -1.93354822e-07 7.30335472e-08 3.87641421e-07 6.59208979e-07
      8.98496296e-07 1.09373218e-06 1.22403765e-06 1.15599937e-06
      1.06009134e-06 1.02470653e-06 1.03937759e-06 1.11872828e-06
      1.15253260e-06 1.02889544e-06 8.83756741e-07 8.26413270e-07
      5.90488753e-07 2.19275165e-07 -9.60603472e-08 -4.53718116e-07
      -7.25902851e-07 -9.59472573e-07 -1.20442473e-06 -1.42117358e-06
      -1.57139527e-06 -1.62139918e-06 -1.57831960e-06 -1.40450550e-06
      -1.07768096e-06 -6.30478837e-07 -9.92278828e-08 2.89136523e-07
      3.50543047e-07 4.32554145e-07 5.79157017e-07 8.04498768e-07
      1.17709851e-06 1.61660830e-06 2.00310069e-06 2.14857141e-06
      1.97710847e-06 1.52855955e-06 8.36033792e-07 1.44865773e-08
      -7.32649028e-07 -1.29545094e-06 -1.64686492e-06 -1.76748938e-06
      -2.52341493e-07 -3.03663455e-07 -4.44029865e-07 -5.92111689e-07
      -6.31139244e-07 -4.68474383e-07 -1.87691242e-07 1.30317247e-07
      4.12396190e-07 6.06063963e-07 7.33467857e-07 8.25273048e-07
      8.77951493e-07 9.17821978e-07 9.28990403e-07 9.11696759e-07
      9.41426208e-07 8.91080049e-07 7.06908054e-07 4.07470736e-07
      -1.88404865e-08 -3.60937236e-07 -5.88852402e-07 -7.24087215e-07
      -8.79459037e-07 -1.06212542e-06 -1.23522443e-06 -1.36329686e-06
      -1.46256184e-06 -1.50479764e-06 -1.46811340e-06 -1.30973581e-06
      -9.77503305e-07 -5.81003121e-07 -3.83922270e-07 -2.81622334e-07
      -2.68063701e-07 -2.37372703e-07 -7.20641253e-08 2.40410628e-07
      5.03477679e-07 5.96648192e-07 6.07505001e-07 4.99312193e-07
      2.92832283e-07 -3.46047813e-08 -5.02083594e-07 -1.05142112e-06
      -1.53670305e-06 -1.90356070e-06 -2.13317412e-06 -2.21078653e-06
      -3.95696389e-07 -4.51347717e-07 -5.95483698e-07 -6.75775254e-07
      -5.91645687e-07 -3.90276256e-07 -1.40726343e-07 1.30863555e-07
      4.08546157e-07 6.80393839e-07 9.06563059e-07 1.04901176e-06
      1.09844166e-06 1.08582344e-06 9.73890792e-07 7.29039925e-07
      4.82094947e-07 3.62366279e-07 2.79930362e-07 9.56703659e-08
      -1.19253883e-07 -3.73521061e-07 -5.92142158e-07 -8.12085773e-07
      -1.02766103e-06 -1.20424443e-06 -1.29356522e-06 -1.29952491e-06
      -1.22851429e-06 -1.15540286e-06 -1.05531012e-06 -8.38953326e-07
      -5.24656627e-07 -3.65892049e-07 -3.48857697e-07 -2.99901643e-07
      -1.48107432e-07 -1.56400919e-08 9.11833098e-08 2.12887400e-07
      3.44084356e-07 4.44464348e-07 4.14174053e-07 1.84712476e-07
      -1.44405050e-07 -4.99063276e-07 -8.45906243e-07 -1.12788382e-06
      -1.30138562e-06 -1.40298073e-06 -1.44722344e-06 -1.44660169e-06
      8.12807571e-07 8.39002269e-07 8.90899230e-07 9.29207431e-07
      9.95487312e-07 1.12236501e-06 1.33383674e-06 1.55924886e-06
      1.76587150e-06 1.88562490e-06 1.72815885e-06 1.46059347e-06
      1.21239157e-06 1.02737044e-06 8.41675615e-07 6.12817132e-07
      4.32593794e-07 7.67732757e-08 -2.07568704e-07 -4.24459387e-07
      -4.89822071e-07 -4.30377185e-07 -3.78026726e-07 -3.94215959e-07
      -3.91795538e-07 -4.65977962e-07 -5.79136895e-07 -6.78847982e-07
      -7.16373677e-07 -6.54774794e-07 -4.52350633e-07 -2.74635767e-07
      -2.64735490e-07 -1.48804915e-07 8.79283348e-08 3.23901901e-07
      5.72569320e-07 7.98842962e-07 9.46910063e-07 9.94392167e-07
      9.89527393e-07 9.57845259e-07 9.74917953e-07 8.44454007e-07
      3.43901291e-07 -2.59936002e-07 -8.47890135e-07 -1.31689887e-06
      -1.60003788e-06 -1.73994852e-06 -1.77957725e-06 -1.76436424e-06
      -1.30876771e-07 -1.27329443e-07 -1.23540744e-07 -1.36223719e-07
      -1.23737763e-07 -8.08037299e-08 -8.02374558e-08 -1.77155371e-07
      -3.82626581e-07 -5.68264966e-07 -5.95013660e-07 -5.74666331e-07
      -4.97543795e-07 -3.07142216e-07 -2.65834359e-08 2.71559429e-07
      4.53186772e-07 4.08811218e-07 2.73194445e-07 2.95783078e-08
      -2.77836136e-07 -5.51394578e-07 -6.58364911e-07 -6.85934936e-07
      -7.69920973e-07 -8.53761890e-07 -9.74451609e-07 -1.11497195e-06
      -1.24105156e-06 -1.29280920e-06 -1.26325756e-06 -1.19001220e-06
      -1.06521861e-06 -7.53945528e-07 -2.52377617e-07 2.85842304e-07
      6.44533031e-07 8.75639557e-07 8.99104293e-07 6.18365505e-07
      2.60034312e-07 1.20360966e-08 -1.61875377e-07 -3.70278201e-07
      -6.20422099e-07 -9.31540001e-07 -1.33968615e-06 -1.75328614e-06
      -1.95365533e-06 -1.96791689e-06 -1.88217984e-06 -1.80936820e-06
      -1.15645992e-06 -1.20490540e-06 -1.35536152e-06 -1.51995289e-06
      -1.56264991e-06 -1.56374551e-06 -1.59650187e-06 -1.56106091e-06
      -1.42420674e-06 -1.24208213e-06 -1.06519849e-06 -9.34030538e-07
      -8.59253078e-07 -7.37810637e-07 -5.37769836e-07 -2.15433786e-07
      2.18998125e-07 5.65969287e-07 6.18872207e-07 5.49955303e-07
      2.89524735e-07 -2.61546607e-08 -3.19690770e-07 -5.64326342e-07
      -7.16279544e-07 -8.13904819e-07 -9.26354346e-07 -1.06094842e-06
      -1.20480718e-06 -1.32331706e-06 -1.42044325e-06 -1.42044075e-06
      -1.28553245e-06 -1.01346939e-06 -5.78632353e-07 1.28820038e-10
      4.76370047e-07 8.11806217e-07 8.36715628e-07 6.21470178e-07
      3.67926475e-07 1.27335298e-07 -5.05711384e-08 -1.85382845e-07
      -4.46532027e-07 -8.69593521e-07 -1.30455385e-06 -1.66236293e-06
      -1.90334447e-06 -2.08932056e-06 -2.13325688e-06 -2.10903636e-06
      -6.67047630e-07 -7.21634819e-07 -9.13464874e-07 -1.12940495e-06
      -1.40564782e-06 -1.62575861e-06 -1.64275207e-06 -1.57374154e-06
      -1.37263601e-06 -1.09238329e-06 -7.51150367e-07 -3.49750110e-07
      -7.39774890e-08 3.28480283e-08 1.03801725e-07 1.65963158e-07
      2.73499580e-07 3.03128246e-07 3.36272308e-07 3.85885158e-07
      3.50716448e-07 2.41077089e-07 7.48044258e-08 -4.02737683e-08
      -9.30452941e-08 -9.78641097e-08 -9.06183075e-08 -1.19688522e-07
      -1.71589491e-07 -3.11170083e-07 -4.38409302e-07 -5.03266108e-07
      -5.06219124e-07 -4.50536248e-07 -3.39310844e-07 -1.92178845e-07
      -6.60180177e-08 3.36468808e-08 -9.38994837e-09 -9.38184215e-08
      -1.54744399e-07 -2.54760124e-07 -3.88719712e-07 -5.97345775e-07
      -8.49854644e-07 -1.10600035e-06 -1.35581547e-06 -1.53195572e-06
      -1.72241084e-06 -1.71148656e-06 -1.63807078e-06 -1.58361308e-06
      -2.44051837e-08 -1.26553900e-07 -4.31811742e-07 -8.31322780e-07
      -1.23887094e-06 -1.59876890e-06 -1.75583557e-06 -1.78220546e-06
      -1.68750603e-06 -1.47466938e-06 -1.21945163e-06 -9.08643187e-07
      -6.13526993e-07 -3.44999137e-07 -1.39059395e-07 3.49600615e-09
      9.22353820e-08 1.26083847e-07 8.16555215e-08 -1.89364169e-08
      -1.78468810e-07 -3.52982823e-07 -4.87539353e-07 -5.84560723e-07
      -6.95859853e-07 -8.07427341e-07 -9.25789038e-07 -1.06294988e-06
      -1.19345702e-06 -1.30072897e-06 -1.36080268e-06 -1.39695919e-06
      -1.35790231e-06 -1.21049413e-06 -1.09222594e-06 -1.00197963e-06
      -9.62889771e-07 -9.14556267e-07 -8.86655641e-07 -9.02466411e-07
      -8.96971244e-07 -8.78592573e-07 -9.10082633e-07 -9.98564587e-07
      -1.09055702e-06 -1.14858904e-06 -1.12717134e-06 -9.68834229e-07
      -6.58119404e-07 -3.21392577e-07 -8.70883241e-08 1.17967742e-08
      4.08688919e-07 3.50093330e-07 2.11601446e-07 -3.48998448e-08
      -3.25073728e-07 -7.22398340e-07 -1.19695790e-06 -1.55545968e-06
      -1.70143369e-06 -1.65648157e-06 -1.47478875e-06 -1.15757950e-06
      -7.54412952e-07 -3.10128002e-07 8.39288958e-08 3.61516754e-07
      4.73253777e-07 4.74183992e-07 4.35638327e-07 4.07432594e-07
      3.34976733e-07 2.00840034e-07 3.82577969e-09 -1.64919001e-07
      -3.14139299e-07 -4.37394476e-07 -5.23167671e-07 -6.06026049e-07
      -6.95647259e-07 -7.37557230e-07 -7.32546027e-07 -6.97949929e-07
      -6.04108152e-07 -4.64261063e-07 -3.02996227e-07 -1.39197297e-07
      4.82860898e-08 1.89655751e-07 2.48338949e-07 2.91324909e-07
      3.10915084e-07 2.71323103e-07 1.80835670e-07 1.09024988e-07
      1.03743112e-07 2.03751313e-07 4.37748440e-07 7.94903201e-07
      1.13722456e-06 1.34122638e-06 1.43847433e-06 1.47440949e-06
      1.15317584e-06 1.15337764e-06 1.10442602e-06 9.85983888e-07
      8.17210264e-07 5.75105162e-07 2.22872757e-07 -2.84046308e-07
      -7.18182264e-07 -1.00627335e-06 -1.12769112e-06 -1.06901086e-06
      -8.55937913e-07 -5.42124781e-07 -3.54794906e-07 -2.41857151e-07
      -1.34101754e-07 1.16645857e-08 1.31799297e-07 1.53507855e-07
      1.43203593e-07 1.46101939e-07 1.54039213e-07 1.79048115e-07
      2.22226959e-07 2.81396410e-07 3.41933827e-07 4.12061496e-07
      5.01786303e-07 5.91827416e-07 6.82724533e-07 7.68803147e-07
      8.64726246e-07 1.00743364e-06 1.20081063e-06 1.39120618e-06
      1.54307406e-06 1.62165657e-06 1.58395414e-06 1.46823504e-06
      1.31526974e-06 1.14818602e-06 1.08996369e-06 1.03864750e-06
      1.00848979e-06 1.03003265e-06 1.12791304e-06 1.24685005e-06
      1.32090929e-06 1.27633996e-06 1.22631616e-06 1.19905508e-06
      5.91830826e-07 5.89111096e-07 5.56564146e-07 4.88077262e-07
      3.68390801e-07 1.20544115e-07 -2.75648688e-07 -7.61802994e-07
      -1.21618427e-06 -1.55451596e-06 -1.79696860e-06 -1.82703934e-06
      -1.63533025e-06 -1.25576310e-06 -8.26980056e-07 -4.68633260e-07
      -2.07696544e-07 -2.12160778e-08 -2.95179081e-08 -3.54300020e-08
      -3.98546156e-08 -6.17353990e-08 -6.13007529e-08 -3.53646143e-08
      1.11880585e-08 6.14776567e-08 7.98654938e-08 1.09203185e-07
      1.67466652e-07 1.91750516e-07 1.85436306e-07 1.61253126e-07
      1.08727818e-07 1.98802130e-08 -8.36710257e-08 -1.86093189e-07
      -2.42923363e-07 -2.34947734e-07 -1.96479874e-07 -1.26966185e-07
      8.42716208e-09 1.48372024e-07 3.61019005e-07 5.33748619e-07
      5.71436431e-07 4.95101176e-07 3.83615372e-07 2.35751386e-07
      9.69941780e-08 6.27875085e-09 -5.23153822e-08 -8.36425968e-08
      9.85942563e-08 1.10808116e-07 1.71093888e-07 2.39744338e-07
      2.66325060e-07 1.96970916e-07 -4.60256189e-08 -3.77666311e-07
      -6.76913260e-07 -8.89751618e-07 -9.40110624e-07 -8.24352298e-07
      -5.76436719e-07 -2.99263576e-07 -7.52832818e-08 -5.96758412e-08
      -2.06834500e-07 -2.85919100e-07 -3.01544759e-07 -3.10848520e-07
      -3.21616938e-07 -3.55074889e-07 -3.97263960e-07 -4.45528258e-07
      -4.80274934e-07 -4.91654419e-07 -4.78050424e-07 -4.42984600e-07
      -4.15334000e-07 -4.29489347e-07 -4.86321994e-07 -5.79045832e-07
      -7.14488579e-07 -8.94528853e-07 -1.07840685e-06 -1.24191081e-06
      -1.33275637e-06 -1.33216349e-06 -1.21683036e-06 -9.71738018e-07
      -6.90440231e-07 -4.26681567e-07 -2.89768622e-07 -3.08855164e-07
      -4.21637679e-07 -5.14341309e-07 -5.50163179e-07 -5.73519344e-07
      -6.43726139e-07 -6.92075901e-07 -7.19836521e-07 -7.31030752e-07
      -7.10484400e-08 -3.26772387e-08 8.64243077e-08 2.38850390e-07
      3.35192397e-07 2.88293450e-07 7.99848507e-08 -2.65624692e-07
      -5.70348618e-07 -7.74667740e-07 -8.79680215e-07 -8.73506508e-07
      -7.78412868e-07 -6.52603092e-07 -5.28774649e-07 -4.48232754e-07
      -4.04777836e-07 -3.97004897e-07 -4.26986077e-07 -5.14801798e-07
      -6.28451687e-07 -7.48557909e-07 -8.38085100e-07 -8.72339569e-07
      -8.51907259e-07 -7.97336952e-07 -7.33666241e-07 -6.90927379e-07
      -7.13217275e-07 -7.74492037e-07 -8.57597229e-07 -9.64280844e-07
      -1.06316872e-06 -1.13934652e-06 -1.16552019e-06 -1.14023544e-06
      -1.07355356e-06 -9.73108513e-07 -8.39666029e-07 -5.79096081e-07
      -2.38717803e-07 8.29274711e-08 2.04263216e-07 1.16304228e-07
      -6.17172802e-08 -2.40517693e-07 -3.58076107e-07 -4.08006798e-07
      -4.43062845e-07 -4.67282092e-07 -4.74516071e-07 -4.74183878e-07
      -5.81978668e-07 -5.93781806e-07 -6.30754698e-07 -6.93273591e-07
      -8.12140399e-07 -9.80635036e-07 -1.13681278e-06 -1.26591624e-06
      -1.32637695e-06 -1.31876573e-06 -1.23757025e-06 -1.05812376e-06
      -7.94152811e-07 -5.01939780e-07 -2.75179929e-07 -1.68632113e-07
      -2.00114727e-07 -3.68086518e-07 -6.12992153e-07 -8.75338628e-07
      -1.09327300e-06 -1.22055326e-06 -1.23010534e-06 -1.12058012e-06
      -9.59197905e-07 -7.89489036e-07 -6.48610410e-07 -5.82060295e-07
      -6.06093920e-07 -6.87098975e-07 -7.94389734e-07 -9.14162740e-07
      -9.88187139e-07 -9.90407898e-07 -9.30968724e-07 -8.13450981e-07
      -6.61961565e-07 -4.88580611e-07 -3.48379388e-07 -2.57095792e-07
      -2.07731134e-07 -1.92902419e-07 -1.93235394e-07 -1.99771847e-07
      -2.37625656e-07 -3.00175913e-07 -3.45341164e-07 -3.57180596e-07
      -3.52446619e-07 -3.40340677e-07 -3.22721974e-07 -3.09854414e-07
      2.70511578e-07 2.37897126e-07 1.40511972e-07 -5.73601300e-09
      -1.87537225e-07 -3.83628674e-07 -5.61120373e-07 -6.94121354e-07
      -7.72415149e-07 -7.98042947e-07 -7.50901279e-07 -6.44288662e-07
      -5.12009706e-07 -3.73639892e-07 -2.71142227e-07 -2.30615413e-07
      -2.85910517e-07 -4.38062131e-07 -6.50199581e-07 -8.60247610e-07
      -1.03203479e-06 -1.13371459e-06 -1.14685133e-06 -1.08360450e-06
      -9.64934543e-07 -8.08127879e-07 -6.44516774e-07 -5.22748905e-07
      -4.51183780e-07 -4.30309257e-07 -4.63181408e-07 -5.20327944e-07
      -5.77789876e-07 -5.95114329e-07 -6.00210683e-07 -5.73038960e-07
      -4.94272058e-07 -3.71720176e-07 -2.42570593e-07 -1.41059331e-07
      -7.35375423e-08 -6.90044715e-08 -1.06087249e-07 -1.56228893e-07
      -2.36011061e-07 -3.27562276e-07 -4.46784497e-07 -5.84401619e-07
      -7.29135934e-07 -8.54509722e-07 -9.41906194e-07 -9.71658892e-07
      8.58947033e-07 8.56722238e-07 8.34144373e-07 7.63981518e-07
      6.20496110e-07 4.21226588e-07 2.06502335e-07 1.59037938e-08
      -1.56275561e-07 -3.03576712e-07 -3.87563460e-07 -4.45995852e-07
      -4.65682405e-07 -4.53251232e-07 -4.34919144e-07 -4.10191092e-07
      -4.05297072e-07 -4.17811634e-07 -4.83214933e-07 -5.94868482e-07
      -7.08548498e-07 -7.39202108e-07 -6.61114427e-07 -5.16160526e-07
      -3.17875958e-07 -1.51207828e-07 -1.98188967e-08 1.00302124e-07
      1.65548286e-07 2.04267437e-07 2.08224705e-07 1.82125163e-07
      1.24106094e-07 6.65126905e-08 5.76164432e-08 7.92207473e-08
      1.32788941e-07 1.66128487e-07 1.21118973e-07 4.85737033e-08
      -1.97743173e-08 -6.85321027e-08 -1.12202557e-07 -1.42526929e-07
      -1.59908382e-07 -1.50913252e-07 -1.51155007e-07 -1.64265586e-07
      -1.72196991e-07 -1.84293697e-07 -1.86179037e-07 -1.91114381e-07
      3.84678174e-07 3.46905892e-07 2.54474571e-07 1.12178363e-07
      -4.85640754e-08 -1.94153174e-07 -2.97252484e-07 -3.47925976e-07
      -3.54251995e-07 -3.34937198e-07 -3.21018206e-07 -3.32382967e-07
      -3.22812383e-07 -2.97155736e-07 -2.64721791e-07 -2.11781483e-07
      -1.40415324e-07 -8.95704559e-08 -8.52238244e-08 -1.15764415e-07
      -1.18454018e-07 -5.94145924e-08 3.88913612e-09 3.02662251e-08
      2.31018991e-08 -3.19176365e-08 -1.08021183e-07 -1.78031726e-07
      -2.64323489e-07 -3.20186246e-07 -3.02694758e-07 -2.43855425e-07
      -1.37711879e-07 2.09572110e-10 1.53630523e-07 2.72961358e-07
      3.64946487e-07 3.78249098e-07 3.65462313e-07 3.22859023e-07
      2.56919634e-07 2.13419469e-07 2.01188428e-07 2.25277489e-07
      2.85690760e-07 3.35322767e-07 3.74297286e-07 4.08619144e-07
      4.59819489e-07 5.10772111e-07 5.55603435e-07 5.70367092e-07
      1.12052732e-07 1.00264465e-07 5.92016605e-08 -1.14200178e-08
      -7.18680653e-08 -8.01750062e-08 -5.71099221e-08 -2.09884838e-08
      1.77136137e-08 5.24162402e-08 4.42214336e-08 4.81558651e-08
      7.84851864e-08 1.16347856e-07 1.54373950e-07 1.95381801e-07
      2.31761788e-07 2.44260150e-07 2.33645267e-07 1.81869339e-07
      7.11083601e-08 -5.68230334e-08 -1.72847294e-07 -2.68956597e-07
      -3.85235836e-07 -4.84209238e-07 -5.40610586e-07 -5.81740210e-07
      -6.06601816e-07 -6.16918101e-07 -5.61968250e-07 -4.62917939e-07
      -3.29266328e-07 -1.57948776e-07 4.71128132e-08 3.91386777e-07
      6.81236429e-07 8.37399398e-07 8.88111401e-07 8.49087087e-07
      7.79976233e-07 7.03902856e-07 6.30276020e-07 5.41244674e-07
      4.60994158e-07 3.70406809e-07 2.81158549e-07 2.06883797e-07
      1.27156568e-07 6.45491127e-08 3.64452468e-08 3.07693639e-08
      5.41943905e-07 5.55726842e-07 5.88519185e-07 6.35338665e-07
      6.81436177e-07 7.02219666e-07 6.79711718e-07 6.41552219e-07
      5.90557761e-07 5.40087228e-07 4.78459754e-07 4.54829546e-07
      4.23129165e-07 3.80755807e-07 3.37645645e-07 2.80095520e-07
      1.94271010e-07 2.92008746e-08 -2.15630251e-07 -5.00540011e-07
      -7.50874051e-07 -8.97543089e-07 -9.83895006e-07 -1.05365075e-06
      -1.07871904e-06 -1.00659338e-06 -8.67042615e-07 -7.21416086e-07
      -6.04880313e-07 -5.37371704e-07 -4.91511685e-07 -4.47075934e-07
      -3.80114756e-07 -2.58868880e-07 -3.78495422e-08 2.88143838e-07
      6.35278354e-07 8.76797401e-07 9.16941701e-07 7.95640915e-07
      7.32971898e-07 6.00597957e-07 4.07255271e-07 1.88689071e-07
      -3.50157485e-08 -2.43858182e-07 -4.02684236e-07 -5.18357695e-07
      -6.09091842e-07 -6.61078730e-07 -6.82159282e-07 -6.93626362e-07
      1.92390061e-07 1.93976916e-07 2.00090597e-07 2.13814090e-07
      2.17328505e-07 2.21655085e-07 2.37967470e-07 2.50482003e-07
      2.64377775e-07 2.58031179e-07 2.99539153e-07 3.81901344e-07
      4.39488076e-07 4.68258889e-07 4.41720090e-07 3.26917274e-07
      1.18185127e-07 -1.72471331e-07 -4.87400655e-07 -7.34943796e-07
      -8.89124976e-07 -9.45280135e-07 -8.92461230e-07 -7.97614973e-07
      -6.61848901e-07 -4.92933736e-07 -3.32957910e-07 -2.01341720e-07
      -1.42400580e-07 -1.37640455e-07 -1.68831207e-07 -1.99613297e-07
      -2.13345189e-07 -1.88472228e-07 -5.89989995e-08 1.62631324e-07
      4.18818331e-07 6.04019704e-07 6.61135232e-07 6.12051451e-07
      4.73399297e-07 3.24735680e-07 1.36352952e-07 -6.68073667e-08
      -2.79095559e-07 -4.55898686e-07 -5.79303673e-07 -6.58416525e-07
      -6.92258595e-07 -6.94710707e-07 -6.86025430e-07 -6.79084621e-07
      -1.86072072e-07 -1.77068785e-07 -1.53800627e-07 -1.13970017e-07
      -6.48379981e-08 -1.36042964e-08 4.05925142e-08 8.36504555e-08
      1.20082248e-07 1.53846173e-07 2.77466285e-07 4.76104333e-07
      6.92513140e-07 8.65768016e-07 9.85862698e-07 1.02546483e-06
      8.89357977e-07 6.09189101e-07 3.10966840e-07 1.29728363e-07
      9.34989401e-08 1.31350205e-07 2.08805361e-07 2.69041891e-07
      3.74970682e-07 4.97930387e-07 5.94543963e-07 6.08737082e-07
      5.53603172e-07 4.42715987e-07 3.13179328e-07 2.36143293e-07
      1.94809957e-07 2.67119702e-07 4.51770859e-07 6.98119720e-07
      1.00486409e-06 1.34901165e-06 1.57678357e-06 1.61187643e-06
      1.46060711e-06 1.29897876e-06 1.12675184e-06 9.17884222e-07
      6.85941188e-07 4.98175609e-07 3.40722721e-07 2.22418038e-07
      1.52012348e-07 1.19601225e-07 1.04383197e-07 1.13696792e-07
      -4.80634732e-08 -3.85934058e-08 -8.90878371e-10 5.19453991e-08
      1.31019959e-07 2.03496512e-07 2.65290964e-07 3.19143652e-07
      3.42684871e-07 4.14342509e-07 5.34333651e-07 6.69045619e-07
      8.24770268e-07 9.92489618e-07 1.23740574e-06 1.40660688e-06
      1.46294155e-06 1.41858152e-06 1.25690008e-06 1.16009073e-06
      1.15651051e-06 1.19292542e-06 1.17587797e-06 1.12248210e-06
      1.06800121e-06 1.01051569e-06 8.90943795e-07 7.28496616e-07
      6.47386969e-07 6.29093392e-07 6.49772801e-07 7.64163190e-07
      9.18274623e-07 1.03375305e-06 1.05500499e-06 1.08356789e-06
      1.18206128e-06 1.39200472e-06 1.64582366e-06 1.83377529e-06
      1.89073785e-06 1.83050417e-06 1.74666286e-06 1.62787728e-06
      1.49650020e-06 1.38616281e-06 1.30735600e-06 1.19853667e-06
      1.08445522e-06 9.91562843e-07 9.29065379e-07 9.15087583e-07
      1.29363542e-08 1.61096807e-08 3.12805497e-08 5.22373398e-08
      8.29825026e-08 9.50734673e-08 1.00229769e-07 9.32601125e-08
      4.99289960e-08 5.83746278e-08 6.51887007e-08 8.82789806e-08
      2.08483016e-07 4.22335035e-07 6.23093513e-07 7.37035464e-07
      8.29593489e-07 9.68266136e-07 1.12891132e-06 1.21401536e-06
      1.28501586e-06 1.31725892e-06 1.21866572e-06 1.06619757e-06
      8.41222516e-07 5.98239751e-07 3.81073164e-07 2.33127565e-07
      2.07354717e-07 2.70538493e-07 3.61684954e-07 4.74472415e-07
      6.16710736e-07 6.10641678e-07 6.10604502e-07 5.72797376e-07
      4.99128134e-07 5.49437232e-07 6.64747802e-07 7.50340178e-07
      6.88918021e-07 6.15849956e-07 4.84888517e-07 3.72379588e-07
      2.71118068e-07 1.60617333e-07 1.14846323e-07 9.15353127e-08
      7.48106004e-08 8.03207953e-08 9.17044289e-08 9.34635338e-08
      4.34448026e-07 4.25462190e-07 3.70880173e-07 2.54934491e-07
      1.01184398e-07 -3.59287426e-08 -1.77248225e-07 -3.10436718e-07
      -3.52279017e-07 -3.39742314e-07 -3.32141013e-07 -3.19000634e-07
      -2.65746706e-07 -1.54534362e-07 -5.18419760e-08 -3.09846655e-08
      -5.68620351e-09 1.43359728e-07 4.51614227e-07 8.43700946e-07
      1.14250611e-06 1.32607602e-06 1.38517589e-06 1.22016877e-06
      8.30248780e-07 5.12463089e-07 2.62021189e-07 1.27381398e-07
      1.08885004e-07 2.02655457e-07 3.41467057e-07 3.91320583e-07
      4.84907957e-07 5.21639208e-07 5.04560433e-07 4.82960559e-07
      4.51171047e-07 3.12571530e-07 2.25523166e-07 9.99190846e-08
      -3.88530204e-08 -1.67128249e-07 -3.36499937e-07 -4.31512348e-07
      -4.83339647e-07 -5.30684872e-07 -5.58163094e-07 -5.28293867e-07
      -4.91115372e-07 -4.45473489e-07 -3.80709338e-07 -3.55289274e-07
      2.80672594e-07 2.95804540e-07 3.24100228e-07 3.60383211e-07
      3.77790229e-07 3.64611765e-07 3.21851900e-07 3.13997759e-07
      3.84551328e-07 4.39579821e-07 4.87077557e-07 5.48483968e-07
      5.42671216e-07 4.73976002e-07 2.88162681e-07 4.32020073e-08
      -2.23170403e-07 -3.71813968e-07 -2.73455356e-07 1.03178380e-07
      5.51258665e-07 9.01278042e-07 1.11325892e-06 1.20439370e-06
      1.18233743e-06 1.05265951e-06 8.61830188e-07 7.30231932e-07
      7.16694899e-07 7.89194758e-07 8.47457784e-07 7.56783948e-07
      6.19570926e-07 4.65069547e-07 3.26484155e-07 2.13600714e-07
      3.34355335e-08 -1.96341816e-07 -4.18336157e-07 -4.99387340e-07
      -3.84686189e-07 -1.71485866e-07 5.09827025e-08 2.08453500e-07
      2.17617554e-07 1.66596024e-07 9.33125648e-08 4.87764957e-08
      2.00600940e-08 -4.93833019e-09 1.46212571e-08 1.84477411e-08
      -5.62477220e-09 9.74599867e-09 5.46712791e-08 1.23427739e-07
      2.18516192e-07 3.18684698e-07 4.35509037e-07 5.99476323e-07
      7.36338222e-07 8.70154736e-07 1.07742790e-06 1.25763859e-06
      1.28264844e-06 1.05895708e-06 6.78766355e-07 2.39513014e-07
      -1.95030395e-07 -5.37972539e-07 -7.04761192e-07 -5.51693915e-07
      -6.26068939e-08 3.54625001e-07 6.49404512e-07 8.35586661e-07
      9.72090447e-07 1.07487790e-06 1.15333819e-06 1.21180517e-06
      1.19972742e-06 1.08030542e-06 8.60741977e-07 5.92153469e-07
      3.85693511e-07 2.71624032e-07 2.01952361e-07 1.62927833e-07
      3.42311957e-08 -9.71104299e-08 -1.12600134e-07 -1.13365957e-08
      1.21911285e-07 1.54674751e-07 1.57669561e-07 1.92394467e-07
      2.24163813e-07 2.35921505e-07 2.26876665e-07 2.84230424e-07
      3.99079283e-07 5.08214669e-07 5.69169686e-07 5.92944673e-07
      -1.17790769e-07 -9.28703656e-08 -4.07180174e-08 2.95923890e-08
      1.05838332e-07 1.70887020e-07 2.54454420e-07 3.70707198e-07
      4.89869251e-07 6.42227803e-07 7.70585473e-07 8.10142353e-07
      7.35423669e-07 5.80229198e-07 4.12191525e-07 1.74263079e-07
      -1.13906658e-07 -3.01807518e-07 -3.42407645e-07 -1.96666946e-07
      1.58175197e-07 5.22127209e-07 7.31828379e-07 8.11204075e-07
      8.72459168e-07 9.50861249e-07 1.08525217e-06 1.27595331e-06
      1.48009769e-06 1.63962238e-06 1.62741833e-06 1.49055279e-06
      1.32132368e-06 1.09496762e-06 7.54442226e-07 3.82319882e-07
      5.59605589e-08 -6.25299990e-08 -1.19529160e-08 1.67317069e-07
      3.64210024e-07 5.11030862e-07 5.42043040e-07 5.09665199e-07
      4.13333481e-07 3.12124087e-07 2.15159019e-07 1.27419270e-07
      9.11418141e-08 1.00293661e-07 7.59050778e-08 5.74002499e-08
      3.21973658e-07 3.37636919e-07 3.77763655e-07 4.15598805e-07
      4.34681652e-07 4.43464785e-07 4.29346471e-07 4.03865556e-07
      3.60363288e-07 3.05723177e-07 2.10210388e-07 1.01943023e-07
      -2.12892051e-08 -1.54624360e-07 -2.72882431e-07 -3.42220943e-07
      -3.52369995e-07 -2.68374038e-07 -9.01648605e-08 1.84976145e-07
      5.29639010e-07 8.44488909e-07 1.13942258e-06 1.30905005e-06
      1.26895350e-06 1.15885996e-06 1.16402384e-06 1.29367459e-06
      1.51651579e-06 1.70383339e-06 1.73211322e-06 1.68987719e-06
      1.60676620e-06 1.40257828e-06 1.07944561e-06 7.00123564e-07
      4.35963983e-07 3.20166748e-07 3.75906126e-07 5.12253393e-07
      7.04380398e-07 8.54293376e-07 8.79166066e-07 7.96286031e-07
      6.43208466e-07 4.95117604e-07 3.11179548e-07 1.21458328e-07
      6.25894314e-09 -5.00065092e-08 -6.36838422e-08 -7.82253267e-08
      6.14253054e-07 6.14979854e-07 6.46776641e-07 6.67655797e-07
      6.43090516e-07 5.91432240e-07 5.26742099e-07 4.62083733e-07
      4.35429200e-07 4.31265704e-07 4.38349872e-07 4.57301070e-07
      4.83772737e-07 5.15020702e-07 5.12743441e-07 4.70845379e-07
      4.50867390e-07 5.28275677e-07 6.51768630e-07 7.71906173e-07
      8.89138278e-07 1.00590898e-06 1.14602005e-06 1.21644314e-06
      1.17400339e-06 1.02249794e-06 8.50057859e-07 7.21460992e-07
      6.53905602e-07 6.27692998e-07 6.51743505e-07 7.31469186e-07
      8.76737488e-07 1.00999000e-06 1.08122231e-06 1.02681770e-06
      9.27139070e-07 8.71911539e-07 8.40912207e-07 8.14034081e-07
      7.98635654e-07 7.59451268e-07 7.16113107e-07 6.33509387e-07
      5.23527490e-07 4.52094895e-07 4.19692384e-07 4.21234574e-07
      4.49180277e-07 4.64294033e-07 4.99502619e-07 5.08843414e-07
      2.26541577e-08 3.37126345e-08 3.21898987e-08 2.17641123e-08
      2.21775327e-08 2.55219028e-08 3.84358607e-08 2.63244377e-08
      2.31141524e-08 1.28182043e-08 5.31987503e-08 1.83423580e-07
      3.54545477e-07 5.44792556e-07 7.10151994e-07 8.69727955e-07
      9.96859399e-07 1.08892368e-06 1.08424149e-06 1.04818855e-06
      1.05054858e-06 1.11286045e-06 1.22111021e-06 1.26749273e-06
      1.24331541e-06 1.16395813e-06 1.01900196e-06 8.55787903e-07
      6.67561778e-07 5.15978854e-07 4.34211415e-07 4.39361145e-07
      4.70307498e-07 5.16856517e-07 5.12610143e-07 4.68522700e-07
      4.35036725e-07 4.23460563e-07 4.04431916e-07 4.05842826e-07
      3.85800348e-07 3.53549439e-07 3.58730347e-07 3.47694538e-07
      3.28908129e-07 2.91627941e-07 2.46973372e-07 2.62121489e-07
      3.38578928e-07 4.53378874e-07 5.52341362e-07 6.05051298e-07
      -4.16719161e-07 -4.19671437e-07 -4.52639512e-07 -4.95794836e-07
      -5.33167565e-07 -5.59490900e-07 -5.89944932e-07 -6.41897941e-07
      -6.96904294e-07 -6.59164755e-07 -5.44762486e-07 -4.18637626e-07
      -2.85491438e-07 -1.71291092e-07 -1.03232182e-07 -5.06665856e-08
      -3.68250284e-08 -8.15064638e-08 -1.41752238e-07 -1.58599761e-07
      -9.63218127e-08 5.41907141e-08 2.71147400e-07 4.77157243e-07
      6.33028549e-07 7.10168649e-07 7.11191660e-07 6.41542101e-07
      4.93125640e-07 3.89414339e-07 3.75147096e-07 4.02221502e-07
      3.26401846e-07 2.27257701e-07 3.39912951e-08 -1.83324900e-07
      -3.38375401e-07 -3.82588865e-07 -3.53998018e-07 -2.59224805e-07
      -1.52133396e-07 -2.57014907e-08 7.93224331e-08 1.29753431e-07
      1.29772758e-07 7.87536507e-08 -5.07418330e-09 -1.00636399e-07
      -1.67592219e-07 -1.41014752e-07 -1.44967984e-07 -1.39796981e-07
      -2.09499930e-07 -2.48706186e-07 -3.24227756e-07 -4.00024931e-07
      -4.49522162e-07 -4.50061265e-07 -4.01268380e-07 -3.53909400e-07
      -3.18598808e-07 -2.71325774e-07 -2.05112428e-07 -1.57368078e-07
      -1.44278971e-07 -1.72629981e-07 -2.33441440e-07 -3.53057715e-07
      -5.38386644e-07 -7.56034979e-07 -9.28099951e-07 -1.01784428e-06
      -1.00528973e-06 -8.84606891e-07 -6.89600256e-07 -5.64595155e-07
      -5.67002985e-07 -6.42034252e-07 -7.31017678e-07 -8.05051911e-07
      -7.96638574e-07 -6.85195573e-07 -5.52004337e-07 -4.68266109e-07
      -4.34875830e-07 -4.55662473e-07 -5.26092947e-07 -6.02751754e-07
      -6.29954684e-07 -5.58978627e-07 -4.04690752e-07 -2.19138400e-07
      -3.07226671e-08 1.10266470e-07 1.59597903e-07 1.18459134e-07
      2.82708577e-08 -6.26056149e-08 -1.11518361e-07 -1.15132885e-07
      -2.50785899e-08 7.36432515e-09 1.12921130e-08 1.46350798e-08
      -3.31984154e-07 -3.21702714e-07 -2.62494297e-07 -1.65120085e-07
      -4.75702571e-08 7.74115847e-08 1.74295906e-07 2.27821388e-07
      2.27484279e-07 1.29182297e-07 -1.40127048e-08 -9.87174715e-08
      -1.38470057e-07 -1.44264376e-07 -1.29636078e-07 -1.29373944e-07
      -1.43073564e-07 -2.00894263e-07 -2.83778036e-07 -3.57379747e-07
      -4.45631400e-07 -5.47460672e-07 -6.91881041e-07 -9.24706910e-07
      -1.25001304e-06 -1.59833382e-06 -1.86933926e-06 -2.05154311e-06
      -2.08162101e-06 -1.90257936e-06 -1.55135467e-06 -1.09380403e-06
      -6.39588336e-07 -2.82820423e-07 -8.59454090e-08 2.15969020e-08
      1.02925959e-07 1.95969434e-07 3.04532904e-07 4.16324980e-07
      5.22449682e-07 5.54750500e-07 5.10948610e-07 4.08415275e-07
      3.01040046e-07 2.80772895e-07 3.27266093e-07 4.07394936e-07
      4.37549602e-07 4.66118394e-07 4.80735309e-07 4.82628991e-07
      -2.67444165e-07 -2.34392715e-07 -1.45415669e-07 -2.25536532e-08
      9.05510618e-08 1.48044208e-07 1.15054881e-07 8.34327363e-09
      -1.79156544e-07 -3.15055246e-07 -4.35774837e-07 -4.23546084e-07
      -2.09146862e-07 1.44024284e-07 5.17260730e-07 8.43349255e-07
      1.08768700e-06 1.21002188e-06 1.18585535e-06 1.03145783e-06
      7.88055218e-07 4.85461612e-07 1.29297490e-07 -2.51843488e-07
      -6.17356477e-07 -8.96779341e-07 -1.08924223e-06 -1.18366222e-06
      -1.12525538e-06 -9.00502982e-07 -5.43011708e-07 -1.12915068e-07
      3.31844006e-07 7.32638227e-07 9.93654567e-07 1.12539522e-06
      1.16654962e-06 1.12496150e-06 1.04659193e-06 1.00355555e-06
      9.84822236e-07 9.24139101e-07 7.95649726e-07 5.91785124e-07
      4.12309589e-07 3.55926346e-07 2.87279533e-07 1.86371949e-07
      5.94662950e-08 -2.53507295e-08 -7.21082358e-08 -8.76043416e-08
      4.80297274e-07 4.94380572e-07 5.15370687e-07 5.03989781e-07
      4.60260878e-07 3.90841251e-07 2.67048193e-07 1.32011920e-07
      2.84503443e-08 -3.87008292e-09 5.35415978e-08 2.54694555e-07
      5.68288385e-07 1.12849227e-06 1.54466863e-06 1.84516296e-06
      2.00846307e-06 1.92705534e-06 1.68142196e-06 1.35671860e-06
      1.08321819e-06 9.11008726e-07 8.56556767e-07 9.04072124e-07
      9.98523888e-07 1.08174152e-06 1.09933569e-06 1.09940652e-06
      1.11308657e-06 1.17109380e-06 1.27177282e-06 1.37801896e-06
      1.47481649e-06 1.52168548e-06 1.49032371e-06 1.40182988e-06
      1.29882199e-06 1.23971745e-06 1.23511120e-06 1.26013322e-06
      1.29226930e-06 1.28556815e-06 1.11914972e-06 6.94146877e-07
      2.06123786e-07 -1.72503832e-07 -3.85629903e-07 -4.69161733e-07
      -4.71208523e-07 -4.31474717e-07 -3.83924800e-07 -3.65097208e-07
      2.79866100e-07 2.49182989e-07 1.97679071e-07 1.30082810e-07
      5.55490907e-08 -2.24636540e-08 -7.05113266e-08 -7.06426420e-08
      6.93044768e-08 3.10503566e-07 6.78874301e-07 1.19001731e-06
      1.76806600e-06 2.07848643e-06 2.28227213e-06 2.13902035e-06
      1.87617991e-06 1.38356768e-06 9.04731451e-07 5.62127525e-07
      3.79478195e-07 4.35421953e-07 6.58344618e-07 1.01628814e-06
      1.42750400e-06 1.78076607e-06 2.04025469e-06 2.15477303e-06
      2.16611488e-06 2.10414169e-06 1.97777081e-06 1.80663233e-06
      1.60201796e-06 1.34478830e-06 1.06083667e-06 7.57354030e-07
      5.76159778e-07 5.29432043e-07 5.99455348e-07 7.11750943e-07
      8.08016807e-07 9.65717390e-07 1.00873797e-06 6.69703752e-07
      1.89034310e-07 -2.08903501e-07 -4.20073974e-07 -4.86501904e-07
      -4.34362107e-07 -2.72401365e-07 -1.39299942e-07 -7.87231329e-08
      -5.61889124e-07 -5.67554594e-07 -5.76325704e-07 -5.89394574e-07
      -5.94130995e-07 -5.95936854e-07 -5.35112861e-07 -4.00630285e-07
      -2.18790518e-07 -1.94178345e-08 2.07591654e-07 4.33301295e-07
      6.52090932e-07 1.00965906e-06 1.32259061e-06 1.41545058e-06
      1.26031659e-06 9.28973293e-07 6.61072818e-07 4.69032102e-07
      3.35391945e-07 3.04965198e-07 3.89256343e-07 5.83182157e-07
      8.56030283e-07 1.13146848e-06 1.35419066e-06 1.48818322e-06
      1.49033406e-06 1.37328527e-06 1.17748073e-06 9.37253560e-07
      6.49069477e-07 3.46685596e-07 1.08489402e-07 -6.83974974e-08
      -1.01537459e-07 3.27310303e-08 3.07498453e-07 5.48040589e-07
      6.41442057e-07 6.12351585e-07 5.02607918e-07 3.34839797e-07
      1.60184086e-07 2.22400498e-08 -7.03193024e-08 -1.26174072e-07
      -1.50105890e-07 -1.24192994e-07 -9.03070045e-08 -6.61645672e-08
      -6.18051331e-07 -6.02853163e-07 -5.91514322e-07 -5.79631489e-07
      -5.57511044e-07 -5.39746623e-07 -5.07165680e-07 -4.03515003e-07
      -2.93141397e-07 -1.72541206e-07 -6.16657871e-08 -3.15268012e-09
      7.06153713e-08 1.88173530e-07 1.76473222e-07 2.13787558e-07
      2.97739888e-07 3.82572750e-07 4.82099892e-07 4.46200374e-07
      1.75271666e-07 -2.53981653e-08 -1.06996801e-07 -7.43807576e-08
      3.99708320e-08 1.75514458e-07 3.24662210e-07 4.91262881e-07
      6.09296819e-07 6.77017567e-07 7.07726656e-07 6.29018416e-07
      4.02558214e-07 1.00556029e-07 1.44602659e-08 2.01256931e-08
      1.18527844e-07 3.48461555e-07 6.50383981e-07 9.62617833e-07
      1.19107040e-06 1.25718475e-06 1.12328132e-06 9.19486183e-07
      6.27117629e-07 3.44728051e-07 1.78422326e-07 1.36931902e-07
      5.37034808e-08 -3.67367221e-08 -7.39330659e-08 -8.18818009e-08
      4.65184911e-07 4.38518441e-07 3.64626061e-07 2.60185033e-07
      1.66577124e-07 1.09288713e-07 1.24532804e-07 1.64931848e-07
      1.96848376e-07 2.09340982e-07 1.87193635e-07 1.94496039e-07
      2.36237625e-07 2.86514364e-07 3.26677053e-07 3.61503965e-07
      3.61142980e-07 3.68965203e-07 5.21164679e-07 7.41598797e-07
      7.75181263e-07 6.97405085e-07 6.10511734e-07 5.75106469e-07
      5.29131739e-07 5.78053175e-07 7.02413615e-07 8.23986795e-07
      8.43040709e-07 7.97943187e-07 7.00207750e-07 5.87358443e-07
      4.96470079e-07 4.80605081e-07 5.88016405e-07 8.53067206e-07
      1.29933119e-06 1.77154072e-06 2.01164266e-06 2.16160538e-06
      2.21457003e-06 2.17480829e-06 1.90080175e-06 1.52770440e-06
      1.14131774e-06 7.83903999e-07 5.58491479e-07 5.21360050e-07
      5.66792323e-07 6.20013395e-07 6.53975576e-07 6.60586579e-07
      2.39322816e-07 2.03539784e-07 1.19170068e-07 4.84754059e-09
      -6.06290698e-08 -5.38786580e-08 2.26661250e-08 1.49458486e-07
      3.22098600e-07 4.52663670e-07 5.09506947e-07 5.48630112e-07
      5.90811737e-07 6.03987189e-07 5.67429254e-07 4.28272074e-07
      1.78035819e-07 -3.16766418e-08 -5.81420529e-08 1.14118144e-07
      4.69635268e-07 9.07423953e-07 1.22345045e-06 1.37310451e-06
      1.43677698e-06 1.59464082e-06 1.80926577e-06 1.81953465e-06
      1.66678137e-06 1.45795173e-06 1.17013758e-06 8.49560479e-07
      4.71352195e-07 8.18950667e-08 -1.83534024e-08 1.99629909e-07
      6.08008691e-07 1.05991319e-06 1.49362063e-06 1.71926320e-06
      1.86217972e-06 1.57500494e-06 1.11309134e-06 6.42276632e-07
      3.64869408e-07 1.82873009e-07 5.44685470e-08 -2.62762203e-08
      -5.12822851e-08 -6.93399116e-08 -6.79481715e-08 -6.35688195e-08
      4.15069252e-07 3.92249063e-07 3.38793200e-07 2.71570514e-07
      2.06660260e-07 1.69445272e-07 1.69702915e-07 1.94975001e-07
      2.37815129e-07 2.70158978e-07 3.71515142e-07 5.93077914e-07
      6.95993435e-07 9.51216691e-07 1.25053907e-06 1.39120436e-06
      1.31596084e-06 9.43777650e-07 4.40679457e-07 9.81143273e-08
      -5.42012089e-08 3.16896838e-08 2.57568530e-07 5.40562155e-07
      7.78569301e-07 8.98325027e-07 9.16542660e-07 8.34183140e-07
      6.71092380e-07 4.62176189e-07 2.10667650e-07 -4.12420640e-08
      -2.00449449e-07 -2.24935690e-07 -1.33505580e-07 5.63467708e-08
      2.43793352e-07 3.72859660e-07 5.17333831e-07 6.30914940e-07
      6.97802022e-07 5.29092688e-07 2.07343675e-07 -7.50446958e-08
      -2.24805277e-07 -3.82809731e-07 -5.78318065e-07 -6.79053642e-07
      -7.57620114e-07 -8.01210774e-07 -8.24138226e-07 -8.26124847e-07
      7.91158186e-07 7.56368308e-07 6.46284263e-07 5.09263032e-07
      3.71864473e-07 2.75406478e-07 2.07506474e-07 1.51435245e-07
      1.24048171e-07 9.07894488e-08 5.97243357e-08 6.46051106e-08
      1.44845600e-07 3.13286563e-07 5.16073214e-07 6.54477617e-07
      6.39871928e-07 3.70185461e-07 -1.28953630e-07 -4.11178064e-07
      -4.70775717e-07 -4.85383509e-07 -3.67664342e-07 -1.89217474e-07
      -1.01662209e-07 -1.73062517e-07 -2.75487054e-07 -3.50669694e-07
      -3.85618250e-07 -3.45312060e-07 -2.36401902e-07 -1.22318980e-07
      5.88605040e-08 3.52734162e-07 6.56423538e-07 7.65893731e-07
      7.36665299e-07 5.91608114e-07 4.10337179e-07 1.73911076e-07
      -1.89010507e-07 -4.25279950e-07 -4.69632738e-07 -3.41642732e-07
      -2.12071711e-07 -1.69019913e-07 -2.07944339e-07 -2.75625581e-07
      -3.54424543e-07 -4.03986348e-07 -4.28793243e-07 -4.27568580e-07
      6.23837479e-07 5.99620591e-07 5.18661750e-07 4.17164586e-07
      3.42111719e-07 3.12900085e-07 3.07899882e-07 3.31725261e-07
      3.85596195e-07 4.44224412e-07 4.43399273e-07 3.81488974e-07
      2.82540782e-07 2.01603967e-07 1.33128651e-07 7.87085099e-08
      -4.64640095e-08 -2.36379918e-07 -4.34014709e-07 -6.35769084e-07
      -8.04564195e-07 -8.87676151e-07 -6.84707459e-07 -3.51186543e-07
      -1.23107313e-07 7.30702787e-09 5.13002014e-08 9.26676194e-08
      1.70978794e-07 2.62946202e-07 3.54070352e-07 3.80609436e-07
      4.41607654e-07 5.19304251e-07 5.96695202e-07 7.20489197e-07
      8.92129435e-07 7.49766286e-07 4.79543303e-07 2.16883933e-07
      6.06464425e-08 1.72863068e-07 3.04685301e-07 4.27062218e-07
      4.57778555e-07 4.11174938e-07 3.02939213e-07 1.55602834e-07
      4.24712709e-08 7.34142613e-09 8.54734683e-09 1.64181273e-08
      3.36465718e-07 3.27077004e-07 3.40342382e-07 3.75556283e-07
      3.77388943e-07 4.02105542e-07 5.06510730e-07 6.49866706e-07
      8.50073320e-07 8.31475802e-07 8.87291378e-07 8.51839275e-07
      7.70974339e-07 6.73681825e-07 5.87767204e-07 4.66259308e-07
      3.20593983e-07 3.75879807e-08 -2.08405794e-07 -1.12235519e-07
      -1.55141265e-07 -2.18368925e-07 -2.25688552e-07 -1.80156412e-09
      2.81274765e-07 5.48241303e-07 5.74285025e-07 6.06949925e-07
      6.36694438e-07 5.71906469e-07 3.34566067e-07 1.51874985e-07
      2.77750672e-07 3.94984113e-07 3.61174500e-07 1.39647184e-07
      1.02281987e-07 3.08691682e-07 6.27086592e-07 1.13728152e-06
      1.57501916e-06 1.91454842e-06 2.03798913e-06 1.94425525e-06
      1.73176079e-06 1.41002590e-06 1.06977973e-06 7.67000131e-07
      4.82535881e-07 2.08356127e-07 1.39750142e-07 1.24662350e-07
      -7.31590092e-07 -6.46408125e-07 -4.38802743e-07 -2.36550775e-07
      -4.10097307e-08 3.01819192e-08 -3.72842806e-08 -1.26856477e-07
      -1.44439127e-07 -1.46253910e-07 -1.79170200e-07 -1.76034547e-07
      -2.47377898e-07 -3.48891660e-07 -4.22449062e-07 -4.23167052e-07
      -3.86621963e-07 -3.89342404e-07 -3.48480626e-07 -2.29893104e-07
      -1.99630747e-07 -2.20600853e-07 -1.72090708e-07 -2.56776389e-07
      -3.20193436e-07 -2.92230283e-07 -2.57580155e-07 -2.23813217e-07
      -1.37282669e-07 -1.43574628e-08 -4.70970321e-08 -1.43252620e-07
      -3.05890012e-07 -4.39332837e-07 -4.91234630e-07 -5.23212748e-07
      -5.63847777e-07 -5.33598836e-07 -4.37276725e-07 -2.51219575e-07
      -5.27876338e-08 7.66630279e-08 1.31795005e-07 2.05344918e-07
      1.82513546e-07 8.23211010e-08 8.43500985e-08 7.71742563e-08
      -1.97703471e-08 -1.77278380e-07 -2.47145408e-07 -2.27224476e-07
      -7.06036360e-07 -6.84981671e-07 -4.33427118e-07 -1.58582310e-07
      4.77759308e-08 1.16907188e-07 3.15697406e-08 -1.41616582e-07
      -1.87190011e-07 -1.74816080e-07 -1.83493654e-07 -1.78595073e-07
      -1.72347043e-07 -2.20029833e-07 -3.00654534e-07 -3.40048899e-07
      -3.58228021e-07 -4.00542433e-07 -3.68275437e-07 -2.51243904e-07
      -2.45992425e-07 -2.97654339e-07 -2.56173109e-07 -2.56374534e-07
      -3.02035801e-07 -3.03028543e-07 -2.95899298e-07 -2.90711966e-07
      -1.84409899e-07 -7.52778107e-08 -8.08738321e-08 -1.42825229e-07
      -2.65381487e-07 -3.49409959e-07 -3.86572452e-07 -4.58727527e-07
      -5.04775414e-07 -4.60317295e-07 -4.02672498e-07 -2.95410558e-07
      -1.19692459e-07 5.95654583e-08 8.90518947e-08 1.91063108e-07
      1.85954249e-07 6.85100119e-08 3.70527751e-08 2.18577831e-08
      -7.84051721e-08 -2.55206771e-07 -3.64525221e-07 -3.81364686e-07
      -6.01018030e-07 -6.12464703e-07 -3.59067542e-07 -5.85314126e-08
      1.46661691e-07 2.57513449e-07 2.08866297e-07 -1.76439503e-08
      -1.84367792e-07 -2.22811494e-07 -2.25636398e-07 -2.44593423e-07
      -1.85150526e-07 -1.91629439e-07 -2.60672493e-07 -3.06511083e-07
      -3.32030936e-07 -3.68517618e-07 -3.29240891e-07 -2.36191525e-07
      -2.38457687e-07 -3.15964684e-07 -3.90640253e-07 -4.02298781e-07
      -4.13723541e-07 -3.98779292e-07 -3.84966540e-07 -3.83906269e-07
      -3.05899334e-07 -2.37875597e-07 -1.82306920e-07 -1.69358003e-07
      -1.58156624e-07 -2.01175510e-07 -2.42666090e-07 -3.37221906e-07
      -3.77977869e-07 -2.74688801e-07 -2.73789823e-07 -2.51869636e-07
      -6.78865746e-08 6.79759253e-08 8.46832791e-08 1.31931557e-07
      1.31825104e-07 9.74985923e-08 4.68278820e-08 4.90289445e-08
      -6.73542928e-08 -2.80667393e-07 -5.20990113e-07 -5.37774667e-07
      -3.67639814e-07 -3.90138666e-07 -1.82826753e-07 5.83898405e-08
      1.75747900e-07 3.13210137e-07 3.59401355e-07 2.33039117e-07
      9.51014112e-09 -9.98144358e-08 -1.52376828e-07 -1.99103496e-07
      -1.71602693e-07 -2.05350375e-07 -3.06498237e-07 -3.45693536e-07
      -3.37396386e-07 -3.27889836e-07 -2.71692869e-07 -1.94070722e-07
      -1.96728507e-07 -3.17069322e-07 -4.69242565e-07 -5.47389504e-07
      -5.68771441e-07 -5.75637841e-07 -5.15864940e-07 -4.61206980e-07
      -3.81305483e-07 -3.57680079e-07 -3.31233821e-07 -2.32622085e-07
      -5.44837064e-08 -4.61721541e-08 -1.47098717e-07 -2.55517193e-07
      -2.75662842e-07 -1.83089568e-07 -1.41007860e-07 -1.48980206e-07
      9.46098133e-09 9.72327996e-08 7.37115400e-08 1.00035962e-07
      6.01828205e-08 -3.03873726e-08 6.04500130e-08 1.15374306e-07
      2.88729893e-08 -1.82484868e-07 -4.26863863e-07 -4.39006271e-07
      -1.51603786e-07 -9.47714014e-08 9.64322453e-08 2.24105008e-07
      1.99273927e-07 1.97043121e-07 2.95393988e-07 2.93689766e-07
      2.13786393e-07 1.30655636e-07 3.78234724e-08 -3.87333010e-08
      -9.32205850e-08 -1.63233551e-07 -2.56607450e-07 -2.75401931e-07
      -2.75550860e-07 -2.93787906e-07 -2.36258998e-07 -1.44593855e-07
      -1.61746911e-07 -3.11019136e-07 -4.86553745e-07 -6.13190252e-07
      -7.22391519e-07 -7.87591205e-07 -7.05282901e-07 -6.06984827e-07
      -4.79886069e-07 -4.46235134e-07 -4.13851978e-07 -2.96812942e-07
      -4.88187979e-08 -1.73234156e-08 -1.24654122e-07 -1.82547353e-07
      -1.91099787e-07 -1.39990618e-07 -8.68949286e-08 -1.30178634e-07
      -7.67110606e-08 -1.49628612e-08 -3.09710231e-08 2.77431234e-08
      1.00900435e-08 -5.49098260e-08 -3.52801663e-08 1.20898889e-07
      1.15318024e-07 -1.52565391e-08 -1.35086538e-07 -1.35153996e-07
      2.67475087e-07 3.16368840e-07 4.33732225e-07 4.17093958e-07
      2.67054389e-07 1.08925214e-07 1.39406509e-07 1.69075264e-07
      1.59165410e-07 1.56648682e-07 1.14950119e-07 7.71317588e-08
      -6.33947153e-08 -1.93774213e-07 -1.69336417e-07 -1.48296252e-07
      -1.87609274e-07 -2.26160864e-07 -2.08714113e-07 -1.15063685e-07
      -1.18986584e-07 -2.72429645e-07 -4.75711261e-07 -6.08889252e-07
      -7.59494753e-07 -8.57188866e-07 -8.24189556e-07 -7.08001323e-07
      -5.57168846e-07 -5.26421275e-07 -4.58774934e-07 -2.97922725e-07
      -5.06619280e-08 -5.19915169e-08 -1.21805428e-07 -1.02183840e-07
      -6.18156264e-08 -6.28728145e-08 -2.66771725e-08 -1.08888507e-07
      -1.21087538e-07 -6.10777278e-08 -8.97069441e-08 -6.98552114e-08
      2.49640308e-09 -8.96362895e-09 -5.59891049e-08 4.00735836e-08
      1.39461534e-07 1.43778223e-07 1.22755523e-07 1.63298878e-07
      6.81208178e-07 7.13953284e-07 8.06879882e-07 6.48963123e-07
      3.95302351e-07 1.32958334e-07 9.46500265e-08 8.24465687e-08
      8.76157924e-10 -1.11980443e-08 6.44249170e-08 6.92219899e-08
      -9.35809581e-08 -2.56067921e-07 -2.19081542e-07 -1.00135836e-07
      -1.21473789e-07 -1.48068921e-07 -1.77490833e-07 -1.67308812e-07
      -1.28457046e-07 -2.18810357e-07 -4.25338726e-07 -5.50679886e-07
      -6.71015528e-07 -7.29852786e-07 -7.34490527e-07 -6.62750494e-07
      -6.06897913e-07 -5.45546357e-07 -4.11941215e-07 -2.46885094e-07
      -7.10651094e-08 -1.10104459e-07 -1.84619807e-07 -1.30217558e-07
      -5.70704763e-08 -5.14200096e-08 -3.41740680e-08 -6.60251729e-08
      -7.12348935e-08 4.39971757e-08 2.62639013e-08 -1.81605735e-08
      3.21124838e-09 2.49365595e-08 5.11578291e-09 3.58754604e-09
      1.01356299e-07 2.46151870e-07 3.34094437e-07 4.15798212e-07
      5.34578874e-07 6.46446551e-07 7.73562476e-07 8.09536630e-07
      4.66594997e-07 1.27185459e-07 1.33364466e-07 1.58701525e-07
      2.97700602e-08 -2.68952256e-08 3.18979403e-08 2.11377422e-08
      -1.35278384e-07 -2.78544832e-07 -2.40426857e-07 -1.44316587e-07
      -9.94498350e-08 -1.10865194e-07 -1.19985586e-07 -1.52116684e-07
      -1.83026501e-07 -1.72590788e-07 -2.74785691e-07 -4.12040322e-07
      -4.78459071e-07 -4.69744862e-07 -4.90920741e-07 -4.86832619e-07
      -5.17243564e-07 -4.90099978e-07 -3.48332179e-07 -1.66707110e-07
      -6.76405705e-08 -1.39775750e-07 -2.28089007e-07 -1.89609111e-07
      -1.64598944e-07 -1.45531871e-07 -5.12828890e-08 -7.42498152e-09
      2.46972021e-09 1.53296952e-07 2.40788410e-07 1.61136953e-07
      9.50578070e-08 5.33531335e-08 2.61788458e-08 -2.30806236e-08
      1.39598004e-08 1.83411260e-07 3.82289471e-07 5.28344856e-07
      3.38832308e-07 5.24586369e-07 6.83275459e-07 7.24255301e-07
      5.55669260e-07 2.73587801e-07 1.69376008e-07 1.11659858e-07
      -2.77173378e-08 -4.76276902e-08 -3.27320393e-09 4.43391173e-08
      -1.01339495e-07 -1.80423541e-07 -1.54860942e-07 -1.36544514e-07
      -9.66199494e-08 -2.73049334e-08 -4.20338466e-08 -9.71665273e-08
      -1.33094801e-07 -9.85745103e-08 -6.34715178e-08 -2.32028853e-07
      -3.48958309e-07 -2.95976434e-07 -2.88772270e-07 -3.40803467e-07
      -3.77739468e-07 -3.64861251e-07 -2.65639642e-07 -1.10578434e-07
      -8.52923066e-08 -1.22712805e-07 -1.01704543e-07 -1.31430838e-07
      -1.52176668e-07 -1.40115603e-07 2.40917224e-08 1.37505552e-07
      1.86748181e-07 2.73705240e-07 3.68525548e-07 3.58126840e-07
      2.76823386e-07 2.41620484e-07 1.48307805e-07 2.20151204e-08
      -7.85025520e-08 1.52717625e-08 1.67158788e-07 2.30090009e-07
      2.00630282e-07 3.90861231e-07 5.27416717e-07 6.29583383e-07
      5.64362324e-07 4.20283129e-07 2.78995174e-07 7.50895879e-08
      -8.24396480e-08 -1.13844635e-07 -6.64607498e-08 4.46420003e-08
      -2.54580836e-08 -1.40571803e-08 2.56346624e-08 -2.42405189e-08
      -4.81871325e-08 9.53654666e-09 2.85463209e-08 -5.87113114e-08
      -6.41351008e-08 6.27116705e-08 1.39989822e-07 -1.56652469e-08
      -2.19115435e-07 -3.09848730e-07 -3.10329796e-07 -4.12814927e-07
      -3.93980883e-07 -3.07736258e-07 -1.85656276e-07 -5.37588960e-08
      -8.18093255e-08 -8.24367135e-08 1.39398637e-07 2.98195346e-07
      2.21802082e-07 1.04721167e-07 1.45646951e-07 2.42450483e-07
      3.67650159e-07 4.76738876e-07 4.98366830e-07 4.90311663e-07
      4.61843342e-07 4.71802082e-07 3.76188979e-07 2.28460323e-07
      1.17741685e-07 8.70350050e-08 8.56250537e-08 4.46532695e-08
      8.35254710e-08 2.13725741e-07 2.91703600e-07 4.43966911e-07
      5.26863914e-07 5.47204138e-07 4.15478951e-07 1.70607166e-07
      -1.30458764e-08 -8.20479329e-08 -1.47542579e-07 -7.13704793e-08
      3.35749100e-08 1.53198428e-07 2.16195531e-07 1.38257761e-07
      6.78458747e-08 4.14355981e-08 4.57473810e-08 -5.79751624e-09
      2.49290135e-08 2.07375834e-07 4.71906930e-07 3.58319767e-07
      8.77723494e-08 -1.69883975e-07 -3.43942531e-07 -5.15997613e-07
      -5.17892715e-07 -3.97498439e-07 -2.11967532e-07 -2.65533351e-09
      -5.18765404e-08 -7.66708155e-08 2.18114721e-07 5.55989175e-07
      5.59762611e-07 4.36321784e-07 3.26009285e-07 2.76328251e-07
      3.53715649e-07 4.93088578e-07 5.77011519e-07 6.07179516e-07
      6.57635042e-07 6.66286837e-07 5.31213345e-07 4.56943326e-07
      4.42531103e-07 4.28663640e-07 3.63274808e-07 2.38784054e-07
      7.92386388e-08 1.26678373e-07 1.78176307e-07 2.99307573e-07
      4.46217825e-07 4.78869595e-07 4.17957295e-07 2.34776365e-07
      6.79245034e-08 -2.14944773e-09 -1.37385484e-07 -1.47306082e-07
      6.50787797e-08 3.34156482e-07 5.22839059e-07 4.93674634e-07
      3.89258076e-07 3.54033176e-07 2.42872375e-07 2.04595366e-07
      2.09712979e-07 2.87067451e-07 5.65880043e-07 7.75882938e-07
      5.36007917e-07 1.39126328e-07 -2.17068077e-07 -4.40256287e-07
      -5.01408692e-07 -3.96506266e-07 -1.76547758e-07 1.31458179e-07
      8.14330789e-08 2.19968292e-08 3.67399110e-07 5.93783000e-07
      5.43780573e-07 5.06723950e-07 3.71538107e-07 2.07172775e-07
      1.97935350e-07 3.12344270e-07 4.55061780e-07 6.59411683e-07
      8.14710575e-07 7.92911408e-07 6.55967767e-07 6.15716885e-07
      6.32281285e-07 6.32582612e-07 6.28880628e-07 5.42637338e-07
      8.74839543e-08 6.09130026e-08 1.47855502e-07 1.97184050e-07
      3.04300016e-07 4.19381564e-07 4.54000542e-07 3.95064347e-07
      2.20086420e-07 7.00775757e-08 -2.76950143e-08 -1.22288156e-07
      5.07747515e-08 4.31858524e-07 6.88855664e-07 7.73652346e-07
      7.59417219e-07 6.77702644e-07 5.59915236e-07 5.06083495e-07
      3.79648810e-07 3.10136159e-07 5.00602027e-07 9.48997865e-07
      9.62807007e-07 4.47836840e-07 -2.58453081e-08 -2.67712096e-07
      -3.45783974e-07 -2.74541549e-07 -8.09088547e-08 1.82076732e-07
      2.76112246e-07 1.52293310e-07 3.75666247e-07 5.13433463e-07
      4.64958589e-07 5.06297454e-07 4.80864628e-07 2.96334377e-07
      1.17430538e-07 5.14275413e-08 2.24167465e-07 5.46714432e-07
      8.59099202e-07 8.34825869e-07 6.53344671e-07 5.43480269e-07
      5.02160788e-07 5.13780265e-07 5.32893864e-07 5.49690697e-07
      -5.14724618e-08 -1.10729673e-07 6.48491678e-08 2.10049009e-07
      2.09959666e-07 3.53397553e-07 4.99943383e-07 5.45551700e-07
      4.79014034e-07 3.59649391e-07 2.78489409e-07 1.23951096e-07
      3.50702365e-08 3.27023002e-07 6.44403542e-07 7.83276164e-07
      9.07201468e-07 9.03247440e-07 8.26188113e-07 8.15090345e-07
      6.24291715e-07 4.12306406e-07 4.79906419e-07 9.05756053e-07
      1.09430437e-06 6.57771864e-07 1.76825395e-07 -5.04570750e-08
      -2.25986426e-07 -2.69668931e-07 -1.59283843e-07 1.04926038e-07
      3.40156930e-07 2.82079583e-07 3.58025545e-07 4.11027571e-07
      3.30818779e-07 4.40168321e-07 5.33153354e-07 4.56090731e-07
      2.55591289e-07 9.27830923e-10 -8.70578498e-10 3.92765173e-07
      7.63628179e-07 8.84910037e-07 7.65626226e-07 5.78997515e-07
      4.82555947e-07 4.32862095e-07 4.27725695e-07 4.19583216e-07
      -1.07979012e-07 -1.90394303e-07 -1.19248455e-07 8.38610781e-09
      9.10935682e-08 2.12742734e-07 4.25185306e-07 5.02859280e-07
      5.08724327e-07 4.77609603e-07 5.39829159e-07 5.67436302e-07
      3.58631496e-07 2.24723621e-07 3.95823179e-07 5.74256717e-07
      7.01464671e-07 7.52197025e-07 7.58064857e-07 8.78695630e-07
      7.36186109e-07 5.30279522e-07 5.17740489e-07 8.34829450e-07
      1.04244555e-06 7.05281877e-07 3.39238682e-07 1.24039161e-07
      -1.14237693e-07 -2.35062600e-07 -2.34029685e-07 -8.27141378e-08
      1.36008538e-07 1.97605345e-07 3.10593464e-07 3.54148341e-07
      2.24936613e-07 2.48094608e-07 4.02424320e-07 5.23002029e-07
      5.37633525e-07 2.15597964e-07 -1.19066295e-08 2.17666212e-07
      6.78872425e-07 8.56430233e-07 8.62426589e-07 7.90739591e-07
      5.75263982e-07 4.58253652e-07 4.16601409e-07 3.24803437e-07
      -2.19302834e-07 -2.75751120e-07 -2.82552890e-07 -1.82338297e-07
      -2.58741810e-08 1.50627727e-07 3.40569414e-07 3.90745498e-07
      4.35003187e-07 3.99165714e-07 4.49826388e-07 6.60544117e-07
      6.44509498e-07 2.96743991e-07 2.08744964e-07 3.26672335e-07
      3.42391019e-07 3.00663572e-07 3.77356628e-07 6.77084529e-07
      6.26587052e-07 4.65056047e-07 4.99144619e-07 8.13270447e-07
      9.25889140e-07 6.35554329e-07 3.53791080e-07 2.20611014e-07
      2.87306694e-08 -9.83700801e-08 -1.73278110e-07 -1.62159935e-07
      -1.18155469e-07 -2.09671391e-08 1.61626986e-07 2.47395548e-07
      1.84345737e-07 9.81110730e-08 1.75980247e-07 3.87902730e-07
      6.98869883e-07 6.23243977e-07 1.53526756e-07 9.59187858e-08
      4.54408791e-07 6.17211185e-07 6.75438685e-07 7.79557922e-07
      7.24474717e-07 5.66307790e-07 4.58005189e-07 3.45538524e-07
      -9.51607504e-08 -1.39695999e-07 -2.34810642e-07 -2.34659979e-07
      -2.56644057e-08 2.35515230e-07 3.00871477e-07 3.14058838e-07
      3.49360164e-07 3.75890352e-07 2.84616988e-07 3.78183785e-07
      5.40788903e-07 3.22766311e-07 1.67351374e-07 2.57557303e-07
      1.51706800e-07 -6.68501920e-09 1.01107354e-07 3.77427000e-07
      3.90153019e-07 3.25764319e-07 4.73371017e-07 7.48403409e-07
      8.07864410e-07 6.28207033e-07 4.12075309e-07 2.84830293e-07
      1.77975991e-07 8.08932157e-08 2.37098008e-09 -6.89980837e-08
      -1.52323892e-07 -2.00025980e-07 -4.23219468e-08 1.34380301e-07
      1.35508373e-07 2.55858588e-08 -7.59104601e-09 1.66309064e-07
      5.77345418e-07 8.18903573e-07 3.49602828e-07 7.14207999e-08
      1.53882397e-07 2.04157786e-07 2.57551051e-07 4.50882425e-07
      6.09701146e-07 5.02385888e-07 4.97281235e-07 4.73126875e-07
      3.04199517e-07 2.37799355e-07 -1.26897604e-08 -1.16708527e-07
      9.14146892e-09 1.85241277e-07 2.21449838e-07 2.37112602e-07
      2.99754532e-07 3.69146989e-07 2.60777426e-07 1.63609130e-07
      2.14727180e-07 1.79656837e-07 8.03656874e-08 1.12853350e-07
      -1.71775500e-08 -1.02433738e-07 3.12299875e-09 5.24995727e-08
      -1.68101444e-08 2.21848673e-08 2.80553337e-07 4.40915954e-07
      5.29842907e-07 5.09432198e-07 4.59065518e-07 3.68933570e-07
      3.14245511e-07 2.30367348e-07 2.07415397e-07 1.42171714e-07
      -4.07191791e-08 -2.13123911e-07 -1.87923462e-07 3.06639230e-08
      9.63146647e-08 -1.48373687e-08 -1.02923273e-07 2.38531648e-08
      3.29934977e-07 5.95637459e-07 3.34697688e-07 8.42556958e-08
      -2.11958611e-08 -5.70475116e-08 -7.08483938e-08 9.80341142e-08
      2.86769307e-07 2.65347921e-07 3.82251045e-07 4.33751325e-07
      3.63498970e-07 3.83455216e-07 2.17887703e-07 4.61995491e-08
      9.03487347e-08 1.09712097e-07 1.00038925e-07 1.15297510e-07
      2.13848736e-07 3.52654439e-07 2.59989008e-07 7.57041789e-08
      7.48309290e-08 3.64950274e-08 -1.49239341e-07 -2.21982262e-07
      -2.88567520e-07 -2.92987067e-07 -3.07743761e-07 -2.89635551e-07
      -2.66286946e-07 -1.58072396e-07 1.08185446e-07 2.37022334e-07
      3.24704985e-07 3.07185502e-07 2.93454264e-07 3.13044040e-07
      3.68309543e-07 3.14085810e-07 3.04293764e-07 3.00550738e-07
      1.35429474e-07 -1.58210767e-07 -2.91568995e-07 -1.71640465e-07
      -4.62827572e-08 -2.68045408e-08 -2.82609331e-08 1.89497857e-08
      1.73627342e-07 3.21965757e-07 2.35335946e-07 1.17435832e-07
      -4.37420269e-08 -1.34837379e-07 -1.91014919e-07 -8.23249806e-08
      7.19614022e-08 4.26044693e-08 1.67137785e-07 2.67701893e-07
      4.07732813e-07 4.36879247e-07 3.21052369e-07 1.92760524e-07
      1.96766919e-07 1.05973498e-07 6.49483312e-08 6.22948662e-08
      1.07280151e-07 2.34664839e-07 1.92027926e-07 1.52162407e-08
      1.44699861e-08 -1.92921989e-09 -2.80757263e-07 -4.41938880e-07
      -4.77889557e-07 -4.39547193e-07 -4.82302880e-07 -5.67652137e-07
      -4.65040671e-07 -2.66695821e-07 -6.00593069e-08 1.25601673e-07
      2.22440036e-07 1.94488180e-07 1.48419318e-07 2.02836546e-07
      2.85505024e-07 3.16431311e-07 3.29447772e-07 2.36022871e-07
      3.22265521e-08 -1.76067545e-07 -3.43293891e-07 -3.65074015e-07
      -2.86275849e-07 -1.42614638e-07 -3.47984326e-08 6.11596036e-08
      1.41291324e-07 1.65397296e-07 1.86675990e-07 1.29459551e-07
      -2.46478677e-08 -1.47640463e-07 -2.03079367e-07 -1.41666661e-07
      -7.19495930e-08 -5.24777448e-08 3.31580239e-08 9.72175656e-08
      4.79570019e-07 4.72034088e-07 3.75001946e-07 2.89763051e-07
      3.15621463e-07 2.42264662e-07 1.16631085e-07 9.46207663e-08
      6.75777159e-08 1.06176330e-07 6.23467002e-08 -1.02466402e-07
      -1.12918755e-07 -8.57658335e-08 -3.45901270e-07 -5.15936961e-07
      -6.06487049e-07 -6.12634381e-07 -6.54135363e-07 -6.55916324e-07
      -5.35576476e-07 -3.31079178e-07 -1.32545850e-07 2.74921472e-08
      1.43828615e-07 1.23202298e-07 4.01047586e-08 6.25827496e-08
      1.55905667e-07 1.77350088e-07 1.76127344e-07 7.21436919e-08
      -2.01538597e-07 -3.90986003e-07 -4.59628865e-07 -4.61271839e-07
      -3.94554320e-07 -2.53614985e-07 -1.24518422e-07 1.05375548e-08
      9.74786616e-08 7.93149013e-08 1.30606367e-07 9.43695682e-08
      -7.05434955e-09 -1.47049008e-07 -2.49060719e-07 -2.06693116e-07
      -1.97650948e-07 -1.85195418e-07 -1.13011708e-07 -7.50703890e-08
      6.80914354e-07 6.33381546e-07 4.51903645e-07 3.69150882e-07
      4.10338146e-07 3.01005286e-07 1.61255088e-07 1.43783907e-07
      7.58262289e-08 1.43679273e-08 -3.38395409e-08 -2.10628187e-07
      -2.42835313e-07 -2.14127340e-07 -3.23619446e-07 -4.95671486e-07
      -6.69501617e-07 -7.66435562e-07 -8.15989836e-07 -7.63540072e-07
      -5.21741185e-07 -3.33201172e-07 -1.65644408e-07 7.15877091e-09
      1.05169242e-07 5.38710339e-08 -4.62850593e-08 -2.19483116e-08
      2.85549415e-08 -1.77743544e-08 -3.07171355e-08 -1.53065059e-07
      -4.42751457e-07 -6.00825558e-07 -6.29472140e-07 -6.04001059e-07
      -4.66231313e-07 -2.87950854e-07 -1.58256981e-07 -6.16777527e-08
      2.08683915e-08 3.62419357e-08 8.17149370e-08 4.22236930e-08
      -4.91933321e-08 -1.22140946e-07 -2.20805589e-07 -2.60734197e-07
      -2.14963535e-07 -2.77405718e-07 -2.94822797e-07 -2.35136667e-07
      7.95047697e-07 7.20584353e-07 5.61575519e-07 4.76794952e-07
      4.19501077e-07 2.91792531e-07 1.46774070e-07 1.11911739e-07
      3.53229446e-08 -5.11323819e-08 -1.10800634e-07 -2.70557337e-07
      -3.54839983e-07 -3.28486578e-07 -3.72096224e-07 -5.38551603e-07
      -7.56758823e-07 -8.87608223e-07 -9.19659783e-07 -7.90275351e-07
      -4.73738766e-07 -3.97481330e-07 -3.91056460e-07 -1.99533460e-07
      -3.89112351e-08 -2.69249973e-08 -1.15224665e-07 -1.03622178e-07
      -6.34597299e-08 -1.60329876e-07 -2.11009834e-07 -3.81715665e-07
      -6.28747898e-07 -6.81978804e-07 -7.01984561e-07 -7.05016589e-07
      -6.11442942e-07 -4.02399479e-07 -1.95411900e-07 -5.23440775e-08
      -2.57868145e-08 1.11243397e-08 4.28104272e-08 -2.93818285e-08
      -8.34062632e-08 -1.00491391e-07 -1.68634415e-07 -2.26391776e-07
      -1.89303378e-07 -2.52215500e-07 -3.19308725e-07 -2.35738398e-07
      7.74993907e-07 7.02056184e-07 5.66084111e-07 4.71663753e-07
      3.68583613e-07 2.39099705e-07 1.15273480e-07 5.05945330e-08
      -2.49898839e-08 -9.09831783e-08 -1.47936973e-07 -2.95389384e-07
      -4.35480047e-07 -4.31694474e-07 -4.49818970e-07 -6.46195645e-07
      -9.14727252e-07 -1.03977879e-06 -9.78107778e-07 -7.59238389e-07
      -3.35655443e-07 -1.04044865e-07 -1.96340082e-07 -2.56532957e-07
      -2.07859514e-07 -1.38473908e-07 -1.87131008e-07 -1.54627415e-07
      -1.09458533e-07 -2.01403637e-07 -2.64434362e-07 -3.18849885e-07
      -3.88959990e-07 -4.56447196e-07 -5.40177496e-07 -6.34642959e-07
      -6.19729292e-07 -4.79948596e-07 -2.69505705e-07 -6.01985946e-08
      -8.42682701e-10 1.42101966e-08 4.03235987e-08 -6.32771844e-08
      -9.65511902e-08 -8.67667680e-08 -1.55107870e-07 -1.99990154e-07
      -1.40807572e-07 -1.19695969e-07 -1.44136052e-07 -1.04232434e-07
      5.96006601e-07 5.44380953e-07 4.44919237e-07 3.72881743e-07
      2.70465478e-07 1.29670170e-07 3.76649751e-08 -6.09533535e-09
      -7.20482518e-08 -1.27945981e-07 -2.11308304e-07 -3.54132794e-07
      -4.64120404e-07 -5.18082743e-07 -6.14248961e-07 -8.24282097e-07
      -1.08747713e-06 -1.20369327e-06 -1.08923200e-06 -7.74313378e-07
      -2.95139102e-07 6.85869850e-08 7.27433118e-08 -1.22299282e-08
      -8.52796802e-08 -1.09369068e-07 -1.84158466e-07 -1.45025979e-07
      -1.06503194e-07 -1.82376155e-07 -1.67711931e-07 -1.80747080e-07
      -2.45891130e-07 -2.92961715e-07 -3.74044987e-07 -5.12276472e-07
      -5.71127430e-07 -5.13091265e-07 -2.89123591e-07 -5.31964943e-08
      2.92543660e-08 3.96905051e-08 4.53453666e-08 -5.03244380e-08
      -7.24302680e-08 -6.87836348e-08 -1.55274734e-07 -1.98015968e-07
      -1.16791355e-07 -5.32940412e-08 -2.96047151e-08 4.73007988e-09
      5.21104596e-07 4.39956011e-07 3.53844882e-07 2.67985939e-07
      1.66405783e-07 4.09518508e-09 -1.10540206e-07 -8.96192844e-08
      -8.33566745e-08 -1.12609378e-07 -2.23608637e-07 -3.71160411e-07
      -4.61943756e-07 -5.78317724e-07 -8.00117505e-07 -1.08867732e-06
      -1.33157801e-06 -1.35896414e-06 -1.19358151e-06 -8.95498090e-07
      -5.44340367e-07 -1.29011340e-07 1.58266616e-07 1.70767649e-07
      1.24772271e-07 1.17512563e-07 -5.74724801e-08 -3.85214740e-08
      1.77115034e-08 -5.40034826e-08 -4.36559304e-08 -4.22701412e-08
      -1.96209456e-07 -3.31974803e-07 -4.36128033e-07 -5.90582829e-07
      -7.03109947e-07 -6.43806459e-07 -3.86569525e-07 -1.01465780e-07
      3.34548957e-08 5.98016570e-08 4.24079012e-08 -2.46791423e-08
      -1.16395196e-08 -4.67126782e-08 -1.34598054e-07 -1.72434412e-07
      -1.02485387e-07 -3.42847670e-08 1.92874339e-09 5.60127624e-08
      5.82630776e-07 4.91007256e-07 3.88625836e-07 2.82533165e-07
      1.61710815e-07 -2.37380036e-08 -1.79550142e-07 -1.34541963e-07
      -1.01271937e-07 -1.22012466e-07 -1.64869874e-07 -2.88028133e-07
      -4.12939016e-07 -5.14735177e-07 -7.52235337e-07 -1.08736810e-06
      -1.29384591e-06 -1.27482349e-06 -1.12815428e-06 -9.60690613e-07
      -8.10235690e-07 -5.05967819e-07 -1.84236612e-07 2.09045030e-08
      1.11815254e-07 2.08304428e-07 5.94392162e-08 9.99048950e-08
      1.76563987e-07 1.43916225e-07 1.57652266e-07 1.52712630e-07
      4.34037055e-08 -1.84697143e-07 -3.66161800e-07 -5.97784833e-07
      -7.05381865e-07 -6.29431497e-07 -3.49282857e-07 -4.40099193e-08
      1.50195334e-07 1.60180932e-07 2.39366731e-08 -3.01943608e-08
      8.09749423e-09 -3.36558976e-08 -7.28125400e-08 -8.94866616e-08
      -4.23841868e-08 -2.37541187e-08 -1.60548463e-08 5.42276446e-08
      6.10301356e-07 5.34791582e-07 4.54918109e-07 3.55783754e-07
      2.36197636e-07 7.77755176e-08 -9.29870936e-08 -8.27319155e-08
      -7.95059307e-08 -1.36479855e-07 -1.33808086e-07 -1.62424698e-07
      -2.78437454e-07 -4.21756340e-07 -6.66293147e-07 -7.97403118e-07
      -7.89365401e-07 -6.83857252e-07 -6.34335777e-07 -6.72805584e-07
      -6.88257842e-07 -5.55652548e-07 -3.46015668e-07 -2.15121673e-07
      -6.57924843e-08 1.31221967e-07 9.96146881e-08 1.72571845e-07
      2.71519042e-07 2.42163253e-07 2.46749039e-07 2.23099917e-07
      1.89593692e-07 2.08852185e-07 1.86714800e-07 -5.69060710e-08
      -3.33803314e-07 -3.41950084e-07 -1.13559857e-07 1.86906036e-07
      3.23508800e-07 3.05554607e-07 9.03086104e-08 -3.64561252e-08
      -1.47886121e-08 -4.16169641e-08 -4.23632862e-08 -1.00922408e-08
      3.94675581e-08 4.15761958e-09 -3.96478583e-08 2.06151061e-08
      5.11461110e-07 4.53146413e-07 4.13725900e-07 3.73315288e-07
      2.69473531e-07 1.75741633e-07 6.12333722e-08 1.86024565e-08
      -2.24130972e-08 -1.70715580e-07 -1.64935727e-07 -1.31650310e-07
      -2.44391885e-07 -4.61536075e-07 -6.23894209e-07 -5.42875853e-07
      -1.19248227e-07 1.76323951e-07 1.88906583e-07 -1.26256305e-09
      -1.07353877e-07 -5.45526895e-08 -3.30658771e-08 -1.36369366e-07
      -8.13276415e-08 1.14604980e-07 1.33914554e-07 1.55148655e-07
      2.33388448e-07 1.81222973e-07 1.67228137e-07 2.15030980e-07
      3.54262596e-07 4.99057535e-07 5.14932765e-07 3.87505622e-07
      2.14296492e-07 1.42320062e-07 1.94332102e-07 3.46989253e-07
      4.56945088e-07 4.35681102e-07 2.14978840e-07 4.35983658e-08
      4.72709480e-08 -4.98566806e-08 -7.10317920e-08 3.87910504e-08
      9.66154019e-08 7.14775865e-08 -3.21447646e-09 3.56427741e-08
      4.25598500e-07 3.56353780e-07 2.83144402e-07 2.57543491e-07
      2.24298418e-07 1.68522149e-07 1.34839240e-07 1.22605130e-07
      -1.12178435e-08 -2.08946346e-07 -2.65260951e-07 -2.90881218e-07
      -4.53098465e-07 -7.17760940e-07 -8.60308546e-07 -4.15470566e-07
      2.86578768e-07 7.59879583e-07 8.41303006e-07 6.90509523e-07
      5.94136282e-07 5.70794271e-07 4.22248092e-07 1.95894202e-07
      1.00892642e-07 1.96117952e-07 1.53073486e-07 1.12670300e-07
      1.57040574e-07 9.39044824e-08 1.23033828e-07 2.50817038e-07
      5.12279826e-07 7.66189487e-07 8.57155840e-07 7.78934862e-07
      6.51506298e-07 5.87493560e-07 5.40884230e-07 5.45733371e-07
      5.55445354e-07 4.71290463e-07 2.89567083e-07 1.66954607e-07
      1.19947330e-07 1.96759196e-08 -4.13350598e-08 4.47413235e-08
      1.18084934e-07 1.12254313e-07 6.38942623e-08 1.12964429e-07
      3.85095632e-07 3.53602445e-07 2.75700899e-07 1.74779245e-07
      1.47283473e-07 1.21712489e-07 1.19765701e-07 1.27083879e-07
      -9.39667544e-09 -2.09839385e-07 -4.15198173e-07 -5.08980463e-07
      -7.78452261e-07 -1.09692508e-06 -1.27087390e-06 -8.16169063e-07
      -1.26445725e-08 5.37390008e-07 7.85379711e-07 9.71132181e-07
      1.11129259e-06 1.00987904e-06 6.86030830e-07 3.77817969e-07
      2.34807288e-07 2.14663444e-07 2.04815692e-07 1.20814150e-07
      3.20603704e-08 -5.29506181e-08 2.66116711e-08 2.06135368e-07
      5.60806882e-07 8.61055582e-07 9.86593250e-07 1.03603907e-06
      9.89709065e-07 8.00150360e-07 5.72533622e-07 4.86050624e-07
      4.97816700e-07 3.84858794e-07 2.95568753e-07 1.98624377e-07
      1.14811044e-07 3.54969529e-08 2.77092376e-08 8.28759639e-08
      1.89984789e-07 1.37055750e-07 6.67583748e-08 1.08540036e-07
      3.77355605e-07 3.64349148e-07 3.28300700e-07 2.46793121e-07
      1.85219818e-07 1.41724669e-07 1.34686644e-07 9.95143949e-08
      -3.32574750e-08 -2.30517273e-07 -4.74507232e-07 -7.34558114e-07
      -1.05594393e-06 -1.40563520e-06 -1.58905323e-06 -1.35379571e-06
      -8.11156383e-07 -3.17079127e-07 3.96084445e-08 5.65769028e-07
      1.02561955e-06 1.07603728e-06 7.35680487e-07 3.89682782e-07
      1.84567099e-07 1.32841720e-07 1.83143740e-07 1.34691646e-07
      -1.58071654e-08 -1.55044745e-07 -1.44267162e-07 1.68202181e-08
      3.38339618e-07 6.95748440e-07 9.31702004e-07 1.05923607e-06
      1.10738767e-06 9.15879241e-07 6.46680633e-07 5.05522451e-07
      4.74540599e-07 3.82951868e-07 2.10057195e-07 1.41668778e-07
      6.10976585e-08 5.45884049e-08 1.01875756e-07 1.33547871e-07
      1.87696287e-07 1.93043945e-07 7.28439460e-08 6.74893386e-08
      4.59960262e-07 4.40241507e-07 4.17019550e-07 3.76169623e-07
      3.09351663e-07 2.65316686e-07 2.14483265e-07 1.23423263e-07
      -2.94751104e-08 -2.66310906e-07 -5.27044620e-07 -8.85572263e-07
      -1.32131095e-06 -1.64820085e-06 -1.77326399e-06 -1.61723710e-06
      -1.30424689e-06 -1.04424441e-06 -8.24678864e-07 -2.82890284e-07
      4.48389557e-07 7.52085327e-07 6.45328782e-07 4.00916122e-07
      1.70702549e-07 4.99020416e-08 1.00983002e-07 1.04598513e-07
      4.65151935e-08 -9.63543201e-09 -1.81670444e-07 -1.98490909e-07
      6.70903901e-08 3.67951770e-07 6.49964988e-07 8.50477988e-07
      9.79174047e-07 8.68568918e-07 6.26380768e-07 5.09629842e-07
      4.32703018e-07 3.19215388e-07 1.76439613e-07 7.61228023e-08
      -6.22866025e-09 3.37769599e-08 1.57383994e-07 2.09477292e-07
      1.94700647e-07 2.20526246e-07 1.13880873e-07 1.30362679e-07
      5.82005100e-07 5.61230820e-07 5.41680379e-07 4.98481654e-07
      4.17464008e-07 3.56807533e-07 2.44637988e-07 9.98980241e-08
      -4.08940526e-09 -3.61842467e-07 -7.33905608e-07 -1.11212751e-06
      -1.46245986e-06 -1.73371836e-06 -1.83880991e-06 -1.75699768e-06
      -1.49640164e-06 -1.19290610e-06 -1.04467574e-06 -7.69181440e-07
      -2.15374627e-07 3.48155311e-07 5.46257013e-07 4.95242546e-07
      2.69527277e-07 8.90815102e-08 4.77210911e-08 5.38505063e-08
      6.44337490e-08 1.10806752e-07 -4.12678025e-09 -2.02798745e-07
      -7.78908813e-08 2.03181358e-07 3.77705874e-07 5.29933516e-07
      6.86616431e-07 7.26644089e-07 6.62634079e-07 5.29088197e-07
      3.58127721e-07 1.89169256e-07 4.18292458e-08 -2.12867164e-08
      -7.68015340e-08 -2.73913212e-08 1.34039837e-07 2.23626529e-07
      2.11604970e-07 2.40417251e-07 1.83727821e-07 1.94362215e-07
      6.99632153e-07 6.48935782e-07 6.40470830e-07 5.96110340e-07
      4.79573771e-07 3.70178043e-07 2.29663030e-07 1.23217703e-07
      3.64733488e-08 -3.75397292e-07 -9.83148539e-07 -1.38731514e-06
      -1.59172669e-06 -1.73102535e-06 -1.82657811e-06 -1.76965943e-06
      -1.55659950e-06 -1.25185545e-06 -9.99948043e-07 -7.88394857e-07
      -4.76302546e-07 1.73160153e-09 4.37087664e-07 5.14469264e-07
      4.02864885e-07 2.61546631e-07 1.26860314e-07 -2.32300756e-08
      -1.38266865e-08 1.70017060e-07 8.17893024e-08 -2.59689372e-08
      4.80672071e-08 1.29343363e-07 8.37727825e-08 1.37367124e-07
      3.02487024e-07 4.52025716e-07 4.81286122e-07 3.88333888e-07
      1.35925319e-07 -1.10404713e-07 -1.93148523e-07 -2.12975948e-07
      -2.13685937e-07 -7.23542684e-08 1.60692565e-07 2.67852982e-07
      2.90566788e-07 3.06843248e-07 2.50087339e-07 2.62222699e-07
      7.47001195e-07 7.40591247e-07 7.18316585e-07 6.79099855e-07
      5.35378263e-07 4.07547418e-07 3.09596885e-07 2.04863838e-07
      1.26022968e-07 -2.75034694e-07 -8.86078283e-07 -1.40543023e-06
      -1.57348973e-06 -1.63663867e-06 -1.71411250e-06 -1.64403093e-06
      -1.49256493e-06 -1.16202239e-06 -8.49225103e-07 -6.04733771e-07
      -3.60785549e-07 -1.24610864e-07 7.91218540e-08 2.80693911e-07
      3.35380264e-07 3.04362374e-07 1.83691128e-07 -1.05035989e-08
      -5.71136844e-08 9.42553768e-08 7.80784006e-08 3.49385978e-08
      1.30331742e-07 9.81234081e-08 -1.31499846e-07 -1.01483330e-07
      2.73059015e-08 1.54673245e-07 2.21582553e-07 1.45316932e-07
      -4.84362594e-08 -3.02236572e-07 -3.19144846e-07 -2.63548316e-07
      -2.67803813e-07 -6.36299617e-08 2.00814924e-07 3.69475572e-07
      4.39863641e-07 4.70063185e-07 3.62762052e-07 3.13587549e-07
      6.81474376e-07 7.60311309e-07 7.80193432e-07 7.33636909e-07
      5.86682688e-07 5.02252249e-07 4.93217897e-07 4.28243396e-07
      2.59292563e-07 -4.32524772e-08 -6.00141675e-07 -1.12695636e-06
      -1.39074155e-06 -1.47616640e-06 -1.50280016e-06 -1.38543237e-06
      -1.17886009e-06 -9.25844745e-07 -5.88085356e-07 -3.26300125e-07
      -1.55753625e-07 -7.02240186e-08 -5.78243515e-08 6.59124950e-08
      1.38746117e-07 1.08363977e-07 6.28013126e-08 6.85450203e-08
      -1.44558747e-08 -2.76579613e-08 -4.31270131e-08 -6.26516652e-08
      -1.70482686e-08 -5.87203672e-08 -1.51854366e-07 -2.17239418e-07
      -1.56822139e-07 -8.80932234e-08 -4.63166110e-08 -8.49070787e-08
      -1.96468051e-07 -3.26524656e-07 -3.13495008e-07 -2.30822337e-07
      -1.70671399e-07 2.43534415e-09 2.20634362e-07 4.30613795e-07
      5.12472468e-07 5.70032455e-07 4.74812452e-07 3.62145158e-07
      5.91932519e-07 7.27657721e-07 8.26243365e-07 8.32538717e-07
      6.98145016e-07 6.23418885e-07 6.82508301e-07 5.47772345e-07
      3.68496046e-07 1.74751662e-07 -2.15893806e-07 -6.39156383e-07
      -9.14747034e-07 -1.16828414e-06 -1.26564237e-06 -1.12923703e-06
      -9.27381677e-07 -6.96112011e-07 -3.85250900e-07 -1.48532422e-07
      -7.13031127e-08 3.74185261e-09 5.65191165e-08 4.91197518e-08
      7.49796953e-08 1.36592000e-08 6.53791951e-11 2.75368031e-08
      2.95736609e-08 -3.68642752e-08 -1.23255717e-07 -1.64117864e-07
      -2.11128622e-07 -2.36826025e-07 -2.13621391e-07 -3.30743148e-07
      -3.70628584e-07 -2.71907908e-07 -1.81121877e-07 -2.13300467e-07
      -2.96429562e-07 -3.21595280e-07 -2.31407199e-07 -1.52257570e-07
      -6.60755433e-08 9.54109112e-08 2.66124346e-07 4.68542822e-07
      5.20215337e-07 5.33704053e-07 5.11155918e-07 4.27894435e-07
      4.14245562e-07 6.31593934e-07 8.30939257e-07 9.55955784e-07
      9.12888595e-07 7.87873091e-07 7.65608604e-07 5.46325850e-07
      3.55736063e-07 2.86172792e-07 5.99426215e-08 -2.27348238e-07
      -4.14802031e-07 -7.11139137e-07 -9.82183906e-07 -9.07632966e-07
      -6.40083044e-07 -4.63970053e-07 -2.92799484e-07 -1.65602472e-07
      -4.16017478e-08 1.16551917e-07 2.91499077e-07 2.22612698e-07
      1.61638212e-07 1.02470878e-07 8.20815629e-08 1.29555531e-07
      1.82037780e-07 1.45467837e-07 -8.67322658e-09 -1.14531616e-07
      -2.63018023e-07 -3.30377588e-07 -3.41860499e-07 -4.32985502e-07
      -5.62649461e-07 -6.09349627e-07 -5.77685057e-07 -5.13027715e-07
      -4.71091255e-07 -4.43969952e-07 -3.66191784e-07 -2.11349573e-07
      -5.48601768e-08 1.31318686e-07 3.58249025e-07 4.97967847e-07
      5.61986951e-07 5.62176922e-07 5.17385331e-07 4.33333213e-07
      1.88141357e-07 4.04815097e-07 7.08536959e-07 9.65837671e-07
      1.07419100e-06 9.69147777e-07 8.23161770e-07 5.28738383e-07
      2.88983983e-07 2.66593219e-07 1.29718060e-07 -5.41943947e-08
      -1.95484290e-07 -3.90158760e-07 -5.43605154e-07 -4.89054344e-07
      -3.58392725e-07 -2.14671729e-07 -1.62226684e-07 -4.34586660e-08
      8.64335234e-08 1.68243147e-07 3.00947931e-07 2.78403746e-07
      2.84608348e-07 2.49645950e-07 2.54166395e-07 3.47613707e-07
      4.62728053e-07 4.80266806e-07 3.28162116e-07 1.00960861e-07
      -5.75886183e-08 -1.78529177e-07 -3.00389644e-07 -3.98218504e-07
      -5.97617031e-07 -7.49369178e-07 -8.99669828e-07 -9.38030723e-07
      -8.61958767e-07 -7.06702508e-07 -6.08870209e-07 -4.40917375e-07
      -2.20815451e-07 5.50877424e-08 3.25060824e-07 5.16981800e-07
      6.15850581e-07 6.93939171e-07 6.34740388e-07 5.00308374e-07
      1.55447157e-08 1.65499941e-07 4.76735323e-07 7.81298922e-07
      9.99013082e-07 9.90116632e-07 8.49448270e-07 5.51784922e-07
      3.58203124e-07 2.13871289e-07 3.61626320e-08 -9.17957408e-08
      -2.78803725e-07 -3.91906724e-07 -3.49554625e-07 -2.53777358e-07
      -2.36045310e-07 -2.60708532e-07 -1.35020287e-07 2.61921631e-08
      1.39946934e-07 7.88065577e-08 5.75602250e-08 3.72853037e-09
      5.24007042e-08 1.41452574e-07 1.95857197e-07 3.23614302e-07
      4.31867306e-07 4.73894943e-07 4.18554578e-07 3.36410864e-07
      1.86735633e-07 1.37075403e-07 -3.04214502e-08 -2.13381796e-07
      -4.93733012e-07 -7.17952958e-07 -1.00855038e-06 -1.14496061e-06
      -1.11330644e-06 -1.02193133e-06 -8.91214881e-07 -6.78523804e-07
      -3.63307720e-07 4.58141649e-08 3.65044770e-07 6.09896972e-07
      8.14315683e-07 9.46912110e-07 9.67771939e-07 8.20146852e-07
      -7.03261946e-08 -3.17745630e-09 2.69084495e-07 5.28782380e-07
      7.57994712e-07 7.63913420e-07 7.14380860e-07 5.46978583e-07
      4.61869718e-07 2.51823764e-07 2.94610150e-08 -1.77858311e-07
      -4.29649845e-07 -5.43286376e-07 -4.32784390e-07 -3.17550558e-07
      -2.32691818e-07 -2.15675627e-07 -1.77300166e-07 -9.60919166e-08
      -1.14879155e-08 5.58476643e-08 3.72886184e-08 -1.08246532e-07
      -1.64369141e-07 -9.28851804e-08 -8.39536227e-08 3.10516093e-08
      2.16484977e-07 3.07112089e-07 1.81734791e-07 2.21184621e-07
      2.63300819e-07 3.20929956e-07 1.47383119e-07 -7.24197804e-08
      -2.49417042e-07 -5.09821348e-07 -8.55215035e-07 -1.08269739e-06
      -1.11526481e-06 -1.07525261e-06 -9.41928704e-07 -6.99270856e-07
      -2.94007691e-07 1.41855679e-07 4.89065428e-07 8.15509566e-07
      1.01947057e-06 1.18467892e-06 1.31279319e-06 1.18264518e-06
      -3.38137731e-08 -1.59629714e-08 1.98525370e-07 3.88489781e-07
      5.42886028e-07 5.28279202e-07 5.32196623e-07 5.18551360e-07
      5.05792798e-07 3.14759433e-07 4.81546856e-08 -1.87523739e-07
      -4.71735120e-07 -6.20234630e-07 -5.17066667e-07 -3.94895864e-07
      -3.23246013e-07 -1.64821145e-07 -2.92176487e-08 -1.06954261e-07
      -1.87848741e-07 -2.72776592e-08 6.46710774e-08 -8.16761414e-08
      -1.30916092e-07 -8.29816500e-08 -5.58837243e-08 3.76722724e-08
      1.70525610e-07 1.71756710e-07 7.78013529e-08 4.28747704e-08
      2.19407042e-07 3.66307461e-07 2.71128584e-07 3.83305157e-08
      -1.73673499e-07 -3.74606799e-07 -5.39899645e-07 -7.26989583e-07
      -7.81879066e-07 -7.59246745e-07 -6.35607705e-07 -3.94478292e-07
      -1.74106596e-08 2.86604546e-07 5.22635901e-07 8.51756113e-07
      1.06345078e-06 1.19257265e-06 1.34593051e-06 1.33437470e-06
      1.28881439e-07 1.47949223e-07 3.22337200e-07 4.47013690e-07
      5.08842845e-07 4.85457917e-07 5.08227515e-07 4.67294655e-07
      3.65780238e-07 2.30078967e-07 8.48649293e-08 -1.36310447e-07
      -3.87876639e-07 -5.08561129e-07 -4.72773763e-07 -4.83254780e-07
      -5.32445483e-07 -3.10636750e-07 1.23109904e-08 -2.86957036e-08
      -1.85513827e-07 -9.68949010e-08 6.15319422e-08 -2.96732097e-08
      -9.35469728e-08 -1.23927144e-08 4.81627680e-08 9.93615075e-08
      1.73300506e-07 2.08238831e-07 1.40088417e-07 7.82947751e-08
      9.45104119e-08 2.66101921e-07 3.48174837e-07 2.45607708e-07
      1.60598699e-08 -2.24158427e-07 -4.81442100e-07 -4.97732913e-07
      -3.86772143e-07 -3.36268471e-07 -2.05656377e-07 2.33289796e-08
      3.02240778e-07 3.90586536e-07 4.66507203e-07 6.88104535e-07
      8.78468370e-07 9.64545507e-07 1.05597189e-06 1.06477182e-06
      3.82919353e-07 3.85086452e-07 5.16917908e-07 5.65714572e-07
      5.52101767e-07 5.33111347e-07 5.43379997e-07 4.81345296e-07
      2.66321365e-07 1.17749941e-07 4.43762325e-08 -7.72317463e-08
      -1.71815671e-07 -2.07790023e-07 -2.27679223e-07 -3.94562420e-07
      -6.07305424e-07 -5.15141494e-07 -2.96623767e-07 -1.93892532e-07
      -2.36563068e-07 -1.64509430e-07 -1.17115828e-08 8.45810444e-09
      -7.38022621e-08 -6.77872549e-08 4.94969399e-08 1.30000416e-07
      1.25956291e-07 1.40961120e-07 1.93866285e-07 1.78693256e-07
      6.04952604e-08 4.99096231e-08 2.34282922e-07 3.02918636e-07
      2.29159880e-07 9.50910177e-08 -1.23651972e-07 -2.74747492e-07
      -2.44759434e-07 -1.16931552e-07 1.17912450e-07 3.39354187e-07
      5.72567160e-07 5.67488257e-07 5.29070348e-07 6.30401246e-07
      6.87600107e-07 7.02352224e-07 7.05035063e-07 7.22855930e-07
      5.44757086e-07 5.68648090e-07 6.61182582e-07 6.30913121e-07
      5.84791565e-07 5.44930003e-07 5.20012804e-07 3.96024376e-07
      1.88010588e-07 4.33196981e-08 -5.78030637e-08 -2.12677278e-07
      -2.53562092e-07 -2.08772889e-07 -8.81270950e-08 -1.05126176e-07
      -4.78017512e-07 -5.59972932e-07 -5.18082288e-07 -4.56711518e-07
      -4.49022451e-07 -3.50635418e-07 -1.53710189e-07 -6.92423612e-08
      -3.49249731e-08 1.96494252e-08 7.02154637e-08 1.23170196e-07
      1.23164867e-07 9.65500817e-08 1.43252393e-07 1.66731510e-07
      7.61953061e-08 2.31486408e-09 8.44338501e-08 1.53730142e-07
      1.60965811e-07 1.83203682e-07 6.82778420e-08 -4.87978440e-08
      -3.33293748e-08 -2.57655550e-08 1.43149265e-07 4.54865699e-07
      6.88517730e-07 7.15901365e-07 6.40443943e-07 6.97053565e-07
      6.89117144e-07 6.50962249e-07 6.29069120e-07 6.72739532e-07
      5.69174460e-07 5.49201843e-07 6.08180073e-07 5.98817394e-07
      5.48688945e-07 4.98516044e-07 4.56991273e-07 3.30734451e-07
      1.06305556e-07 -5.44050600e-08 -1.62391657e-07 -3.30066712e-07
      -4.44291260e-07 -4.39294240e-07 -3.05158466e-07 -2.35617975e-07
      -2.92525215e-07 -3.30280102e-07 -3.63238684e-07 -3.61172056e-07
      -3.81580890e-07 -3.38666609e-07 -1.46320801e-07 8.70954531e-10
      4.75473669e-08 1.30935135e-07 1.50758694e-07 1.98220476e-07
      2.63176275e-07 2.38694611e-07 1.60257045e-07 1.37353524e-07
      7.34883310e-09 -9.27506889e-08 -3.67447122e-08 3.19733262e-09
      -1.49054333e-08 3.55179779e-08 9.56368424e-08 5.67868526e-08
      8.18397510e-08 9.21994072e-08 1.38075919e-07 3.77312830e-07
      6.15942952e-07 6.94986568e-07 6.62513230e-07 7.10795860e-07
      7.05158982e-07 6.50295306e-07 6.18458898e-07 6.34920696e-07
      7.37472362e-07 6.39088739e-07 5.84046347e-07 4.90604975e-07
      4.64155107e-07 4.83541498e-07 4.75030873e-07 3.66083668e-07
      1.77181875e-07 -3.26684635e-08 -2.01569748e-07 -2.92005296e-07
      -3.90129628e-07 -4.75103889e-07 -3.82437577e-07 -2.78388654e-07
      -1.54810820e-07 3.74421631e-08 4.94143357e-08 -1.20357395e-08
      -2.09580957e-08 -6.20686720e-08 9.66060920e-09 1.61796009e-07
      2.50239765e-07 3.02263459e-07 2.91277985e-07 3.00538460e-07
      3.96514992e-07 4.06835227e-07 2.90931553e-07 1.98944946e-07
      2.89971336e-08 -1.12185965e-07 -5.07479143e-08 9.00971173e-08
      6.07828667e-08 1.14688362e-07 2.59398632e-07 2.51050864e-07
      1.79444541e-07 1.09777851e-07 8.47375645e-08 2.36161071e-07
      4.67783110e-07 5.90449588e-07 5.77032267e-07 6.70201644e-07
      6.97122573e-07 5.99925500e-07 4.39712466e-07 4.04536479e-07
      1.15789658e-06 9.32505145e-07 6.84292161e-07 4.92256049e-07
      3.79925609e-07 3.46786265e-07 3.44797371e-07 2.99993133e-07
      3.17607970e-07 1.67026357e-07 -6.93064521e-08 -2.16207937e-07
      -2.40312289e-07 -2.40002294e-07 -1.59826968e-07 -2.98927709e-08
      1.71028887e-07 3.40758220e-07 3.30484113e-07 2.98779838e-07
      3.15889736e-07 3.22161327e-07 2.85347085e-07 3.34534747e-07
      3.77533866e-07 4.30228908e-07 4.74703597e-07 5.06435811e-07
      5.95784741e-07 5.59109310e-07 3.68070999e-07 2.12676184e-07
      7.14648465e-08 -4.21629416e-08 5.78853232e-08 2.39283196e-07
      3.14761621e-07 3.55511702e-07 5.18427385e-07 5.86334465e-07
      4.13779617e-07 2.41451005e-07 1.22849755e-07 1.48648766e-07
      2.97040629e-07 4.37604569e-07 4.49457843e-07 5.95248480e-07
      6.82751306e-07 5.52258598e-07 3.46526861e-07 2.21281553e-07
      1.59264880e-06 1.34132040e-06 9.90429157e-07 6.48121500e-07
      3.93123798e-07 2.29760175e-07 1.78071687e-07 1.70109971e-07
      2.87643928e-07 2.81332632e-07 1.14253744e-07 1.97483327e-08
      -9.55864898e-09 -9.05257469e-09 2.54499977e-08 1.96919260e-07
      3.13335676e-07 3.49829406e-07 3.90014691e-07 3.70554375e-07
      3.40852068e-07 3.61431518e-07 3.14159593e-07 3.47539753e-07
      4.05598911e-07 4.67455635e-07 5.54428709e-07 6.35629021e-07
      7.32568992e-07 6.73736338e-07 5.03040553e-07 3.71088959e-07
      2.44349508e-07 9.58241912e-08 1.65030670e-07 2.95896172e-07
      3.82367318e-07 4.81325173e-07 5.79071809e-07 6.71944065e-07
      5.48971059e-07 3.69510303e-07 2.25231162e-07 2.05854633e-07
      2.10532932e-07 2.97322771e-07 3.59461581e-07 5.22885898e-07
      6.78018125e-07 6.25951998e-07 4.61114098e-07 3.66460824e-07
      1.84916064e-06 1.64648816e-06 1.27132296e-06 8.74375814e-07
      5.70399379e-07 3.30823553e-07 2.03546179e-07 1.66018651e-07
      2.93391764e-07 3.63806663e-07 2.60434433e-07 2.32903957e-07
      2.08004735e-07 1.47607963e-07 1.56940985e-07 2.79295904e-07
      2.99802451e-07 2.27956178e-07 2.53811066e-07 3.54211892e-07
      3.19607409e-07 3.12535576e-07 2.30753145e-07 2.23435379e-07
      2.97668777e-07 4.18135556e-07 5.36009452e-07 6.40721282e-07
      7.07688969e-07 7.03327316e-07 5.96313669e-07 4.87027933e-07
      3.88154973e-07 2.33890916e-07 2.40025798e-07 3.12590004e-07
      3.79030212e-07 4.61164348e-07 5.15349598e-07 4.92114793e-07
      3.97915130e-07 3.10618191e-07 2.72740522e-07 2.69180077e-07
      2.23683884e-07 2.77129942e-07 3.44520629e-07 5.39650785e-07
      7.27377198e-07 7.79718050e-07 6.98032522e-07 6.34468222e-07
      1.98641192e-06 1.81966402e-06 1.44946227e-06 1.04514424e-06
      7.53200595e-07 5.26621875e-07 3.76460065e-07 3.12866831e-07
      3.64555802e-07 4.11479022e-07 3.51839304e-07 3.49265918e-07
      3.33060967e-07 2.84007882e-07 2.88699056e-07 2.76009246e-07
      2.30918872e-07 1.22352503e-07 1.28916099e-07 3.14286723e-07
      3.52977509e-07 3.14188327e-07 2.36221453e-07 2.06175727e-07
      2.84543006e-07 3.99979058e-07 5.25336645e-07 6.41497707e-07
      6.91057494e-07 7.02068405e-07 6.74489286e-07 5.14765929e-07
      4.13645807e-07 3.23755074e-07 2.84234346e-07 3.23490099e-07
      4.03607544e-07 4.94804397e-07 4.78620677e-07 3.64834847e-07
      2.36290830e-07 1.54359569e-07 1.64950450e-07 2.49374864e-07
      2.71472175e-07 3.12034814e-07 3.51605451e-07 5.04937645e-07
      6.82539110e-07 7.82222116e-07 7.79319635e-07 7.36374147e-07
      -1.01963494e-07 -9.80242092e-08 -6.55557741e-08 5.60920377e-08
      1.41725053e-07 1.55311369e-07 2.03924372e-07 1.79688271e-07
      7.94235149e-08 5.67026461e-08 7.13040151e-08 6.07395307e-08
      8.11850143e-08 5.42546310e-08 -5.91847860e-09 -3.89217298e-08
      -8.11374932e-08 -1.36730208e-07 -2.11820549e-07 -1.59268609e-07
      -3.03781995e-08 9.37578726e-09 -2.78792012e-08 -3.57193315e-08
      -2.03946993e-08 -3.49011664e-08 -7.34453991e-08 -7.79685507e-08
      -6.59181580e-08 -6.76327971e-08 -8.68374457e-08 -1.11905258e-07
      -4.85747655e-08 -2.34505979e-08 -1.90793714e-09 7.49665929e-08
      1.16237331e-07 5.66004523e-08 -6.85513299e-08 -1.40520243e-07
      -4.65294185e-08 3.55320928e-08 -5.92306186e-08 -1.17914574e-07
      -6.87347992e-08 -4.64004879e-09 7.73719151e-08 1.72390870e-07
      1.84798026e-07 1.59048071e-07 6.52640111e-08 9.66192015e-10
      -8.74928219e-08 -8.43191330e-08 -8.56056346e-08 -1.74363741e-08
      1.03893029e-07 1.29288921e-07 9.92125564e-08 1.15293673e-07
      6.07383228e-08 -2.89235498e-08 -2.87267863e-08 1.77171089e-09
      1.82724929e-08 3.46072042e-08 -7.65558461e-09 -4.52939197e-08
      -3.75439626e-08 -5.92253642e-08 -1.14538537e-07 -1.49971086e-07
      -7.05922574e-08 6.89561575e-10 -1.40654892e-08 -5.18066656e-08
      -5.48908226e-08 -4.96023418e-08 -6.14776994e-08 -4.07013410e-08
      -1.69020318e-08 -6.26554542e-09 -2.45096281e-08 -6.53083490e-08
      -5.33155138e-08 3.07850527e-08 4.55694646e-08 4.22008597e-08
      1.16358613e-07 1.00536077e-07 2.63385900e-08 -3.18308473e-08
      -3.72935602e-08 3.02931795e-08 3.32467351e-08 -6.30285371e-08
      -9.28441111e-08 -4.07570013e-08 2.77361032e-08 1.44267148e-07
      2.49706972e-07 2.58158792e-07 1.44006606e-07 3.73960560e-08
      -9.28251680e-08 -9.06443773e-08 -8.20312707e-08 -5.67831080e-08
      1.48881139e-08 9.88249553e-08 8.11079772e-08 6.75165310e-08
      4.44182504e-08 -4.29810321e-08 -1.03581129e-07 -8.38417336e-08
      -3.98764897e-08 -9.62745705e-09 -2.56119659e-08 -1.00405252e-07
      -1.01163025e-07 -6.45061178e-08 -4.58096814e-08 -7.80663072e-08
      -8.39447409e-08 -2.72960747e-08 -2.00371097e-08 -6.30600923e-08
      -1.07554548e-07 -8.16723897e-08 -7.93999817e-08 -7.78016513e-08
      -2.33032207e-08 1.47489603e-08 3.06371710e-08 -8.26696578e-09
      -3.95767934e-08 1.01291944e-08 7.25830560e-08 7.31819085e-08
      7.19033508e-08 8.66682512e-08 4.48454855e-08 1.19440946e-08
      2.18284253e-08 3.22889377e-08 6.19690184e-08 3.75821294e-08
      -4.75000697e-08 -3.87357701e-08 1.01889830e-08 1.13757558e-07
      2.30018287e-07 3.14343112e-07 2.24631577e-07 8.72875319e-08
      -3.97331981e-08 -8.42323971e-08 -1.12525285e-07 -8.65258869e-08
      -3.23237579e-08 4.50791333e-08 9.70273462e-08 7.50439710e-08
      6.61229649e-08 -2.34546267e-08 -1.25813173e-07 -1.56384573e-07
      -1.17715679e-07 -7.27496996e-08 -2.02223838e-08 -9.94299185e-08
      -1.62765829e-07 -1.22150041e-07 -6.19150526e-08 -3.46051614e-08
      -6.79620484e-08 -5.79991486e-08 -2.04827018e-08 -3.06071293e-08
      -1.08596112e-07 -9.59378568e-08 -7.11287811e-08 -9.09039954e-08
      -7.41565032e-08 -2.70998299e-08 4.52618343e-09 1.29390836e-08
      -1.25564723e-08 -1.43196921e-08 4.71989878e-08 7.46681152e-08
      7.68227011e-08 6.82914845e-08 4.36968790e-08 1.34985330e-08
      2.96273512e-08 4.96720318e-08 7.80393563e-08 1.00979094e-07
      4.96592278e-08 -1.93573104e-08 2.35220572e-08 1.31231786e-07
      2.32947301e-07 3.29705273e-07 2.99607791e-07 1.25129731e-07
      6.24150474e-08 -1.75850339e-08 -6.99494720e-08 -1.12448603e-07
      -6.42716955e-08 5.25063415e-09 7.66402479e-08 1.12351252e-07
      9.91425466e-08 6.52993535e-08 -5.55061312e-08 -1.57783930e-07
      -1.79099501e-07 -1.65954802e-07 -8.84363587e-08 -5.00335418e-08
      -1.44538674e-07 -1.68814736e-07 -1.04265169e-07 -4.47120385e-08
      -5.86514126e-08 -9.19382970e-08 -6.99401213e-08 -1.85274196e-08
      -6.86311949e-08 -1.11003736e-07 -8.45950723e-08 -6.98439138e-08
      -1.02868675e-07 -7.90479078e-08 -5.42288490e-08 -3.69833977e-08
      -1.07515632e-08 -1.27477904e-08 6.26657393e-09 2.79469763e-08
      5.53523343e-08 7.08290528e-08 6.78029650e-08 4.31764065e-08
      8.64763816e-09 4.53190196e-08 7.01427183e-08 1.43515109e-07
      1.23994241e-07 5.19920604e-08 2.20946390e-08 1.07173989e-07
      2.39396371e-07 3.22758865e-07 3.38257962e-07 2.05880809e-07
      1.44334791e-07 5.57546187e-08 3.19553237e-08 -3.10418535e-08
      -5.04315594e-08 -1.47878714e-08 4.23147490e-08 9.98073517e-08
      1.04325842e-07 1.26490946e-07 4.01380937e-08 -7.75194451e-08
      -1.41928723e-07 -2.02213073e-07 -1.80898212e-07 -1.07073049e-07
      -1.04916815e-07 -1.46227308e-07 -1.40076125e-07 -7.91544466e-08
      -7.48878222e-08 -1.11124017e-07 -1.27631864e-07 -7.49927480e-08
      -4.74600848e-09 -4.49626505e-08 -8.21943189e-08 -9.38517033e-08
      -1.34637204e-07 -1.61248010e-07 -1.23569876e-07 -1.01077504e-07
      -7.36873389e-08 -3.02280974e-08 -1.26126656e-08 -2.58465693e-08
      1.31352729e-09 3.10918971e-08 6.52945005e-08 9.42379259e-08
      5.80746260e-08 2.65532378e-08 5.01988922e-08 1.47449228e-07
      2.05338893e-07 1.35613206e-07 4.95428232e-08 8.26492155e-08
      1.92518399e-07 2.93170075e-07 3.20747489e-07 2.65456691e-07
      1.59030080e-07 9.90848505e-08 1.04752999e-07 7.23216402e-08
      2.76438827e-09 -4.43945769e-09 2.74183929e-08 8.05560489e-08
      8.51411883e-08 9.96822465e-08 1.11786591e-07 5.95393734e-09
      -9.57848485e-08 -1.52436655e-07 -2.41626651e-07 -2.03024712e-07
      -1.83943442e-07 -1.80325230e-07 -1.55901205e-07 -1.08324890e-07
      -9.67588392e-08 -1.48842560e-07 -1.53679764e-07 -1.38208478e-07
      -3.91384560e-08 3.04322896e-08 -2.31793766e-08 -1.39096656e-07
      -2.18389602e-07 -2.75960929e-07 -2.45037540e-07 -1.86121483e-07
      -1.31727376e-07 -9.40621661e-08 -6.25757863e-08 -6.67155931e-08
      -5.65990455e-08 -1.69208558e-08 2.02709369e-08 9.98851135e-08
      1.37031918e-07 6.96238089e-08 5.22910817e-08 1.40585840e-07
      2.42558968e-07 2.21704482e-07 1.17960369e-07 6.31680024e-08
      1.24935980e-07 2.22068536e-07 2.75784373e-07 2.36967111e-07
      1.46148864e-07 7.50093392e-08 1.15997842e-07 1.66519584e-07
      1.08556009e-07 4.94699322e-08 7.94521959e-09 3.50487568e-08
      7.71670088e-08 7.90387418e-08 1.11284095e-07 8.97339660e-08
      -1.97551202e-08 -9.69996705e-08 -1.89230292e-07 -3.03385889e-07
      -2.59361087e-07 -2.51851532e-07 -2.03265941e-07 -1.58229639e-07
      -1.14336970e-07 -1.66067437e-07 -1.87869560e-07 -1.45833155e-07
      -8.77176873e-08 -1.79744113e-08 4.12249612e-08 -1.27988741e-07
      -3.11607181e-07 -4.02025165e-07 -4.05379609e-07 -3.02469061e-07
      -2.14043524e-07 -1.27957819e-07 -1.09179553e-07 -1.06798609e-07
      -1.11543478e-07 -6.88258055e-08 -1.21096058e-08 7.11866477e-08
      1.67257255e-07 1.55099954e-07 1.14214693e-07 1.64664272e-07
      2.84289939e-07 3.46500030e-07 2.54015504e-07 1.02465016e-07
      6.41597424e-08 1.02439351e-07 1.54657570e-07 1.65201541e-07
      1.23182687e-07 4.18649648e-08 6.94499320e-08 1.72598021e-07
      1.78534151e-07 8.92764120e-08 3.34786989e-08 -1.96076444e-09
      1.30100970e-08 5.57324533e-08 9.81685346e-08 1.58241590e-07
      1.04007754e-07 1.68504783e-08 -6.12155162e-08 -2.05506126e-07
      -3.21365007e-07 -2.85278418e-07 -2.41934146e-07 -1.87711194e-07
      -1.61204028e-07 -1.53867859e-07 -2.16054616e-07 -1.87064742e-07
      -1.15750730e-07 -9.11182880e-08 -4.18678781e-08 -6.08619644e-08
      -2.44492185e-07 -4.24009357e-07 -4.93257573e-07 -4.25513406e-07
      -2.98914983e-07 -1.72836920e-07 -7.98809552e-08 -9.34337052e-08
      -1.26358913e-07 -9.59555777e-08 -2.95678166e-08 3.82581362e-08
      1.30329198e-07 1.97461986e-07 1.63813468e-07 2.06101433e-07
      3.15101147e-07 4.40484371e-07 4.48391290e-07 2.94951548e-07
      9.43238874e-08 3.91144432e-08 5.49996635e-08 8.15871246e-08
