<?xml version="1.0"?>
<opencv_storage>
<my_svm type_id="opencv-ml-svm">
  <svm_type>C_SVC</svm_type>
  <kernel><type>LINEAR</type></kernel>
  <C>1.</C>
  <term_criteria><epsilon>2.2204460492503131e-16</epsilon>
    <iterations>1000000</iterations></term_criteria>
  <var_all>108160</var_all>
  <var_count>108160</var_count>
  <class_count>2</class_count>
  <class_labels type_id="opencv-matrix">
    <rows>1</rows>
    <cols>2</cols>
    <dt>i</dt>
    <data>
      0 1</data></class_labels>
  <sv_total>1</sv_total>
  <support_vectors>
    <_>
      1.26405018e-06 1.28172167e-06 1.23768507e-06 1.06087896e-06
      8.92624371e-07 7.50370759e-07 7.05084972e-07 7.23728249e-07
      7.30026841e-07 7.13002521e-07 6.45568207e-07 5.49909259e-07
      3.28733563e-07 8.32299349e-08 -3.45751126e-08 -9.55768655e-08
      -6.13911908e-08 -2.86643569e-07 -5.06837125e-07 -5.94895425e-07
      -6.86162423e-07 -7.51373534e-07 -8.25445511e-07 -9.13016493e-07
      -1.02371587e-06 -1.09023597e-06 -1.13684303e-06 -1.22685844e-06
      -1.27182375e-06 -1.32923674e-06 -1.41516409e-06 -1.48350284e-06
      -1.53901988e-06 -1.54961128e-06 -1.48893480e-06 -1.29192506e-06
      -1.10628832e-06 -1.02397405e-06 -8.85987163e-07 -8.52093763e-07
      -6.80976143e-07 -3.63159046e-07 1.70863004e-08 3.59365657e-07
      5.43937688e-07 6.53983932e-07 7.42142333e-07 8.74930436e-07
      1.33006756e-06 1.79023209e-06 2.04407206e-06 2.13644830e-06
      1.88024467e-06 1.82947451e-06 1.65305698e-06 1.34146740e-06
      9.24792630e-07 4.86170961e-07 2.07584634e-07 -3.29888721e-08
      -2.09385888e-07 -3.21168358e-07 -3.96444278e-07 -4.55842411e-07
      -4.93848802e-07 -4.92308686e-07 -4.14116215e-07 -2.62917609e-07
      -1.26489581e-07 8.79804318e-08 2.66307893e-07 3.27613151e-07
      3.00523823e-07 2.26290496e-07 1.02828210e-07 -3.42995570e-08
      -1.78714401e-07 -3.18927533e-07 -4.53825010e-07 -5.47645698e-07
      -6.04304603e-07 -6.29926319e-07 -6.35401364e-07 -6.18498973e-07
      -5.41960503e-07 -3.85789349e-07 -1.84557990e-07 1.77644317e-08
      1.71110614e-07 2.67739239e-07 1.66563837e-07 1.20202461e-08
      -1.29427278e-07 -2.34034133e-07 -2.22074561e-07 -1.03459925e-07
      6.63469493e-08 2.24901882e-07 4.02499637e-07 5.81503912e-07
      8.00803775e-07 1.20193954e-06 1.53316250e-06 1.64965593e-06
      2.54814086e-06 2.48330321e-06 2.24080532e-06 1.84064425e-06
      1.39636347e-06 9.42899987e-07 5.01218096e-07 1.22070773e-07
      -1.63144705e-07 -3.62444013e-07 -5.00391536e-07 -6.11347787e-07
      -7.12237522e-07 -8.57093028e-07 -1.04716833e-06 -1.20150060e-06
      -1.24372150e-06 -1.12325586e-06 -9.09237087e-07 -6.26584381e-07
      -2.88993249e-07 -1.78553581e-08 1.20214835e-07 1.65965815e-07
      1.99202418e-07 2.54965443e-07 3.51586607e-07 5.26664451e-07
      7.22055006e-07 9.35358287e-07 1.12279042e-06 1.25987958e-06
      1.36496567e-06 1.34962272e-06 1.18480671e-06 8.60346461e-07
      4.45550057e-07 8.24976709e-08 -2.02105625e-07 -4.11738341e-07
      -5.40871383e-07 -4.91414767e-07 -3.15540660e-07 -7.02886496e-08
      1.80460930e-07 3.83549036e-07 5.62245361e-07 7.45877060e-07
      9.05215472e-07 1.05751371e-06 1.19020444e-06 1.24392909e-06
      2.25714416e-06 2.24501946e-06 2.20777042e-06 2.07057974e-06
      1.67646135e-06 1.22953827e-06 8.02966724e-07 4.29425029e-07
      1.49378238e-07 -5.89227689e-08 -2.12489113e-07 -3.62675081e-07
      -5.35946924e-07 -7.74160299e-07 -1.04992000e-06 -1.29427872e-06
      -1.67946155e-06 -1.96968426e-06 -2.05414881e-06 -1.91238746e-06
      -1.60041895e-06 -1.22373115e-06 -8.26467044e-07 -4.68994443e-07
      -1.92566119e-07 4.78782880e-08 2.93077250e-07 5.03641502e-07
      6.66544452e-07 7.56775876e-07 7.08417474e-07 4.39494755e-07
      -2.97569560e-08 -5.69805763e-07 -1.01842625e-06 -1.32696641e-06
      -1.60170100e-06 -1.76573451e-06 -1.81233668e-06 -1.72060197e-06
      -1.49798268e-06 -1.19193544e-06 -8.47015485e-07 -5.09054132e-07
      -2.17062691e-07 -2.03268566e-08 1.46884403e-07 2.75619698e-07
      3.72682166e-07 4.54800812e-07 5.23803010e-07 5.41478869e-07
      1.15858734e-06 1.10962378e-06 9.32179489e-07 6.34359424e-07
      3.02869154e-07 4.54895641e-08 -1.24907416e-07 -2.56114163e-07
      -3.04440562e-07 -2.89129844e-07 -1.96347955e-07 -6.03271815e-08
      5.98087482e-08 6.68876226e-08 -8.02284035e-08 -3.25079071e-07
      -6.23783251e-07 -9.96627250e-07 -1.24047392e-06 -1.26877319e-06
      -1.09089706e-06 -7.27502368e-07 -2.58685532e-07 3.46718494e-08
      2.43397182e-07 4.00243977e-07 5.17185583e-07 5.75486183e-07
      5.73021964e-07 4.32575291e-07 1.19314876e-07 -3.60544817e-07
      -8.55407961e-07 -1.20758784e-06 -1.54025031e-06 -1.84740509e-06
      -2.08859433e-06 -2.17761340e-06 -2.11733914e-06 -1.93057940e-06
      -1.66652808e-06 -1.39199187e-06 -1.13913393e-06 -9.16668398e-07
      -7.52060032e-07 -6.88717591e-07 -6.97456699e-07 -7.16766010e-07
      -7.41923259e-07 -7.58724411e-07 -7.65240600e-07 -7.81417214e-07
      -2.58379089e-07 -3.44728363e-07 -5.02148055e-07 -5.90374157e-07
      -5.06024151e-07 -2.65947847e-07 6.28012273e-08 3.45908035e-07
      5.02470527e-07 5.13389864e-07 4.97736266e-07 4.89897616e-07
      4.93071411e-07 4.68097141e-07 3.56468092e-07 1.54348413e-07
      -9.86096609e-08 -3.13190355e-07 -3.89554828e-07 -2.96426663e-07
      -4.68291468e-08 2.22224884e-07 4.26257998e-07 4.81614620e-07
      4.44886865e-07 3.94976837e-07 3.61140081e-07 3.56524424e-07
      3.53536052e-07 3.14635884e-07 2.66596345e-07 2.66168996e-07
      8.14471868e-09 -3.49988170e-07 -6.28375972e-07 -7.49513049e-07
      -9.77947707e-07 -1.18811988e-06 -1.27538408e-06 -1.27593489e-06
      -1.25310885e-06 -1.17135426e-06 -1.13109252e-06 -1.16141621e-06
      -1.26612179e-06 -1.40659597e-06 -1.51084851e-06 -1.54950624e-06
      -1.55873454e-06 -1.59035835e-06 -1.59305398e-06 -1.59939725e-06
      3.84994308e-07 3.85163077e-07 4.58272524e-07 6.83988844e-07
      1.03063905e-06 1.43763054e-06 1.72586056e-06 1.69837381e-06
      1.32258617e-06 1.02557919e-06 8.50295464e-07 6.83352539e-07
      4.93164805e-07 3.61834594e-07 2.01963914e-07 -5.40369030e-08
      -3.70267657e-07 -6.45174680e-07 -7.27019710e-07 -7.45104217e-07
      -8.01314911e-07 -7.47446450e-07 -6.21429820e-07 -5.54903409e-07
      -5.75256138e-07 -6.36394134e-07 -6.62931768e-07 -6.81675658e-07
      -6.69140945e-07 -6.06788149e-07 -5.25967835e-07 -4.63676116e-07
      -4.60518095e-07 -5.31306057e-07 -6.42999566e-07 -6.97611597e-07
      -6.77368973e-07 -6.81831182e-07 -6.36766458e-07 -5.72894180e-07
      -5.69606755e-07 -5.70456393e-07 -5.87342356e-07 -6.02348223e-07
      -6.04719673e-07 -5.70746920e-07 -5.79651214e-07 -7.10045128e-07
      -9.64861101e-07 -1.22275367e-06 -1.38682151e-06 -1.43966042e-06
      -7.47114193e-09 3.82162710e-08 1.91505393e-07 4.85814383e-07
      8.45708826e-07 1.15900127e-06 1.37474456e-06 1.36467463e-06
      1.29001319e-06 1.36644110e-06 1.41914950e-06 1.40512282e-06
      1.32522075e-06 1.17548086e-06 9.05437219e-07 4.85303360e-07
      -7.22388549e-08 -6.09173981e-07 -1.00208013e-06 -1.22852066e-06
      -1.31871309e-06 -1.26522957e-06 -1.13851570e-06 -9.58408918e-07
      -7.99780423e-07 -6.80075914e-07 -6.14935800e-07 -6.09741846e-07
      -6.09692847e-07 -6.39988798e-07 -7.47662284e-07 -9.36093443e-07
      -1.22180927e-06 -1.48373863e-06 -1.60301499e-06 -1.50920641e-06
      -1.23930579e-06 -9.57297402e-07 -8.35111166e-07 -7.61921342e-07
      -7.37951098e-07 -7.52672292e-07 -8.19251738e-07 -9.00030557e-07
      -8.05467209e-07 -6.15400950e-07 -4.65808284e-07 -4.17864072e-07
      -5.11808707e-07 -6.77207936e-07 -8.65367610e-07 -9.37958077e-07
      -2.31746981e-07 -1.32570662e-07 1.19530341e-07 4.80213998e-07
      8.83673863e-07 1.25056067e-06 1.48872789e-06 1.75918785e-06
      1.93731353e-06 2.07663811e-06 2.24704445e-06 2.44365651e-06
      2.60579145e-06 2.67380142e-06 2.55569103e-06 2.21116034e-06
      1.70035094e-06 1.10000349e-06 4.36072725e-07 -1.98155035e-07
      -6.57143403e-07 -7.87635372e-07 -7.45531281e-07 -6.31365424e-07
      -4.36865918e-07 -2.49059241e-07 -1.44886968e-07 -1.15418402e-07
      -1.42647082e-07 -2.25440075e-07 -3.70697904e-07 -6.29006308e-07
      -1.01806143e-06 -1.39023086e-06 -1.61983871e-06 -1.70527233e-06
      -1.67040560e-06 -1.46414152e-06 -1.14175668e-06 -6.53019185e-07
      -1.57294139e-07 1.93534277e-07 4.95636073e-07 7.14269504e-07
      8.54903021e-07 8.93930803e-07 8.32431397e-07 6.73085310e-07
      3.46610307e-07 8.09193637e-08 -6.70344775e-08 -1.13692906e-07
      6.05058176e-07 6.46921535e-07 7.61730973e-07 9.44376666e-07
      1.21071253e-06 1.17540071e-06 1.14071213e-06 1.27245482e-06
      1.47777052e-06 1.79273843e-06 2.14666375e-06 2.50772177e-06
      2.88308274e-06 3.21177640e-06 3.40069187e-06 3.26964914e-06
      3.01438081e-06 2.62704907e-06 2.07514154e-06 1.47465823e-06
      9.89197815e-07 7.53357540e-07 6.97686289e-07 5.79287132e-07
      4.08210298e-07 2.58518185e-07 1.65765684e-07 1.00202328e-07
      1.79991648e-08 -6.24510292e-08 -9.37081737e-08 -9.84173809e-08
      -1.26279261e-07 -5.36624668e-07 -7.89496198e-07 -7.89385012e-07
      -4.89945251e-07 1.43862593e-07 9.42895440e-07 1.40365967e-06
      1.82481040e-06 2.17253978e-06 2.40415557e-06 2.47924231e-06
      2.41375074e-06 2.26891325e-06 1.99703800e-06 1.62899278e-06
      1.25369399e-06 9.39796450e-07 7.48647096e-07 7.00912096e-07
      8.05377738e-07 8.12197072e-07 8.25313748e-07 8.12758628e-07
      8.05736590e-07 8.92579237e-07 1.17209652e-06 1.44669616e-06
      1.47339756e-06 1.43448869e-06 1.59901185e-06 1.84654618e-06
      2.15484033e-06 2.39035012e-06 2.51607639e-06 2.53234975e-06
      2.48634615e-06 2.23169582e-06 1.71512022e-06 1.20439120e-06
      8.69224664e-07 7.00936255e-07 6.72889541e-07 7.29043848e-07
      8.01075430e-07 7.95604137e-07 7.77600235e-07 7.65500545e-07
      7.49153344e-07 7.17724106e-07 6.84704617e-07 5.26184351e-07
      1.48478776e-07 -8.86980516e-08 -2.11562590e-08 1.53405736e-07
      6.36755999e-07 1.40913221e-06 2.16266631e-06 2.61039895e-06
      2.68981876e-06 2.64011487e-06 2.50723747e-06 2.20247080e-06
      1.92937114e-06 1.76874789e-06 1.60532375e-06 1.44889532e-06
      1.39470262e-06 1.39078963e-06 1.39399606e-06 1.39158647e-06
      5.24481777e-07 5.10124039e-07 5.05691332e-07 5.19110813e-07
      6.50504376e-07 9.71290547e-07 1.26928137e-06 1.30933950e-06
      1.08041672e-06 7.34588184e-07 6.28044006e-07 6.47901402e-07
      7.67792358e-07 9.82032816e-07 1.30465958e-06 1.66190046e-06
      1.93739061e-06 2.00274212e-06 1.70947544e-06 1.32222476e-06
      1.08325912e-06 1.04376772e-06 1.04703497e-06 1.04052572e-06
      1.11863278e-06 1.26147427e-06 1.36007827e-06 1.42628426e-06
      1.46479260e-06 1.44626949e-06 1.26645307e-06 1.00645980e-06
      7.76005891e-07 4.97835913e-07 4.07203885e-07 5.92155914e-07
      9.57928251e-07 1.53189717e-06 2.08053189e-06 2.35507036e-06
      2.29826082e-06 2.03327886e-06 1.64221956e-06 1.30354260e-06
      1.10372889e-06 9.90586614e-07 8.99662439e-07 7.73471584e-07
      5.61736954e-07 3.02655366e-07 1.62982261e-07 1.09084894e-07
      1.25704545e-07 1.47690031e-07 2.37957963e-07 4.58481964e-07
      8.08314212e-07 1.15895523e-06 1.38679013e-06 1.27971384e-06
      9.14737257e-07 6.20951880e-07 5.01177169e-07 3.38543231e-07
      1.20926686e-07 -1.87981115e-08 -6.87158987e-08 -1.12408118e-08
      1.65809865e-07 3.88604803e-07 4.36315872e-07 5.73303851e-07
      9.62674790e-07 1.21989467e-06 1.19722779e-06 1.13194278e-06
      1.04655885e-06 9.85023917e-07 9.46154216e-07 9.23726589e-07
      9.18193507e-07 9.28397412e-07 9.37816935e-07 8.96357676e-07
      6.65714367e-07 4.30121048e-07 2.86950950e-07 4.96770440e-07
      1.02727518e-06 1.58915020e-06 1.74792797e-06 1.61151434e-06
      1.36684264e-06 1.14576653e-06 1.04850324e-06 1.05981496e-06
      1.19959066e-06 1.25877182e-06 1.28397119e-06 1.26631619e-06
      1.07771973e-06 8.28513748e-07 5.77469052e-07 4.87268835e-07
      -8.76312782e-08 -1.13382171e-07 -1.89633468e-07 -9.11366129e-08
      2.60387253e-07 9.05923343e-07 1.52553605e-06 1.46004413e-06
      1.05936203e-06 6.79579557e-07 6.76459592e-07 5.92210313e-07
      4.36021594e-07 2.53527588e-07 -3.15112061e-08 -3.60500536e-07
      -6.45937575e-07 -8.39050927e-07 -9.54049597e-07 -1.02175841e-06
      -1.06235825e-06 -1.01532794e-06 -7.56086081e-07 -4.15385500e-07
      -1.95900469e-07 -1.11822352e-07 -5.87477409e-08 -1.12313847e-09
      3.24144054e-08 5.99845649e-08 9.73879608e-08 2.97641218e-08
      -2.26519070e-08 2.02167154e-08 1.54385631e-07 3.91719027e-07
      6.27079260e-07 8.18259991e-07 8.57881389e-07 7.74525176e-07
      7.34550781e-07 7.34147022e-07 8.44780573e-07 1.13592068e-06
      1.64287155e-06 2.02447518e-06 2.09876794e-06 1.79993901e-06
      1.57897421e-06 1.48988829e-06 1.36187339e-06 1.30891397e-06
      1.03626334e-07 -1.83464124e-08 -2.83706271e-07 -3.67078286e-07
      -2.68962225e-07 9.22065695e-08 6.54969313e-07 1.20292566e-06
      1.55744692e-06 1.62926210e-06 1.66923655e-06 1.64230664e-06
      1.65234633e-06 1.72770319e-06 1.66326799e-06 1.60714251e-06
      1.41315536e-06 9.33764454e-07 3.77562827e-07 -2.73348437e-08
      -4.40952732e-07 -8.16554007e-07 -1.05114339e-06 -1.00720570e-06
      -8.15082842e-07 -6.12283998e-07 -5.11267899e-07 -4.70376534e-07
      -3.12011622e-07 -2.17211138e-07 -2.34819368e-07 -3.09499313e-07
      -3.72288582e-07 -3.84409788e-07 -3.12002413e-07 -1.68719296e-07
      6.41349018e-08 4.61728831e-07 8.61670117e-07 1.16505475e-06
      1.31947013e-06 1.43682951e-06 1.74866932e-06 2.05846072e-06
      1.89351067e-06 1.60808952e-06 1.32231617e-06 1.14817362e-06
      1.01772241e-06 1.04045068e-06 1.15523596e-06 1.22672043e-06
      1.45232448e-07 1.27997964e-07 1.23192606e-07 1.44497150e-07
      4.19693045e-08 5.99052115e-08 3.36773326e-07 6.81097731e-07
      8.73953354e-07 8.30326826e-07 6.96683458e-07 5.80772337e-07
      5.63191918e-07 6.27077668e-07 7.88319255e-07 1.02267916e-06
      9.79963829e-07 7.81173014e-07 5.50578989e-07 3.09305250e-07
      5.13901348e-08 -1.77855000e-07 -3.68100984e-07 -4.17360013e-07
      -3.05108102e-07 -1.28822364e-07 -1.22458541e-08 -3.94486799e-09
      -7.79432163e-09 -1.68794031e-07 -3.86700236e-07 -5.97859355e-07
      -7.75107537e-07 -8.52996493e-07 -8.55791711e-07 -8.95953576e-07
      -1.02160061e-06 -1.21386461e-06 -1.34943957e-06 -1.24462269e-06
      -1.12102350e-06 -1.08998222e-06 -1.13232875e-06 -1.07986682e-06
      -9.65429194e-07 -7.93908725e-07 -6.30734291e-07 -5.03868762e-07
      -3.59644872e-07 -2.00550915e-07 -3.58214223e-08 6.15632700e-08
      4.69112621e-07 4.49106210e-07 3.97220106e-07 3.66873905e-07
      3.65565256e-07 4.55167566e-07 6.60373303e-07 8.30375825e-07
      9.43183466e-07 8.95161122e-07 7.89161504e-07 6.04632476e-07
      3.88250811e-07 1.58409520e-07 -2.42669813e-08 -5.28177573e-08
      -6.74268961e-08 -7.65778836e-08 -1.02781918e-07 -1.99356023e-07
      -3.28738082e-07 -3.91218350e-07 -2.49894555e-07 -1.02965082e-07
      4.04550846e-08 1.53430463e-07 2.47439061e-07 2.73642883e-07
      1.18859340e-07 -1.11873462e-07 -3.66883171e-07 -6.41002373e-07
      -9.00652026e-07 -1.12931730e-06 -1.23072573e-06 -1.25833503e-06
      -1.29979639e-06 -1.42318788e-06 -1.58963633e-06 -1.70667522e-06
      -1.78417338e-06 -1.79128813e-06 -1.76508934e-06 -1.64191931e-06
      -1.37908103e-06 -9.70424594e-07 -5.50505774e-07 -3.35375603e-07
      -2.52492725e-07 -2.27938230e-07 -1.83303541e-07 -1.58779685e-07
      2.44589955e-07 2.39139268e-07 2.28699278e-07 2.11689880e-07
      2.06332544e-07 2.43907266e-07 3.74856825e-07 6.37224730e-07
      9.48070920e-07 1.16291528e-06 1.14039563e-06 1.00933005e-06
      8.24555400e-07 7.00549435e-07 7.34109619e-07 8.90525826e-07
      1.01390299e-06 1.02048261e-06 8.36132301e-07 6.16796456e-07
      4.49337591e-07 3.66328180e-07 3.31748936e-07 2.74497467e-07
      2.20768371e-07 1.90998435e-07 1.73739721e-07 1.75240032e-07
      1.36101860e-07 1.26608768e-07 1.11705553e-07 1.26060229e-07
      1.54471124e-07 1.56687378e-07 1.33986617e-07 1.21078017e-07
      9.07141455e-08 -6.33064587e-08 -1.36821612e-07 -8.45171613e-08
      3.55539278e-08 1.85904639e-07 3.41099877e-07 4.87817999e-07
      6.07970549e-07 6.34022797e-07 6.28265695e-07 6.15449153e-07
      5.53933091e-07 4.61854540e-07 3.81489713e-07 3.51974847e-07
      3.15188693e-08 2.87137638e-08 2.31866615e-08 1.12312570e-09
      -2.81231500e-08 -4.22663682e-08 7.14046988e-10 1.80524182e-07
      5.05438607e-07 9.18099431e-07 1.35866742e-06 1.62913921e-06
      1.62657898e-06 1.42025578e-06 1.15243836e-06 8.73191482e-07
      6.06891319e-07 4.08687583e-07 3.78073509e-07 3.88325361e-07
      3.08836690e-07 1.67758927e-07 -1.13541825e-08 -1.68751598e-07
      -2.98081403e-07 -3.63238371e-07 -3.77021422e-07 -3.51054979e-07
      -2.31682549e-07 -9.13483618e-08 7.82572869e-08 2.98106727e-07
      5.61554657e-07 8.31159355e-07 1.04149171e-06 1.09890323e-06
      1.01012756e-06 8.25871666e-07 6.40707697e-07 6.77349249e-07
      7.69847588e-07 8.23873677e-07 8.37656557e-07 8.14117470e-07
      7.52891822e-07 6.55402800e-07 4.56136206e-07 2.55100929e-07
      9.10938738e-08 -3.91201773e-08 -1.31784176e-07 -1.63832041e-07
      -4.58274169e-10 -2.49909213e-08 -8.92102250e-08 -1.70336236e-07
      -2.45702466e-07 -2.77650969e-07 -2.82140775e-07 -3.19700007e-07
      -2.67120470e-07 -7.16147142e-08 1.47571583e-07 3.44545185e-07
      4.21143596e-07 3.39547427e-07 1.73225288e-07 5.43893748e-08
      3.61349848e-08 3.57629766e-08 -7.23507583e-08 -2.01560880e-07
      -3.03689575e-07 -3.98532990e-07 -5.01664658e-07 -5.81248685e-07
      -6.21939591e-07 -5.87332067e-07 -4.92966194e-07 -3.80573624e-07
      -2.48742623e-07 -1.05968773e-07 2.79717831e-08 1.19003928e-07
      1.69374061e-07 1.72710358e-07 1.73302553e-07 1.92084670e-07
      2.57828560e-07 3.92568609e-07 5.83277426e-07 6.33028264e-07
      6.52446715e-07 6.49522804e-07 5.98607073e-07 5.04218519e-07
      3.91313108e-07 2.43085310e-07 5.40335066e-08 -1.33406672e-07
      -2.77880986e-07 -3.67081583e-07 -3.73615904e-07 -3.75144396e-07
      1.26233388e-07 1.17990723e-07 1.01557887e-07 9.02833222e-08
      8.37978149e-08 7.37972812e-08 6.71411868e-08 3.59197898e-08
      -4.06738065e-09 -4.28564668e-08 -6.17095708e-08 -4.20467892e-08
      3.20645412e-08 1.42201330e-07 1.95468786e-07 1.55442706e-07
      7.98566546e-08 1.01911413e-08 -3.97421651e-08 -7.71676980e-08
      -8.94149963e-08 -7.99072382e-08 -6.01791683e-08 -2.44789362e-08
      5.26612531e-08 1.51637366e-07 2.46073597e-07 3.21893054e-07
      3.52255597e-07 3.69391671e-07 3.57714868e-07 2.93005570e-07
      1.94857435e-07 9.44789278e-08 -2.21269975e-10 -7.64310641e-08
      -1.09547315e-07 -9.81805499e-08 -2.21481713e-08 8.86464377e-08
      2.32592328e-07 3.71764543e-07 4.84095892e-07 6.11624444e-07
      8.12577355e-07 1.03208924e-06 1.18929904e-06 1.29172599e-06
      1.34307493e-06 1.37121253e-06 1.39791541e-06 1.40365580e-06
      4.03163902e-08 4.68843844e-08 6.22166283e-08 9.46122114e-08
      1.20787249e-07 1.25150891e-07 7.23525559e-08 -4.24260342e-08
      -1.92010134e-07 -3.58236804e-07 -4.86117472e-07 -5.31893591e-07
      -4.80551478e-07 -3.51679603e-07 -1.87992356e-07 -2.27472654e-08
      1.06007462e-07 1.95124642e-07 2.59830387e-07 3.06556871e-07
      3.20950164e-07 3.24160510e-07 3.39199232e-07 3.50061896e-07
      3.74525314e-07 3.87191591e-07 3.93145967e-07 3.90512298e-07
      3.61710477e-07 3.07176009e-07 2.21017970e-07 9.33441910e-08
      -6.88652264e-08 -2.25433865e-07 -3.97418063e-07 -5.53151324e-07
      -6.55451970e-07 -6.97450673e-07 -6.57024316e-07 -5.55888676e-07
      -4.15870176e-07 -2.40073547e-07 -1.73299597e-08 2.39333190e-07
      5.31573221e-07 7.87723536e-07 9.69003736e-07 1.07263043e-06
      1.09486234e-06 1.06208734e-06 1.02179240e-06 1.00613624e-06
      -1.45342412e-07 -1.37241642e-07 -1.33830554e-07 -1.48952054e-07
      -2.07244099e-07 -3.18319707e-07 -4.79138521e-07 -6.63990306e-07
      -8.44325200e-07 -1.00282841e-06 -1.08405550e-06 -1.07162180e-06
      -9.67974302e-07 -7.94471816e-07 -5.77400328e-07 -3.70949920e-07
      -2.20127944e-07 -1.30624869e-07 -1.19764366e-07 -1.75624095e-07
      -2.76780355e-07 -3.88871058e-07 -4.55626889e-07 -4.55644170e-07
      -3.75935372e-07 -2.57426592e-07 -1.26889731e-07 -2.07955253e-08
      4.18859969e-08 3.22859854e-08 -3.74406177e-08 -1.48509230e-07
      -2.83281423e-07 -4.43872835e-07 -5.97562348e-07 -7.01384124e-07
      -7.44179374e-07 -7.19586239e-07 -6.60419460e-07 -5.95096367e-07
      -5.45637931e-07 -5.06465028e-07 -4.74146532e-07 -4.52614699e-07
      -4.06197813e-07 -3.25539446e-07 -2.10769244e-07 -9.19529981e-08
      3.91060206e-09 7.38185477e-08 1.11322578e-07 1.29762739e-07
      2.61749705e-07 2.42117608e-07 1.91599923e-07 1.00135367e-07
      -1.84268227e-08 -1.45118563e-07 -2.49700662e-07 -3.33236869e-07
      -3.90727877e-07 -4.20745522e-07 -4.24005776e-07 -3.92557894e-07
      -3.37591246e-07 -2.67588064e-07 -2.11274013e-07 -2.03428684e-07
      -2.33161003e-07 -3.19599053e-07 -4.62301671e-07 -6.48360242e-07
      -8.06687751e-07 -9.09701612e-07 -9.41635335e-07 -8.94571713e-07
      -8.11050768e-07 -7.18933620e-07 -6.56632380e-07 -6.05214552e-07
      -5.48521143e-07 -5.02677040e-07 -4.80723600e-07 -4.78907396e-07
      -4.94430992e-07 -5.23415508e-07 -5.26720953e-07 -4.92054596e-07
      -4.31957261e-07 -3.55688968e-07 -3.23922620e-07 -3.73684912e-07
      -4.85302792e-07 -6.49754384e-07 -8.31902696e-07 -9.85866563e-07
      -1.08128449e-06 -1.09510563e-06 -1.02998058e-06 -9.08561674e-07
      -7.60018281e-07 -6.26549365e-07 -5.37082371e-07 -5.04125921e-07
      5.76431432e-07 5.49054391e-07 4.77777348e-07 3.83147892e-07
      2.89140331e-07 2.27079184e-07 2.12554085e-07 2.45652387e-07
      3.16704188e-07 4.16795729e-07 5.15144848e-07 5.81094923e-07
      5.96899838e-07 5.61360423e-07 4.59863003e-07 3.34539152e-07
      2.26513819e-07 1.29426184e-07 6.05513364e-08 4.88941865e-08
      9.08889604e-08 1.78659846e-07 2.62314359e-07 3.43147946e-07
      4.15689499e-07 4.66303220e-07 4.97962731e-07 5.24296695e-07
      5.27927114e-07 5.04472041e-07 4.56890092e-07 3.82350976e-07
      2.75264512e-07 1.82176720e-07 1.41463971e-07 1.52171964e-07
      1.90750356e-07 2.52906887e-07 3.12805952e-07 3.59509642e-07
      3.75918432e-07 3.40133454e-07 2.68200040e-07 2.09507220e-07
      1.50232196e-07 1.05776209e-07 7.32115524e-08 5.22053512e-08
      3.74890341e-08 2.20430270e-08 1.20399859e-08 5.89583449e-09
      4.20323715e-07 4.27206032e-07 4.47525252e-07 4.86269755e-07
      5.27331110e-07 5.80590836e-07 6.24285406e-07 6.43838405e-07
      6.39501593e-07 6.06103470e-07 5.52693450e-07 5.00085662e-07
      4.38839493e-07 3.77385277e-07 3.28237832e-07 3.17076768e-07
      3.47863192e-07 4.19119175e-07 5.10443840e-07 6.27975396e-07
      7.43339172e-07 8.63779121e-07 9.72947305e-07 1.04318167e-06
      1.07847416e-06 1.12987709e-06 1.19571962e-06 1.22790755e-06
      1.21318806e-06 1.16212186e-06 1.08102222e-06 9.55911332e-07
      7.87605472e-07 6.18967135e-07 4.70658676e-07 4.09747628e-07
      3.99258255e-07 4.22253635e-07 4.75266745e-07 5.54908638e-07
      6.54015537e-07 7.50051584e-07 8.21579420e-07 8.55209123e-07
      8.50935805e-07 8.25264181e-07 7.68546556e-07 6.87124611e-07
      5.95528718e-07 5.17041940e-07 4.62529187e-07 4.41059825e-07
      4.63780339e-08 9.08346323e-08 2.06966192e-07 3.62155305e-07
      5.20205390e-07 6.31614853e-07 6.60037529e-07 5.92982985e-07
      4.42868384e-07 2.51168672e-07 5.73769974e-08 -1.09661869e-07
      -2.17198036e-07 -2.68976464e-07 -2.11623259e-07 -7.26943696e-08
      1.17122070e-07 3.10515617e-07 4.91464391e-07 6.55378074e-07
      7.54440748e-07 7.96874872e-07 8.05531386e-07 7.17772764e-07
      6.07535753e-07 5.15350280e-07 4.57140374e-07 4.29746621e-07
      4.37201010e-07 4.76159641e-07 5.16733962e-07 5.26460155e-07
      5.12499525e-07 4.55028015e-07 3.38459472e-07 2.10001403e-07
      9.68213243e-08 -2.76859669e-09 -6.41503419e-08 -1.04508587e-07
      -8.35067908e-08 -5.00454469e-08 -3.49347005e-08 -2.62657220e-08
      -2.52072976e-08 -1.15438672e-08 1.67136491e-08 6.60196022e-08
      1.13940004e-07 1.40059399e-07 1.52552261e-07 1.54735247e-07
      7.07707898e-07 7.05963828e-07 6.81993583e-07 6.14871851e-07
      5.04314983e-07 3.50532190e-07 1.82098148e-07 2.16183356e-08
      -1.22637630e-07 -2.39316250e-07 -3.27586093e-07 -4.18918319e-07
      -4.72592404e-07 -4.73768267e-07 -4.38564825e-07 -3.99692254e-07
      -3.56743556e-07 -2.83909145e-07 -1.99976398e-07 -9.78547305e-08
      -6.89035033e-08 -7.27484917e-08 -8.08844831e-08 -9.75612835e-08
      -1.17437644e-07 -1.61980040e-07 -1.85346792e-07 -1.44853743e-07
      -5.99819927e-08 5.65060247e-08 1.28543221e-07 1.26960742e-07
      8.43998365e-08 1.93694323e-08 -5.85311852e-08 -1.95659396e-07
      -3.62167356e-07 -4.60093418e-07 -5.25975054e-07 -5.59701959e-07
      -5.44261411e-07 -4.70523304e-07 -4.04927334e-07 -3.49231385e-07
      -3.14841685e-07 -3.04556636e-07 -2.85785148e-07 -2.43174895e-07
      -1.84575171e-07 -1.26350841e-07 -8.89768330e-08 -7.59373222e-08
      4.86129181e-08 -2.14142437e-09 -1.24939319e-07 -2.82882070e-07
      -4.41825279e-07 -5.79740572e-07 -6.81357619e-07 -7.36710092e-07
      -7.30273882e-07 -6.71271721e-07 -5.85555256e-07 -4.76722192e-07
      -3.83284203e-07 -3.05912693e-07 -3.21636037e-07 -4.06260398e-07
      -5.56876500e-07 -7.36752725e-07 -9.47180126e-07 -1.17104821e-06
      -1.36524659e-06 -1.49001175e-06 -1.50720882e-06 -1.43913564e-06
      -1.32084836e-06 -1.18134199e-06 -1.05380843e-06 -8.83697339e-07
      -7.18440845e-07 -5.63909282e-07 -4.53212976e-07 -4.10614007e-07
      -4.54819258e-07 -6.03624187e-07 -8.02916929e-07 -9.31604518e-07
      -9.32845523e-07 -8.15582382e-07 -6.36795448e-07 -4.83709357e-07
      -3.57432612e-07 -2.43798041e-07 -1.41039038e-07 -6.49812080e-08
      3.64094732e-09 5.04623152e-08 6.67118272e-08 5.22152419e-08
      2.80957089e-08 1.89325249e-08 1.18352439e-08 1.28711726e-08
      4.62686529e-08 2.42162788e-08 -3.99490219e-08 -1.19101585e-07
      -1.92861961e-07 -2.36857687e-07 -2.46686170e-07 -2.21921454e-07
      -1.77702432e-07 -1.47008464e-07 -1.40805383e-07 -1.32480181e-07
      -1.42873716e-07 -2.16542801e-07 -3.42972527e-07 -5.00487715e-07
      -6.94534549e-07 -9.20640218e-07 -1.12819976e-06 -1.33185893e-06
      -1.47654043e-06 -1.51973893e-06 -1.46487127e-06 -1.35703431e-06
      -1.23106690e-06 -1.08838117e-06 -9.66804691e-07 -8.63823630e-07
      -8.15422766e-07 -8.43266093e-07 -9.12427026e-07 -1.01761020e-06
      -1.08109987e-06 -1.09822588e-06 -1.10271253e-06 -1.10448173e-06
      -1.06112270e-06 -9.53890208e-07 -7.74294904e-07 -5.60917726e-07
      -3.81185487e-07 -2.65025307e-07 -1.88408691e-07 -1.47936603e-07
      -1.01313127e-07 -4.90790519e-08 1.67073484e-08 9.83489343e-08
      1.95483821e-07 2.87427952e-07 3.71248831e-07 4.11335520e-07
      1.67366537e-07 1.65861650e-07 1.52476289e-07 1.52862967e-07
      1.79653867e-07 2.44366447e-07 3.45609322e-07 4.57865298e-07
      5.27811210e-07 5.17818819e-07 4.57684621e-07 3.34429330e-07
      1.42664732e-07 -1.03443845e-07 -3.05733408e-07 -4.98532074e-07
      -7.18288902e-07 -9.76758315e-07 -1.13598821e-06 -1.19950994e-06
      -1.19136996e-06 -1.10737597e-06 -9.66765356e-07 -7.86755095e-07
      -5.96564632e-07 -4.13703759e-07 -3.01871154e-07 -3.21454024e-07
      -4.12686887e-07 -5.37059918e-07 -6.37062271e-07 -7.08990058e-07
      -7.16709678e-07 -6.96782593e-07 -6.99798932e-07 -7.58942065e-07
      -8.43626935e-07 -9.06146681e-07 -9.12792586e-07 -9.28454426e-07
      -9.76033107e-07 -1.02912168e-06 -9.28874726e-07 -7.79665072e-07
      -6.07803372e-07 -4.16053467e-07 -2.10187679e-07 -1.66773493e-08
      1.57416565e-07 2.66986859e-07 3.23935041e-07 3.39832184e-07
      3.22198197e-08 2.12427498e-08 1.49453907e-08 9.91741622e-09
      1.95328624e-08 3.14362900e-08 3.00079250e-08 -6.98928859e-10
      -5.87442628e-08 -1.04993482e-07 -1.30214815e-07 -1.79828248e-07
      -2.03764799e-07 -1.69560778e-07 -1.08980331e-07 -6.83993946e-08
      -7.19018942e-08 -1.91061034e-07 -3.37155853e-07 -3.76219162e-07
      -2.85960112e-07 -1.62076788e-07 -1.25492306e-07 -8.59640039e-08
      -2.09511004e-08 4.01398701e-08 7.74133184e-08 6.43603997e-08
      7.76304461e-08 1.02343193e-07 1.29150266e-07 1.57634048e-07
      2.02057180e-07 2.46546733e-07 1.75131767e-08 -2.44804426e-07
      -4.08102267e-07 -5.23185690e-07 -7.08711923e-07 -8.94360994e-07
      -9.36985259e-07 -8.42395082e-07 -6.50968559e-07 -4.09064029e-07
      -2.02115856e-07 -1.00794423e-07 -4.69498076e-08 -4.16414281e-08
      -6.32586463e-08 -9.33207147e-08 -1.29709079e-07 -1.51154140e-07
      2.13402096e-08 1.84056823e-08 2.57371209e-08 3.18833742e-08
      3.09780788e-08 9.74075842e-09 -2.95733074e-08 -1.11367186e-07
      -1.88208858e-07 -2.31934493e-07 -2.78267407e-07 -2.96607396e-07
      -1.82637010e-07 9.42314529e-08 4.11444887e-07 5.84488134e-07
      4.80972176e-07 2.02912076e-07 -1.01252880e-07 -1.44505563e-07
      4.60427891e-08 2.83245612e-07 4.15743870e-07 4.11516766e-07
      3.73729137e-07 3.18690638e-07 2.58527194e-07 2.48813620e-07
      3.21353440e-07 3.64504785e-07 2.81618213e-07 1.50861936e-07
      -1.06514291e-08 -1.51020828e-07 -2.58585118e-07 -2.40198148e-07
      -2.18564068e-07 -9.81300516e-08 1.49998769e-07 5.60092985e-07
      7.12441363e-07 6.67008180e-07 5.12437339e-07 3.10483244e-07
      1.15359825e-07 -5.71701904e-08 -1.46973946e-07 -1.72147182e-07
      -1.72712703e-07 -1.46665073e-07 -1.19935962e-07 -1.11760279e-07
      -5.44718546e-07 -5.27914665e-07 -4.99186115e-07 -4.65739163e-07
      -4.37665477e-07 -4.16384751e-07 -4.15520475e-07 -4.35243550e-07
      -4.05541556e-07 -3.43976183e-07 -2.53561751e-07 -1.25140758e-07
      4.20289297e-08 2.01143322e-07 2.50351206e-07 1.45856731e-07
      5.15156895e-09 -1.67019579e-07 -2.01297581e-07 -1.28367432e-07
      2.50519783e-08 3.41112184e-07 5.14074543e-07 4.28694392e-07
      2.68867552e-07 1.65954447e-07 1.96376462e-07 2.66571050e-07
      3.08961432e-07 2.09462300e-07 5.05717210e-08 -7.88814560e-08
      -2.70486794e-07 -4.94870960e-07 -7.25950940e-07 -9.57612656e-07
      -1.04867183e-06 -8.85787358e-07 -4.25916227e-07 1.53179499e-07
      6.55003362e-07 9.90931198e-07 1.07888184e-06 8.11092946e-07
      4.31320672e-07 7.66465220e-08 -2.11722153e-07 -3.92580944e-07
      -4.88603803e-07 -5.26894780e-07 -5.33413640e-07 -5.37518474e-07
      -3.91452293e-09 -1.34941445e-08 -7.54860849e-08 -1.57727371e-07
      -2.33067084e-07 -2.95283684e-07 -3.51020191e-07 -3.46305740e-07
      -2.70475596e-07 -1.43921312e-07 2.97749700e-08 2.63388415e-07
      4.45837202e-07 5.06189451e-07 5.51359733e-07 5.44959391e-07
      4.82353926e-07 3.92268987e-07 3.89270753e-07 4.55570046e-07
      5.43814622e-07 5.84186523e-07 5.84709142e-07 4.68396848e-07
      3.01990298e-07 1.74568996e-07 1.72129319e-07 1.52371484e-07
      3.71095688e-08 -1.34234057e-07 -3.21544661e-07 -4.71725969e-07
      -6.37269579e-07 -7.84372617e-07 -9.00141856e-07 -1.02962952e-06
      -1.15685111e-06 -1.17971013e-06 -1.03956631e-06 -7.56911106e-07
      -4.08447647e-07 -1.13195206e-07 5.36752616e-08 1.04516609e-07
      4.89492251e-08 -8.35791667e-08 -2.15046896e-07 -2.92024595e-07
      -3.21631660e-07 -3.34705504e-07 -3.17577076e-07 -3.06845038e-07
      7.18171862e-07 6.77231014e-07 5.68173164e-07 4.22952212e-07
      2.92740907e-07 2.09712553e-07 2.13492370e-07 3.40310919e-07
      5.35945389e-07 7.47641593e-07 9.31386296e-07 1.06809716e-06
      1.08625568e-06 9.15246517e-07 5.71821886e-07 1.45144242e-07
      -2.52018339e-07 -5.65023754e-07 -7.36611355e-07 -7.78527919e-07
      -6.76994489e-07 -4.34363670e-07 -1.85028313e-07 4.39062688e-08
      2.27192345e-07 3.46476725e-07 3.84232862e-07 3.29179215e-07
      1.26922288e-07 -1.72204480e-07 -4.71977046e-07 -7.20735443e-07
      -8.35777371e-07 -8.90787135e-07 -8.97395807e-07 -8.54703046e-07
      -7.70095767e-07 -6.65387574e-07 -5.51178687e-07 -3.92303065e-07
      -1.76542869e-07 2.12440856e-08 1.30266443e-07 1.38336333e-07
      9.92703093e-08 2.40273934e-08 -8.88227518e-08 -1.48151102e-07
      -1.56592108e-07 -1.56946214e-07 -1.49782807e-07 -1.28589008e-07
      1.37973416e-07 1.25427974e-07 1.28877119e-07 1.49328685e-07
      1.99181557e-07 3.19283600e-07 5.30251782e-07 8.16721808e-07
      1.13481212e-06 1.33869548e-06 1.33567994e-06 1.17555760e-06
      8.34202069e-07 3.29413950e-07 -2.59879272e-07 -8.62291358e-07
      -1.34290326e-06 -1.59877209e-06 -1.67603480e-06 -1.59275407e-06
      -1.37309405e-06 -1.06908612e-06 -7.33126626e-07 -4.17474752e-07
      -1.18327115e-07 1.16997086e-07 2.42205829e-07 2.43228016e-07
      9.04994550e-08 -1.46641923e-07 -3.55332048e-07 -5.27230384e-07
      -6.29130000e-07 -6.75968920e-07 -6.53404186e-07 -5.49479864e-07
      -3.93181722e-07 -1.85881476e-07 7.16583841e-08 3.37504247e-07
      6.03481567e-07 8.51271125e-07 1.01929925e-06 9.81591711e-07
      7.67462154e-07 4.64039459e-07 1.81602545e-07 -5.07155242e-08
      -3.40410338e-07 -5.65940184e-07 -7.25009386e-07 -7.83530766e-07
      -8.99462052e-08 -1.08638346e-07 -1.20230084e-07 -1.13351980e-07
      -4.91837149e-08 5.47536416e-08 1.88686158e-07 2.76256316e-07
      2.80437149e-07 2.65666500e-07 1.91936891e-07 4.59921452e-08
      -9.27784285e-08 -1.82930336e-07 -2.17509736e-07 -2.23802104e-07
      -2.07061603e-07 -1.87370986e-07 -1.67192141e-07 -1.37610158e-07
      -9.79474848e-08 -6.66281181e-08 -5.56799549e-08 -7.15875430e-08
      -1.05759170e-07 -1.35256187e-07 -1.50570585e-07 -1.57669717e-07
      -1.69685322e-07 -1.83227641e-07 -1.73595467e-07 -1.17226563e-07
      -1.56381379e-08 1.30268376e-07 2.82876641e-07 4.42891775e-07
      6.03223896e-07 7.45396505e-07 8.99382997e-07 1.03151797e-06
      1.14749821e-06 1.22166443e-06 1.19499794e-06 1.03141031e-06
      8.21235290e-07 6.42656175e-07 5.06958941e-07 2.79595525e-07
      9.56665360e-08 -6.73800500e-08 -2.44397569e-07 -3.33379148e-07
      7.29534918e-07 7.09657627e-07 6.37840799e-07 5.19360469e-07
      3.57106870e-07 1.26079243e-07 -1.42202438e-07 -3.48471787e-07
      -5.06065135e-07 -5.47001775e-07 -4.10006692e-07 -1.64489151e-07
      1.30872735e-07 4.55826864e-07 7.97077803e-07 1.11245708e-06
      1.29161992e-06 1.33679737e-06 1.24867927e-06 1.01403884e-06
      6.93112440e-07 3.17604844e-07 -5.80901727e-08 -3.85486885e-07
      -6.21108711e-07 -7.50123036e-07 -7.64771301e-07 -7.04338788e-07
      -5.77426022e-07 -3.82225295e-07 -1.27352550e-07 1.93579567e-07
      5.37179858e-07 8.73703641e-07 1.12757368e-06 1.30817057e-06
      1.42053591e-06 1.42457134e-06 1.33971298e-06 1.19374454e-06
      1.01222702e-06 8.36632751e-07 7.49810170e-07 7.62555430e-07
      7.44149474e-07 8.11032521e-07 9.65019922e-07 1.17288516e-06
      1.35998982e-06 1.45366118e-06 1.45413446e-06 1.42630711e-06
      1.99386889e-07 2.20323599e-07 2.16425121e-07 1.64038980e-07
      8.77141559e-08 7.75206654e-09 -5.01272730e-08 -6.76416292e-08
      -1.10693223e-08 1.20655486e-07 2.74187045e-07 4.05843906e-07
      5.34781009e-07 6.44652971e-07 7.43880548e-07 8.41060853e-07
      9.03513069e-07 8.74661623e-07 7.08791504e-07 4.45867613e-07
      1.13182814e-07 -2.56185501e-07 -6.12281553e-07 -9.29014391e-07
      -1.15677221e-06 -1.30097737e-06 -1.33693027e-06 -1.29062289e-06
      -1.17096499e-06 -1.01059720e-06 -8.44488966e-07 -6.75028218e-07
      -4.99213797e-07 -3.06822301e-07 -9.59570627e-08 1.20244565e-07
      3.34046177e-07 5.09460506e-07 6.18193155e-07 6.52957283e-07
      6.03018179e-07 4.58012039e-07 2.62355428e-07 5.13042728e-08
      -1.42618376e-07 -2.69071393e-07 -2.53080714e-07 -2.12567258e-07
      -2.35380725e-07 -2.83667760e-07 -3.26059507e-07 -3.31721935e-07
      -4.75445262e-07 -4.47464203e-07 -3.86486221e-07 -3.29871909e-07
      -2.53930722e-07 -1.56050547e-07 -7.75693678e-08 2.55614232e-08
      1.41540568e-07 2.07100229e-07 2.13588748e-07 2.37920048e-07
      2.44793682e-07 2.33496067e-07 2.25299345e-07 1.69699689e-07
      5.48451808e-08 -1.41058450e-07 -3.99504188e-07 -6.40541032e-07
      -8.89546016e-07 -1.13956492e-06 -1.34153038e-06 -1.45520767e-06
      -1.48786421e-06 -1.47611308e-06 -1.44225237e-06 -1.41301780e-06
      -1.38252244e-06 -1.35174855e-06 -1.28565955e-06 -1.16007186e-06
      -9.67622213e-07 -7.14891314e-07 -4.25421092e-07 -1.63732409e-07
      3.29311938e-08 1.56640681e-07 1.90371040e-07 1.36298468e-07
      2.71140319e-08 -1.17463195e-07 -2.81173357e-07 -4.68503487e-07
      -6.40325538e-07 -7.40801454e-07 -8.18354408e-07 -9.32731837e-07
      -1.08623362e-06 -1.23334269e-06 -1.35257051e-06 -1.39113297e-06
      -3.52506305e-07 -3.65818977e-07 -3.95529639e-07 -4.30858535e-07
      -4.45956630e-07 -4.83349368e-07 -4.90101399e-07 -4.25704712e-07
      -2.92107586e-07 -1.18439829e-07 -7.79884513e-09 4.36063949e-08
      1.05100506e-08 -1.26368931e-07 -3.14619314e-07 -5.14467104e-07
      -6.94742425e-07 -8.35876676e-07 -9.41770452e-07 -1.01214721e-06
      -1.12442888e-06 -1.28861984e-06 -1.44094474e-06 -1.53866495e-06
      -1.60286288e-06 -1.65232575e-06 -1.69235875e-06 -1.70695660e-06
      -1.69521877e-06 -1.64905771e-06 -1.51790846e-06 -1.27165356e-06
      -8.91121260e-07 -4.22774292e-07 4.21115161e-08 3.94006150e-07
      5.83901851e-07 6.41771976e-07 5.82835980e-07 4.63924664e-07
      3.78254867e-07 3.80445613e-07 4.69129589e-07 6.32146225e-07
      7.92580636e-07 8.72603209e-07 8.29104408e-07 6.91855178e-07
      4.73952952e-07 2.63056506e-07 9.47834380e-08 3.13409032e-08
      -2.96043538e-07 -3.15847757e-07 -3.52878260e-07 -3.80586982e-07
      -4.06331992e-07 -4.75726665e-07 -5.11232429e-07 -5.06121467e-07
      -4.29389473e-07 -3.34656107e-07 -3.69123740e-07 -4.43491246e-07
      -5.82907603e-07 -9.49471939e-07 -1.21600306e-06 -1.33553976e-06
      -1.30055605e-06 -1.09934626e-06 -7.66885705e-07 -3.76568039e-07
      -1.08495605e-07 -1.15392311e-07 -3.08587261e-07 -6.21234619e-07
      -9.95536197e-07 -1.36279937e-06 -1.62486651e-06 -1.72452224e-06
      -1.66920347e-06 -1.47811045e-06 -1.15396233e-06 -6.85415671e-07
      -1.46293402e-07 3.67407267e-07 7.19551849e-07 8.58661792e-07
      8.16372960e-07 6.58701140e-07 3.99114782e-07 2.06036887e-07
      1.48306938e-07 2.77153617e-07 5.49665174e-07 8.86730959e-07
      1.16947467e-06 1.33752678e-06 1.29240630e-06 9.70537940e-07
      5.40753319e-07 1.66123911e-07 -8.65153282e-08 -1.60797853e-07
      -3.62033518e-07 -3.97471183e-07 -4.71748734e-07 -5.54030066e-07
      -6.34048263e-07 -7.18661454e-07 -8.11983114e-07 -7.29076248e-07
      -5.18201148e-07 -3.73634549e-07 -3.75506886e-07 -5.28142664e-07
      -8.34699051e-07 -1.16345791e-06 -1.29763202e-06 -1.20098389e-06
      -1.04892968e-06 -6.21012646e-07 9.18784977e-08 9.36338552e-07
      1.68272595e-06 1.85189765e-06 1.10148881e-06 2.91542108e-07
      -4.04462213e-07 -9.46218904e-07 -1.24683208e-06 -1.31040963e-06
      -1.17472280e-06 -8.79272875e-07 -4.29596554e-07 2.02467135e-07
      9.39032759e-07 1.57010152e-06 1.63554387e-06 1.30149635e-06
      7.87404929e-07 2.21801727e-07 -4.90941261e-07 -1.08101483e-06
      -1.36544520e-06 -1.33382923e-06 -1.09374469e-06 -8.39052802e-07
      -6.77296555e-07 -6.06913375e-07 -6.40594919e-07 -7.74027797e-07
      -8.99176484e-07 -1.05658273e-06 -1.15604189e-06 -1.17559580e-06
      -9.08618176e-08 -1.13901756e-07 -1.46539108e-07 -1.94801743e-07
      -2.65846836e-07 -2.94495493e-07 -2.84181965e-07 -1.79970996e-07
      1.45021261e-07 4.60350122e-07 5.47914624e-07 4.40329018e-07
      1.69285983e-07 -1.75367788e-07 -4.23704449e-07 -7.19101251e-07
      -7.00542273e-07 -3.63611804e-07 3.06216123e-07 9.17186298e-07
      1.25232191e-06 1.25023519e-06 9.52974005e-07 5.27346174e-07
      1.71510024e-07 -3.59191006e-08 -2.75395209e-08 1.47514598e-07
      4.50116261e-07 8.27889949e-07 1.27167471e-06 1.60419086e-06
      1.98069370e-06 2.40021336e-06 2.43984800e-06 2.18063201e-06
      1.58628370e-06 5.95925542e-07 -4.17964600e-07 -1.39176882e-06
      -1.92413245e-06 -1.97496888e-06 -1.63385107e-06 -1.35390940e-06
      -1.10838982e-06 -1.08968118e-06 -1.14896795e-06 -1.11491704e-06
      -9.57227371e-07 -7.20600497e-07 -4.86235876e-07 -4.10459137e-07
      -5.67985978e-07 -5.43892668e-07 -4.84960253e-07 -3.71412710e-07
      -1.99883004e-07 1.84863076e-08 2.75906899e-07 5.57602107e-07
      8.00679231e-07 9.59509634e-07 1.08271865e-06 1.12138912e-06
      9.08001482e-07 4.98101997e-07 3.04719549e-07 2.94008288e-07
      1.07132820e-07 -5.28686339e-09 -5.65888172e-08 -1.20806902e-07
      -1.67395797e-07 -2.02912787e-07 -2.78331328e-07 -3.86023572e-07
      -4.35747864e-07 -3.90738990e-07 -2.64031627e-07 -4.71071750e-08
      2.53481858e-07 5.97381131e-07 1.04191849e-06 1.52281791e-06
      1.92947505e-06 2.21862820e-06 2.42432702e-06 2.40489476e-06
      2.04351113e-06 1.37662983e-06 5.03573460e-07 -1.88559056e-07
      -5.49603442e-07 -5.10187192e-07 -3.29092188e-07 -1.75739473e-07
      -1.52900643e-08 -5.11961407e-09 -1.62835022e-07 -2.37300242e-07
      -1.72181430e-07 -3.02876693e-08 9.56500088e-08 1.21268613e-07
      -1.02168042e-06 -1.01670969e-06 -1.00256477e-06 -9.27923566e-07
      -7.80644712e-07 -5.49283016e-07 -2.43566831e-07 1.07844087e-07
      4.50906924e-07 7.38219228e-07 9.35892501e-07 1.02432966e-06
      1.07390179e-06 1.09218490e-06 1.05695938e-06 7.08097502e-07
      2.17134570e-07 -1.18510329e-07 -2.91039186e-07 -4.41768918e-07
      -5.56439261e-07 -5.77390381e-07 -5.32677745e-07 -3.96965703e-07
      -2.34718939e-07 -2.78362577e-08 2.19536915e-07 5.36097218e-07
      8.92073047e-07 1.28564977e-06 1.69490295e-06 2.03989293e-06
      2.27504415e-06 2.33596029e-06 2.15772275e-06 1.87608589e-06
      1.51768950e-06 7.46842886e-07 1.55731115e-07 -1.26734804e-07
      -1.18694700e-07 1.23573017e-07 5.45566024e-07 7.54833138e-07
      9.02353122e-07 9.42449503e-07 8.94868435e-07 7.90681838e-07
      6.52392941e-07 5.23132655e-07 4.19991437e-07 3.91010815e-07
      -3.71440308e-07 -3.86189754e-07 -3.93372630e-07 -3.78811194e-07
      -3.30086124e-07 -2.13504876e-07 -3.22672591e-08 1.83396239e-07
      3.94869147e-07 7.18009289e-07 7.30241993e-07 5.43889314e-07
      2.98663252e-07 1.02081430e-07 2.88123090e-08 -1.76452204e-07
      -4.75122107e-07 -6.74222520e-07 -5.66906294e-07 -4.71723041e-07
      -4.27393388e-07 -3.86491763e-07 -3.76805616e-07 -3.97984337e-07
      -3.69258089e-07 -1.47667166e-07 1.43754505e-07 4.41073126e-07
      6.70912868e-07 8.41149927e-07 9.62310196e-07 9.94784273e-07
      9.68810582e-07 8.92742605e-07 6.98060433e-07 3.76983536e-07
      -1.06689008e-07 -4.92864217e-07 -5.60609237e-07 -3.88801141e-07
      -1.97753494e-08 4.47080851e-07 9.21835294e-07 1.46806133e-06
      1.47966693e-06 1.38234327e-06 1.11635916e-06 7.57860107e-07
      4.19021688e-07 1.27118653e-07 -7.90001593e-08 -1.46451669e-07
      -2.31189460e-07 -2.47442387e-07 -2.80467276e-07 -3.09777619e-07
      -2.72628199e-07 -1.65288256e-07 -4.68286743e-09 2.07284316e-07
      3.74465003e-07 3.00821739e-07 5.14485343e-08 -2.68462060e-07
      -2.77410265e-07 4.81785278e-08 2.53142559e-07 -4.43386625e-08
      -3.83188052e-07 -5.83373662e-07 -6.17224032e-07 -6.32227398e-07
      -7.29541341e-07 -7.94539574e-07 -9.13241763e-07 -1.07901292e-06
      -1.21084736e-06 -1.23607663e-06 -1.19733829e-06 -1.15002706e-06
      -1.12594194e-06 -1.17966886e-06 -1.26778457e-06 -1.36782239e-06
      -1.45244337e-06 -1.54045142e-06 -1.56159115e-06 -1.45113745e-06
      -1.28269983e-06 -1.11781435e-06 -8.82744928e-07 -6.99717532e-07
      -5.58776492e-07 -2.49719022e-07 2.72531850e-07 7.26985604e-07
      1.02409524e-06 1.35930009e-06 1.64942924e-06 1.58688329e-06
      1.17259026e-06 7.26279097e-07 4.10545169e-07 2.97777945e-07
      -8.29983264e-07 -8.05812931e-07 -7.48536422e-07 -6.50230845e-07
      -4.86168517e-07 -2.78624469e-07 -9.69857297e-08 2.69061573e-08
      1.24501831e-08 -1.74862564e-07 -5.08754908e-07 -8.08439893e-07
      -9.75956937e-07 -1.05454524e-06 -1.17434456e-06 -1.46216087e-06
      -1.79592553e-06 -2.04626576e-06 -2.13501175e-06 -2.12530290e-06
      -2.16778790e-06 -2.35619336e-06 -2.43945328e-06 -2.35206562e-06
      -2.21126015e-06 -2.02591309e-06 -1.84145983e-06 -1.71974625e-06
      -1.72243688e-06 -1.83140241e-06 -1.98075691e-06 -2.09100745e-06
      -2.00783984e-06 -1.72071327e-06 -1.35721893e-06 -1.11131806e-06
      -1.01651528e-06 -1.26654970e-06 -1.41144540e-06 -1.34955792e-06
      -1.11823260e-06 -8.30724730e-07 -6.74502076e-07 -7.40682083e-07
      -6.36937727e-07 -3.07875922e-07 1.73342528e-07 5.76327409e-07
      7.31814566e-07 6.81166739e-07 5.65950472e-07 5.14264514e-07
      -7.42605039e-07 -7.63112610e-07 -7.99420377e-07 -8.29001124e-07
      -8.46591377e-07 -8.74270370e-07 -9.61453111e-07 -1.08670690e-06
      -1.20177356e-06 -1.22698395e-06 -1.14674219e-06 -1.02828176e-06
      -9.76450679e-07 -1.07572851e-06 -1.28941656e-06 -1.49068285e-06
      -1.63746540e-06 -1.89295838e-06 -2.27873556e-06 -2.55087207e-06
      -2.65778795e-06 -2.55131363e-06 -2.26655197e-06 -1.87364890e-06
      -1.87268824e-06 -1.71770228e-06 -1.50819039e-06 -1.34038885e-06
      -1.28810814e-06 -1.30682645e-06 -1.28555553e-06 -1.05154265e-06
      -7.83463804e-07 -5.76235834e-07 -7.86629528e-07 -1.32510422e-06
      -1.84801524e-06 -2.02545584e-06 -1.98027578e-06 -1.69597422e-06
      -1.36892959e-06 -1.73863612e-06 -2.06226514e-06 -2.24078076e-06
      -2.26611769e-06 -2.13672547e-06 -1.84431963e-06 -1.44602814e-06
      -1.04090157e-06 -7.16079455e-07 -5.16488058e-07 -4.67280017e-07
      -5.16449120e-07 -5.62838920e-07 -6.67550182e-07 -9.49763205e-07
      -1.41130090e-06 -1.98188218e-06 -2.57000238e-06 -3.02910234e-06
      -3.26599661e-06 -3.24584221e-06 -2.92551749e-06 -2.40296799e-06
      -1.83963152e-06 -1.38694418e-06 -1.10408916e-06 -9.03229079e-07
      -8.71940472e-07 -9.87228304e-07 -1.33912556e-06 -1.52516111e-06
      -1.84685052e-06 -2.05264655e-06 -1.94161089e-06 -1.26055784e-06
      -4.91077003e-07 -1.49787155e-07 -4.62023912e-08 4.99267117e-09
      -3.52371750e-08 -1.16946538e-07 -3.18022558e-07 -4.71555666e-07
      -3.97739740e-07 -4.21383078e-07 -8.91498189e-07 -1.29709940e-06
      -1.55482132e-06 -1.56231522e-06 -1.73923104e-06 -1.99464580e-06
      -2.34026243e-06 -2.76739320e-06 -3.09215784e-06 -3.45433818e-06
      -3.77226047e-06 -3.82532789e-06 -3.62789228e-06 -3.21057337e-06
      -2.66917255e-06 -2.17308889e-06 -1.72689897e-06 -1.52862447e-06
      -3.23138295e-07 -2.33894710e-07 -2.44761775e-08 2.10442252e-07
      3.94868437e-07 4.30883176e-07 4.18848799e-07 5.14074657e-07
      3.37859035e-07 5.87027920e-08 2.39993589e-08 8.72787354e-08
      9.20081007e-08 5.48972565e-08 -9.66240705e-08 -3.67030339e-07
      -5.54969802e-07 -7.06502703e-07 -8.39254369e-07 -9.37077857e-07
      -1.01632190e-06 -1.08814959e-06 -1.03947627e-06 -9.07091078e-07
      -6.49564697e-07 -2.86370067e-07 -1.30146802e-07 -4.05817900e-07
      -7.30844476e-07 -8.80702487e-07 -9.61987098e-07 -8.96760412e-07
      -6.97249732e-07 -4.92848187e-07 -4.20041289e-07 -4.27841314e-07
      -4.60721765e-07 -2.83202411e-07 -5.81173083e-08 -5.68188199e-08
      2.64486477e-08 6.19140650e-08 -1.02596275e-07 -2.61686552e-07
      -2.13412989e-07 4.78899267e-08 2.36034410e-07 3.06507076e-07
      4.29993094e-07 5.69368751e-07 5.75165643e-07 5.11412111e-07
      -2.63393503e-07 -2.36299627e-07 -9.84699113e-08 1.01057246e-07
      3.56301285e-07 5.06525396e-07 5.01091165e-07 5.20549406e-07
      3.82540350e-07 1.18955995e-07 2.29100419e-08 2.63374407e-08
      1.73038028e-08 9.94108404e-08 1.17388712e-08 -2.16807862e-07
      -3.76697898e-07 -4.99590897e-07 -6.59131899e-07 -8.20679247e-07
      -9.41470205e-07 -1.03755440e-06 -1.06999084e-06 -9.80822733e-07
      -7.53674669e-07 -4.21536157e-07 -2.43645900e-07 -3.70658086e-07
      -5.88125090e-07 -7.63061166e-07 -8.02804550e-07 -7.72549981e-07
      -6.54554697e-07 -4.72633843e-07 -3.34325421e-07 -3.31969318e-07
      -4.33357627e-07 -3.12663161e-07 -4.96678076e-08 -2.65148721e-08
      1.30107014e-09 5.24194377e-08 -1.04964322e-07 -2.86576096e-07
      -3.18858071e-07 -7.56499645e-08 1.44614745e-07 2.16480402e-07
      3.54124239e-07 5.42349540e-07 5.83989845e-07 5.12770782e-07
      -1.79718327e-07 -1.58419397e-07 -9.18542611e-08 -1.52844208e-08
      1.96479149e-07 4.67209077e-07 5.66559549e-07 5.45723765e-07
      3.84414847e-07 2.14070795e-07 1.20986059e-07 6.08041759e-08
      -4.12866852e-09 1.33745033e-07 8.05939493e-08 -5.68880836e-08
      -1.65745703e-07 -2.20261526e-07 -3.63627493e-07 -5.85397061e-07
      -7.54385667e-07 -8.55363851e-07 -9.88586407e-07 -9.80341269e-07
      -8.15568114e-07 -5.76113507e-07 -4.79347648e-07 -5.08553910e-07
      -5.36577090e-07 -6.35810295e-07 -5.82569157e-07 -5.29481326e-07
      -4.70687411e-07 -3.15502177e-07 -1.69020780e-07 -2.16373849e-07
      -3.67973570e-07 -2.67272725e-07 -5.29063158e-08 -2.68326410e-08
      -9.02334918e-09 1.60453340e-08 -1.53570340e-07 -3.71144523e-07
      -4.24420108e-07 -1.83636402e-07 1.03542366e-08 -6.73518352e-09
      1.03372400e-07 3.48815632e-07 4.91303751e-07 4.46518953e-07
      -2.52263987e-07 -7.87596690e-08 1.18493348e-08 -1.12929008e-08
      6.26775432e-08 2.76822107e-07 3.71874279e-07 4.02489292e-07
      3.03484825e-07 2.28843064e-07 1.46512335e-07 6.20116154e-08
      1.82941093e-08 1.20767226e-07 1.59364419e-07 8.32074321e-08
      -1.27480240e-08 -6.11393389e-08 -1.71892140e-07 -3.83713370e-07
      -5.64627044e-07 -6.90032039e-07 -7.83312544e-07 -8.72856788e-07
      -8.16331067e-07 -6.75212448e-07 -5.96659447e-07 -6.09135213e-07
      -5.71182966e-07 -5.19379739e-07 -4.14906481e-07 -2.84813723e-07
      -1.13771449e-07 1.98846362e-08 1.22380584e-07 7.40325845e-09
      -1.97050781e-07 -1.28647827e-07 -3.21790683e-09 -4.38030199e-08
      -5.29470356e-10 -1.39473730e-08 -1.87408858e-07 -3.88104866e-07
      -4.68546801e-07 -2.03755690e-07 -2.97382279e-08 -1.50271958e-07
      -2.04346662e-07 -9.94422180e-08 9.71505631e-09 2.09769730e-08
      -1.83852350e-07 -6.72944367e-08 -8.04252380e-08 -7.58056586e-08
      -4.03368148e-08 2.93338456e-08 1.07473227e-07 1.49304725e-07
      9.82460264e-08 5.79244777e-08 5.07933784e-08 -3.27080407e-08
      -9.69643779e-08 4.50759474e-09 1.42809498e-07 7.95527058e-08
      -3.22596065e-08 1.51669095e-08 -1.09819887e-08 -1.93105848e-07
      -3.61579254e-07 -5.14053738e-07 -6.26566077e-07 -7.54200698e-07
      -7.83513428e-07 -7.23646394e-07 -6.04923969e-07 -5.60646413e-07
      -5.37714243e-07 -4.76466653e-07 -4.16478855e-07 -1.59744260e-07
      9.27126464e-08 3.12955848e-07 3.32609261e-07 9.41267118e-08
      -6.72852796e-09 7.36993897e-08 8.52040785e-08 -6.78988599e-08
      -2.86445676e-08 2.89540942e-08 -9.65241114e-08 -3.03208054e-07
      -3.89780553e-07 -1.79912703e-07 -2.69006684e-08 -1.43639696e-07
      -1.81771341e-07 -1.77659757e-07 -1.71065537e-07 -1.90250987e-07
      -5.90197146e-07 -3.56610911e-07 -2.59133657e-07 -2.21198206e-07
      -9.09091753e-08 -1.33918290e-08 -1.12797750e-07 -1.30317190e-07
      -1.77074568e-07 -1.02033532e-07 -3.60577701e-08 -9.67528138e-08
      -1.90371978e-07 -7.08757355e-08 5.10018587e-08 -4.17950510e-08
      -1.13082514e-07 -6.91758562e-09 1.42432469e-07 7.90053107e-08
      -8.18651458e-08 -2.52639154e-07 -4.23987814e-07 -6.20266690e-07
      -6.68371285e-07 -6.84605709e-07 -5.72591091e-07 -4.55826182e-07
      -4.43571793e-07 -4.76019807e-07 -4.54702075e-07 -2.24879130e-07
      4.22263078e-08 2.98104510e-07 2.83065873e-07 -3.29198429e-08
      -1.34698643e-08 1.66265465e-07 1.22473679e-07 -1.01699570e-07
      -7.36489412e-08 6.28061301e-08 -1.94946370e-08 -1.32856968e-07
      -1.70001684e-07 -1.32430017e-07 -1.42423829e-07 -1.65416537e-07
      -1.27193502e-07 -2.13001226e-08 1.77709722e-08 1.13390168e-08
      -9.71754275e-07 -7.52431674e-07 -4.93377740e-07 -3.14190487e-07
      -1.26771909e-07 1.32629525e-08 -1.75681791e-07 -3.27696881e-07
      -3.61680208e-07 -2.63228884e-07 -1.92801096e-07 -1.92365661e-07
      -2.40133886e-07 -1.15240255e-07 2.19568239e-08 -1.21518056e-07
      -1.81004879e-07 -7.99358162e-08 1.42307798e-07 3.00447851e-07
      1.96438648e-07 -9.94007987e-09 -1.70651802e-07 -3.63981911e-07
      -4.66842749e-07 -5.01428190e-07 -4.34236028e-07 -3.30878180e-07
      -3.01290981e-07 -3.92776144e-07 -4.77892797e-07 -4.20808760e-07
      -2.13941320e-07 1.09359704e-07 1.31017785e-07 -1.58953043e-07
      -6.58307755e-08 1.26136982e-07 1.26380087e-07 -4.63747440e-08
      -6.43299458e-08 9.25361476e-09 4.55994993e-08 -1.24894850e-08
      1.07304192e-08 -8.28324573e-08 -1.81300138e-07 -1.53141158e-07
      -5.40793899e-08 -4.16126831e-08 2.62935229e-09 1.25203385e-07
      -8.53571578e-07 -8.09042319e-07 -6.31415503e-07 -4.65689084e-07
      -1.96039437e-07 4.43323112e-09 1.94601153e-08 -1.65291183e-07
      -2.57722377e-07 -2.67756718e-07 -2.49181284e-07 -3.14458362e-07
      -2.88770053e-07 -1.30812921e-07 7.35410266e-09 -7.75100020e-08
      -1.03363526e-07 -9.54548867e-08 -2.00351158e-09 2.08145437e-07
      3.45799265e-07 2.26122182e-07 9.05947246e-08 -5.79327377e-08
      -1.95826090e-07 -3.09098596e-07 -2.90783106e-07 -2.45902555e-07
      -2.34223862e-07 -3.00222666e-07 -4.50547191e-07 -5.88522539e-07
      -5.21929962e-07 -2.51464115e-07 -8.99444643e-08 -2.48269885e-07
      -1.49669475e-07 9.22821570e-08 1.58875764e-07 3.60869876e-08
      -3.44675897e-08 -1.12533955e-08 3.55056251e-08 3.08633439e-08
      7.91868473e-08 1.38898875e-08 -1.08518128e-08 4.12965484e-09
      8.39670875e-08 1.13137027e-07 1.65740452e-08 7.31672074e-08
      -5.25242001e-07 -6.90109687e-07 -6.60525757e-07 -6.05963976e-07
      -3.71603477e-07 -6.14212325e-08 1.03296372e-07 -1.73128334e-09
      -9.37083158e-08 -5.84743809e-08 -9.47565155e-08 -3.02116490e-07
      -3.05357190e-07 -7.39559596e-08 7.86339669e-08 -1.90640503e-09
      -3.05357268e-08 -2.71023683e-08 -1.08575890e-07 -9.00750621e-08
      1.49804862e-07 2.56755527e-07 1.52961604e-07 1.14757093e-07
      1.22913079e-07 -4.86995155e-08 -1.71982876e-07 -1.45625364e-07
      -9.29151369e-08 -6.26214529e-08 -2.18217551e-07 -4.98132010e-07
      -6.44243414e-07 -5.68992959e-07 -4.09344153e-07 -3.54798061e-07
      -1.50546072e-07 1.29020307e-07 2.42186786e-07 9.46571106e-08
      2.09986677e-08 4.53520954e-08 1.36829456e-07 1.46600229e-07
      8.51119424e-08 2.59506425e-08 1.15344378e-07 1.26697074e-07
      1.82183712e-07 2.70626145e-07 3.42689901e-07 2.95697959e-07
      -2.02194144e-07 -2.74470466e-07 -3.93530343e-07 -5.63182084e-07
      -5.71625606e-07 -3.51189442e-07 -1.55172202e-07 -1.16508978e-07
      -1.76530065e-07 -6.70593820e-08 -2.98050580e-08 -8.87244767e-08
      -5.56184716e-08 1.23521374e-07 1.91297389e-07 1.72361624e-07
      1.56989856e-07 6.51430057e-08 -7.54338814e-08 -3.26647552e-07
      -2.75998872e-07 1.32432794e-08 -8.82370159e-08 -6.29648582e-08
      1.40947037e-07 2.17766399e-07 8.27730062e-08 9.17793397e-09
      2.75810716e-08 7.89936578e-08 4.91628107e-08 -1.87034203e-07
      -3.91888932e-07 -4.63535372e-07 -6.01146382e-07 -6.41610882e-07
      -3.63741520e-07 7.30030925e-09 2.13099483e-07 2.37088898e-07
      1.50595312e-07 1.73673513e-07 2.39019812e-07 2.84941706e-07
      2.38715927e-07 2.19646225e-07 2.85878656e-07 2.64873904e-07
      1.92623446e-07 3.93649685e-07 6.95455356e-07 7.32366289e-07
      -2.91069028e-07 -2.04715150e-07 -2.73334933e-07 -4.52072783e-07
      -6.08707580e-07 -5.44885722e-07 -4.93830214e-07 -4.17199004e-07
      -2.96615866e-07 -1.65586016e-07 -1.34661619e-07 8.99910049e-08
      3.05190980e-07 2.75442176e-07 2.72573260e-07 2.31494568e-07
      3.23699282e-07 3.74975201e-07 2.83073149e-07 -1.43950942e-07
      -3.98043682e-07 -2.87841004e-07 -3.38020669e-07 -4.49624167e-07
      -1.68906595e-07 1.33943232e-07 1.35094226e-07 3.22138050e-08
      1.04498072e-08 5.73088670e-08 1.34488516e-07 -7.46063300e-09
      -1.13761637e-07 -2.60312532e-07 -5.30299531e-07 -7.59303646e-07
      -6.44709814e-07 -2.72739385e-07 2.42135449e-08 3.41028198e-07
      4.64438727e-07 3.98865808e-07 3.20371441e-07 3.04585569e-07
      3.28254799e-07 4.48307588e-07 5.39232758e-07 5.71197688e-07
      4.66150226e-07 4.94728113e-07 6.98957422e-07 8.76147169e-07
      -2.49652629e-07 -2.51290487e-07 -2.32393319e-07 -3.06757698e-07
      -4.78534218e-07 -6.15892702e-07 -6.85315342e-07 -5.77060405e-07
      -3.73589017e-07 -2.92783284e-07 -2.99800718e-07 -1.18892821e-07
      1.54134582e-07 4.54838514e-08 1.49082240e-07 -9.26282837e-08
      -1.20966845e-07 -1.62531570e-08 1.71480238e-07 1.40163801e-08
      -3.80851446e-07 -3.10667929e-07 -2.64081024e-07 -5.29451597e-07
      -4.15745774e-07 -8.23440232e-08 2.67425140e-08 -6.12171931e-08
      -9.43048519e-08 -4.16938093e-08 8.44796517e-08 1.55370188e-08
      -1.43176663e-07 -2.32030189e-07 -5.23694837e-07 -7.77548905e-07
      -8.70477550e-07 -7.68437019e-07 -4.70055653e-07 1.08160670e-07
      5.94951075e-07 6.38661163e-07 3.43729738e-07 1.99156887e-07
      2.14414598e-07 4.24946506e-07 6.15759063e-07 7.63919218e-07
      6.28818839e-07 6.84912948e-07 7.24271558e-07 7.58487943e-07
      -2.75784458e-07 -2.57287951e-07 -2.13006729e-07 -1.21159147e-07
      -1.32320579e-07 -3.97930989e-07 -7.08906498e-07 -7.62163893e-07
      -6.86253372e-07 -5.63207379e-07 -4.67179945e-07 -3.58348899e-07
      -2.20892744e-07 -3.51479343e-07 -4.06643068e-07 -6.78082586e-07
      -8.61744240e-07 -7.45705847e-07 -4.26419433e-07 -2.49833477e-07
      -4.99028829e-07 -3.85739469e-07 -7.90384789e-08 -3.09731092e-07
      -5.07182904e-07 -2.67718377e-07 -8.88630467e-08 -1.38297068e-07
      -1.41776056e-07 -8.31354257e-08 -6.86882640e-09 3.24535527e-08
      -1.92966525e-07 -2.84315803e-07 -5.69189240e-07 -8.09499227e-07
      -9.72287012e-07 -1.10100552e-06 -1.02248816e-06 -5.60976275e-07
      2.69594040e-07 6.57160911e-07 2.52383501e-07 -5.15311456e-08
      -5.37786136e-08 2.13418872e-07 4.63766071e-07 7.55844383e-07
      9.15638793e-07 7.08598577e-07 7.14050316e-07 7.26809731e-07
      -3.18815978e-07 -3.66966901e-07 -3.60689256e-07 -2.07212025e-07
      1.42613942e-07 2.49654661e-08 -4.95717075e-07 -7.80109019e-07
      -9.36429558e-07 -9.70214273e-07 -8.65035304e-07 -6.07658478e-07
      -3.54909531e-07 -4.25054367e-07 -6.78492199e-07 -1.07804988e-06
      -1.44661522e-06 -1.44155615e-06 -1.17172635e-06 -7.70565009e-07
      -8.17138584e-07 -5.92983270e-07 -3.24699378e-08 -9.47542773e-08
      -4.30261167e-07 -4.65173429e-07 -2.11206725e-07 -1.61785096e-07
      -1.07715294e-07 -3.52573721e-08 -1.22284201e-08 -3.33649517e-08
      -5.21374197e-08 -2.54526384e-07 -5.37015865e-07 -7.58815077e-07
      -9.81044309e-07 -1.25324902e-06 -1.28248769e-06 -1.04632920e-06
      -4.65983959e-07 2.61861771e-07 -1.64315850e-07 -6.27041743e-07
      -6.68428811e-07 -3.47087052e-07 7.43490103e-10 3.80739806e-07
      7.61297940e-07 8.20045841e-07 7.61376953e-07 7.60799992e-07
      -5.10911775e-07 -4.05964812e-07 -3.51752476e-07 -3.14233603e-07
      -8.67110543e-08 1.43950984e-07 -2.85336000e-07 -6.42045677e-07
      -9.38334892e-07 -1.16521619e-06 -1.30324474e-06 -1.02987883e-06
      -4.51967566e-07 -1.38482307e-07 -4.57713838e-07 -9.16827275e-07
      -1.38114308e-06 -1.56016608e-06 -1.48982360e-06 -1.24906808e-06
      -1.08084691e-06 -7.80707865e-07 -6.23540402e-08 -3.06225161e-08
      -3.63869759e-07 -5.74186004e-07 -4.26849255e-07 -1.81195674e-07
      8.46760617e-09 1.17085278e-07 1.52654167e-07 1.51906022e-07
      1.89978977e-07 3.08260724e-08 -2.89449304e-07 -5.49374363e-07
      -8.42751945e-07 -1.12830389e-06 -1.21682422e-06 -1.12584598e-06
      -6.91298965e-07 -1.29752422e-07 -3.14536265e-07 -9.18779961e-07
      -1.22010692e-06 -1.00511249e-06 -5.86783017e-07 -1.29313179e-07
      3.33399470e-07 6.01062879e-07 6.73837292e-07 6.87024738e-07
      -5.27133409e-07 -3.83555857e-07 -2.49698701e-07 -2.95132651e-07
      -1.77115481e-07 -5.19735863e-08 -2.37323007e-07 -5.05600156e-07
      -7.59801537e-07 -9.97049483e-07 -1.23470261e-06 -1.26361635e-06
      -8.43007342e-07 -3.10500639e-08 1.28573419e-07 -3.70952250e-07
      -7.37508344e-07 -1.03070477e-06 -1.16385650e-06 -1.11440329e-06
      -9.36418076e-07 -5.91332991e-07 2.73475163e-08 4.41754224e-08
      -2.53798390e-07 -5.56284760e-07 -5.76920456e-07 -2.90528305e-07
      2.09194342e-10 1.52636602e-07 3.10921649e-07 3.71269607e-07
      2.76051651e-07 3.42753907e-07 2.42852678e-07 -7.28344247e-08
      -4.63800120e-07 -7.82142536e-07 -9.16498493e-07 -9.32708474e-07
      -7.20600099e-07 -1.97161143e-07 -8.82477664e-08 -6.70170493e-07
      -1.19089509e-06 -1.28383056e-06 -9.75943180e-07 -6.22188224e-07
      -1.42286481e-07 2.49626027e-07 4.94355334e-07 4.70919844e-07
      -2.92331720e-07 -2.07763165e-07 -6.52166463e-08 -6.48400587e-08
      -6.56238655e-08 -6.72824996e-08 -3.00010299e-07 -4.89380625e-07
      -6.43055841e-07 -7.95639153e-07 -9.25978441e-07 -9.23726930e-07
      -8.04934018e-07 -3.05163439e-07 1.06686571e-07 4.29919709e-08
      -3.43437307e-07 -5.31063677e-07 -5.75506760e-07 -4.82157873e-07
      -4.07919089e-07 -1.14944640e-07 2.75116236e-07 1.76545896e-07
      -1.05689836e-07 -4.26282384e-07 -5.49496804e-07 -3.42938648e-07
      -3.73741571e-08 1.11130333e-07 3.14052045e-07 4.92594722e-07
      4.43801667e-07 3.38481868e-07 3.33390290e-07 2.01322592e-07
      -7.44901101e-08 -3.38771599e-07 -5.23667893e-07 -5.91339187e-07
      -5.60151477e-07 -2.94648117e-07 1.04674093e-07 -2.56971703e-07
      -7.46003252e-07 -1.00584168e-06 -9.75050284e-07 -9.28013890e-07
      -6.21984384e-07 -6.20581559e-08 3.60283252e-07 4.21085105e-07
      9.42058733e-08 9.03881983e-08 1.28624436e-07 1.61196951e-07
      1.92795994e-07 9.89097089e-08 -2.29103790e-07 -4.56520354e-07
      -5.75132390e-07 -6.36156244e-07 -6.47594618e-07 -5.78051072e-07
      -5.20860283e-07 -2.89944552e-07 -2.57732111e-08 6.55723653e-08
      -1.18906890e-07 -3.26418103e-07 -4.15086816e-07 -2.31456966e-07
      -2.74630771e-08 1.83909975e-07 4.72602011e-07 3.30838219e-07
      5.00469568e-08 -2.60557073e-07 -4.38537683e-07 -3.27590783e-07
      -7.15732824e-08 8.59290807e-08 3.09227374e-07 5.33272726e-07
      5.61782826e-07 4.55687342e-07 3.58313855e-07 2.95149505e-07
      6.43174474e-08 -1.44504796e-07 -1.71102315e-07 -2.39951532e-07
      -2.96118714e-07 -2.53994727e-07 -4.95350037e-08 -1.74785502e-08
      -2.78804862e-07 -5.26022120e-07 -7.50222171e-07 -9.25397785e-07
      -7.14419002e-07 -1.78462599e-07 2.76779730e-07 3.96569817e-07
      4.06314626e-07 3.79230954e-07 3.12410663e-07 2.46324475e-07
      3.17544448e-07 2.02352538e-07 -1.11617737e-07 -3.41995360e-07
      -4.92123604e-07 -5.55032614e-07 -5.03828971e-07 -4.22531286e-07
      -3.73108549e-07 -2.03394563e-07 2.96139255e-08 1.36342663e-07
      8.44416235e-08 -5.58380400e-08 -2.51173873e-07 -2.18709047e-07
      -1.27321627e-07 1.47081948e-07 4.85771693e-07 4.08639636e-07
      1.79924626e-07 -8.65349037e-08 -3.07178368e-07 -3.65800247e-07
      -1.70415362e-07 -1.71111836e-08 2.15914895e-07 4.94277344e-07
      5.70721454e-07 4.96391351e-07 3.91423612e-07 3.64055012e-07
      2.65264646e-07 8.65386696e-08 -2.97048319e-09 -6.96745559e-08
      -1.95949596e-07 -2.79366986e-07 -1.58380757e-07 -1.00434370e-07
      -1.66624545e-07 -3.10269257e-07 -5.52850224e-07 -7.18579031e-07
      -5.63333856e-07 -1.31381128e-07 1.89731793e-07 2.77432974e-07
      1.30631548e-07 1.70753282e-07 2.61576758e-07 2.59158128e-07
      3.07035208e-07 2.50237690e-07 1.01382716e-08 -1.49158538e-07
      -2.67388231e-07 -3.71478535e-07 -4.02028320e-07 -3.96372116e-07
      -3.66299020e-07 -1.66241819e-07 1.25127841e-07 2.40608472e-07
      2.16794092e-07 1.83486179e-07 2.26394263e-08 -2.79786825e-08
      -1.47908450e-08 8.65331486e-08 3.23079689e-07 4.21367531e-07
      2.89343916e-07 7.83184788e-08 -1.70374051e-07 -4.13243754e-07
      -3.50319397e-07 -1.99364237e-07 -3.08632551e-08 2.79941247e-07
      4.45229801e-07 3.80780421e-07 3.04925834e-07 3.05713996e-07
      3.21113674e-07 2.88728359e-07 2.04878816e-07 2.06372039e-08
      -1.63176622e-07 -2.87220558e-07 -2.29733786e-07 -1.72752564e-07
      -1.30737106e-07 -2.12041016e-07 -3.03828671e-07 -4.27464471e-07
      -2.93128807e-07 -1.46462993e-08 1.11504086e-07 1.61015265e-07
      -9.92001645e-08 -7.06729182e-08 1.11606020e-07 1.57647591e-07
      2.16113733e-07 2.45850060e-07 1.01802584e-07 -2.57686601e-08
      -6.40405773e-08 -1.58548062e-07 -2.19749481e-07 -2.70770215e-07
      -2.60725471e-07 -1.72977508e-08 3.02294893e-07 3.72765669e-07
      3.71162514e-07 2.56219181e-07 7.74780347e-08 3.32978729e-08
      2.37401050e-08 1.02967102e-08 2.46875942e-07 3.62561053e-07
      3.03527656e-07 2.09852615e-07 -4.81438889e-08 -3.81685538e-07
      -4.94601579e-07 -4.21785046e-07 -3.01431157e-07 -6.50188241e-08
      1.18307888e-07 2.03601942e-07 1.39111208e-07 1.42967892e-07
      2.41609314e-07 3.12201763e-07 3.17709492e-07 1.16296917e-07
      -1.14197796e-07 -2.81076552e-07 -2.82439743e-07 -2.06194244e-07
      -1.12977609e-07 -1.38440370e-07 -1.64694896e-07 -1.19787600e-07
      -5.73986014e-08 1.68969727e-08 7.23693603e-08 8.40299350e-08
      -4.36799255e-08 -7.30318348e-08 2.01710364e-08 1.12132369e-07
      2.01998233e-07 2.53620641e-07 1.53124915e-07 4.51945930e-08
      6.25622576e-08 -2.36119266e-08 -9.40842213e-08 -1.12213471e-07
      -1.23263433e-07 5.97195751e-08 2.60035080e-07 3.78593512e-07
      4.65641534e-07 3.00656836e-07 1.04480812e-07 -3.78903877e-08
      -1.28176680e-07 -1.79452556e-07 -2.78160197e-08 1.38849586e-07
      1.82446897e-07 2.43181859e-07 6.98974674e-08 -2.66652393e-07
      -5.24774293e-07 -5.68063058e-07 -4.84519148e-07 -3.14835887e-07
      -1.81864777e-07 -2.66963518e-08 7.49932028e-08 8.02946829e-08
      1.41672757e-07 2.05800887e-07 2.26678353e-07 1.49714850e-07
      -5.55875665e-08 -1.95644020e-07 -1.96241643e-07 -1.72126121e-07
      -1.03543975e-07 -1.36652247e-07 -1.41646396e-07 -6.61321593e-08
      -3.08093568e-08 -3.66221862e-08 -3.29934053e-08 -4.26870095e-08
      1.11146250e-07 4.98281842e-08 5.06693638e-08 8.30713134e-08
      1.51322922e-07 2.37383162e-07 2.33656877e-07 1.48126503e-07
      1.32566910e-07 4.26076312e-08 -2.56404515e-08 1.98616608e-08
      -5.35046674e-09 7.68172654e-08 1.80406346e-07 2.01313583e-07
      2.97595221e-07 2.80821212e-07 1.74100236e-07 4.50069457e-08
      -8.57169482e-08 -1.44031446e-07 -6.92641251e-08 1.39127945e-08
      6.61737900e-08 1.80971185e-07 1.70053582e-07 -8.08674869e-08
      -4.32873577e-07 -5.63694641e-07 -5.02474563e-07 -3.92065260e-07
      -2.25902070e-07 -5.01473352e-08 1.04012351e-07 1.18209712e-07
      1.39130080e-07 1.26341646e-07 1.24909818e-07 1.19116926e-07
      8.02906364e-09 -9.17313798e-08 -1.12601526e-07 -9.33163946e-08
      -9.23826420e-08 -1.12571520e-07 -1.18861870e-07 -2.43617855e-08
      -1.71109118e-08 -6.14965998e-08 -8.80813076e-08 -1.09412824e-07
      2.82938458e-07 2.14271594e-07 1.51566425e-07 9.83771784e-08
      1.12467056e-07 1.92174582e-07 2.83596393e-07 2.18838395e-07
      2.24983424e-07 1.08788100e-07 3.27646310e-09 4.79207465e-08
      2.57945807e-08 6.50565255e-08 1.28544457e-07 1.92706196e-07
      2.53139376e-07 2.50669700e-07 2.27957827e-07 1.74010879e-07
      3.93985040e-08 2.80368888e-11 -3.00533571e-08 -1.24146538e-07
      -9.66715348e-08 3.80174399e-08 1.95850944e-07 1.49858536e-07
      -1.83840129e-07 -4.01215885e-07 -3.83192742e-07 -3.06846943e-07
      -1.91342679e-07 4.18315604e-09 1.60434539e-07 1.75337973e-07
      1.93945255e-07 1.94996289e-07 1.25822353e-07 1.60391394e-07
      6.91588227e-08 -2.79052070e-08 -3.69088227e-08 -3.93965678e-08
      -6.24999146e-08 -5.94678511e-08 -4.10808845e-08 5.78232608e-08
      6.52996590e-08 3.08634078e-08 -2.45207268e-08 -2.67574158e-08
      4.00067762e-07 3.30316254e-07 2.32907567e-07 1.41376432e-07
      1.09317554e-07 1.28499821e-07 2.07332562e-07 1.98048340e-07
      2.51563932e-07 1.90903535e-07 4.41403287e-08 9.19850223e-08
      5.86300182e-08 1.11227230e-07 1.00327291e-07 2.33928745e-07
      3.18713262e-07 3.15161117e-07 2.86265816e-07 2.91706414e-07
      1.81022003e-07 1.47214223e-07 2.98400629e-08 -1.58020811e-07
      -2.03481861e-07 -7.44017399e-08 2.92603222e-08 9.72006120e-08
      8.61380656e-09 -9.38128437e-08 -1.20834443e-07 -6.79490668e-08
      -3.93209998e-09 2.50869405e-08 1.04380383e-07 1.56441345e-07
      2.06311611e-07 2.28313652e-07 1.44807956e-07 2.06886398e-07
      1.14873274e-07 -2.72325948e-08 4.66269832e-08 9.22774888e-08
      2.93401570e-08 2.61963748e-08 7.17269870e-08 1.24743082e-07
      1.60788105e-07 1.54270992e-07 1.04965068e-07 9.77363470e-08
      3.49970179e-07 2.96318632e-07 2.30054937e-07 1.58152233e-07
      8.91955310e-08 7.39845731e-08 1.31385434e-07 1.82166417e-07
      2.02925563e-07 1.74984223e-07 1.34218837e-07 1.59341582e-07
      5.89157914e-08 1.09757984e-07 1.61457905e-07 2.73143968e-07
      3.71764997e-07 3.64690152e-07 3.37330789e-07 3.34605403e-07
      3.47776819e-07 3.09606492e-07 1.74117943e-07 1.90171647e-08
      -1.37897104e-07 -1.65604732e-07 -1.12460690e-07 -4.27159392e-08
      -8.93827306e-08 -7.29702023e-08 3.03570569e-09 1.11423191e-07
      7.67487975e-08 2.89946271e-08 1.04439458e-07 1.55116510e-07
      2.52486018e-07 3.00312195e-07 2.57965240e-07 2.60370740e-07
      1.27180826e-07 -5.46025305e-08 4.50436026e-08 1.77425150e-07
      1.22752084e-07 1.40559735e-07 1.41418539e-07 1.57810717e-07
      1.85570599e-07 2.00855581e-07 1.90109205e-07 2.14066347e-07
      2.05081975e-07 1.72182425e-07 1.45094333e-07 1.28250193e-07
      4.68531240e-08 -1.55045381e-08 5.16225924e-08 1.93700743e-07
      1.92727015e-07 1.38977171e-07 1.94017645e-07 1.48322670e-07
      6.29022736e-08 1.42939939e-07 2.88768717e-07 4.17768291e-07
      5.21982770e-07 4.49188491e-07 3.80620151e-07 3.34346112e-07
      3.49756448e-07 4.98141844e-07 4.16972739e-07 2.53610295e-07
      5.85593085e-08 -8.70285461e-08 -7.20289322e-08 -1.61379763e-08
      -1.16943923e-07 -2.00167250e-07 -4.94092234e-08 1.01767561e-07
      1.27392141e-07 1.37089557e-07 2.05256882e-07 3.54083681e-07
      4.60108936e-07 4.85696319e-07 4.55813222e-07 3.35182705e-07
      1.56765765e-07 -4.74124988e-08 -3.60934838e-10 9.22597891e-08
      1.35234387e-07 2.28038573e-07 2.09383956e-07 1.86758726e-07
      1.81714981e-07 1.60694611e-07 1.76745999e-07 2.09998120e-07
      3.81867800e-08 6.39909672e-08 7.04357248e-08 9.92210900e-08
      8.03941660e-08 -1.57658953e-08 -3.77377170e-08 9.16079301e-08
      1.46194608e-07 1.16560557e-07 2.03192926e-07 1.26603510e-07
      7.82663108e-08 1.70105366e-07 3.60315425e-07 5.25818962e-07
      6.03782439e-07 5.40428687e-07 4.66131098e-07 4.07780078e-07
      3.17823378e-07 3.03413543e-07 4.37490769e-07 4.44390935e-07
      2.41459901e-07 -5.77954529e-09 -6.26585077e-08 -7.79160629e-08
      -1.00614734e-07 -1.93756790e-07 -1.19790158e-07 1.26225601e-07
      2.98166015e-07 3.57549681e-07 4.28454882e-07 6.47786067e-07
      8.30405895e-07 7.46860337e-07 5.52771439e-07 3.56209284e-07
      2.17869470e-07 4.07942586e-08 -1.14556729e-08 6.96310494e-08
      1.24289699e-07 1.80075858e-07 1.15029067e-07 9.23599259e-08
      1.04149080e-07 8.84448639e-08 1.23077072e-07 1.59989838e-07
      -1.50614568e-07 -9.11747904e-08 -2.47307206e-08 6.06500521e-08
      8.92638283e-08 -3.36678418e-08 -1.30422123e-07 -4.60100900e-08
      7.87902223e-08 9.96928549e-08 1.83445451e-07 1.35536169e-07
      1.36463925e-07 2.40590282e-07 3.33718759e-07 4.41502209e-07
      5.16310593e-07 4.99091584e-07 5.20520416e-07 3.66436268e-07
      9.64873976e-08 -6.08995947e-08 -3.21911635e-08 1.41416095e-07
      2.74430505e-07 1.42029828e-08 -1.12111529e-07 -2.26479187e-07
      -2.01773688e-07 -2.34701716e-07 -1.98630218e-07 8.19155233e-08
      4.29202146e-07 6.37080632e-07 7.68660129e-07 9.88849138e-07
      1.11888255e-06 1.02586466e-06 7.98878659e-07 5.57009457e-07
      3.61413896e-07 1.51041675e-07 3.38476944e-08 7.29615337e-08
      9.11524367e-08 1.16861059e-07 8.62712852e-08 3.69210333e-08
      5.66691369e-08 4.84606275e-08 1.01892859e-07 1.59399434e-07
      -2.95386826e-07 -2.68707424e-07 -1.86413828e-07 -7.58583880e-08
      -3.42251649e-09 -6.10861264e-08 -1.11765424e-07 -6.54139072e-08
      1.79012982e-08 4.65487489e-08 1.29922739e-07 1.67321787e-07
      1.73525947e-07 2.92315008e-07 3.55881951e-07 2.85184228e-07
      3.24899958e-07 3.24293239e-07 3.26833856e-07 2.12110990e-07
      -3.16031183e-08 -2.71308096e-07 -3.89846974e-07 -3.96249817e-07
      -2.39662199e-07 -1.18573425e-07 -1.67260367e-07 -3.09782280e-07
      -2.26447924e-07 -2.33476754e-07 -1.87409540e-07 3.07555759e-08
      3.95269382e-07 7.35172648e-07 1.00436660e-06 1.23990731e-06
      1.28304305e-06 1.08571135e-06 8.56252996e-07 6.71072314e-07
      4.20743191e-07 2.01114503e-07 1.06179172e-07 9.82730697e-08
      1.03778788e-07 1.22304797e-07 1.09409989e-07 2.26099584e-08
      1.67875260e-08 9.89047066e-08 1.63406497e-07 2.21775437e-07
      -4.05600701e-07 -3.79769915e-07 -3.16118758e-07 -2.01762305e-07
      -1.12127971e-07 -1.20633075e-07 -1.05152985e-07 1.21670194e-08
      3.61560879e-08 5.60387861e-08 9.17477934e-08 1.53372667e-07
      1.19292210e-07 1.29082068e-07 1.82449085e-07 1.71386318e-07
      2.51489666e-07 3.53961752e-07 3.19181851e-07 1.17878450e-07
      -3.12048378e-08 -1.92374458e-07 -2.78125469e-07 -3.34353132e-07
      -3.41355189e-07 -3.06923141e-07 -2.13422680e-07 -2.32262110e-07
      -1.09355000e-07 -1.22922486e-07 -1.02623275e-07 4.34101075e-08
      3.59558527e-07 6.05935213e-07 8.68829034e-07 1.15140165e-06
      1.16041792e-06 9.22636445e-07 6.70066186e-07 5.13553857e-07
      3.19586576e-07 1.46669009e-07 7.29395211e-08 5.89449876e-08
      8.06849201e-08 1.17751874e-07 1.00323589e-07 1.10176055e-08
      -1.18611752e-08 1.26018534e-07 2.45084436e-07 2.94488700e-07
      -4.78541892e-07 -4.29854595e-07 -3.53419949e-07 -2.57736730e-07
      -1.53978760e-07 -1.15364600e-07 -8.99058819e-08 4.82507119e-08
      7.61866019e-08 1.26970420e-07 1.20866872e-07 7.51724727e-08
      -6.05278530e-08 -2.56476000e-07 -3.88604178e-07 -2.25480647e-07
      6.92390358e-08 3.13031677e-07 2.99075026e-07 1.24678053e-07
      1.43561877e-07 6.82169343e-08 -1.00378754e-08 -4.87429048e-08
      -1.24207929e-07 -1.78052659e-07 -1.58097279e-07 -1.79144024e-07
      -8.94179379e-08 -5.68990757e-08 -6.86227466e-08 -8.58140048e-09
      1.00322261e-07 3.01124629e-07 5.12620488e-07 8.61931426e-07
      9.69194843e-07 7.99146449e-07 6.13722023e-07 4.44786309e-07
      3.57301303e-07 1.48220366e-07 3.04834593e-08 3.73348819e-08
      2.62690847e-08 8.34205807e-08 9.68307887e-08 -5.39034462e-09
      -5.84449360e-08 4.89090120e-08 2.55525549e-07 3.46792376e-07
      -4.13723541e-07 -4.09323150e-07 -3.53183168e-07 -2.69245731e-07
      -1.50109329e-07 -7.13061326e-08 -1.96173371e-08 1.11042887e-07
      1.33242281e-07 2.11862144e-07 1.63668176e-07 1.33510740e-08
      -1.84992970e-07 -4.45492049e-07 -6.29866634e-07 -7.42684620e-07
      -6.97334144e-07 -5.25235237e-07 -4.37774275e-07 -3.09441106e-07
      4.00078086e-08 2.65866078e-07 1.78715382e-07 1.31229328e-07
      1.43285575e-07 1.72152550e-08 -5.57144482e-08 -9.11990909e-08
      -8.78954243e-09 -2.28007746e-08 -6.28073451e-08 -1.01982742e-07
      -1.68643027e-07 -1.93513713e-07 -1.12742157e-07 5.67695011e-08
      1.96017396e-07 3.09989190e-07 4.39045493e-07 3.66725544e-07
      2.99657245e-07 2.45336224e-07 9.55899537e-08 6.60724879e-08
      2.48267416e-08 1.75228880e-08 1.22088196e-07 5.85861706e-08
      -4.27959677e-08 1.49271902e-08 1.84333814e-07 2.55391285e-07
      -2.99790116e-07 -3.22795728e-07 -3.26960475e-07 -2.83022729e-07
      -1.86205583e-07 -6.08614243e-08 5.60607099e-08 1.77818933e-07
      2.03250963e-07 1.41536731e-07 9.66951461e-08 6.78229517e-09
      -1.88304170e-07 -4.28025345e-07 -5.95895301e-07 -8.39459460e-07
      -9.77363356e-07 -9.47568481e-07 -9.13551162e-07 -7.93282538e-07
      -4.26486167e-07 -1.43843453e-08 1.22628336e-07 1.83686694e-07
      2.72225350e-07 1.96188324e-07 1.32793417e-07 9.33544584e-08
      1.39988941e-07 1.85722854e-07 -3.10632409e-08 -6.94133462e-08
      -1.86891413e-07 -3.64141926e-07 -4.41408304e-07 -3.52020948e-07
      -2.79122730e-07 -2.00052966e-07 -3.05436529e-08 9.11173004e-08
      1.58540971e-07 2.30367363e-07 2.72897225e-08 2.28114772e-08
      6.07996054e-09 9.50008783e-09 1.08014675e-07 1.19265508e-07
      3.14143236e-08 5.04030844e-08 1.58359313e-07 1.61032190e-07
      -1.66742041e-07 -2.23516054e-07 -2.75461275e-07 -2.55389892e-07
      -2.29943723e-07 -1.37839564e-07 3.14678843e-08 2.36515049e-07
      3.03649813e-07 2.25483063e-07 1.17105174e-07 1.26071498e-09
      -1.33881585e-07 -2.45557317e-07 -3.30714329e-07 -5.20521951e-07
      -7.17196201e-07 -7.66877008e-07 -7.50635081e-07 -6.76064360e-07
      -4.87821353e-07 -2.28386767e-07 -1.09020466e-11 1.06287217e-07
      2.48367172e-07 3.49568808e-07 3.74861088e-07 2.71696905e-07
      1.93745791e-07 1.68574758e-07 6.29074606e-08 4.04226377e-08
      -1.82533064e-08 -2.00394041e-07 -3.66627802e-07 -3.55431126e-07
      -1.69753051e-07 -1.42949403e-07 -1.11890223e-07 -8.74725288e-08
      -6.51410943e-08 4.10362979e-08 1.33397666e-08 -2.67436793e-08
      -2.33987141e-08 3.81193672e-08 9.73546292e-08 1.25898737e-07
      8.25576691e-08 1.07820128e-07 1.10054870e-07 1.11099446e-07
      -5.68974556e-08 -1.41582589e-07 -2.37600901e-07 -2.58745416e-07
      -2.54620943e-07 -2.78590989e-07 -1.77211263e-07 1.14507181e-07
      2.66622578e-07 2.81799316e-07 2.40839370e-07 6.67545237e-08
      -6.45873897e-08 -1.11495012e-07 -8.67690986e-08 -9.62418980e-08
      -1.79576190e-07 -2.64323518e-07 -2.79591944e-07 -3.16713766e-07
      -2.64305527e-07 -4.15626715e-08 1.38154775e-07 2.32524101e-07
      3.12335857e-07 4.22500051e-07 5.38032509e-07 3.83019454e-07
      2.38793803e-07 1.22495621e-07 8.90516176e-08 1.15233725e-07
      2.28693494e-07 1.87005909e-07 9.92042093e-09 -1.06535857e-07
      -2.90092683e-09 1.56094757e-07 1.23489585e-07 1.46013406e-07
      9.91769156e-08 6.10452062e-08 6.07391470e-08 3.56083341e-08
      1.68723737e-08 9.87737110e-08 5.58522295e-08 3.68807278e-08
      7.26617913e-08 1.04714559e-07 5.82486237e-08 7.51349489e-08
      -6.25873176e-09 -1.18244991e-07 -1.95341514e-07 -2.11221973e-07
      -2.19929845e-07 -3.29974995e-07 -3.12004630e-07 -1.17388979e-07
      -2.32491786e-08 3.27470389e-08 1.52948800e-07 2.75308025e-08
      -1.05776955e-07 -1.14430378e-07 -1.79849433e-08 1.34599986e-07
      2.35287615e-07 2.25170140e-07 1.40731174e-07 4.71249084e-09
      -3.66255613e-08 1.15088739e-07 3.43053415e-07 3.78740594e-07
      4.12765644e-07 4.06367946e-07 4.80110032e-07 4.20545518e-07
      2.51688988e-07 1.11402649e-07 1.24418193e-07 1.54134767e-07
      2.68100109e-07 2.73382454e-07 1.96082325e-07 1.69062389e-07
      1.85274416e-07 3.24697652e-07 3.17613711e-07 3.86777941e-07
      4.20949817e-07 3.84474504e-07 3.12529863e-07 1.96670470e-07
      1.39572421e-07 2.23539985e-07 1.54683391e-07 3.47896432e-08
      5.45844010e-08 8.01986957e-08 7.04402936e-08 1.01217083e-07
      -6.18766762e-08 -1.99293467e-07 -2.24067477e-07 -1.65562994e-07
      -1.36286403e-07 -2.60731639e-07 -2.84157551e-07 -1.57317658e-07
      -2.32460138e-07 -3.37719030e-07 -2.71627499e-07 -3.01649720e-07
      -3.53012155e-07 -3.13589538e-07 -1.37725749e-07 1.36672895e-07
      3.73451996e-07 3.83417614e-07 3.57061936e-07 1.67585767e-07
      3.16596633e-08 8.15876149e-08 2.51303419e-07 3.34358930e-07
      3.57022600e-07 3.44058833e-07 4.10047875e-07 4.35014954e-07
      3.03897849e-07 1.68218818e-07 1.42084119e-07 1.56351319e-07
      2.72542280e-07 3.09481607e-07 5.96325833e-08 8.40720560e-08
      2.25261346e-07 2.82492863e-07 3.07443315e-07 3.94484999e-07
      5.25691803e-07 4.88638022e-07 3.73027945e-07 3.24935826e-07
      1.52755575e-07 1.92356396e-07 2.35636719e-07 1.74592799e-07
      1.35491490e-07 2.29763273e-07 2.00108403e-07 2.02855091e-07
      -1.07873909e-07 -2.73859030e-07 -3.57284762e-07 -3.00919169e-07
      -2.23816357e-07 -2.10141593e-07 -1.88485004e-07 -1.56042219e-08
      -1.22370096e-07 -4.37137345e-07 -6.53122299e-07 -7.42910117e-07
      -7.22297955e-07 -6.15597969e-07 -4.25858502e-07 -1.30689628e-07
      9.50209511e-08 2.92725417e-07 3.26036570e-07 1.64878813e-07
      6.12409750e-08 5.21541175e-08 8.40300629e-08 1.27484881e-07
      2.00040120e-07 2.90102605e-07 4.13162013e-07 4.90237539e-07
      4.15682791e-07 3.36270460e-07 2.43845363e-07 2.73783655e-07
      3.25735073e-07 2.57360995e-07 -1.63434404e-08 -5.27805817e-08
      -9.28378530e-09 -2.01500630e-08 -2.86063218e-09 1.02920566e-07
      1.29372921e-07 1.04904018e-07 4.31853913e-08 3.36297177e-08
      -1.14520631e-07 -1.34915382e-07 -3.02619050e-08 1.20798902e-07
      1.89115056e-07 2.80380391e-07 3.35334335e-07 3.53070249e-07
      -1.48246798e-07 -2.85311302e-07 -4.26377625e-07 -4.58439985e-07
      -3.98964460e-07 -3.05471673e-07 -1.22786886e-07 1.46551386e-07
      9.97810830e-08 -1.99533986e-07 -5.92627828e-07 -8.34100547e-07
      -8.46418061e-07 -7.74685532e-07 -6.32985746e-07 -4.07385414e-07
      -1.45163852e-07 3.88200725e-08 1.82379409e-07 1.15524038e-07
      1.15373204e-07 1.14693655e-07 9.05131969e-08 3.26680016e-08
      5.41601928e-08 2.12988965e-07 4.23658321e-07 5.11369421e-07
      4.63670006e-07 4.54297265e-07 4.10416192e-07 3.76062076e-07
      3.54205554e-07 1.63123829e-07 -3.36868915e-08 -9.83608857e-08
      -1.54064807e-07 -2.34595390e-07 -2.31368261e-07 -1.61311235e-07
      -2.15537511e-07 -2.36478712e-07 -1.72885805e-07 -8.64737686e-08
      -1.69130573e-07 -2.78855140e-07 -2.50018758e-07 -1.09972390e-07
      -6.67722144e-09 1.25611749e-07 2.29803845e-07 2.94234013e-07
      -1.25871253e-07 -1.66854321e-07 -3.31687602e-07 -4.59613574e-07
      -4.53500718e-07 -3.59379897e-07 -2.01231032e-07 5.32868718e-08
      2.22025900e-08 -1.02204325e-07 -3.04246953e-07 -4.92882236e-07
      -5.85358237e-07 -6.07225786e-07 -5.08973926e-07 -3.62409310e-07
      -2.65559322e-07 -1.47359188e-07 -1.75992714e-08 3.58620795e-08
      1.58525808e-07 1.48117124e-07 1.63752958e-07 1.69327237e-07
      1.35529973e-07 1.51784121e-07 3.37001381e-07 3.87823434e-07
      3.79906112e-07 5.01780335e-07 5.10806842e-07 3.92951534e-07
      2.38745514e-07 1.03223002e-07 4.67827945e-08 8.53600124e-09
      -7.10613364e-08 -1.42319053e-07 -1.86198776e-07 -1.72670582e-07
      -2.76927381e-07 -3.97512650e-07 -3.95670355e-07 -2.86074766e-07
      -1.77044271e-07 -1.99941141e-07 -2.26918033e-07 -1.42800587e-07
      -1.15498935e-07 -1.19636169e-07 -9.07825068e-08 -5.32829958e-09
      -1.13534774e-07 -7.77923432e-08 -1.66493592e-07 -3.01767074e-07
      -3.42775962e-07 -2.91048110e-07 -2.78294976e-07 -1.81117585e-07
      -2.64902809e-07 -3.15321387e-07 -3.44468845e-07 -2.74225386e-07
      -1.81961184e-07 -1.77337327e-07 -9.73728902e-08 -2.72274150e-08
      -7.04443011e-08 -7.92650638e-08 -7.81284513e-08 3.67239821e-08
      2.12312401e-07 1.46434033e-07 1.70884519e-07 3.48036963e-07
      3.43180233e-07 2.46248732e-07 4.37615654e-07 4.72282380e-07
      2.64507662e-07 3.00455042e-07 5.26880569e-07 4.36716959e-07
      2.03219912e-07 1.57291808e-07 2.02190691e-07 2.25045909e-07
      1.67411088e-07 6.65753177e-08 -3.49483003e-08 -1.25967858e-07
      -2.82307582e-07 -5.00908243e-07 -5.94598589e-07 -5.66738890e-07
      -4.20488959e-07 -2.54077634e-07 -1.51034229e-07 -1.01287768e-07
      -1.00184231e-07 -2.12901256e-07 -4.19668680e-07 -4.07694046e-07
      -1.04639689e-07 -8.64877165e-08 -1.29121659e-07 -2.28216308e-07
      -2.71505058e-07 -2.48132608e-07 -3.67556993e-07 -4.81911741e-07
      -6.54659004e-07 -7.20675189e-07 -6.26886731e-07 -3.00585896e-07
      5.27992476e-08 2.18752234e-07 3.43832937e-07 4.10682986e-07
      3.09109282e-07 1.69857415e-07 8.13906738e-08 1.55173595e-07
      3.34516471e-07 2.29722104e-07 2.61094129e-07 4.86133274e-07
      5.67100699e-07 3.52801948e-07 5.13654982e-07 7.15062981e-07
      3.86130012e-07 1.81633808e-07 3.37939071e-07 4.24449524e-07
      2.19055096e-07 1.99678951e-07 2.94281563e-07 3.99291565e-07
      3.77766668e-07 2.65616706e-07 1.73777849e-07 9.77738956e-09
      -2.97254246e-07 -6.11293103e-07 -7.65718198e-07 -7.65554660e-07
      -6.22612333e-07 -3.99468234e-07 -2.10744403e-07 -6.41678142e-08
      -1.51143169e-08 -1.86523010e-07 -4.91259698e-07 -6.24055303e-07
      -5.07220186e-08 -1.66703714e-07 -2.38253705e-07 -3.03648392e-07
      -3.64158723e-07 -3.14226583e-07 -4.41750075e-07 -6.62980142e-07
      -9.15164435e-07 -1.02317449e-06 -9.18082492e-07 -5.35279469e-07
      -5.22252357e-08 2.22910600e-07 4.52054167e-07 6.39638870e-07
      4.95808706e-07 3.65277060e-07 2.56394173e-07 3.74991600e-07
      5.74470903e-07 4.43924165e-07 4.06953859e-07 5.83801977e-07
      6.25556424e-07 4.75684431e-07 5.47266382e-07 7.22681705e-07
      5.63898141e-07 3.78317537e-07 4.79222706e-07 4.40160051e-07
      1.69506791e-07 1.08029127e-07 2.28589627e-07 3.40102730e-07
      3.72760127e-07 4.13795959e-07 3.73325577e-07 1.94738945e-07
      -2.14492005e-07 -6.99985492e-07 -9.61755973e-07 -9.04624414e-07
      -7.73137856e-07 -5.53823668e-07 -3.65177186e-07 -1.48946356e-07
      -1.80640947e-10 -7.30410932e-08 -3.76741724e-07 -6.48523837e-07
      -1.38514224e-07 -2.83749017e-07 -3.92829918e-07 -4.72605279e-07
      -5.06414096e-07 -4.64042273e-07 -4.80220649e-07 -6.96728250e-07
      -9.33506612e-07 -1.00582781e-06 -9.16732404e-07 -6.56781879e-07
      -2.27626174e-07 -4.53072175e-08 2.12017326e-07 5.41749444e-07
      5.37175993e-07 3.90404892e-07 3.20939961e-07 3.33479477e-07
      5.40039480e-07 5.55631686e-07 5.44556315e-07 7.23681580e-07
      6.85006796e-07 5.19137473e-07 5.44254078e-07 6.24742086e-07
      7.05488617e-07 5.71675514e-07 5.42395810e-07 5.17604406e-07
      1.40097910e-07 -2.42649971e-08 4.68929997e-08 1.32902201e-07
      1.70810580e-07 2.61049308e-07 3.17136596e-07 2.78517973e-07
      -8.67482370e-08 -5.68244104e-07 -8.95969663e-07 -9.68812742e-07
      -8.66385847e-07 -7.40943733e-07 -6.31695627e-07 -4.14016057e-07
      -2.66691956e-07 -1.60884980e-07 -2.57714703e-07 -5.25666280e-07
      -1.52595192e-07 -3.13269226e-07 -4.66824616e-07 -5.85234773e-07
      -6.46727756e-07 -6.27366376e-07 -5.69380745e-07 -5.97562348e-07
      -7.39738709e-07 -7.22389814e-07 -6.41297049e-07 -5.04669515e-07
      -2.73203824e-07 -1.93829592e-07 -8.10677321e-08 1.49102718e-07
      3.89693298e-07 4.54012593e-07 2.50736406e-07 1.49145222e-07
      2.88171691e-07 3.69204685e-07 4.46203870e-07 6.27895645e-07
      6.01839702e-07 4.68427487e-07 4.84856002e-07 5.38121185e-07
      5.73030889e-07 5.38578604e-07 4.51088709e-07 4.29929457e-07
      1.48326762e-07 -2.43448795e-07 -3.17104991e-07 -2.58104620e-07
      -1.85780905e-07 -7.76026994e-08 -5.55590205e-08 -5.20065733e-08
      -9.85072575e-08 -4.03848475e-07 -6.72624878e-07 -8.86787006e-07
      -8.70439123e-07 -8.25536290e-07 -7.68431050e-07 -5.88281807e-07
      -5.35531058e-07 -4.41996519e-07 -3.84812779e-07 -4.54697187e-07
      -2.38451975e-07 -2.64984777e-07 -3.96659004e-07 -5.72756960e-07
      -7.40035659e-07 -7.75596277e-07 -6.80830738e-07 -5.65892435e-07
      -5.26221072e-07 -3.09172975e-07 -9.32628907e-08 -3.98420532e-08
      4.12199235e-08 -5.40577254e-08 -2.02593540e-07 -2.43503706e-07
      -8.31845384e-08 2.30608435e-07 1.38251451e-07 -2.31264128e-08
      -2.58052264e-08 8.86968898e-09 1.17258288e-07 2.48981138e-07
      3.67049466e-07 3.00379128e-07 2.69203269e-07 2.77156317e-07
      3.64060924e-07 3.59426252e-07 2.98369258e-07 2.93957356e-07
      7.19397448e-08 -2.56110923e-07 -5.24821985e-07 -6.27092106e-07
      -5.28404769e-07 -5.02605872e-07 -6.49614549e-07 -6.43612339e-07
      -4.33923105e-07 -2.87179517e-07 -4.03224988e-07 -6.49279741e-07
      -8.15193175e-07 -7.73936677e-07 -6.28949465e-07 -4.90464288e-07
      -5.17424098e-07 -5.56315399e-07 -5.47051684e-07 -5.40944654e-07
      -5.43247097e-07 -4.51457566e-07 -4.50777748e-07 -5.17927390e-07
      -7.49049661e-07 -8.55395342e-07 -7.77470575e-07 -8.04951014e-07
      -7.19114325e-07 -3.41092175e-07 1.66479825e-08 2.32849771e-07
      3.91191577e-07 2.43537528e-07 -2.69183058e-08 -2.07438987e-07
      -3.22652824e-07 -1.00065662e-07 1.05829116e-07 -6.15041245e-08
      -2.45968437e-07 -3.42094467e-07 -2.47898583e-07 -1.55521036e-07
      8.11702421e-08 1.21678340e-07 1.30441435e-08 -3.84786105e-08
      7.04925753e-08 1.60775187e-07 1.72823817e-07 1.80208247e-07
      1.39975413e-07 -1.22155399e-07 -4.43838559e-07 -6.34452135e-07
      -5.68083692e-07 -6.33204934e-07 -1.00049908e-06 -1.00527291e-06
      -6.99928307e-07 -5.00640510e-07 -3.69267582e-07 -5.18179377e-07
      -7.75209514e-07 -6.86255248e-07 -4.57888007e-07 -2.81304921e-07
      -2.24505627e-07 -3.41521798e-07 -4.80846950e-07 -5.59585828e-07
      -8.07115839e-07 -7.08287871e-07 -5.68023268e-07 -5.70327927e-07
      -6.98353517e-07 -8.02043189e-07 -8.36315849e-07 -1.04793526e-06
      -1.09036318e-06 -7.99291229e-07 -4.81805955e-07 -1.42830174e-07
      2.80096231e-07 3.05623871e-07 8.21681851e-08 -5.00893904e-08
      -9.60678790e-08 -9.11623133e-08 1.16463816e-07 6.73180693e-08
      -9.75932437e-08 -3.14840435e-07 -4.07131608e-07 -3.65227663e-07
      -6.11835063e-08 1.58201914e-08 -1.08511486e-07 -2.39174341e-07
      -1.53907635e-07 2.90513946e-09 6.84761972e-08 2.27016841e-07
      3.23308200e-07 1.70386073e-07 -1.66936985e-07 -4.20189878e-07
      -3.28101123e-07 -3.91039777e-07 -8.10042764e-07 -8.64691970e-07
      -7.20537628e-07 -7.31577586e-07 -6.35447748e-07 -5.44838258e-07
      -7.73679858e-07 -7.21847925e-07 -5.71638168e-07 -2.25340415e-07
      7.86505723e-08 6.65667130e-08 -2.24493064e-08 -1.45929761e-07
      -8.40948360e-07 -8.56952511e-07 -7.70721897e-07 -7.52189692e-07
      -8.22154220e-07 -9.07387005e-07 -1.02449530e-06 -1.26470013e-06
      -1.34009235e-06 -1.16030242e-06 -9.16400666e-07 -6.77302125e-07
      -2.05339546e-07 1.93632971e-07 2.03182537e-07 1.20794496e-07
      1.79772570e-07 3.06849614e-07 3.68120823e-07 2.32829436e-07
      3.05102326e-08 -8.02645417e-08 -2.09087418e-07 -2.31312015e-07
      -3.96324822e-08 2.16360228e-08 -9.56219921e-08 -1.78673460e-07
      -1.04932312e-07 5.94880412e-08 1.77120000e-07 4.08307613e-07
      5.32138984e-07 5.08763321e-07 2.13213909e-07 -5.35151905e-08
      -8.45851105e-08 -1.55168081e-07 -3.93833034e-07 -4.12725313e-07
      -3.58479809e-07 -5.38668530e-07 -6.76226705e-07 -6.72224701e-07
      -8.42154407e-07 -8.43392343e-07 -7.22549373e-07 -3.95310934e-07
      9.20607235e-08 3.72866680e-07 5.02420164e-07 5.03659919e-07
      -1.00777959e-06 -1.00656314e-06 -1.00309728e-06 -1.03401533e-06
      -1.05950460e-06 -1.04800904e-06 -1.09720543e-06 -1.30885019e-06
      -1.37479844e-06 -1.20493405e-06 -1.04070784e-06 -9.40210953e-07
      -6.36434265e-07 -1.28444483e-07 2.75567203e-07 3.54634096e-07
      3.96374929e-07 6.24140284e-07 6.96507755e-07 5.06850938e-07
      2.37149578e-07 1.43344991e-07 1.05898920e-07 8.86402063e-08
      1.51221002e-07 1.39647810e-07 3.28143734e-08 -7.04786496e-09
      9.19360374e-08 2.58421949e-07 3.92685052e-07 5.56301586e-07
      6.43496776e-07 6.57424096e-07 4.87597504e-07 2.42363427e-07
      1.99946001e-07 5.30068895e-08 -1.41935146e-07 -4.41394619e-08
      1.79081816e-08 -1.64557477e-07 -4.44484755e-07 -6.99739360e-07
      -9.69406074e-07 -9.97643724e-07 -9.12095516e-07 -5.40650547e-07
      -6.13404012e-08 3.74241040e-07 7.87163572e-07 1.02330978e-06
      -1.09848861e-06 -1.00420664e-06 -1.05952620e-06 -1.19038077e-06
      -1.24016708e-06 -1.18407331e-06 -1.22767256e-06 -1.31014610e-06
      -1.24526912e-06 -9.82700954e-07 -8.89517366e-07 -9.39694530e-07
      -8.22319009e-07 -4.09733616e-07 3.12768975e-08 2.97752734e-07
      4.80115318e-07 6.74246962e-07 7.14016892e-07 6.03384422e-07
      3.85083553e-07 2.58857114e-07 2.81277408e-07 2.88692036e-07
      3.17847594e-07 2.50837388e-07 9.80452128e-08 2.53612580e-08
      1.64403303e-07 3.52603564e-07 5.06600657e-07 5.69831002e-07
      5.68320843e-07 5.50421589e-07 5.65090204e-07 3.21984999e-07
      1.93298106e-07 1.80707488e-07 9.36215727e-08 1.79762523e-07
      2.12406647e-07 -2.60778865e-08 -3.60449718e-07 -6.83668361e-07
      -1.00252214e-06 -1.11652787e-06 -1.10606516e-06 -7.61976366e-07
      -2.61936322e-07 2.50810274e-07 7.74704176e-07 1.25630493e-06
      1.99263326e-07 1.54972113e-07 2.52098260e-07 3.23818369e-07
      2.89057368e-07 1.99344001e-07 1.41077209e-07 1.21200628e-07
      9.93557236e-08 1.30429228e-07 9.25481416e-08 7.00429368e-08
      4.91585013e-08 2.02642561e-08 2.71369949e-09 -5.15263139e-08
      -1.50779385e-07 -1.64292075e-07 -1.41814269e-07 -1.76024727e-07
      -1.70106105e-07 -4.00657356e-08 1.15510396e-07 6.68790960e-08
      2.29610801e-08 1.05599325e-08 3.35140555e-08 5.08054221e-08
      9.57553237e-09 -9.11326268e-08 -1.61209513e-07 -1.77297565e-07
      -1.86918157e-07 -1.74621164e-07 -9.51213153e-08 -1.24244593e-07
      -2.30848158e-07 -9.24705574e-08 9.38386648e-08 1.44460998e-07
      1.39465840e-07 2.81090173e-08 3.76015485e-09 3.37573915e-08
      3.86426251e-08 1.04343245e-08 5.50706467e-08 1.26562782e-07
      2.43505980e-07 3.53505783e-07 3.73544708e-07 4.02873070e-07
      1.59743578e-07 1.19607648e-07 1.05062924e-07 1.70420918e-07
      2.29145883e-07 2.15444700e-07 1.53119544e-07 1.37068852e-07
      9.23836296e-08 5.74741108e-08 9.79303820e-08 1.11790818e-07
      1.15757722e-07 1.04301762e-07 5.44070886e-08 5.45306156e-09
      -5.20959702e-08 -1.12493247e-07 -1.40613892e-07 -1.16266555e-07
      -1.56441615e-07 -1.74851124e-07 -1.11343766e-07 1.10212275e-08
      1.47221497e-08 -1.58951092e-08 -3.93136652e-08 -1.30969307e-08
      -7.11333970e-09 -5.28225037e-08 -1.49225897e-07 -2.18369578e-07
      -2.04294238e-07 -1.83742316e-07 -1.41765710e-07 -9.61781907e-08
      -1.95362119e-07 -2.50444913e-07 -1.01556331e-07 1.22005872e-08
      4.95382153e-08 2.80783592e-08 -1.16178278e-09 4.41440697e-08
      9.69265841e-08 1.24151057e-07 1.33791659e-07 1.23825885e-07
      1.60441743e-07 2.79141148e-07 3.63783528e-07 3.81144446e-07
      1.52629909e-07 9.85332065e-08 7.52769012e-08 5.53828876e-08
      1.00561714e-07 1.62032748e-07 1.92065542e-07 1.41449476e-07
      4.97266619e-08 -1.10883596e-08 1.78737347e-09 4.58689868e-08
      1.10252707e-07 1.71086967e-07 1.17942498e-07 3.88773245e-08
      -1.74037507e-09 -2.35940707e-08 -5.64200064e-08 -9.83542989e-08
      -1.14065990e-07 -1.60233725e-07 -1.97430779e-07 -1.47704000e-07
      -8.77745787e-09 1.61855276e-08 -4.28596962e-08 -7.91560737e-08
      -8.08516418e-08 -9.44453049e-08 -1.41126563e-07 -2.39146885e-07
      -2.53584943e-07 -1.98551362e-07 -1.76570083e-07 -1.56002102e-07
      -1.17700772e-07 -1.91631301e-07 -2.05985174e-07 -1.08064178e-07
      -3.33059837e-08 -5.02969577e-08 -1.03067608e-08 8.52956195e-09
      6.62443895e-08 1.51053428e-07 2.16292150e-07 1.90254340e-07
      1.23070393e-07 1.40012219e-07 2.46704417e-07 3.15290521e-07
      2.28269315e-07 1.33688772e-07 1.06773676e-07 7.74797542e-08
      4.41774652e-08 6.55558026e-08 1.28308983e-07 1.66421614e-07
      8.03655311e-08 -8.80106938e-08 -1.06663371e-07 -3.65890642e-08
      5.89170979e-09 9.61451789e-08 1.62531421e-07 8.32763334e-08
      2.51749341e-08 1.31027260e-08 4.61045246e-09 -3.99423321e-08
      -1.20092821e-07 -1.41008755e-07 -2.06053670e-07 -2.07705298e-07
      -9.41509697e-08 2.76667400e-08 1.66455667e-08 -7.91473624e-08
      -1.44379271e-07 -1.87484360e-07 -1.96664701e-07 -2.28705986e-07
      -2.58204977e-07 -2.34278815e-07 -1.63974761e-07 -1.85525678e-07
      -1.53846216e-07 -9.58884172e-08 -1.44761358e-07 -1.30849386e-07
      -7.30774090e-08 -7.18120603e-08 -1.02428700e-07 -4.03272225e-08
      -2.10163691e-08 7.37563042e-08 1.39304518e-07 2.01682468e-07
      1.46976006e-07 7.70724853e-08 7.21560909e-08 1.63841548e-07
      2.87157860e-07 1.99482102e-07 1.19286597e-07 1.35377036e-07
      9.53551904e-08 6.82580605e-08 7.11184356e-08 1.06781854e-07
      9.31205761e-08 -6.49020890e-08 -1.84609291e-07 -1.43858571e-07
      -7.88164414e-08 -2.05466701e-08 9.56900763e-08 9.96688598e-08
      7.18251343e-08 4.00231350e-08 4.82075286e-08 3.45728921e-08
      -4.67753338e-08 -1.09991070e-07 -1.61378068e-07 -2.06746677e-07
      -1.61203658e-07 -3.95133775e-08 1.60461493e-08 -3.48954323e-08
      -1.36818656e-07 -2.31686229e-07 -2.77941126e-07 -2.79354481e-07
      -2.60528822e-07 -2.29440687e-07 -1.81980596e-07 -1.53032261e-07
      -1.81033727e-07 -1.52250422e-07 -1.26099224e-07 -1.72537952e-07
      -1.11624118e-07 -6.90503228e-08 -1.04279060e-07 -1.40822522e-07
      -1.15664157e-07 -6.31282404e-08 1.18025190e-09 1.22416424e-07
      1.48705695e-07 1.04916481e-07 1.94545713e-08 1.86199778e-09
      1.84559866e-07 2.49690686e-07 1.64209425e-07 1.02583130e-07
      8.09148162e-08 4.68250150e-08 6.16902938e-08 7.41670476e-08
      6.81558632e-08 -1.72322512e-08 -1.44640410e-07 -2.01956965e-07
      -1.65846970e-07 -8.79307578e-08 5.02526243e-09 8.48271924e-08
      8.71475976e-08 1.03521501e-07 1.02098134e-07 1.29818076e-07
      9.44795246e-08 -6.75740353e-10 -5.22615906e-08 -1.25598149e-07
      -1.06417993e-07 -4.93254646e-08 -2.08330349e-08 -4.95811321e-08
      -8.09473519e-08 -1.97412831e-07 -3.13835528e-07 -3.47354728e-07
      -3.05978062e-07 -2.28344717e-07 -1.97991838e-07 -1.18999139e-07
      -9.59432356e-08 -1.48733463e-07 -1.72548269e-07 -1.99383877e-07
      -2.16550944e-07 -1.42192633e-07 -9.21270953e-08 -1.42979047e-07
      -1.98457798e-07 -1.73440839e-07 -9.09558224e-08 -5.94196070e-09
      8.43489190e-08 9.72474368e-08 5.44253069e-08 -3.93216659e-08
      -2.88202724e-08 1.20964387e-07 2.00354293e-07 9.05882516e-08
      4.42722197e-08 -2.09575219e-08 -4.80433222e-08 2.69019989e-08
      8.59888516e-08 3.78942779e-08 -4.78653135e-08 -8.06857159e-08
      -1.08275231e-07 -9.73372565e-08 -3.11077386e-08 4.94029848e-08
      7.11960055e-08 8.08205769e-08 1.12218807e-07 1.65296754e-07
      2.16329141e-07 1.57690593e-07 6.44528910e-08 -7.43030348e-09
      -1.43042982e-08 3.85466663e-08 1.50599337e-08 -4.29745484e-08
      -8.06173972e-08 -1.33908415e-07 -2.63022628e-07 -3.57742806e-07
      -3.60734020e-07 -2.87581287e-07 -2.29515692e-07 -1.60094160e-07
      -7.65694850e-08 -6.26392875e-08 -1.32254570e-07 -1.95118389e-07
      -2.35759472e-07 -2.25342035e-07 -1.54704722e-07 -1.23107057e-07
      -1.80847451e-07 -2.44997238e-07 -1.88300589e-07 -6.18270164e-08
      3.79103966e-08 7.72451259e-08 6.40548876e-08 2.96639442e-08
      -1.03750708e-07 -7.85020688e-08 1.82144824e-08 7.46436370e-08
      -2.54759680e-08 -6.50188028e-08 -1.03710107e-07 -1.17752741e-07
      -2.54173056e-08 4.66051198e-08 9.46801926e-09 -7.61455698e-09
      5.63745708e-08 3.76223745e-08 -3.62307184e-10 2.51015368e-08
      4.56378579e-08 -7.22129823e-09 -2.43856579e-09 4.37138610e-08
      9.96135441e-08 1.32169291e-07 1.34539903e-07 8.17884072e-08
      2.22918608e-08 4.67610199e-08 8.28301054e-08 2.30659243e-08
      -7.58491936e-08 -1.06013545e-07 -1.69606636e-07 -2.93504513e-07
      -3.44352230e-07 -3.20452500e-07 -2.60959865e-07 -1.78400214e-07
      -1.18641850e-07 -8.98642085e-08 -6.84084824e-08 -1.43048453e-07
      -1.96192957e-07 -2.27741211e-07 -1.76147097e-07 -1.47168308e-07
      -1.46307585e-07 -2.28456244e-07 -2.37860377e-07 -1.42782085e-07
      1.66928231e-08 8.97689674e-08 9.94400011e-08 9.82387292e-08
      -3.94088246e-08 -9.61998836e-08 -1.51609612e-07 -8.49520632e-08
      -7.68105721e-08 -1.15269252e-07 -1.37109353e-07 -2.31178532e-07
      -2.48880582e-07 -1.43911151e-07 -6.61499584e-08 -8.09675740e-08
      9.60374269e-09 1.07631536e-07 1.50293658e-07 1.16308257e-07
