<?xml version="1.0"?>
<opencv_storage>
<my_svm type_id="opencv-ml-svm">
  <svm_type>C_SVC</svm_type>
  <kernel><type>LINEAR</type></kernel>
  <C>1.</C>
  <term_criteria><epsilon>2.2204460492503131e-16</epsilon>
    <iterations>1000000</iterations></term_criteria>
  <var_all>108160</var_all>
  <var_count>108160</var_count>
  <class_count>2</class_count>
  <class_labels type_id="opencv-matrix">
    <rows>1</rows>
    <cols>2</cols>
    <dt>i</dt>
    <data>
      0 1</data></class_labels>
  <sv_total>1</sv_total>
  <support_vectors>
    <_>
      1.09040866e-06 1.15476064e-06 1.33812080e-06 1.52232303e-06
      1.62662320e-06 1.63309471e-06 1.49962500e-06 1.36431606e-06
      1.09485620e-06 8.06711853e-07 5.24009749e-07 2.64302798e-07
      9.74570042e-08 6.17542781e-08 -2.21898429e-08 -1.83573178e-07
      -3.65422579e-07 -4.77355456e-07 -4.90679838e-07 -3.89558153e-07
      -2.31873955e-07 -7.14586292e-08 5.23896659e-08 1.27123172e-07
      1.42704621e-07 1.32840938e-07 1.11054369e-07 7.49342561e-08
      3.99101765e-08 3.48440850e-08 5.74940735e-08 1.67703917e-07
      3.03900350e-07 3.86374495e-07 4.28133518e-07 4.68241780e-07
      4.11168060e-07 2.72016592e-07 1.11605559e-07 -6.55968613e-09
      -8.87048586e-08 8.84512374e-09 1.71701629e-07 4.78315314e-07
      7.70586894e-07 9.44319709e-07 1.08355835e-06 1.25940062e-06
      1.50730114e-06 1.68333531e-06 1.73895091e-06 1.74468687e-06
      7.70482757e-07 7.68576115e-07 7.59492082e-07 7.46683156e-07
      7.18701926e-07 6.62093157e-07 5.77383219e-07 4.80396068e-07
      4.03954971e-07 3.87247127e-07 3.99575214e-07 4.26396753e-07
      4.87743705e-07 5.87256181e-07 6.99204008e-07 6.30692000e-07
      4.33790234e-07 2.65756881e-07 1.36108142e-07 4.71984762e-08
      -7.19538873e-09 -4.50255442e-08 -8.80858053e-08 -1.35840850e-07
      -1.94023599e-07 -2.63503523e-07 -3.34128288e-07 -3.87667342e-07
      -4.12690866e-07 -3.97855416e-07 -3.44161379e-07 -2.50648043e-07
      -1.50426345e-07 -8.09656697e-08 -5.86175588e-08 -8.03553775e-08
      -1.13712332e-07 -1.30358245e-07 -5.96793228e-08 9.94402498e-08
      3.37848263e-07 5.91118010e-07 8.12041606e-07 9.64108153e-07
      1.00549846e-06 9.78438834e-07 9.15760268e-07 8.97340954e-07
      8.58069598e-07 8.17775799e-07 7.94131836e-07 7.83054816e-07
      6.20153813e-08 3.17917923e-08 -4.65760053e-08 -1.58002535e-07
      -2.57850189e-07 -3.22156097e-07 -3.51299320e-07 -3.36822524e-07
      -3.00837172e-07 -2.51019458e-07 -1.75251529e-07 -5.58251010e-08
      1.52349116e-07 4.07699645e-07 6.48422258e-07 8.31005082e-07
      9.25584345e-07 8.51206096e-07 6.29339524e-07 4.06858732e-07
      2.17133191e-07 8.53383284e-08 -4.69369610e-09 -5.63061526e-08
      -8.15295138e-08 -1.13588513e-07 -1.50268320e-07 -1.93179147e-07
      -2.58572612e-07 -3.39279950e-07 -3.80406391e-07 -3.88437741e-07
      -3.48872305e-07 -2.38028647e-07 -1.42164666e-07 -6.49619238e-08
      2.73925735e-08 1.62010252e-07 3.46350873e-07 5.15446288e-07
      6.60119383e-07 7.70215706e-07 7.91240211e-07 7.20277797e-07
      6.13740042e-07 4.30973017e-07 1.97461247e-07 -5.04046511e-08
      -2.35820551e-07 -3.26455194e-07 -3.48372168e-07 -3.58676090e-07
      -5.97421632e-08 -9.17611160e-08 -1.89653605e-07 -3.30341408e-07
      -4.93212667e-07 -6.36987522e-07 -7.02915372e-07 -6.36611219e-07
      -5.45376281e-07 -4.71429530e-07 -4.00734933e-07 -3.09785008e-07
      -2.02806604e-07 -5.14036920e-08 1.62105707e-07 4.07126777e-07
      6.36213088e-07 8.01096348e-07 9.04678245e-07 9.74215027e-07
      7.84941903e-07 5.67984159e-07 4.32795417e-07 4.15574192e-07
      4.92916115e-07 6.15817214e-07 7.18417596e-07 7.82172151e-07
      8.08795335e-07 7.90700369e-07 7.58578949e-07 7.24849031e-07
      7.14849932e-07 7.57594989e-07 8.41634858e-07 9.14339694e-07
      9.67033998e-07 9.82446409e-07 9.79014317e-07 9.55850510e-07
      8.80050948e-07 7.77049138e-07 6.56577981e-07 4.91490312e-07
      2.95391260e-07 1.10366301e-07 -8.19890005e-08 -2.10897042e-07
      -2.32043007e-07 -2.14805340e-07 -1.93650706e-07 -1.88017665e-07
      2.27222230e-07 2.08564146e-07 1.41296496e-07 3.73020796e-08
      -1.32669285e-07 -3.19876136e-07 -4.66242369e-07 -5.34115884e-07
      -5.72035901e-07 -5.90400305e-07 -5.75319575e-07 -5.14012584e-07
      -4.46442641e-07 -3.53916960e-07 -2.41261347e-07 -1.33018048e-07
      -4.60750549e-08 3.38308830e-08 7.54846212e-08 4.21381756e-08
      -1.03999142e-07 -2.98392081e-07 -4.93743983e-07 -5.23795165e-07
      -4.61086870e-07 -3.27612895e-07 -1.70657103e-07 -2.80018835e-08
      7.85003849e-08 1.44202403e-07 1.81279944e-07 2.39213790e-07
      3.22317248e-07 4.60929499e-07 6.08458208e-07 6.52944891e-07
      6.23163032e-07 5.32923366e-07 4.05206606e-07 3.03040451e-07
      2.00819144e-07 1.43905794e-07 1.37041752e-07 1.50928003e-07
      1.92455843e-07 3.06750479e-07 4.47522041e-07 6.08889934e-07
      8.42184647e-07 1.04161347e-06 1.17260765e-06 1.22319011e-06
      9.58760467e-08 5.98840302e-08 -5.46243051e-08 -2.53147164e-07
      -5.44694217e-07 -8.42363022e-07 -1.09002087e-06 -1.23463360e-06
      -1.28665147e-06 -1.20533741e-06 -1.04535673e-06 -8.57710916e-07
      -6.90575234e-07 -5.29660383e-07 -3.76035700e-07 -2.47434429e-07
      -1.61321850e-07 -1.20737525e-07 -1.68611592e-07 -2.45133720e-07
      -3.38547608e-07 -3.96402953e-07 -3.91926449e-07 -3.26488959e-07
      -2.31401373e-07 -1.59688042e-07 -1.10933200e-07 -1.02050812e-07
      -1.82290961e-07 -3.19227524e-07 -4.53346672e-07 -4.55309106e-07
      -3.82273385e-07 -2.39363345e-07 -9.86664759e-08 -2.78229475e-08
      -2.14904183e-08 -7.94791291e-08 -1.90406098e-07 -2.85857169e-07
      -3.54481188e-07 -3.55082335e-07 -2.70324705e-07 -8.64628404e-08
      1.60645214e-07 4.68687801e-07 8.16075499e-07 1.14324405e-06
      1.39080078e-06 1.56245471e-06 1.64838127e-06 1.67238329e-06
      -1.29151530e-07 -1.68825622e-07 -2.96036774e-07 -4.79337530e-07
      -5.97330882e-07 -7.32879698e-07 -9.51982145e-07 -1.16837884e-06
      -1.36075482e-06 -1.49488767e-06 -1.53285737e-06 -1.44002263e-06
      -1.24897917e-06 -9.60373313e-07 -6.34704577e-07 -3.31132043e-07
      -6.46124008e-08 1.77467484e-07 3.92134012e-07 5.35997685e-07
      5.14628368e-07 3.85239929e-07 2.34713426e-07 1.96792755e-07
      2.30874932e-07 2.76265865e-07 2.87008561e-07 2.26680669e-07
      7.86543737e-08 -1.16424168e-07 -2.83029067e-07 -3.71086855e-07
      -3.12410606e-07 -1.34748262e-07 9.56597148e-08 1.31278000e-07
      4.41140315e-08 -1.63308584e-07 -4.11959007e-07 -5.98043357e-07
      -7.15309454e-07 -7.71580972e-07 -7.80325706e-07 -7.16539319e-07
      -5.39840869e-07 -3.39646220e-07 -9.52081720e-08 3.18859065e-07
      8.14001908e-07 1.25904376e-06 1.53725773e-06 1.63054074e-06
      1.67992951e-07 1.80216276e-07 2.24634832e-07 2.96982194e-07
      3.29423358e-07 2.29941307e-07 -3.28188179e-08 -3.94176936e-07
      -7.57019791e-07 -1.03578543e-06 -1.15893113e-06 -1.15017463e-06
      -1.05615572e-06 -9.05870536e-07 -7.04078218e-07 -4.09561864e-07
      -5.69418717e-08 2.64080938e-07 4.88301225e-07 6.13007387e-07
      5.87024203e-07 4.41594182e-07 3.22856067e-07 2.37431166e-07
      1.89115312e-07 1.45890056e-07 1.16319676e-07 8.37328642e-08
      3.38973294e-08 -2.54866190e-08 -3.99654390e-08 5.46634134e-08
      3.51135213e-07 6.56198665e-07 7.91210937e-07 8.38452195e-07
      7.17997239e-07 3.79362348e-07 -6.96510654e-08 -5.08254629e-07
      -8.46222974e-07 -1.09613939e-06 -1.28885313e-06 -1.42952013e-06
      -1.48104868e-06 -1.41654198e-06 -1.22536005e-06 -9.15112878e-07
      -4.74176431e-07 -3.48032025e-09 3.57321341e-07 4.91163405e-07
      4.28469455e-08 6.15765714e-08 1.22908318e-07 2.22224571e-07
      2.80406539e-07 1.25901366e-07 -1.51471454e-07 -3.84885283e-07
      -5.38337986e-07 -6.30492536e-07 -7.28756788e-07 -8.65459697e-07
      -9.93261324e-07 -1.08648135e-06 -1.10282110e-06 -1.03014838e-06
      -8.83032442e-07 -6.44962199e-07 -3.66563086e-07 -1.12331563e-07
      1.57713487e-07 1.79944692e-07 1.45563178e-07 9.08126907e-08
      4.70486121e-08 4.95795369e-08 1.75506273e-07 3.10687312e-07
      3.88949474e-07 3.97628327e-07 3.47180247e-07 3.10410257e-07
      3.06683404e-07 2.76650013e-07 2.34868338e-07 1.67710368e-07
      -1.74205343e-08 -3.65061226e-07 -7.28708414e-07 -1.12157682e-06
      -1.36040831e-06 -1.46795446e-06 -1.50073629e-06 -1.40675286e-06
      -1.24399810e-06 -1.03068385e-06 -7.51250013e-07 -3.90556266e-07
      5.83501638e-08 5.10519556e-07 8.39042343e-07 9.52457185e-07
      -5.22638288e-07 -4.43473340e-07 -2.20498166e-07 8.02701763e-08
      3.50822205e-07 4.66014654e-07 3.51747673e-07 4.10104910e-08
      -3.32539969e-07 -7.28658790e-07 -1.09444522e-06 -1.40019631e-06
      -1.64588539e-06 -1.80181098e-06 -1.83447173e-06 -1.76008871e-06
      -1.66183622e-06 -1.52366351e-06 -1.32471428e-06 -1.01128251e-06
      -6.53848645e-07 -4.17384143e-07 -2.25056198e-07 -2.24252066e-08
      1.93405072e-07 4.23365947e-07 6.33802529e-07 7.78651327e-07
      8.38789731e-07 8.10959989e-07 6.55894382e-07 4.08645292e-07
      1.28313204e-07 -1.54764237e-07 -4.29724366e-07 -6.80039818e-07
      -8.91123875e-07 -1.12292582e-06 -1.38368796e-06 -1.54518193e-06
      -1.59426372e-06 -1.54773113e-06 -1.46621733e-06 -1.33911590e-06
      -1.15555576e-06 -9.05895888e-07 -5.68331700e-07 -1.61391526e-07
      2.89788403e-07 7.49227866e-07 1.10288386e-06 1.22727704e-06
      -1.46912583e-07 -9.44800860e-08 4.52116211e-08 2.15188351e-07
      3.30153995e-07 2.97064872e-07 6.65887399e-08 -2.20383612e-07
      -5.91686160e-07 -1.01497847e-06 -1.41430041e-06 -1.73510671e-06
      -1.95646271e-06 -2.06713594e-06 -2.07527296e-06 -1.99654073e-06
      -1.86956311e-06 -1.74523552e-06 -1.57856323e-06 -1.26400494e-06
      -9.50129277e-07 -6.90025331e-07 -4.48609228e-07 -1.51870665e-07
      1.59048994e-07 4.63954763e-07 6.95569838e-07 8.35290450e-07
      8.52557832e-07 7.62729314e-07 5.62926573e-07 2.68484484e-07
      -1.01157667e-07 -4.61302506e-07 -7.71822499e-07 -1.00523550e-06
      -1.19372089e-06 -1.38768223e-06 -1.55542227e-06 -1.68899874e-06
      -1.79703568e-06 -1.85783415e-06 -1.85902434e-06 -1.83237034e-06
      -1.81335724e-06 -1.76081517e-06 -1.62266349e-06 -1.38689802e-06
      -1.04314813e-06 -6.86153612e-07 -4.26289404e-07 -3.40767599e-07
      -2.91421372e-07 -3.01584038e-07 -3.64664032e-07 -4.89243405e-07
      -6.27765075e-07 -6.73499926e-07 -6.86378371e-07 -8.40903397e-07
      -1.15866669e-06 -1.46202012e-06 -1.70986823e-06 -1.87105718e-06
      -1.92894890e-06 -1.88369143e-06 -1.75585956e-06 -1.58898672e-06
      -1.47174160e-06 -1.36175299e-06 -1.20003017e-06 -9.69008738e-07
      -7.56688848e-07 -6.06117624e-07 -4.47033017e-07 -3.15216596e-07
      -1.92304242e-07 -4.64409844e-08 8.88365008e-08 1.94629564e-07
      2.28992988e-07 1.70854022e-07 5.77538799e-08 -1.28223760e-07
      -3.75841580e-07 -5.81571783e-07 -7.63804906e-07 -9.28271049e-07
      -9.86896794e-07 -9.77380637e-07 -8.41845520e-07 -6.18370109e-07
      -4.05367558e-07 -2.18714874e-07 -4.24335838e-08 1.49915422e-07
      3.23890333e-07 4.07479405e-07 3.06925415e-07 1.77337341e-07
      4.82679781e-08 -6.28521946e-08 -5.35969562e-08 -5.02529218e-08
      3.72068996e-07 3.73362866e-07 3.18786363e-07 1.79214481e-07
      2.14519247e-08 -6.19035276e-08 -8.06022005e-09 4.48481892e-08
      1.28195296e-07 6.52148273e-08 -1.88247540e-07 -4.17376384e-07
      -5.77665617e-07 -6.60204535e-07 -6.63927153e-07 -6.70342274e-07
      -7.27934037e-07 -7.66603364e-07 -7.15532224e-07 -6.29873284e-07
      -5.35677884e-07 -3.42506723e-07 -1.34692584e-07 -1.43904888e-08
      8.12394063e-08 9.94246392e-08 9.26419546e-08 5.27886321e-08
      2.47626075e-09 -4.01165359e-08 -6.22241600e-08 -9.22747105e-08
      -1.17900797e-07 -2.16340183e-07 -3.06344901e-07 -3.41015777e-07
      -2.99525965e-07 -1.10235824e-07 1.77287589e-07 5.09260417e-07
      7.58240105e-07 8.79601771e-07 9.23092216e-07 9.01348642e-07
      8.89369232e-07 1.11477652e-06 1.29692990e-06 1.21760581e-06
      8.33882552e-07 4.31679211e-07 1.69689073e-07 8.40463628e-08
      -1.55656608e-07 -1.02111152e-07 9.29164727e-08 3.30348030e-07
      5.04619152e-07 5.10227835e-07 7.71994621e-07 1.29380817e-06
      1.62278002e-06 1.48910181e-06 1.20070320e-06 9.17555440e-07
      6.47173124e-07 3.85782101e-07 2.22915887e-07 1.13585926e-07
      -1.44890791e-07 -2.12106329e-07 2.93506908e-08 3.21316321e-07
      6.45023306e-07 9.91985644e-07 1.11189149e-06 1.19527454e-06
      1.17961758e-06 1.03880654e-06 9.08504546e-07 8.14954660e-07
      7.79594473e-07 8.21821345e-07 9.07008257e-07 1.02060562e-06
      1.17691502e-06 1.26918394e-06 1.07986943e-06 7.79308891e-07
      5.02031298e-07 3.29024687e-07 2.27029034e-07 1.74363549e-07
      6.99102145e-08 -7.45228306e-08 -2.66530748e-07 -5.17284036e-07
      -5.78165100e-07 -3.97863232e-07 -1.42853267e-07 -8.00297713e-08
      -1.53789017e-07 -3.57206943e-07 -5.38094753e-07 -5.85951057e-07
      -7.14720272e-07 -6.63953131e-07 -5.11512610e-07 -2.39694685e-07
      2.34136920e-07 6.90794707e-07 1.17053867e-06 1.61446997e-06
      1.86538125e-06 1.88701256e-06 1.71335932e-06 1.27527915e-06
      8.10236713e-07 5.32750676e-07 3.98255708e-07 3.27955831e-07
      2.73000751e-07 3.77906673e-07 4.62680930e-07 4.63589060e-07
      6.41536758e-07 9.43686189e-07 1.20960112e-06 1.29473369e-06
      1.28916406e-06 1.23631207e-06 1.12344344e-06 1.05428160e-06
      1.04579613e-06 1.08428299e-06 1.17317484e-06 1.31717559e-06
      1.38825078e-06 1.26704333e-06 1.00780085e-06 6.95929771e-07
      3.80595196e-07 2.13248157e-08 -2.47566049e-07 -4.25907928e-07
      -6.58876729e-07 -8.75510352e-07 -1.03806633e-06 -1.09296604e-06
      -8.99303643e-07 -6.48856087e-07 -4.01192978e-07 -3.12052435e-07
      -4.09838577e-07 -6.62554783e-07 -9.07752110e-07 -1.01079104e-06
      -3.92794931e-07 -3.88858467e-07 -4.20537248e-07 -4.15225429e-07
      -7.69659323e-08 3.34392212e-07 6.87506997e-07 9.33442209e-07
      9.81428002e-07 9.48901629e-07 8.65733455e-07 7.60531407e-07
      6.65315099e-07 5.33893228e-07 4.10505976e-07 3.06732829e-07
      3.03900777e-07 3.04819622e-07 2.76362073e-07 2.61175131e-07
      2.88192808e-07 3.29157501e-07 4.49736319e-07 5.98634983e-07
      7.08848575e-07 7.87122929e-07 8.28471514e-07 8.94327286e-07
      9.43024929e-07 9.66473294e-07 9.49141111e-07 8.68579036e-07
      6.77791661e-07 3.91387459e-07 9.37930906e-08 -1.35079162e-07
      -2.40237227e-07 -2.19143573e-07 -1.43071361e-07 -5.87690927e-08
      2.46268606e-08 1.09501649e-07 1.38650023e-07 1.03264469e-07
      5.66906628e-08 -1.18560148e-08 -1.17895667e-07 -3.35432674e-07
      -6.48353705e-07 -9.48764637e-07 -1.20016068e-06 -1.30770889e-06
      -7.28347345e-07 -7.29213184e-07 -7.57342093e-07 -8.08258505e-07
      -8.40169946e-07 -8.12317921e-07 -7.43844453e-07 -7.31677403e-07
      -7.62547529e-07 -8.25938969e-07 -8.64262915e-07 -8.40716893e-07
      -7.45634395e-07 -6.44803777e-07 -5.65487198e-07 -5.25993926e-07
      -5.21163088e-07 -5.49747256e-07 -5.80121082e-07 -5.37880965e-07
      -4.00596946e-07 -2.08123822e-07 4.03421616e-08 2.74556498e-07
      4.35076743e-07 5.33760442e-07 6.04247930e-07 6.61484137e-07
      6.83886185e-07 6.45775117e-07 5.38764652e-07 3.70871930e-07
      1.52760379e-07 -5.62464244e-08 -1.79779335e-07 -2.00966227e-07
      -1.01641369e-07 1.23462513e-07 3.89338908e-07 5.71453995e-07
      6.24921654e-07 5.74999319e-07 4.28119733e-07 1.75328367e-07
      -1.55374835e-07 -5.09771553e-07 -8.18653689e-07 -1.01981664e-06
      -1.14145462e-06 -1.22139818e-06 -1.28102909e-06 -1.31241347e-06
      -6.63513674e-07 -6.88977082e-07 -7.56408554e-07 -8.62786237e-07
      -1.04907383e-06 -1.28054205e-06 -1.49698690e-06 -1.67215728e-06
      -1.75291927e-06 -1.76329866e-06 -1.60685931e-06 -1.45000047e-06
      -1.30816341e-06 -1.17688046e-06 -1.08546885e-06 -1.07979611e-06
      -1.15189368e-06 -1.17185857e-06 -1.16193280e-06 -1.05651986e-06
      -8.32224316e-07 -5.24928225e-07 -1.76124786e-07 1.26500453e-07
      3.43360028e-07 4.66885155e-07 5.08383096e-07 4.74105605e-07
      4.16161868e-07 3.51688300e-07 2.74716314e-07 2.00802191e-07
      1.40541204e-07 8.56951843e-08 4.71565365e-08 6.24162233e-09
      -2.51735504e-08 2.27628796e-08 1.15567076e-07 1.94628498e-07
      2.52584897e-07 2.21925688e-07 -6.03115637e-08 -4.07966013e-07
      -7.93061588e-07 -1.15295120e-06 -1.41363273e-06 -1.50219648e-06
      -1.46724051e-06 -1.38526184e-06 -1.31322702e-06 -1.28162549e-06
      -3.56323284e-07 -3.93811405e-07 -4.83108010e-07 -6.04131344e-07
      -7.21619699e-07 -8.02904424e-07 -8.38427525e-07 -8.75840271e-07
      -8.19040281e-07 -7.85750274e-07 -7.71001282e-07 -7.86618500e-07
      -8.40762311e-07 -9.19906086e-07 -1.02624972e-06 -1.09119628e-06
      -1.05895276e-06 -9.31882937e-07 -6.40153075e-07 -3.37556713e-07
      -2.73530105e-08 2.30097953e-07 4.06898522e-07 4.85979058e-07
      4.81991719e-07 4.35736723e-07 3.66520368e-07 2.90019329e-07
      2.23082750e-07 2.02514329e-07 2.36090216e-07 2.65903651e-07
      2.77359675e-07 2.26986302e-07 9.05904898e-08 -9.65898010e-08
      -3.25473735e-07 -5.90687023e-07 -8.24737526e-07 -9.61434580e-07
      -9.66163384e-07 -1.00040211e-06 -1.31077650e-06 -1.63420827e-06
      -1.86818011e-06 -1.94708491e-06 -1.86647321e-06 -1.69076623e-06
      -1.49337700e-06 -1.33334368e-06 -1.22134406e-06 -1.17795253e-06
      -7.33661750e-07 -6.79244465e-07 -5.26797919e-07 -3.07109616e-07
      -1.44373296e-08 2.70892087e-07 5.78938625e-07 8.13007091e-07
      9.01905310e-07 8.51700690e-07 6.96437553e-07 4.63609382e-07
      2.37619659e-07 9.16243650e-08 4.07320968e-08 1.51253033e-07
      4.19760056e-07 6.88016144e-07 8.83862754e-07 9.74314503e-07
      9.75537773e-07 9.20178081e-07 8.24179097e-07 7.10537165e-07
      5.77290109e-07 4.39557709e-07 3.17104508e-07 2.32345400e-07
      1.69854289e-07 1.30561972e-07 1.53345212e-07 1.95738608e-07
      2.45784776e-07 2.85442155e-07 2.66004832e-07 1.68320454e-07
      -2.66214002e-08 -3.00836604e-07 -6.15102806e-07 -7.88210116e-07
      -8.41683686e-07 -7.85634370e-07 -7.54277323e-07 -7.88151624e-07
      -8.45950410e-07 -9.00244572e-07 -8.95521339e-07 -8.64127230e-07
      -8.39422057e-07 -7.85193322e-07 -7.37953826e-07 -7.23280721e-07
      -3.57335296e-07 -3.49326825e-07 -3.51734428e-07 -3.65247303e-07
      -3.37482788e-07 -2.38442226e-07 -1.41712533e-07 -8.17657622e-08
      3.45341533e-08 2.01384893e-07 3.65203562e-07 4.52849690e-07
      4.59858342e-07 4.02395926e-07 3.41871925e-07 3.79757665e-07
      5.21503125e-07 6.79504183e-07 8.21559070e-07 9.46847479e-07
      1.01649243e-06 1.03653133e-06 9.98447490e-07 9.21212347e-07
      8.17775174e-07 7.02240754e-07 5.99583188e-07 5.43621411e-07
      5.44983095e-07 5.72272995e-07 6.18693377e-07 6.84804661e-07
      7.61761555e-07 8.43558439e-07 9.08251991e-07 9.55071755e-07
      9.81383323e-07 9.97837219e-07 9.93949584e-07 8.93240156e-07
      7.01083309e-07 5.10728398e-07 3.85022389e-07 2.98758437e-07
      1.68541064e-07 -4.02146156e-08 -3.01797201e-07 -5.41988584e-07
      -7.09647395e-07 -7.94132745e-07 -8.35661410e-07 -8.41281462e-07
      5.52653546e-07 5.16272735e-07 3.97771856e-07 2.06364064e-07
      -1.30836613e-08 -1.76174538e-07 -2.37413929e-07 -1.86234516e-07
      -5.12474472e-08 1.35035606e-07 3.38169713e-07 5.02340924e-07
      5.76809043e-07 5.61476611e-07 5.38690699e-07 5.44498164e-07
      5.93668062e-07 7.12774465e-07 8.57113946e-07 1.00559714e-06
      1.12706994e-06 1.19160677e-06 1.18796265e-06 1.10720089e-06
      9.82292022e-07 8.49206458e-07 7.38586834e-07 6.69640315e-07
      6.72567808e-07 7.52533879e-07 8.78563583e-07 1.04271408e-06
      1.20263951e-06 1.32267701e-06 1.39222027e-06 1.38232144e-06
      1.27991927e-06 1.08558368e-06 8.05472382e-07 4.83427982e-07
      1.84889316e-07 -4.29490647e-08 -2.34468715e-07 -3.72722610e-07
      -4.54621642e-07 -4.77532126e-07 -4.63887318e-07 -4.15000414e-07
      -3.26822288e-07 -2.28639081e-07 -1.57607957e-07 -1.27559815e-07
      5.99507075e-07 5.54196902e-07 4.49093875e-07 3.10814755e-07
      1.53350669e-07 2.57573145e-08 -6.39144915e-08 -9.94183864e-08
      -7.75771767e-08 -2.65754370e-08 3.97589730e-08 1.32100411e-07
      2.19999819e-07 2.93466911e-07 3.74157139e-07 4.52751095e-07
      5.45102466e-07 6.71859766e-07 8.10168387e-07 9.42522206e-07
      1.03304239e-06 1.03860555e-06 9.60288162e-07 8.14114912e-07
      6.28653709e-07 4.49061019e-07 2.87966628e-07 1.39891071e-07
      3.54072789e-08 -3.04641690e-09 4.45518609e-08 1.96630552e-07
      4.36149463e-07 7.07132983e-07 9.64582455e-07 1.13346380e-06
      1.17017714e-06 1.07534163e-06 8.82438371e-07 6.31784701e-07
      3.72779567e-07 1.34270223e-07 -7.50118971e-08 -2.47831423e-07
      -3.59567309e-07 -3.84996611e-07 -3.13131181e-07 -1.70338936e-07
      2.57991339e-09 1.56971325e-07 2.54349601e-07 2.86268374e-07
      6.68007090e-07 6.61287231e-07 6.33823049e-07 5.96731013e-07
      5.38961785e-07 4.76490754e-07 4.11223226e-07 3.54094595e-07
      3.00893902e-07 2.57032355e-07 2.24027801e-07 2.24243578e-07
      2.53625188e-07 3.10744610e-07 3.74401651e-07 4.38362889e-07
      4.91585411e-07 5.28044893e-07 5.29231670e-07 4.79361404e-07
      3.60257530e-07 1.86890446e-07 -1.47155421e-09 -1.34033115e-07
      -1.91218163e-07 -1.83596967e-07 -1.82851963e-07 -2.06197484e-07
      -2.71810052e-07 -3.79673565e-07 -4.79812115e-07 -5.46377407e-07
      -5.45300054e-07 -4.78911261e-07 -3.82505362e-07 -2.47565850e-07
      -8.57901057e-08 7.64768018e-08 2.39075206e-07 4.10329363e-07
      5.24769973e-07 5.76601622e-07 5.75223680e-07 5.15265981e-07
      4.14512130e-07 2.93802231e-07 1.92836410e-07 1.38656674e-07
      1.15004653e-07 1.22993427e-07 1.38127135e-07 1.45412145e-07
      4.52231035e-07 4.63969599e-07 4.79389485e-07 5.02663625e-07
      5.29971715e-07 5.42751138e-07 5.48401090e-07 5.43679960e-07
      5.10704467e-07 4.75787203e-07 4.41263211e-07 3.90177831e-07
      3.13574532e-07 2.22846722e-07 9.40839655e-08 -4.56490810e-08
      -2.22730861e-07 -4.18451435e-07 -6.09511687e-07 -7.77894627e-07
      -9.23271386e-07 -1.01205035e-06 -1.01759611e-06 -9.60833177e-07
      -8.70179576e-07 -7.64939671e-07 -6.64982338e-07 -5.78595348e-07
      -5.52376662e-07 -5.77709898e-07 -6.60784735e-07 -7.81309268e-07
      -9.05749062e-07 -1.00679040e-06 -1.06477455e-06 -1.07624646e-06
      -1.03681748e-06 -9.49579430e-07 -8.05817876e-07 -5.95925030e-07
      -3.42960647e-07 -8.23668955e-08 1.51846180e-07 2.13087461e-07
      1.90413147e-07 1.45202051e-07 1.15409485e-07 1.19108229e-07
      1.55190762e-07 2.05428563e-07 2.49908624e-07 2.71993002e-07
      -2.07270546e-07 -2.32216323e-07 -3.00547669e-07 -3.88732190e-07
      -4.57035128e-07 -4.93578170e-07 -4.97786175e-07 -4.82412531e-07
      -4.24958188e-07 -3.38890487e-07 -2.55439346e-07 -2.15115705e-07
      -1.90720442e-07 -2.05981962e-07 -2.60045681e-07 -3.46097721e-07
      -4.64671814e-07 -5.93914535e-07 -6.88731745e-07 -6.76948332e-07
      -5.63198341e-07 -4.29755971e-07 -3.30097492e-07 -2.58150038e-07
      -1.91110203e-07 -1.74289440e-07 -1.90699623e-07 -2.44567474e-07
      -3.16050404e-07 -3.81936786e-07 -4.71845965e-07 -5.69190263e-07
      -6.77414903e-07 -8.05076354e-07 -9.31167790e-07 -1.04923743e-06
      -1.14831141e-06 -1.20222012e-06 -1.19865240e-06 -1.14697309e-06
      -1.04708920e-06 -9.15447288e-07 -7.76034256e-07 -6.34686160e-07
      -5.24644292e-07 -4.50111372e-07 -4.63976448e-07 -5.58395868e-07
      -6.42645261e-07 -7.06077572e-07 -7.44928741e-07 -7.57302303e-07
      -3.29348410e-07 -3.59540223e-07 -4.39009824e-07 -5.57230805e-07
      -6.79492985e-07 -7.68817586e-07 -8.12362657e-07 -8.17244029e-07
      -7.63133471e-07 -6.81287588e-07 -6.13858958e-07 -5.62223079e-07
      -4.97476208e-07 -4.35377359e-07 -3.65654699e-07 -3.34966188e-07
      -2.59220428e-07 -8.62218457e-08 1.86798914e-07 4.95464803e-07
      7.51610628e-07 8.14596376e-07 7.13523491e-07 6.17990565e-07
      5.10202256e-07 3.56600793e-07 2.03314713e-07 5.58656446e-08
      -3.11513588e-08 -6.75970639e-08 -7.26825675e-08 -6.13211455e-08
      -4.92904562e-08 -7.66921247e-08 -1.83132798e-07 -3.90760334e-07
      -6.34287630e-07 -8.20229445e-07 -9.33771560e-07 -1.03936441e-06
      -1.11542022e-06 -1.13746898e-06 -1.10088604e-06 -1.01776914e-06
      -9.16631905e-07 -8.46192449e-07 -8.28076850e-07 -8.54312702e-07
      -9.06993591e-07 -9.57031716e-07 -9.92925720e-07 -1.00524790e-06
      -5.12731788e-07 -5.29943577e-07 -5.61338368e-07 -5.93154937e-07
      -6.17216585e-07 -6.22730113e-07 -6.03826720e-07 -5.62616833e-07
      -5.23540280e-07 -5.01506008e-07 -5.00352257e-07 -4.74981078e-07
      -4.21723939e-07 -3.35855475e-07 -2.17233449e-07 -3.65282311e-08
      1.99689225e-07 4.34741395e-07 5.69996985e-07 5.08252072e-07
      3.30484880e-07 1.22453201e-07 -5.51800206e-08 -1.97897549e-07
      -3.27832851e-07 -4.19141372e-07 -4.93776099e-07 -5.68389737e-07
      -6.39615337e-07 -6.71080841e-07 -6.41352244e-07 -5.53496648e-07
      -3.80495919e-07 -1.70743334e-07 -3.88262507e-08 1.17009789e-08
      -3.79227103e-08 -1.78205127e-07 -3.20220124e-07 -4.43683604e-07
      -5.45134924e-07 -6.23834637e-07 -6.70409008e-07 -6.67289100e-07
      -6.12896770e-07 -5.65342873e-07 -5.34249750e-07 -4.99888699e-07
      -4.93585844e-07 -4.97191820e-07 -5.03805779e-07 -5.01031138e-07
      -4.69963283e-07 -4.69008143e-07 -4.61506829e-07 -4.40504209e-07
      -4.00253043e-07 -3.40106340e-07 -2.76982831e-07 -2.19797442e-07
      -1.74518888e-07 -1.46110253e-07 -1.24748226e-07 -1.68347100e-07
      -2.36381879e-07 -2.61629850e-07 -2.31146117e-07 -1.61358869e-07
      -6.41313989e-08 3.15816919e-08 6.01455454e-08 -1.49580401e-08
      -1.00737765e-07 -1.70256442e-07 -2.45658299e-07 -3.29120354e-07
      -4.14843925e-07 -4.66638710e-07 -5.05544620e-07 -5.43597537e-07
      -5.93547782e-07 -6.15090187e-07 -5.85376426e-07 -5.00067017e-07
      -3.66969232e-07 -2.04587323e-07 -1.94007317e-08 1.66119420e-07
      3.08747673e-07 3.89224311e-07 3.99255413e-07 3.99215679e-07
      3.52358569e-07 2.26823715e-07 6.30807548e-08 -8.99416008e-08
      -2.10882320e-07 -2.93964519e-07 -3.43950632e-07 -3.59363014e-07
      -3.56827115e-07 -3.57166414e-07 -3.56779765e-07 -3.56120324e-07
      -4.14837530e-07 -3.91919855e-07 -3.37227817e-07 -2.58423825e-07
      -1.69118323e-07 -8.45922798e-08 -1.15870460e-08 3.47927660e-08
      1.47646366e-08 -6.22901055e-08 -1.27034710e-07 -1.99220466e-07
      -2.86196325e-07 -3.87953691e-07 -5.31191233e-07 -6.02421949e-07
      -6.00676515e-07 -5.47342495e-07 -4.53625830e-07 -3.21429440e-07
      -1.89352960e-07 -1.00438683e-07 -4.85593894e-08 -2.40176892e-08
      -1.24391999e-08 -8.28550295e-09 5.61826585e-09 4.13410035e-08
      7.49062110e-08 8.97818566e-08 1.11704097e-07 1.27815696e-07
      8.04309437e-08 1.89784384e-08 2.09635544e-08 9.58458060e-08
      2.16971159e-07 3.55594068e-07 4.60911536e-07 4.87350633e-07
      5.00828207e-07 5.13715975e-07 4.73085009e-07 3.50399290e-07
      1.66071786e-07 -2.90215336e-08 -2.29663200e-07 -4.19201257e-07
      -5.62234902e-07 -6.57351279e-07 -7.07114566e-07 -7.37794835e-07
      -8.78185347e-08 -6.50271375e-08 -8.86593376e-09 7.44016049e-08
      1.54454909e-07 2.11349530e-07 2.19209937e-07 1.82911137e-07
      1.72920082e-07 1.89630867e-07 2.24105847e-07 2.71741754e-07
      2.56285233e-07 1.55837910e-07 -9.34622513e-09 -1.31783281e-07
      -1.62856210e-07 -1.42678374e-07 -1.46639010e-07 -1.32807969e-07
      -9.61915063e-08 -7.15541759e-08 -3.71775961e-08 -6.95666547e-09
      3.28749366e-08 8.20375590e-08 1.72800839e-07 2.87238208e-07
      3.68840631e-07 3.82620243e-07 3.61466192e-07 3.17088137e-07
      2.25746987e-07 1.06212028e-07 1.59897926e-08 -4.03045526e-08
      -5.92858242e-08 -6.82260071e-09 -5.14096747e-08 -3.90980190e-08
      1.28956870e-07 3.22348797e-07 4.47388203e-07 5.06935578e-07
      5.24086659e-07 4.95914264e-07 4.29501455e-07 3.23051097e-07
      1.96777435e-07 9.71205409e-08 2.97160039e-08 -1.57587299e-09
      -2.87685964e-07 -2.63032575e-07 -1.82194839e-07 -7.20174995e-08
      4.05577971e-09 3.66224739e-08 9.42385725e-08 2.05960504e-07
      3.70662264e-07 5.70128520e-07 8.25454379e-07 1.14653449e-06
      1.40753923e-06 1.46894979e-06 1.31682566e-06 1.03681430e-06
      7.30598970e-07 4.69956291e-07 2.12692683e-07 6.25709049e-08
      -7.96928479e-09 -5.14107477e-08 -4.24578275e-08 4.20444977e-08
      1.67708194e-07 2.95543771e-07 4.01550494e-07 4.44470118e-07
      4.18036336e-07 2.96926657e-07 9.20959380e-08 -1.20325893e-07
      -3.46226983e-07 -5.93071377e-07 -7.98515998e-07 -9.56742042e-07
      -1.05000936e-06 -1.04301682e-06 -9.31482361e-07 -7.29940382e-07
      -4.37497135e-07 -1.53035060e-07 1.10372696e-07 2.77339041e-07
      3.58976791e-07 4.07063055e-07 4.40226216e-07 4.56223972e-07
      4.63423561e-07 4.54769349e-07 4.37509584e-07 4.39398860e-07
      -2.30510608e-07 -2.40797647e-07 -2.64370300e-07 -2.99882970e-07
      -3.23272985e-07 -3.01834632e-07 -2.36353372e-07 -1.21268911e-07
      -4.02585210e-09 1.41188622e-07 3.42600259e-07 4.92374568e-07
      5.45262651e-07 4.02924769e-07 2.10519531e-07 -1.50590793e-08
      -1.44305531e-07 -1.42329739e-07 -5.75495136e-08 -7.14064328e-08
      -3.46351783e-07 -5.27599866e-07 -5.15557531e-07 -3.95370705e-07
      -2.77886841e-07 -2.06014946e-07 -2.05181848e-07 -2.80981226e-07
      -3.86379526e-07 -5.44252941e-07 -7.62299521e-07 -9.61767228e-07
      -1.10594874e-06 -1.18386515e-06 -1.18055425e-06 -1.10626581e-06
      -9.84023700e-07 -7.23313406e-07 -4.62652849e-07 -2.93050334e-07
      -1.22092345e-07 -3.22766631e-08 -8.10845080e-09 -4.81724811e-08
      -4.10991099e-08 3.35486625e-08 1.26742961e-07 2.16082697e-07
      1.91300444e-07 1.35630614e-07 9.55348085e-08 8.45749142e-08
      -1.31742567e-07 -1.42395777e-07 -1.65441477e-07 -1.84499342e-07
      -1.78552497e-07 -1.30531376e-07 -5.78173243e-08 4.97661112e-09
      1.52811346e-08 1.73145587e-08 -5.33553326e-08 -2.76689718e-07
      -5.81885331e-07 -8.09672542e-07 -9.19629599e-07 -9.10999404e-07
      -8.91415993e-07 -7.75023011e-07 -6.64957668e-07 -6.29018757e-07
      -8.19613888e-07 -1.08527115e-06 -1.23678285e-06 -1.21813321e-06
      -1.07442679e-06 -9.33974320e-07 -9.00215241e-07 -9.71850454e-07
      -1.06582547e-06 -1.11873442e-06 -1.25761744e-06 -1.41205282e-06
      -1.41239968e-06 -1.24184510e-06 -9.29593398e-07 -5.55778513e-07
      -2.93278788e-07 6.23382590e-08 3.85224439e-07 4.68049365e-07
      4.30420556e-07 3.35184353e-07 2.14465089e-07 1.49451850e-07
      4.12107788e-08 -5.98394649e-08 -1.36830579e-07 -1.61998003e-07
      -1.65502584e-07 -2.07388780e-07 -3.12680129e-07 -3.50690613e-07
      -1.00370596e-06 -1.02240551e-06 -1.02829949e-06 -9.70146857e-07
      -8.53437655e-07 -6.76315778e-07 -4.28053681e-07 -1.81515276e-07
      1.73200654e-08 1.29690903e-07 6.54615206e-08 -1.44525529e-07
      -3.46407973e-07 -4.86715692e-07 -6.14397834e-07 -6.31643559e-07
      -4.84689906e-07 -2.41734369e-07 3.10850723e-08 1.85270196e-07
      -1.20064584e-07 -4.57017762e-07 -6.94123003e-07 -7.66182836e-07
      -6.78521076e-07 -5.47677416e-07 -4.68958092e-07 -4.48285817e-07
      -4.56040112e-07 -5.98495944e-07 -8.27366534e-07 -9.67835376e-07
      -9.05151182e-07 -6.11194480e-07 -2.15142620e-07 1.48111369e-07
      4.33545068e-07 6.82636937e-07 9.17094837e-07 9.59038630e-07
      9.21171079e-07 9.13891483e-07 9.40959751e-07 9.42826205e-07
      9.06634341e-07 8.13215934e-07 6.59388888e-07 4.68592418e-07
      2.95901657e-07 1.98006944e-07 1.41532809e-07 1.13226179e-07
      -1.49076391e-06 -1.48401966e-06 -1.42953070e-06 -1.30050194e-06
      -1.11908059e-06 -9.05155616e-07 -6.51490041e-07 -4.84795180e-07
      -3.88610914e-07 -3.40483183e-07 -2.97718032e-07 -2.43776896e-07
      -1.56548666e-07 2.07950386e-08 2.44921068e-07 4.75352238e-07
      6.97639564e-07 8.44793078e-07 8.05136324e-07 4.25665718e-07
      1.74911126e-08 -3.59388594e-07 -6.84557563e-07 -9.52476455e-07
      -1.06184370e-06 -9.84863391e-07 -9.17050386e-07 -8.69947371e-07
      -8.36557433e-07 -7.79352376e-07 -7.33195975e-07 -7.48642435e-07
      -7.31682007e-07 -6.39782343e-07 -5.34122421e-07 -4.39438708e-07
      -3.86100112e-07 -4.17118969e-07 -3.79564682e-07 -3.01575739e-07
      -1.63130196e-07 5.05577269e-08 3.38248867e-07 5.97117776e-07
      7.60036869e-07 7.92553010e-07 8.02007605e-07 7.22804714e-07
      5.45347859e-07 3.81980783e-07 2.81631458e-07 2.43219205e-07
      -4.93675998e-07 -4.53052394e-07 -3.83928040e-07 -2.99908407e-07
      -2.26726470e-07 -1.73521315e-07 -1.81498493e-07 -2.38376657e-07
      -3.48621938e-07 -4.55374305e-07 -4.50286677e-07 -2.89184101e-07
      -9.79598838e-08 2.50273011e-08 1.54576966e-07 3.23433994e-07
      4.91320350e-07 5.53118127e-07 4.58415457e-07 2.83920599e-07
      8.42525978e-08 -1.93317803e-07 -5.53730899e-07 -9.26853659e-07
      -1.19640094e-06 -1.32845275e-06 -1.34455047e-06 -1.24319411e-06
      -1.04586343e-06 -7.86473663e-07 -5.84734039e-07 -4.62972963e-07
      -4.58642489e-07 -4.97630140e-07 -5.54330938e-07 -6.15171245e-07
      -6.79311484e-07 -7.81171138e-07 -8.35759522e-07 -8.54747384e-07
      -8.16622048e-07 -7.25722941e-07 -5.53972598e-07 -2.71657882e-07
      -2.33576323e-08 9.01017998e-08 8.70758399e-08 1.73115993e-08
      -4.68527084e-08 -1.38867392e-07 -2.02369534e-07 -2.21196558e-07
      -2.11337621e-07 -1.62408966e-07 -7.19176469e-08 2.88595512e-08
      8.98789025e-08 1.33492847e-07 1.27678177e-07 1.03214255e-07
      1.13214043e-07 1.79928307e-07 2.77670722e-07 2.94296882e-07
      2.11989672e-07 1.00398026e-07 4.26435287e-09 -3.99638829e-08
      -2.59702535e-08 1.03923634e-08 6.90444466e-08 1.66258232e-07
      2.59191580e-07 2.11399595e-07 9.63101456e-08 -3.65547272e-08
      -1.89919220e-07 -3.30458391e-07 -4.02726641e-07 -4.03828324e-07
      -3.45237652e-07 -2.14071520e-07 -8.79296849e-08 -4.99906285e-08
      -1.04204908e-07 -3.03239659e-07 -4.89795241e-07 -5.91134437e-07
      -6.59412592e-07 -6.92684353e-07 -7.23873939e-07 -7.29104499e-07
      -6.70336590e-07 -5.35114452e-07 -3.46289653e-07 -1.17730451e-07
      1.52728632e-07 3.81684714e-07 4.05546132e-07 3.87694541e-07
      2.09496690e-07 1.19524177e-08 -8.41057499e-08 -1.07887615e-07
      1.29182212e-07 1.38570158e-07 1.43470260e-07 1.34976830e-07
      1.48994772e-07 2.32883067e-07 3.78618211e-07 5.11127723e-07
      6.55521319e-07 7.90988565e-07 8.15256271e-07 4.86493548e-07
      4.46283615e-08 -3.93104756e-07 -7.48347475e-07 -9.65102799e-07
      -1.03924879e-06 -1.02164881e-06 -8.86579983e-07 -6.50765742e-07
      -3.75596187e-07 -8.47551789e-08 1.71092722e-07 3.99695750e-07
      5.51068126e-07 6.18128468e-07 6.36675566e-07 6.17611818e-07
      5.33835816e-07 3.38029110e-07 2.21243184e-08 -3.70804173e-07
      -7.38230085e-07 -1.11200848e-06 -1.44124317e-06 -1.61762546e-06
      -1.70367332e-06 -1.66696134e-06 -1.53514736e-06 -1.30867647e-06
      -1.00003308e-06 -6.15931640e-07 -2.12196127e-07 1.54846347e-07
      4.81784355e-07 6.30724287e-07 6.52816937e-07 6.71876705e-07
      6.18794161e-07 4.99704811e-07 4.32168463e-07 4.22481776e-07
      4.65381817e-07 4.56560400e-07 4.31668468e-07 3.96730911e-07
      3.85949619e-07 3.95582816e-07 4.43503836e-07 5.33099694e-07
      5.92393349e-07 5.24245252e-07 3.79421465e-07 2.00540399e-07
      -3.73394258e-08 -3.99516921e-07 -8.36254117e-07 -1.28202623e-06
      -1.65147776e-06 -1.89463549e-06 -1.96510791e-06 -1.89036462e-06
      -1.66541895e-06 -1.31416391e-06 -9.23082496e-07 -5.13855696e-07
      -1.42744739e-07 1.09481299e-07 1.76936183e-07 1.06774372e-07
      -5.26609938e-08 -2.90897134e-07 -5.81533925e-07 -9.07128083e-07
      -1.27507826e-06 -1.65464462e-06 -1.99863098e-06 -2.26671204e-06
      -2.41859857e-06 -2.45544675e-06 -2.36742517e-06 -2.16716126e-06
      -1.89406660e-06 -1.56507235e-06 -1.19636093e-06 -8.57710234e-07
      -5.70327188e-07 -3.28981315e-07 -1.58108278e-07 -5.24253174e-08
      -4.77832458e-08 2.35114292e-08 1.24376342e-07 1.65155456e-07
      4.14983816e-07 4.01165437e-07 3.48535963e-07 2.86274428e-07
      2.02101688e-07 1.11864971e-07 7.40358601e-08 9.21713337e-08
      9.89057725e-08 7.40422479e-08 -9.34197608e-10 -1.50956822e-07
      -3.25956762e-07 -5.90751597e-07 -1.11100508e-06 -1.66224220e-06
      -2.16266130e-06 -2.50683775e-06 -2.64456844e-06 -2.63151037e-06
      -2.42474471e-06 -2.08550614e-06 -1.71306465e-06 -1.38743314e-06
      -1.16515901e-06 -1.04752530e-06 -1.03944342e-06 -1.05238792e-06
      -1.07407720e-06 -1.13395026e-06 -1.26443410e-06 -1.47292758e-06
      -1.77174934e-06 -2.11514362e-06 -2.44893590e-06 -2.73267619e-06
      -2.90144635e-06 -2.97198858e-06 -2.93385210e-06 -2.77970958e-06
      -2.54070073e-06 -2.21276741e-06 -1.78672667e-06 -1.31767194e-06
      -8.72410965e-07 -5.04452316e-07 -2.41939091e-07 -6.94596594e-08
      5.26863673e-08 1.03159657e-07 1.57974796e-07 1.78954863e-07
      1.74655682e-07 1.72634003e-07 1.72022752e-07 1.67404380e-07
      1.27920330e-07 1.52590545e-07 2.40997338e-07 3.36660520e-07
      3.74779290e-07 1.50117884e-07 -1.68852637e-07 -5.65074401e-07
      -1.04847300e-06 -1.50239475e-06 -1.89035393e-06 -2.20663333e-06
      -2.41261910e-06 -2.49682284e-06 -2.45658589e-06 -2.30992941e-06
      -2.08835650e-06 -1.85171109e-06 -1.69628709e-06 -1.65017866e-06
      -1.70419014e-06 -1.80008863e-06 -1.90383389e-06 -1.95439588e-06
      -1.94637641e-06 -1.91642857e-06 -1.91183403e-06 -1.96932797e-06
      -2.10643907e-06 -2.28220938e-06 -2.45724300e-06 -2.58370278e-06
      -2.67686346e-06 -2.71526642e-06 -2.71290719e-06 -2.64314122e-06
      -2.50941662e-06 -2.28020849e-06 -1.96545875e-06 -1.60856928e-06
      -1.22615438e-06 -8.74326304e-07 -5.72309546e-07 -4.75857661e-07
      -4.11393387e-07 -3.82319371e-07 -3.92637872e-07 -4.10387969e-07
      -2.37643007e-07 -2.34781297e-07 -2.45188119e-07 -2.98555079e-07
      -3.84887954e-07 -4.21734455e-07 -4.24912258e-07 -4.02459307e-07
      -4.35804225e-07 -5.30682541e-07 -7.72656847e-07 -1.26803945e-06
      -1.82396809e-06 -2.13792737e-06 -2.26670340e-06 -2.24011751e-06
      -2.10869507e-06 -1.96187966e-06 -1.80754239e-06 -1.64172616e-06
      -1.44038461e-06 -1.17758259e-06 -1.08332040e-06 -1.11759550e-06
      -1.22787549e-06 -1.36561334e-06 -1.49197638e-06 -1.59760521e-06
      -1.68836300e-06 -1.78464711e-06 -1.89525747e-06 -2.01634839e-06
      -2.12429404e-06 -2.17658317e-06 -2.19681283e-06 -2.13491944e-06
      -2.06109985e-06 -1.99783608e-06 -1.95895973e-06 -1.96563860e-06
      -1.99887177e-06 -2.00939030e-06 -1.96524661e-06 -1.80860775e-06
      -1.53392534e-06 -1.31551212e-06 -1.20547929e-06 -1.07741027e-06
      -9.35196908e-07 -8.60749367e-07 -8.74526563e-07 -8.96296910e-07
      -4.54722112e-07 -4.31442146e-07 -4.27476323e-07 -4.75586916e-07
      -5.49951153e-07 -5.97836220e-07 -5.81320933e-07 -5.95568906e-07
      -7.31581224e-07 -8.91514503e-07 -1.03530942e-06 -1.40354871e-06
      -2.00125214e-06 -2.34782169e-06 -2.34370964e-06 -1.93743699e-06
      -1.39994256e-06 -1.04439721e-06 -9.41021540e-07 -1.06289065e-06
      -1.30586295e-06 -1.29799787e-06 -1.30511478e-06 -1.37134339e-06
      -1.49353798e-06 -1.57943634e-06 -1.64001835e-06 -1.70221199e-06
      -1.76570518e-06 -1.85266686e-06 -1.95846724e-06 -2.03845548e-06
      -2.06300092e-06 -2.00331920e-06 -1.91801132e-06 -1.74144691e-06
      -1.54171232e-06 -1.38645930e-06 -1.19826859e-06 -1.12801138e-06
      -1.12768521e-06 -1.06056439e-06 -1.03584102e-06 -8.94344112e-07
      -6.09593826e-07 -5.20743924e-07 -5.62695675e-07 -5.36101766e-07
      -4.37021527e-07 -4.01318687e-07 -3.92618858e-07 -4.07847551e-07
      -2.12893880e-07 -1.84844239e-07 -1.59583067e-07 -1.39742426e-07
      -8.36810585e-08 -1.65885581e-08 2.69041109e-08 1.58957683e-08
      -2.89879580e-07 -8.09547771e-07 -1.40983582e-06 -1.91802860e-06
      -2.25508097e-06 -2.35568359e-06 -2.07787207e-06 -1.26023428e-06
      -3.91402267e-07 2.57516859e-07 1.84051842e-07 -1.96452007e-07
      -7.03812077e-07 -1.17913828e-06 -1.59988338e-06 -1.92390462e-06
      -2.15135628e-06 -2.28877207e-06 -2.33960395e-06 -2.35127732e-06
      -2.32685352e-06 -2.29281090e-06 -2.23581492e-06 -1.96963310e-06
      -1.68129861e-06 -1.40396469e-06 -1.20962977e-06 -1.02923559e-06
      -9.40033374e-07 -9.54770599e-07 -9.53003564e-07 -8.95274070e-07
      -8.86660246e-07 -9.26579560e-07 -9.93306799e-07 -8.83872758e-07
      -7.28936357e-07 -5.40000940e-07 -3.43054921e-07 -1.40846339e-07
      -1.81002200e-08 -9.44001588e-09 -5.42146488e-08 -8.17484036e-08
      -2.08022797e-07 -2.26293125e-07 -2.48741969e-07 -2.34815616e-07
      -1.70204231e-07 -3.74761946e-08 1.17853524e-07 1.46743318e-07
      -5.57277744e-08 -5.24122470e-07 -1.11267684e-06 -1.57867305e-06
      -1.77508173e-06 -1.73587512e-06 -1.45881472e-06 -8.89553576e-07
      -1.50914843e-07 4.72700691e-07 8.32344426e-07 8.82996858e-07
      6.60498870e-07 3.70040794e-07 9.45040597e-08 -9.81220722e-08
      -1.96920823e-07 -2.25301150e-07 -1.93689772e-07 -1.78394515e-07
      -1.90753539e-07 -2.25130734e-07 -2.73571288e-07 -2.69566954e-07
      -2.33209661e-07 -1.78295053e-07 -2.95736754e-07 -5.23845415e-07
      -7.42534098e-07 -9.71724717e-07 -1.06377524e-06 -1.10383905e-06
      -1.16900185e-06 -1.28686634e-06 -1.34112804e-06 -1.33092783e-06
      -1.23813766e-06 -1.09954908e-06 -8.73388046e-07 -6.69740757e-07
      -5.63540823e-07 -5.48773869e-07 -5.64797119e-07 -5.65550920e-07
      -4.72269051e-07 -4.96948985e-07 -5.51160383e-07 -5.89808337e-07
      -6.13589236e-07 -5.95423955e-07 -5.23006690e-07 -4.12019688e-07
      -3.14764208e-07 -3.13559269e-07 -5.65435528e-07 -7.76388674e-07
      -9.21573474e-07 -1.01896967e-06 -9.91494062e-07 -8.17327077e-07
      -3.88748731e-07 1.65602472e-07 5.86875444e-07 8.59522686e-07
      1.15476087e-06 1.49866173e-06 1.82249266e-06 2.04270168e-06
      2.35172547e-06 2.65057361e-06 2.70046417e-06 2.50893208e-06
      2.24505584e-06 1.92508242e-06 1.56354793e-06 1.24227654e-06
      8.53117967e-07 4.06944679e-07 2.73100542e-09 -2.95746503e-07
      -4.67009642e-07 -4.48878893e-07 -5.26323106e-07 -7.09235906e-07
      -9.03267903e-07 -1.03810157e-06 -1.01707849e-06 -9.73504484e-07
      -1.09870973e-06 -1.38094720e-06 -1.51749373e-06 -1.55381974e-06
      -1.50944925e-06 -1.49699679e-06 -1.50833523e-06 -1.51612824e-06
      -1.91591312e-07 -2.31003497e-07 -3.23160634e-07 -4.28959055e-07
      -5.53839811e-07 -6.43102965e-07 -6.10915265e-07 -4.34069506e-07
      -1.61556642e-07 1.08758542e-07 4.74108894e-08 3.37740254e-08
      7.11923107e-08 1.31168036e-07 2.23195627e-07 3.44780034e-07
      5.13111615e-07 8.29109808e-07 1.07274980e-06 1.14272700e-06
      1.13328929e-06 1.10115786e-06 1.12440625e-06 1.17670925e-06
      1.20321272e-06 1.11636507e-06 9.02836632e-07 6.33076695e-07
      4.16376650e-07 2.89399765e-07 1.88241899e-07 1.64214612e-07
      1.75635691e-07 2.78642489e-07 4.35749740e-07 4.83937868e-07
      5.03090007e-07 4.32060432e-07 2.35579094e-07 -9.78062005e-08
      -5.18295565e-07 -6.99144891e-07 -8.23387154e-07 -9.48812840e-07
      -1.04107664e-06 -1.06141897e-06 -1.03800426e-06 -9.97871439e-07
      -9.31119928e-07 -8.61630269e-07 -8.30136571e-07 -8.25190739e-07
      1.11926628e-08 -6.32932018e-09 -3.15464241e-08 -7.41137640e-08
      -1.29217867e-07 -2.00660025e-07 -2.56513431e-07 -2.63973732e-07
      -2.28106629e-07 -1.97815808e-07 -1.00653295e-07 1.00079120e-07
      4.18249414e-07 5.65122491e-07 6.44370402e-07 7.18668844e-07
      6.91545893e-07 7.17167438e-07 8.20191701e-07 9.37852178e-07
      9.36931940e-07 7.15063607e-07 5.10862435e-07 3.40073143e-07
      2.26244651e-07 1.72153648e-07 1.16098917e-07 5.15454595e-08
      3.76421241e-08 7.15088007e-08 5.81074104e-08 5.89847922e-08
      9.27869195e-08 2.64862820e-07 4.44444055e-07 4.46057186e-07
      4.38526143e-07 4.06833607e-07 3.36810331e-07 2.66810730e-07
      1.88093466e-07 7.92757007e-08 -2.63060400e-07 -5.46993761e-07
      -6.92507683e-07 -7.29549072e-07 -6.46678473e-07 -4.62285897e-07
      -2.97354745e-07 -1.77855455e-07 -8.47499635e-08 -5.22241272e-08
      -1.44661030e-07 -1.24198124e-07 -8.11838206e-08 -9.52740749e-08
      -1.90497374e-07 -3.76539077e-07 -6.22375808e-07 -8.40241682e-07
      -9.99762619e-07 -9.88465217e-07 -7.61462047e-07 -3.48176059e-07
      1.52716296e-07 5.76495381e-07 7.66671235e-07 7.25591235e-07
      5.69302415e-07 4.19831224e-07 3.68502839e-07 4.30130683e-07
      6.34978960e-07 6.78385391e-07 4.23837861e-07 -5.72221452e-08
      -4.06255168e-07 -6.44208001e-07 -7.97875316e-07 -8.88426882e-07
      -9.19550132e-07 -9.23235518e-07 -9.75309831e-07 -9.88905526e-07
      -9.74175350e-07 -1.00063471e-06 -1.30309218e-06 -1.40008774e-06
      -1.20542018e-06 -7.92133051e-07 -3.19418632e-07 5.09928100e-08
      3.05103669e-07 3.68133243e-07 2.14772584e-07 -7.92473145e-08
      -3.61568766e-07 -5.16897785e-07 -5.55221561e-07 -4.78198729e-07
      -3.39816211e-07 -2.04049726e-07 -9.21838463e-08 -5.99634049e-08
      -5.65581040e-08 -5.68660461e-08 -7.86217740e-08 -1.22356013e-07
      -2.15688871e-07 -3.72603068e-07 -5.98882650e-07 -8.18640046e-07
      -1.00335080e-06 -1.08109975e-06 -1.03728155e-06 -8.76225272e-07
      -6.21861091e-07 -3.06693750e-07 -1.59686149e-08 2.19830767e-07
      3.32254871e-07 3.61088127e-07 3.90933820e-07 5.27974066e-07
      6.85850182e-07 6.95366623e-07 3.94173412e-07 -1.30100162e-07
      -6.04520835e-07 -9.07148035e-07 -1.05300273e-06 -1.13773774e-06
      -1.21824201e-06 -1.27351166e-06 -1.36589040e-06 -1.49126231e-06
      -1.58739033e-06 -1.56948397e-06 -1.35404616e-06 -9.62155582e-07
      -4.68030322e-07 -2.66650204e-08 3.26921707e-07 4.98656277e-07
      4.69688388e-07 2.99707949e-07 1.08592808e-07 -6.15669791e-08
      -1.60779976e-07 -1.82652855e-07 -1.41444644e-07 -3.87045773e-08
      9.67753095e-08 2.18098876e-07 3.05001151e-07 3.32803779e-07
      8.17538080e-07 7.95023482e-07 7.37235951e-07 6.45008583e-07
      5.24864220e-07 4.17154979e-07 3.63841650e-07 1.99431057e-07
      -1.64223010e-07 -4.25196617e-07 -5.98491454e-07 -7.58621809e-07
      -9.75430567e-07 -1.00516831e-06 -7.99358816e-07 -4.20406678e-07
      -1.07510907e-08 2.15556611e-07 3.65536181e-07 2.66675215e-07
      3.01128949e-07 2.94012523e-07 -8.12153047e-08 -7.58204010e-07
      -1.49570212e-06 -2.03775380e-06 -1.94300424e-06 -1.79243500e-06
      -1.64578489e-06 -1.49826769e-06 -1.17166462e-06 -9.30090266e-07
      -7.97514701e-07 -6.29283534e-07 -2.80533555e-07 5.89083868e-07
      1.09132907e-06 1.08545112e-06 9.91846719e-07 7.29384396e-07
      2.93712930e-07 -1.52589692e-07 -5.04462946e-07 -6.66120457e-07
      -5.98393569e-07 -3.90124001e-07 -8.79529622e-08 3.07571753e-07
      6.90129923e-07 1.02293200e-06 1.26631755e-06 1.35635355e-06
      1.05574202e-07 9.81966011e-08 9.24960730e-08 1.41179584e-07
      2.16981292e-07 2.60586489e-07 2.33171718e-07 1.42564275e-07
      1.32246527e-07 2.24216720e-07 2.24665399e-07 1.62858697e-07
      1.41846115e-07 1.83418734e-07 2.67148693e-07 4.38309200e-07
      6.06781896e-07 6.91640196e-07 6.73661646e-07 5.82206383e-07
      5.83008671e-07 7.09312815e-07 8.45339684e-07 8.75379840e-07
      8.84699887e-07 9.09307744e-07 9.58708597e-07 1.04634887e-06
      1.15226101e-06 1.19946753e-06 1.18487378e-06 1.12543682e-06
      1.07801509e-06 1.01128137e-06 9.02626823e-07 8.51030848e-07
      8.41019130e-07 8.22007962e-07 7.43213036e-07 6.10924587e-07
      4.16213169e-07 2.77843071e-07 2.20259622e-07 1.53696561e-07
      -6.18353866e-08 -2.90027117e-07 -3.26274517e-07 -9.89880533e-08
      1.40204307e-07 3.32614093e-07 5.21771994e-07 5.84250301e-07
      1.42542063e-07 1.72759101e-07 1.55104942e-07 1.29235872e-07
      1.70494047e-07 1.88981460e-07 1.52660448e-07 1.04645068e-07
      5.82137112e-08 1.70396262e-07 2.30189514e-07 2.10445990e-07
      7.71330591e-08 4.08108072e-08 1.54830246e-07 3.51622845e-07
      5.25971359e-07 6.69411577e-07 7.05239927e-07 6.27440443e-07
      6.47647710e-07 7.17912485e-07 7.86553358e-07 8.17948660e-07
      8.94151583e-07 8.69647238e-07 8.52898552e-07 9.21628441e-07
      9.86117584e-07 1.04101855e-06 1.04018966e-06 1.04590799e-06
      1.03257730e-06 9.57299449e-07 8.64998015e-07 8.40332007e-07
      7.83036398e-07 7.68641087e-07 7.00997987e-07 6.23379719e-07
      4.35492609e-07 2.73388025e-07 2.32508484e-07 1.90608063e-07
      8.06391309e-09 -2.01333251e-07 -2.86680233e-07 -1.64632780e-07
      -1.46361820e-08 1.93579950e-07 4.71780197e-07 5.50266464e-07
      2.22577910e-07 2.21738262e-07 2.04687865e-07 1.78952590e-07
      1.35369120e-07 7.99295421e-08 2.29209700e-08 5.92372409e-08
      7.94116630e-08 1.00027080e-07 1.58881932e-07 1.76891689e-07
      5.34608517e-08 -2.83852515e-08 7.78943203e-08 2.19944141e-07
      3.33898583e-07 4.64775212e-07 5.71270334e-07 5.73697378e-07
      6.35057290e-07 6.50552238e-07 6.79067909e-07 7.72491831e-07
      8.67728261e-07 8.08588368e-07 7.37346340e-07 7.45730404e-07
      7.56990346e-07 7.95196001e-07 7.85894542e-07 7.91812226e-07
      8.28208272e-07 7.60356158e-07 7.37000335e-07 7.95270864e-07
      7.46838566e-07 6.99601060e-07 6.04614058e-07 5.48620903e-07
      4.24135266e-07 3.12806606e-07 2.70479802e-07 2.68695089e-07
      9.71774270e-08 -1.36994046e-07 -2.80778437e-07 -2.71236331e-07
      -1.55477281e-07 5.23966293e-08 3.64725906e-07 3.92100958e-07
      7.15878414e-08 5.59996280e-08 1.30639151e-07 1.52186971e-07
      7.16005317e-08 -1.29883313e-08 -1.95544789e-08 1.72929475e-08
      1.00518477e-07 7.01595084e-08 7.66886075e-08 1.22220683e-07
      4.18169890e-08 -4.81539875e-09 6.33295443e-08 1.11453808e-07
      1.67969390e-07 2.41464051e-07 3.55995525e-07 4.70376534e-07
      5.56502528e-07 5.79162247e-07 5.95327151e-07 6.96566076e-07
      7.75115552e-07 7.04908587e-07 6.49938386e-07 6.05005084e-07
      5.15918714e-07 5.35777701e-07 5.48795924e-07 4.80956658e-07
      4.74397808e-07 4.40836715e-07 4.73978560e-07 6.40457642e-07
      6.58009867e-07 6.24258917e-07 5.19924811e-07 4.43625936e-07
      3.54764666e-07 3.06052243e-07 3.07955048e-07 2.83136558e-07
      1.91861048e-07 -2.92029601e-08 -2.47978136e-07 -2.55872123e-07
      -1.46972113e-07 -1.82161095e-08 1.67358621e-07 1.45544931e-07
      2.96159214e-07 1.83241269e-07 1.71152266e-07 1.19785454e-07
      4.57534597e-08 -3.74537628e-08 -5.21617416e-10 3.60986796e-08
      7.08585262e-08 5.00233597e-08 7.34517371e-08 1.07954477e-07
      9.29550055e-08 1.11871465e-07 2.88252977e-08 2.27143584e-08
      7.87312047e-08 1.35111975e-07 1.85424952e-07 3.50409039e-07
      5.29400722e-07 6.46002434e-07 6.91111097e-07 7.50601259e-07
      7.98756162e-07 7.35446690e-07 6.41790677e-07 5.33446268e-07
      3.81967482e-07 4.04284833e-07 4.67561279e-07 2.86943958e-07
      1.46829947e-07 1.50641156e-07 2.26216329e-07 4.05381826e-07
      4.43809000e-07 4.46889771e-07 4.15287957e-07 3.77325534e-07
      3.40756372e-07 3.03616133e-07 3.20933452e-07 3.17717934e-07
      2.20802391e-07 4.27546709e-08 -1.42529274e-07 -1.32680810e-07
      -2.21786962e-08 -6.74289236e-10 3.32254260e-08 1.17765731e-09
      4.96396865e-07 3.69583120e-07 2.40765928e-07 1.74246892e-07
      7.55104139e-08 -2.18160601e-08 -1.13267147e-08 1.95229042e-08
      3.26341336e-08 4.46344366e-08 9.30228978e-08 9.59064792e-08
      1.27216197e-07 1.45340294e-07 2.01092227e-08 -2.30144508e-08
      1.05599431e-08 4.64233665e-08 4.16606341e-08 1.31651433e-07
      3.54117788e-07 6.27049644e-07 7.81400217e-07 7.89260696e-07
      8.06961680e-07 8.18100432e-07 7.28152088e-07 5.38412735e-07
      3.98263865e-07 4.49253662e-07 5.26763756e-07 3.20135484e-07
      3.59825805e-08 3.98277429e-08 1.06505496e-07 1.63147874e-07
      2.02633530e-07 1.85772805e-07 2.63405468e-07 3.53603582e-07
      3.71242322e-07 3.04287170e-07 3.24497790e-07 3.47723955e-07
      2.25916395e-07 1.35223573e-07 3.27866481e-08 -9.49450918e-09
      6.10288424e-08 8.58910028e-08 8.98613521e-08 9.69829372e-08
      5.66927042e-07 4.23568366e-07 2.05466137e-07 1.14236798e-07
      1.02073514e-07 6.89984461e-08 9.17369203e-09 -2.12079350e-08
      -1.37871226e-08 6.44958433e-08 1.10929491e-07 9.16936642e-08
      1.30952188e-07 1.57425461e-07 3.87220780e-08 -1.07063718e-08
      -4.81224376e-08 -9.01753410e-08 -8.51619930e-08 -2.38022970e-08
      1.03396246e-07 4.11663137e-07 6.70316751e-07 6.91999105e-07
      7.13379279e-07 7.28592170e-07 6.67951895e-07 5.09643428e-07
      4.28018922e-07 4.86664192e-07 5.75501304e-07 4.37542582e-07
      1.69431956e-07 8.84611353e-08 8.76415385e-08 1.97380547e-08
      5.79471582e-08 5.31490407e-08 1.50030829e-07 3.12542227e-07
      4.00183040e-07 3.00751964e-07 3.13032132e-07 3.29052369e-07
      1.98780540e-07 1.49655747e-07 1.48345421e-07 1.10762464e-07
      1.36901406e-07 1.57387248e-07 1.88472029e-07 2.30965625e-07
      2.98673967e-07 2.53917136e-07 1.86802012e-07 8.80287701e-08
      3.85855863e-08 -8.20728263e-10 -8.50572732e-08 -1.18101937e-07
      -5.15584979e-08 1.47043666e-08 7.45540945e-08 7.70565833e-08
      4.72778225e-08 8.08858971e-08 1.11322267e-08 -5.46678791e-08
      -1.32910671e-07 -1.85867549e-07 -1.30083080e-07 -6.60471571e-08
      -4.86488680e-08 1.99347241e-07 5.11492885e-07 5.79988068e-07
      5.87042280e-07 5.99640828e-07 5.61802494e-07 4.39556828e-07
      3.43810541e-07 3.83343519e-07 5.22290293e-07 4.97636904e-07
      3.58605377e-07 2.67554668e-07 1.42071528e-07 1.70507075e-08
      3.78884977e-08 2.01502850e-08 6.11073716e-08 2.16283425e-07
      3.67360286e-07 3.31299958e-07 2.85381049e-07 2.71087970e-07
      1.18694764e-07 8.93054022e-08 1.48155948e-07 2.00446109e-07
      2.68621250e-07 3.32654452e-07 3.92659018e-07 4.58550801e-07
      4.30155929e-08 8.95888306e-08 1.07427454e-07 9.29201605e-08
      6.87495039e-09 -1.13799132e-07 -1.83637809e-07 -2.15473932e-07
      -1.01439561e-07 -4.90655303e-08 3.48970497e-09 7.14197483e-08
      2.93998639e-08 -1.85303231e-10 -5.52562227e-08 -9.72624079e-08
      -1.46261627e-07 -1.81559187e-07 -7.53540235e-08 1.03886162e-08
      -2.76917476e-08 9.95763045e-08 2.86063568e-07 4.25401055e-07
      4.03826249e-07 4.50842919e-07 4.50324421e-07 3.31983273e-07
      2.27901296e-07 2.31901879e-07 3.14951819e-07 3.96825754e-07
      4.20982872e-07 4.00353969e-07 2.42162997e-07 8.52716155e-08
      3.28732384e-08 -4.53352875e-08 -9.00862247e-08 4.92144245e-08
      2.07509473e-07 3.02322917e-07 3.38114262e-07 3.03625598e-07
      1.72533760e-07 1.34436874e-07 1.50399600e-07 1.62955757e-07
      2.26705239e-07 3.27821908e-07 4.37966321e-07 5.31052422e-07
      -1.42110380e-07 -4.05221101e-08 7.47730695e-08 2.15465207e-07
      2.21956626e-07 5.35216778e-08 -9.10146341e-08 -1.02046677e-07
      -6.52321432e-08 -6.71102356e-08 -4.92663759e-08 6.59046790e-08
      9.39420914e-08 6.27122176e-08 7.97732458e-09 -4.37351986e-08
      -2.56867025e-08 -4.43837962e-08 2.92391285e-08 1.11301382e-07
      8.16626127e-08 1.02707105e-07 1.24183799e-07 2.76105141e-07
      2.59109129e-07 2.01845950e-07 2.53470745e-07 2.48843861e-07
      1.49062558e-07 9.74111387e-08 1.10347393e-07 1.75698673e-07
      2.28022103e-07 3.21131267e-07 2.80497176e-07 1.99921146e-07
      1.01480644e-07 -1.10470886e-07 -2.16111189e-07 -1.49608724e-07
      8.78649509e-09 1.40684676e-07 2.77252838e-07 3.77623650e-07
      4.17530828e-07 3.42395708e-07 2.54420627e-07 2.06124909e-07
      2.23209668e-07 2.33246510e-07 2.45366863e-07 2.98851205e-07
      -2.11604927e-07 -1.36396238e-07 1.11391081e-07 4.12013947e-07
      5.68656901e-07 3.80075562e-07 2.67070050e-07 2.32790555e-07
      9.52546344e-08 -6.54957688e-08 -1.16428033e-07 6.11993372e-08
      1.84525589e-07 1.74370072e-07 1.14757434e-07 1.13508058e-07
      1.41021332e-07 1.42655850e-07 1.26181263e-07 1.16929925e-07
      7.35908259e-08 4.69306158e-08 3.48512907e-09 1.45920581e-07
      2.29621506e-07 1.02742511e-07 9.41666585e-08 1.47691821e-07
      9.05603699e-08 6.08558963e-08 3.66876876e-08 5.32706288e-08
      1.10462913e-07 2.57417838e-07 3.32887055e-07 3.54224511e-07
      2.90733226e-07 6.84363499e-08 -1.24735379e-07 -1.35450179e-07
      -7.03427503e-08 4.88612955e-08 1.66198689e-07 3.11554857e-07
      4.53192115e-07 4.38845660e-07 3.93055757e-07 3.05428330e-07
      2.91148837e-07 2.82574348e-07 2.35473038e-07 2.36584583e-07
      -9.88894229e-08 -9.17697278e-08 9.38145419e-08 4.53924287e-07
      6.70879047e-07 6.83760959e-07 6.57492478e-07 6.35647893e-07
      3.82334434e-07 5.76254884e-08 -1.05779677e-07 2.75178405e-08
      2.75069567e-07 3.89837311e-07 2.95413543e-07 2.59074085e-07
      2.97610541e-07 3.11353091e-07 2.60567759e-07 5.20163113e-08
      -2.58463029e-08 -1.58055400e-08 -6.45498304e-08 1.18943371e-08
      1.12262690e-07 5.37077725e-08 6.66425848e-08 1.11616750e-07
      9.56032764e-08 1.04009644e-07 8.52926476e-08 5.96495653e-08
      1.82295381e-07 3.83441602e-07 3.58118740e-07 4.00363177e-07
      3.74532817e-07 3.61244304e-07 1.77202935e-07 7.92406496e-08
      2.14039311e-08 2.72769984e-08 1.47055118e-07 2.67786334e-07
      3.94190550e-07 4.90099637e-07 4.69655788e-07 3.74464094e-07
      3.18657612e-07 3.22726180e-07 2.81066917e-07 2.84115600e-07
      2.12707178e-07 1.08982434e-07 8.07449609e-08 2.80337417e-07
      4.57801008e-07 6.61483682e-07 8.02408863e-07 8.49145238e-07
      7.09979247e-07 4.59165449e-07 1.03581762e-07 -4.83444396e-08
      2.17091454e-07 5.13844782e-07 5.28783744e-07 5.05809339e-07
      4.98490522e-07 5.04807417e-07 4.47481966e-07 1.52284869e-07
      -6.02549193e-08 -6.59514683e-08 -1.11455094e-07 -1.20280461e-07
      -1.12302232e-07 -9.59380912e-08 -3.08052108e-08 5.50457102e-08
      9.29190733e-08 1.41554651e-07 1.76096151e-07 1.89220657e-07
      3.15795461e-07 5.13673683e-07 5.00073270e-07 5.35815104e-07
      5.03879448e-07 4.67249293e-07 3.58319568e-07 3.30499802e-07
      2.63487323e-07 2.01567531e-07 1.47761710e-07 2.65106024e-07
      3.55184483e-07 4.84682801e-07 5.34290791e-07 4.22232318e-07
      3.28062583e-07 3.37248963e-07 3.10585364e-07 2.53348048e-07
      4.75321684e-07 3.89634664e-07 2.43553558e-07 1.64071281e-07
      2.65803578e-07 5.48851915e-07 7.51726077e-07 8.43536782e-07
      8.14389182e-07 7.33282604e-07 4.74571721e-07 2.80408781e-08
      -5.16929042e-08 2.98464329e-07 5.07744687e-07 6.14634416e-07
      6.76596244e-07 7.28566363e-07 6.70213865e-07 3.29146587e-07
      -1.72957948e-09 -1.20778509e-07 -2.88522983e-07 -3.66066303e-07
      -3.61627713e-07 -2.99282533e-07 -1.93762531e-07 -5.66899026e-08
      7.88586796e-09 9.72234915e-08 2.01888142e-07 3.52294137e-07
      4.98094153e-07 6.78810522e-07 7.23788105e-07 7.57374721e-07
      7.21560298e-07 6.24089751e-07 4.82032760e-07 4.15073174e-07
      3.39616918e-07 3.74820360e-07 2.49953018e-07 3.41061963e-07
      4.04403153e-07 5.29099282e-07 6.47253842e-07 4.95360382e-07
      2.52917118e-07 2.59304954e-07 2.46878699e-07 1.45722794e-07
      5.58390923e-07 5.19801858e-07 3.95608339e-07 3.03020983e-07
      2.72414468e-07 4.81258382e-07 6.32390424e-07 7.18599267e-07
      7.70040117e-07 7.84063843e-07 5.83206429e-07 2.09535230e-07
      -1.17248170e-07 -6.16671301e-08 2.10209464e-07 4.38090410e-07
      6.23873973e-07 8.06977710e-07 7.83829307e-07 5.03294075e-07
      5.43525367e-08 -1.50112953e-07 -5.09595736e-07 -6.98090957e-07
      -6.68785447e-07 -5.10916152e-07 -3.64484748e-07 -2.08969098e-07
      -1.37130513e-07 -2.55534385e-08 1.11023468e-07 3.25812266e-07
      5.64549396e-07 7.54201722e-07 8.47326817e-07 8.96668723e-07
      8.66279947e-07 7.65386289e-07 6.00024407e-07 4.36428792e-07
      2.40703969e-07 2.69605295e-07 2.75817627e-07 2.36588846e-07
      3.08839930e-07 4.65255255e-07 5.92583433e-07 5.16298257e-07
      2.51466730e-07 1.06075461e-07 2.80829386e-08 -2.83955490e-08
      5.59954913e-07 5.86433828e-07 4.96001746e-07 3.88667473e-07
      3.49098087e-07 4.25448462e-07 4.60058772e-07 4.83820315e-07
      5.63197602e-07 6.81653717e-07 5.30954253e-07 2.69738933e-07
      7.95831951e-08 -1.36618041e-07 -9.08540230e-08 5.04973166e-08
      3.17076740e-07 6.06993524e-07 5.77189553e-07 2.97920337e-07
      -3.57947378e-08 -2.78078971e-07 -7.01969384e-07 -1.00632292e-06
      -9.46525006e-07 -7.08369896e-07 -4.79371352e-07 -3.57563607e-07
      -3.21862018e-07 -2.03157228e-07 -8.31096827e-08 8.81021691e-08
      3.52142166e-07 5.44081843e-07 6.94963717e-07 7.15161150e-07
      6.63147091e-07 6.52347467e-07 6.27025031e-07 4.14728476e-07
      1.23458562e-07 4.07662810e-08 1.82502333e-07 1.00350512e-07
      1.00809217e-07 3.00389985e-07 4.41578862e-07 4.19073132e-07
      2.45660431e-07 5.85052717e-08 -1.67298339e-07 -2.59972666e-07
      4.25082874e-07 5.09442032e-07 4.35163741e-07 3.39415578e-07
      3.01088789e-07 3.22770745e-07 3.36249201e-07 2.78226139e-07
      2.98190486e-07 4.49102970e-07 4.05201064e-07 2.53478760e-07
      2.27092428e-07 1.11605459e-07 -6.85013006e-08 -1.70526604e-07
      -1.62894604e-08 1.36232444e-07 1.20436823e-07 -6.85798227e-08
      -2.36094237e-07 -5.00761303e-07 -9.13137228e-07 -1.19126628e-06
      -1.08120923e-06 -8.82023869e-07 -6.20216724e-07 -4.38441589e-07
      -4.01384796e-07 -3.09513553e-07 -2.04726305e-07 -1.12577560e-07
      6.44490754e-08 2.42538306e-07 3.75632254e-07 3.42076788e-07
      2.61141878e-07 2.59217416e-07 3.02424922e-07 1.87630647e-07
      -4.92605601e-08 -1.33726772e-07 -3.01743031e-09 3.84364931e-08
      -6.74508200e-08 1.43211523e-07 3.06650577e-07 3.66090831e-07
      2.61926431e-07 1.30854204e-07 -1.74101572e-07 -3.95774947e-07
      1.77691078e-07 2.53176438e-07 2.62642232e-07 2.13884960e-07
      1.73787953e-07 1.78711474e-07 2.36660739e-07 1.77799720e-07
      1.49072420e-07 2.34684464e-07 3.10721191e-07 2.32807707e-07
      2.82889090e-07 3.10263431e-07 2.08087371e-07 1.48828052e-08
      -4.84689089e-08 -3.45061544e-08 -1.29098893e-07 -2.86650874e-07
      -3.79906908e-07 -6.47926299e-07 -1.00203624e-06 -1.07008998e-06
      -9.58460987e-07 -8.52058520e-07 -7.03851640e-07 -4.66217870e-07
      -4.14471231e-07 -3.18932024e-07 -2.08962760e-07 -1.33910447e-07
      -6.43293063e-08 3.90832398e-08 7.23791587e-08 3.40811468e-09
      -7.21427398e-08 -7.35639318e-08 -8.22236217e-08 -1.37827911e-07
      -2.17725145e-07 -2.54206157e-07 -1.71130523e-07 -2.25841603e-08
      -1.08147020e-07 8.23920630e-08 2.11150564e-07 3.22610020e-07
      2.80627120e-07 2.12222744e-07 -3.35869927e-08 -2.66506476e-07
      3.24188889e-08 5.54049180e-08 6.54741683e-08 1.09301929e-07
      8.21032842e-08 5.64223193e-08 5.71374308e-08 9.40027007e-08
      1.05029898e-07 1.19396432e-07 1.77778290e-07 1.69196895e-07
      2.07401868e-07 2.50863536e-07 3.51311428e-07 2.81800794e-07
      1.60163054e-07 3.02740233e-08 -4.80251856e-08 -2.15779579e-07
      -3.55424930e-07 -6.26428061e-07 -8.65632728e-07 -7.57577254e-07
      -5.99025839e-07 -6.14756914e-07 -5.66365088e-07 -3.72473806e-07
      -3.39555299e-07 -2.54831861e-07 -1.46713106e-07 -4.03452667e-08
      -1.39921796e-09 2.52963694e-08 -2.78852372e-08 -1.89864878e-07
      -2.77178401e-07 -2.18067896e-07 -2.88194855e-07 -3.11608545e-07
      -2.98652253e-07 -2.75346650e-07 -2.02939006e-07 -1.47807029e-07
      -1.64756742e-07 -7.42544302e-08 8.61034906e-08 2.38009989e-07
      2.02931048e-07 1.47784959e-07 -3.02140357e-08 -8.60778187e-08
      -5.18119236e-08 -9.88184965e-08 -7.79121763e-08 -7.62090391e-09
      2.48101948e-08 9.79717973e-10 -6.78961243e-08 -3.08826600e-08
      1.64347060e-08 1.85125071e-08 6.63026327e-08 8.68800711e-08
      7.70839961e-08 8.96437626e-08 2.70227787e-07 3.60799106e-07
      3.14577647e-07 1.11804809e-07 3.10275254e-08 -7.40790966e-08
      -1.98899272e-07 -4.21783625e-07 -5.68842893e-07 -4.57589067e-07
      -3.15014631e-07 -3.02189278e-07 -3.31775937e-07 -2.26873638e-07
      -1.76525617e-07 -1.17596414e-07 3.37041639e-09 7.55362493e-08
      8.71165611e-08 7.57886838e-08 -3.51470035e-08 -1.90301662e-07
      -2.75574422e-07 -2.42637071e-07 -3.00366366e-07 -2.92344055e-07
      -2.73261094e-07 -2.41107955e-07 -2.14938453e-07 -1.40454617e-07
      -1.03888894e-07 -6.40294573e-08 -2.58435744e-08 7.71134125e-08
      1.21965456e-07 2.90355171e-08 -6.30789430e-08 -4.56632598e-08
      -3.69676449e-08 -7.85011096e-08 -1.02644918e-07 -8.63654748e-08
      -9.50308490e-08 -1.61573553e-07 -1.41763735e-07 -1.18197072e-07
      -5.42462182e-08 -4.21584225e-08 -2.53497774e-08 5.81020956e-08
      7.38120818e-08 2.01705834e-08 1.43815697e-07 2.50042461e-07
      2.11004590e-07 1.29476504e-07 6.60058461e-08 1.84533189e-09
      -6.93894009e-08 -2.48116635e-07 -4.23034408e-07 -3.63715316e-07
      -2.03257756e-07 -1.27998902e-07 -5.23366381e-08 9.36117495e-09
      3.48081812e-08 8.15446839e-08 2.43853123e-07 2.65171821e-07
      2.47892274e-07 2.04635199e-07 1.04539048e-07 -6.54053167e-08
      -1.61980097e-07 -1.49468136e-07 -2.30182735e-07 -2.29990206e-07
      -1.97702605e-07 -1.43550977e-07 -1.18595665e-07 -1.69059415e-08
      4.43274573e-08 6.77448071e-08 4.40935466e-08 2.04354222e-09
      4.67285624e-08 1.91675937e-08 -3.69179638e-08 -4.03907769e-08
      -9.98097249e-08 -8.46111803e-08 -4.08540615e-08 -9.78535226e-08
      -1.69215838e-07 -2.33835749e-07 -2.50042632e-07 -2.31443067e-07
      -1.36771888e-07 -8.69705303e-08 -4.12478762e-08 7.44606794e-08
      1.33218549e-07 2.05743831e-08 2.63741882e-08 1.10733872e-07
      1.04548398e-07 1.48971552e-07 2.01367712e-07 1.63145501e-07
      9.90745086e-09 -1.41923550e-07 -3.52021772e-07 -3.83131663e-07
      -2.38514701e-07 -1.10551973e-07 5.51397115e-08 1.74538670e-07
      2.41795220e-07 3.01664699e-07 4.42613072e-07 4.49723842e-07
      4.28755811e-07 3.75594340e-07 2.83910765e-07 1.44860579e-07
      8.41341485e-09 -9.02348702e-08 -1.29218193e-07 -1.35297114e-07
      -9.25775794e-08 -1.12664411e-08 2.49753622e-08 1.14736004e-07
      1.52654721e-07 1.59574029e-07 9.55832178e-08 1.38400926e-08
      1.56605289e-08 1.78044768e-09 -3.33246710e-08 -1.02286002e-07
      -2.07657877e-07 -1.31811078e-07 -1.94930845e-08 -5.66018485e-08
      -1.19704495e-07 -1.92712420e-07 -2.42101407e-07 -2.65541104e-07
      -1.85252006e-07 -1.36788202e-07 -1.09148758e-07 1.90977136e-08
      1.39071958e-07 3.18099467e-08 -3.25989831e-08 2.86563502e-08
      9.55180468e-08 2.35406858e-07 3.67914822e-07 3.61044727e-07
      1.87254926e-07 1.36097489e-09 -1.65007876e-07 -2.66037375e-07
      -1.99483267e-07 -9.61963735e-08 7.01003344e-08 2.33392726e-07
      3.73176675e-07 4.79547737e-07 5.62443859e-07 6.05477965e-07
      5.62298226e-07 4.98174188e-07 4.08003928e-07 3.07134769e-07
      1.59827835e-07 -1.12358101e-09 -6.56523440e-08 -6.23466150e-08
      -7.76022233e-08 2.71754281e-08 1.30810847e-07 1.34238391e-07
      1.33688786e-07 1.70283272e-07 1.42014031e-07 5.57781306e-08
      2.40263525e-08 -2.24386927e-08 -7.36884473e-08 -9.25856440e-08
      -3.04084040e-07 -2.19696361e-07 -3.59486805e-08 4.90834147e-08
      4.03792155e-09 -7.23877207e-08 -1.35987506e-07 -1.96099634e-07
      -1.89236772e-07 -1.25640796e-07 -8.74134685e-08 2.66882938e-09
      1.26793651e-07 2.37093509e-08 1.14099112e-08 9.96780187e-08
      2.23060425e-07 4.06421151e-07 5.53825430e-07 5.81082134e-07
      4.05160790e-07 1.71910003e-07 2.81305237e-08 -8.95039562e-08
      -9.57438715e-08 -3.00672731e-08 8.11298619e-08 2.82852568e-07
      4.70053720e-07 5.48241871e-07 6.07423772e-07 6.72870442e-07
      6.06722267e-07 4.96938014e-07 4.09625443e-07 3.63568716e-07
      2.60562047e-07 7.86676608e-08 -1.86181008e-08 -4.95722468e-08
      -1.56473050e-07 -7.97801150e-08 1.09964645e-07 1.00072441e-07
      6.22755678e-08 1.44870683e-07 1.64859031e-07 1.03159309e-07
      3.59264689e-08 -6.51096315e-08 -1.27383018e-07 -1.23262524e-07
      -4.00420902e-07 -2.91142101e-07 -8.76524950e-08 7.43879056e-08
      9.87868916e-08 7.61272219e-08 3.03148084e-08 -8.52105799e-08
      -1.26030983e-07 -6.52196519e-08 -2.22443273e-08 4.30181082e-08
      1.26118351e-07 6.59830306e-08 1.58956595e-07 2.97293894e-07
      4.41147137e-07 5.89557544e-07 7.64398806e-07 8.22910579e-07
      6.89472074e-07 4.19791348e-07 2.01631067e-07 2.68572631e-08
      -4.68361172e-08 -2.44686120e-08 6.62034694e-08 2.56500954e-07
      4.97217400e-07 4.98295549e-07 5.58829583e-07 5.94015830e-07
      5.08291862e-07 4.24304062e-07 3.60051700e-07 3.48530278e-07
      3.09828010e-07 1.76212481e-07 1.64346670e-08 -9.01910440e-08
      -2.35288653e-07 -1.95147649e-07 -2.22441106e-08 1.58530469e-08
      -1.24700772e-09 1.37127998e-07 1.79002797e-07 1.49546622e-07
      6.95854325e-08 -4.13741361e-08 -1.39992466e-07 -1.25878756e-07
      -4.76665065e-07 -3.74144122e-07 -1.52938568e-07 5.20667207e-08
      1.27811774e-07 1.85503382e-07 2.02804983e-07 7.16507884e-08
      -3.31186030e-08 1.08916443e-09 8.74676243e-09 4.88173661e-08
      9.64994697e-08 4.99457187e-08 2.36844215e-07 4.58432226e-07
      6.36967968e-07 7.57156783e-07 8.79033394e-07 1.00346176e-06
      9.78328558e-07 7.06994683e-07 3.55571075e-07 8.79657165e-08
      -1.78023019e-08 -9.73043655e-08 1.73766912e-09 1.86364375e-07
      4.08773445e-07 4.74968260e-07 5.41885640e-07 5.14875467e-07
      4.61384815e-07 4.09569594e-07 3.04300244e-07 2.86470595e-07
      2.92850018e-07 2.53976907e-07 1.48423894e-07 1.69779177e-08
      -1.44112320e-07 -1.57921434e-07 -9.81853603e-08 -9.37418889e-08
      -7.47815392e-08 7.04287260e-08 1.96659187e-07 1.83552714e-07
      1.28916540e-07 3.50458720e-08 -7.18724351e-08 -1.12056824e-07
      -5.08918504e-07 -4.18196493e-07 -2.38614433e-07 -3.85508194e-08
      7.87482506e-08 2.11851741e-07 3.01533305e-07 1.76375124e-07
      5.12895753e-08 4.48157849e-08 -4.05743634e-08 -3.04643741e-08
      -8.22582962e-08 -9.44115399e-08 4.68838373e-08 2.58438092e-07
      4.62128014e-07 6.71888586e-07 8.77270963e-07 1.07684525e-06
      1.21882431e-06 9.87858812e-07 6.44413717e-07 3.42063629e-07
      1.05260874e-07 -7.34352454e-08 -3.80337077e-08 6.28157082e-08
      2.07682561e-07 4.15681626e-07 5.07161985e-07 4.07235348e-07
      4.18809918e-07 4.51505628e-07 4.45674289e-07 3.58260650e-07
      3.35675765e-07 3.27847488e-07 2.13711587e-07 9.54716128e-08
      -7.23298683e-08 -9.90354536e-08 -5.44185994e-08 -1.29918092e-07
      -1.38978905e-07 -3.82870837e-08 1.07302469e-07 1.84101879e-07
      1.62464730e-07 1.29499739e-07 4.30152056e-08 -3.99678370e-08
      -4.15258171e-07 -3.62001430e-07 -2.58559339e-07 -1.44884510e-07
      -3.92012005e-08 9.93777931e-08 2.41028999e-07 1.58963275e-07
      9.14508576e-08 7.71528903e-08 -5.99544379e-08 -1.85183794e-07
      -3.19841234e-07 -3.06552579e-07 -2.48348357e-07 -1.69160202e-07
      -4.63514160e-09 3.45150823e-07 6.57478779e-07 9.33463525e-07
      1.15531043e-06 1.14826980e-06 9.30786257e-07 6.62360947e-07
      3.40513111e-07 9.10877702e-08 5.38431379e-08 3.88998167e-08
      3.71752762e-08 2.20121734e-07 3.34947885e-07 1.82020784e-07
      1.84244513e-07 3.55585712e-07 4.58488984e-07 3.60919614e-07
      3.14878832e-07 3.18061524e-07 2.13684274e-07 6.50138858e-08
      -9.39508240e-08 -1.09204485e-07 -1.85213522e-09 -1.03192676e-07
      -1.74363947e-07 -1.21364053e-07 9.10335984e-09 1.24347821e-07
      1.59332572e-07 2.01634506e-07 1.95015190e-07 1.18386922e-07
      -2.21123543e-07 -2.08345739e-07 -1.88989702e-07 -1.71488310e-07
      -1.20463014e-07 4.27484409e-10 9.89400064e-08 8.16419359e-08
      8.80649083e-08 8.65708998e-08 -6.03148678e-08 -3.02170548e-07
      -4.85576834e-07 -5.01407101e-07 -5.47713228e-07 -6.42624173e-07
      -5.39778227e-07 -1.20944364e-07 2.90238916e-07 6.37292544e-07
      8.90321417e-07 9.98865062e-07 9.89119258e-07 8.73132535e-07
      5.85279793e-07 2.87527911e-07 1.59391092e-07 7.03265499e-08
      -2.45900686e-08 1.05489541e-07 1.14800393e-07 -1.09690355e-07
      -1.94308399e-07 -4.36789449e-09 1.59085360e-07 1.38212940e-07
      1.43482936e-07 1.86544625e-07 1.16258498e-07 -5.76878811e-09
      -1.20048185e-07 -1.23146037e-07 8.33097236e-09 -6.43121041e-08
      -1.82973920e-07 -1.62380474e-07 -2.82039121e-08 3.73342459e-08
      6.67978668e-08 1.93125416e-07 3.15211111e-07 3.01121986e-07
      -5.92589053e-08 -6.67939872e-08 -8.47790531e-08 -1.05673671e-07
      -1.03591375e-07 -3.69678936e-08 5.05798203e-09 2.86788211e-08
      9.93857796e-08 8.45580246e-08 -5.76998467e-08 -3.47730463e-07
      -5.12778115e-07 -4.74161368e-07 -5.03574427e-07 -7.85654095e-07
      -8.01048316e-07 -3.72956379e-07 8.26640942e-08 4.00928343e-07
      6.54806001e-07 8.43815087e-07 9.14359191e-07 8.51791071e-07
      6.26939539e-07 3.64066381e-07 1.93715508e-07 8.42731680e-08
      -4.12336476e-08 1.96386232e-08 -3.69114233e-08 -2.32052784e-07
      -3.91268969e-07 -3.68993852e-07 -3.54887078e-07 -4.17794041e-07
      -3.60421922e-07 -1.64390386e-07 -1.15476773e-07 -1.67576445e-07
      -2.03614007e-07 -1.59196333e-07 -8.45547703e-08 -5.76203902e-08
      -1.50878236e-07 -1.42282659e-07 -8.48850323e-09 3.29600098e-08
      1.02893134e-08 1.29946130e-07 3.01398501e-07 3.38389953e-07
      -4.30042597e-08 -3.59694177e-08 -3.64104196e-08 -4.61829295e-08
      -3.95655064e-08 -2.86271362e-09 9.56783808e-09 2.63182578e-08
      9.90415714e-08 8.31464746e-08 -6.61544277e-08 -3.60903584e-07
      -4.69176598e-07 -3.63072616e-07 -3.02883365e-07 -4.95519146e-07
      -6.16033503e-07 -3.54734453e-07 -1.76676895e-08 2.45855006e-07
      4.95249481e-07 7.83390931e-07 9.24438382e-07 8.61994067e-07
      6.20232242e-07 3.83825551e-07 2.05255660e-07 4.17194634e-08
      -7.60618235e-08 -1.03267539e-07 -2.02889424e-07 -2.86156620e-07
      -3.86172218e-07 -3.95803085e-07 -5.15924739e-07 -7.17599278e-07
      -7.35069193e-07 -5.45391742e-07 -4.10740881e-07 -3.53178109e-07
      -3.58895960e-07 -3.08223377e-07 -2.27409501e-07 -1.58400297e-07
      -1.36250435e-07 -7.08679622e-08 3.52764324e-08 9.25298593e-08
      2.96654203e-08 1.17774903e-07 2.64380787e-07 3.19694891e-07
      -1.47699396e-07 -1.11787877e-07 -1.07706065e-07 -1.05992676e-07
      -6.82911008e-08 -2.17449436e-08 -5.28831947e-08 -8.01887552e-08
      1.12474643e-08 2.04612913e-08 -1.27495298e-07 -3.09425786e-07
      -2.75100405e-07 -9.94469289e-08 -8.64823022e-08 -2.24150227e-07
      -2.02970156e-07 3.25985852e-08 1.91777204e-07 2.19336158e-07
      3.99368190e-07 7.81770780e-07 9.03855778e-07 7.95894096e-07
      5.77246283e-07 4.05869031e-07 2.20490151e-07 7.82293412e-08
      -8.79628246e-08 -2.06727520e-07 -3.48211501e-07 -3.54402403e-07
      -2.85220011e-07 -2.52351214e-07 -3.60967931e-07 -6.38912979e-07
      -7.66076084e-07 -7.25035875e-07 -6.70950044e-07 -5.39666360e-07
      -4.50519991e-07 -3.71775087e-07 -3.28936522e-07 -2.74095584e-07
      -1.69284107e-07 -6.35044515e-08 3.60567043e-08 1.26270294e-07
      1.26358415e-07 1.80589510e-07 2.58362036e-07 3.09075176e-07
      -3.33746613e-07 -2.88903152e-07 -2.84974305e-07 -2.85910488e-07
      -2.27873045e-07 -2.09400014e-07 -2.70563646e-07 -2.81936707e-07
      -2.05197068e-07 -1.64863977e-07 -2.75840790e-07 -3.26299840e-07
      -7.90865400e-08 2.52003304e-07 3.00088061e-07 1.08236343e-07
      1.06778167e-07 3.68221805e-07 5.56741497e-07 5.45341493e-07
      5.45510204e-07 7.30893419e-07 7.30814861e-07 5.50242646e-07
      3.45885269e-07 3.11718480e-07 1.74064184e-07 5.86854974e-08
      -3.97631617e-08 -1.83412681e-07 -3.09463701e-07 -3.47573348e-07
      -2.05727787e-07 -5.04098985e-08 -8.17717449e-08 -2.29903776e-07
      -3.50179164e-07 -4.34619750e-07 -5.88076261e-07 -5.76176603e-07
      -4.98460224e-07 -3.85362313e-07 -3.09114341e-07 -2.61012730e-07
      -1.49694401e-07 -6.42082512e-08 -1.72659564e-09 7.63570895e-08
      1.66496847e-07 2.65248161e-07 2.95686959e-07 3.09823179e-07
      -5.57076362e-07 -4.87343584e-07 -4.71184023e-07 -4.69589139e-07
      -3.86625544e-07 -3.97654077e-07 -4.94255971e-07 -5.05499486e-07
      -4.59785298e-07 -3.46797492e-07 -3.63583155e-07 -3.33482177e-07
      -3.11978567e-08 3.79261735e-07 5.91069636e-07 6.08910966e-07
      6.07742379e-07 6.55210897e-07 7.00212013e-07 7.92609001e-07
      7.90381137e-07 8.15282874e-07 5.54447979e-07 2.90120909e-07
      1.04811747e-07 1.13498963e-07 6.72507099e-08 2.77908931e-08
      -3.18094990e-08 -1.29431029e-07 -1.19328860e-07 -1.47930379e-07
      -9.12096780e-08 1.34416197e-07 2.09274873e-07 1.26604661e-07
      1.38310043e-07 9.83370967e-08 -1.06525697e-07 -2.88197896e-07
      -3.47503658e-07 -2.48981820e-07 -4.96466193e-08 -1.28377997e-09
      5.95989427e-08 9.96376173e-08 8.92837519e-08 9.00764690e-08
      1.53468207e-07 2.44579809e-07 2.66242779e-07 2.30231919e-07
      -6.34215894e-07 -5.59477314e-07 -5.38777954e-07 -5.60421313e-07
      -4.65533958e-07 -4.48779019e-07 -5.28186490e-07 -6.24767210e-07
      -6.66419396e-07 -5.66904532e-07 -4.37517571e-07 -2.73700493e-07
      3.81121756e-09 3.32887538e-07 6.54631492e-07 7.36617380e-07
      8.57798113e-07 8.83729911e-07 7.76504862e-07 7.22986158e-07
      8.36674758e-07 7.78158153e-07 4.90000275e-07 2.45127779e-07
      7.73625288e-08 -5.14004768e-08 -6.35617852e-08 6.51677823e-08
      1.88216767e-08 -9.75467529e-08 -6.34265405e-08 1.24115314e-08
      4.01250011e-09 2.43455702e-07 3.28954997e-07 2.34003849e-07
      2.57660304e-07 3.18066498e-07 3.04915346e-07 1.48910814e-07
      9.26510566e-08 2.13741004e-07 2.98984730e-07 3.12736802e-07
      2.73621595e-07 2.54900215e-07 2.13148212e-07 1.93532927e-07
      2.04323669e-07 2.32893100e-07 2.33770749e-07 1.25983007e-07
      -5.61389584e-07 -5.03901902e-07 -4.94348683e-07 -5.31615285e-07
      -4.97058465e-07 -4.49483736e-07 -4.54093225e-07 -5.33729974e-07
      -6.41870429e-07 -6.81123254e-07 -6.41318138e-07 -3.97414169e-07
      -1.59554183e-08 3.47134034e-07 6.27057887e-07 7.29710735e-07
      7.57704811e-07 8.87347994e-07 8.48086131e-07 6.39217603e-07
      5.65226685e-07 6.10922712e-07 4.99386772e-07 3.12356349e-07
      1.22284334e-07 -4.57637839e-08 -6.23034637e-08 1.09087630e-07
      1.01565718e-07 1.57894604e-08 -8.50828954e-08 -1.16081054e-07
      -1.00677461e-07 6.48177760e-08 2.09541113e-07 7.85494905e-08
      6.17530489e-08 1.15311288e-07 1.80064092e-07 2.08921207e-07
      1.80668749e-07 2.96013724e-07 3.88649795e-07 3.47482541e-07
      2.65894585e-07 1.91242179e-07 2.11928139e-07 2.16544024e-07
      2.04495748e-07 1.73390205e-07 1.80410154e-07 7.50226476e-08
      -4.14879509e-07 -3.76379290e-07 -4.23130558e-07 -5.06162223e-07
      -5.36655705e-07 -5.19688228e-07 -5.03417539e-07 -4.37421704e-07
      -3.98864103e-07 -4.77215110e-07 -6.01136719e-07 -5.24731888e-07
      -9.79616459e-08 3.98885305e-07 7.19188279e-07 6.99771135e-07
      5.33191383e-07 4.63005620e-07 5.35566642e-07 4.78123354e-07
      3.19089793e-07 2.85354957e-07 3.53294553e-07 2.29419186e-07
      4.30105516e-08 -2.02460484e-08 6.69106228e-08 1.11166159e-07
      1.79719621e-07 2.19362391e-07 5.13961176e-08 -2.04333205e-07
      -3.37143462e-07 -2.07669331e-07 -7.08719199e-08 -1.97613303e-07
      -2.77167544e-07 -1.92983990e-07 -7.53370415e-08 -4.68506514e-08
      -4.39933672e-08 3.80121179e-08 1.00207878e-07 1.39834043e-07
      1.23238436e-07 -9.19212262e-09 4.09259933e-08 1.07498828e-07
      -1.67962426e-08 -1.26395676e-07 -8.59085318e-08 -7.99487836e-08
      -2.15455842e-07 -2.15890779e-07 -3.44373490e-07 -4.49068608e-07
      -5.73834370e-07 -6.37126846e-07 -6.80724611e-07 -5.94911455e-07
      -3.30411268e-07 -2.14544329e-07 -3.28646138e-07 -4.18573023e-07
      -2.12416126e-07 2.06858502e-07 6.46889418e-07 7.58781653e-07
      5.13989448e-07 2.72221655e-07 1.29041965e-07 1.18114187e-07
      1.52458554e-07 1.23123925e-07 1.02313770e-07 7.12384534e-08
      -6.02247567e-08 -9.84785444e-08 -1.53785891e-08 1.66830390e-08
      1.49029660e-07 3.40954813e-07 2.82268019e-07 -1.04510050e-07
      -3.69754758e-07 -3.27609598e-07 -1.73745860e-07 -2.88115274e-07
      -3.97602804e-07 -3.05335789e-07 -1.64839392e-07 -8.08942531e-08
      -1.74241720e-07 -2.49223092e-07 -2.85626328e-07 -2.27324264e-07
      -1.76858393e-07 -1.89106757e-07 -9.99121212e-08 -1.11577172e-07
      -1.87256333e-07 -3.38600216e-07 -3.89467175e-07 -4.17459290e-07
      -2.56082274e-07 -3.30164283e-07 -3.79171013e-07 -3.97267371e-07
      -5.69464646e-07 -6.99884822e-07 -7.76339959e-07 -7.79350898e-07
      -5.59577643e-07 -2.69058546e-07 -1.27550919e-07 -1.66663483e-07
      -1.09814295e-07 1.02020557e-07 4.01080399e-07 5.47653769e-07
      4.99044688e-07 2.92504041e-07 9.21618550e-08 4.87148206e-08
      2.52282426e-08 2.02991028e-08 -2.91083113e-09 -5.19777643e-09
      -6.32468087e-08 -1.51412223e-07 -1.33097075e-07 -1.46703542e-07
      3.23660991e-08 3.24308076e-07 3.90940727e-07 -2.45175205e-08
      -2.79329299e-07 -2.40090685e-07 -1.14291275e-07 -1.67507238e-07
      -2.01702832e-07 -6.30101482e-08 4.84943889e-08 3.73085278e-08
      -9.61659765e-08 -2.73116456e-07 -4.09870722e-07 -3.92908419e-07
      -3.34332213e-07 -2.95956227e-07 -1.75412367e-07 -1.09886521e-07
      -2.31277298e-07 -3.61689985e-07 -4.15454537e-07 -5.42738519e-07
      -4.24785867e-07 -5.50379468e-07 -6.69968301e-07 -7.11738778e-07
      -7.74346290e-07 -7.85332702e-07 -8.14833868e-07 -8.95263668e-07
      -7.63769322e-07 -5.07474454e-07 -2.35528589e-07 -1.16081820e-08
      1.12721899e-07 2.32032662e-07 3.36790208e-07 3.79382385e-07
      4.04716985e-07 3.83347469e-07 2.85468673e-07 2.06981596e-07
      8.66488676e-08 -1.57127367e-09 -4.39045209e-08 -3.47150966e-08
      -1.04532560e-08 -1.37344870e-07 -2.42856828e-07 -2.90024502e-07
      -1.29321748e-07 1.23733471e-07 2.70270192e-07 6.55223857e-08
      -1.43007640e-07 -8.20979267e-08 3.74780988e-08 4.10927399e-08
      1.15986929e-07 3.09804989e-07 3.44488626e-07 1.30432952e-07
      -1.05248745e-07 -3.05052708e-07 -4.21804970e-07 -4.22143785e-07
      -3.53321013e-07 -3.24919966e-07 -2.38184526e-07 -1.52794073e-07
      -7.42932116e-08 -1.60898168e-07 -2.40621233e-07 -3.71047406e-07
      -5.08476830e-07 -6.92422873e-07 -9.07908429e-07 -1.03040111e-06
      -1.09686721e-06 -1.06180278e-06 -9.87943395e-07 -9.85246629e-07
      -9.37557559e-07 -7.02316015e-07 -3.64243704e-07 -2.28749766e-08
      2.28573796e-07 3.94006065e-07 4.32956597e-07 3.15427940e-07
      3.39803449e-07 4.20729350e-07 4.05441938e-07 3.09275663e-07
      1.33022425e-07 5.81017190e-08 -1.26268507e-08 -6.35478798e-08
      -2.70823399e-08 -7.83582621e-08 -2.44294569e-07 -3.37730796e-07
      -2.18524576e-07 -1.04556193e-07 1.90155216e-08 3.73036215e-08
      6.27280770e-08 -1.01275577e-09 2.83803225e-09 6.93905307e-08
      2.81962684e-07 5.38040752e-07 5.91033256e-07 2.57925990e-07
      -8.18543313e-08 -3.16061943e-07 -4.08864793e-07 -3.51874263e-07
      -3.40979739e-07 -4.05382423e-07 -4.16183696e-07 -4.34403432e-07
      -3.12840768e-07 -1.67449741e-07 -3.63143506e-08 -7.18141209e-08
      -3.42688338e-07 -5.68176290e-07 -9.09553023e-07 -1.16930858e-06
      -1.27590704e-06 -1.19949141e-06 -1.08957192e-06 -1.02367221e-06
      -9.80553864e-07 -8.62884860e-07 -5.40276801e-07 -1.53889815e-07
      1.63241907e-07 4.39074597e-07 5.46013609e-07 4.37398967e-07
      3.18415744e-07 3.43284682e-07 4.02789709e-07 3.27173780e-07
      1.21371457e-07 3.14833422e-08 -6.08086665e-08 -1.42706597e-07
      -9.50204395e-08 -1.02371068e-07 -2.38642258e-07 -3.29059446e-07
      -2.60753495e-07 -2.43259990e-07 -2.08814200e-07 -4.24958380e-08
      8.62698180e-09 -7.35668095e-08 -2.34091473e-07 -2.43022214e-07
      -3.33604211e-09 4.09876151e-07 6.41624410e-07 5.34666526e-07
      1.98384569e-07 -1.07546043e-07 -3.45587438e-07 -3.66210855e-07
      -3.20186189e-07 -3.64981446e-07 -5.46714034e-07 -7.30590500e-07
      -6.82359314e-07 -4.89104536e-07 -2.74368716e-07 -1.01505819e-07
      -1.20757988e-07 -3.23313373e-07 -7.21242543e-07 -1.03447962e-06
      -1.18479795e-06 -1.13433907e-06 -9.92450623e-07 -9.31841953e-07
      -8.77843320e-07 -7.22864741e-07 -5.38083725e-07 -2.77936891e-07
      -6.83806931e-08 2.24399827e-07 4.25805467e-07 4.15725140e-07
      3.04808651e-07 2.55339899e-07 3.07696723e-07 2.77615470e-07
      5.34771551e-08 -1.49020650e-07 -3.47524548e-07 -4.59091240e-07
      -4.69479289e-07 -4.17808167e-07 -4.40313414e-07 -4.53232332e-07
      -3.37373535e-07 -2.91317917e-07 -3.80749583e-07 -2.59474461e-07
      -1.50172781e-07 -1.93516769e-07 -3.96239471e-07 -5.18762533e-07
      -4.25420410e-07 -8.45436077e-08 2.23916729e-07 4.35945395e-07
      4.60100352e-07 3.09253949e-07 9.34581079e-10 -2.87057304e-07
      -4.37325355e-07 -4.86489398e-07 -6.30994634e-07 -8.59428155e-07
      -8.81734195e-07 -7.68926384e-07 -5.89395995e-07 -4.23559413e-07
      4.94262160e-08 -1.20976622e-07 -5.00945077e-07 -7.79815309e-07
      -8.83808525e-07 -8.85468182e-07 -8.19515776e-07 -7.42992142e-07
      -6.02778982e-07 -4.41950505e-07 -3.50980599e-07 -2.22028021e-07
      -7.54612728e-08 4.15614352e-08 1.02476903e-07 9.67858753e-08
      8.30903133e-08 -8.44814796e-09 -8.05809677e-08 -4.77077045e-08
      -2.31699104e-07 -4.84907048e-07 -6.98577935e-07 -9.26207690e-07
      -9.85249358e-07 -9.68219751e-07 -8.95766277e-07 -8.10138886e-07
      -6.65702146e-07 -4.97786857e-07 -5.31650585e-07 -5.70040754e-07
      -3.43725844e-07 -3.02434245e-07 -5.11470716e-07 -6.68202858e-07
      -6.41116912e-07 -5.05402795e-07 -3.11263648e-07 -1.27943991e-07
      8.36386675e-08 1.99274197e-07 1.55958475e-07 -1.48391814e-08
      -3.21765270e-07 -5.33278637e-07 -6.86779515e-07 -8.63187722e-07
      -8.48801051e-07 -7.27015561e-07 -5.66909307e-07 -3.65270978e-07
      -1.73589470e-07 -2.11807802e-07 -3.69656533e-07 -5.04470052e-07
      -5.54602991e-07 -6.08362882e-07 -5.94656399e-07 -5.25670316e-07
      -4.78756647e-07 -3.73453759e-07 -3.52149499e-07 -2.75963401e-07
      -1.66855372e-07 -8.09693912e-09 -5.93579195e-08 -1.69860513e-07
      -1.89719145e-07 -2.91941376e-07 -4.60218729e-07 -4.19388272e-07
      -5.32547517e-07 -7.46835383e-07 -1.00522197e-06 -1.28022384e-06
      -1.38285088e-06 -1.44814612e-06 -1.45187266e-06 -1.36456219e-06
      -1.13117426e-06 -9.15317571e-07 -8.66273012e-07 -8.59371994e-07
      -6.02717705e-07 -3.59944266e-07 -5.39042276e-07 -6.30142893e-07
      -5.09374047e-07 -4.97027997e-07 -5.45748208e-07 -5.59641933e-07
      -4.08435113e-07 -2.27723319e-07 -2.14259472e-07 -3.29933414e-07
      -4.75597972e-07 -5.87345255e-07 -6.98237670e-07 -7.83771839e-07
      -6.62606908e-07 -5.10531663e-07 -3.72254163e-07 -1.42343723e-07
      -4.65030269e-07 -4.28711189e-07 -5.14532644e-07 -4.42263826e-07
      -3.98453153e-07 -4.12284464e-07 -3.17582789e-07 -3.37493731e-07
      -4.21109718e-07 -4.66618445e-07 -4.94337883e-07 -4.07193028e-07
      -3.10227250e-07 -1.96936483e-07 -2.08573411e-07 -3.48252939e-07
      -3.87649976e-07 -4.46900657e-07 -5.84927193e-07 -6.36271466e-07
      -7.22317395e-07 -9.45355566e-07 -1.17312197e-06 -1.43749264e-06
      -1.55246244e-06 -1.71219813e-06 -1.79978099e-06 -1.74860099e-06
      -1.49451682e-06 -1.31032277e-06 -1.23039933e-06 -1.18533512e-06
      -9.00789189e-07 -5.30406112e-07 -4.86312672e-07 -4.40570773e-07
      -2.70044467e-07 -2.83696778e-07 -3.09281774e-07 -4.06524322e-07
      -4.33903466e-07 -3.43568246e-07 -3.90711278e-07 -6.09405106e-07
      -7.13925715e-07 -6.73488273e-07 -6.94219466e-07 -7.21924039e-07
      -5.44681541e-07 -3.78784705e-07 -2.90387419e-07 -1.85535924e-07
      -5.14466080e-07 -4.54133584e-07 -5.27070029e-07 -4.88768023e-07
      -4.00888837e-07 -3.30324326e-07 -1.48005569e-07 -1.36313446e-07
      -2.87216864e-07 -4.34055721e-07 -4.87198292e-07 -4.81504230e-07
      -4.19972565e-07 -2.86923068e-07 -3.49910721e-07 -4.45731615e-07
      -4.62482376e-07 -5.11865892e-07 -5.87155569e-07 -6.74091837e-07
      -7.47638694e-07 -8.91068566e-07 -1.14834359e-06 -1.33150763e-06
      -1.48264041e-06 -1.65424512e-06 -1.76506239e-06 -1.76685342e-06
      -1.62372658e-06 -1.48619722e-06 -1.36623282e-06 -1.26098826e-06
      -1.00528860e-06 -7.03792523e-07 -5.45352066e-07 -4.60977873e-07
      -1.65604860e-07 -2.13036799e-07 -2.03793846e-07 -1.02048048e-07
      -2.12731610e-09 -9.70988268e-08 -2.16289052e-07 -4.30616808e-07
      -5.35710626e-07 -5.77650098e-07 -6.66904270e-07 -7.11368443e-07
      -5.47369496e-07 -3.66574739e-07 -2.89431938e-07 -2.09846917e-07
      -4.58984630e-07 -4.77349090e-07 -5.25330620e-07 -4.64535020e-07
      -3.94512085e-07 -2.84574412e-07 -1.48597167e-07 -2.38484379e-08
      -1.11382619e-07 -2.69862397e-07 -3.11275812e-07 -3.56920509e-07
      -3.92829349e-07 -3.04545352e-07 -4.01894852e-07 -4.62962419e-07
      -5.13507587e-07 -6.13778866e-07 -6.99419729e-07 -7.37597134e-07
      -7.73578392e-07 -7.17991213e-07 -9.86107011e-07 -1.11114662e-06
      -1.22266317e-06 -1.31894012e-06 -1.40930558e-06 -1.47586275e-06
      -1.44926616e-06 -1.32050855e-06 -1.18238313e-06 -1.08440440e-06
      -8.23266134e-07 -6.70467500e-07 -6.28268538e-07 -6.90615025e-07
      -4.94087544e-07 -2.34332646e-07 -2.03224005e-07 -1.76405109e-07
      1.64864229e-08 2.83974401e-07 1.08568884e-07 -3.90613053e-08
      -1.43658568e-07 -3.75551934e-07 -5.98265785e-07 -7.43022952e-07
      -7.30752959e-07 -5.70045358e-07 -3.47461878e-07 -1.89970862e-07
      -4.15486795e-07 -3.92100219e-07 -3.79180875e-07 -3.56056688e-07
      -3.39167798e-07 -2.10387796e-07 -8.91945859e-08 4.97914634e-08
      1.45817660e-08 -1.78331490e-07 -2.21343967e-07 -1.84584152e-07
      -2.80900451e-07 -2.92529279e-07 -3.00819778e-07 -3.78383533e-07
      -5.33340881e-07 -6.74579724e-07 -7.81160509e-07 -7.14458906e-07
      -6.93468053e-07 -7.79159734e-07 -8.57621330e-07 -9.02230454e-07
      -9.55766154e-07 -9.92799869e-07 -1.04017374e-06 -1.08166682e-06
      -1.09416828e-06 -9.79429956e-07 -9.01105466e-07 -9.90421540e-07
      -8.52431867e-07 -5.81589404e-07 -5.35093989e-07 -7.05826722e-07
      -6.76925936e-07 -4.94141830e-07 -4.78644210e-07 -4.36503910e-07
      -1.49692610e-07 2.39137620e-07 2.13385107e-07 3.90894428e-08
      -5.67073997e-08 -2.89228637e-07 -5.74263481e-07 -8.57762416e-07
      -9.74711043e-07 -8.92055709e-07 -6.81877111e-07 -4.94758524e-07
      -3.12574031e-07 -2.95169173e-07 -2.38308346e-07 -1.50442460e-07
      -1.44300031e-07 -8.07056253e-08 6.30009893e-08 1.28586692e-07
      4.23555448e-08 -1.29988081e-07 -1.72258964e-07 -2.28355375e-07
      -3.60142764e-07 -3.71804305e-07 -2.50273615e-07 -2.02065110e-07
      -4.21274507e-07 -6.14786700e-07 -6.88598050e-07 -5.96589246e-07
      -5.44218551e-07 -7.54744917e-07 -8.35781464e-07 -7.49444496e-07
      -7.78164349e-07 -7.89966805e-07 -7.44987858e-07 -8.01173428e-07
      -8.19238380e-07 -7.22642369e-07 -7.59333318e-07 -9.23209825e-07
      -8.54966345e-07 -6.22848972e-07 -6.37832215e-07 -7.61693911e-07
      -7.64630158e-07 -5.70429165e-07 -5.24208758e-07 -5.12406302e-07
      -2.63281265e-07 1.42364263e-08 -9.17242318e-08 -2.16146660e-07
      -2.04292661e-07 -2.95298605e-07 -5.25491487e-07 -8.32536784e-07
      -9.74133513e-07 -1.07492644e-06 -9.97217853e-07 -8.61377600e-07
      -2.84299745e-07 -3.27929627e-07 -2.58440139e-07 -9.55327835e-08
      -5.81718895e-09 7.27421465e-08 1.70627814e-07 1.06474900e-07
      -5.32405160e-08 -2.28873958e-07 -2.96065679e-07 -3.49357094e-07
      -5.12201780e-07 -5.57774911e-07 -4.16329783e-07 -2.46372366e-07
      -3.19826171e-07 -4.84179282e-07 -5.12669942e-07 -4.91695573e-07
      -5.14721364e-07 -6.83433655e-07 -8.16588738e-07 -7.33878096e-07
      -6.73248906e-07 -6.94296489e-07 -7.20733851e-07 -7.43043017e-07
      -7.00562111e-07 -6.14961095e-07 -6.24940640e-07 -7.68415759e-07
      -7.13461020e-07 -6.03762089e-07 -7.19299237e-07 -8.33943488e-07
      -8.94147490e-07 -7.03092212e-07 -4.29866589e-07 -3.41329383e-07
      -2.13711360e-07 -1.96964436e-07 -4.11485672e-07 -5.08851258e-07
      -4.16451940e-07 -3.87799446e-07 -5.47296565e-07 -7.85365103e-07
      -8.83474058e-07 -1.03236152e-06 -1.09109760e-06 -1.05209301e-06
      -3.55562065e-07 -4.72705608e-07 -4.14706193e-07 -2.31302280e-07
      -6.93281805e-08 1.06492571e-07 2.52599762e-07 1.74609653e-07
      -6.15484268e-08 -2.83161995e-07 -3.89360650e-07 -4.97461656e-07
      -7.04133186e-07 -7.49966375e-07 -5.92664833e-07 -3.81486387e-07
      -3.66601142e-07 -4.12446070e-07 -4.22774008e-07 -5.20408946e-07
      -5.43586452e-07 -6.88096804e-07 -7.94360346e-07 -7.50695676e-07
      -6.64967956e-07 -6.87934346e-07 -7.71049542e-07 -7.87798228e-07
      -7.27246004e-07 -6.83703149e-07 -6.79813070e-07 -6.54453061e-07
      -5.84125928e-07 -5.36183506e-07 -6.74196031e-07 -7.42055988e-07
      -8.05680372e-07 -7.38206779e-07 -5.06902268e-07 -2.97929518e-07
      -1.82315816e-07 -1.79757194e-07 -4.02815886e-07 -5.24328527e-07
      -4.83212091e-07 -4.58624271e-07 -5.78353479e-07 -7.63254377e-07
      -8.24590757e-07 -9.74012210e-07 -1.07325059e-06 -1.08677966e-06
      1.03050063e-07 5.94037566e-08 -2.22807750e-09 -4.19004067e-08
      -5.65974423e-09 6.14461868e-08 2.51228549e-08 -8.33771381e-08
      -4.83124261e-08 -3.21332827e-08 -4.14769303e-08 4.55955842e-08
      1.13711032e-07 8.20332460e-08 6.86158046e-08 7.98117981e-08
      1.27153697e-07 2.17824663e-07 2.08052427e-07 1.64513338e-07
      1.49117113e-07 8.79883970e-08 7.04852567e-08 1.25807603e-07
      1.39975654e-07 1.14483520e-07 8.95696104e-08 4.98368173e-08
      9.27480137e-09 7.12626047e-08 1.88187144e-07 2.46130185e-07
      2.04671295e-07 2.08253226e-07 1.80058336e-07 1.33344130e-07
      1.23252846e-07 1.65932960e-07 1.78733245e-07 1.01846972e-07
      2.15490257e-08 -8.50842241e-09 -2.20857199e-08 -1.71639662e-08
      -1.79654336e-08 2.95805940e-08 6.10500734e-08 5.44421717e-08
      7.43490745e-08 9.91502489e-08 1.32023573e-07 1.69245141e-07
      2.56595403e-08 4.09461265e-08 1.45577435e-08 -2.09770228e-08
      -2.02317683e-08 1.87114377e-08 8.13739334e-08 4.12411758e-08
      -3.54698955e-08 -1.54952655e-08 -3.15168371e-08 -5.64607703e-08
      3.90201116e-08 5.63425679e-08 5.37957590e-08 5.62800224e-08
      6.96074665e-08 1.71964814e-07 2.58963723e-07 1.60170387e-07
      1.02280175e-07 1.06173744e-07 9.08787925e-08 9.83312134e-08
      1.30610374e-07 1.29937845e-07 1.31082842e-07 1.19060381e-07
      6.47191740e-08 3.05139807e-08 8.87134561e-08 2.23682292e-07
      2.58877492e-07 1.77844171e-07 1.38108760e-07 1.13743539e-07
      1.00695857e-07 9.47032461e-08 1.22993967e-07 1.25363854e-07
      4.80101754e-08 -3.20210418e-08 -3.32453141e-08 -2.24262013e-08
      -4.34516885e-08 -3.09946273e-08 2.52328913e-08 4.25605862e-08
      3.72063802e-08 6.23539478e-08 9.77110872e-08 1.29092982e-07
      -5.41331389e-08 -1.66407741e-08 -2.86353004e-08 -5.10991107e-08
      -4.72051802e-08 8.16713897e-09 5.34998534e-08 7.80306877e-08
      3.96801916e-08 1.49358819e-08 3.04696286e-08 -1.45768908e-08
      -2.87370288e-08 3.81828746e-09 2.27298003e-09 1.59537166e-08
      1.99792627e-08 6.60021229e-08 2.03860708e-07 2.34543407e-07
      9.02821427e-08 2.32330191e-08 7.41702024e-08 9.10054538e-08
      9.45915701e-08 1.11958101e-07 1.24693415e-07 1.52269052e-07
      1.41148647e-07 7.91464814e-08 6.12019448e-08 1.26423842e-07
      2.31437042e-07 2.24078136e-07 1.22496260e-07 8.76324151e-08
      8.77916406e-08 1.00197134e-07 9.03342467e-08 1.03119284e-07
      1.05192342e-07 2.55136570e-08 -5.66365728e-08 -1.12719771e-08
      -1.98012113e-08 -6.13419004e-08 -4.06529210e-08 -2.13985096e-09
      4.48909310e-09 -3.77552256e-09 3.62926791e-08 8.23316100e-08
      -7.39402637e-08 -7.88008521e-08 -6.27992236e-08 -7.10769470e-08
      -7.51601803e-08 -3.67842432e-08 1.67701319e-08 5.15682039e-08
      7.07789098e-08 6.58506636e-08 6.35063557e-08 5.71499648e-08
      2.36443718e-08 2.02288284e-08 -3.96755588e-08 -7.59785266e-08
      -4.79653153e-08 -4.76567408e-08 5.67282434e-08 2.13534733e-07
      1.84276018e-07 4.66183714e-09 -3.94782020e-08 3.76434528e-08
      6.67898306e-08 5.66079201e-08 7.07112449e-08 1.07062796e-07
      1.53115494e-07 1.23969897e-07 8.17616908e-08 7.99576583e-08
      1.30469928e-07 2.08714113e-07 1.80582916e-07 7.92918087e-08
      6.12163973e-08 9.79167041e-08 1.14927673e-07 9.87392141e-08
      9.55239017e-08 9.22485413e-08 2.42959821e-08 -7.46222284e-09
      1.50507056e-08 -2.30617250e-08 -5.44940733e-08 -2.46240788e-08
      4.24096358e-09 -4.76411799e-08 -3.30200507e-08 1.98987760e-08
      -2.69010023e-08 -8.62265637e-08 -9.83503483e-08 -9.03644306e-08
      -1.10354414e-07 -9.19560037e-08 -3.76841918e-08 -7.76394712e-11
      4.14855172e-08 8.29149158e-08 8.87950904e-08 7.61872840e-08
      7.79396672e-08 7.36457224e-08 4.58778260e-08 -8.92004053e-08
      -1.61736352e-07 -1.35473854e-07 -1.06421474e-07 3.85086985e-08
      1.78324015e-07 8.63995027e-08 -5.23527390e-08 -6.33436485e-08
      6.47017240e-09 1.99689509e-08 2.74269247e-08 3.24429372e-08
      9.35704350e-08 1.39147303e-07 9.90897888e-08 7.55418128e-08
      7.10632904e-08 1.10740714e-07 1.66303195e-07 1.32417625e-07
      5.54543078e-08 6.75371084e-08 1.26852271e-07 1.33238856e-07
      1.09926333e-07 7.80362939e-08 9.65216245e-08 7.91807153e-08
      5.70470462e-08 2.77281025e-08 -1.06019149e-08 -2.44272389e-08
      2.37551951e-08 -2.46045695e-09 -5.52159420e-08 -4.47191901e-08
      -4.08560652e-08 -6.45148432e-08 -1.09291975e-07 -1.05094308e-07
      -8.93341081e-08 -8.57158469e-08 -6.88078003e-08 -6.00931500e-08
      -2.22139604e-08 2.98527567e-08 6.62821478e-08 7.27491241e-08
      8.24782447e-08 1.02715070e-07 1.06300554e-07 -1.18951595e-08
      -1.69412360e-07 -2.42491183e-07 -2.25717116e-07 -1.57024104e-07
      -7.03163483e-09 8.61240039e-08 -6.41295550e-09 -6.83071448e-08
      -6.32099031e-08 -2.79059105e-08 3.84426740e-10 1.30898634e-08
      2.28557404e-08 1.03432257e-07 1.43134940e-07 1.00490929e-07
      7.44128741e-08 5.67340628e-08 9.20876460e-08 1.14207083e-07
      8.00980331e-08 4.05536689e-08 7.69422428e-08 1.45215481e-07
      1.41723717e-07 1.09566507e-07 1.17646579e-07 1.37165316e-07
      1.43876733e-07 1.24763815e-07 7.78585090e-08 1.22984378e-08
      -2.16266072e-09 3.34720909e-08 -8.15143419e-09 -6.32122479e-08
      -1.03995625e-07 -9.19886531e-08 -1.30477247e-07 -1.25962060e-07
      -7.58987255e-08 -2.34994761e-08 -1.00117603e-08 -7.03709730e-08
      -8.16882277e-08 -1.64354521e-08 2.35298057e-08 5.57199371e-08
      5.92497891e-08 9.03615387e-08 1.43681390e-07 6.64701147e-08
      -1.00154779e-07 -2.01894693e-07 -2.59939156e-07 -2.67578457e-07
      -1.85015395e-07 -4.15608277e-08 1.00791526e-08 -4.03011136e-08
      -5.99089347e-08 -5.33088276e-08 -2.69463136e-08 1.48354822e-08
      1.29332189e-08 4.53867344e-08 1.46964453e-07 1.58586587e-07
      9.43439034e-08 8.95671945e-08 9.08748561e-08 9.78699433e-08
      9.10228266e-08 5.82813904e-08 4.04208791e-08 8.23716562e-08
      1.27826084e-07 1.67639243e-07 1.80273190e-07 1.66717314e-07
      2.09638529e-07 2.22276327e-07 1.69816033e-07 8.75461552e-08
      4.32534142e-09 1.24942581e-08 1.94178948e-08 -2.57804054e-08
      -2.22162413e-07 -1.00097886e-07 -1.01469738e-07 -1.46686631e-07
      -7.72157946e-08 2.06363886e-08 8.47131716e-08 4.10700913e-08
      -7.37461789e-08 -4.82080864e-08 1.51088901e-08 6.08065989e-08
      7.76931230e-08 8.96929464e-08 1.73307001e-07 2.04176473e-07
      2.11122657e-08 -1.05835142e-07 -1.56451122e-07 -1.82634253e-07
      -1.66272031e-07 -6.27800105e-08 1.17078711e-08 4.45225323e-09
      -2.53575045e-08 5.97014616e-09 6.42752784e-09 1.71157684e-08
      5.14536787e-08 5.45368728e-08 1.35441269e-07 2.12471349e-07
      1.63558738e-07 1.01988732e-07 1.08888550e-07 1.19587170e-07
      1.02876989e-07 8.01725406e-08 4.35909620e-08 4.43612080e-08
      1.03162321e-07 1.53177695e-07 2.17919876e-07 2.36380274e-07
      2.08927773e-07 2.60603258e-07 2.40494558e-07 1.48480979e-07
      8.51845172e-08 4.68779753e-08 2.12704805e-08 -1.25287354e-08
      -3.16109634e-07 -1.66649741e-07 -7.03235656e-08 -6.57391794e-08
      -3.48111335e-08 4.40558914e-08 1.13352726e-07 1.45313891e-07
      3.90123027e-08 -3.45805233e-08 2.95177145e-08 8.77094806e-08
      1.00705556e-07 1.23337244e-07 1.74384184e-07 2.54299493e-07
