<?xml version="1.0"?>
<opencv_storage>
<my_svm type_id="opencv-ml-svm">
  <svm_type>C_SVC</svm_type>
  <kernel><type>LINEAR</type></kernel>
  <C>1.</C>
  <term_criteria><epsilon>2.2204460492503131e-16</epsilon>
    <iterations>1000000</iterations></term_criteria>
  <var_all>108160</var_all>
  <var_count>108160</var_count>
  <class_count>2</class_count>
  <class_labels type_id="opencv-matrix">
    <rows>1</rows>
    <cols>2</cols>
    <dt>i</dt>
    <data>
      0 1</data></class_labels>
  <sv_total>1</sv_total>
  <support_vectors>
    <_>
      -5.14033263e-06 -5.10129803e-06 -5.03686488e-06 -4.85056853e-06
      -4.56476755e-06 -4.09508402e-06 -3.62749824e-06 -3.16557089e-06
      -2.98250529e-06 -2.97199244e-06 -2.92601453e-06 -3.00154943e-06
      -3.18397520e-06 -3.52943675e-06 -3.88111903e-06 -3.78528080e-06
      -3.49025572e-06 -2.97388988e-06 -2.45377396e-06 -2.15092950e-06
      -2.09596647e-06 -2.24946871e-06 -2.41931434e-06 -2.77489585e-06
      -3.27354360e-06 -3.72827026e-06 -3.94531207e-06 -4.01732768e-06
      -3.80834172e-06 -3.57024419e-06 -3.39263988e-06 -3.21646053e-06
      -3.02188960e-06 -3.06929564e-06 -3.47787477e-06 -4.15650720e-06
      -4.95159975e-06 -5.36473090e-06 -5.43453871e-06 -5.18094703e-06
      -4.52762606e-06 -3.40833367e-06 -2.18391006e-06 -1.03975071e-06
      2.79107070e-07 1.50820915e-06 2.78470611e-06 3.44729551e-06
      3.62530227e-06 3.35270784e-06 3.54534654e-06 3.65080587e-06
      1.54030522e-06 1.52766177e-06 1.48640856e-06 1.52144696e-06
      1.57582315e-06 1.62715799e-06 1.59110004e-06 1.35149799e-06
      9.64700007e-07 3.80222019e-07 -1.48154427e-07 -5.53929226e-07
      -9.75699322e-07 -1.25553686e-06 -1.28830789e-06 -9.94630682e-07
      -5.40357632e-07 -8.59573746e-09 4.73019639e-07 7.94325445e-07
      8.92390517e-07 7.81056713e-07 5.58212434e-07 2.70005785e-07
      2.48171705e-08 -1.26758565e-07 -1.98967925e-07 -2.24319464e-07
      -1.59350478e-07 -7.84872114e-08 -4.93480599e-08 -7.21140907e-08
      -1.55227369e-07 -2.79442474e-07 -4.28903064e-07 -6.13896361e-07
      -8.36573577e-07 -1.07018013e-06 -1.32189712e-06 -1.57754141e-06
      -1.63661286e-06 -1.68673171e-06 -1.60737386e-06 -1.19332765e-06
      -5.84952090e-07 9.70708385e-08 6.84798124e-07 1.15764294e-06
      1.54280565e-06 1.83506313e-06 1.91122353e-06 1.93314827e-06
      3.27611292e-06 3.26806730e-06 3.23922950e-06 3.31275032e-06
      3.30903276e-06 3.22549135e-06 3.09811185e-06 2.77763706e-06
      2.42120882e-06 1.90013850e-06 1.40407872e-06 1.07515302e-06
      9.27035160e-07 1.03511434e-06 1.39107362e-06 1.95626058e-06
      2.59452895e-06 3.18105049e-06 3.53435939e-06 3.58116654e-06
      3.31180627e-06 2.75453908e-06 2.18074388e-06 1.67972235e-06
      1.31080139e-06 1.10597261e-06 9.79535571e-07 9.05641400e-07
      8.51646462e-07 8.29030967e-07 8.66409323e-07 9.90294893e-07
      1.27278588e-06 1.87387479e-06 2.76985929e-06 3.56764508e-06
      4.03856575e-06 4.07807011e-06 3.70920020e-06 2.97321571e-06
      2.11201518e-06 1.44930902e-06 1.15309638e-06 1.21614710e-06
      1.40360044e-06 1.69172120e-06 2.00787144e-06 1.94760514e-06
      1.54945508e-06 1.18120511e-06 9.12108362e-07 8.49438152e-07
      4.87191528e-07 3.86524107e-07 1.05967786e-07 -3.22154762e-07
      -9.49391506e-07 -1.95420216e-06 -2.68996951e-06 -3.20932554e-06
      -3.54776557e-06 -3.75450600e-06 -3.70286830e-06 -3.46349816e-06
      -3.03611068e-06 -2.16690250e-06 -9.42363158e-07 3.80356880e-07
      1.53663996e-06 2.32721254e-06 2.67573660e-06 2.17313573e-06
      1.52759310e-06 7.11637824e-07 5.58354891e-08 -1.69435410e-07
      -3.21897033e-07 -5.62624905e-07 -8.43169005e-07 -1.17202296e-06
      -1.46157731e-06 -1.53047370e-06 -1.10326346e-06 -2.75838829e-07
      8.03513785e-07 1.86807199e-06 2.87195212e-06 3.31254387e-06
      3.19088235e-06 2.62773301e-06 1.70321380e-06 4.31777579e-07
      -7.09403878e-07 -8.07252377e-07 -3.84123325e-07 4.58115352e-07
      1.50709809e-06 2.42547299e-06 2.90857588e-06 3.01921909e-06
      2.74841250e-06 2.31938475e-06 1.91637901e-06 1.78497885e-06
      -1.37215284e-06 -1.43544719e-06 -1.55927614e-06 -1.57418867e-06
      -2.52473296e-06 -3.64485686e-06 -4.53200528e-06 -5.40448627e-06
      -6.29102897e-06 -7.01438148e-06 -7.20226080e-06 -6.71852058e-06
      -5.89509091e-06 -4.79408709e-06 -3.63101594e-06 -2.67775704e-06
      -1.99916371e-06 -1.59240187e-06 -1.23340658e-06 -7.15850035e-07
      -5.12992386e-08 -4.72255621e-08 -1.61508694e-07 -9.82265789e-08
      8.72453114e-08 1.77573952e-07 1.97130689e-07 1.00976656e-07
      -5.33441344e-08 -1.56677118e-07 -1.42249831e-07 -1.03667595e-07
      6.25112975e-08 1.57333787e-07 -3.51833962e-09 1.25117012e-07
      4.98177677e-09 -6.72317412e-07 -1.67719509e-06 -2.61721175e-06
      -3.09986694e-06 -3.19558308e-06 -2.98976101e-06 -2.42345550e-06
      -1.51803533e-06 -6.23982999e-07 -1.34429555e-07 1.22598266e-07
      1.58358446e-08 -2.13063416e-07 -4.04452550e-07 -4.81163056e-07
      -1.05388654e-06 -1.14581280e-06 -1.29332273e-06 -1.92313087e-06
      -3.04870900e-06 -3.79087601e-06 -4.58918657e-06 -5.31923888e-06
      -5.83326027e-06 -6.14095779e-06 -6.19239745e-06 -6.01709780e-06
      -5.59446971e-06 -4.84112979e-06 -4.00287809e-06 -3.44126033e-06
      -3.12987004e-06 -2.98386522e-06 -1.76322760e-06 -5.10933802e-08
      1.04806600e-06 1.32488606e-06 6.95285280e-07 7.36466603e-08
      -2.74896678e-07 -4.90999582e-07 -7.84667805e-07 -1.13694614e-06
      -1.54080044e-06 -1.97415056e-06 -2.11503379e-06 -1.85983595e-06
      -1.37336906e-06 -1.14534373e-06 -5.84443342e-07 1.17616047e-07
      5.21551215e-07 4.80973995e-07 4.15773229e-07 2.52775664e-07
      3.55992427e-08 8.69413626e-08 3.96478470e-07 7.90032516e-07
      1.08860615e-06 1.09482028e-06 7.95643700e-07 1.93725555e-07
      -6.22437199e-07 -1.38995392e-06 -1.90257867e-06 -2.07958942e-06
      -7.82142763e-07 -8.63342848e-07 -1.32610842e-06 -2.32158573e-06
      -3.42707449e-06 -4.59699595e-06 -5.59180080e-06 -5.99732221e-06
      -5.72849331e-06 -5.15319698e-06 -4.47150842e-06 -3.84260920e-06
      -3.36978610e-06 -3.19354263e-06 -3.19665764e-06 -3.13757937e-06
      -2.91595211e-06 -2.12819464e-06 -8.29274768e-07 8.30205693e-07
      2.05522201e-06 2.83767554e-06 2.57156807e-06 2.09477048e-06
      1.62576657e-06 1.27363671e-06 9.81291578e-07 6.33618981e-07
      7.43209583e-08 -5.07872869e-07 -9.30515796e-07 -9.30621184e-07
      -4.89574859e-07 -1.11040201e-07 6.29477768e-08 6.59210684e-07
      1.37361883e-06 1.83895952e-06 2.14017064e-06 2.64256869e-06
      3.25244605e-06 3.66687937e-06 3.71587544e-06 3.31558408e-06
      2.54304996e-06 1.50523431e-06 6.85453813e-07 -2.19319205e-07
      -1.33345873e-06 -2.29269131e-06 -2.96673147e-06 -3.20957975e-06
      2.99028699e-07 2.06256118e-07 -1.79577128e-07 -1.00302771e-06
      -2.05100810e-06 -2.89679360e-06 -3.22810001e-06 -2.85352667e-06
      -1.87658543e-06 -6.49683670e-07 3.29098611e-07 8.40377822e-07
      7.22863092e-07 4.65878252e-08 -1.19883430e-06 -2.29297484e-06
      -2.60130082e-06 -1.91630147e-06 -6.07093170e-07 8.66766641e-07
      1.92404332e-06 2.38465350e-06 2.69826774e-06 2.56777275e-06
      2.11124120e-06 1.65299718e-06 1.35870425e-06 1.16444801e-06
      1.23660607e-06 1.36095957e-06 1.52181326e-06 1.55413363e-06
      1.25720192e-06 1.33662979e-06 1.27561964e-06 8.30944657e-07
      5.80988512e-07 2.52763869e-07 -4.08965732e-08 -7.28265306e-08
      3.61526311e-08 -3.27592353e-09 -1.58253457e-07 -4.51006855e-07
      -9.62937293e-07 -1.89107482e-06 -2.47765865e-06 -2.98213263e-06
      -3.68082306e-06 -4.31926583e-06 -4.74133458e-06 -4.88406886e-06
      -9.34454249e-07 -8.59735394e-07 -7.82132531e-07 -8.34921650e-07
      -7.98895258e-07 -5.99553758e-08 7.64868958e-07 1.29752118e-06
      1.85799229e-06 2.16132958e-06 2.00840464e-06 1.71035526e-06
      9.60429134e-07 -4.36454002e-07 -2.16144781e-06 -3.68908013e-06
      -4.43308909e-06 -4.27820623e-06 -3.25221981e-06 -1.87512808e-06
      -2.73344540e-07 8.18209230e-07 9.99018539e-07 9.37474113e-07
      8.66318658e-07 7.51630637e-07 7.67807649e-07 9.74469685e-07
      1.31055401e-06 1.60264426e-06 1.74618208e-06 1.63239702e-06
      1.13006422e-06 3.93801400e-07 -2.15544787e-07 -6.64730180e-07
      -1.08482402e-06 -1.53364260e-06 -1.99248734e-06 -2.51736719e-06
      -3.11211011e-06 -3.83137240e-06 -4.70034411e-06 -5.55059523e-06
      -5.83649535e-06 -5.71288865e-06 -5.44234626e-06 -4.98170584e-06
      -4.04658567e-06 -2.78281959e-06 -1.88508000e-06 -1.61237858e-06
      -1.79459869e-06 -1.61693072e-06 -1.17139678e-06 -5.19781452e-07
      2.49160115e-09 2.62397055e-08 -6.41131066e-07 -1.77081790e-06
      -3.15976945e-06 -4.63831930e-06 -5.96843302e-06 -7.15361239e-06
      -7.86855344e-06 -8.30849604e-06 -8.49273511e-06 -8.23612845e-06
      -7.75703120e-06 -6.99954853e-06 -5.53273776e-06 -3.72160343e-06
      -2.27658438e-06 -1.20186837e-06 -5.40115252e-07 -2.62586980e-07
      -1.63017404e-07 -1.16393466e-07 -1.26922217e-07 -1.56551607e-07
      -2.80943084e-07 -4.88842034e-07 -6.29200372e-07 -7.17648390e-07
      -9.91882871e-07 -1.33634171e-06 -1.63043580e-06 -1.76167157e-06
      -1.91343042e-06 -2.31212289e-06 -2.95139739e-06 -3.83525503e-06
      -4.89488730e-06 -5.57789326e-06 -6.10049256e-06 -6.28570660e-06
      -5.92551351e-06 -4.86228373e-06 -3.74436991e-06 -2.85599845e-06
      -2.37632435e-06 -1.84828070e-06 -1.17548473e-06 -9.77834929e-07
      1.93942401e-06 1.94250265e-06 2.15627665e-06 2.54416523e-06
      2.46694140e-06 1.83134239e-06 7.30954298e-07 -4.89054230e-07
      -1.80503719e-06 -3.51301514e-06 -4.78579022e-06 -5.80209326e-06
      -6.31658349e-06 -6.26204155e-06 -5.94336097e-06 -5.42926045e-06
      -4.79316577e-06 -4.15420300e-06 -3.17327340e-06 -1.90315404e-06
      -1.34947993e-06 -9.33005083e-07 -3.34692686e-07 3.29824502e-07
      9.64324045e-07 1.34959214e-06 1.49564414e-06 1.40071472e-06
      1.10872543e-06 6.19312914e-07 -3.91901693e-08 -8.01541603e-07
      -1.48605272e-06 -2.10418443e-06 -2.60942215e-06 -3.28265105e-06
      -4.39079213e-06 -5.29483532e-06 -5.51976382e-06 -4.81553525e-06
      -4.05480660e-06 -3.17281115e-06 -2.20994798e-06 -1.43130228e-06
      -7.77996945e-07 -3.26102145e-09 5.41568397e-07 9.52808080e-07
      1.22855886e-06 1.52868017e-06 1.69081579e-06 1.72479554e-06
      4.24246127e-06 4.12336294e-06 3.75780428e-06 3.26881491e-06
      2.98709870e-06 3.34800166e-06 3.61524985e-06 3.63542108e-06
      3.18496836e-06 1.97774557e-06 2.54523542e-07 -1.38674238e-06
      -2.55600071e-06 -2.90394246e-06 -2.56676640e-06 -1.80618429e-06
      -9.31242823e-07 -1.99983560e-07 4.44152334e-07 1.32373248e-06
      1.48348488e-06 1.08756956e-06 1.22859240e-06 1.63030074e-06
      2.08152801e-06 2.42162378e-06 2.66050620e-06 2.52683390e-06
      2.25441454e-06 1.88759873e-06 1.28439331e-06 4.64357441e-07
      -2.31015960e-07 -1.00484056e-06 -1.79221217e-06 -3.00546549e-06
      -4.08503274e-06 -4.79146775e-06 -5.43405122e-06 -5.91462185e-06
      -5.75300828e-06 -4.65780795e-06 -3.47399305e-06 -2.33195192e-06
      -1.19302013e-06 -2.93166892e-07 7.24124334e-07 1.78985749e-06
      1.98224893e-06 2.33873061e-06 3.06069956e-06 3.29605291e-06
      3.85220619e-06 3.75331138e-06 2.66606708e-06 1.99599390e-06
      3.31770525e-06 4.46650165e-06 5.07287496e-06 4.92156278e-06
      4.23759911e-06 3.37575329e-06 2.22690210e-06 1.28843851e-06
      5.65025118e-07 1.61410753e-07 -4.30895959e-08 -5.40358602e-09
      2.38271966e-07 6.86491035e-07 1.02919239e-06 1.12616806e-06
      1.15312048e-06 9.47920228e-07 1.09063024e-06 1.49826815e-06
      1.56707301e-06 1.44168155e-06 1.37424934e-06 1.36160827e-06
      1.35993014e-06 1.23163989e-06 1.14690374e-06 1.23103098e-06
      1.25794577e-06 1.26743987e-06 6.67273866e-07 -8.95643211e-07
      -2.49637628e-06 -3.99088003e-06 -5.17478384e-06 -5.73348643e-06
      -5.50254663e-06 -4.49759773e-06 -2.97964925e-06 -1.47980109e-06
      -4.79775224e-07 -1.68766775e-07 3.95836821e-07 1.74174340e-06
      3.06347442e-06 4.00094450e-06 4.71123303e-06 4.97399878e-06
      4.75072375e-06 4.67119798e-06 4.24406107e-06 4.17279807e-06
      4.50884772e-06 4.72992770e-06 3.63672029e-06 1.66354380e-06
      -6.52792025e-08 -1.31680429e-06 -2.44739499e-06 -2.86596355e-06
      -2.67807218e-06 -2.05500942e-06 -1.28724002e-06 -4.69627594e-07
      1.21911270e-07 2.93495418e-07 3.47982962e-07 7.24929237e-07
      7.92903165e-07 9.13064468e-07 1.25176803e-06 1.17557079e-06
      1.16257831e-06 1.10392364e-06 8.97894097e-07 8.07092022e-07
      6.14527210e-07 4.55013520e-07 5.00449232e-07 5.19129287e-07
      3.96202267e-07 4.28688878e-07 4.01304334e-07 -1.11348385e-07
      -1.27404223e-06 -3.08494259e-06 -4.82910491e-06 -6.15255749e-06
      -6.58876615e-06 -6.02097498e-06 -5.10590917e-06 -4.17226875e-06
      -3.45590070e-06 -2.71477393e-06 -7.73430259e-07 1.64449136e-06
      3.74394790e-06 5.24703228e-06 6.06245567e-06 6.40769395e-06
      4.74056105e-06 4.79115579e-06 4.94339793e-06 5.00828128e-06
      4.38971210e-06 3.50404775e-06 2.13392900e-06 7.49159994e-07
      -3.92425562e-07 -9.89404043e-07 -1.15808382e-06 -9.36984691e-07
      -7.61970171e-07 -8.98340602e-07 -1.17508296e-06 -1.45595288e-06
      -1.59592219e-06 -1.22230381e-06 -7.92057506e-07 -1.94063702e-07
      1.14219276e-07 4.01083810e-07 8.17263469e-07 9.25665177e-07
      8.39557629e-07 7.56540544e-07 8.09370874e-07 8.04375304e-07
      8.71515738e-07 1.09684504e-06 1.25131260e-06 1.52715359e-06
      1.53547137e-06 1.25031124e-06 5.63978915e-07 -3.22691562e-07
      -1.42419810e-06 -2.41148314e-06 -3.36058747e-06 -4.33148716e-06
      -4.82798032e-06 -4.76014611e-06 -4.60692945e-06 -4.73360524e-06
      -5.21487982e-06 -5.14299245e-06 -3.34700417e-06 -5.13819543e-07
      2.55175814e-06 4.55912550e-06 5.38509130e-06 5.64966876e-06
      3.50429809e-06 3.54320946e-06 3.76198454e-06 3.97952726e-06
      3.62667765e-06 2.97708903e-06 2.17498928e-06 1.25460201e-06
      9.74122713e-07 1.22415838e-06 1.46847253e-06 1.61283594e-06
      1.55423652e-06 1.13224246e-06 6.27005193e-07 3.49244885e-07
      4.22483083e-07 7.19240745e-07 1.41267788e-06 2.19021581e-06
      3.02115586e-06 3.38988048e-06 2.95680411e-06 2.19434401e-06
      1.39850772e-06 7.68245968e-07 5.97065650e-07 6.42831367e-07
      9.30916030e-07 1.24812641e-06 1.72410989e-06 2.24012706e-06
      2.50452308e-06 2.57631405e-06 2.53289568e-06 2.52543009e-06
      2.86347336e-06 2.91062474e-06 3.14856948e-06 3.74412161e-06
      4.01276384e-06 3.93365190e-06 3.51073572e-06 2.93776748e-06
      1.82884821e-06 1.03519983e-06 1.04720107e-06 1.63134973e-06
      2.03975992e-06 1.75082153e-06 1.24974974e-06 1.15204170e-06
      1.43888656e-06 1.33222056e-06 1.21248002e-06 1.01847263e-06
      7.27714280e-07 2.54638422e-07 5.51017969e-08 -4.75047472e-07
      -1.56435715e-06 -2.21316736e-06 -2.18693390e-06 -2.25194708e-06
      -2.53572512e-06 -3.00720649e-06 -3.31442948e-06 -3.16441310e-06
      -2.21384880e-06 -1.04372452e-06 1.15037784e-08 6.13260909e-07
      6.35729691e-07 3.52428685e-07 2.05422481e-07 1.92420856e-07
      1.05195504e-07 -8.51844106e-08 -2.23402012e-07 -2.25390451e-07
      -1.72984187e-07 -1.12835060e-07 -2.86969488e-08 -1.54276506e-07
      -3.93035663e-07 -7.37927962e-07 -1.28370471e-06 -1.94601671e-06
      -2.14498573e-06 -1.89645164e-06 -1.01024648e-06 3.39432148e-07
      2.02605997e-06 3.51851054e-06 4.25517874e-06 4.52834729e-06
      4.45021897e-06 3.70355315e-06 2.26783436e-06 9.67983738e-07
      7.66359207e-08 -1.33327978e-06 -2.24835912e-06 -2.58709451e-06
      -5.38352424e-07 -6.44032582e-07 -8.70468227e-07 -1.17834486e-06
      -1.61312505e-06 -1.89950777e-06 -1.41981013e-06 -4.57597906e-07
      9.60048965e-07 2.02003048e-06 2.73428759e-06 3.61494654e-06
      4.43782164e-06 4.73561386e-06 5.11129656e-06 5.97655617e-06
      6.30877503e-06 5.39042276e-06 4.28614931e-06 3.15537227e-06
      2.23691632e-06 1.44156161e-06 8.44678368e-07 6.00783892e-07
      5.34101218e-07 4.78532058e-07 3.62828160e-07 2.30949794e-07
      9.44080796e-08 6.91271751e-08 -2.26773800e-08 -9.30438659e-08
      -9.83534809e-10 1.04048020e-07 1.63615269e-07 -4.42608865e-07
      -1.49960863e-06 -2.32257958e-06 -3.02969738e-06 -3.73877515e-06
      -4.33494779e-06 -4.78210222e-06 -5.21325501e-06 -5.65494884e-06
      -5.69188478e-06 -5.44129671e-06 -5.15733836e-06 -4.34706863e-06
      -3.48908475e-06 -3.43327042e-06 -3.61987736e-06 -3.69226359e-06
      -1.57367367e-06 -1.38064797e-06 -7.54176597e-07 2.94329681e-07
      1.42747376e-06 2.45232036e-06 3.38073028e-06 3.58543002e-06
      3.35529239e-06 3.13665237e-06 3.40941415e-06 4.02812429e-06
      4.69485212e-06 4.88269325e-06 4.24468863e-06 3.20783420e-06
      2.21477944e-06 1.47434855e-06 1.05306003e-06 8.25837162e-07
      8.83429834e-07 9.85275165e-07 1.03563104e-06 9.68423365e-07
      8.11083112e-07 6.20190121e-07 4.40658340e-07 3.06133529e-07
      2.52764920e-07 3.05100542e-07 4.09551461e-07 6.31836201e-07
      1.02037825e-06 1.61383525e-06 2.42240503e-06 3.30195098e-06
      3.95461620e-06 4.21399136e-06 3.83983161e-06 3.09789425e-06
      1.88153660e-06 4.61944637e-07 -2.16538851e-07 -3.40925595e-07
      1.22674336e-07 5.30018781e-07 8.58367741e-07 1.03518005e-06
      8.72269425e-07 7.74464809e-07 6.49032813e-07 5.99440398e-07
      -2.82255229e-07 -2.88841221e-07 -2.78199053e-07 -2.63769664e-07
      -1.78563141e-07 7.87928034e-09 6.99349485e-08 6.49505481e-08
      6.40390354e-08 1.38602971e-07 1.92837348e-07 2.51154006e-07
      3.36022254e-07 3.24279767e-07 2.98985071e-07 3.74444909e-07
      5.35163906e-07 7.74623800e-07 1.16305478e-06 1.58719808e-06
      1.84305691e-06 1.91731533e-06 1.81105520e-06 1.47696142e-06
      1.08421125e-06 6.61525291e-07 3.70747102e-07 2.28694830e-07
      3.06929337e-07 5.60098215e-07 8.83538121e-07 1.15260411e-06
      1.31099546e-06 1.38900259e-06 1.41608291e-06 1.43269540e-06
      1.64908977e-06 2.41954285e-06 3.47660011e-06 4.32378465e-06
      4.92593608e-06 5.55618908e-06 6.12370468e-06 6.53722236e-06
      7.01658155e-06 7.43923056e-06 7.58489978e-06 7.46694286e-06
      7.11124358e-06 6.61479453e-06 6.28186581e-06 6.14594865e-06
      3.35262513e-07 2.58245365e-07 -3.22329186e-08 -4.83354654e-07
      -6.19392722e-07 -3.92609110e-07 -1.49868491e-08 4.86344902e-07
      8.95438177e-07 1.11347038e-06 1.14839270e-06 1.20717800e-06
      1.20353400e-06 1.08106383e-06 8.30410499e-07 5.42853968e-07
      4.02682986e-07 4.74880693e-07 7.00997077e-07 1.05967445e-06
      1.45905096e-06 1.78758887e-06 1.98409498e-06 1.99143051e-06
      1.86188652e-06 1.63304480e-06 1.36564540e-06 1.13868532e-06
      1.01745070e-06 1.04316621e-06 1.16789954e-06 1.36698304e-06
      1.52039377e-06 1.53520409e-06 1.38871553e-06 1.03212608e-06
      4.65149014e-07 -1.90666810e-07 -7.07392644e-07 -7.42630903e-07
      -2.06342960e-07 4.37887849e-07 1.07275548e-06 1.64165408e-06
      2.19663184e-06 2.77088338e-06 3.45136232e-06 4.23788788e-06
      4.95627091e-06 5.48988828e-06 5.78862137e-06 5.89765705e-06
      9.44026795e-08 1.75401638e-07 4.67284252e-07 9.43191822e-07
      1.54344002e-06 2.03033051e-06 2.21706728e-06 2.25210647e-06
      2.08412530e-06 1.78817993e-06 1.30959756e-06 6.66631990e-07
      -1.28545580e-07 -9.10207689e-07 -1.56082149e-06 -1.80034624e-06
      -1.77755453e-06 -1.61360242e-06 -1.33821857e-06 -1.02411889e-06
      -6.61316335e-07 -2.78047537e-07 1.02098468e-07 4.19109938e-07
      6.56043483e-07 8.72707744e-07 9.41634482e-07 9.61755291e-07
      8.20065964e-07 6.05683397e-07 4.89976003e-07 5.73470629e-07
      8.35467176e-07 1.06958692e-06 1.24237249e-06 1.30470335e-06
      1.18555045e-06 8.58536453e-07 4.09658441e-07 -5.31146815e-09
      -1.40705964e-07 -2.08858623e-07 -3.45979998e-07 -5.56964039e-07
      -8.61877879e-07 -1.03818866e-06 -8.34117145e-07 -1.57723932e-07
      5.61164427e-07 1.15661931e-06 1.48893707e-06 1.59721992e-06
      -1.28878094e-06 -1.31116178e-06 -1.32401146e-06 -1.28022134e-06
      -1.20123570e-06 -1.12812381e-06 -1.09258815e-06 -1.11251438e-06
      -1.20569007e-06 -1.28842100e-06 -1.24163023e-06 -1.16538638e-06
      -1.07697235e-06 -9.73565875e-07 -8.18644423e-07 -6.59664977e-07
      -5.71445241e-07 -6.61489480e-07 -8.52598305e-07 -1.13809972e-06
      -1.46911054e-06 -1.72522346e-06 -1.90750688e-06 -1.97540908e-06
      -1.83269583e-06 -1.62943809e-06 -1.37060465e-06 -1.13859448e-06
      -9.89932801e-07 -9.33569879e-07 -9.51059633e-07 -1.03382513e-06
      -1.06472282e-06 -9.57876864e-07 -7.55347230e-07 -4.72725816e-07
      -2.25479653e-07 -5.58288704e-08 1.26858126e-07 4.21670279e-07
      8.33880051e-07 1.17580441e-06 1.32101036e-06 1.18531830e-06
      7.23244170e-07 1.50344505e-07 -3.02441890e-07 -5.83005260e-07
      -7.87000488e-07 -8.88988609e-07 -9.22684194e-07 -9.31250099e-07
      -1.19311881e-06 -1.24315011e-06 -1.41586133e-06 -1.62663480e-06
      -1.80006430e-06 -1.93140795e-06 -2.01855460e-06 -2.05618653e-06
      -1.94788277e-06 -1.59411400e-06 -9.76512297e-07 -2.04228840e-07
      5.38249935e-07 1.02281558e-06 1.23918983e-06 1.30835269e-06
      1.21739754e-06 1.06784842e-06 9.27916233e-07 6.99182067e-07
      3.00394078e-07 -2.17236504e-07 -7.87972510e-07 -1.35534935e-06
      -1.89773334e-06 -2.33701871e-06 -2.48071478e-06 -2.51666233e-06
      -2.37890868e-06 -2.07381231e-06 -1.70600731e-06 -1.35807875e-06
      -1.02306581e-06 -7.00143858e-07 -4.38562438e-07 -2.34265300e-07
      -8.31299545e-08 4.58301592e-08 1.66560028e-07 2.77113315e-07
      4.86130489e-07 7.01794249e-07 9.39862275e-07 1.02380795e-06
      8.91681736e-07 5.87518059e-07 7.06989169e-08 -4.49297232e-07
      -8.27982205e-07 -1.11319298e-06 -1.28211832e-06 -1.33001413e-06
      1.54865643e-06 1.50034646e-06 1.36591859e-06 1.11193845e-06
      7.10394659e-07 2.70610258e-07 -8.83562308e-08 -3.03995250e-07
      -2.70221108e-07 -1.88605132e-08 3.59879181e-07 8.59990053e-07
      1.28631655e-06 1.57767488e-06 1.74663444e-06 1.76190395e-06
      1.63401046e-06 1.54943507e-06 1.43479986e-06 1.19460901e-06
      8.54682412e-07 4.10043810e-07 -4.00267908e-08 -3.87956959e-07
      -6.75811123e-07 -8.64678952e-07 -1.00327043e-06 -1.14440468e-06
      -1.19829201e-06 -1.24748817e-06 -1.34209643e-06 -1.33981462e-06
      -1.20828486e-06 -1.00556645e-06 -7.64752428e-07 -5.99552493e-07
      -5.48447986e-07 -5.27561212e-07 -5.27985605e-07 -5.60266301e-07
      -5.47981756e-07 -5.00034105e-07 -3.32648654e-07 -1.82684417e-07
      -4.13651620e-08 1.21465106e-07 1.69655181e-07 8.16068777e-08
      -7.96602251e-08 -3.16644417e-07 -5.18953357e-07 -6.13838722e-07
      3.56368872e-07 3.61368421e-07 4.07055921e-07 4.43421243e-07
      4.66225714e-07 5.68398150e-07 8.08952052e-07 1.05872721e-06
      1.31512525e-06 1.48073264e-06 1.60047318e-06 1.61809430e-06
      1.47934350e-06 1.27549652e-06 1.00376360e-06 6.32944079e-07
      2.28476480e-07 -1.01513635e-07 -4.33272163e-07 -8.42575446e-07
      -1.16373042e-06 -1.25599786e-06 -1.03571756e-06 -5.99726548e-07
      2.43855469e-09 6.20632306e-07 1.05503557e-06 1.42401575e-06
      1.62832805e-06 1.59278125e-06 1.21223820e-06 7.34303853e-07
      2.92059156e-07 -2.78535879e-07 -1.02409808e-06 -1.82022927e-06
      -2.38423854e-06 -2.44843432e-06 -2.03424884e-06 -1.43727925e-06
      -8.98462645e-07 -4.50048077e-07 -1.57754272e-07 7.22086853e-08
      1.80167277e-07 2.05509124e-07 2.49859511e-07 2.19341217e-07
      1.24370672e-07 1.14610055e-08 -1.06228988e-07 -1.55607680e-07
      -2.44249259e-06 -2.32753200e-06 -1.99831356e-06 -1.42737542e-06
      -6.61108061e-07 2.20431900e-07 1.02546039e-06 1.60123136e-06
      1.88023421e-06 1.82493909e-06 1.52512155e-06 1.02854438e-06
      5.84082954e-07 2.17123940e-07 -8.07764806e-08 -3.46143963e-07
      -6.25530561e-07 -9.95057917e-07 -1.44262708e-06 -1.74775198e-06
      -1.79274400e-06 -1.56001272e-06 -1.17927812e-06 -6.87159456e-07
      -5.93055240e-08 5.60204683e-07 1.10387941e-06 1.51642996e-06
      1.78256096e-06 1.83187433e-06 1.69492682e-06 1.42211093e-06
      1.09108578e-06 7.53769314e-07 4.07664487e-07 -3.50969316e-08
      -5.80984874e-07 -9.62772560e-07 -8.68744735e-07 -3.07238651e-07
      5.26416329e-07 1.34116567e-06 1.94133008e-06 2.32456864e-06
      2.47754724e-06 2.36751362e-06 2.13826365e-06 1.83732561e-06
      1.52054110e-06 1.30176522e-06 1.20209518e-06 1.17534171e-06
      1.07339019e-06 1.21055757e-06 1.52929101e-06 2.01356511e-06
      2.51844608e-06 2.88207070e-06 2.91921651e-06 2.67903783e-06
      2.28594172e-06 1.85814508e-06 1.34601930e-06 8.03978651e-07
      2.73875372e-07 -3.31909405e-07 -9.31983152e-07 -1.44336582e-06
      -1.86855095e-06 -2.17202160e-06 -2.14627994e-06 -1.76757896e-06
      -1.34364234e-06 -9.64361220e-07 -7.33905551e-07 -4.70007024e-07
      -2.05748918e-07 -1.24178934e-08 2.38036748e-07 3.64497737e-07
      4.41397901e-07 4.19996837e-07 4.33444598e-07 4.80364236e-07
      4.97078190e-07 6.12709471e-07 8.08684149e-07 1.02965373e-06
      1.10792257e-06 1.03068010e-06 8.30221722e-07 6.14111514e-07
      5.60921649e-07 6.07147911e-07 8.17256876e-07 1.07232904e-06
      1.29085504e-06 1.42793954e-06 1.40930604e-06 1.29617433e-06
      1.01935188e-06 6.63223034e-07 3.32752307e-07 1.96234112e-07
      1.53183021e-06 1.61394280e-06 1.72069076e-06 1.64030712e-06
      1.39557199e-06 1.04935066e-06 6.46155229e-07 2.64548589e-07
      -4.65343462e-08 -2.86833142e-07 -5.56442671e-07 -7.28379916e-07
      -8.72800172e-07 -1.11947611e-06 -1.28271995e-06 -1.25451777e-06
      -1.01284274e-06 -7.40922303e-07 -4.54706225e-07 -1.66919548e-07
      -3.94780173e-08 -7.56428342e-09 -4.77704347e-08 -1.18901902e-07
      -4.18163495e-07 -7.94624384e-07 -1.14952820e-06 -1.45889896e-06
      -1.58599812e-06 -1.45171805e-06 -1.19768265e-06 -8.96466247e-07
      -5.34296930e-07 -1.81125657e-07 1.16399796e-07 2.70219147e-07
      8.13070784e-08 -4.97008443e-07 -1.30628791e-06 -2.16347280e-06
      -2.85108626e-06 -3.10185283e-06 -2.94825236e-06 -2.37011614e-06
      -1.62255333e-06 -7.78311232e-07 7.18386701e-08 8.58965905e-07
      1.42149293e-06 1.75153082e-06 1.93740334e-06 2.00862837e-06
      8.07381298e-07 6.94046832e-07 4.90965647e-07 1.61808160e-07
      -2.27488314e-07 -6.01874433e-07 -9.22866889e-07 -1.17266165e-06
      -1.31244599e-06 -1.40470274e-06 -1.45759964e-06 -1.36105075e-06
      -1.18683204e-06 -8.79605409e-07 -3.46845042e-07 1.63507536e-07
      6.94364871e-07 1.25419558e-06 1.81254325e-06 1.98201155e-06
      1.68142503e-06 1.14297836e-06 5.46360639e-07 -4.20938733e-08
      -7.60529076e-07 -1.47182016e-06 -2.26232851e-06 -2.93426297e-06
      -3.41430746e-06 -3.54754116e-06 -3.22195524e-06 -2.51616257e-06
      -1.33569768e-06 7.16975563e-08 1.32442528e-06 2.12529062e-06
      2.28445401e-06 1.52116218e-06 4.59101877e-08 -1.65847621e-06
      -3.13616420e-06 -3.94693598e-06 -4.21099776e-06 -3.91054482e-06
      -3.08458152e-06 -2.11974998e-06 -1.24664848e-06 -5.88927605e-07
      -1.46711827e-07 9.33417397e-08 1.81257761e-07 1.93956495e-07
      5.90579361e-07 4.02886741e-07 6.88634358e-08 -4.01749816e-07
      -9.38937205e-07 -1.33772312e-06 -1.56583371e-06 -1.67297458e-06
      -1.65534357e-06 -1.52638927e-06 -1.28075885e-06 -9.47292335e-07
      -5.60422620e-07 -1.28356334e-07 2.88521761e-07 6.35044557e-07
      9.11982227e-07 1.11947554e-06 1.28791521e-06 1.26098303e-06
      1.09114637e-06 9.11493487e-07 7.74347086e-07 6.20583876e-07
      2.42667653e-07 -3.12274409e-07 -9.32841601e-07 -1.34481104e-06
      -1.59457193e-06 -1.60585478e-06 -1.19132869e-06 -5.39690575e-07
      2.01109017e-07 1.08126721e-06 1.71906038e-06 1.92272569e-06
      1.61801120e-06 7.08482617e-07 -2.20706397e-07 -8.15885130e-07
      -1.09276368e-06 -1.19563413e-06 -1.21781318e-06 -1.36448614e-06
      -1.53426970e-06 -1.74164154e-06 -2.06679329e-06 -2.46360651e-06
      -2.75344291e-06 -2.95095060e-06 -3.09762254e-06 -3.15307148e-06
      -5.06215599e-07 -4.85523515e-07 -5.32477088e-07 -6.02646310e-07
      -6.77574405e-07 -7.90920467e-07 -8.74068178e-07 -9.34072943e-07
      -9.38338815e-07 -8.94142829e-07 -7.81951542e-07 -6.27988641e-07
      -4.06146512e-07 -1.36716849e-07 1.29915660e-08 1.43098305e-07
      2.26139960e-07 9.47486427e-08 -5.97335998e-07 -1.31346030e-06
      -1.21303208e-06 -1.07126004e-06 -8.24758217e-07 -4.11284219e-07
      4.40053949e-09 1.59124802e-08 7.52052429e-08 1.78162594e-07
      2.68715496e-07 3.43511289e-07 5.26662973e-07 7.58848330e-07
      9.94471748e-07 1.48801212e-06 1.75974981e-06 1.35162884e-06
      8.51216612e-07 4.61823703e-07 6.53902305e-07 1.11150473e-06
      1.46441096e-06 1.69399073e-06 1.62586355e-06 1.36348967e-06
      7.99054988e-07 6.10111783e-08 -7.27936481e-07 -1.32383923e-06
      -1.75977175e-06 -1.97576696e-06 -2.10178746e-06 -2.09899872e-06
      7.33672437e-07 7.62309412e-07 7.95887331e-07 8.50663582e-07
      8.97559232e-07 8.66479809e-07 7.68753239e-07 6.10115421e-07
      4.12582892e-07 3.03443755e-07 3.25246276e-07 5.42204759e-07
      8.28218674e-07 1.13772694e-06 1.36682922e-06 1.40908685e-06
      1.44086130e-06 1.31925606e-06 1.13786450e-06 1.39919109e-06
      1.27385215e-06 7.39843244e-07 2.88730860e-07 -5.17143981e-08
      -5.52620847e-08 4.31970868e-08 4.35358430e-07 7.51654909e-07
      8.77639081e-07 6.92538151e-07 5.19189996e-07 9.16021520e-07
      1.74896979e-06 2.76452147e-06 3.36534777e-06 3.80646406e-06
      4.53855955e-06 4.40736858e-06 4.29029251e-06 3.88099124e-06
      3.12579664e-06 2.30959358e-06 1.46914510e-06 6.86835790e-07
      3.19988658e-08 -3.93040182e-07 -5.52327379e-07 -4.87500984e-07
      -1.50064480e-07 2.39410184e-07 5.50726384e-07 6.82178836e-07
      -5.69605731e-07 -4.90327352e-07 -3.32576946e-07 -8.83155167e-08
      1.19123960e-07 3.13969423e-07 4.54178718e-07 5.65242487e-07
      7.15279668e-07 9.33899116e-07 1.16486331e-06 1.54331838e-06
      1.95111420e-06 2.21565392e-06 2.16973513e-06 1.74617014e-06
      1.12636087e-06 8.38737492e-07 5.30574596e-07 2.68143594e-07
      1.79574982e-07 5.07285222e-07 8.58689361e-07 8.95992457e-07
      6.63733147e-07 6.97023893e-07 1.14294903e-06 1.46381524e-06
      1.58197304e-06 1.28301247e-06 1.07531082e-06 1.05861602e-06
      1.30100568e-06 1.47978801e-06 1.02828915e-06 4.84733448e-07
      5.05732544e-07 2.72960904e-07 -3.00267033e-07 -3.99235461e-07
      -8.41305834e-08 5.18211891e-07 1.28443651e-06 1.97367922e-06
      2.60583329e-06 2.98485907e-06 3.10911969e-06 2.85605256e-06
      2.43319710e-06 2.05027641e-06 1.98022940e-06 1.93509572e-06
      -5.87675231e-07 -4.83946678e-07 -2.35290514e-07 5.69478900e-08
      3.56732528e-07 6.93312586e-07 9.30965825e-07 1.02195520e-06
      1.03862726e-06 9.63331104e-07 8.56058648e-07 7.39971654e-07
      5.45617354e-07 1.83848925e-07 -3.54791950e-07 -8.26977043e-07
      -1.50737606e-06 -2.14456782e-06 -2.63399193e-06 -2.86210138e-06
      -2.83257873e-06 -2.29474745e-06 -1.10754638e-06 -1.34977185e-07
      3.17988878e-07 2.41049065e-07 2.22665804e-07 3.11719475e-07
      4.35160644e-07 5.95330732e-07 7.98217343e-07 8.33655804e-07
      2.34319742e-07 -1.02786964e-06 -2.49768527e-06 -3.37155348e-06
      -3.74950446e-06 -3.87463751e-06 -3.55227985e-06 -2.96522444e-06
      -2.26521661e-06 -1.47572860e-06 -7.52367214e-07 -9.13733302e-08
      4.72001688e-07 7.89471244e-07 8.67773736e-07 7.97401412e-07
      7.64683364e-07 6.88477087e-07 6.48315051e-07 6.68869291e-07
      2.83901136e-06 2.76479454e-06 2.54679071e-06 2.17312413e-06
      1.75888090e-06 1.31855325e-06 9.74356226e-07 7.51433959e-07
      7.98811470e-07 9.15329167e-07 1.05139554e-06 9.44676231e-07
      5.21802633e-07 -1.87545012e-07 -8.47606032e-07 -1.24924463e-06
      -1.32643618e-06 -1.02386480e-06 -5.90296395e-07 -2.41896974e-08
      6.78122035e-07 1.39735573e-06 2.06874438e-06 2.12518171e-06
      2.06131608e-06 1.73116905e-06 1.49300274e-06 1.24431926e-06
      9.98063797e-07 1.22324832e-06 1.83701979e-06 2.34175445e-06
      2.37120321e-06 1.86829368e-06 7.72740464e-07 -2.62794543e-07
      -8.81349763e-07 -9.49792081e-07 -1.10458211e-06 -1.05628305e-06
      -1.04257867e-06 -1.22513370e-06 -1.41194073e-06 -1.69414898e-06
      -1.91690833e-06 -1.94659833e-06 -1.87417618e-06 -1.58986597e-06
      -1.19628237e-06 -8.04423053e-07 -5.28583257e-07 -3.28153419e-07
      3.08158747e-06 2.95815607e-06 2.69884754e-06 2.35186621e-06
      1.89275272e-06 1.30441219e-06 6.70812824e-07 9.09499320e-08
      -3.82471256e-07 -7.40195560e-07 -9.79862875e-07 -1.24016208e-06
      -1.38560677e-06 -1.31773595e-06 -1.07807523e-06 -9.18501371e-07
      -9.07924971e-07 -7.73047020e-07 -2.98841712e-07 4.62957018e-07
      1.28449892e-06 1.94948007e-06 2.42413603e-06 2.99202452e-06
      2.83867416e-06 2.75412867e-06 2.81223424e-06 2.86129898e-06
      2.89457307e-06 3.10856331e-06 3.63558388e-06 4.07330799e-06
      4.18770787e-06 3.89990282e-06 2.91672745e-06 2.16979765e-06
      1.36001142e-06 5.88042838e-07 -6.98367373e-08 -3.25511621e-07
      -3.19646176e-07 -2.41934941e-07 -6.44610907e-08 2.35171569e-07
      5.68319479e-07 9.28531847e-07 1.07573055e-06 1.08770621e-06
      1.02018043e-06 9.81616267e-07 9.55403607e-07 9.91465754e-07
      1.01435671e-06 9.15910448e-07 6.92798096e-07 4.68578975e-07
      9.58481152e-08 -4.12596052e-07 -1.06577670e-06 -1.70930275e-06
      -2.34565618e-06 -2.72168495e-06 -2.85051328e-06 -2.70234477e-06
      -2.18437799e-06 -1.43659793e-06 -7.08206983e-07 -8.83859670e-08
      4.34318082e-07 1.00963109e-06 1.50602932e-06 1.88671879e-06
      2.10407734e-06 2.33226456e-06 2.35837706e-06 2.32349407e-06
      2.33415926e-06 2.38641042e-06 2.43980207e-06 2.70652822e-06
      3.13763371e-06 3.62633250e-06 4.11387282e-06 4.53290977e-06
      4.66483971e-06 4.60812998e-06 4.26658380e-06 3.57668750e-06
      2.63760990e-06 1.38026473e-06 3.03822283e-08 -1.22801407e-06
      -2.06441155e-06 -2.37446625e-06 -2.22488802e-06 -1.67772191e-06
      -1.09711050e-06 -4.81505367e-07 8.89508982e-08 5.67371671e-07
      9.12777978e-07 9.87663043e-07 8.62510490e-07 7.55721430e-07
      8.78934188e-08 1.43770592e-07 2.07048743e-07 3.05985651e-07
      3.43945487e-07 3.55436782e-07 3.46255433e-07 1.77657057e-07
      3.52358409e-09 -1.61693919e-07 -2.56138009e-07 9.51172225e-08
      5.61765148e-07 9.72762905e-07 1.23921802e-06 1.57460977e-06
      2.03583204e-06 2.61472746e-06 3.04570608e-06 3.18574257e-06
      2.98806435e-06 2.38664461e-06 1.37113716e-06 1.90920090e-07
      -9.56090275e-07 -1.73011995e-06 -2.03119203e-06 -1.89671630e-06
      -1.39862527e-06 -6.93845266e-07 -2.57521504e-10 6.32974093e-07
      1.15747514e-06 1.60507295e-06 2.00190539e-06 2.19735853e-06
      2.13598241e-06 1.81359530e-06 1.30328294e-06 5.84263375e-07
      -1.15536608e-07 -7.84547979e-07 -1.33843969e-06 -1.65460654e-06
      -1.74885281e-06 -1.65469271e-06 -1.41206260e-06 -1.12864325e-06
      -7.61257297e-07 -4.97235590e-07 -3.42590937e-07 -3.45013376e-07
      -2.63307220e-06 -2.57781971e-06 -2.35487528e-06 -2.02020351e-06
      -1.46252410e-06 -7.86957230e-07 -4.84924279e-08 6.19968716e-07
      1.18009552e-06 1.60046420e-06 1.87842943e-06 1.94301379e-06
      1.80523421e-06 1.70186502e-06 1.74686193e-06 2.05586866e-06
      2.75429989e-06 3.60607100e-06 4.38239704e-06 4.81843244e-06
      4.67510108e-06 3.82826465e-06 2.46234958e-06 8.33129548e-07
      -6.78943252e-07 -1.75485468e-06 -2.25774761e-06 -2.21546838e-06
      -1.75184380e-06 -8.99553640e-07 1.82420180e-07 1.29841067e-06
      2.29265424e-06 2.99995281e-06 3.46994511e-06 3.67110260e-06
      3.56571354e-06 3.35888103e-06 3.14595013e-06 2.91406809e-06
      2.73154478e-06 2.51920528e-06 2.13305134e-06 1.62437345e-06
      1.01601233e-06 4.13896402e-07 -9.18884666e-08 -4.74451838e-07
      -7.80598725e-07 -9.59051135e-07 -1.08006702e-06 -1.14199668e-06
      -8.47410490e-07 -8.43924965e-07 -7.31888917e-07 -5.66550682e-07
      -3.01726573e-07 -6.68523867e-08 -5.67015164e-08 -2.31160001e-07
      -5.69520694e-07 -1.02556601e-06 -1.36914628e-06 -1.58366970e-06
      -1.59198271e-06 -1.15697458e-06 -1.60036976e-07 1.02389401e-06
      2.42147689e-06 3.80501865e-06 5.00946362e-06 5.80715641e-06
      5.97444114e-06 5.58930151e-06 4.95772611e-06 4.29876081e-06
      3.78527147e-06 3.29304612e-06 2.92021878e-06 2.68497456e-06
      2.45981937e-06 2.16651870e-06 1.99579381e-06 1.92709172e-06
      1.96229394e-06 2.11485303e-06 2.33464471e-06 2.54548604e-06
      2.56103181e-06 2.42786450e-06 2.19535855e-06 1.96969290e-06
      1.69688633e-06 1.40338659e-06 1.04506523e-06 6.25276812e-07
      1.13548545e-07 -3.33135802e-07 -6.95376741e-07 -8.77539151e-07
      -9.72731982e-07 -9.48241620e-07 -9.37798973e-07 -8.89640376e-07
      2.07165863e-06 2.08013603e-06 2.07354924e-06 1.95553844e-06
      1.67275925e-06 1.27957344e-06 8.15733813e-07 1.92869877e-07
      -3.76178974e-07 -8.06062246e-07 -1.12925397e-06 -1.27674309e-06
      -1.09656310e-06 -8.73245938e-07 -6.26522251e-07 -5.22269545e-07
      -6.00036628e-07 -6.23576454e-07 -4.57686411e-07 -7.83728566e-08
      3.67930312e-07 7.20987487e-07 8.50083381e-07 9.63097932e-07
      1.19562196e-06 1.46443676e-06 1.68754229e-06 1.68932377e-06
      1.38516782e-06 9.53698418e-07 4.33706731e-07 -9.82902719e-08
      -6.00876831e-07 -9.27747578e-07 -1.18458490e-06 -1.30864589e-06
      -1.37625716e-06 -1.35364064e-06 -1.12288785e-06 -6.27152303e-07
      -1.01606361e-07 3.19467830e-07 5.67990014e-07 6.04260606e-07
      5.02989053e-07 4.39465538e-07 3.29802873e-07 2.91694789e-07
      1.07667773e-07 -1.75248928e-07 -3.80009851e-07 -3.93491803e-07
      7.36481525e-07 6.93267395e-07 5.73561806e-07 5.19399180e-07
      5.07474454e-07 5.27866973e-07 5.60129138e-07 5.88685850e-07
      5.13191424e-07 4.78247216e-07 6.46953481e-07 1.05309130e-06
      1.31168849e-06 1.07808592e-06 1.23307913e-07 -1.18333105e-06
      -2.71089243e-06 -4.13627413e-06 -5.15732927e-06 -5.74829801e-06
      -5.93440063e-06 -5.87651994e-06 -5.72979707e-06 -5.38225413e-06
      -4.95101585e-06 -4.35107631e-06 -3.59958062e-06 -2.91716401e-06
      -2.30884552e-06 -1.76101150e-06 -1.37545055e-06 -1.07822621e-06
      -8.39565530e-07 -7.66488881e-07 -9.93866706e-07 -1.52045914e-06
      -2.16552576e-06 -2.61319155e-06 -2.37075142e-06 -1.33079186e-06
      2.06648082e-07 1.59301771e-06 2.57957731e-06 3.28699753e-06
      3.58068542e-06 3.68982614e-06 3.60964623e-06 3.30709486e-06
      3.06057359e-06 2.92432696e-06 2.87895227e-06 2.87419471e-06
      1.57214856e-06 1.56153612e-06 1.50892276e-06 1.51412598e-06
      1.48990318e-06 1.43202874e-06 1.27778776e-06 1.26965381e-06
      1.31966863e-06 1.28430077e-06 1.26997418e-06 1.23983796e-06
      1.37206598e-06 1.88086335e-06 1.07794824e-06 -7.91241405e-07
      -2.78640232e-06 -4.23899428e-06 -4.95843142e-06 -5.12722681e-06
      -5.02692410e-06 -4.73414957e-06 -3.93320306e-06 -2.92500454e-06
      -2.04922549e-06 -1.28929935e-06 -7.98177041e-07 -6.78629931e-07
      -8.34393916e-07 -1.15966554e-06 -1.49848904e-06 -1.79684491e-06
      -1.95492521e-06 -1.98977045e-06 -2.39507085e-06 -3.24560483e-06
      -4.18731133e-06 -4.62060507e-06 -3.92734137e-06 -1.94107452e-06
      6.59936291e-07 2.75076673e-06 4.15552540e-06 4.70992063e-06
      4.67326299e-06 3.97415852e-06 3.18809543e-06 2.42111787e-06
      1.91747608e-06 1.75242428e-06 1.73613421e-06 1.74594800e-06
      1.03555965e-06 1.00533350e-06 9.69311373e-07 1.00109014e-06
      1.04627873e-06 1.08026109e-06 1.18674473e-06 1.49548964e-06
      2.30338787e-06 3.56546548e-06 4.91784840e-06 5.69133999e-06
      5.61793013e-06 4.36539267e-06 1.87569265e-06 -1.95352573e-06
      -5.43995338e-06 -7.63082971e-06 -7.79764287e-06 -6.85038776e-06
      -5.35815479e-06 -3.32650598e-06 -8.63160210e-07 1.50639960e-06
      3.27251860e-06 4.31800845e-06 4.61415766e-06 4.20419701e-06
      3.32441891e-06 1.92110770e-06 1.57787866e-07 -1.69200200e-06
      -3.24596090e-06 -4.43071394e-06 -5.26750364e-06 -5.99856139e-06
      -6.45817317e-06 -5.99643408e-06 -4.49641493e-06 -1.71164129e-06
      1.27645205e-06 3.72188242e-06 4.81774487e-06 4.46374770e-06
      3.12718817e-06 1.55062799e-06 5.99259096e-08 -9.79531478e-07
      -1.40292639e-06 -1.51943152e-06 -1.40795441e-06 -1.38470512e-06
      -1.91244931e-06 -1.94737368e-06 -2.07596054e-06 -2.29605598e-06
      -2.58320688e-06 -2.87655917e-06 -3.00246552e-06 -2.82012365e-06
      -1.98479529e-06 -3.76512929e-07 1.01909382e-06 1.20169102e-06
      3.43559918e-07 -1.58721832e-06 -4.25948701e-06 -7.07809522e-06
      -8.49511980e-06 -8.90512638e-06 -8.13475981e-06 -7.08240896e-06
      -5.89885258e-06 -4.22513858e-06 -1.94803283e-06 4.43467968e-07
      2.30096771e-06 3.32676154e-06 3.66230006e-06 3.35842356e-06
      2.43956538e-06 9.92918331e-07 -7.49509184e-07 -2.41274483e-06
      -3.67465600e-06 -4.61717946e-06 -5.74829301e-06 -6.49375897e-06
      -6.50465972e-06 -6.52274502e-06 -5.32744616e-06 -3.88980561e-06
      -2.96373719e-06 -2.70217720e-06 -2.55604186e-06 -1.65619235e-06
      -1.60689285e-06 -1.85197143e-06 -2.14937836e-06 -2.30104092e-06
      -2.28877229e-06 -2.13852877e-06 -1.92975381e-06 -1.86413195e-06
      6.91046239e-07 6.47025161e-07 4.61548609e-07 5.58843603e-08
      -4.04952516e-07 -8.87317753e-07 -1.40763768e-06 -1.87433625e-06
      -2.41754924e-06 -3.18539310e-06 -3.31295746e-06 -3.61363823e-06
      -4.88174010e-06 -6.59858051e-06 -7.41014628e-06 -7.19544369e-06
      -6.49993899e-06 -6.01587590e-06 -5.84655800e-06 -5.35756590e-06
      -4.72513193e-06 -3.79256494e-06 -2.82062570e-06 -2.01915987e-06
      -1.51366669e-06 -1.16386195e-06 -6.22738241e-07 -2.67323088e-07
      -3.74083015e-07 -8.13293696e-07 -1.45557397e-06 -2.18164610e-06
      -2.96015082e-06 -3.94657309e-06 -4.89895001e-06 -5.49203787e-06
      -6.44630836e-06 -6.67065569e-06 -6.47697834e-06 -6.34266917e-06
      -5.94507037e-06 -4.81864754e-06 -3.72266140e-06 -2.43830277e-06
      -7.10637892e-07 8.17474813e-07 1.99056444e-06 2.20953416e-06
      1.91433378e-06 1.54583074e-06 1.31382126e-06 1.25877273e-06
      4.60526422e-07 5.45887417e-07 8.12989356e-07 1.12094210e-06
      1.48711558e-06 1.79058691e-06 1.80762390e-06 1.46741854e-06
      4.85283238e-07 -9.10346898e-07 -2.27473720e-06 -3.53166570e-06
      -4.73133468e-06 -6.10132201e-06 -7.13228292e-06 -7.65688219e-06
      -7.45084753e-06 -7.02650323e-06 -6.91842388e-06 -6.62901766e-06
      -5.75329295e-06 -4.48643368e-06 -3.50867504e-06 -3.06507809e-06
      -2.10983308e-06 -8.37734376e-07 4.12397668e-07 1.02825868e-06
      9.81650146e-07 4.22046128e-07 -5.88951991e-07 -1.97379586e-06
      -3.45636545e-06 -5.16105410e-06 -6.84182078e-06 -8.65808397e-06
      -9.56871645e-06 -9.73541137e-06 -9.64083210e-06 -9.03501041e-06
      -7.97359553e-06 -6.40852022e-06 -4.40380336e-06 -2.81799589e-06
      -1.06615369e-06 2.90137109e-07 1.48646700e-06 2.08549272e-06
      2.12398913e-06 1.89867660e-06 1.62348977e-06 1.58474131e-06
      -1.93487858e-06 -1.69153816e-06 -1.02343904e-06 4.26978097e-08
      1.23965549e-06 2.39417432e-06 3.10050496e-06 2.70112491e-06
      1.30130275e-06 -7.42209636e-07 -3.58678039e-06 -6.87882766e-06
      -9.23566313e-06 -1.04638002e-05 -1.08910181e-05 -1.03462417e-05
      -8.71283737e-06 -6.81563961e-06 -4.67156588e-06 -3.14900944e-06
      -1.92812058e-06 -6.46423416e-07 -1.06504125e-07 2.34731516e-07
      3.57214390e-07 3.19995223e-07 4.37137999e-07 7.20767048e-07
      8.71589975e-07 1.02666831e-06 1.19701713e-06 9.22042489e-07
      1.48852067e-07 -5.78215804e-07 -1.46748278e-06 -3.17122931e-06
      -4.73243108e-06 -6.54246878e-06 -7.66323228e-06 -8.15241401e-06
      -7.92936225e-06 -7.33545812e-06 -6.19581806e-06 -4.06738991e-06
      -1.89601303e-06 -7.28749114e-07 -7.44140110e-08 -7.70568391e-08
      -2.56666056e-07 -4.21201406e-07 -5.90939692e-07 -6.32079491e-07
      -6.64013498e-07 -5.50492075e-07 -2.29287338e-07 3.42753168e-07
      1.01480384e-06 1.48818003e-06 1.48655408e-06 9.74152044e-07
      -4.21673114e-08 -1.74180980e-06 -3.55792122e-06 -4.63364086e-06
      -5.58607144e-06 -5.90641002e-06 -5.48679373e-06 -4.45523801e-06
      -2.44680928e-06 4.18408746e-07 4.33680998e-06 7.15271563e-06
      7.98919154e-06 8.12544204e-06 7.55220572e-06 6.32843967e-06
      4.82734777e-06 3.84933492e-06 3.43363172e-06 3.54509416e-06
      3.99543023e-06 4.78619631e-06 5.95827123e-06 6.89861417e-06
      7.39496909e-06 7.30138800e-06 7.00127430e-06 5.73952593e-06
      3.55154498e-06 1.22067058e-06 -6.55738404e-07 -1.70439318e-06
      -1.57102318e-06 -8.47541230e-07 2.64516302e-07 8.58851081e-07
      9.22291974e-07 6.98089764e-07 6.79994571e-07 7.49738888e-07
      1.01105786e-06 1.26300870e-06 1.36338519e-06 1.34793811e-06
      1.55906127e-06 1.54251438e-06 1.50561436e-06 1.38396081e-06
      1.20073241e-06 9.87375984e-07 8.74709144e-07 7.40668668e-07
      3.58914150e-07 -6.69943390e-08 -3.11072228e-07 -2.47581426e-07
      2.55589327e-08 5.18240370e-07 1.31978231e-06 2.43224213e-06
      4.15349768e-06 5.99399937e-06 7.04081958e-06 6.64563777e-06
      5.40597284e-06 4.15433988e-06 2.90744993e-06 2.19780759e-06
      1.57217050e-06 9.27430051e-07 6.08317009e-07 6.58284080e-07
      6.76543095e-07 9.39689244e-07 1.64326855e-06 2.71372733e-06
      3.89903016e-06 4.83254553e-06 5.32206968e-06 5.05390062e-06
      4.08611413e-06 2.73685532e-06 1.55203395e-06 7.96940071e-07
      5.84863471e-07 6.48096659e-07 9.31568479e-07 1.33270521e-06
      1.71077420e-06 1.89938476e-06 2.03033892e-06 2.06804270e-06
      2.04960111e-06 1.94017025e-06 1.81808480e-06 1.76369474e-06
      1.04339540e-06 8.61208321e-07 3.50859153e-07 -3.37210480e-07
      -8.91141724e-07 -1.28832914e-06 -1.47358514e-06 -1.34926199e-06
      -7.74987427e-07 1.60603790e-07 8.50407673e-07 1.29204875e-06
      1.54442580e-06 1.60659681e-06 1.49188077e-06 1.37209304e-06
      1.26975158e-06 1.87135254e-06 2.27396936e-06 1.50141773e-06
      1.80456070e-07 -8.57380542e-07 -1.87009948e-06 -2.98131204e-06
      -3.50780124e-06 -2.29002899e-06 -2.23052621e-06 -2.03304148e-06
      -2.09023437e-06 -2.23151551e-06 -1.98247699e-06 -1.38678035e-06
      -2.40601116e-06 -1.97039549e-06 -1.69066232e-06 -1.73198953e-06
      -9.24656433e-07 -5.26409053e-07 -1.19830020e-06 -1.94293443e-06
      -2.28154909e-06 -2.03116110e-06 -7.47355671e-07 6.92714423e-07
      1.66978157e-06 2.65118388e-06 2.67352311e-06 2.27400574e-06
      1.88333308e-06 1.21854964e-06 1.06189043e-06 1.07750361e-06
      1.97182567e-06 1.84966814e-06 1.48020229e-06 1.06021776e-06
      3.15901218e-07 -7.84658880e-08 -2.20527056e-07 2.38248219e-07
      5.51846711e-07 4.66335734e-07 6.15712224e-07 7.80679954e-07
      7.56411566e-07 1.17472518e-06 1.35395976e-06 1.17312766e-06
      1.11532268e-06 6.17936848e-07 5.92155970e-07 1.34909442e-06
      1.78949165e-06 2.09466748e-06 2.72357556e-06 3.45834724e-06
      4.23353276e-06 5.05788967e-06 5.54147391e-06 5.70601060e-06
      5.71257942e-06 5.32940658e-06 4.82864289e-06 4.57621172e-06
      4.57097531e-06 3.88212356e-06 3.21330731e-06 2.62971821e-06
      2.14098031e-06 1.32595176e-06 9.86166242e-07 1.03338971e-06
      1.44244973e-06 1.87657281e-06 1.83268423e-06 1.59692138e-06
      1.43988473e-06 1.41524902e-06 9.27452504e-07 4.59979702e-07
      1.69524654e-07 2.32649100e-07 5.68083692e-07 8.33944512e-07
      2.04010757e-06 1.76718697e-06 1.49016671e-06 1.17097545e-06
      2.77596882e-07 -4.33600036e-07 -2.89432222e-07 3.63098223e-07
      5.55734175e-07 2.20099238e-07 2.66295899e-07 6.56312579e-07
      6.65996708e-07 1.13391548e-06 1.30272292e-06 9.21866729e-07
      1.00071259e-06 7.50897982e-07 7.45563057e-07 1.37903726e-06
      1.84881901e-06 2.17102229e-06 2.59241483e-06 3.58179750e-06
      4.56954740e-06 5.28844748e-06 5.75448939e-06 5.86333135e-06
      5.83739211e-06 5.51102858e-06 4.72688635e-06 4.26852148e-06
      4.01787111e-06 3.51048129e-06 2.88743513e-06 2.46115428e-06
      2.35155176e-06 1.63194750e-06 1.14355350e-06 1.05919048e-06
      1.14731404e-06 1.43491275e-06 1.47738217e-06 1.57664851e-06
      1.87860758e-06 2.00423824e-06 1.02137403e-06 1.84222884e-07
      1.35538386e-07 2.90108488e-07 2.40082159e-07 1.39131316e-07
      1.61677235e-06 1.63011805e-06 1.45008983e-06 1.15452713e-06
      3.88377231e-07 -3.36809251e-07 -2.45845882e-07 4.05360112e-07
      5.28305520e-07 -1.34923098e-07 -1.97512790e-07 3.09474103e-07
      6.25693531e-07 8.40722180e-07 8.81704239e-07 7.24735685e-07
      7.76508841e-07 7.42012958e-07 5.96383700e-07 1.03964612e-06
      1.56271255e-06 2.01813828e-06 2.37523750e-06 3.42301701e-06
      4.67013751e-06 5.46322735e-06 5.87673276e-06 6.23728511e-06
      6.26798874e-06 5.82104167e-06 4.90497405e-06 4.47381672e-06
      3.77007791e-06 3.13580108e-06 2.62529829e-06 2.20839797e-06
      2.25456893e-06 1.85217289e-06 1.42558463e-06 1.33146864e-06
      1.14805493e-06 9.37355196e-07 1.14927400e-06 1.55354905e-06
      2.11926749e-06 2.52127256e-06 1.64372261e-06 6.84770782e-07
      7.53397671e-07 6.19418813e-07 4.10098295e-07 -2.76712679e-08
      8.62638558e-07 1.02102103e-06 1.09780535e-06 9.21390665e-07
      6.06584081e-07 -2.66974123e-08 -1.83560104e-07 2.82321366e-08
      2.24831908e-07 -4.32911861e-07 -6.52733092e-07 -7.68736399e-08
      6.21187667e-07 4.65790094e-07 3.40411162e-07 3.90677684e-07
      5.59397165e-07 6.57022497e-07 5.38014262e-07 6.70570500e-07
      1.13094472e-06 1.65717938e-06 1.99705346e-06 2.69020666e-06
      4.13134785e-06 5.10880636e-06 5.50524783e-06 6.22695188e-06
      6.43236717e-06 5.86621445e-06 5.05062962e-06 4.89092781e-06
      4.05145192e-06 3.30711214e-06 2.45435444e-06 2.05618085e-06
      1.98278531e-06 2.06292634e-06 1.72010277e-06 1.44094861e-06
      1.16841568e-06 1.06501739e-06 1.22963706e-06 1.37854636e-06
      1.83360737e-06 2.44432863e-06 2.05639071e-06 1.28248314e-06
      1.48898368e-06 1.52440612e-06 1.35376251e-06 7.46360627e-07
      -5.02242230e-08 1.03384828e-07 4.20919370e-08 2.17956156e-07
      2.20312486e-07 -6.52697878e-08 -2.36645661e-07 -1.63514969e-07
      4.80336126e-08 -4.49961021e-07 -9.40777795e-07 -4.05661552e-07
      4.30094929e-07 2.39075177e-07 5.11112965e-08 6.36839630e-08
      4.53635209e-07 7.08333687e-07 4.87557998e-07 3.18115809e-07
      7.76992920e-07 1.32648233e-06 1.58452008e-06 1.73106230e-06
      2.94213214e-06 3.99885403e-06 4.42259261e-06 5.29459021e-06
      5.68823089e-06 5.09685424e-06 4.42917690e-06 4.82158885e-06
      4.48366973e-06 3.63695654e-06 2.55551049e-06 1.53208236e-06
      1.47889807e-06 1.49994457e-06 1.35360597e-06 1.03109517e-06
      1.09431687e-06 1.28154215e-06 1.25200734e-06 1.12045734e-06
      1.31651632e-06 1.72314151e-06 1.65455867e-06 1.09664791e-06
      1.14584975e-06 1.57311024e-06 1.77591835e-06 1.73371097e-06
      -5.08246558e-07 -7.27995143e-07 -1.01234718e-06 -8.28343957e-07
      -4.89299225e-07 -6.49964761e-07 -3.52618457e-07 -8.89255247e-08
      1.66808448e-07 -2.85435874e-07 -1.00252942e-06 -4.10568958e-07
      2.35930955e-07 1.91369864e-07 -2.24532968e-07 -2.34004673e-07
      5.05027060e-08 6.17841465e-07 5.01115096e-07 1.52246400e-07
      5.34442449e-07 1.23818836e-06 1.43875911e-06 1.23064410e-06
      1.80101119e-06 2.88795900e-06 3.02600756e-06 3.31957381e-06
      3.88807393e-06 3.86148440e-06 3.44164914e-06 3.83346969e-06
      4.21263712e-06 3.42962448e-06 2.16140256e-06 1.17377851e-06
      8.92045307e-07 1.21578512e-06 7.45310956e-07 3.40771123e-07
      6.06070955e-07 7.42766076e-07 7.00232647e-07 4.35727827e-07
      5.86404667e-07 1.02062063e-06 9.67234428e-07 5.12386009e-07
      3.91917155e-07 4.57867600e-07 3.27142686e-07 1.91051896e-07
      -1.91860522e-07 -8.90336651e-07 -1.24671556e-06 -9.50836125e-07
      -5.63020933e-07 -8.43745795e-07 -8.30351553e-07 -3.82042430e-07
      2.37880435e-08 -1.01415239e-07 -4.86219449e-07 -1.74664621e-07
      3.69775506e-07 4.60655542e-07 7.61078240e-08 -3.10985740e-07
      -3.12326932e-07 9.36377020e-08 7.42567039e-08 -2.70078317e-07
      4.41430814e-07 1.14517968e-06 1.34691879e-06 1.07530968e-06
      1.23143059e-06 2.16258900e-06 2.20948482e-06 2.05623905e-06
      2.57013289e-06 2.84206590e-06 2.77659183e-06 2.78767311e-06
      2.81905227e-06 2.38436724e-06 1.41755049e-06 7.31668592e-07
      5.89229728e-07 8.46536068e-07 3.10285344e-07 7.19927300e-08
      2.73593400e-07 3.64667670e-07 1.91760790e-07 6.39092903e-08
      3.76614764e-07 8.45078375e-07 5.72909187e-07 3.62588928e-08
      -6.98196132e-08 -3.90816837e-08 -6.25296934e-07 -1.08909308e-06
      1.50288588e-06 5.99320970e-07 -2.71839895e-07 -2.92952222e-07
      1.97173435e-07 -1.21123250e-07 -8.53764732e-07 -7.63458104e-07
      -3.71988136e-07 -9.42560234e-08 -5.40101368e-08 3.19601185e-07
      6.96116956e-07 5.50311654e-07 3.09253096e-07 -3.83141305e-08
      -2.35059360e-07 4.56867681e-08 -4.03326652e-07 -8.07560014e-07
      1.79632465e-07 9.39093638e-07 8.77607761e-07 5.54675864e-07
      7.48133004e-07 1.67047006e-06 1.95914981e-06 1.63274979e-06
      1.63114441e-06 2.03103036e-06 2.15248815e-06 2.06613072e-06
      1.37537370e-06 1.32437253e-06 8.45527438e-07 3.63713923e-07
      4.88330443e-07 4.12988243e-07 -9.92442750e-08 -1.85517621e-07
      1.43684289e-07 2.68762591e-07 6.09802342e-08 3.49298858e-07
      8.58586077e-07 9.98063683e-07 3.82666343e-07 -7.78766918e-08
      -1.56364521e-07 -3.02703683e-07 -7.85160296e-07 -1.04312085e-06
      3.33514805e-07 2.02841335e-07 -9.48928118e-08 -4.51268960e-08
      3.31567350e-07 1.95412852e-07 -2.28585435e-07 -1.48048045e-07
      -1.21231679e-07 1.39029567e-07 3.57396431e-07 6.91046750e-07
      9.79091396e-07 1.55906392e-07 -3.69870321e-07 2.31499300e-07
      5.01622594e-07 6.23725782e-07 1.88637102e-07 -3.48535934e-07
      1.57632996e-07 6.39483005e-07 6.06370747e-07 2.32416596e-07
      3.75056715e-07 1.15992452e-06 1.64503138e-06 1.46984200e-06
      1.38527207e-06 1.78173786e-06 1.95750681e-06 1.51141580e-06
      1.10829819e-06 1.09638393e-06 9.82692313e-07 6.80357289e-07
      1.06593268e-06 5.50844845e-07 -4.80308024e-08 -2.97862243e-07
      4.60808565e-08 2.48073491e-07 1.65723591e-07 3.93335739e-07
      7.30462830e-07 6.79899301e-07 2.29808421e-07 -5.18970964e-08
      -1.32085631e-07 -4.21997470e-07 -7.42042687e-07 -8.29257544e-07
      1.45895967e-07 -5.81590598e-07 -1.22491997e-06 -1.44022704e-06
      -9.44832038e-07 -6.44725446e-07 -4.99565488e-07 2.55139412e-07
      2.94182684e-07 1.50881377e-07 5.61623096e-07 7.53304732e-07
      7.80777953e-07 -6.74109970e-07 -1.36423523e-06 -6.43241151e-07
      2.07195058e-07 7.10135282e-07 9.18750118e-07 9.80401524e-07
      1.22931988e-06 1.21988046e-06 1.03512446e-06 4.64572906e-07
      4.18573592e-07 1.05917479e-06 1.54241718e-06 1.72602893e-06
      1.63177185e-06 1.89892296e-06 1.97627219e-06 1.32020170e-06
      8.20159073e-07 8.68292773e-07 8.84137307e-07 5.45524983e-07
      1.17627735e-06 1.11509416e-06 4.60060136e-07 -5.50667423e-08
      -5.82633497e-08 9.16560126e-08 -8.03632716e-08 -4.53753188e-07
      -4.86269016e-07 -4.47228388e-07 -4.32377959e-07 -3.58754988e-07
      -8.64766037e-07 -1.10458768e-06 -1.31307695e-06 -1.50091455e-06
      2.22361351e-07 -8.80977211e-07 -2.02865340e-06 -2.76100263e-06
      -2.68645385e-06 -2.60000934e-06 -1.91552749e-06 -8.25860013e-07
      -4.19079981e-07 -3.43014307e-07 2.06790443e-08 1.93855016e-07
      1.36022066e-07 -1.27268117e-06 -2.10112421e-06 -1.47692958e-06
      -6.25688983e-07 3.86712770e-07 1.51315066e-06 1.88341517e-06
      2.02286719e-06 2.23136271e-06 2.08184019e-06 1.55814143e-06
      9.33484444e-07 1.19929382e-06 1.65988865e-06 2.12370674e-06
      2.24641985e-06 2.53316148e-06 2.35480093e-06 1.86151613e-06
      8.28621410e-07 6.58023680e-07 6.38404970e-07 7.55946488e-08
      5.68129224e-07 7.44218937e-07 2.98343622e-07 -3.92093312e-07
      -3.08602324e-07 -1.92978334e-07 -3.83134847e-07 -9.90771127e-07
      -1.60781644e-06 -1.58646390e-06 -1.25989300e-06 -9.88890747e-07
      -1.16600484e-06 -1.42892145e-06 -1.72632042e-06 -1.86203397e-06
      5.20732613e-07 -6.36739287e-07 -1.81284076e-06 -2.75858633e-06
      -2.75986122e-06 -2.87791158e-06 -2.78474431e-06 -2.35923949e-06
      -1.98205521e-06 -1.56964268e-06 -1.07418782e-06 -6.91646051e-07
      -5.29724048e-07 -1.42012902e-06 -2.39317433e-06 -1.88670958e-06
      -1.11839768e-06 3.32735262e-09 1.55566795e-06 2.18006289e-06
      2.27963710e-06 2.80179211e-06 2.95343057e-06 2.28450449e-06
      1.54115082e-06 1.58501234e-06 2.06935692e-06 2.49942241e-06
      2.25760300e-06 2.16974581e-06 2.10310577e-06 1.65894050e-06
      6.50552010e-07 6.17157241e-07 4.30951872e-07 -2.23746810e-07
      -1.84433944e-07 -3.70718766e-07 -8.64620120e-07 -1.30212732e-06
      -1.20928576e-06 -5.46981141e-07 -2.47980438e-07 -6.79634184e-07
      -1.47479443e-06 -1.95370262e-06 -2.00421505e-06 -1.40181737e-06
      -4.87261104e-07 -4.01723213e-07 -6.78971958e-07 -9.96708422e-07
      2.03622690e-07 -8.85813805e-08 -6.43283045e-07 -1.42829731e-06
      -1.57199486e-06 -1.80663199e-06 -2.28775070e-06 -2.80459722e-06
      -3.26437271e-06 -2.97219503e-06 -2.33422543e-06 -1.99032456e-06
      -1.05634388e-06 -1.12281020e-06 -1.91641084e-06 -1.84851820e-06
      -1.47605181e-06 -3.49300763e-07 1.13976978e-06 1.82717076e-06
      2.13618455e-06 2.88525189e-06 3.00368038e-06 2.30722662e-06
      1.61472144e-06 1.63403081e-06 2.37351719e-06 2.88170986e-06
      1.99951478e-06 1.35160769e-06 1.11170448e-06 9.24873632e-07
      -4.37070327e-08 3.64485686e-07 6.42774012e-07 -1.27417991e-07
      -4.45386434e-07 -6.07312870e-07 -9.44650310e-07 -1.57083809e-06
      -2.05294464e-06 -1.42569627e-06 -2.15875573e-07 1.26482320e-07
      -5.71014311e-07 -1.16239983e-06 -1.34698359e-06 -1.28357544e-06
      -1.71414172e-07 7.63272965e-07 1.12969735e-06 1.02082697e-06
      -1.33003979e-07 -1.23961684e-07 -2.94662755e-07 -9.23029688e-07
      -9.51772165e-07 -1.06189918e-06 -1.46545904e-06 -2.07696894e-06
      -2.90259368e-06 -3.60389595e-06 -2.86613613e-06 -3.11469057e-06
      -1.88773447e-06 -1.01167882e-06 -9.55463861e-07 -1.17829347e-06
      -1.04372896e-06 -5.19604782e-07 5.39349401e-07 8.39332984e-07
      1.30720127e-06 2.44440071e-06 2.66329153e-06 1.95597954e-06
      1.12044654e-06 1.08303243e-06 1.79163021e-06 2.20710695e-06
      1.43057889e-06 4.79314792e-07 -1.11154300e-07 -3.19101133e-07
      -1.13024191e-06 -4.72426308e-07 4.86971203e-07 2.87260313e-08
      -3.37797502e-07 -4.47788238e-07 -6.13537566e-07 -1.04419553e-06
      -2.01874514e-06 -2.19066533e-06 -7.77792195e-07 -4.50562652e-07
      -6.21423624e-07 -5.40433291e-07 -3.02358472e-07 -5.37618519e-07
      -3.00183189e-07 1.06982759e-06 1.94125619e-06 2.41321641e-06
      5.47830687e-08 3.45236828e-07 2.12480771e-07 -3.81914191e-07
      -7.54821883e-07 -6.77578953e-07 -9.23367281e-07 -1.13154647e-06
      -1.49071457e-06 -2.33163564e-06 -2.79174446e-06 -2.70687337e-06
      -2.51199208e-06 -1.13680267e-06 -3.51714306e-07 -2.94069878e-07
      -1.62286142e-07 -3.63034580e-08 1.58162749e-07 -2.38720844e-07
      3.21689924e-07 1.57400461e-06 2.19764183e-06 1.49702942e-06
      5.55612814e-07 3.35221898e-07 7.48701211e-07 1.29026466e-06
      7.10376696e-07 -2.34960453e-07 -1.04924266e-06 -1.52332655e-06
      -2.11109682e-06 -1.58520777e-06 -3.60624199e-07 -1.59742015e-07
      -5.02219066e-08 5.75491832e-08 -1.48869702e-07 -4.26198426e-07
      -1.59779211e-06 -2.13955900e-06 -1.35502921e-06 -1.37802829e-06
      -1.69393854e-06 -1.17115849e-06 -4.49882464e-07 -2.87458192e-07
      2.49482838e-07 1.36192239e-06 2.16542730e-06 2.52392056e-06
      6.24323150e-07 9.06071705e-07 7.42872999e-07 3.31385763e-07
      -2.38258053e-07 -4.45705950e-07 -5.17266528e-07 -4.75071033e-07
      -5.57123769e-07 -7.21317463e-07 -1.02297827e-06 -1.51925553e-06
      -1.80033226e-06 -1.08816869e-06 5.41151195e-08 8.42240411e-07
      9.95616347e-07 9.25155973e-07 4.76465743e-07 -6.70171119e-07
      -3.87633492e-07 8.28586735e-07 1.51806455e-06 1.40111365e-06
      5.90234094e-07 1.79882193e-07 2.90790410e-07 5.21767504e-07
      5.69906092e-07 -2.70102873e-07 -9.64181027e-07 -1.77580284e-06
      -2.02285696e-06 -1.80202835e-06 -9.62038939e-07 -4.66360518e-07
      1.14348481e-07 4.50872051e-07 2.94806767e-07 3.90505406e-08
      -8.59077943e-07 -1.86274008e-06 -1.69936368e-06 -1.15362127e-06
      -1.68897668e-06 -1.31864044e-06 -9.02084537e-07 -8.79064316e-07
      5.95408437e-07 1.80691302e-06 2.32676507e-06 2.35168659e-06
      1.31097318e-06 1.45238334e-06 1.21477240e-06 9.04049216e-07
      2.44739198e-07 -1.51041064e-07 -3.01495362e-07 -1.88908643e-07
      -2.57406100e-07 -4.43033599e-07 -2.52086465e-07 -2.12117058e-07
      -4.65744336e-07 -4.15363616e-07 1.00707986e-07 7.39211373e-07
      1.58930004e-06 2.19547178e-06 1.01556395e-06 -6.83728899e-07
      -7.21572349e-07 1.27612196e-07 9.63343268e-07 1.50570406e-06
      1.11904660e-06 8.73029478e-07 1.03576872e-06 7.78768197e-07
      9.18413434e-07 5.81865322e-07 3.27503322e-08 -9.39041854e-07
      -1.32784226e-06 -8.29211615e-07 -1.47008492e-07 1.59137784e-07
      3.45413298e-07 7.11937105e-07 7.06295168e-07 4.71995179e-07
      -2.33630061e-07 -1.19280946e-06 -1.50375172e-06 -5.88263333e-07
      -4.94974302e-07 -6.50898244e-07 -7.29661622e-07 -1.03076638e-06
      -5.76892830e-07 1.21399296e-06 2.17506658e-06 2.26654834e-06
      1.62034326e-06 1.34709194e-06 1.24060830e-06 9.26015275e-07
      6.35966444e-07 3.31210686e-07 2.25661495e-07 6.33388026e-08
      -1.70529887e-07 -3.81424627e-07 -4.98883082e-07 1.35831229e-07
      -3.18320872e-08 -1.60087367e-07 -4.66589754e-08 1.73244629e-07
      7.48987588e-07 1.64626226e-06 1.56688782e-06 6.12516033e-07
      1.07832015e-07 3.07515677e-07 1.02686192e-06 1.65062988e-06
      1.41979172e-06 1.10419262e-06 1.42677868e-06 1.17990953e-06
      1.49013920e-06 1.80160748e-06 1.52302641e-06 5.26097267e-07
      -4.36596451e-07 -7.90170134e-08 4.83575604e-07 6.45437410e-07
      9.72349767e-07 1.31451043e-06 1.19543347e-06 1.13679164e-06
      4.53336980e-07 -3.37267636e-07 -7.88068974e-07 -5.34634182e-07
      3.30934739e-07 2.71118608e-07 -1.16378054e-07 -7.50626157e-07
      -1.17332195e-06 -3.00068280e-07 7.10940412e-07 1.24012297e-06
      1.05309709e-06 7.15632666e-07 6.58863769e-07 5.84542249e-07
      5.11239534e-07 4.37764982e-07 5.92916479e-07 3.87609361e-07
      -3.96935071e-08 -2.97901806e-07 -3.58923614e-07 -6.03324821e-08
      -1.51204688e-07 -2.72832295e-07 -3.30297610e-07 1.53689484e-07
      3.47510877e-07 6.03725937e-07 1.17829393e-06 1.30240278e-06
      1.11659733e-06 1.29116472e-06 1.48895515e-06 1.75685477e-06
      1.22676852e-06 7.14041164e-07 1.02400031e-06 9.33669298e-07
      1.40439590e-06 2.34683307e-06 2.57650845e-06 2.03280001e-06
      7.63937237e-07 4.67001030e-07 5.22214748e-07 5.31118928e-07
      6.79928576e-07 8.88997704e-07 1.26770817e-06 1.50718176e-06
      1.37588427e-06 6.12585609e-07 7.14151867e-08 4.86961724e-08
      5.00417570e-07 6.39439008e-07 4.31173504e-07 -9.42722380e-08
      -8.92573439e-07 -1.03045625e-06 -4.26045148e-07 -2.28339303e-07
      9.79852302e-07 8.17849411e-07 5.35649974e-07 4.43532144e-07
      1.49193284e-07 1.70486089e-07 6.36582342e-07 5.00464637e-07
      3.02868614e-07 1.49308150e-07 6.25161505e-08 -1.47727533e-07
      -1.61247058e-07 3.89003588e-07 6.84275221e-07 7.20722824e-07
      4.45815829e-07 2.66117695e-07 3.13250553e-07 5.75352601e-07
      6.00365297e-07 1.19350523e-06 1.86693387e-06 1.91470212e-06
      1.22536153e-06 6.11024973e-07 6.04446086e-07 6.46803187e-07
      9.97140887e-07 2.09559653e-06 2.73360752e-06 2.77219601e-06
      2.06940763e-06 1.40203133e-06 1.16377635e-06 6.79629693e-07
      5.12418808e-07 4.31431772e-07 7.52751987e-07 1.55291457e-06
      1.66509392e-06 1.06760956e-06 4.74860627e-07 5.27429279e-07
      3.70257652e-07 1.92711383e-07 7.74324803e-07 6.64684080e-07
      -3.47750216e-07 -1.17299658e-06 -1.11174040e-06 -1.22708252e-06
      7.96685867e-07 7.38664653e-07 4.43042211e-07 3.15082247e-07
      -1.25844707e-07 1.17268407e-07 3.46641997e-07 4.54751529e-07
      5.54875157e-07 6.66561448e-07 5.01201555e-07 1.85122424e-08
      -1.61077779e-07 7.84785925e-07 1.49120717e-06 1.61193975e-06
      1.18200876e-06 7.49994740e-07 4.48723796e-07 1.17181578e-07
      1.56026325e-09 5.73098930e-07 1.20070069e-06 1.23338293e-06
      7.04135516e-07 1.85532045e-07 1.55069429e-07 4.95155518e-07
      7.05522382e-07 1.71782006e-06 2.27257510e-06 2.64271853e-06
      2.35259881e-06 1.77953632e-06 1.63490631e-06 1.33037088e-06
      7.80847017e-07 3.45236828e-07 5.42019905e-07 1.22253812e-06
      1.26403995e-06 6.66852316e-07 4.03322218e-07 5.62855917e-07
      3.53103843e-07 1.15414082e-07 8.62038064e-07 1.11568397e-06
      1.34071286e-07 -1.17134471e-06 -1.44000614e-06 -1.33523929e-06
      2.89288977e-07 3.20772699e-07 1.13686035e-07 -1.07407523e-07
      -1.84215921e-07 1.63771077e-07 2.08049016e-07 4.31771809e-07
      6.23907340e-07 8.91864943e-07 9.37728885e-07 6.19539207e-07
      4.58095855e-07 8.70420934e-07 1.19695028e-06 1.40656937e-06
      1.61454909e-06 1.57260422e-06 1.33022968e-06 7.32187061e-07
      2.63329127e-07 6.41902204e-07 1.07766948e-06 8.36436300e-07
      1.39770165e-07 -4.17452270e-07 -4.39168730e-07 -1.19940978e-07
      4.65810821e-08 1.02351351e-06 1.73619890e-06 2.13100134e-06
      2.20273046e-06 1.88971899e-06 1.62571610e-06 1.41374153e-06
      1.00134002e-06 3.62872669e-07 4.31910820e-07 1.09224209e-06
      8.61265391e-07 9.65733449e-08 2.42947181e-07 6.43711417e-07
      5.41217275e-07 4.36138151e-07 1.10906387e-06 1.33125889e-06
      6.28369889e-07 -2.36106246e-07 -2.99480433e-07 -2.26172190e-07
      -2.09813891e-07 -2.94647322e-07 -5.30223701e-07 -6.53781967e-07
      -4.88944863e-07 -9.61061062e-08 1.46929224e-07 2.46086984e-07
      2.64738588e-07 6.51343896e-07 9.24497272e-07 8.31322950e-07
      1.20450920e-06 1.26380792e-06 8.87950478e-07 6.78336846e-07
      9.36552681e-07 1.54304314e-06 1.79803885e-06 1.61891751e-06
      1.46078798e-06 1.84577027e-06 1.73383773e-06 1.22482095e-06
      4.33322356e-07 -4.35705090e-07 -6.23516030e-07 -6.52404026e-07
      -5.84820896e-07 -1.40954626e-07 8.23763401e-07 1.34862171e-06
      1.75229786e-06 1.75408502e-06 1.79330596e-06 1.79874928e-06
      1.47428113e-06 7.24825668e-07 4.88414230e-07 1.01666546e-06
      6.06865569e-07 -1.71970143e-07 8.03629376e-08 8.58323745e-07
      8.53207780e-07 7.81508732e-07 1.07685185e-06 1.31645152e-06
      8.59256090e-07 6.20868889e-07 1.08057850e-06 1.14910006e-06
      -5.55315296e-07 -4.93413722e-07 -8.64974993e-07 -1.15115449e-06
      -9.09776475e-07 -4.73091887e-07 -1.08061485e-07 2.36425741e-08
      -2.84854043e-08 2.10994173e-07 2.74773043e-07 4.52859496e-07
      1.11318502e-06 1.12640635e-06 9.05801642e-07 4.34790337e-07
      1.03738543e-07 5.49642095e-07 1.00355544e-06 1.23115558e-06
      1.54728855e-06 2.27317400e-06 2.58532600e-06 2.02937008e-06
      1.26425982e-06 3.55688854e-07 -2.01221440e-07 -6.68964105e-07
      -9.03385569e-07 -6.28613918e-07 1.69353541e-07 4.80464905e-07
      8.75168155e-07 1.33371759e-06 1.43952877e-06 1.52979601e-06
      1.48211495e-06 9.37180687e-07 6.43948397e-07 1.00314730e-06
      6.87440263e-07 -7.29942684e-08 -1.42194608e-07 7.39101949e-07
      9.53466611e-07 7.45781733e-07 8.87680130e-07 9.51709865e-07
      7.46586466e-07 9.09483390e-07 1.49510720e-06 1.69761722e-06
      -1.19960964e-06 -8.05001036e-07 -8.35419655e-07 -1.08250185e-06
      -9.92204377e-07 -5.84105294e-07 -2.09353473e-07 -8.04623994e-08
      -2.89186701e-08 1.85853395e-07 1.42788423e-07 7.18035622e-08
      6.15147314e-07 6.08503456e-07 5.06584684e-07 8.00566795e-08
      -1.65260516e-07 -3.69993174e-08 1.16118144e-07 2.30194530e-07
      4.74710276e-07 1.27338490e-06 2.03459854e-06 2.37963445e-06
      1.99638248e-06 1.06691368e-06 4.40406922e-07 -2.00639676e-07
      -8.20390142e-07 -6.47212346e-07 2.62760182e-07 4.26841297e-07
      5.75084016e-07 8.35576600e-07 7.30036561e-07 6.35303252e-07
      9.08410300e-07 8.33106355e-07 3.92817952e-07 6.04266802e-07
      7.20297351e-07 2.34402819e-07 3.34372565e-08 3.57141772e-07
      6.55456063e-07 6.05390426e-07 6.70519910e-07 6.89922956e-07
      5.55050747e-07 8.81849246e-07 1.47809556e-06 1.61715798e-06
      -2.15776572e-06 -1.45211436e-06 -1.02488593e-06 -1.03127434e-06
      -8.00133989e-07 -5.27415921e-07 -2.34684322e-07 -1.97753650e-07
      -2.20759011e-09 3.67383450e-07 3.98907474e-07 5.37426274e-07
      8.19237414e-07 6.48141338e-07 3.31017588e-07 -1.11201786e-07
      -2.88332842e-07 -2.07736093e-07 -2.44986005e-08 -1.67180133e-07
      -3.35777031e-07 5.02491133e-08 7.25127506e-07 1.50685048e-06
      1.58281034e-06 9.95734808e-07 6.14731221e-07 -2.18437468e-09
      -5.95478127e-07 -5.50612810e-07 3.73072226e-07 5.00711621e-07
      4.16924109e-07 6.23493747e-07 6.32357455e-07 3.52729927e-07
      5.21350671e-07 7.39498148e-07 2.80221798e-07 -2.51739376e-08
      2.35290500e-07 1.42110906e-07 9.94124676e-08 2.06330299e-07
      1.67167187e-07 3.62940170e-07 4.14743880e-07 6.59831016e-07
      6.16714487e-07 7.13966699e-07 1.07049766e-06 1.21240498e-06
      -2.93462881e-06 -2.37522545e-06 -1.59757599e-06 -1.17349293e-06
      -7.72250189e-07 -3.57141715e-07 -2.68136063e-07 -4.31461274e-07
      -1.24666542e-07 3.90101548e-07 5.06766980e-07 7.94674747e-07
      1.06083439e-06 8.94129585e-07 4.72706347e-07 -2.71007991e-07
      -5.05226808e-07 -2.50049652e-07 1.26302567e-07 3.05329280e-07
      1.12764809e-07 -4.14051620e-08 3.80446892e-08 3.29135418e-07
      6.87661441e-07 5.83553060e-07 6.09329845e-07 -1.54789944e-07
      -6.28951568e-07 -5.61521574e-07 1.68007745e-07 3.83542982e-07
      8.81910154e-08 3.15366378e-07 3.54131345e-07 2.44284507e-07
      2.23648300e-07 3.85395509e-07 1.87739559e-07 -2.44886053e-07
      -4.19170135e-07 -4.09871262e-07 -3.08832654e-07 -1.12748140e-07
      -1.13770163e-07 9.73294121e-08 1.52489534e-07 4.06364109e-07
      6.52796757e-07 7.64483502e-07 9.88215220e-07 1.15021055e-06
      -3.04137666e-06 -2.76783021e-06 -1.81773669e-06 -1.21502501e-06
      -7.62904051e-07 -4.44992452e-07 -4.35027147e-07 -5.10301220e-07
      -3.29396926e-07 1.65417632e-07 3.08587175e-07 6.34018249e-07
      9.17982845e-07 7.88740579e-07 6.70171687e-07 -2.90691816e-07
      -1.00149248e-06 -8.21345054e-07 -5.77362087e-08 5.44507714e-07
      6.98747044e-07 3.05058592e-07 2.69005263e-08 6.00149819e-10
      2.43078038e-08 4.54836169e-09 2.55282629e-07 -3.26477732e-07
      -6.60333171e-07 -8.17151772e-07 -6.27800603e-07 -4.64116653e-07
      -7.08117057e-07 -6.42590692e-07 -6.29691101e-07 -7.89686965e-07
      -9.81890025e-07 -8.52059600e-07 -6.87785132e-07 -6.97044698e-07
      -6.96799020e-07 -7.08159632e-07 -6.70599889e-07 -3.46773191e-07
      -2.00439956e-07 2.18527756e-08 -1.24586537e-08 2.42960340e-07
      6.32758486e-07 8.67923973e-07 1.05516881e-06 1.24479038e-06
      -2.56996827e-06 -2.48246465e-06 -1.77335983e-06 -8.86967257e-07
      -5.59912905e-07 -4.25293706e-07 -3.44789186e-07 -4.66984403e-07
      -5.13262989e-07 -2.87368806e-07 -1.55913199e-07 1.47744188e-07
      6.03776584e-07 8.33019214e-07 7.01813860e-07 -2.41060093e-07
      -1.19645858e-06 -1.41869384e-06 -6.57974965e-07 1.72771948e-07
      4.40876278e-07 5.26021950e-07 6.72674048e-07 4.31225459e-07
      6.60032313e-08 -3.07893888e-09 1.11842056e-07 -3.47760704e-07
      -3.58366549e-07 -6.25474286e-07 -1.05382856e-06 -1.22344829e-06
      -1.91272147e-06 -2.17688762e-06 -2.20626657e-06 -2.36224241e-06
      -2.38896450e-06 -2.19709887e-06 -1.78488870e-06 -1.49649054e-06
      -1.30899332e-06 -1.18255764e-06 -1.05770187e-06 -4.85504358e-07
      -1.94288191e-07 1.15571424e-07 -6.41689226e-08 2.17886324e-07
      6.74609055e-07 9.29561963e-07 1.02683214e-06 1.18493756e-06
      -2.13172530e-06 -2.05724427e-06 -1.49725076e-06 -7.54611847e-07
      -3.58147929e-07 -1.33720420e-07 1.34509605e-07 4.24738964e-08
      -2.68636427e-07 -4.47260703e-07 -3.24973456e-07 -1.56491694e-07
      4.41471144e-07 1.08206609e-06 1.12655232e-06 8.96277612e-08
      -9.36445815e-07 -1.50180074e-06 -1.24702069e-06 -9.00417149e-07
      -4.90411878e-07 1.47572692e-07 6.96708355e-07 9.48018283e-07
      8.65642903e-07 5.15167869e-07 3.88477929e-07 1.42976040e-08
      -8.79108129e-08 -2.42961136e-07 -6.85114628e-07 -1.42008525e-06
      -2.62235017e-06 -3.19472952e-06 -3.50777009e-06 -3.89896513e-06
      -4.06449681e-06 -3.72733211e-06 -2.98752025e-06 -2.43012755e-06
      -2.09512336e-06 -1.78096661e-06 -1.54864927e-06 -7.57905980e-07
      -3.53488190e-07 5.52805233e-08 -3.36178552e-08 1.99385696e-07
      7.12849385e-07 9.41245730e-07 9.48400782e-07 1.00887621e-06
      -1.73748651e-06 -1.74651336e-06 -1.36404026e-06 -9.09158814e-07
      -4.78433208e-07 -1.40163280e-07 5.14032251e-07 5.69023769e-07
      1.78832963e-07 -8.67558825e-08 3.23260565e-08 1.56846809e-07
      7.96351173e-07 1.67278279e-06 1.66591258e-06 7.75342755e-07
      1.69236174e-07 -5.70567352e-07 -8.48847719e-07 -1.11379882e-06
      -1.31657225e-06 -8.32930596e-07 1.31979718e-07 8.81760286e-07
      1.04583489e-06 1.00066450e-06 9.43799193e-07 9.17881380e-07
      7.72007638e-07 4.92778270e-07 -5.23067056e-09 -7.28162377e-07
      -1.91628124e-06 -3.20435311e-06 -3.33076832e-06 -3.92827542e-06
      -4.33651212e-06 -4.16427520e-06 -3.38502605e-06 -2.59670946e-06
      -2.16382045e-06 -1.85524448e-06 -1.57265094e-06 -9.98166342e-07
      -5.64283482e-07 -9.09252194e-08 -2.23104664e-08 2.09607009e-07
      7.07037373e-07 8.62559716e-07 8.31587613e-07 8.28264888e-07
      -1.43481702e-06 -1.41520809e-06 -1.28991769e-06 -1.08711606e-06
      -7.64575987e-07 -3.40863124e-07 2.94754926e-07 6.91843638e-07
      2.77125054e-07 1.54280315e-07 4.03910605e-07 6.72458839e-07
      1.19116339e-06 2.30380920e-06 2.77250501e-06 2.11415136e-06
      1.26201871e-06 6.31671298e-07 1.18274649e-07 -4.76359702e-07
      -8.94429945e-07 -1.51993925e-06 -1.25218014e-06 -5.71743215e-07
      2.92655585e-07 7.12053065e-07 9.18307762e-07 1.33687456e-06
      1.40089276e-06 1.14922079e-06 6.51102539e-07 5.34705116e-08
      -5.86378519e-07 -1.27095802e-06 -1.19648450e-06 -1.57206307e-06
      -2.29564807e-06 -2.63540301e-06 -2.33371975e-06 -1.66401901e-06
      -1.42825570e-06 -1.45467982e-06 -1.28796376e-06 -1.03774482e-06
      -5.66098095e-07 -2.15113417e-07 -1.32542908e-07 2.93419419e-07
      7.61404465e-07 8.14653447e-07 8.31446130e-07 7.93227343e-07
      -1.31701393e-06 -1.21662424e-06 -1.28189004e-06 -1.13539591e-06
      -9.49662990e-07 -5.14236774e-07 1.39952476e-07 6.65031223e-07
      4.17019862e-07 2.90321964e-07 5.10332598e-07 1.00549948e-06
      1.42465672e-06 2.35615403e-06 2.99169960e-06 2.95406653e-06
      2.94526967e-06 2.69158090e-06 2.06022901e-06 6.67804443e-07
      -5.47888988e-07 -1.50010692e-06 -2.06003187e-06 -1.89731884e-06
      -1.14312570e-06 -4.38628547e-07 1.94873550e-07 6.95188419e-07
      1.03438947e-06 1.21289986e-06 9.19011541e-07 4.82139455e-07
      2.94091535e-07 2.82446592e-07 1.38524047e-06 1.70515432e-06
      1.21304390e-06 6.37420783e-07 4.56572820e-07 3.32290398e-07
      -1.04512701e-07 -5.68768655e-07 -9.74905902e-07 -1.12446548e-06
      -7.52034225e-07 -3.82672681e-07 -4.03013900e-07 5.70613885e-08
      6.10726602e-07 7.37631922e-07 8.48733691e-07 9.74177397e-07
      -1.28975853e-06 -1.15840282e-06 -1.06323466e-06 -9.99040367e-07
      -8.77218497e-07 -6.20537890e-07 1.59485258e-09 4.54483171e-07
      5.57039527e-07 6.37427661e-07 9.03359478e-07 1.50885626e-06
      1.85213071e-06 2.44537614e-06 2.46392915e-06 1.95469579e-06
      2.45053911e-06 3.36928792e-06 3.29964269e-06 2.00071054e-06
      4.84196164e-07 -8.68499740e-07 -1.76789194e-06 -2.20304082e-06
      -2.15850605e-06 -1.80210566e-06 -1.02471063e-06 -5.42816451e-07
      -3.68739705e-07 2.34756783e-07 1.80220511e-07 1.06858209e-07
      4.56331897e-08 -5.43237945e-07 9.56353347e-07 2.67744781e-06
      2.82296764e-06 2.40956911e-06 2.11295128e-06 1.70686781e-06
      8.11767393e-07 6.48189911e-08 -8.33602087e-07 -1.37429106e-06
      -1.12536304e-06 -7.72083183e-07 -6.78414153e-07 -1.41437042e-07
      4.11101212e-07 6.50408708e-07 9.09930066e-07 1.11912357e-06
      -6.01381544e-07 -7.21782101e-07 -5.96228631e-07 -5.68785254e-07
      -4.88442936e-07 -4.90599177e-07 -1.69984304e-07 2.92258846e-07
      4.64410277e-07 8.85170493e-07 1.43106536e-06 2.23183133e-06
      2.54208408e-06 2.73063438e-06 2.63274319e-06 2.26219117e-06
      1.71742056e-06 2.16036256e-06 2.57560919e-06 1.84866599e-06
      8.08499806e-07 -9.52316910e-08 -1.27406634e-06 -2.04023422e-06
      -2.48460901e-06 -2.65532685e-06 -2.28924273e-06 -1.96946735e-06
      -1.48346453e-06 -5.40464157e-07 -6.54893938e-07 -7.63139212e-07
      -4.52482368e-07 -1.35998039e-06 -7.39974269e-07 1.60490163e-06
      2.26928046e-06 2.17930460e-06 1.94876247e-06 1.94832705e-06
      1.11402528e-06 2.54546109e-07 -8.19830007e-07 -1.30992498e-06
      -1.15693138e-06 -1.05207721e-06 -9.62285753e-07 -4.96977350e-07
      1.38739921e-07 5.11035410e-07 7.61383092e-07 9.63654429e-07
      -6.38000230e-08 -2.28118026e-07 -3.27476840e-07 -1.86144405e-07
      -1.01832418e-08 -1.85451000e-07 -2.51604718e-07 2.02773847e-07
      9.82042536e-08 8.30522083e-07 1.84903513e-06 2.47252365e-06
      2.48715446e-06 2.36614642e-06 2.53835742e-06 2.79099982e-06
      2.10452231e-06 1.31430500e-06 9.57862653e-07 8.24067001e-07
      3.84162661e-07 -4.09394346e-07 -8.28303314e-07 -1.84915280e-06
      -2.53609187e-06 -2.74568606e-06 -2.97570955e-06 -2.94173606e-06
      -2.07317839e-06 -8.13434383e-07 -4.63363563e-07 -8.25582163e-07
      -5.51186361e-07 -1.15312571e-06 -1.39843439e-06 5.21424454e-07
      1.57940281e-06 1.72904709e-06 1.52772122e-06 1.62593847e-06
      1.31305012e-06 5.75940646e-07 -3.30774185e-07 -7.01022600e-07
      -5.90018942e-07 -7.40710334e-07 -6.79792493e-07 -5.10079303e-07
      -1.73403677e-07 3.77906247e-07 7.75626518e-07 7.65551476e-07
      1.13184228e-07 -3.92849309e-08 -2.26288222e-07 -7.09244432e-08
      1.71368512e-07 7.52347447e-08 -2.10723616e-08 2.35414234e-07
      -1.29746979e-07 5.74561284e-07 1.69356861e-06 2.40048621e-06
      2.22005792e-06 1.57018610e-06 1.63863945e-06 2.48825290e-06
      2.62976209e-06 1.96932024e-06 1.23539314e-06 8.44837928e-07
      3.25348907e-07 -2.22466738e-07 -9.56563781e-07 -1.53823021e-06
      -1.91216895e-06 -2.28759950e-06 -2.81371945e-06 -3.10234600e-06
      -2.42965370e-06 -1.40682187e-06 -7.32959052e-07 -6.16357624e-07
      6.68638833e-08 2.99426489e-07 -7.35484548e-07 1.01973733e-07
      9.24741300e-07 1.10152575e-06 1.15980515e-06 1.35661116e-06
      1.10802830e-06 5.44825753e-07 3.91945179e-07 3.24396865e-07
      4.31915140e-07 2.64062805e-07 1.84098596e-07 1.61914244e-07
      2.93102829e-07 7.15591455e-07 1.03473508e-06 1.02182810e-06
      2.41843907e-07 -2.43803555e-08 -8.75356960e-08 7.81060905e-08
      4.09152733e-07 4.76582500e-07 3.06856066e-07 4.15034606e-07
      4.50756232e-08 4.61513537e-07 1.39032431e-06 2.05959145e-06
      1.92086918e-06 9.56500230e-07 5.66606900e-07 1.04571996e-06
      1.66773020e-06 1.98545399e-06 1.63056382e-06 1.07476774e-06
      5.66028064e-07 -1.28716138e-07 -7.42997202e-07 -1.14198303e-06
      -1.27308135e-06 -1.48880940e-06 -2.05981542e-06 -2.32787215e-06
      -2.19912567e-06 -1.89937225e-06 -1.28116619e-06 -5.92281594e-07
      3.43179835e-07 9.44995236e-07 1.56380295e-07 1.42118353e-07
      3.80186179e-07 5.94071480e-07 9.39221934e-07 1.24601763e-06
      9.46545526e-07 1.88476236e-07 1.17192457e-07 2.50874677e-07
      6.98672807e-07 1.01068633e-06 1.05756476e-06 1.04961168e-06
      1.09218547e-06 1.30775948e-06 1.60847719e-06 1.84387568e-06
      5.17135447e-07 5.62085006e-07 4.26224148e-07 5.10550024e-07
      8.82549273e-07 1.07205028e-06 9.18593059e-07 8.30629745e-07
      8.37882112e-07 8.86121938e-07 1.37856887e-06 2.09761788e-06
      2.04796743e-06 1.43038676e-06 4.14333556e-07 -1.10783645e-07
      2.23197247e-07 8.48717832e-07 1.44758803e-06 1.53012445e-06
      7.45067837e-07 -1.89922943e-07 -8.03064552e-07 -9.64791752e-07
      -8.22989819e-07 -8.97162749e-07 -1.42983856e-06 -1.30955357e-06
      -1.42051238e-06 -1.58641399e-06 -1.37085317e-06 -4.33302233e-07
      3.77976960e-07 7.16913121e-07 1.94798261e-07 9.88550966e-08
      2.74274953e-07 5.95568338e-07 1.07768221e-06 1.47949072e-06
      1.27850114e-06 8.43595046e-07 4.19714524e-07 -7.27211571e-08
      1.78440047e-07 9.12366033e-07 1.19834579e-06 9.70973701e-07
      9.17661623e-07 1.16103843e-06 1.64145138e-06 2.16057970e-06
      3.72547078e-07 5.20777405e-07 6.35688650e-07 9.94654897e-07
      1.54501436e-06 1.63199354e-06 1.21804578e-06 1.30023238e-06
      1.59855847e-06 1.51454901e-06 1.55741566e-06 1.91245226e-06
      2.11946599e-06 1.74288050e-06 6.98820998e-07 -4.24591093e-07
      -4.79335029e-07 -4.23103558e-07 2.87624033e-07 1.00524028e-06
      7.31790692e-07 2.32866498e-07 -2.52210839e-07 -2.92102754e-07
      -5.31075443e-07 -7.12523274e-07 -9.32392425e-07 -7.93729328e-07
      -5.59832984e-07 -6.46678359e-07 -8.08172786e-07 -3.41105363e-07
      1.81945097e-07 2.78879526e-07 -1.33028237e-07 5.23015622e-08
      4.82987389e-07 7.18550723e-07 1.05429172e-06 1.37422182e-06
      1.47544301e-06 1.28061981e-06 7.31686612e-07 -2.35591926e-07
      -3.22128017e-07 3.84624258e-07 9.19341232e-07 6.14264366e-07
      3.96021790e-07 4.26400504e-07 9.72200951e-07 1.60702268e-06
      1.63983486e-07 1.19583788e-07 4.28183569e-07 1.13427313e-06
      1.94143922e-06 2.22936001e-06 1.79165829e-06 1.75645971e-06
      1.98420912e-06 1.81647295e-06 1.51414406e-06 1.40345821e-06
      1.70599890e-06 1.57691295e-06 5.63035769e-07 -2.62419491e-07
      -6.79008053e-07 -8.75145588e-07 -4.42457008e-07 1.00615914e-07
      1.06976927e-07 9.75992904e-08 3.41580886e-07 6.31994965e-07
      2.08492509e-07 -1.20393594e-07 -2.05403666e-07 -1.39832522e-07
      -4.28364757e-08 1.93581727e-07 9.72082059e-09 1.51491228e-08
      1.10747344e-07 1.26112027e-07 1.35303484e-08 1.05962570e-07
      4.46738369e-07 4.13511401e-07 5.57819590e-07 7.01455974e-07
      9.28574821e-07 1.10034966e-06 6.60568446e-07 -2.82588786e-07
      -6.72449858e-07 -3.81531805e-07 3.39728558e-07 3.71449772e-07
      1.63610693e-07 8.35244904e-08 3.22945908e-07 9.25777442e-07
      -1.58207158e-07 -1.82728300e-07 3.92988426e-07 1.23666575e-06
      1.93901042e-06 2.31869512e-06 2.11245720e-06 1.84054159e-06
      1.90565265e-06 1.73356659e-06 1.36758581e-06 7.75046772e-07
      8.58932879e-07 9.58697910e-07 5.13617920e-07 1.08980032e-07
      2.10395745e-09 -3.80936399e-07 -7.53123686e-07 -7.73722832e-07
      -4.87474551e-07 -3.39037342e-07 1.69934268e-07 5.20997048e-07
      3.71232233e-07 6.18022398e-07 1.11099234e-06 1.11692577e-06
      6.11011103e-07 3.79150123e-07 3.79687322e-07 1.51563199e-07
      1.31614499e-07 3.06586116e-07 5.26673318e-07 5.68210851e-07
      7.29169017e-07 3.04825051e-07 5.64551215e-08 3.02792031e-08
      2.68711275e-08 -9.55097335e-08 -1.34677274e-08 -4.58018974e-07
      -1.01571879e-06 -9.12877681e-07 -9.87377362e-08 -1.02036672e-07
      -1.43549826e-07 9.23887242e-08 -3.20420845e-08 3.09441042e-08
      -4.18884092e-08 -1.01889690e-07 2.85056615e-07 9.99389954e-07
      1.37199618e-06 1.73457181e-06 1.85803106e-06 1.65341146e-06
      1.62484935e-06 1.17163222e-06 6.83452924e-07 1.88378706e-07
      9.41820346e-08 3.26345628e-07 -6.04445134e-08 4.01716882e-08
      5.01459624e-07 -1.25672708e-08 -1.18310879e-06 -1.75861021e-06
      -1.21698076e-06 -7.58866179e-07 1.26111928e-07 5.15549061e-07
      4.49526510e-07 9.04780563e-07 2.00312115e-06 2.21290679e-06
      1.90024218e-06 1.56915303e-06 1.38022654e-06 8.85446127e-07
      5.77180288e-07 8.34111233e-07 8.59778595e-07 9.99106646e-07
      1.16929459e-06 8.14926750e-07 3.68066310e-07 1.59733403e-07
      5.22805843e-09 -4.71006587e-07 -6.86481769e-07 -7.22910556e-07
      -9.91965521e-07 -1.09755933e-06 -5.44622651e-07 -5.24328584e-07
      -5.74821797e-07 -1.16353348e-07 7.71957360e-08 -2.86072606e-07
      1.15651926e-06 7.34166690e-07 5.89672482e-07 6.63180060e-07
      7.48821947e-07 9.99816734e-07 1.20772040e-06 1.05748370e-06
      1.02112438e-06 5.93277662e-07 4.17624797e-08 -4.96659709e-07
      -4.86042097e-07 -3.98689167e-07 -2.59827146e-07 7.87800971e-08
      4.56257027e-07 5.43124159e-08 -9.65567210e-07 -1.57561124e-06
      -1.48738945e-06 -8.70021211e-07 1.58647012e-07 1.15270882e-06
      2.08431334e-06 2.50172411e-06 2.80382869e-06 2.71832755e-06
      2.03126069e-06 1.93259484e-06 2.06866753e-06 2.00083127e-06
      1.29794239e-06 1.38645657e-06 1.35751054e-06 1.09566145e-06
      1.09674181e-06 8.72618102e-07 5.88129637e-07 3.14022060e-07
      2.73381062e-07 -6.99405973e-08 -5.62851142e-07 -8.41495591e-07
      -7.68201062e-07 -7.60923228e-07 -5.61172499e-07 -5.95226140e-07
      -4.90025059e-07 1.77530225e-07 5.97454743e-07 3.45168559e-07
      2.97290421e-06 2.53876192e-06 1.61663206e-06 8.82755160e-07
      5.36907237e-07 7.39940674e-07 6.74338366e-07 7.03197259e-07
      7.19262914e-07 5.08696871e-07 9.13663172e-08 -2.76556648e-07
      -7.48935577e-07 -7.58145973e-07 -2.20471435e-07 1.59518848e-07
      4.52966447e-07 3.02640721e-08 -2.08488729e-07 -5.53831967e-07
      -7.19290313e-07 -7.46011779e-07 -3.15352651e-08 1.23367113e-06
      2.39437804e-06 3.47675928e-06 3.44398336e-06 3.52313441e-06
      3.20888057e-06 2.69626366e-06 2.52445807e-06 2.37209360e-06
      2.06704067e-06 1.88725278e-06 1.68814870e-06 1.05225445e-06
      7.21621348e-07 7.41114889e-07 6.55554913e-07 3.78630858e-07
      3.91378819e-07 2.16023466e-07 -6.17992129e-08 -4.32582056e-07
      -3.20647302e-07 -3.70028744e-07 -2.93040017e-07 -3.87630195e-07
      -7.89597436e-08 3.92254066e-07 7.33700631e-07 9.01367457e-07
      4.04981074e-06 3.69995996e-06 2.62751314e-06 1.52253676e-06
      1.10124313e-06 1.22267852e-06 6.96506675e-07 5.30679699e-07
      5.68251664e-07 3.93211025e-07 1.92345041e-07 1.08923700e-07
      -3.56277212e-07 -7.90511820e-07 -4.85229862e-07 -5.00634840e-08
      5.80140920e-07 5.19726427e-07 7.85874477e-07 1.03739467e-06
      8.77703314e-07 6.53780148e-07 1.19665685e-06 1.75843672e-06
      2.41905423e-06 2.99233943e-06 3.27373277e-06 3.44677119e-06
      3.88941908e-06 4.11589872e-06 3.82191593e-06 3.36915923e-06
      2.70899386e-06 2.29232342e-06 1.99332499e-06 1.45646152e-06
      8.22989421e-07 7.06562446e-07 5.68969369e-07 3.55009291e-07
      4.12668413e-07 4.04120243e-07 4.09324116e-07 3.43222439e-07
      6.56157908e-07 4.23027330e-07 1.49761874e-07 1.09605494e-07
      7.10718240e-08 6.10596196e-09 7.24735614e-08 1.13227834e-07
      3.93627988e-06 3.70631574e-06 2.82304541e-06 1.85404383e-06
      1.64858000e-06 1.64619735e-06 9.13973452e-07 7.80021935e-07
      9.05731667e-07 6.02323780e-07 4.72432106e-07 3.96193883e-07
      1.21069439e-08 -6.65994662e-07 -8.32755461e-07 -4.39538610e-07
      8.26977526e-08 5.75806780e-07 1.42861109e-06 1.68343774e-06
      1.77021764e-06 1.57759155e-06 2.15879413e-06 2.45630531e-06
      2.16952571e-06 2.18012497e-06 2.25409781e-06 2.53552753e-06
      3.21962943e-06 4.36969367e-06 4.71333806e-06 4.28507565e-06
      3.54631811e-06 2.91529955e-06 2.71777844e-06 2.04548883e-06
      1.27186331e-06 1.35589983e-06 1.12727378e-06 8.01199064e-07
      6.81133145e-07 8.41945564e-07 8.60540354e-07 1.28467957e-06
      1.82728706e-06 1.46097500e-06 7.17872410e-07 6.92496485e-07
      6.54356995e-07 2.45438159e-08 -5.39023631e-07 -7.69175642e-07
      2.25225949e-06 2.48145125e-06 2.03774221e-06 1.72145758e-06
      1.60345644e-06 1.55789451e-06 1.18323783e-06 1.07529945e-06
      1.49791742e-06 1.18257162e-06 5.26617555e-07 4.15968771e-07
      3.32741905e-07 -3.64047139e-07 -6.85650377e-07 -4.16128444e-07
      3.32678454e-08 3.28940388e-07 1.09408040e-06 1.56304293e-06
      1.66122152e-06 1.49342668e-06 1.95823191e-06 2.38937628e-06
      2.19611275e-06 1.90396497e-06 1.66094912e-06 1.47194953e-06
      1.86441207e-06 3.17522449e-06 4.19550679e-06 4.32048773e-06
      3.91289677e-06 3.58010811e-06 3.49571178e-06 2.72104262e-06
      1.80228665e-06 1.75468836e-06 1.90664355e-06 1.84054943e-06
      1.58885155e-06 1.53798862e-06 1.99555848e-06 2.33974106e-06
      2.34363915e-06 1.94305198e-06 1.28562635e-06 1.31705633e-06
      1.29094235e-06 7.20523246e-07 1.58692885e-07 -2.71592029e-07
      -1.43417950e-07 3.24145759e-07 7.56709255e-07 8.20493995e-07
      1.06151492e-06 9.20323942e-07 7.35719823e-07 8.45069337e-07
      1.86204716e-06 2.00979002e-06 1.15771741e-06 7.23479729e-07
      8.17383579e-07 3.10574706e-07 -2.46980552e-08 4.09595984e-08
      2.37116950e-07 7.74700084e-07 1.33159688e-06 1.46936918e-06
      1.72973557e-06 1.73244371e-06 1.53898191e-06 1.62961828e-06
      1.69078396e-06 1.58363912e-06 1.46966283e-06 8.44610042e-07
      8.41818405e-07 1.88977060e-06 2.98378473e-06 3.99754344e-06
      4.30579894e-06 3.96984433e-06 3.76298090e-06 3.18484081e-06
      2.38806592e-06 2.41203998e-06 2.62623257e-06 2.51340566e-06
      2.05761989e-06 2.10647295e-06 2.71649219e-06 3.03535762e-06
      2.79672349e-06 2.35777725e-06 2.21862706e-06 2.09063205e-06
      1.87762771e-06 1.65690767e-06 1.58138062e-06 1.22416282e-06
      -2.68896088e-06 -1.79433403e-06 -4.02384330e-07 4.09670804e-07
      7.68083169e-07 6.75680326e-07 5.53518362e-07 6.31616047e-07
      1.77367406e-06 2.46510263e-06 1.75631101e-06 1.32837761e-06
      1.07406584e-06 7.90460149e-07 5.96842710e-07 1.12206536e-07
      1.88251647e-07 6.00232852e-07 1.04512537e-06 9.97609732e-07
      1.45922843e-06 1.62869037e-06 1.25403494e-06 9.97635766e-07
      1.01567616e-06 1.07620542e-06 9.09664777e-07 2.18600732e-07
      -1.33389875e-07 6.24027109e-07 1.83333213e-06 3.15889088e-06
      3.96075484e-06 3.81319660e-06 3.41143414e-06 3.17765080e-06
      2.83459553e-06 2.86285285e-06 3.01800173e-06 2.84966450e-06
      2.25885628e-06 2.00680915e-06 2.51334632e-06 2.69428665e-06
      2.83201462e-06 2.83027248e-06 2.82298538e-06 2.67465362e-06
      2.30459955e-06 2.30487717e-06 2.32164552e-06 1.90073206e-06
      -4.24407745e-06 -2.90905405e-06 -8.46280045e-07 7.59727186e-07
      1.42414967e-06 1.32486309e-06 1.12549276e-06 1.29646958e-06
      2.32605998e-06 3.14286376e-06 2.98930240e-06 2.56085241e-06
      1.84943781e-06 1.21506764e-06 1.01995715e-06 5.70069574e-07
      4.63431348e-07 9.22113770e-07 1.01150169e-06 7.76172044e-07
      1.34201821e-06 1.37726499e-06 1.11612530e-06 7.97048870e-07
      1.01712874e-06 1.20110963e-06 9.80264076e-07 3.03093969e-07
      -1.15012000e-07 2.35175762e-07 1.06224536e-06 2.37837980e-06
      3.38124391e-06 3.50136270e-06 3.28787678e-06 3.09945062e-06
      2.97652332e-06 2.55029022e-06 2.51363622e-06 2.58497903e-06
      2.32117895e-06 2.01287799e-06 2.30011551e-06 2.26215366e-06
      2.48791594e-06 3.07573146e-06 3.18795765e-06 2.95974019e-06
      2.47951016e-06 2.53795997e-06 2.39384099e-06 2.07777589e-06
      -4.39020778e-06 -3.00335319e-06 -8.30953127e-07 1.03760226e-06
      2.19886329e-06 2.18665446e-06 1.81352914e-06 1.77344884e-06
      2.80207473e-06 3.54997496e-06 3.63237268e-06 3.29821387e-06
      2.58697878e-06 1.60471313e-06 1.42351985e-06 1.23527275e-06
      1.23633936e-06 1.52525536e-06 1.47364904e-06 1.16911303e-06
      1.29474552e-06 1.32779905e-06 1.13690146e-06 9.03988393e-07
      1.30922547e-06 1.59180183e-06 1.22256563e-06 4.01195877e-07
      8.09159033e-08 5.02968078e-07 1.01842829e-06 1.77304571e-06
      2.84186262e-06 3.34837227e-06 3.45800163e-06 3.04269133e-06
      2.80894778e-06 2.44218177e-06 2.34605727e-06 2.32456523e-06
      2.18072523e-06 1.88942840e-06 1.85097008e-06 1.84598775e-06
      2.18678701e-06 2.83147028e-06 3.32506170e-06 3.17821014e-06
      2.69926568e-06 2.55255986e-06 2.24845007e-06 2.08052074e-06
      2.29519458e-07 2.66788248e-07 1.01326577e-07 -1.63797196e-07
      -2.54273061e-07 -2.53548595e-08 5.19441528e-07 8.73764009e-07
      1.01911485e-06 9.66231596e-07 1.00902332e-06 5.16198554e-07
      1.95037217e-07 1.68217369e-07 1.94648379e-07 3.30562983e-07
      2.74703467e-07 1.12045022e-07 2.60570289e-07 2.53591253e-07
      1.71695859e-07 2.08902662e-07 3.42455138e-07 4.17459091e-07
      4.69633761e-07 4.54089019e-07 3.84729816e-07 2.22920221e-07
      3.15009203e-07 4.89637330e-07 6.05040498e-07 6.47329784e-07
      4.30621185e-07 3.31883399e-07 6.04576485e-07 7.80001756e-07
      8.07326728e-07 6.98550593e-07 6.98429517e-07 7.36440313e-07
      5.47054242e-07 5.20580386e-07 5.12181032e-07 4.38252613e-07
      3.45151904e-07 -2.34722588e-08 -4.04537928e-07 -6.41791360e-07
      -7.73343061e-07 -8.19117190e-07 -6.32171918e-07 -4.75498297e-07
      2.96975287e-07 2.32051264e-07 1.10786473e-07 -2.98231448e-08
      -1.58907511e-07 -8.67022294e-08 1.69005887e-07 6.04898105e-07
      8.62626393e-07 8.44008241e-07 7.86535793e-07 8.36119000e-07
      2.91379735e-07 1.83547357e-07 1.19732206e-07 6.23625453e-08
      2.59451582e-07 3.18379449e-07 3.22397966e-07 4.66892800e-07
      3.64881686e-07 3.45866312e-07 4.03724641e-07 4.87381612e-07
      5.81851793e-07 5.78344213e-07 4.30575881e-07 3.56334965e-07
      3.10867790e-07 3.71432009e-07 5.31203455e-07 5.49173421e-07
      4.81871723e-07 3.59608379e-07 3.48596728e-07 5.91631647e-07
      7.91060756e-07 7.57248245e-07 4.98036115e-07 3.84382901e-07
      4.24847713e-07 4.20039242e-07 2.62256975e-07 2.86655194e-07
      3.48498304e-07 1.73432014e-07 -9.33648465e-08 -3.38051933e-07
      -6.33108357e-07 -9.28728923e-07 -9.79054562e-07 -6.04106845e-07
      3.34892064e-07 1.99912307e-07 8.14048988e-08 -1.81903896e-08
      -9.20834253e-08 -4.17673647e-08 1.67017475e-07 4.58862786e-07
      6.84372594e-07 6.78244476e-07 6.16727732e-07 6.60528599e-07
      4.64559065e-07 1.43680992e-07 7.41761781e-08 -7.51215055e-08
      1.37976400e-07 4.55457297e-07 5.17912383e-07 5.00511760e-07
      5.40002532e-07 4.96899929e-07 4.40160278e-07 5.30964769e-07
      6.13965767e-07 7.90490731e-07 6.10160953e-07 4.58955554e-07
      5.79861080e-07 5.26557812e-07 4.60833462e-07 4.35704379e-07
      5.35016000e-07 5.31135299e-07 4.72223974e-07 5.42134956e-07
      7.51763082e-07 9.63040179e-07 8.02931936e-07 2.65253192e-07
      -8.70375771e-09 1.53520858e-07 1.31451102e-07 -1.69903611e-08
      4.10982963e-08 6.95229474e-08 7.50281970e-08 -3.75339901e-08
      -1.69813418e-07 -6.28876137e-07 -9.38663504e-07 -9.07375295e-07
      2.01515505e-07 1.66977046e-07 6.32009147e-08 1.83664682e-07
      8.96485801e-08 4.09450465e-08 1.63897539e-07 5.35003949e-07
      7.56181805e-07 6.16922421e-07 5.50678351e-07 4.98910424e-07
      5.56320856e-07 2.24935377e-07 -2.62073474e-08 -7.79866749e-09
      3.93989268e-08 4.64885375e-07 7.90118918e-07 8.38028427e-07
      7.06571313e-07 6.56354928e-07 5.84104896e-07 5.65483504e-07
      7.06690116e-07 7.79674906e-07 9.68167797e-07 7.30061913e-07
      7.49153401e-07 8.88664147e-07 6.20010155e-07 4.02021215e-07
      4.82626376e-07 5.84505983e-07 5.56389296e-07 6.09552160e-07
      7.19725051e-07 9.36051890e-07 1.11934389e-06 6.65028722e-07
      -3.64391290e-08 -3.50041233e-07 -1.20931404e-07 -1.46994722e-07
      -2.93845773e-07 -1.45393528e-07 -9.37258946e-08 -1.44795207e-08
      8.80839011e-08 -1.64000895e-07 -5.53485734e-07 -6.42829946e-07
      3.89320689e-07 1.74643688e-07 3.58288332e-08 2.24318796e-07
      4.40015356e-07 3.76929762e-07 3.39101746e-07 4.78344248e-07
      7.06861215e-07 7.22822222e-07 5.65603841e-07 4.26180435e-07
      4.99116936e-07 3.64227645e-07 -9.35738811e-08 -1.41938628e-07
      -5.89463518e-08 1.70324256e-07 7.99479608e-07 1.05443235e-06
      1.03603566e-06 9.10494009e-07 7.06130493e-07 6.68078371e-07
      7.61915089e-07 8.09648952e-07 9.22458298e-07 1.11484474e-06
      1.00893897e-06 9.98350856e-07 1.02493493e-06 5.34362869e-07
      2.74754058e-07 5.17932392e-07 5.40900146e-07 4.95614358e-07
      5.69544568e-07 8.21596529e-07 9.75735247e-07 9.51214929e-07
      3.06437755e-07 -4.16052700e-07 -5.47019624e-07 -3.59022437e-07
      -4.64668489e-07 -4.61794684e-07 -3.29973034e-07 -2.80379879e-07
      -9.77808483e-08 3.58385428e-08 -2.41293151e-07 -3.88263203e-07
      5.53434290e-07 4.74335110e-07 1.90646603e-07 6.62514950e-08
      3.77716361e-07 7.30728914e-07 6.87670820e-07 5.65240725e-07
      7.27816541e-07 7.00075475e-07 5.82761459e-07 3.99437937e-07
      4.86853992e-07 4.48607750e-07 5.08283833e-08 -3.02758508e-07
      -1.73896083e-07 -1.40666756e-07 2.28907737e-07 9.17889793e-07
      1.19638082e-06 1.14980367e-06 9.79976335e-07 7.28972338e-07
      7.61855858e-07 7.24091421e-07 7.26299390e-07 8.34563764e-07
      1.10543044e-06 1.13536328e-06 1.08112090e-06 9.01072383e-07
      5.18884008e-07 3.15915827e-07 3.40833452e-07 4.86380543e-07
      3.78644188e-07 5.92064680e-07 8.05598518e-07 7.28583245e-07
      4.73322615e-07 -1.54396631e-07 -5.35400886e-07 -5.27409838e-07
      -6.25219684e-07 -6.74714272e-07 -5.00272392e-07 -5.19316870e-07
      -3.81982375e-07 -6.25510523e-08 3.52492719e-08 -1.30909172e-07
      1.06972486e-07 7.23749793e-07 6.05550667e-07 3.73669593e-07
      2.86562710e-07 6.12420251e-07 9.33369222e-07 8.46377304e-07
      5.97846395e-07 6.97285316e-07 5.47356478e-07 3.22737975e-07
      5.37445374e-07 7.38541871e-07 4.38752778e-07 -1.51811292e-07
      -3.46239631e-07 -2.08156877e-07 -1.22549750e-07 3.98068948e-07
      9.58834107e-07 1.26807481e-06 1.09799464e-06 8.90005310e-07
      5.67732855e-07 5.43397391e-07 3.80694104e-07 4.49183204e-07
      6.98688496e-07 1.14655597e-06 1.17073523e-06 9.00122245e-07
      7.65855702e-07 5.58303384e-07 2.13911491e-07 1.90099641e-07
      2.63737718e-07 2.54087780e-07 5.98396809e-07 6.10019356e-07
      3.68648216e-07 1.33005116e-07 -2.47468108e-07 -4.41475379e-07
      -5.37339076e-07 -6.64941410e-07 -6.19227933e-07 -3.07751264e-07
      -3.23908239e-07 -1.14356737e-07 1.58260733e-07 2.62856531e-07
      -7.58750048e-07 1.71283958e-07 7.30711292e-07 7.78193169e-07
      5.97442920e-07 5.11926089e-07 8.81468964e-07 1.05760762e-06
      7.13697091e-07 4.55216849e-07 4.33028077e-07 1.09234840e-07
      1.84755848e-07 7.86012265e-07 9.08185143e-07 4.82876885e-07
      -2.25504309e-07 -3.54982717e-07 -1.47951454e-07 1.25299948e-07
      5.76580760e-07 9.50668152e-07 1.15836826e-06 8.80646780e-07
      6.07248694e-07 3.29411620e-07 1.95057368e-07 7.79285614e-08
      2.81895325e-07 7.69956728e-07 1.21386256e-06 1.05925960e-06
      7.35892343e-07 5.15041165e-07 3.62459957e-07 1.38867634e-07
      4.14337222e-08 1.58023667e-07 2.95019390e-07 5.00170984e-07
      3.93456673e-07 2.44198418e-07 1.86846130e-08 -2.28161582e-07
      -4.60558056e-07 -4.24115399e-07 -4.88933154e-07 -4.15028211e-07
      -1.46965320e-07 1.26626304e-07 2.68107271e-07 4.63402245e-07
      -8.20987111e-07 -3.26701127e-07 4.42507940e-07 9.76481601e-07
      8.48223010e-07 5.42476300e-07 8.61816147e-07 1.21291646e-06
      1.18863386e-06 5.66485312e-07 1.05575822e-07 -1.12816686e-07
      -2.40756492e-07 2.08963144e-07 7.35042818e-07 8.20149751e-07
      3.63882947e-07 -2.19128935e-07 -1.76739945e-07 7.58837615e-08
      3.32260839e-07 6.93968843e-07 9.41599581e-07 9.89150635e-07
      6.90431534e-07 3.39517641e-07 1.85810677e-07 2.63050435e-08
      7.01343268e-08 4.72858801e-07 9.58080136e-07 1.21583116e-06
      9.85465817e-07 5.09163328e-07 2.50366384e-07 2.23451366e-07
      1.31138847e-07 1.55832552e-07 3.23868733e-07 4.76918956e-07
      4.50820380e-07 2.19682576e-07 9.20049636e-09 -2.27014340e-07
      -5.70311784e-07 -6.90190063e-07 -4.09411001e-07 -5.78899687e-07
      -4.94957646e-07 -3.54534393e-08 3.39550240e-07 5.55024542e-07
      -5.26187989e-07 -2.93855777e-07 1.37807007e-07 6.25574671e-07
      7.30057877e-07 3.47083045e-07 4.28859352e-07 1.11610996e-06
      1.44429896e-06 8.99996223e-07 1.68911257e-07 -3.91569955e-07
      -6.62621460e-07 -3.49728246e-08 4.23836923e-07 7.60024193e-07
