<?xml version="1.0"?>
<opencv_storage>
<my_svm type_id="opencv-ml-svm">
  <svm_type>C_SVC</svm_type>
  <kernel><type>LINEAR</type></kernel>
  <C>1.</C>
  <term_criteria><epsilon>2.2204460492503131e-16</epsilon>
    <iterations>1000000</iterations></term_criteria>
  <var_all>108160</var_all>
  <var_count>108160</var_count>
  <class_count>2</class_count>
  <class_labels type_id="opencv-matrix">
    <rows>1</rows>
    <cols>2</cols>
    <dt>i</dt>
    <data>
      0 1</data></class_labels>
  <sv_total>1</sv_total>
  <support_vectors>
    <_>
      -7.01986721e-07 -8.47362344e-07 -1.25935424e-06 -1.35058553e-06
      -1.27974886e-06 -9.20221396e-07 -3.45874753e-07 3.90121471e-07
      1.12180874e-06 1.57212821e-06 1.77580125e-06 1.87703085e-06
      1.81418011e-06 1.71799081e-06 1.64728772e-06 1.52921143e-06
      1.08750987e-06 5.03698516e-07 8.58760285e-10 -2.08199978e-07
      -2.81998410e-07 -2.72712896e-07 -1.37792483e-07 8.64070557e-08
      3.15976564e-07 5.92741117e-07 8.08856953e-07 9.17901843e-07
      8.71077987e-07 6.53062443e-07 3.38350929e-07 2.12040412e-08
      -2.85247864e-07 -5.24439088e-07 -6.55760005e-07 -6.42823295e-07
      -3.22984590e-07 2.06982733e-08 2.17918526e-07 4.25967642e-07
      7.42186046e-07 1.13636406e-06 1.47175865e-06 1.10226233e-06
      5.43810529e-07 -1.08368042e-07 -8.51589618e-07 -1.50864196e-06
      -2.18534137e-06 -2.38555003e-06 -2.68392296e-06 -2.79082474e-06
      -1.15917737e-06 -1.19620097e-06 -1.25164718e-06 -1.24043197e-06
      -1.16002809e-06 -1.00146588e-06 -7.14039345e-07 -4.09129200e-07
      -1.53708754e-07 3.47815394e-08 4.53789823e-08 -4.25540492e-08
      -1.16892934e-07 -1.87888219e-07 -2.36466803e-07 -2.68408940e-07
      -3.26486258e-07 -4.14210433e-07 -5.37470498e-07 -6.36680738e-07
      -6.56793475e-07 -6.11472217e-07 -4.78652396e-07 -2.56708375e-07
      -2.91618640e-09 2.60744969e-07 4.66566206e-07 5.96350333e-07
      6.24715085e-07 5.40090696e-07 3.65096156e-07 1.38997450e-07
      -1.35047941e-07 -3.93863502e-07 -5.60653177e-07 -5.92307742e-07
      -4.90324453e-07 -2.83539464e-07 -2.89324049e-08 3.27200894e-07
      7.89907006e-07 1.24736084e-06 1.60585319e-06 1.74477657e-06
      1.66514110e-06 1.38533619e-06 9.31431828e-07 4.19223653e-07
      -4.70868109e-08 -4.00859278e-07 -5.87803811e-07 -6.52242647e-07
      -1.69550589e-07 -1.23945654e-07 5.88604827e-08 3.19099598e-07
      6.36083712e-07 8.41352858e-07 9.00489056e-07 8.26187772e-07
      6.23470100e-07 3.83126235e-07 -3.21030180e-09 -5.07046821e-07
      -9.91753723e-07 -1.42286035e-06 -1.72115483e-06 -1.87602757e-06
      -1.88431738e-06 -1.81027247e-06 -1.63844970e-06 -1.38641190e-06
      -1.10954852e-06 -7.85193095e-07 -4.08057616e-07 -2.98075542e-09
      3.66432374e-07 6.14170517e-07 7.57153998e-07 8.26797077e-07
      8.57557893e-07 8.75382341e-07 8.74186298e-07 7.41656493e-07
      3.88178819e-07 -1.61637445e-07 -7.57021780e-07 -1.23784923e-06
      -1.57660281e-06 -1.70144926e-06 -1.50372830e-06 -1.03276307e-06
      -4.10815659e-07 2.68970922e-07 9.25579400e-07 1.41338819e-06
      1.79299900e-06 1.90906258e-06 1.71841464e-06 1.43528916e-06
      1.25804127e-06 1.08786060e-06 9.56387225e-07 8.95049311e-07
      1.41449902e-06 1.42919578e-06 1.49037851e-06 1.60383217e-06
      1.69475220e-06 1.56635008e-06 1.22736787e-06 7.54665905e-07
      2.57729511e-07 -1.52073184e-07 -5.18500201e-07 -8.44000908e-07
      -1.11467250e-06 -1.39088536e-06 -1.62731601e-06 -1.78862615e-06
      -1.77472953e-06 -1.61704338e-06 -1.31857564e-06 -1.00245927e-06
      -6.67514371e-07 -1.21956845e-07 3.96397439e-07 7.29112969e-07
      9.76554475e-07 1.15508055e-06 1.31035017e-06 1.50022208e-06
      1.72449302e-06 1.95736584e-06 2.05648553e-06 1.89999969e-06
      1.57117415e-06 1.07429139e-06 3.76315569e-07 -2.99832692e-07
      -7.18069884e-07 -9.26985706e-07 -9.01551800e-07 -6.75928106e-07
      -4.03632470e-07 -5.71999017e-08 2.63302923e-07 3.64639703e-07
      2.92842600e-07 1.07785382e-07 -1.46154207e-07 -4.89885167e-07
      -7.90051672e-07 -1.07362428e-06 -1.26237387e-06 -1.33124411e-06
      2.04449307e-07 1.35846037e-07 -4.22516280e-08 -1.88715489e-07
      -2.97041282e-07 -4.85278917e-07 -7.93016682e-07 -9.72625458e-07
      -1.00039892e-06 -9.67525125e-07 -8.84052838e-07 -7.38452854e-07
      -5.70325255e-07 -4.80975530e-07 -4.38157542e-07 -3.84568267e-07
      -3.13916189e-07 -2.24507943e-07 -1.40505023e-07 -9.81470407e-08
      5.57077193e-08 5.02147373e-07 7.17154307e-07 7.53634595e-07
      7.17739908e-07 6.98730673e-07 7.87762247e-07 9.99345161e-07
      1.28505167e-06 1.61230423e-06 1.87160811e-06 2.06974732e-06
      2.17331149e-06 2.08270740e-06 1.94707309e-06 1.46128923e-06
      1.09333962e-06 9.34753984e-07 8.93370441e-07 9.33019294e-07
      9.42689098e-07 8.16483521e-07 5.25054077e-07 5.34259925e-08
      -5.02256512e-07 -1.03332013e-06 -1.56520207e-06 -2.05949823e-06
      -2.37401105e-06 -2.63093625e-06 -2.78770699e-06 -2.83831741e-06
      -1.58894886e-06 -1.47854587e-06 -1.11413135e-06 -6.07911318e-07
      -2.96444085e-07 -3.31058061e-07 -2.82418796e-07 -1.71770580e-07
      -4.07143759e-08 1.13857425e-07 1.55596808e-07 1.06775019e-07
      1.20814661e-07 2.17248896e-07 3.93567603e-07 6.19844570e-07
      8.77418302e-07 1.14368220e-06 8.35588537e-07 5.07899017e-07
      3.91849937e-07 3.09079383e-07 2.11653372e-07 -1.10199103e-08
      -2.35777776e-07 -2.81675256e-07 -1.94594307e-07 1.88083114e-08
      3.23465542e-07 6.97006328e-07 1.10113388e-06 1.48732568e-06
      1.77929473e-06 1.88703609e-06 1.36411097e-06 8.28363227e-07
      3.78816480e-07 9.26852337e-08 -7.72826354e-08 -1.24659181e-07
      -1.81349648e-07 -2.73420568e-07 -4.90562172e-07 -8.08547611e-07
      -1.22512017e-06 -1.74165814e-06 -2.31187028e-06 -2.75901448e-06
      -2.82918586e-06 -2.59236890e-06 -2.33726792e-06 -2.23924667e-06
      4.81560960e-07 6.93689742e-07 1.40498298e-06 2.52933546e-06
      3.21508037e-06 3.33187381e-06 3.23138875e-06 2.95912787e-06
      2.55631994e-06 2.11873339e-06 1.61173398e-06 1.09045334e-06
      5.75527906e-07 4.45436896e-08 -3.46788539e-07 -5.51360245e-07
      -6.00888086e-07 -5.42792804e-07 -3.36192471e-07 -1.77895387e-07
      -7.24056903e-08 -5.52646156e-07 -7.37112771e-07 -6.33680315e-07
      -5.10401321e-07 -4.10510836e-07 -3.74504509e-07 -3.75917239e-07
      -3.30521885e-07 -2.63320885e-07 -1.42649142e-07 -1.39242999e-08
      5.09319200e-08 2.27339811e-07 3.44361894e-07 1.53292827e-08
      -5.57412307e-07 -9.18360513e-07 -1.08152403e-06 -1.02197077e-06
      -8.30383840e-07 -4.67652114e-07 -2.91249869e-09 5.41413328e-07
      1.01749674e-06 1.29838418e-06 1.07918368e-06 6.50620279e-07
      2.89009449e-07 7.70692097e-08 1.79462205e-07 2.52652853e-07
      2.26579596e-06 2.28265117e-06 2.37610811e-06 2.52439486e-06
      2.61685227e-06 2.67098835e-06 2.62226536e-06 2.35066022e-06
      1.64001074e-06 7.34107800e-07 -3.01484391e-07 -1.28271802e-06
      -2.05929564e-06 -2.52860013e-06 -2.65689596e-06 -2.45817751e-06
      -2.14572447e-06 -2.25382860e-06 -2.34041386e-06 -2.34127333e-06
      -2.23681604e-06 -2.05505944e-06 -1.90342303e-06 -1.79392111e-06
      -1.58042280e-06 -1.26991358e-06 -9.91794536e-07 -7.53883171e-07
      -5.62773835e-07 -4.78901086e-07 -4.90528578e-07 -5.38441327e-07
      -4.62655549e-07 -2.69851029e-07 -3.91026340e-08 5.87822200e-08
      -1.26955669e-07 -4.62292206e-07 -6.53874167e-07 -5.44054956e-07
      -1.03328233e-07 7.30112902e-07 1.69329257e-06 2.58982323e-06
      3.31881233e-06 3.87196087e-06 4.14436317e-06 4.00216913e-06
      3.66043741e-06 3.38696918e-06 3.24111511e-06 3.19628293e-06
      1.13600629e-06 9.98068572e-07 7.05631408e-07 4.14207221e-07
      3.35664424e-07 3.83430546e-07 5.06915114e-07 6.48313232e-07
      5.87679324e-07 2.11584933e-07 -4.97111841e-07 -1.41202224e-06
      -2.34855315e-06 -3.05736967e-06 -3.40845895e-06 -3.35296295e-06
      -3.06581524e-06 -2.64931327e-06 -2.26191105e-06 -1.94813242e-06
      -1.89155321e-06 -1.67387623e-06 -1.12055443e-06 -4.25587729e-07
      2.73765664e-07 8.08869515e-07 1.04498861e-06 1.06082609e-06
      9.46471062e-07 7.71143561e-07 6.07075094e-07 5.29714441e-07
      5.28468149e-07 6.27224097e-07 5.55825693e-07 4.48670818e-07
      4.33216201e-07 6.10064490e-07 9.56671215e-07 1.41234466e-06
      1.85465660e-06 2.28913200e-06 2.69858970e-06 3.07554410e-06
      3.32880336e-06 3.41676832e-06 3.42005478e-06 3.32967193e-06
      2.97693896e-06 2.29981470e-06 1.81394967e-06 1.65539234e-06
      7.33572065e-08 -2.07245154e-08 -2.29629308e-07 -4.59768216e-07
      -5.48291496e-07 -2.62800569e-07 4.59271831e-07 1.57794977e-06
      2.88187994e-06 3.85918656e-06 4.20795914e-06 3.98084194e-06
      3.27593671e-06 2.35491507e-06 1.48801860e-06 7.55571307e-07
      2.11242423e-07 -9.67887033e-08 -2.42449488e-07 -2.44206632e-07
      -2.33792306e-07 -2.16944272e-07 -1.65352446e-07 5.30157926e-08
      3.80859660e-07 6.42967620e-07 7.50976369e-07 7.38590415e-07
      6.60401838e-07 5.54694395e-07 3.89856922e-07 2.24271687e-07
      1.09809299e-07 9.35152968e-08 2.09442860e-07 4.78395975e-07
      8.78563640e-07 1.37583515e-06 2.02352840e-06 2.73247406e-06
      3.37131064e-06 4.05909259e-06 4.59227613e-06 4.77896720e-06
      4.43114686e-06 3.55842394e-06 2.46116360e-06 1.36150265e-06
      4.14325342e-07 -3.02415941e-07 -7.35989943e-07 -8.56672841e-07
      -8.47011790e-07 -8.34443597e-07 -8.53872109e-07 -9.30783074e-07
      -8.37217897e-07 -4.63898516e-07 2.71297068e-07 1.27145256e-06
      2.58751538e-06 3.94106110e-06 4.31673652e-06 4.16861667e-06
      3.59131354e-06 2.81738994e-06 2.14596821e-06 1.68957251e-06
      1.42819545e-06 1.35162259e-06 1.33898641e-06 1.34196398e-06
      1.41127111e-06 1.30812600e-06 9.96737754e-07 7.28781970e-07
      5.24322729e-07 3.84826592e-07 3.17780007e-07 2.88508915e-07
      2.82387816e-07 3.28710200e-07 3.80154546e-07 4.00595496e-07
      4.37120690e-07 5.27600378e-07 7.73540194e-07 1.25867302e-06
      1.97057329e-06 2.85922488e-06 3.78318464e-06 4.19022945e-06
      4.37392100e-06 4.35477887e-06 4.15662635e-06 3.72181057e-06
      3.02808189e-06 1.97577674e-06 6.57992359e-07 -6.24791880e-07
      -1.56870556e-06 -2.03531658e-06 -2.26886573e-06 -2.33803848e-06
      -1.44891047e-07 -9.65168425e-08 -9.69170131e-08 -2.52820769e-07
      -2.15784752e-07 -2.18581704e-07 -3.08355993e-07 -4.39847156e-07
      -5.36593859e-07 -3.85614129e-07 3.34373773e-08 3.86991758e-07
      5.41629504e-07 3.79250594e-07 -4.90540017e-08 -4.91379637e-07
      -7.34333582e-07 -3.43592347e-07 2.24717141e-07 5.21073332e-07
      8.88227760e-07 1.29187129e-06 1.10296185e-06 8.77058881e-07
      7.02565160e-07 6.12179008e-07 5.91233231e-07 5.85168550e-07
      5.36437199e-07 4.44450649e-07 4.14980832e-07 5.10066286e-07
      7.32593605e-07 9.23366201e-07 1.23931159e-06 1.61278012e-06
      2.12039822e-06 2.46175432e-06 2.66057623e-06 2.61208311e-06
      2.41630983e-06 2.05300944e-06 1.54535746e-06 8.90751494e-07
      2.31264934e-07 -4.46458671e-07 -1.10284009e-06 -1.61066430e-06
      -1.90575304e-06 -1.97228405e-06 -2.23339521e-06 -2.37088852e-06
      7.64122376e-07 7.11823702e-07 6.85115992e-07 3.91885038e-07
      -1.12463006e-07 -7.52303947e-07 -1.41242162e-06 -1.68365000e-06
      -1.68350016e-06 -1.47447656e-06 -1.10687733e-06 -8.47831245e-07
      -7.09151493e-07 -6.85652310e-07 -7.92781691e-07 -9.82895472e-07
      -1.14561283e-06 -1.11475777e-06 -8.72441262e-07 -2.84002539e-07
      9.67175424e-08 5.07298694e-07 7.05487139e-07 8.20460684e-07
      1.00580326e-06 1.14682587e-06 1.18590913e-06 1.16437934e-06
      1.14201430e-06 1.11974657e-06 1.08463382e-06 9.42852637e-07
      6.16383716e-07 1.86232882e-07 -3.36177730e-09 -4.44181509e-08
      4.26614797e-08 2.88057436e-07 5.89423507e-07 8.14081261e-07
      8.19415334e-07 5.07627192e-07 -4.39162058e-08 -7.15926660e-07
      -1.34430434e-06 -1.73533897e-06 -2.11491715e-06 -2.40498071e-06
      -2.59620060e-06 -2.59425224e-06 -2.56666772e-06 -2.62949288e-06
      3.97990675e-07 2.57636316e-07 -3.26232836e-08 -6.39551502e-07
      -1.21619303e-06 -1.64073617e-06 -1.63623349e-06 -1.21313826e-06
      -1.02902538e-06 -9.63665798e-07 -7.91539264e-07 -6.22815321e-07
      -4.39569504e-07 -2.80614842e-07 -2.45059709e-07 -2.29725885e-07
      -1.84951389e-07 -1.07367404e-08 3.35679772e-07 6.07045308e-07
      7.93740753e-07 8.42508314e-07 7.12729275e-07 6.97119106e-07
      8.22073730e-07 1.01306227e-06 1.12055034e-06 1.17364425e-06
      1.25496945e-06 1.21253811e-06 1.02806803e-06 8.14689656e-07
      7.57766713e-07 9.10084054e-07 1.06029927e-06 8.52647133e-07
      5.43994588e-07 4.38910746e-07 6.06209994e-07 9.52362541e-07
      1.11439715e-06 9.64929654e-07 4.69918831e-07 -2.31452418e-07
      -9.12202722e-07 -1.41405428e-06 -2.05302740e-06 -2.50271091e-06
      -2.57385818e-06 -2.45357433e-06 -2.28179510e-06 -2.29368629e-06
      3.87107463e-07 4.18956432e-07 4.77669005e-07 2.53064968e-07
      -6.63854465e-08 -4.06380934e-07 -4.56605449e-07 -2.21617881e-07
      1.54218355e-07 7.54948644e-07 1.21150629e-06 1.52692542e-06
      1.65388849e-06 1.56854514e-06 1.31530260e-06 1.06952552e-06
      1.00876775e-06 9.37025220e-07 8.97396717e-07 7.55853875e-07
      5.93022833e-07 5.09915424e-07 3.71315991e-07 3.13015164e-07
      2.86591245e-07 3.48646694e-07 4.59628012e-07 6.15582849e-07
      6.54662585e-07 5.83323128e-07 5.36292930e-07 4.66670969e-07
      5.62315904e-07 7.41097381e-07 1.10048950e-06 1.45286560e-06
      1.45989998e-06 1.39609699e-06 1.41335693e-06 1.35642006e-06
      1.10979909e-06 7.56005022e-07 3.87470180e-07 1.80873503e-08
      -4.17771844e-07 -9.25731229e-07 -1.50358187e-06 -2.00576596e-06
      -2.03255308e-06 -1.92337575e-06 -1.83720658e-06 -1.84718931e-06
      1.05115782e-06 1.02707293e-06 9.67913707e-07 7.82247241e-07
      6.52242932e-07 7.24158497e-07 8.90909348e-07 9.90476678e-07
      1.30339072e-06 1.69793282e-06 1.86462887e-06 1.81398684e-06
      1.61535900e-06 1.32050798e-06 8.84322787e-07 3.33468364e-07
      -6.39569038e-08 -2.88758514e-07 -5.19542311e-07 -6.95437961e-07
      -7.42143982e-07 -7.12892245e-07 -6.52980646e-07 -4.37419374e-07
      -1.50403210e-07 1.04031407e-07 2.99701099e-07 4.51709724e-07
      4.99196688e-07 5.25010819e-07 4.23928952e-07 3.11721493e-07
      2.13064226e-07 7.63531887e-08 1.49607207e-08 -3.49553986e-08
      -3.12444342e-07 -6.21237803e-07 -8.59873523e-07 -9.76311071e-07
      -8.81081860e-07 -7.60363321e-07 -6.25547443e-07 -4.48513333e-07
      -3.88205819e-07 -5.30221257e-07 -9.14448322e-07 -1.47610490e-06
      -1.85184956e-06 -1.81595976e-06 -1.70955650e-06 -1.66665052e-06
      1.21312985e-06 1.13277395e-06 9.25239192e-07 5.77195351e-07
      2.62294186e-08 -4.57131762e-07 -5.03189028e-07 -1.71955890e-07
      3.66076989e-07 9.43804764e-07 1.53284168e-06 2.12195960e-06
      2.50102971e-06 2.75456182e-06 2.86099589e-06 2.78666880e-06
      2.48715764e-06 2.11324459e-06 1.59695958e-06 1.03133618e-06
      7.08450557e-07 4.58561459e-07 2.81015673e-07 1.21150649e-07
      2.25763852e-08 -4.64738719e-08 -1.15171211e-07 -1.65610871e-07
      -1.17088533e-07 -1.28515119e-08 6.78689176e-08 2.89036848e-07
      5.50898960e-07 8.86641828e-07 1.22420954e-06 1.54139343e-06
      1.63372022e-06 1.42852321e-06 9.68572181e-07 6.31819660e-07
      4.45005043e-07 3.24509358e-07 3.96628167e-07 5.67086829e-07
      7.12561700e-07 7.60563637e-07 5.06008689e-07 -7.82464671e-09
      -3.13255612e-07 -1.28713609e-07 1.29811397e-07 2.92553551e-07
      4.89165586e-07 4.16543713e-07 2.32328986e-07 -3.06135171e-08
      -2.54540822e-07 -3.04731174e-07 -1.72091404e-07 4.77779807e-08
      4.23859035e-07 8.71848954e-07 1.36937604e-06 1.79001813e-06
      2.11801785e-06 2.30732530e-06 2.14013130e-06 1.63349989e-06
      1.28248826e-06 9.13663655e-07 5.82515270e-07 2.53235640e-07
      -1.17896548e-07 -4.88015019e-07 -7.49144590e-07 -9.10335075e-07
      -9.85685801e-07 -9.84843268e-07 -9.07187996e-07 -8.07292565e-07
      -6.74136459e-07 -5.78560844e-07 -4.16974359e-07 -2.40476567e-07
      -2.67462621e-08 3.53314590e-07 8.81811843e-07 1.61474497e-06
      2.54585461e-06 3.31518436e-06 3.70101611e-06 3.96198811e-06
      4.40557551e-06 4.77302956e-06 4.99340831e-06 4.97062820e-06
      4.53683606e-06 3.90515515e-06 3.22073015e-06 2.29168882e-06
      1.50662470e-06 1.40265581e-06 1.44406522e-06 1.50056019e-06
      -2.01294228e-07 -2.45158560e-07 -3.44407795e-07 -4.48483831e-07
      -4.58030087e-07 -3.03662091e-07 1.19630892e-08 2.70114526e-07
      4.35537942e-07 5.44052341e-07 5.61484853e-07 4.52001558e-07
      1.87416234e-07 -1.48925707e-07 -4.70316991e-07 -6.92841581e-07
      -8.48837374e-07 -1.01712635e-06 -1.13057445e-06 -1.16228432e-06
      -1.21917924e-06 -1.27188457e-06 -1.30855244e-06 -1.31445677e-06
      -1.29738191e-06 -1.23153075e-06 -1.12127634e-06 -1.02414310e-06
      -1.01786486e-06 -1.05456661e-06 -1.06000505e-06 -1.13459589e-06
      -1.19680681e-06 -1.20800212e-06 -1.11677411e-06 -8.59815373e-07
      -3.12532308e-07 4.54081800e-07 1.38312168e-06 2.09690961e-06
      2.64766459e-06 3.06851871e-06 3.23021573e-06 3.14243289e-06
      2.86885029e-06 2.53807048e-06 2.30644218e-06 2.03362083e-06
      1.79154665e-06 1.67776523e-06 1.64414769e-06 1.64515291e-06
      -7.66493145e-07 -7.48005789e-07 -6.79238099e-07 -5.16128011e-07
      -2.87811218e-07 -1.12144978e-08 2.84590499e-07 4.64987068e-07
      4.80920789e-07 3.43529194e-07 9.59355333e-08 -2.08538154e-07
      -5.26167184e-07 -7.15810643e-07 -7.20206401e-07 -4.97187159e-07
      -1.71882434e-07 1.30574279e-07 3.18770788e-07 3.77092420e-07
      3.15370215e-07 1.82527543e-07 2.21030518e-08 -1.65805687e-07
      -3.57438978e-07 -4.97724841e-07 -6.30532384e-07 -7.73668546e-07
      -9.52297114e-07 -1.07129836e-06 -1.14517366e-06 -1.16996137e-06
      -1.15212254e-06 -1.11275631e-06 -1.06720938e-06 -1.03124103e-06
      -1.03195316e-06 -1.00682223e-06 -9.53044719e-07 -8.31445277e-07
      -6.07792344e-07 -3.14968759e-07 3.81745018e-08 3.62289569e-07
      5.12273516e-07 5.35402705e-07 5.31407181e-07 5.24112465e-07
      5.68637688e-07 6.52435233e-07 7.07987567e-07 7.26047915e-07
      2.94927645e-07 3.41305650e-07 4.83625286e-07 7.02867965e-07
      9.39799634e-07 1.12998043e-06 1.22909455e-06 1.27119836e-06
      1.27004409e-06 1.22371239e-06 1.12507689e-06 9.54784582e-07
      8.13004874e-07 7.25656719e-07 7.31725834e-07 7.86758505e-07
      7.90151432e-07 7.51531616e-07 6.48945274e-07 5.14404803e-07
      3.56035656e-07 1.74752500e-07 2.55174175e-08 -7.62249996e-08
      -1.36071051e-07 -1.75307676e-07 -1.66803588e-07 -2.01921097e-07
      -2.64418048e-07 -3.23298309e-07 -4.10269877e-07 -4.43430594e-07
      -4.52196360e-07 -4.14262104e-07 -3.54870593e-07 -2.77064402e-07
      -2.13148653e-07 -1.67193363e-07 -1.89129779e-07 -3.02521045e-07
      -4.09517014e-07 -4.52906846e-07 -4.39584511e-07 -3.30593281e-07
      -1.77841713e-07 -2.03666364e-08 8.37015577e-08 1.53299510e-07
      1.76194945e-07 1.96449733e-07 2.04099777e-07 2.04232023e-07
      6.57423755e-07 6.80831874e-07 7.27825409e-07 7.67480913e-07
      8.17368004e-07 8.75053445e-07 9.50322544e-07 1.03494847e-06
      1.14431373e-06 1.24794860e-06 1.31727938e-06 1.33950709e-06
      1.28926297e-06 1.11879535e-06 8.55314283e-07 5.00849978e-07
      1.49367267e-07 -1.39963646e-07 -3.82079179e-07 -5.45401690e-07
      -6.44908141e-07 -7.06576998e-07 -7.27572399e-07 -6.92552987e-07
      -6.29749024e-07 -5.70955251e-07 -4.93243192e-07 -4.24329045e-07
      -3.47963919e-07 -3.01775287e-07 -2.98309232e-07 -2.80178483e-07
      -2.46738892e-07 -1.74307630e-07 -6.33104591e-08 9.53854524e-08
      3.16424178e-07 5.60412786e-07 8.08933521e-07 9.90155968e-07
      1.08268250e-06 1.06560822e-06 9.08511652e-07 6.71657574e-07
      3.85561407e-07 1.18160244e-07 -9.98563152e-08 -2.07364096e-07
      -2.43556173e-07 -2.56155147e-07 -2.37692120e-07 -2.31994250e-07
      -3.23666626e-07 -3.10291000e-07 -2.81116627e-07 -2.51947256e-07
      -2.02421575e-07 -8.33653075e-08 1.39317166e-07 4.19924419e-07
      7.56180441e-07 1.05504819e-06 1.22822212e-06 1.26444320e-06
      1.07641040e-06 7.61095748e-07 3.83711125e-07 2.97460225e-08
      -2.23456013e-07 -3.67755462e-07 -4.25276767e-07 -4.14007900e-07
      -3.44245933e-07 -2.43276816e-07 -1.52700693e-07 -7.05835603e-08
      -3.84539511e-08 -5.52194246e-09 -4.97084329e-08 -6.58292123e-08
      -5.99226482e-08 -5.18639816e-08 -3.52213121e-08 -2.24400232e-08
      3.46978588e-08 1.34953297e-07 3.08995595e-07 4.82557198e-07
      6.31828811e-07 7.21939557e-07 7.62454818e-07 7.87658564e-07
      7.60921637e-07 7.63294338e-07 8.17942578e-07 8.81312985e-07
      9.29729765e-07 8.79487004e-07 6.99425243e-07 4.42958537e-07
      2.30092965e-07 7.65932242e-08 -1.68028436e-08 -3.59793333e-08
      -1.06673440e-06 -1.05545882e-06 -1.00132900e-06 -8.72073770e-07
      -6.41136182e-07 -3.02952856e-07 1.02046613e-07 5.19766900e-07
      8.76752893e-07 1.09354880e-06 1.16461808e-06 1.07881033e-06
      8.63360867e-07 5.94552262e-07 2.91582097e-07 1.29021611e-08
      -1.65314418e-07 -2.16976716e-07 -1.38802591e-07 6.66361970e-08
      3.56533803e-07 6.69852454e-07 9.24655012e-07 1.09102302e-06
      1.21225469e-06 1.29599141e-06 1.29859268e-06 1.26753594e-06
      1.22212316e-06 1.11859765e-06 9.96054951e-07 8.70077201e-07
      7.31540240e-07 5.45463934e-07 2.99855913e-07 3.45376066e-08
      -1.99386960e-07 -3.51482470e-07 -4.12809072e-07 -3.62291985e-07
      -2.49866247e-07 -1.22222318e-07 4.88140230e-08 2.15438320e-07
      3.84696648e-07 4.91530614e-07 5.07944947e-07 3.94888332e-07
      1.88176273e-07 -3.16229638e-08 -2.07861419e-07 -2.60054009e-07
      -6.53789527e-07 -6.44203112e-07 -6.05260709e-07 -5.10724419e-07
      -3.54448986e-07 -2.04467383e-07 -1.55586534e-07 -1.79299491e-07
      -2.37472790e-07 -2.80380618e-07 -2.94837292e-07 -3.48552504e-07
      -3.73396063e-07 -4.11284446e-07 -4.61011638e-07 -5.16536659e-07
      -5.46680553e-07 -5.25642179e-07 -4.31749953e-07 -2.54474799e-07
      -4.05786942e-08 1.86628398e-07 4.25348333e-07 5.48431956e-07
      5.88371222e-07 5.85829184e-07 6.01312024e-07 6.21150036e-07
      6.82699920e-07 7.59529712e-07 8.77990146e-07 9.90435524e-07
      1.05839877e-06 1.00955049e-06 8.06276034e-07 5.36884556e-07
      2.80833149e-07 5.35040456e-08 -1.45204751e-07 -3.15806972e-07
      -4.15984942e-07 -4.81405209e-07 -4.64217322e-07 -3.82883655e-07
      -2.50027483e-07 -1.15806046e-07 -1.86713862e-08 3.99124467e-09
      -5.58719506e-08 -1.72416719e-07 -2.56497287e-07 -2.83495638e-07
      5.13706425e-07 4.88745172e-07 4.29115147e-07 2.95420989e-07
      1.05452635e-07 -1.06531175e-07 -3.20565647e-07 -5.18047216e-07
      -7.12397366e-07 -8.65541040e-07 -9.58104806e-07 -9.90826948e-07
      -9.12667986e-07 -8.09571986e-07 -6.77549849e-07 -5.49339063e-07
      -4.42789087e-07 -3.52480612e-07 -2.43521640e-07 -8.44086898e-08
      7.05927690e-08 6.54667787e-08 -1.10360084e-07 -3.38627473e-07
      -5.26830661e-07 -6.68070243e-07 -6.67463269e-07 -6.24977417e-07
      -5.41509280e-07 -4.09534977e-07 -2.10058843e-07 3.91126420e-08
      2.76232754e-07 5.47923776e-07 8.27681333e-07 1.08054383e-06
      1.11987322e-06 9.80441655e-07 7.16520674e-07 3.31515849e-07
      -9.74840191e-08 -5.28936653e-07 -8.90590456e-07 -1.12789826e-06
      -1.15656110e-06 -9.73123633e-07 -6.55846179e-07 -2.75143066e-07
      8.02660267e-08 2.81811907e-07 3.79094928e-07 4.07725764e-07
      1.46952814e-07 1.53540654e-07 1.68482202e-07 1.65699959e-07
      1.17604927e-07 3.35831665e-08 -5.36120162e-08 -1.35589204e-07
      -2.09296815e-07 -2.38116669e-07 -2.24229680e-07 -1.63236749e-07
      -7.31342595e-08 2.95110496e-08 1.29731362e-07 2.36557781e-07
      3.64684809e-07 5.21311108e-07 6.65785308e-07 6.58446936e-07
      5.23149993e-07 3.54188245e-07 1.78977601e-07 8.20663804e-09
      -1.95800155e-07 -3.89802324e-07 -4.86175622e-07 -5.15762963e-07
      -5.28035628e-07 -4.75827619e-07 -3.74450366e-07 -1.95510765e-07
      -1.10205001e-08 1.87249796e-07 3.86532548e-07 5.91890057e-07
      7.70992756e-07 8.46697560e-07 7.05371690e-07 4.37486079e-07
      2.65822564e-07 9.90180880e-08 -1.16918912e-07 -3.65800418e-07
      -6.32215631e-07 -8.31595059e-07 -9.82359438e-07 -1.07665562e-06
      -1.07264896e-06 -9.89746582e-07 -9.17764453e-07 -8.86847829e-07
      2.00191010e-07 2.11577913e-07 2.10095010e-07 2.03970785e-07
      1.90337374e-07 1.85851249e-07 1.96484820e-07 2.24896411e-07
      2.46692537e-07 2.62760665e-07 2.60825857e-07 2.94739067e-07
      2.93146002e-07 3.12780713e-07 3.14090585e-07 2.99024890e-07
      2.25791851e-07 6.40265512e-08 -1.26702872e-07 -1.99126575e-07
      -1.55376441e-07 -5.43954819e-08 7.90983208e-08 1.90474253e-07
      2.32609892e-07 2.65306113e-07 2.07162714e-07 1.77792060e-07
      1.46285259e-07 1.96872676e-07 2.64752288e-07 3.58618536e-07
      4.68088672e-07 4.70083165e-07 3.62055317e-07 1.50554214e-07
      -1.01402236e-07 -2.60588905e-07 -2.23475993e-07 -7.45954836e-08
      5.97076308e-08 2.47561104e-07 3.97801159e-07 5.47040543e-07
      6.18612944e-07 6.08943765e-07 5.65806374e-07 4.58428275e-07
      2.91402586e-07 1.33744322e-07 3.58532972e-08 -6.99900848e-09
      1.09533562e-06 1.11550867e-06 1.19172444e-06 1.28656143e-06
      1.29836735e-06 1.22749657e-06 1.09156258e-06 9.19039167e-07
      7.15213787e-07 5.00944850e-07 3.07426632e-07 1.31620880e-07
      -8.20667125e-08 -2.77946754e-07 -4.30262901e-07 -5.89940441e-07
      -7.58286205e-07 -8.13543465e-07 -7.72637748e-07 -6.84289546e-07
      -5.71433304e-07 -4.49489960e-07 -3.29671167e-07 -2.23930584e-07
      -7.69093731e-08 1.16066346e-07 2.37728599e-07 4.02949723e-07
      5.75682918e-07 7.38492133e-07 8.84182043e-07 9.29539510e-07
      9.16123213e-07 8.37364439e-07 7.43843600e-07 6.24479242e-07
      4.80575409e-07 3.34797249e-07 1.86860362e-07 1.26833996e-07
      1.35152945e-07 1.95869760e-07 3.22228772e-07 4.38129149e-07
      5.74325895e-07 6.48529976e-07 7.01404758e-07 7.24052597e-07
      7.11065070e-07 6.44715442e-07 5.61750994e-07 5.15543604e-07
      3.04456051e-07 2.67772492e-07 1.61549210e-07 1.21757526e-09
      -1.77939398e-07 -3.20239849e-07 -4.10522205e-07 -4.73038597e-07
      -4.97931296e-07 -5.00702413e-07 -4.82588007e-07 -4.92572553e-07
      -5.35105301e-07 -5.67632014e-07 -6.03994181e-07 -5.91444859e-07
      -5.46938907e-07 -5.02932949e-07 -5.25216990e-07 -5.73107741e-07
      -5.85496025e-07 -5.80437018e-07 -5.47688273e-07 -4.47286510e-07
      -2.43537784e-07 2.19270930e-08 3.13208687e-07 6.10991890e-07
      8.69666280e-07 9.30184228e-07 7.67355857e-07 3.99924289e-07
      -1.38113236e-07 -7.00029432e-07 -1.11543386e-06 -1.27880719e-06
      -1.22454946e-06 -9.20904824e-07 -5.23368726e-07 -1.85675546e-07
      4.93592829e-08 7.99971502e-08 7.15185777e-08 -1.96369019e-08
      -1.66674766e-07 -3.03281524e-07 -4.23860513e-07 -4.83938379e-07
      -4.61101621e-07 -4.00994480e-07 -3.73821308e-07 -3.63901933e-07
      -1.04301205e-06 -1.05897414e-06 -1.12908833e-06 -1.20936954e-06
      -1.25595807e-06 -1.27023736e-06 -1.24329244e-06 -1.16597437e-06
      -1.02916158e-06 -8.37304015e-07 -6.21892525e-07 -4.02873553e-07
      -1.04454415e-07 2.66155723e-07 5.96707594e-07 8.63189030e-07
      9.70782366e-07 9.50481137e-07 7.87891054e-07 5.63133995e-07
      2.98660041e-07 -1.44626897e-08 -3.10403038e-07 -4.90233560e-07
      -4.63190077e-07 -2.97866166e-07 -1.00292837e-07 5.56457991e-08
      1.24098307e-07 4.20073887e-09 -3.38244178e-07 -7.79228969e-07
      -1.30738181e-06 -1.77755487e-06 -2.05467472e-06 -2.04864045e-06
      -1.71020918e-06 -1.17923764e-06 -7.17993998e-07 -4.37407920e-07
      -2.44775634e-07 -1.88759685e-07 -1.89993912e-07 -1.51607637e-07
      -1.05453218e-07 -6.18794331e-08 6.72852885e-09 1.34288541e-07
      2.70751286e-07 3.81880852e-07 4.75264812e-07 5.10320888e-07
      -3.34087503e-07 -3.48407440e-07 -3.69801313e-07 -3.94058418e-07
      -3.98363767e-07 -3.93133263e-07 -4.12247005e-07 -4.05079163e-07
      -3.91994263e-07 -3.49126964e-07 -2.88550467e-07 -2.11272024e-07
      -8.28174329e-09 2.41388818e-07 6.37323467e-07 1.13669057e-06
      1.50573658e-06 1.68868678e-06 1.96601536e-06 1.98440989e-06
      1.42377303e-06 8.47662250e-07 3.86885318e-07 3.87611401e-08
      -2.03164859e-07 -3.31533016e-07 -4.33668930e-07 -5.39227244e-07
      -6.02292857e-07 -6.23738970e-07 -6.86508884e-07 -7.97531413e-07
      -1.01799253e-06 -1.29368448e-06 -1.30843898e-06 -9.58827400e-07
      -3.08266323e-07 4.06712076e-07 6.77000969e-07 7.47462593e-07
      7.79416325e-07 6.23778647e-07 4.73568321e-07 4.30405777e-07
      4.29460215e-07 3.99752906e-07 3.39219696e-07 2.64622656e-07
      1.95603874e-07 1.07354651e-07 6.35076134e-08 4.09469365e-08
      7.43460475e-07 7.18726369e-07 6.83801886e-07 6.14399767e-07
      5.56170221e-07 4.84629481e-07 4.10906154e-07 3.02838203e-07
      1.53077153e-07 -4.31592717e-08 -1.98370529e-07 -4.02109862e-07
      -6.16745012e-07 -8.06797118e-07 -8.89040336e-07 -8.14389807e-07
      -7.66326707e-07 -5.16999762e-07 -1.89402670e-07 5.68358232e-08
      1.66548602e-07 1.16505532e-07 1.79995556e-08 3.64825037e-09
      -7.52691349e-08 -5.55298136e-08 -1.66854520e-07 -4.19521768e-07
      -5.34335015e-07 -3.99833624e-07 -1.08314104e-07 1.47274593e-08
      -2.51913775e-07 -6.54048506e-07 -8.17684224e-07 -7.70258566e-07
      -6.88629086e-07 -6.15883209e-07 -5.67123607e-07 -6.39908308e-07
      -5.98791644e-07 -4.87041461e-07 -3.86843965e-07 -3.81701426e-07
      -5.05212427e-07 -6.78325421e-07 -8.86861301e-07 -1.13725173e-06
      -1.37959319e-06 -1.58973774e-06 -1.70608701e-06 -1.75251091e-06
      1.69222835e-06 1.63976870e-06 1.49199013e-06 1.29823457e-06
      1.07468270e-06 8.13385327e-07 6.03504986e-07 3.93829708e-07
      1.51345361e-07 -1.30442984e-07 -3.61696181e-07 -5.80669735e-07
      -8.58640988e-07 -1.09033374e-06 -1.27412011e-06 -1.43728323e-06
      -1.54894030e-06 -1.46554305e-06 -1.31893069e-06 -1.28142199e-06
      -1.22119184e-06 -1.17781224e-06 -1.04949243e-06 -7.80786195e-07
      -4.71707921e-07 -2.80833063e-07 -5.20599315e-07 -8.38969754e-07
      -9.85867473e-07 -7.81355197e-07 -2.94110919e-07 2.24531831e-07
      4.90700700e-07 3.67623841e-07 2.93872148e-07 3.83011297e-07
      4.07082581e-07 2.99431832e-07 7.78190383e-08 -2.24404360e-07
      -5.65542223e-07 -8.12466681e-07 -9.96566200e-07 -1.07066694e-06
      -1.05027584e-06 -8.96302311e-07 -6.59303225e-07 -4.22782165e-07
      -2.11099263e-07 -4.27648281e-08 4.20087964e-08 7.04485288e-08
      7.16767886e-07 7.35715275e-07 7.88145599e-07 8.57025896e-07
      8.79078755e-07 8.43368866e-07 7.42868281e-07 6.08645166e-07
      4.63024719e-07 3.33886106e-07 1.89233191e-07 1.37399695e-07
      1.39690187e-07 2.75649029e-07 5.48708954e-07 8.68342738e-07
      1.26122791e-06 1.68845327e-06 1.94514269e-06 1.99614851e-06
      1.98924999e-06 1.75737273e-06 1.10972303e-06 5.73335910e-07
      6.57257431e-08 -4.36363848e-07 -8.74524517e-07 -1.21750452e-06
      -1.39155020e-06 -1.27564419e-06 -8.35648166e-07 -1.97038219e-07
      6.63983087e-07 1.61540970e-06 2.45011165e-06 2.70772171e-06
      2.56920885e-06 2.15152863e-06 1.54430575e-06 1.00636601e-06
      4.93075675e-07 5.48622126e-08 -2.77392019e-07 -3.95103200e-07
      -3.02560636e-07 -9.78985284e-08 1.83803621e-07 4.44690329e-07
      5.97631356e-07 6.76568845e-07 6.65759899e-07 6.58948238e-07
      -5.83525321e-07 -5.77383730e-07 -5.40133385e-07 -5.19903040e-07
      -4.72011976e-07 -3.33854445e-07 -2.08838088e-07 -1.16962639e-07
      -5.42415606e-08 1.26222508e-08 4.36265779e-08 1.78509708e-07
      4.69264904e-07 8.50775052e-07 1.19220260e-06 1.40893383e-06
      1.49065852e-06 1.42469082e-06 1.24308281e-06 1.05586469e-06
      8.65264724e-07 5.09429071e-07 -6.83158277e-08 -6.10303118e-07
      -1.08920199e-06 -1.43622538e-06 -1.75207208e-06 -2.03408626e-06
      -2.21669461e-06 -2.20526704e-06 -1.95992925e-06 -1.63728748e-06
      -1.24149904e-06 -8.70265751e-07 -5.61001400e-07 -3.31972814e-07
      -3.30650408e-07 -3.06253270e-07 -1.74803361e-07 -2.19769802e-07
      -3.85611429e-07 -6.18341176e-07 -7.74377042e-07 -7.42462362e-07
      -5.78516904e-07 -4.59722401e-07 -2.58123322e-07 1.09535108e-07
      4.70283993e-07 7.96679842e-07 1.02154684e-06 1.08238817e-06
      -3.68394467e-07 -4.06146341e-07 -5.30034356e-07 -7.09218568e-07
      -8.70676445e-07 -9.54884740e-07 -9.28076759e-07 -7.69747885e-07
      -5.14383260e-07 -1.75880771e-07 1.71598685e-07 4.48271464e-07
      6.18825425e-07 5.82933467e-07 3.48728094e-07 5.18663379e-09
      -4.09661823e-07 -8.23523692e-07 -1.19218180e-06 -1.48098923e-06
      -1.71989836e-06 -1.86053910e-06 -1.95650114e-06 -2.21896562e-06
      -2.25028180e-06 -2.25391909e-06 -2.27508508e-06 -2.31996728e-06
      -2.38101825e-06 -2.31731701e-06 -2.12147052e-06 -1.84654868e-06
      -1.49339837e-06 -1.06588743e-06 -5.55982410e-07 -4.60940385e-07
      -3.55274921e-07 -1.64729428e-07 8.87661002e-08 2.68263904e-07
      2.82876698e-07 1.88994107e-07 4.99361228e-08 -9.00012580e-08
      -2.80407079e-07 -4.25245105e-07 -4.86104511e-07 -4.52147276e-07
      -3.62457740e-07 -3.18720026e-07 -2.92014818e-07 -2.84251712e-07
      1.72041140e-07 1.72945860e-07 1.47039003e-07 1.37963724e-07
      1.83181484e-07 2.61225011e-07 3.88575216e-07 5.79498362e-07
      7.66845915e-07 8.59504439e-07 8.66095320e-07 7.40299527e-07
      4.76092566e-07 1.00670043e-07 -3.21829162e-07 -7.10592587e-07
      -1.07158337e-06 -1.37300606e-06 -1.62987180e-06 -1.90578237e-06
      -2.25749727e-06 -2.64870118e-06 -3.00762463e-06 -3.28131227e-06
      -3.36841731e-06 -3.25219048e-06 -2.96739654e-06 -2.66948746e-06
      -2.42780015e-06 -2.18707510e-06 -1.93006122e-06 -1.66724578e-06
      -1.37723111e-06 -1.04652543e-06 -6.53692098e-07 -2.36179858e-07
      1.26590407e-07 4.27213962e-07 6.58238775e-07 8.12258293e-07
      7.98553515e-07 6.26150495e-07 2.22531398e-07 -3.37289322e-07
      -8.85751717e-07 -1.37261043e-06 -1.75071477e-06 -2.03651734e-06
      -2.14058718e-06 -2.14533566e-06 -2.11261840e-06 -2.07433072e-06
      1.17544072e-08 -7.96070765e-09 2.80603119e-09 2.78276406e-08
      1.08761448e-07 1.90072711e-07 2.73255267e-07 3.35253731e-07
      3.84915751e-07 4.21733233e-07 4.87429816e-07 5.60227818e-07
      6.23898870e-07 6.76389675e-07 6.87906038e-07 6.00106887e-07
      4.61487673e-07 2.03945390e-07 -1.78492598e-07 -6.71322312e-07
      -1.19542301e-06 -1.65569145e-06 -2.02165711e-06 -2.24925316e-06
      -2.32217235e-06 -2.23564757e-06 -2.05982042e-06 -1.85655256e-06
      -1.66126620e-06 -1.50199548e-06 -1.35694165e-06 -1.24781241e-06
      -1.11061138e-06 -9.37949778e-07 -7.11927669e-07 -4.31822571e-07
      -1.92115877e-07 1.46624437e-08 1.83380692e-07 3.44281545e-07
      4.99701116e-07 5.97665348e-07 5.73267812e-07 4.22942207e-07
      2.03277807e-07 -5.35693800e-08 -2.56696154e-07 -4.02384842e-07
      -4.84124428e-07 -4.73832472e-07 -4.62059774e-07 -4.46374287e-07
      8.04047943e-07 7.58104704e-07 6.33268883e-07 4.32520039e-07
      1.49735200e-07 -1.50783265e-07 -4.21201179e-07 -6.51855487e-07
      -7.80855828e-07 -7.82500422e-07 -6.38418896e-07 -3.12293309e-07
      1.34080494e-07 5.96574182e-07 9.67933374e-07 1.09868802e-06
      9.35924277e-07 6.10892812e-07 1.82422184e-07 -2.93201140e-07
      -6.99089753e-07 -9.42505721e-07 -1.01854721e-06 -9.09728385e-07
      -6.98484143e-07 -4.23113534e-07 -1.80698635e-07 -6.14754967e-08
      -1.02620710e-07 -3.13063452e-07 -5.62749790e-07 -7.56093470e-07
      -8.45382942e-07 -8.19320803e-07 -6.59988984e-07 -3.90118146e-07
      -8.89814373e-08 1.45438520e-07 2.82054941e-07 3.43222553e-07
      3.34560781e-07 2.59867107e-07 2.07505806e-07 1.78450932e-07
      1.44960609e-07 1.47653168e-07 1.59821255e-07 2.09809713e-07
      2.84180601e-07 3.24914311e-07 3.49507559e-07 3.54361845e-07
      8.64888307e-07 8.22598622e-07 6.69492977e-07 4.34353325e-07
      1.56760265e-07 -1.00280971e-07 -2.80542082e-07 -3.65692443e-07
      -3.35245318e-07 -1.60473874e-07 1.06642155e-07 4.69459422e-07
      7.44261797e-07 7.32774936e-07 4.34865171e-07 -7.88227705e-09
      -5.08073242e-07 -8.91571858e-07 -1.07284075e-06 -1.04825995e-06
      -7.92478431e-07 -3.67458398e-07 1.21701390e-07 6.09025790e-07
      1.03831337e-06 1.35977768e-06 1.49467439e-06 1.45621425e-06
      1.25751080e-06 9.37003961e-07 5.85582825e-07 3.08642143e-07
      1.24443815e-07 1.34088820e-08 -2.69152913e-08 -8.38054781e-09
      8.89116265e-08 2.31456255e-07 4.12977528e-07 5.33624416e-07
      5.33897492e-07 4.43257790e-07 3.66781904e-07 2.57129273e-07
      1.76111243e-07 7.65710126e-08 -1.36193322e-07 -4.94803317e-07
      -8.19066145e-07 -1.09682026e-06 -1.27478813e-06 -1.33333333e-06
      -3.90258776e-07 -4.60020203e-07 -6.46832973e-07 -8.41809765e-07
      -9.39666222e-07 -9.19022114e-07 -7.99275483e-07 -6.04763386e-07
      -3.81623011e-07 -1.73155271e-07 -3.51121656e-08 -2.35990294e-09
      -1.05263958e-07 -3.50593723e-07 -6.54447433e-07 -9.28815268e-07
      -1.12838040e-06 -1.17271804e-06 -9.90534545e-07 -5.57561123e-07
      1.43677127e-07 1.00221996e-06 1.83672228e-06 2.51407050e-06
      3.04897139e-06 3.48676758e-06 3.72664977e-06 3.72824343e-06
      3.51401241e-06 3.09456163e-06 2.49227764e-06 1.80412496e-06
      1.05166328e-06 3.04630817e-07 -3.17620788e-07 -7.59303703e-07
      -1.02252488e-06 -1.08055519e-06 -9.93746426e-07 -8.84192616e-07
      -7.78278377e-07 -7.09435710e-07 -7.05968318e-07 -7.59054331e-07
      -7.73422471e-07 -8.18766409e-07 -9.11088307e-07 -1.03308707e-06
      -1.12329269e-06 -1.15956198e-06 -1.16268779e-06 -1.16657998e-06
      -6.04964441e-07 -5.92619301e-07 -5.38142842e-07 -4.46022511e-07
      -2.89418125e-07 -7.47944640e-08 1.79486236e-07 4.04148267e-07
      5.58352951e-07 6.76319928e-07 8.34120442e-07 8.55576900e-07
      8.09626954e-07 7.57329133e-07 7.17819944e-07 7.31385398e-07
      8.08907259e-07 8.69403436e-07 7.82839834e-07 5.24279926e-07
      2.10612569e-07 1.46180525e-07 2.54362817e-07 5.23469680e-07
      9.22477398e-07 1.36014876e-06 1.72144109e-06 1.88320496e-06
      1.82216047e-06 1.55681983e-06 1.07503683e-06 5.56048406e-07
      -1.75410378e-07 -8.23576386e-07 -1.15357795e-06 -1.19748449e-06
      -1.06937216e-06 -9.19672971e-07 -8.62155446e-07 -8.93868219e-07
      -9.26227187e-07 -9.23181915e-07 -8.90416175e-07 -7.61316187e-07
      -6.09858546e-07 -4.54356240e-07 -3.37312173e-07 -2.28061495e-07
      -2.06336395e-07 -2.22360754e-07 -2.35970916e-07 -2.32367597e-07
      6.76554123e-07 6.69286408e-07 6.57498674e-07 6.17088062e-07
      5.77609342e-07 5.80018423e-07 6.20298010e-07 7.35173558e-07
      9.45139789e-07 1.23608868e-06 1.60235777e-06 2.06006484e-06
      2.51239680e-06 2.55433997e-06 2.55174405e-06 2.55821988e-06
      2.51645974e-06 2.20175002e-06 1.53328494e-06 5.37243636e-07
      -4.67494743e-07 -1.21111668e-06 -1.56312979e-06 -1.71044246e-06
      -1.73807769e-06 -1.67017208e-06 -1.53073540e-06 -1.40527243e-06
      -1.31688580e-06 -1.25321594e-06 -1.24069095e-06 -1.15737737e-06
      -1.08876179e-06 -1.14546344e-06 -7.86885721e-07 1.28069129e-08
      8.72474459e-07 1.46233617e-06 1.69897919e-06 1.55062662e-06
      1.12876648e-06 7.29210058e-07 4.89955994e-07 3.75463173e-07
      2.73925878e-07 1.93853197e-07 1.36068536e-07 1.34336418e-07
      1.73658378e-07 2.52068020e-07 2.49271579e-07 2.17071275e-07
      4.67617753e-07 4.12476425e-07 2.18257924e-07 -6.04284978e-08
      -3.29651357e-07 -5.48377841e-07 -6.60970613e-07 -6.73041029e-07
      -6.20931019e-07 -4.92520144e-07 -2.66372922e-07 -5.69615786e-08
      1.03666459e-07 4.10368386e-07 9.89570481e-07 1.79941344e-06
      2.38692974e-06 2.61197806e-06 2.24007681e-06 1.39154872e-06
      4.34415966e-07 -3.94557105e-07 -1.08527274e-06 -1.55409396e-06
      -1.90695675e-06 -2.07403127e-06 -2.02312822e-06 -1.85949216e-06
      -1.60456568e-06 -1.29653858e-06 -1.09050814e-06 -9.51851462e-07
      -8.13876682e-07 -5.81154438e-07 -8.41206216e-08 5.51762639e-07
      1.18587855e-06 1.46037792e-06 1.32056641e-06 5.70582984e-07
      -3.35224598e-07 -8.47912531e-07 -8.89453588e-07 -5.47552190e-07
      -2.55848022e-07 -1.91478307e-07 -1.58148168e-07 -1.68205119e-07
      -2.10513761e-07 -2.50850348e-07 -2.88871348e-07 -2.92626908e-07
      -4.09869102e-07 -4.19419621e-07 -4.42632626e-07 -4.62623206e-07
      -4.60652529e-07 -4.62863795e-07 -4.53941283e-07 -4.75864169e-07
      -5.06999470e-07 -5.35927597e-07 -5.03659408e-07 -3.34348243e-07
      -3.97199535e-08 6.23466065e-07 1.34629909e-06 1.96157589e-06
      2.47086541e-06 2.66545612e-06 2.26139582e-06 1.53341455e-06
      7.53476854e-07 1.46155983e-07 -4.85528574e-07 -1.04081937e-06
      -1.35101504e-06 -1.51352936e-06 -1.55254622e-06 -1.53154394e-06
      -1.49780692e-06 -1.50909204e-06 -1.70102692e-06 -1.93614346e-06
      -1.82552321e-06 -1.16383785e-06 -4.12416057e-07 3.13530307e-07
      7.64853667e-07 9.47503111e-07 5.62566669e-08 -1.09076495e-06
      -2.02597698e-06 -2.56390467e-06 -2.83463510e-06 -2.69963289e-06
      -2.29340048e-06 -1.67681424e-06 -9.62307126e-07 -3.33647733e-07
      1.58976093e-07 5.51540154e-07 8.23564051e-07 9.21427329e-07
      -7.41909503e-07 -7.15705426e-07 -6.24334291e-07 -4.99722375e-07
      -4.08299599e-07 -3.47112149e-07 -3.30489200e-07 -3.01084270e-07
      -2.05699664e-07 -6.21677714e-08 1.02611494e-07 4.60157622e-07
      1.10046096e-06 1.68802626e-06 1.90606102e-06 2.11378551e-06
      2.49658319e-06 2.66560528e-06 2.97893621e-06 2.83584495e-06
      2.07038420e-06 9.23471760e-07 -1.25793079e-07 -8.51723144e-07
      -1.25102054e-06 -1.48351990e-06 -1.72699936e-06 -2.06489244e-06
      -2.51789970e-06 -3.05117010e-06 -3.52695974e-06 -3.69049781e-06
      -3.25925407e-06 -2.11120300e-06 -4.81691018e-07 1.05020717e-06
      2.07401786e-06 2.24094356e-06 1.95624602e-06 1.50987978e-06
      7.88401110e-07 -2.15245691e-07 -9.10028575e-07 -1.30877663e-06
      -1.40877125e-06 -1.27434896e-06 -9.72372277e-07 -6.23969186e-07
      -2.58400149e-07 5.60893163e-08 2.39450941e-07 2.92630318e-07
      -6.97261100e-07 -6.89394142e-07 -6.80921289e-07 -6.69827955e-07
      -6.72185479e-07 -6.95363440e-07 -6.59447608e-07 -5.08015944e-07
      -1.13303351e-07 2.49337489e-07 5.13885993e-07 8.33479078e-07
      1.10541237e-06 1.19478204e-06 1.25455222e-06 1.43660941e-06
      1.91471440e-06 2.69562429e-06 3.61046455e-06 4.26092356e-06
      3.53087603e-06 2.16355647e-06 8.67703193e-07 -1.52198169e-07
      -8.71991858e-07 -1.33252320e-06 -1.69395059e-06 -1.99838200e-06
      -2.29388115e-06 -2.61303830e-06 -2.84501448e-06 -2.79939013e-06
      -2.32479101e-06 -1.46489219e-06 -2.90001793e-07 1.42476244e-06
      2.49156483e-06 2.85158012e-06 2.64670734e-06 2.22149333e-06
      1.54017073e-06 6.83458154e-07 -1.44617559e-07 -2.75162421e-07
      -4.02319472e-07 -3.21168585e-07 -4.06748285e-07 -6.51972812e-07
      -7.57995338e-07 -8.03556304e-07 -8.10845904e-07 -8.21707658e-07
      -5.54708720e-07 -5.88064438e-07 -6.41757765e-07 -7.20290700e-07
      -7.77218645e-07 -7.80630501e-07 -6.51145172e-07 -3.55979438e-07
      4.86539840e-08 5.74357216e-07 1.36338997e-06 2.36311212e-06
      2.21102050e-06 1.23770303e-06 2.44245115e-07 -3.68399981e-07
      -3.40944752e-07 6.99139378e-07 1.81782673e-06 2.79888332e-06
      3.12937368e-06 2.52300970e-06 2.05895003e-06 1.66836708e-06
      1.36391520e-06 1.19781021e-06 1.13961244e-06 1.19845106e-06
      1.33415676e-06 1.36000335e-06 1.21875098e-06 8.83711266e-07
      1.87453750e-07 -3.26890387e-07 -3.27829099e-07 3.37055042e-07
      1.11328893e-06 1.51201334e-06 1.50230824e-06 1.41025794e-06
      1.51232666e-06 1.52362747e-06 1.44589467e-06 4.60708407e-07
      -5.86911483e-07 -1.18091589e-06 -1.47082858e-06 -1.59289209e-06
      -1.70380099e-06 -1.77765742e-06 -1.77909988e-06 -1.77237553e-06
      -3.24879323e-07 -3.89101075e-07 -5.61002423e-07 -7.89455783e-07
      -1.00691500e-06 -1.10713677e-06 -1.06463585e-06 -8.22372840e-07
      -4.06720886e-07 1.07439526e-07 3.77554528e-07 2.22503225e-08
      -3.83139337e-07 -1.04810636e-06 -1.72954503e-06 -2.08153779e-06
      -1.99836313e-06 -1.58049261e-06 -1.19174354e-06 -2.68041674e-07
      9.45025306e-07 1.89280729e-06 1.93405185e-06 1.59213914e-06
      1.15979924e-06 8.22349932e-07 6.02710884e-07 5.45570060e-07
      6.70045551e-07 8.33064576e-07 9.14694624e-07 8.97572363e-07
      6.91018101e-07 3.42983014e-07 1.24250548e-07 1.45359245e-08
      -1.94833717e-07 -2.64138521e-07 -3.46539451e-07 -4.14837615e-07
      -3.65979702e-07 -2.79352378e-07 -4.39473780e-07 -7.16520617e-07
      -1.25193162e-06 -1.71415536e-06 -2.16143872e-06 -2.45420847e-06
      -2.60215847e-06 -2.65033714e-06 -2.62056392e-06 -2.59356716e-06
      1.23613788e-07 1.02625243e-07 2.22468461e-08 -1.07047853e-07
      -2.84505717e-07 -3.95334268e-07 -3.56988409e-07 -2.50579404e-07
      -1.36535789e-07 -1.93436577e-07 -3.88225175e-07 -6.18893807e-07
      -8.20908838e-07 -9.52268522e-07 -1.00261366e-06 -1.03647574e-06
      -1.28351485e-06 -1.54241661e-06 -1.48754930e-06 -1.05810398e-06
      -4.17048653e-07 1.09856153e-07 4.37801589e-07 5.31696912e-07
      5.47286106e-07 5.02712751e-08 -3.44239794e-07 -4.00140493e-07
      -1.43685128e-07 1.88738838e-07 2.07229817e-07 -2.49331805e-07
      -1.12374414e-06 -2.26470229e-06 -3.17581839e-06 -3.70926887e-06
      -3.79230482e-06 -3.41603391e-06 -2.71426438e-06 -1.80104303e-06
      -9.06559649e-07 -2.20072394e-07 1.77581484e-07 1.90095975e-07
      -1.66596749e-07 -5.20268770e-07 -7.99638826e-07 -9.93554181e-07
      -1.07155756e-06 -1.05814320e-06 -1.02259310e-06 -9.91536353e-07
      6.04888797e-08 1.43213327e-07 4.36448374e-07 9.92407649e-07
      1.48465358e-06 1.89856519e-06 2.24905989e-06 2.30264754e-06
      1.82739518e-06 1.17199136e-06 6.70037423e-07 3.00103011e-07
      2.68404762e-07 5.48320543e-07 1.42727811e-06 1.30318972e-06
      9.58405053e-07 5.67902362e-07 2.06309821e-07 -1.80253451e-07
      -1.26899863e-07 -4.40177139e-09 2.20070788e-07 4.59685978e-08
      3.57962790e-07 5.10654488e-08 -5.45541639e-08 2.63824461e-07
      8.55944904e-07 1.29654916e-06 1.38948656e-06 1.19622916e-06
      1.13602971e-06 -2.98614736e-07 -1.52748692e-06 -2.73519618e-06
      -3.08389940e-06 -2.84338716e-06 -2.37720928e-06 -1.29389684e-06
      -2.15826532e-07 8.60153193e-07 1.23625546e-06 1.50506617e-06
      2.00164072e-06 2.34465301e-06 2.75840307e-06 2.86869454e-06
      2.63379820e-06 2.44376633e-06 2.43500540e-06 2.47715639e-06
      -3.64888166e-07 -2.99213326e-07 -2.34730692e-07 -3.50514199e-07
      -6.13746010e-07 -7.42515510e-07 -6.74164767e-07 -8.91105458e-07
      -9.71308168e-07 -6.76781042e-07 -4.58001551e-07 -4.31704706e-07
      -1.63343955e-07 2.00569417e-07 3.45902265e-07 4.72225224e-07
      5.63322658e-07 7.97168866e-07 5.22450478e-07 -2.36886521e-07
      -7.57005580e-07 -1.09628240e-06 -1.68473844e-06 -2.01774719e-06
      -2.20221978e-06 -2.32078992e-06 -2.35249331e-06 -2.29154671e-06
      -2.37768040e-06 -2.51654296e-06 -2.41145699e-06 -2.32185812e-06
      -2.29604757e-06 -2.00112095e-06 -1.25722602e-06 -7.34784237e-07
      -4.22284018e-07 -4.21141095e-08 4.29574207e-08 -3.94358821e-08
      -5.91181859e-08 -8.94775241e-08 -1.38426060e-07 -2.80434165e-07
      -3.59008993e-07 -5.50375717e-07 -7.79167351e-07 -9.85467409e-07
      -1.09125142e-06 -1.10538497e-06 -9.42413465e-07 -9.22888148e-07
      -5.12590645e-07 -5.26027463e-07 -4.01268323e-07 -3.47977902e-07
      -4.44255022e-07 -5.54489304e-07 -6.73644877e-07 -9.83045311e-07
      -9.57690986e-07 -7.27919655e-07 -5.77283345e-07 -5.61651973e-07
      -2.85401939e-07 -1.80845774e-08 4.78607092e-08 3.22430594e-07
      5.83810788e-07 8.37343862e-07 5.83470580e-07 -1.16019940e-07
      -7.15350041e-07 -1.05009860e-06 -1.43268824e-06 -1.90424214e-06
      -2.25789063e-06 -2.44234548e-06 -2.38217535e-06 -2.31448143e-06
      -2.50496419e-06 -2.66733400e-06 -2.54724500e-06 -2.30767296e-06
      -2.11731935e-06 -1.85185309e-06 -1.14026307e-06 -6.08222081e-07
      -3.41501703e-07 1.63065295e-08 1.51019179e-07 1.95642951e-08
      3.94696222e-08 8.90110670e-08 6.25163850e-08 -1.94513120e-07
      -3.07758540e-07 -4.51157405e-07 -5.46942886e-07 -5.45805619e-07
      -6.76929233e-07 -6.91894741e-07 -5.01770103e-07 -4.01609299e-07
      -7.02724208e-07 -8.43562191e-07 -6.95755318e-07 -4.31357563e-07
      -1.95033195e-07 -1.92492877e-07 -5.15094939e-07 -8.74198633e-07
      -7.43637031e-07 -4.61065639e-07 -4.73099306e-07 -4.32403169e-07
      -2.68828131e-07 -1.56330643e-07 -8.61730030e-08 8.01167772e-08
      4.75083937e-07 7.67207439e-07 6.17777971e-07 1.98369861e-07
      -3.69262210e-07 -8.67053529e-07 -1.20624850e-06 -1.68135364e-06
      -2.06238406e-06 -2.22109838e-06 -2.12640475e-06 -2.16411354e-06
      -2.47296521e-06 -2.68952158e-06 -2.66081565e-06 -2.55638815e-06
      -2.26489578e-06 -1.93353799e-06 -1.24033409e-06 -5.48397452e-07
      -2.13041361e-07 -1.44648995e-08 2.97389491e-08 -1.56710755e-07
      -6.33563886e-08 1.52284059e-07 8.86960905e-08 -2.52239033e-07
      -4.27999481e-07 -6.15812951e-07 -5.67296411e-07 -3.30678205e-07
      -4.36217562e-07 -3.38746361e-07 -6.65152555e-08 7.61530856e-08
      -1.10672238e-06 -1.21037021e-06 -9.32585806e-07 -5.34548292e-07
      -1.53711667e-07 1.78270412e-07 -2.20526829e-07 -6.59320506e-07
      -5.84677991e-07 -2.48267611e-07 -3.39336054e-07 -3.37167648e-07
      -2.76586491e-07 -1.23599818e-07 -5.47867707e-08 -2.83330248e-08
      2.49967513e-07 5.13052726e-07 4.38844836e-07 1.60750773e-07
      -4.83744458e-08 -3.58730631e-07 -8.56782378e-07 -1.28502882e-06
      -1.63960954e-06 -1.71405475e-06 -1.64612811e-06 -1.73562114e-06
      -1.95744792e-06 -2.23206780e-06 -2.54026031e-06 -2.80594713e-06
      -2.62300614e-06 -2.15368141e-06 -1.41149826e-06 -6.44056229e-07
      -1.69108574e-07 -1.23609553e-07 -1.70148880e-07 -2.58904834e-07
      -2.13344521e-07 5.61623681e-09 -9.51357890e-08 -3.83228411e-07
      -5.93546758e-07 -8.09886330e-07 -8.02324109e-07 -5.14460112e-07
      -6.25377766e-07 -5.96444238e-07 -3.08917976e-07 7.04626615e-08
      -4.44059538e-07 -6.31715238e-07 -6.70981080e-07 -5.81675465e-07
      -2.21948966e-07 3.52682520e-07 1.03321810e-07 -2.68681191e-07
      -2.76657516e-07 -8.85950229e-08 -3.03810083e-07 -2.89038979e-07
      -2.82690166e-07 -1.07764770e-07 3.09065706e-09 5.48349544e-09
      5.71419960e-08 1.40396381e-07 1.19336946e-07 -2.28347314e-08
      -8.34523277e-08 -9.54474828e-08 -3.86531099e-07 -7.58706449e-07
      -1.05469064e-06 -1.18470018e-06 -1.08174993e-06 -1.12536941e-06
      -1.24951032e-06 -1.45348827e-06 -1.86398427e-06 -2.57811962e-06
      -2.67307018e-06 -2.20954030e-06 -1.43039904e-06 -6.52916412e-07
      -1.96988552e-07 -1.20567833e-07 -2.22918402e-07 -8.19904002e-08
      1.70960330e-08 -3.81529510e-08 -2.40209516e-07 -4.23091450e-07
      -5.07108552e-07 -7.10238453e-07 -7.24924064e-07 -4.22770000e-07
      -5.20785079e-07 -6.93564459e-07 -5.58655699e-07 -3.34189508e-07
      5.71363728e-07 4.71323204e-07 9.91620084e-08 -3.54119663e-07
      -2.05564433e-07 4.33192923e-07 3.30549824e-07 7.67466446e-08
      2.11813749e-08 1.07017534e-07 -1.73116135e-07 -3.50802082e-07
      -2.61207589e-07 -9.05784034e-08 8.07699863e-08 4.08936707e-08
      3.65211612e-08 -1.30771539e-07 -1.99000539e-07 -2.03099546e-07
      -2.20496105e-07 -1.39266660e-07 -4.95036261e-08 -2.33581574e-07
      -4.17540548e-07 -7.69422229e-07 -7.91269144e-07 -5.58881482e-07
      -6.31005321e-07 -9.32933631e-07 -1.20461152e-06 -1.62930269e-06
      -1.89184289e-06 -1.67423491e-06 -1.15161708e-06 -5.57713179e-07
      -1.85308821e-07 -5.95550596e-08 -2.17208189e-08 2.50751611e-07
      3.61828484e-07 2.58710855e-07 9.39773912e-08 -4.61234002e-08
      -2.48307401e-07 -4.34008200e-07 -4.12026964e-07 -2.80269290e-07
      -3.03069157e-07 -3.14255800e-07 -6.76598120e-08 1.19935592e-07
      4.33590600e-07 5.22104870e-07 4.59313497e-07 4.62203253e-08
      -1.66052132e-07 4.49790548e-07 7.01763440e-07 4.16763470e-07
      2.56596678e-07 2.57913825e-07 4.38809487e-08 -2.25996160e-07
      -2.02076706e-07 -4.81416862e-08 1.38491714e-07 1.54709014e-07
      5.60558071e-08 -6.05298638e-08 -1.74651376e-07 -1.36501455e-07
      -3.12734556e-07 -2.52523648e-07 1.44428782e-07 1.38260191e-07
      -3.24325953e-08 -4.24073022e-07 -7.06805054e-07 -6.74234570e-07
      -6.87776151e-07 -9.85563020e-07 -1.12056955e-06 -9.00169766e-07
      -7.26326903e-07 -6.58190515e-07 -5.20416677e-07 -2.07572356e-07
      -7.69327144e-08 1.80878956e-08 1.33842391e-07 3.11174887e-07
      4.32018652e-07 3.58120843e-07 2.90484735e-07 2.16033854e-07
      -1.28214467e-07 -3.13998100e-07 -1.86926016e-07 -2.36164183e-07
      -3.40818076e-07 -2.91969059e-07 -9.03370356e-09 1.73349534e-07
      5.21806740e-08 7.11189756e-08 2.78525107e-07 4.19408828e-08
      -2.00835345e-07 2.25068263e-07 6.53211998e-07 5.86675924e-07
      4.26253649e-07 3.06925216e-07 2.40517693e-07 -1.52822466e-08
      -1.26707306e-07 -2.91151414e-09 2.29144064e-07 3.21999039e-07
      2.08462410e-07 7.21768671e-08 1.11867926e-07 1.62813578e-07
      -8.42024264e-08 -1.10910364e-07 2.13976506e-07 3.37783462e-07
      1.59711263e-07 -3.44161009e-07 -6.89799322e-07 -9.31490263e-07
      -1.01947239e-06 -1.20028881e-06 -1.21460835e-06 -7.65043410e-07
      -2.18986962e-08 2.17419242e-07 1.83178415e-07 1.91737058e-07
      7.13650508e-08 2.04713629e-07 3.02620350e-07 4.07143915e-07
      4.04470171e-07 3.33609194e-07 2.80674556e-07 1.05623599e-07
      -1.64864531e-07 -2.19819512e-07 -9.08750764e-08 -8.76234836e-08
      -3.65506679e-07 -4.30522505e-07 -3.10757912e-07 -3.66387127e-07
      2.39310680e-07 1.96341063e-07 2.80014916e-07 8.36251886e-08
      -2.23737615e-07 -1.47104835e-08 4.08965604e-07 5.58683041e-07
      5.18702279e-07 4.44920971e-07 3.50551858e-07 1.75657448e-07
      -3.66846820e-08 1.57202926e-08 2.98708244e-07 3.41978335e-07
      2.21709556e-07 2.26257100e-07 5.14543103e-07 6.61928198e-07
      4.37779676e-07 3.06069950e-07 4.71019945e-07 4.60446103e-07
      2.28650336e-07 -2.94829249e-07 -7.10642951e-07 -9.03477940e-07
      -9.85449674e-07 -1.19292622e-06 -1.25742429e-06 -8.89209218e-07
      -1.96140405e-07 1.74500812e-07 1.85360548e-07 3.03328790e-07
      1.82477550e-07 3.90164445e-07 5.25813334e-07 4.18920877e-07
      3.85770221e-07 3.75319416e-07 3.47337306e-07 1.23093287e-07
      -3.32263710e-08 -1.55060604e-08 8.38119902e-08 1.44734599e-07
      -7.96330113e-08 -2.55931241e-07 -3.48936169e-07 -4.30765766e-07
      2.89910702e-07 5.22001187e-07 5.83158453e-07 5.49045410e-07
      4.79186326e-07 5.20798721e-07 6.76205502e-07 7.54970927e-07
      8.21877848e-07 6.26246219e-07 4.81963070e-07 3.46653934e-07
      1.38830401e-07 1.59053059e-07 3.49370453e-07 3.51575750e-07
      1.68523911e-07 3.00078511e-07 5.01749525e-07 6.73713259e-07
      5.66511744e-07 4.50771807e-07 6.81097390e-07 7.41242900e-07
      3.89334474e-07 -3.25704264e-07 -9.18416220e-07 -1.12587156e-06
      -1.10091833e-06 -1.12784630e-06 -1.08053075e-06 -6.95993606e-07
      -9.47327337e-08 2.02143013e-07 2.10868762e-07 3.76770600e-07
      2.20935249e-07 2.83688706e-07 4.98712552e-07 3.56728151e-07
      1.65972253e-07 2.96633175e-07 5.09194820e-07 6.57749808e-07
      5.70893405e-07 4.17132640e-07 2.91053539e-07 1.87583311e-07
      -3.28874492e-08 -1.68617078e-07 -9.34509146e-08 -1.52452316e-07
      4.30871978e-07 7.56147983e-07 9.38943458e-07 1.19278297e-06
      1.51667018e-06 1.83932548e-06 1.55485816e-06 1.42510328e-06
      1.32243281e-06 9.95116125e-07 8.27724193e-07 6.76767002e-07
      4.48039344e-07 3.98554334e-07 5.73821694e-07 4.66998188e-07
      2.68628952e-07 2.03784239e-07 1.14881495e-07 1.99886671e-07
      1.59220221e-07 1.99414345e-07 4.12475060e-07 6.35144488e-07
      4.05748011e-07 -2.76228377e-07 -1.00681041e-06 -1.31496779e-06
      -1.28330953e-06 -1.28940076e-06 -1.06324308e-06 -6.85660723e-07
      -1.12024388e-07 1.32310760e-07 2.81339481e-07 4.58990769e-07
      3.34960106e-07 1.88827798e-07 2.69938823e-07 2.46024968e-07
      -3.55234882e-08 -1.49415953e-07 1.44751482e-07 5.84387465e-07
      8.71384600e-07 9.74344061e-07 7.57263592e-07 3.11775068e-07
      -1.01987197e-07 -3.19066800e-07 -2.26093405e-07 -2.13876433e-07
      1.99396823e-07 5.35397589e-07 7.40134737e-07 1.19621041e-06
      1.87019384e-06 2.23630514e-06 2.27761757e-06 2.20216884e-06
      1.84187923e-06 1.33335266e-06 1.21275968e-06 1.12284772e-06
      8.82910626e-07 7.44464671e-07 7.59404827e-07 5.66417157e-07
      3.78959840e-07 2.56193488e-07 -5.72018948e-08 -2.30125593e-07
      -2.56532928e-07 -1.31037865e-07 1.36169556e-08 1.29849951e-07
      1.31584088e-07 -3.26966926e-07 -1.04623837e-06 -1.45084175e-06
      -1.23454754e-06 -1.16232286e-06 -9.19316847e-07 -5.52307824e-07
      -1.13748442e-07 4.53717099e-08 3.80601676e-07 7.56577947e-07
      7.37630387e-07 4.82840221e-07 3.80691205e-07 2.10946837e-07
      -1.78413330e-07 -5.02864509e-07 -4.07451950e-07 2.46883625e-09
      4.03365277e-07 7.43376404e-07 9.26025223e-07 5.65741686e-07
      9.23462140e-11 -3.40526270e-07 -5.17681599e-07 -5.95303220e-07
      -8.98106975e-08 -3.83486238e-08 1.69222659e-07 7.37962694e-07
      1.40543739e-06 1.87979470e-06 2.23026404e-06 2.44115358e-06
      2.32544085e-06 1.81932398e-06 1.37811412e-06 1.56562464e-06
      1.05332606e-06 8.23678363e-07 6.97809980e-07 4.63187121e-07
      3.52447046e-07 2.07308247e-07 -1.56458171e-07 -4.12458689e-07
      -4.91305116e-07 -3.60829517e-07 -2.70469570e-07 -3.33041413e-07
      -2.80525938e-07 -4.12697972e-07 -9.96615540e-07 -1.50961853e-06
      -1.10810788e-06 -8.51544598e-07 -5.22008179e-07 -1.69611639e-07
      1.92051644e-07 2.35458785e-07 4.89258412e-07 9.54655889e-07
      9.77442483e-07 7.71094108e-07 6.88862656e-07 6.50771256e-07
      2.14315463e-07 -3.41501419e-07 -4.34898766e-07 -2.19605369e-07
      -8.89497684e-08 1.24005439e-07 4.96320467e-07 5.81449513e-07
      1.07418465e-07 -4.23361683e-07 -7.85727991e-07 -8.97276664e-07
      -2.38370390e-07 -2.38688557e-07 -6.65245778e-08 3.21312825e-07
      8.07046888e-07 1.17706008e-06 1.60823004e-06 1.98429666e-06
      2.14697707e-06 2.16143326e-06 1.49689208e-06 1.54728389e-06
      1.20656046e-06 6.16424984e-07 3.83725251e-07 2.50203470e-07
      3.55336596e-08 -9.18491807e-08 -3.42540375e-07 -4.78706738e-07
      -5.40633891e-07 -3.60297065e-07 -2.68968506e-07 -4.57389206e-07
      -4.75529447e-07 -4.05508672e-07 -7.45143552e-07 -1.11276415e-06
      -8.88048248e-07 -5.46968181e-07 -1.48978529e-07 2.71078136e-07
      5.75868398e-07 6.48900766e-07 8.26866483e-07 1.27391843e-06
      1.27677140e-06 9.81058861e-07 7.38964218e-07 8.43880400e-07
      9.13464874e-07 4.07427848e-07 2.85693062e-07 7.12687836e-07
      4.08725356e-07 4.59896690e-08 1.91751482e-07 3.30651858e-07
      2.24743346e-07 -4.35969554e-07 -9.42231395e-07 -1.16483079e-06
      -1.67031942e-07 -2.85368316e-07 -1.07305674e-07 1.90305229e-07
      6.71667465e-07 6.97236828e-07 9.24229994e-07 1.23471148e-06
      1.43004740e-06 1.72906221e-06 1.92842958e-06 1.29442390e-06
      1.08934557e-06 2.73612471e-07 2.08952606e-08 1.01803913e-07
      -1.61338505e-07 -4.06930695e-07 -5.71099633e-07 -5.15753129e-07
      -4.74737419e-07 -2.80364276e-07 -2.05355434e-07 -4.19092345e-07
      -5.07172444e-07 -2.76142117e-07 -2.68209874e-07 -6.22243249e-07
      -5.65326388e-07 -3.36368345e-07 1.07401892e-08 5.21803599e-07
      8.40742814e-07 9.57740440e-07 1.11040936e-06 1.53650035e-06
      1.67687620e-06 1.22955180e-06 8.06929165e-07 6.26498718e-07
      6.87365741e-07 6.76065724e-07 6.23790299e-07 1.36233211e-06
      1.41016471e-06 9.94992433e-07 5.11889652e-07 2.05131144e-07
      -5.29907140e-08 -4.14671092e-07 -7.04656372e-07 -9.83742439e-07
      -2.20269555e-07 -3.53715620e-07 -3.74252664e-08 2.78192402e-07
      6.09791300e-07 8.52771791e-07 6.56244026e-07 7.03683895e-07
      6.80311928e-07 7.88945272e-07 1.01060687e-06 1.13957356e-06
      8.06992318e-07 2.57602437e-07 -4.06920684e-08 -1.29259263e-07
      -1.15252718e-07 -4.49454689e-07 -6.42950170e-07 -4.99795817e-07
      -3.83046171e-07 -2.40430126e-07 -2.34342309e-07 -4.99398709e-07
      -6.45939394e-07 -2.83521757e-07 1.53764205e-07 1.23824236e-07
      -1.95830339e-07 -1.47624533e-07 1.18206058e-08 4.79738219e-07
      8.28112491e-07 9.22946299e-07 9.75676130e-07 1.42379429e-06
      1.61020228e-06 1.28810586e-06 8.92999594e-07 5.43737258e-07
      1.98180572e-07 1.83763262e-07 4.64845527e-07 1.09567873e-06
      1.43972886e-06 1.52910218e-06 1.14576699e-06 7.48597415e-07
      1.53613566e-08 -4.21248473e-07 -4.18441630e-07 -4.23953850e-07
      -5.51310222e-07 -6.31989110e-07 -2.31406702e-07 1.32566271e-07
      4.52818057e-07 8.07306890e-07 8.48057709e-07 6.59106661e-07
      4.26530818e-07 2.85887609e-07 3.16483579e-07 3.84867320e-07
      3.96591304e-07 2.96465430e-07 4.45502124e-08 2.72203824e-08
      -1.56150382e-09 -3.85297284e-07 -5.77200979e-07 -5.26040765e-07
      -3.73648220e-07 -2.73107247e-07 -2.72887775e-07 -5.32636705e-07
      -6.53557322e-07 -3.50720399e-07 2.27814176e-08 2.81767626e-07
      9.01831783e-08 -3.61280983e-09 -5.69804186e-08 2.27950466e-07
      5.39699954e-07 4.70019359e-07 5.22967980e-07 8.73077909e-07
      1.17391176e-06 9.74994009e-07 7.23564312e-07 4.34151531e-07
      1.04516133e-07 -5.63283535e-08 1.24199261e-07 7.98245821e-07
      1.19339381e-06 1.36261576e-06 1.19865820e-06 9.54883717e-07
      6.92255526e-07 -4.69640824e-08 -2.23185125e-07 -5.73678172e-08
      -9.15595933e-07 -8.73889292e-07 -4.51500085e-07 -9.16491132e-08
      7.87971928e-08 4.21849563e-07 8.00821908e-07 7.89027581e-07
      4.58335279e-07 2.01490607e-07 1.47262554e-07 -9.23489729e-09
      1.13725392e-07 2.71580376e-07 3.15276168e-07 2.52267654e-07
      3.53218752e-07 -1.54911135e-07 -7.18297713e-07 -7.30793829e-07
      -4.92197159e-07 -4.65757239e-07 -3.84616129e-07 -3.89154110e-07
      -3.49051703e-07 -1.48896930e-07 -3.18909654e-09 2.31905958e-07
      2.11260016e-07 7.46244311e-08 -1.84700866e-07 -1.70215628e-07
      9.52809955e-08 -1.24571242e-08 -1.71351502e-08 2.83073234e-07
      4.60775880e-07 5.44302679e-07 4.27271686e-07 1.53108914e-07
      5.61068525e-08 5.46446692e-08 1.03168112e-07 5.62770822e-07
      9.54927259e-07 1.10411679e-06 9.50076867e-07 8.73018735e-07
      9.80943923e-07 6.02570935e-07 1.69957900e-07 1.78877471e-07
      -1.16384069e-06 -9.86424538e-07 -6.03080878e-07 -2.76773761e-07
      -2.07687023e-07 9.19848588e-08 4.98799125e-07 7.46378305e-07
      6.13395173e-07 3.04691440e-07 1.89526091e-07 2.06264446e-08
      1.44930127e-07 3.05179668e-07 4.01893004e-07 4.40138365e-07
      4.46326197e-07 1.38577469e-08 -6.16515592e-07 -8.03784189e-07
      -6.48439084e-07 -7.51083462e-07 -6.08426831e-07 -2.28944486e-07
      6.00368537e-08 2.51379788e-07 2.54785192e-07 4.23442543e-07
      4.66420659e-07 3.19406524e-07 -2.02878070e-09 -3.89299800e-07
      -3.92905889e-07 -3.83148432e-07 -3.54584159e-07 -7.65636869e-08
      1.45595010e-07 2.60094424e-07 2.23636093e-07 1.13459343e-07
      5.68653746e-08 7.67296626e-08 4.40233592e-08 2.04133343e-07
      4.81018958e-07 7.33172556e-07 7.39456141e-07 5.89952265e-07
      7.58692806e-07 7.53008010e-07 3.96240154e-07 3.23390623e-07
      -1.50163885e-06 -1.31857314e-06 -8.78099513e-07 -5.16941498e-07
      -4.79828373e-07 -1.59479484e-07 2.08510428e-07 5.15276156e-07
      5.37208280e-07 3.81498097e-07 1.87596001e-07 1.77177085e-07
      2.78539915e-07 1.68249571e-07 1.02816685e-07 2.26781992e-07
      2.72591649e-07 -1.07460219e-08 -4.21175599e-07 -5.47711693e-07
      -4.04820241e-07 -6.34180765e-07 -6.15646911e-07 -2.19976681e-09
      4.36896528e-07 5.39884923e-07 4.71078067e-07 5.28508849e-07
      6.16929810e-07 4.93381322e-07 2.90030528e-07 -1.28235413e-07
      -5.33320019e-07 -6.00631154e-07 -5.46935837e-07 -3.01040785e-07
      -5.00096071e-08 1.18273960e-07 2.12394255e-07 1.30421284e-07
      8.14975891e-08 5.15830045e-08 3.93072845e-08 5.46963257e-08
      1.96789401e-07 2.85375449e-07 6.72450611e-08 1.94239277e-07
      3.53727444e-07 3.64345652e-07 2.23112124e-07 2.90919189e-07
      -1.72024409e-06 -1.53316284e-06 -1.06424693e-06 -6.63279195e-07
      -5.79953962e-07 -3.11603259e-07 2.19894503e-07 4.52299020e-07
      3.80647236e-07 2.55416296e-07 1.43105595e-07 2.88790631e-07
      3.70504296e-07 -6.36108197e-08 -2.61085432e-07 -2.52012057e-07
      -2.12054303e-07 -3.14725469e-07 -4.87946750e-07 -4.10035227e-07
      -2.10062041e-07 -2.87568355e-07 -2.53573631e-07 2.87129410e-07
      7.24956124e-07 7.95244659e-07 6.04903164e-07 4.64113413e-07
      4.81394466e-07 3.13171626e-07 2.45739983e-07 2.94608107e-08
      -4.21024509e-07 -5.68079713e-07 -6.05056755e-07 -5.13034593e-07
      -3.04698943e-07 -1.13977173e-07 -5.83135922e-08 -4.96035817e-08
      -7.83513556e-08 -1.37831373e-08 3.33216015e-08 1.82371185e-09
      1.71191502e-07 2.13286086e-07 -1.70062222e-07 -2.01297439e-07
      5.25133359e-08 1.78747257e-07 4.03967242e-08 -1.54878848e-08
      -2.05631136e-06 -1.79717551e-06 -1.20280197e-06 -7.88679415e-07
      -6.95042445e-07 -4.06441416e-07 2.07281857e-07 3.40843854e-07
      2.19533305e-07 9.90704407e-08 -3.19753433e-08 1.08389848e-07
      1.58559985e-07 -2.19898453e-07 -3.35079164e-07 -4.24418175e-07
      -5.21886079e-07 -6.49198739e-07 -9.02437250e-07 -8.18295462e-07
      -6.12577651e-07 -3.61974315e-07 -2.17101075e-08 4.06391422e-07
      7.02115074e-07 7.31965656e-07 6.43176918e-07 5.01133798e-07
      4.35119176e-07 2.03381560e-07 -4.42547510e-09 -1.24929088e-07
      -5.31821001e-07 -6.21261620e-07 -5.09168160e-07 -4.48301734e-07
      -3.31820246e-07 -1.43650198e-07 -1.60936750e-07 -1.62715850e-07
      -2.21474423e-07 -1.11188641e-07 -1.39373384e-07 -1.11889591e-07
      9.37671985e-08 2.07634784e-07 -1.36926189e-07 -2.94387007e-07
      -1.92443309e-07 2.84666299e-08 3.10546753e-08 2.14286757e-08
      -2.18337095e-06 -1.94979862e-06 -1.28895704e-06 -7.98811300e-07
      -6.18972251e-07 -3.18470143e-07 1.30480998e-07 2.54554521e-07
      1.26979131e-07 -6.82452983e-09 -8.21541732e-08 -1.17745032e-07
      -1.03764435e-07 -2.34629439e-07 -2.05645890e-07 -2.55795243e-07
      -4.54027656e-07 -6.74239288e-07 -1.01514104e-06 -1.20378979e-06
      -1.14234604e-06 -6.79527432e-07 -1.37004477e-07 1.56513238e-07
      2.64487852e-07 3.22105933e-07 3.21312598e-07 4.26954529e-07
      4.67529276e-07 5.28919202e-07 1.40475009e-07 -1.66005961e-07
      -6.37047890e-07 -8.88013687e-07 -7.96780000e-07 -6.04694151e-07
      -4.20531649e-07 -2.56221568e-07 -1.68573806e-07 -1.85234327e-07
      -1.53118634e-07 -3.60326382e-08 -8.37087697e-08 -1.67043140e-07
      -4.36770016e-08 7.12766948e-08 -9.88440121e-08 -2.45646277e-07
      -2.49006035e-07 -1.75688896e-07 -1.58885697e-07 -8.69124932e-08
      -2.02895308e-06 -1.87919227e-06 -1.31088939e-06 -7.16415968e-07
      -4.84372322e-07 -2.31307411e-07 9.51814698e-08 2.69074860e-07
      1.33416222e-07 3.67969761e-08 1.50587347e-08 -1.06818462e-07
      -2.00500850e-07 -2.21521262e-07 -1.27842654e-07 -1.21856033e-07
      -2.71662202e-07 -4.44630700e-07 -7.17565229e-07 -1.04382264e-06
      -1.00863974e-06 -7.15806436e-07 -2.55011543e-07 8.63618581e-08
      -3.66939759e-08 -2.52645940e-08 7.06648251e-08 1.94429333e-07
      3.04384457e-07 6.24979236e-07 5.24545101e-07 2.89017549e-07
      -1.59488366e-07 -6.82807467e-07 -8.81916719e-07 -7.61121214e-07
      -5.53313839e-07 -3.62887391e-07 -2.49192709e-07 -1.92616994e-07
      -1.07747013e-07 9.47651273e-08 1.16080315e-07 -5.28290265e-08
      -1.11101095e-07 -9.55481028e-09 -5.35072218e-08 -1.49696774e-07
      -2.38518226e-07 -3.50418077e-07 -3.90834856e-07 -3.74239363e-07
      -1.48474987e-06 -1.48006666e-06 -1.15344687e-06 -7.46520641e-07
      -4.66449421e-07 -2.16050807e-07 7.05566521e-08 2.46635778e-07
      1.59025191e-07 1.53729403e-07 2.00763481e-07 4.60708982e-09
      -1.86633969e-07 -1.50744754e-07 -3.83125567e-08 -3.77497287e-08
      -1.39402133e-07 -2.18380535e-07 -3.55428710e-07 -5.18275272e-07
      -5.50386972e-07 -5.44503280e-07 -2.07778839e-07 6.86988670e-08
      3.10256922e-08 -4.50149997e-08 5.53577557e-08 1.00562268e-07
      2.31397934e-07 6.53126847e-07 6.24138238e-07 5.23227357e-07
      2.25678946e-07 -2.09500598e-07 -5.29930105e-07 -6.47736272e-07
      -5.53156838e-07 -3.97675990e-07 -2.46609972e-07 -1.41478154e-07
      -1.26334328e-07 5.28211110e-08 9.09443827e-08 -2.42149376e-08
      -9.26919768e-08 8.96979824e-09 2.50473224e-08 -2.55444146e-08
      -1.51967811e-07 -3.24794541e-07 -4.56747358e-07 -5.07354116e-07
      -7.94377002e-07 -8.52764060e-07 -7.63154674e-07 -5.84288671e-07
      -4.63883850e-07 -2.55623547e-07 -2.77261574e-08 1.49767274e-07
      1.67570917e-07 2.23081969e-07 2.93475267e-07 9.84550965e-08
      -9.81319843e-08 2.88061592e-08 1.74958757e-07 2.16042253e-07
      1.70404348e-07 1.36139207e-07 -7.32825711e-09 -1.67573347e-07
      -6.56396111e-08 -1.28967869e-07 -3.61443391e-08 8.23957933e-08
      2.19431939e-07 1.93622498e-07 2.31657353e-07 2.42152396e-07
      3.02521613e-07 7.00146757e-07 6.33540537e-07 6.50835659e-07
      6.21300615e-07 3.48614805e-07 2.59088271e-08 -2.02907714e-07
      -3.27030847e-07 -3.67098721e-07 -2.42474329e-07 -6.33527648e-08
      -3.89248633e-08 -2.69016205e-08 -5.34385123e-08 -1.69777465e-07
      -1.16737176e-07 -1.91062952e-08 1.05068139e-07 9.00291610e-08
      -5.39435980e-08 -2.19717890e-07 -3.74717104e-07 -4.66599261e-07
      -3.04441613e-07 -2.79659133e-07 -3.20681096e-07 -2.61976993e-07
      -3.19837056e-07 -1.72809109e-07 5.02448003e-08 9.92372478e-08
      1.38121152e-07 2.50523129e-07 3.04610381e-07 1.25084370e-07
      -2.27105588e-08 1.38712807e-07 2.76645267e-07 4.21076123e-07
      4.94119888e-07 5.35719494e-07 3.99412357e-07 1.26956650e-07
      4.86330762e-08 1.28357414e-07 1.89533225e-07 2.71570201e-07
      2.52118042e-07 2.26775668e-07 1.44074022e-07 2.93848188e-07
      3.49659331e-07 6.15920328e-07 4.14684649e-07 4.95263293e-07
      7.48249647e-07 6.76653030e-07 4.64775241e-07 3.05781242e-07
      1.99319672e-07 4.38019292e-08 -3.15350164e-08 5.18610470e-08
      1.22858637e-07 2.67548348e-08 -8.80278535e-08 -2.13648931e-07
      -1.68395374e-07 -1.10459055e-07 -7.92345567e-09 2.29491937e-09
      -2.79126411e-08 -1.52942548e-07 -2.98807521e-07 -3.69266672e-07
      -2.10614402e-07 -7.65884636e-08 -1.70484455e-07 -1.76538180e-07
      -2.29813210e-07 -5.53179618e-08 2.02619347e-07 1.54875607e-07
      1.60241058e-07 2.31311120e-07 2.08977610e-07 1.19496050e-07
      6.55797194e-08 2.65653739e-07 3.40937078e-07 4.68614616e-07
      6.34799676e-07 6.99745897e-07 6.47774641e-07 4.17379027e-07
      1.22537685e-07 2.46988861e-07 3.62153344e-07 3.10236601e-07
      2.80048710e-07 2.74242609e-07 1.25752194e-07 2.58496328e-07
      2.91741685e-07 3.80462467e-07 1.77465594e-07 3.43844249e-07
      8.30176418e-07 8.22705772e-07 7.22649872e-07 6.86069882e-07
      6.42687326e-07 6.12214194e-07 5.25356995e-07 4.05125490e-07
      3.25311305e-07 1.75281912e-07 3.56182923e-08 -7.50516875e-08
      -1.15392027e-07 -1.04925292e-07 -1.22107537e-07 -1.76286122e-07
      -1.99114112e-07 -1.82966090e-07 -2.50420271e-07 -3.17036807e-07
      -3.72371630e-07 -2.66325571e-07 -1.47347507e-07 -2.07318664e-07
      -2.39838613e-07 -3.75589941e-08 1.91393923e-07 1.00181346e-07
      1.07956225e-07 1.96480400e-07 1.17442553e-07 1.46345471e-07
      2.74836708e-07 4.08507418e-07 4.37415935e-07 5.80802123e-07
      7.23103483e-07 6.92510525e-07 5.56731663e-07 4.71423249e-07
      4.28158728e-07 4.15120127e-07 3.64345709e-07 3.33447872e-07
      2.26462078e-07 2.79871244e-07 1.94516375e-07 2.99798756e-07
      3.12106494e-07 3.94540734e-07 4.78371362e-07 5.73205625e-07
      9.63579168e-07 9.29439125e-07 6.97328119e-07 7.29068233e-07
      8.33981801e-07 8.39568713e-07 7.34252978e-07 6.32183514e-07
      5.28054670e-07 4.56395242e-07 3.21964194e-07 8.09324305e-08
      -1.99618402e-08 1.95841334e-08 -7.40014414e-08 -1.92739819e-07
      -2.82764091e-07 -2.42446163e-07 -3.36093365e-07 -3.81024194e-07
      -5.31393880e-07 -4.88783940e-07 -3.20219726e-07 -1.58996102e-07
      -1.14806255e-07 -7.30758671e-08 2.64959366e-09 -6.14094446e-08
      2.84923285e-08 2.13789221e-07 7.92903521e-08 1.68511932e-07
      5.23290169e-07 7.04892159e-07 6.47426077e-07 7.75884473e-07
      8.78388619e-07 7.44215072e-07 5.18537945e-07 3.70163974e-07
      4.61390329e-07 6.29351121e-07 6.11462212e-07 3.64350825e-07
      1.58452082e-07 1.99540693e-07 2.39966653e-07 3.97410105e-07
      4.06597366e-07 4.07700099e-07 5.15148088e-07 7.37911250e-07
      1.14577767e-06 9.13889664e-07 5.43053147e-07 5.20335675e-07
      7.02076193e-07 8.00931502e-07 6.65715106e-07 5.36588004e-07
      4.94408141e-07 5.68583630e-07 5.00536316e-07 2.29932738e-07
      4.45022899e-08 6.69643541e-08 1.84453519e-08 -6.00744272e-08
      -2.14722149e-07 -2.92727663e-07 -4.14524038e-07 -4.43242897e-07
      -5.33496859e-07 -5.45442163e-07 -4.36962637e-07 -2.05090657e-07
      -5.31844542e-08 4.64777088e-08 -8.37567598e-08 -1.20960905e-07
      1.22173901e-07 3.45036625e-07 2.43286479e-07 3.01447500e-07
      6.57006694e-07 9.07823619e-07 8.49349874e-07 1.00909938e-06
      1.10257167e-06 8.59940940e-07 5.19558284e-07 3.03433040e-07
      2.86572231e-07 4.34063566e-07 4.06438033e-07 1.73335465e-07
      9.41140144e-08 2.96614360e-07 3.46655554e-07 3.56404485e-07
      3.50784092e-07 2.52608203e-07 1.96019187e-07 2.24556587e-07
      4.16437359e-07 5.93334732e-07 4.19974725e-07 3.57523675e-07
      4.26718202e-07 4.83882104e-07 3.50464632e-07 2.59715591e-07
      2.97361339e-07 4.67878124e-07 5.04928437e-07 2.95289794e-07
      5.89081708e-08 -3.58739456e-08 1.16678667e-08 -1.43712118e-08
      -2.01119050e-07 -3.87729187e-07 -4.50521981e-07 -4.63969428e-07
      -2.95308894e-07 -4.41529266e-07 -4.93638197e-07 -3.52617946e-07
      -1.49635866e-07 1.84209945e-08 -7.20321864e-08 -8.29224831e-08
      2.61625985e-07 4.88284854e-07 4.93491655e-07 5.50202003e-07
      7.02496266e-07 8.27694294e-07 8.99341956e-07 1.09055168e-06
      1.31579634e-06 1.21536243e-06 8.45416139e-07 4.65300474e-07
      1.90551276e-07 2.89181003e-07 3.46891682e-07 2.14421931e-07
      1.32637041e-07 3.31447495e-07 4.75870365e-07 3.86949210e-07
      3.36325002e-07 1.53549564e-07 -4.81803788e-08 -2.15145675e-07
      -2.52116820e-07 -1.01135690e-07 5.20923749e-08 2.22028561e-07
      2.72770961e-07 2.99563993e-07 1.76275051e-07 8.82644784e-08
      1.29249258e-07 3.33434201e-07 5.19961077e-07 3.87530235e-07
      2.01256384e-07 -7.07972347e-09 -4.84705120e-09 -5.90731162e-08
      -2.20620819e-07 -3.66608191e-07 -4.62746982e-07 -4.89976571e-07
      -1.58316553e-07 -2.59289749e-07 -3.01181984e-07 -3.89209333e-07
      -2.23463545e-07 -4.19378594e-08 -1.20234446e-07 -8.34716687e-08
      2.58843613e-07 4.19196340e-07 4.24244263e-07 5.00818089e-07
      5.28278065e-07 5.24650261e-07 4.21092182e-07 5.23553410e-07
      7.71275324e-07 8.95546179e-07 9.85544489e-07 7.82171185e-07
      4.13954467e-07 3.35361563e-07 3.68787937e-07 2.70113446e-07
      2.90850579e-07 4.57207676e-07 5.35218135e-07 4.96075018e-07
      4.89782281e-07 2.64628369e-07 9.74596048e-08 -2.15035953e-07
      -4.31512689e-07 -3.39538076e-07 -3.32634727e-07 -2.54674461e-07
      -1.55690572e-07 4.54704541e-08 8.37169907e-08 8.51613038e-08
      1.61749256e-07 2.53670038e-07 4.85123792e-07 4.90818252e-07
      3.90231008e-07 1.37866991e-07 7.40641113e-08 -3.95499491e-08
      -2.25622230e-07 -3.23544924e-07 -4.33108681e-07 -5.19221089e-07
      -2.38931772e-08 -3.38147927e-08 -1.29200345e-07 -2.62907804e-07
      -2.21267356e-07 -7.19300886e-08 -1.72551594e-07 -7.25803346e-08
      1.96670115e-07 2.09073860e-07 1.94958162e-07 1.90594903e-07
      1.64955978e-07 1.41892315e-07 2.65543676e-08 -8.19649486e-08
      -4.06466853e-07 -3.01088193e-07 2.98054630e-07 6.62280797e-07
      3.90860919e-07 2.28151663e-07 2.42294817e-07 1.84002644e-07
      3.66734440e-07 6.41391807e-07 7.02324598e-07 7.72112458e-07
      8.41734106e-07 4.68262726e-07 3.68339954e-07 6.82224339e-08
      -2.88333496e-07 -2.51878873e-07 -3.75843968e-07 -7.22651293e-07
      -8.38668200e-07 -5.64363916e-07 -2.66771110e-07 -1.09360215e-07
      1.49273106e-07 1.82733615e-07 3.67015332e-07 4.54437441e-07
      4.26747249e-07 1.60842916e-07 3.79510432e-08 -9.30819368e-08
      -2.38137389e-07 -2.91466307e-07 -3.69272470e-07 -4.92468530e-07
      -4.89987748e-08 -1.30486744e-09 -8.46044657e-09 -8.47099173e-08
      -1.74993858e-07 -1.11476922e-07 -9.54654666e-08 6.91887614e-09
      1.36370303e-07 -1.27248171e-07 -1.95887736e-07 -1.80401713e-07
      -2.44682440e-07 -2.43399654e-07 -2.99818510e-07 -5.11127666e-07
      -8.51976722e-07 -9.31958027e-07 -6.10181701e-07 -2.28026721e-07
      8.12631598e-08 1.83259615e-07 2.65108838e-07 2.56038476e-07
      3.84895060e-07 6.78245954e-07 8.08273171e-07 9.96852123e-07
      9.97897018e-07 6.30561942e-07 4.86345016e-07 1.60566870e-07
      -3.13170318e-07 -3.07832920e-07 -4.16698555e-07 -9.48691138e-07
      -1.26667669e-06 -1.10183680e-06 -8.24605877e-07 -6.95667325e-07
      -1.55707610e-07 2.16054460e-07 4.59007083e-07 4.67381312e-07
      4.71211393e-07 2.13651987e-07 -4.38863035e-09 -1.97729690e-07
      -3.73753352e-07 -3.80979941e-07 -3.98163706e-07 -4.72781153e-07
      -1.19406579e-07 -5.38579528e-08 -1.88626093e-08 -5.33663638e-08
      -1.31819405e-07 -5.99074852e-08 8.40329051e-08 1.56751966e-07
      1.38666948e-07 -3.51759979e-07 -6.50097263e-07 -5.20854940e-07
      -6.02345267e-07 -5.74541787e-07 -5.48165133e-07 -7.23443179e-07
      -1.07230846e-06 -1.23685379e-06 -9.74400564e-07 -8.01999136e-07
      -6.19323998e-07 -8.20563599e-08 3.40270901e-07 5.19583409e-07
      5.75508125e-07 6.87968964e-07 7.25041843e-07 8.20732396e-07
      7.74648981e-07 5.64767959e-07 5.76248794e-07 4.16149419e-07
      -8.86539411e-08 -3.39794468e-07 -3.38997182e-07 -9.00023849e-07
      -1.37880363e-06 -1.36404321e-06 -9.61853289e-07 -9.11039820e-07
      -4.11754115e-07 2.39774550e-07 5.12794827e-07 5.64394043e-07
      4.89503350e-07 2.73695804e-07 8.71059171e-08 -1.48338472e-07
      -5.04185607e-07 -6.22655477e-07 -6.08116750e-07 -6.28800592e-07
      -3.86703249e-07 -2.74549365e-07 -1.44383620e-07 -1.18611126e-07
      -1.14978313e-07 -1.41148764e-08 1.78496137e-07 2.73794427e-07
      1.91991845e-07 -3.27032751e-07 -6.90583875e-07 -6.77640003e-07
      -8.24874576e-07 -8.94256402e-07 -8.68050677e-07 -9.67638812e-07
      -1.23949610e-06 -1.45546437e-06 -1.36959238e-06 -1.12219038e-06
      -8.90593981e-07 -5.41631323e-07 2.50281289e-07 6.50047468e-07
      7.34235243e-07 7.44731153e-07 7.28441080e-07 5.78784409e-07
      5.00436613e-07 4.48417325e-07 5.66747417e-07 5.47349600e-07
      3.29183933e-08 -4.11349589e-07 -2.41081551e-07 -5.82429493e-07
      -8.63125820e-07 -1.00156012e-06 -7.70072802e-07 -8.52814878e-07
      -5.19518267e-07 2.13010949e-07 4.30305676e-07 5.24195457e-07
      4.73719524e-07 2.97640554e-07 1.74896982e-07 -5.09060385e-08
      -5.23268852e-07 -8.39326901e-07 -8.96887286e-07 -8.81532230e-07
      -5.27857424e-07 -3.79891048e-07 -2.61224272e-07 -2.72009714e-07
      -2.32941460e-07 -1.25184458e-08 1.21704090e-07 2.07500307e-07
      1.52298981e-07 -1.71299376e-07 -4.23788464e-07 -4.94598282e-07
      -6.47274078e-07 -8.12119026e-07 -8.87511760e-07 -8.99779593e-07
      -1.05511617e-06 -1.28162060e-06 -1.31288425e-06 -1.16370870e-06
      -8.08073594e-07 -4.28292793e-07 3.46090268e-08 5.86414444e-07
      8.67855363e-07 8.28969064e-07 6.87242675e-07 4.16531208e-07
      2.76951425e-07 2.93941895e-07 3.81328533e-07 3.55750217e-07
      -4.81171440e-08 -4.40546899e-07 -1.65413226e-07 -8.86712215e-08
      -2.09582723e-07 -3.98594437e-07 -3.35966178e-07 -4.85989688e-07
      -3.23820245e-07 1.88548285e-07 2.82622096e-07 3.60706480e-07
      3.44264379e-07 2.59421199e-07 2.54067402e-07 9.75347092e-08
      -3.71722990e-07 -8.44903354e-07 -1.12869361e-06 -1.12241719e-06
      -4.79850712e-07 -4.31487052e-07 -3.31937031e-07 -3.55174166e-07
      -3.71827610e-07 -1.56162898e-07 -5.23598018e-08 3.78121428e-08
      1.65593139e-08 -2.00525108e-08 -6.48215206e-08 -2.18221857e-07
      -3.41748347e-07 -4.99752275e-07 -5.46582839e-07 -5.53424741e-07
      -6.14720648e-07 -7.28669136e-07 -8.91686682e-07 -9.28782981e-07
      -8.00526436e-07 -3.35924767e-07 2.93802067e-08 4.13811705e-07
      6.78397157e-07 7.60280614e-07 7.27426425e-07 3.57781403e-07
      1.32442153e-07 2.33111415e-08 -1.26617890e-08 -1.13879089e-07
      -3.28673792e-07 -5.12155736e-07 -5.79538622e-08 3.00538147e-07
      3.09490900e-07 2.15761034e-07 2.23478267e-07 7.08251804e-08
      1.70822972e-07 3.86459959e-07 3.85055699e-07 3.24732611e-07
      2.08435395e-07 2.39391539e-07 3.10727842e-07 3.56745772e-07
      -3.16191127e-08 -5.50548123e-07 -1.07674248e-06 -1.26233908e-06
      -3.40500009e-07 -2.90056249e-07 -2.08133571e-07 -2.92532889e-07
      -3.95750845e-07 -2.31427222e-07 -1.33689639e-07 -9.41908525e-08
      -4.58992488e-08 6.28142089e-08 2.65247451e-07 1.60422800e-07
      -5.66821008e-08 -2.00693592e-07 -3.03012314e-07 -2.35616540e-07
      -2.21912543e-07 -3.60790402e-08 -1.31806473e-07 -4.29693785e-07
      -5.76327807e-07 -5.28138855e-07 -1.76127443e-07 1.62930846e-07
      3.34976733e-07 3.58910512e-07 4.13899755e-07 2.21069968e-07
      -3.65910537e-08 -3.64438961e-07 -4.48720868e-07 -4.34346759e-07
      -3.78639129e-07 -4.31518487e-07 2.93248537e-08 2.98066738e-07
      2.95477804e-07 3.17110050e-07 4.51605530e-07 5.50407378e-07
      6.27042198e-07 7.26932171e-07 6.66263531e-07 4.09849434e-07
      1.73147825e-07 2.68119237e-07 3.41600554e-07 5.23913457e-07
      2.79125999e-07 -1.98602407e-07 -8.18755609e-07 -1.14108582e-06
      -2.17956853e-07 -1.54471550e-07 -3.26070690e-08 -8.88740672e-08
      -2.02035253e-07 -1.83301637e-07 -2.28654372e-07 -2.69257839e-07
      -1.66153683e-07 -7.58798180e-08 1.21411020e-07 2.84165367e-07
      2.42640851e-07 1.13471131e-07 -3.19662803e-08 9.30097528e-08
      2.31454862e-07 3.53205337e-07 2.91455081e-07 5.92553135e-08
      -1.09093712e-07 -1.10303240e-07 -6.26169907e-08 -3.73123505e-08
      2.12847340e-08 -2.20304042e-08 -1.43741072e-08 -1.36614304e-07
      -3.66176124e-07 -7.28673285e-07 -8.09403275e-07 -6.50979814e-07
      -4.91723313e-07 -3.41156493e-07 -6.14377598e-08 6.01209393e-08
      1.03319508e-07 2.74386537e-07 4.25715058e-07 4.70069097e-07
      5.39714733e-07 7.08034861e-07 7.74323439e-07 4.18243815e-07
      1.33374698e-07 2.20140635e-07 2.73334706e-07 4.58663720e-07
      4.18454931e-07 6.37828990e-08 -5.11407620e-07 -8.85469774e-07
      3.38519115e-08 3.78914073e-08 1.21213390e-07 8.99640398e-08
      5.28714814e-08 2.42612614e-08 -1.20878155e-07 -1.92773001e-07
      -9.43641894e-08 -1.40901719e-07 -1.23867778e-07 1.54426118e-07
      3.30306619e-07 3.46755428e-07 2.57829925e-07 2.63772762e-07
      3.16703989e-07 4.65757807e-07 5.16710713e-07 3.50837752e-07
      1.80876370e-07 4.22218989e-07 4.17116752e-07 1.22115011e-07
      -5.95211418e-08 -1.25211770e-07 -2.38909337e-07 -2.59658805e-07
      -2.75677024e-07 -3.66524631e-07 -4.17593725e-07 -4.67378527e-07
      -5.27034331e-07 -4.50371431e-07 -2.53358593e-07 -1.17711956e-07
      -3.85914092e-08 2.57972147e-07 5.54110045e-07 5.07256573e-07
      5.63404967e-07 7.42074008e-07 7.31499654e-07 3.74535460e-07
      2.82138274e-07 2.99885187e-07 2.49774985e-07 3.23008123e-07
      4.26627793e-07 2.32428008e-07 -1.47790871e-07 -4.60982221e-07
      3.35233693e-07 2.37950118e-07 2.95969642e-07 2.59699306e-07
      2.68521234e-07 2.20166839e-07 1.67358706e-07 2.52640831e-07
      2.63092232e-07 1.17654679e-07 -5.99920469e-08 4.90378724e-08
      3.93763315e-07 5.04038269e-07 4.53500860e-07 3.01817010e-07
      1.25894260e-07 1.84381108e-07 6.10560221e-07 7.03505918e-07
      5.69107442e-07 6.99447696e-07 4.51486073e-07 1.09610800e-08
      -9.37129983e-08 -1.17541930e-07 -3.01096463e-07 -3.39245162e-07
      -3.62771516e-07 -1.33287145e-07 5.44237331e-08 2.24653052e-09
      -2.39587393e-07 -2.37121668e-07 4.18996171e-09 5.89936917e-08
      1.05431731e-07 2.19724882e-07 4.40696141e-07 5.59951957e-07
      6.23214589e-07 7.31745899e-07 7.07917820e-07 4.68165098e-07
      4.30423000e-07 4.56806362e-07 3.17354733e-07 2.54200700e-07
      3.50056325e-07 3.69662956e-07 1.52300018e-07 -8.09280394e-08
      3.10209998e-07 2.55100105e-07 3.23564592e-07 2.97581579e-07
      3.17340607e-07 3.58756466e-07 4.25194941e-07 6.29619137e-07
      6.65626430e-07 4.41832583e-07 2.74472285e-07 1.15735574e-07
      2.15369397e-07 4.70715236e-07 3.31428879e-07 2.51400110e-07
      1.83023118e-07 5.54704727e-08 1.94943553e-07 3.60108885e-07
      5.29308181e-07 7.02969885e-07 3.36102545e-07 -7.94943560e-08
      -4.07354889e-07 -4.38982681e-07 -5.16421210e-07 -5.23389247e-07
      -3.63215662e-07 -8.29118676e-08 8.36039362e-08 7.23622193e-08
      5.38947509e-09 3.29533307e-08 2.82091889e-07 3.72876855e-07
      2.69125707e-07 1.99138270e-07 3.42541881e-07 5.32262220e-07
      6.33109721e-07 6.49408264e-07 6.63506739e-07 5.59945249e-07
      4.82350401e-07 3.28962528e-07 1.30950568e-07 2.83227966e-08
      1.59806490e-07 2.03872375e-07 2.04642589e-07 5.14769347e-08
      -1.85429414e-07 -2.04754343e-07 -8.62611955e-08 6.40227737e-09
      1.98493410e-07 3.07108166e-07 3.58967014e-07 4.58359182e-07
      3.95833581e-07 2.16222674e-07 6.53122783e-08 -8.93180427e-08
      -4.92634022e-08 8.50812754e-08 -7.17907653e-08 1.06063061e-08
      1.59010000e-07 2.33740025e-07 1.38001880e-07 1.58655595e-07
      3.43838195e-07 7.26423764e-07 6.76844024e-07 1.38501534e-07
      -2.25844232e-07 -4.34060127e-07 -5.67903840e-07 -8.10134679e-07
      -7.63602202e-07 -2.83886266e-07 -5.57741870e-08 -2.08141202e-08
      1.13345763e-07 2.52294569e-07 4.60785998e-07 6.09565291e-07
      3.53023438e-07 1.33724143e-08 5.49456622e-08 4.10608237e-07
      5.36274456e-07 3.99510640e-07 4.51841942e-07 4.54889175e-07
      2.44877725e-07 1.12620873e-08 -2.13279250e-07 -2.71943264e-07
      -1.12052817e-07 -8.19326544e-08 -2.92341191e-08 -4.21489332e-09
      -6.76962202e-07 -6.03430863e-07 -4.90843377e-07 -3.53804950e-07
      -9.63714513e-08 1.14995800e-07 2.25402900e-07 1.95746225e-07
      9.58732205e-10 -9.95873179e-08 -1.93840322e-07 -3.41862545e-07
      -2.83795600e-07 3.73163367e-08 -5.46977841e-09 -1.11128628e-07
      -6.37048032e-08 -1.46447654e-08 1.39809615e-07 4.80845834e-08
      -3.71377027e-08 3.54883554e-07 6.31813691e-07 4.73506589e-07
      2.73046084e-07 1.80666603e-07 -8.08046607e-08 -4.79969628e-07
      -6.47498666e-07 -5.16169848e-07 -3.02428617e-07 -1.54771840e-07
      1.46657257e-07 4.29428923e-07 5.88306818e-07 6.63739627e-07
      4.53708793e-07 1.14117960e-07 5.05851148e-08 3.61051775e-07
      3.57948579e-07 1.27349551e-07 6.27768699e-08 1.16064427e-07
      -3.05991712e-08 -2.64240327e-07 -2.94490235e-07 -2.96939703e-07
      -1.94710537e-07 -2.05149803e-07 -1.96947539e-07 -5.31397006e-08
      -9.66172479e-07 -8.19134925e-07 -6.74054775e-07 -5.50363268e-07
      -3.39565020e-07 -1.70500158e-07 -6.19499829e-08 -9.73887779e-08
      -2.74858223e-07 -3.01952468e-07 -4.28986397e-07 -5.81035920e-07
      -5.35408390e-07 -1.60443221e-07 2.58818034e-07 1.27298335e-07
      -2.55497469e-07 -4.10606219e-07 -2.39305109e-07 -1.18332338e-07
      -2.40489612e-07 4.33874412e-08 3.89868234e-07 4.80600704e-07
      5.92447293e-07 6.62536991e-07 5.75681099e-07 1.31516373e-07
      -2.08395889e-07 -2.97283009e-07 -3.16599113e-07 -1.58659006e-07
      1.67597094e-07 5.30729039e-07 5.62327443e-07 4.76462560e-07
      3.98723529e-07 1.54843747e-07 1.10092195e-07 2.37025048e-07
      7.27168015e-08 -1.37043358e-07 -2.16892502e-07 -2.85523640e-07
      -3.57136599e-07 -4.71687315e-07 -2.99253685e-07 -2.50322330e-07
      -2.21938762e-07 -2.79511113e-07 -3.84252417e-07 -1.78327582e-07
      -9.76226602e-07 -8.08049151e-07 -6.09221502e-07 -6.01322540e-07
      -5.10572420e-07 -3.36645087e-07 -2.65059839e-07 -2.69495587e-07
      -4.39783378e-07 -4.14205260e-07 -4.21811791e-07 -6.37537084e-07
      -6.00956014e-07 -2.40877597e-07 2.29581929e-07 2.20515602e-07
      -1.83817789e-07 -2.75311294e-07 -3.43487130e-07 -3.48086417e-07
      -2.02112787e-07 7.60720709e-10 2.34055008e-07 1.94050742e-07
      1.41333601e-07 3.41766736e-07 6.64969036e-07 6.85897078e-07
      3.95251504e-07 1.36364378e-07 7.33447258e-09 1.34757343e-07
      2.67007010e-07 4.63747142e-07 2.46389959e-07 1.42203405e-07
      2.32224679e-07 4.28011333e-08 -1.56687463e-07 -1.18324273e-07
      -2.08200717e-07 -3.14455832e-07 -2.94908148e-07 -4.65385654e-07
      -5.06756692e-07 -6.67928418e-07 -5.32573154e-07 -4.15291169e-07
      -4.02825805e-07 -3.79674844e-07 -5.51154756e-07 -5.84568454e-07
      -1.08053950e-06 -8.13553697e-07 -5.85801331e-07 -4.82597045e-07
      -4.19737773e-07 -1.90032665e-07 -1.11928763e-07 -4.50976216e-08
      -2.50887211e-07 -3.44757694e-07 -2.74263272e-07 -4.87470459e-07
      -7.16330078e-07 -5.06935919e-07 -2.00016657e-07 3.38611237e-08
      2.08395736e-08 -3.24718918e-08 -3.20493228e-07 -6.46302624e-07
      -4.36011675e-07 -1.16064051e-07 3.60706629e-08 -6.27005932e-08
      -1.89510587e-07 -1.28321062e-07 5.83691282e-08 4.38114313e-07
      6.85480870e-07 4.25666769e-07 3.36254914e-07 2.91196500e-07
      2.51278948e-07 3.01549107e-07 1.40376471e-07 3.95492954e-08
      1.93973761e-08 -1.58709639e-07 -4.61108868e-07 -3.35209819e-07
      -1.43404534e-07 -1.79077091e-07 -1.37057057e-07 -2.28481369e-07
      -3.16390981e-07 -6.28362955e-07 -7.33295792e-07 -6.42276120e-07
      -7.26624478e-07 -8.20218872e-07 -1.13420788e-06 -1.11508393e-06
      -1.35229902e-06 -1.08021061e-06 -7.98106782e-07 -6.06021160e-07
      -3.67635266e-07 -2.32695232e-08 1.64334679e-07 3.24091189e-07
      2.03651126e-07 6.24223091e-08 1.00902966e-07 1.53575748e-08
      -1.43389386e-07 -2.74216006e-07 -2.16197051e-07 -1.14750698e-07
      4.32931770e-08 2.70332094e-07 1.43639980e-07 -3.52773270e-07
      -4.70512191e-07 -1.89030317e-07 -1.30995033e-07 -3.59242136e-07
      -4.18476304e-07 -2.80577751e-07 -1.66739795e-07 3.12396793e-08
      4.42839337e-07 4.89210663e-07 3.61239046e-07 2.54642288e-07
      2.32858284e-07 4.71610804e-07 4.17436155e-07 2.47865160e-07
      1.27328533e-07 -1.86460895e-07 -6.21100696e-07 -5.68127689e-07
      -2.99768601e-07 1.88996943e-08 1.16452391e-07 1.53982327e-07
      6.20747898e-08 -2.95641996e-07 -6.38995971e-07 -8.03190858e-07
      -1.04132425e-06 -1.35930964e-06 -1.78960215e-06 -1.84598639e-06
      -1.55074724e-06 -1.29661078e-06 -1.00864418e-06 -7.99307315e-07
      -4.58219063e-07 -8.06135034e-08 3.26904228e-07 6.66510289e-07
      5.58785473e-07 3.92217771e-07 3.36109963e-07 3.40781355e-07
      4.25257355e-07 3.35749121e-07 9.07786344e-08 -3.98927646e-08
      5.75942813e-08 2.36699208e-07 3.80143263e-07 5.00841395e-08
      -1.45427265e-07 -9.98539633e-08 -2.43431117e-07 -5.37775406e-07
      -6.21593983e-07 -4.65935557e-07 -3.56108274e-07 -2.94513001e-07
      4.27360725e-08 2.03037331e-07 1.84438136e-07 1.38183381e-07
      2.41244891e-07 6.32488820e-07 6.94548476e-07 5.10089194e-07
      3.11562587e-07 7.28813987e-08 -4.34536275e-07 -4.96229575e-07
      -3.07772240e-07 -8.48231352e-08 2.98363830e-07 5.78843924e-07
      4.00957020e-07 8.38904768e-08 -3.26002464e-07 -7.32069509e-07
      -1.10169970e-06 -1.60394018e-06 -2.10907774e-06 -2.32020443e-06
      -1.61034302e-06 -1.37668906e-06 -1.09617770e-06 -8.34860145e-07
      -4.20141390e-07 -1.56159118e-07 2.20254577e-07 7.05700586e-07
      6.39087204e-07 4.36798956e-07 3.83452090e-07 4.10548154e-07
      5.18933689e-07 6.19966556e-07 4.77781384e-07 1.74725201e-07
      3.45867726e-08 1.43100934e-07 3.45760583e-07 1.71592191e-07
      1.15369239e-07 1.23826695e-07 -1.54156282e-07 -5.34916865e-07
      -7.55505425e-07 -6.93474078e-07 -4.61388339e-07 -2.81370916e-07
      -1.43482140e-07 -7.98771609e-08 3.90705672e-08 1.04439721e-07
      1.50548857e-07 5.25320047e-07 6.99281713e-07 6.52171536e-07
      4.44588892e-07 1.28569198e-07 -3.55843866e-07 -4.24461888e-07
      -2.51964877e-07 -1.39187941e-08 4.56724422e-07 7.99486486e-07
      6.87759382e-07 4.00105847e-07 3.74031117e-08 -4.97823578e-07
      -9.59735871e-07 -1.51308052e-06 -2.09504537e-06 -2.44370835e-06
      -2.85080546e-07 -1.53835288e-07 -8.81053897e-09 3.67874371e-08
      -7.76790543e-08 -2.68829012e-07 -3.95311702e-07 -3.16896347e-07
      -3.50302514e-07 -4.81116558e-07 -4.48391347e-07 -2.49535958e-07
      -2.34919213e-07 -2.11984258e-07 -9.67820810e-08 -2.32047526e-07
      -3.07510845e-07 -2.18347196e-07 -5.79602428e-08 1.74423477e-07
      1.19109515e-07 -1.19289197e-07 -2.35606819e-07 -2.55667771e-07
      -2.48345430e-07 -3.20468047e-07 -2.96891869e-07 -2.44913707e-07
      -3.28308545e-07 -4.73335973e-07 -4.99648024e-07 -2.83539038e-07
      -7.83069325e-08 -4.40475851e-08 -1.65051574e-07 -2.43745376e-07
      -1.09418522e-07 1.58827973e-07 1.74862976e-07 -1.48158685e-08
      -1.80672856e-07 -2.04462523e-07 -1.69510770e-07 -1.31160377e-07
      -5.13646405e-08 2.17627331e-07 3.77396134e-07 2.10487514e-07
      4.52296582e-08 3.82573475e-08 -2.33299637e-08 -3.51771519e-08
      -1.74049816e-07 -2.38667639e-07 -1.08988537e-07 4.96014927e-08
      5.29529558e-08 -3.37477850e-08 -2.37358989e-07 -3.51320608e-07
      -2.43339969e-07 -3.13490091e-07 -4.28123343e-07 -2.75994040e-07
      -1.13371499e-07 -2.16602459e-07 -1.71954312e-07 -5.20062038e-08
      -1.95361110e-07 -2.25446101e-07 -1.17556546e-07 -5.49219408e-08
      8.49071640e-08 -2.47624605e-08 -1.94404080e-07 -2.81808980e-07
      -2.73891544e-07 -2.54385213e-07 -2.81033095e-07 -3.46324555e-07
      -3.58715198e-07 -3.86824524e-07 -4.88552132e-07 -4.83075382e-07
      -1.98849307e-07 -9.18611391e-08 -8.68322019e-08 -2.26544316e-07
      -3.23839515e-07 -1.07496383e-07 1.87028405e-07 1.81091323e-07
      1.51014650e-08 -1.85307258e-07 -2.16195446e-07 -2.57571230e-07
      -3.45824105e-07 -2.17311396e-07 1.44492049e-07 9.74194236e-08
      -1.36486435e-07 -2.18897199e-07 -1.00155013e-07 -6.41722551e-08
      -2.24786927e-08 -1.48730365e-07 -1.57640841e-07 1.54005644e-08
      1.16694295e-07 4.99134174e-08 -3.85175412e-08 -1.51950118e-07
      -1.34236728e-07 -1.00275095e-07 -1.95928308e-07 -2.68441852e-07
      -3.36415695e-08 7.51588736e-10 -1.26644551e-07 -7.54413279e-08
      -9.42848999e-08 -2.37541030e-07 -1.85773757e-07 -9.70636265e-08
      -8.50844586e-08 2.49942715e-08 -5.64852307e-08 -1.87192043e-07
      -2.34914353e-07 -2.55918707e-07 -2.23488996e-07 -2.87338480e-07
      -4.39232508e-07 -4.19429284e-07 -3.56676992e-07 -4.35109115e-07
      -4.46731576e-07 -2.75511155e-07 -1.66216907e-07 -1.07614817e-07
      -2.73773253e-07 -3.12051810e-07 -9.76767396e-08 2.01089264e-07
      2.07967474e-07 5.41838618e-09 -1.01322783e-07 -2.18730932e-07
      -3.89094510e-07 -4.58234780e-07 -2.66742120e-07 -1.68249290e-08
      -2.79304118e-07 -4.60442351e-07 -4.55862477e-07 -1.94682542e-07
      -1.56414245e-07 -2.04375379e-08 -1.03199554e-07 -1.20817759e-07
      8.95360230e-08 1.87675028e-07 1.00902419e-07 -3.09428643e-08
      -9.65262430e-08 2.19258620e-08 2.75168137e-08 -7.53324017e-08
      -9.12387819e-08 1.26929748e-07 1.22932633e-07 -4.89527991e-08
      -8.69211902e-08 -1.39058216e-07 -2.87683662e-07 -2.18594863e-07
      -1.41556896e-07 -1.13147912e-07 8.71638672e-09 -1.36038230e-08
      -8.24224955e-08 -1.42489966e-07 -1.96844695e-07 -2.18320849e-07
      -3.80292192e-07 -4.98108648e-07 -3.90945502e-07 -2.82945450e-07
      -3.83879097e-07 -4.62082085e-07 -3.29911160e-07 -1.81036398e-07
      -1.27888185e-07 -2.88884308e-07 -2.97545029e-07 -5.96610334e-08
      2.22319244e-07 2.08098797e-07 7.32686516e-08 -4.61532537e-08
      -1.82018056e-07 -3.95886929e-07 -3.86932072e-07 -1.82118484e-07
      -2.74360644e-07 -6.13119028e-07 -7.06053413e-07 -6.39199243e-07
      -5.32552860e-07 -1.95342565e-07 -1.92688656e-08 -9.97223637e-08
      -6.52508518e-08 1.30299952e-07 2.29568997e-07 1.76924104e-07
      7.66819763e-09 3.25383418e-08 1.28321588e-07 1.34690353e-07
      2.14794387e-08 8.87712233e-08 2.50605211e-07 1.91115021e-07
      4.47960469e-09 -2.13086349e-08 -1.59265312e-07 -3.40503135e-07
      -3.13904195e-07 -2.65050659e-07 -1.57033568e-07 -2.45939198e-08
      4.11435224e-08 3.38058541e-08 -7.60449552e-08 -1.59014604e-07
      -2.47278052e-07 -4.18314670e-07 -4.41036434e-07 -2.77395799e-07
      -1.54647907e-07 -3.65758467e-07 -4.47947684e-07 -2.73703193e-07
      -1.20914862e-07 -1.59513078e-07 -2.62562565e-07 -2.18866774e-07
      1.48286068e-08 2.32339332e-07 2.20130445e-07 1.44852066e-07
      1.22482447e-07 -5.75376582e-08 -1.57996340e-07 -1.60871636e-07
      -1.84560079e-07 -4.37144990e-07 -7.36786319e-07 -8.26698852e-07
      -6.95019025e-07 -5.68556857e-07 -2.27387616e-07 -1.15184999e-08
      -4.71826525e-08 -1.11632996e-08 1.15194865e-07 2.05112840e-07
      1.52799629e-07 8.12287340e-08 1.12610891e-07 2.51505867e-07
      2.19478181e-07 1.43576457e-07 2.62832231e-07 3.60171896e-07
      2.63378496e-07 1.30345526e-07 9.51305026e-08 -1.58482507e-07
      -3.44543992e-07 -4.09846081e-07 -3.64425716e-07 -1.89360890e-07
      -9.10673492e-08 2.39274236e-08 6.69248408e-08 4.61409613e-08
      -7.32896126e-08 -2.18237702e-07 -2.93749622e-07 -2.68109517e-07
      -1.16510463e-07 -1.44805782e-07 -3.25873202e-07 -3.81698811e-07
      -1.85660994e-07 -1.00448922e-07 -1.73095003e-07 -1.99488099e-07
      -8.04505973e-08 9.41836689e-08 2.35823336e-07 2.35431742e-07
      3.51165312e-07 3.58201788e-07 2.44059748e-07 1.59122649e-07
      -1.95863983e-08 -2.04669035e-07 -4.94606525e-07 -7.55262988e-07
      -2.41713678e-07 -6.86829253e-07 -5.91514151e-07 -2.42235558e-07
      -4.10361132e-08 -7.12713302e-08 -3.36908919e-08 8.36821599e-08
      1.68284629e-07 1.16945486e-07 1.11476020e-07 1.95535947e-07
      3.43798376e-07 2.80776931e-07 3.16411331e-07 5.52437086e-07
      5.23977747e-07 3.56654624e-07 2.60518931e-07 8.74407178e-08
      -1.29984130e-07 -2.96765023e-07 -3.76327819e-07 -3.26808106e-07
      -2.18175899e-07 -1.48428583e-07 3.00258733e-08 1.54143549e-07
      9.94982017e-08 -2.49346801e-08 -9.67953753e-08 -5.84002748e-08
      -3.11516715e-08 -7.85518210e-08 -1.35833091e-07 -2.99265565e-07
      -2.63579977e-07 -6.13359816e-08 -7.17181479e-08 -9.58320499e-08
      1.01768789e-08 8.42078833e-08 1.89879614e-07 2.74707645e-07
      3.89135522e-07 5.40520830e-07 5.82573023e-07 4.71876120e-07
      2.24190671e-07 6.26878816e-08 -1.53946488e-07 -4.61510155e-07
      2.19180762e-07 -1.84060994e-07 -5.61228092e-07 -5.72348426e-07
      -3.09771849e-07 -1.84385229e-07 -1.74683038e-07 -6.08302244e-08
      1.62122902e-07 1.34054801e-07 8.42233234e-08 9.46215479e-08
      3.38210953e-07 4.93156563e-07 5.20397293e-07 7.04711113e-07
      8.20477510e-07 6.15186309e-07 4.09970710e-07 2.35187244e-07
      4.78266600e-08 -8.66420624e-09 -1.87405007e-07 -3.29109213e-07
      -3.46078764e-07 -2.92815997e-07 -1.71218218e-07 8.21614847e-08
      1.86308895e-07 1.20598344e-07 1.77472579e-08 4.87019349e-08
      1.40647018e-07 1.16229657e-07 8.26831315e-09 -1.05982501e-07
      -1.85099211e-07 -9.12395350e-08 2.40203857e-08 1.38547280e-08
      5.83098014e-08 1.13125118e-07 2.07611578e-07 3.19517426e-07
      4.72382311e-07 6.01068052e-07 7.18649517e-07 7.72265764e-07
      4.78280072e-07 2.12191352e-07 1.16222857e-07 -1.13335751e-07
      1.80031520e-07 1.70958259e-07 -2.11124117e-07 -6.21470065e-07
      -6.39169684e-07 -4.28895419e-07 -3.95042235e-07 -3.17482574e-07
      -1.25103963e-08 2.22707087e-07 1.91986572e-07 1.41315326e-07
      2.38399153e-07 5.20468859e-07 7.23064943e-07 8.96425718e-07
      1.07503456e-06 9.68635732e-07 6.04521176e-07 3.55330599e-07
      1.82436168e-07 7.21887048e-08 8.01650160e-08 -1.12883761e-07
