<?xml version="1.0"?>
<opencv_storage>
<my_svm type_id="opencv-ml-svm">
  <svm_type>C_SVC</svm_type>
  <kernel><type>LINEAR</type></kernel>
  <C>1.</C>
  <term_criteria><epsilon>2.2204460492503131e-16</epsilon>
    <iterations>1000000</iterations></term_criteria>
  <var_all>108160</var_all>
  <var_count>108160</var_count>
  <class_count>2</class_count>
  <class_labels type_id="opencv-matrix">
    <rows>1</rows>
    <cols>2</cols>
    <dt>i</dt>
    <data>
      0 1</data></class_labels>
  <sv_total>1</sv_total>
  <support_vectors>
    <_>
      -6.20543233e-07 -6.08256641e-07 -5.04854540e-07 -2.66855807e-07
      -8.44513437e-08 -1.99667880e-07 -4.81980749e-07 -8.86953387e-07
      -1.24109204e-06 -1.44432420e-06 -1.50885478e-06 -1.56642761e-06
      -1.54317809e-06 -1.38944802e-06 -1.11680026e-06 -6.35928529e-07
      -1.39136191e-07 4.62090270e-07 9.22360925e-07 8.62189154e-07
      7.45639340e-07 6.26259862e-07 5.02710748e-07 4.09788839e-07
      3.70286813e-07 2.89741337e-07 1.75459803e-07 8.84907365e-08
      3.64491335e-08 2.43057858e-08 4.33510969e-08 6.61501005e-08
      1.12917341e-07 1.99622875e-07 3.18222675e-07 3.91470394e-07
      5.84230634e-07 8.89309376e-07 1.22693905e-06 1.39406518e-06
      1.46046148e-06 1.40165776e-06 1.29308614e-06 1.34972515e-06
      1.50107189e-06 1.72050113e-06 1.82445626e-06 1.87687988e-06
      1.76601225e-06 1.49252844e-06 1.33379172e-06 1.27816679e-06
      -2.38828420e-07 -2.17780894e-07 -1.64378292e-07 -1.05312438e-07
      -9.77991164e-08 -1.71097071e-07 -4.20541028e-07 -6.66007395e-07
      -8.54634152e-07 -9.59214731e-07 -9.72912972e-07 -9.16228942e-07
      -9.31245268e-07 -9.28335453e-07 -9.13541840e-07 -8.59398142e-07
      -6.63646176e-07 -4.44760985e-07 -2.04265135e-07 -3.53758978e-09
      8.36327629e-08 6.27769126e-08 -4.68287276e-09 -9.77474102e-08
      -1.96314829e-07 -2.97729997e-07 -3.68672914e-07 -4.32670220e-07
      -4.63292253e-07 -4.60786652e-07 -4.31715847e-07 -3.70985447e-07
      -3.22314463e-07 -3.19145613e-07 -2.92787576e-07 -2.32371548e-07
      -1.28203297e-07 -1.92803018e-08 1.25652306e-07 1.93273721e-07
      1.25585217e-07 4.30548255e-08 1.96527488e-08 9.11268145e-08
      2.08994294e-07 3.62413374e-07 5.50421873e-07 7.69760447e-07
      9.65930894e-07 9.72479370e-07 8.52588073e-07 8.05620402e-07
      1.52907162e-08 -3.42251276e-08 -1.66032393e-07 -3.43166363e-07
      -4.70099451e-07 -5.32949116e-07 -5.64233289e-07 -5.48353910e-07
      -5.01420175e-07 -4.14616579e-07 -3.15550324e-07 -2.41935453e-07
      -2.31031606e-07 -2.83583120e-07 -3.96779882e-07 -5.21278082e-07
      -6.78100207e-07 -8.51953303e-07 -8.43421617e-07 -6.77636820e-07
      -4.46906085e-07 -2.64628000e-07 -2.10798362e-07 -2.85051669e-07
      -4.09437035e-07 -5.08298399e-07 -5.61813181e-07 -5.86379258e-07
      -5.80231244e-07 -5.76959678e-07 -6.04323702e-07 -6.43496946e-07
      -6.99256304e-07 -7.64868730e-07 -8.50247716e-07 -9.25286372e-07
      -9.52606229e-07 -1.01835303e-06 -1.13654426e-06 -1.30180536e-06
      -1.49861467e-06 -1.68417591e-06 -1.81463292e-06 -1.83339512e-06
      -1.76099911e-06 -1.59199681e-06 -1.33546132e-06 -1.03244281e-06
      -7.71291013e-07 -6.06289632e-07 -5.31107730e-07 -5.15802071e-07
      7.85574130e-08 2.04003570e-08 -1.80252513e-07 -4.16238038e-07
      -4.89082481e-07 -2.81173470e-07 -6.74561136e-08 1.43791340e-07
      2.79104142e-07 3.79002927e-07 4.52463297e-07 4.49918957e-07
      3.34765645e-07 1.45831279e-07 -1.02307077e-07 -3.52786742e-07
      -4.13906207e-07 -3.96715535e-07 -3.60908558e-07 -2.46651325e-07
      -8.29485032e-08 8.51965538e-08 1.78581047e-07 1.98883328e-07
      1.58813464e-07 7.53164642e-08 -4.34188081e-08 -1.31591889e-07
      -1.86519031e-07 -2.28879202e-07 -2.70295317e-07 -2.94736964e-07
      -3.28524493e-07 -4.54391028e-07 -6.88208331e-07 -8.60125965e-07
      -9.75000148e-07 -1.13507701e-06 -1.32462537e-06 -1.49973494e-06
      -1.66771065e-06 -1.80421898e-06 -1.88496699e-06 -1.88210799e-06
      -1.83687564e-06 -1.76078936e-06 -1.63329616e-06 -1.50105018e-06
      -1.42651606e-06 -1.39787642e-06 -1.38741291e-06 -1.38790506e-06
      1.07976007e-06 1.09603695e-06 1.09934911e-06 8.88695752e-07
      8.21064361e-07 7.64471963e-07 6.64319145e-07 6.20083938e-07
      5.42818327e-07 5.04005982e-07 4.75533852e-07 3.95579463e-07
      2.66689426e-07 1.40747730e-07 5.16845517e-08 2.33753124e-08
      8.34675475e-08 2.66421864e-07 4.29161645e-07 4.41807259e-07
      2.88906676e-07 1.33494623e-07 2.25638832e-08 -6.45737401e-08
      -1.18214977e-07 -1.47569921e-07 -1.65042309e-07 -1.69048093e-07
      -1.51091626e-07 -7.85238043e-08 5.62078810e-08 2.02261575e-07
      2.65279880e-07 1.94283473e-07 3.20388338e-08 -1.47555909e-07
      -3.30843079e-07 -4.97857343e-07 -6.55754036e-07 -7.95277913e-07
      -9.02736588e-07 -9.78309117e-07 -1.00300565e-06 -9.61867499e-07
      -8.14897533e-07 -6.01123531e-07 -3.26248852e-07 -1.09510033e-07
      -3.65833408e-08 -9.76158088e-09 6.48479603e-10 6.85683377e-09
      2.05624042e-06 1.98040129e-06 1.71530894e-06 1.27400074e-06
      8.83729911e-07 5.24079439e-07 2.49927240e-07 4.76430557e-08
      -1.46366162e-07 -3.01938343e-07 -4.00364655e-07 -4.60332018e-07
      -4.50890752e-07 -3.75198596e-07 -2.23444914e-07 -7.53369633e-09
      2.30884410e-07 4.70973276e-07 6.59932425e-07 4.61379301e-07
      8.94464414e-09 -3.12529977e-07 -4.63274745e-07 -4.67555054e-07
      -3.74343102e-07 -2.11941369e-07 -1.41843453e-08 1.70397115e-07
      3.06858425e-07 3.80272013e-07 3.93393549e-07 3.55523611e-07
      3.19391404e-07 2.68471894e-07 2.44984989e-07 1.86320690e-07
      -5.59049091e-08 -2.31839550e-07 -3.64950182e-07 -5.00524322e-07
      -6.39456857e-07 -7.71063526e-07 -7.94823052e-07 -6.78883168e-07
      -3.97817132e-07 1.67984560e-09 5.17178137e-07 1.03340869e-06
      1.38472433e-06 1.52182690e-06 1.55471355e-06 1.56327246e-06
      1.58302805e-06 1.51177630e-06 1.28087720e-06 9.21369008e-07
      6.11096823e-07 3.25705713e-07 -9.12594977e-09 -3.24087154e-07
      -6.06136439e-07 -8.42427880e-07 -9.88613351e-07 -1.02316324e-06
      -9.26977805e-07 -7.42536884e-07 -4.73933568e-07 -1.57608483e-07
      1.34403592e-07 3.58170070e-07 4.81961081e-07 4.14094586e-07
      7.87188270e-08 -1.92304512e-07 -3.98826899e-07 -4.89151489e-07
      -4.74158810e-07 -3.77832521e-07 -2.36751703e-07 -1.00710217e-07
      1.72975518e-08 8.40687591e-08 7.67005872e-08 -1.93697041e-08
      -1.82232114e-07 -3.70890461e-07 -4.63279775e-07 -4.26537923e-07
      -3.04827893e-07 -2.47735528e-07 -3.70933122e-07 -6.25363839e-07
      -9.19820138e-07 -1.20747620e-06 -1.39425492e-06 -1.41819964e-06
      -1.23323298e-06 -8.50212245e-07 -2.46622932e-07 5.24213647e-07
      1.30437672e-06 1.90590083e-06 2.11168094e-06 2.16409740e-06
      1.09123596e-06 1.06016785e-06 9.85586553e-07 8.80785194e-07
      7.38775157e-07 5.90554805e-07 3.32096022e-07 9.48411625e-08
      -1.38603539e-07 -5.20804804e-07 -7.97904988e-07 -9.19449292e-07
      -9.13123586e-07 -8.12424503e-07 -5.98444956e-07 -3.30207314e-07
      -8.09669487e-08 1.64344840e-07 3.40340449e-07 3.68591913e-07
      2.92934999e-07 1.16177631e-07 -7.49727533e-08 -2.49287126e-07
      -3.98786625e-07 -4.90441437e-07 -4.99838393e-07 -4.43441081e-07
      -3.20275689e-07 -1.50966585e-07 2.01368895e-08 1.64574189e-07
      2.49319299e-07 6.87195083e-08 -1.40621852e-08 2.31047679e-08
      1.04775417e-07 2.22757365e-07 2.71871784e-07 6.36930935e-08
      -3.16523852e-07 -7.46348007e-07 -1.10440521e-06 -1.32230184e-06
      -1.35128607e-06 -1.17373338e-06 -7.31000284e-07 -3.74007492e-08
      6.75640138e-07 1.17990555e-06 1.49493246e-06 1.60789364e-06
      9.35309856e-07 9.29002340e-07 9.50967831e-07 9.85110887e-07
      7.13234101e-07 4.82459939e-07 2.13887560e-07 -1.41016343e-07
      -4.17659948e-07 -5.66043980e-07 -5.39762425e-07 -3.33442188e-07
      -2.07307593e-08 3.08746962e-07 5.06843719e-07 4.62045648e-07
      3.81324895e-07 2.89704104e-07 2.35606834e-07 1.34094336e-07
      2.37921096e-08 -3.86788628e-08 -5.77679309e-08 -8.99080348e-08
      -1.24921314e-07 -1.74338538e-07 -2.04483442e-07 -1.92639575e-07
      -1.21236582e-07 2.14358309e-09 1.50800119e-07 2.75266927e-07
      3.54262994e-07 4.15052398e-07 5.34332003e-07 6.28439409e-07
      8.19317677e-07 9.38934988e-07 7.91178934e-07 3.58923188e-07
      -1.99344171e-07 -6.52818585e-07 -9.79898800e-07 -1.11490613e-06
      -1.03833361e-06 -8.10248878e-07 -4.08638357e-07 1.14000358e-07
      6.08761752e-07 9.45606757e-07 1.12516466e-06 1.19012429e-06
      1.14575232e-06 1.11642419e-06 9.86825285e-07 7.79514892e-07
      5.50369293e-07 4.09785343e-07 4.33932257e-07 5.35010543e-07
      4.72302190e-07 3.98462134e-07 4.53592747e-07 6.44776094e-07
      8.92242952e-07 1.10615906e-06 1.21715675e-06 1.03844980e-06
      7.15295187e-07 3.87821416e-07 2.24619257e-07 1.47970411e-07
      1.04082211e-07 6.81426044e-08 1.15895908e-07 1.99787848e-07
      2.92735393e-07 3.39248402e-07 3.39065252e-07 3.23543418e-07
      2.97181998e-07 2.60455579e-07 2.29680381e-07 1.66442675e-07
      1.00144035e-07 9.61173328e-08 1.40938994e-07 2.13901629e-07
      3.09055565e-07 2.44544736e-07 -6.96476192e-08 -5.56718248e-07
      -1.03448792e-06 -1.39493375e-06 -1.55195153e-06 -1.52117934e-06
      -1.32800074e-06 -1.00071668e-06 -6.11672021e-07 -2.74941470e-07
      -4.38815988e-08 1.53388200e-07 2.89194446e-07 3.18856962e-07
      6.96521624e-07 6.70500583e-07 5.81387837e-07 4.44496379e-07
      2.80065194e-07 9.68534621e-08 -1.34612804e-07 -3.79961818e-07
      -5.13665611e-07 -5.40640542e-07 -4.74446665e-07 -3.28370305e-07
      -1.68062414e-07 -7.64215642e-08 -1.05706327e-07 -1.69866155e-07
      -2.89090053e-07 -4.37653142e-07 -4.80957226e-07 -4.14281772e-07
      -2.42242351e-07 -6.22734078e-08 9.48020329e-08 2.05016875e-07
      2.31326808e-07 2.44823724e-07 2.55000828e-07 2.51833626e-07
      2.10153061e-07 1.31373213e-07 3.01161163e-09 -1.62302797e-07
      -3.13474629e-07 -3.72864321e-07 -4.05425396e-07 -4.13210074e-07
      -4.32031442e-07 -5.06612253e-07 -6.32598983e-07 -7.68193672e-07
      -8.95396681e-07 -9.93338858e-07 -9.91237584e-07 -7.57961516e-07
      -4.48516914e-07 -7.01426615e-08 2.86949046e-07 4.75963787e-07
      4.65650629e-07 3.76095244e-07 3.05634330e-07 2.76673688e-07
      -4.33509975e-08 -8.36488923e-08 -1.16917647e-07 -1.28951953e-07
      -2.12900304e-07 -2.84253900e-07 -3.15068235e-07 -2.07364607e-07
      -1.56967790e-08 1.73454950e-07 3.66425468e-07 4.96278801e-07
      5.37593451e-07 4.70031011e-07 2.80577325e-07 -9.39624023e-09
      -2.91633313e-07 -4.57181017e-07 -5.64386085e-07 -5.93278742e-07
      -5.35831475e-07 -3.86271580e-07 -2.20845195e-07 -7.28836724e-08
      1.79792448e-11 2.77727352e-08 5.93284533e-08 1.11756165e-07
      1.57082965e-07 1.82059154e-07 1.51299915e-07 4.10593799e-08
      -1.76138087e-07 -4.06616465e-07 -5.35402989e-07 -4.71551687e-07
      -2.92006888e-07 -6.50509833e-08 4.48403696e-08 -1.42250247e-08
      -1.26435381e-07 -2.19869477e-07 -2.48583632e-07 -2.03382371e-07
      -4.86542291e-08 2.85642898e-07 6.40299049e-07 8.84655037e-07
      1.02352897e-06 1.06432844e-06 1.04712092e-06 1.04330252e-06
      -7.16614110e-08 -7.39121404e-08 -2.88455944e-08 -4.04257472e-09
      3.30781695e-08 3.58759308e-07 6.96325287e-07 8.09686924e-07
      7.74841567e-07 6.44280078e-07 5.82851669e-07 5.92504307e-07
      7.09521714e-07 7.45529235e-07 6.34737603e-07 4.13030705e-07
      1.73196199e-07 -1.14347159e-07 -2.87634293e-07 -2.87051222e-07
      -2.10629636e-07 -7.64316255e-08 9.14691896e-08 3.31922010e-08
      7.67729915e-08 1.42791933e-07 1.76290982e-07 2.43976871e-07
      3.41236500e-07 4.11956393e-07 4.01373001e-07 3.36717420e-07
      2.91148638e-07 1.39136731e-07 5.19257561e-08 1.39278207e-08
      -2.24000640e-08 4.02670324e-08 1.29219487e-07 1.55363722e-07
      5.19569276e-08 -9.59497655e-08 -2.63878917e-07 -4.05016436e-07
      -4.49916030e-07 -2.79027034e-07 -2.09777653e-08 2.64134002e-07
      5.87022271e-07 7.96484812e-07 9.34866193e-07 9.88824468e-07
      4.57525658e-07 4.62229423e-07 4.44452922e-07 3.48194760e-07
      3.06013681e-09 -1.55495599e-07 -1.94211168e-07 -2.72132041e-07
      -2.19061036e-07 -1.00752516e-07 -3.17914903e-08 -1.96345315e-10
      4.91319163e-08 6.28883114e-08 8.42587440e-08 1.39291132e-07
      1.87045529e-07 1.36427559e-07 6.14553599e-08 -1.41981946e-08
      -5.67560150e-08 -8.06433604e-08 3.45999673e-09 3.16696145e-08
      1.25691058e-08 1.60081974e-08 5.89072577e-08 1.08265674e-07
      1.70274149e-07 2.08863767e-07 1.92484833e-07 1.55098135e-07
      2.61406683e-08 -1.49809892e-07 -2.55150781e-07 -2.84191628e-07
      -2.38166422e-07 -1.17008931e-07 5.95120255e-08 2.15084469e-07
      2.43049016e-07 2.38878528e-07 2.42476631e-07 1.61595793e-07
      2.53029828e-08 1.76452950e-08 5.05077047e-08 1.06021297e-07
      1.80473648e-07 2.93923136e-07 4.58907977e-07 5.63171966e-07
      5.52987046e-07 4.86875422e-07 3.18302057e-07 5.61700588e-08
      -2.27339484e-07 -5.35468132e-07 -7.46703506e-07 -7.87832846e-07
      -6.34777166e-07 -4.26911129e-07 -2.95920472e-07 -1.69257476e-07
      -5.45539436e-08 4.35981420e-08 1.89131796e-07 3.01529695e-07
      4.10891005e-07 4.38770854e-07 3.64052369e-07 1.63637480e-07
      -3.01518455e-08 -2.19440537e-07 -3.71592733e-07 -3.85609212e-07
      -3.67369410e-07 -3.94765266e-07 -3.51018571e-07 -3.29263628e-07
      -3.68685335e-07 -4.25834202e-07 -4.46477884e-07 -4.83854933e-07
      -5.58637453e-07 -5.21951108e-07 -3.60431784e-07 -2.06964984e-07
      -6.16842755e-09 2.06592631e-07 4.41918843e-07 6.72599526e-07
      8.87761701e-07 1.07276514e-06 1.17335469e-06 1.24835742e-06
      1.26930058e-06 1.14920681e-06 7.48851846e-07 2.96215944e-07
      -1.24497788e-07 -3.36700538e-07 -3.89220531e-07 -3.72880976e-07
      4.41603163e-07 4.43763810e-07 4.41514089e-07 3.74081594e-07
      3.51004672e-07 3.36478820e-07 2.89686767e-07 3.78498441e-07
      4.80482981e-07 5.05436162e-07 5.57406906e-07 6.21002869e-07
      6.59491263e-07 7.18419301e-07 7.04964634e-07 5.33409093e-07
      4.11366585e-07 2.76982092e-07 1.78786586e-08 -2.98807095e-07
      -6.04770605e-07 -7.70568363e-07 -7.45092450e-07 -6.43900250e-07
      -5.43309227e-07 -4.78996924e-07 -4.35458361e-07 -4.09321302e-07
      -4.09605718e-07 -3.87076028e-07 -3.84360220e-07 -4.64461692e-07
      -5.68124108e-07 -6.36032951e-07 -6.55920473e-07 -6.59080968e-07
      -5.76026025e-07 -2.55004466e-07 9.26731900e-08 2.55213195e-07
      3.56909538e-07 4.83652684e-07 6.95971949e-07 9.03866010e-07
      1.00005718e-06 8.85286909e-07 6.01575266e-07 2.26772642e-07
      1.09048504e-08 6.12223516e-08 1.55868236e-07 1.83405035e-07
      8.95270205e-07 9.41008352e-07 1.03473940e-06 1.17061541e-06
      1.33753235e-06 1.33609342e-06 1.04665833e-06 7.26431495e-07
      3.98148131e-07 1.32754948e-07 -7.31790450e-08 -2.36709255e-07
      -3.89289255e-07 -5.34669653e-07 -6.97029293e-07 -8.47699027e-07
      -9.38937262e-07 -9.46678711e-07 -9.04343494e-07 -7.71723649e-07
      -6.06405195e-07 -4.30719354e-07 -3.17261879e-07 -2.55045848e-07
      -2.08444547e-07 -1.43148313e-07 -1.41432579e-07 -1.59051822e-07
      -1.41315695e-07 -8.93435228e-08 -5.43364180e-08 -4.48740991e-08
      -1.40726399e-07 -3.96396871e-07 -6.87902173e-07 -9.29836858e-07
      -1.07979577e-06 -1.04895241e-06 -9.67452934e-07 -9.28879160e-07
      -8.72209796e-07 -8.13957683e-07 -6.91099103e-07 -4.67711118e-07
      -2.46854427e-07 -7.63948975e-08 2.13542450e-07 6.61914385e-07
      1.08811173e-06 1.50399069e-06 1.79347876e-06 1.88690558e-06
      1.25572683e-06 1.26912380e-06 1.28817112e-06 1.34201196e-06
      1.37878919e-06 1.29242335e-06 9.10258677e-07 3.66652046e-07
      -2.15391978e-07 -7.58361750e-07 -1.15873127e-06 -1.40514828e-06
      -1.51162340e-06 -1.47456876e-06 -1.30380806e-06 -1.21243920e-06
      -9.34103412e-07 -4.35623605e-07 5.71269680e-08 4.62577873e-07
      6.89374474e-07 6.18598506e-07 4.07253168e-07 2.02370160e-07
      5.46703518e-08 -4.86514331e-08 -1.47530685e-07 -2.34637170e-07
      -2.81111113e-07 -3.49639379e-07 -4.20013833e-07 -4.38085209e-07
      -4.25151825e-07 -4.22743994e-07 -4.44831784e-07 -4.41364222e-07
      -4.63869526e-07 -6.47988998e-07 -8.13647091e-07 -9.50888307e-07
      -1.07314452e-06 -1.11990369e-06 -1.01928515e-06 -7.27130896e-07
      -2.86999125e-07 2.02663784e-07 7.27602071e-07 1.23778568e-06
      1.67161204e-06 1.96846645e-06 2.13746853e-06 2.19428898e-06
      7.41630856e-07 7.43450130e-07 7.32432738e-07 7.13837437e-07
      6.87350393e-07 6.33420825e-07 5.79728294e-07 5.34046762e-07
      4.01396704e-07 1.64602810e-07 -1.31055856e-07 -3.48153520e-07
      -4.38460205e-07 -3.99546451e-07 -2.58689568e-07 -1.27281590e-08
      3.12351489e-07 5.81851054e-07 6.10344216e-07 5.04248817e-07
      3.74034045e-07 2.39643356e-07 1.13357558e-07 5.35349054e-09
      -6.44822009e-08 -1.24707114e-07 -1.48303087e-07 -1.44294802e-07
      -1.41453910e-07 -1.65584368e-07 -1.81423971e-07 -1.82483404e-07
      -1.71906308e-07 -1.32979736e-07 -6.68720688e-08 4.27063576e-08
      1.63210828e-07 2.80999132e-07 3.46680764e-07 2.93860012e-07
      1.74427569e-07 4.22370050e-08 -2.22800480e-08 4.34908003e-08
      1.95805626e-07 3.34937170e-07 3.92521969e-07 4.72979025e-07
      4.91126798e-07 3.66123999e-07 2.35176842e-07 1.87971352e-07
      -9.33024538e-08 -8.24417583e-08 -5.51702009e-08 -2.99263618e-08
      -2.12328573e-08 -2.72022298e-08 -2.24078835e-08 2.08263060e-08
      7.68597275e-08 1.09793625e-07 1.22599587e-07 1.44735310e-07
      1.73838643e-07 1.63887222e-07 9.54169082e-08 -2.30741151e-08
      -1.63876209e-07 -2.72661396e-07 -3.27010582e-07 -3.43831175e-07
      -3.12034615e-07 -2.55137735e-07 -1.87978017e-07 -1.20248444e-07
      -5.56275275e-08 1.44798875e-08 8.33793479e-08 1.37088435e-07
      1.38250641e-07 1.05839781e-07 7.44490265e-08 1.61676361e-08
      -4.10150314e-08 -6.08857036e-08 -3.42177415e-08 1.77122210e-08
      7.47617861e-08 1.29810417e-07 1.31174389e-07 7.11751369e-08
      -8.57365094e-08 -3.22403508e-07 -5.86482145e-07 -7.85059569e-07
      -9.09578716e-07 -1.00438854e-06 -1.12387704e-06 -1.22580877e-06
      -1.27733517e-06 -1.25942768e-06 -1.22198753e-06 -1.20837490e-06
      -1.65636266e-07 -1.54396190e-07 -1.21721769e-07 -9.21181140e-08
      -1.36153957e-07 -2.51334114e-07 -3.87181046e-07 -4.98160034e-07
      -5.46598528e-07 -5.22700759e-07 -4.68403897e-07 -3.83373077e-07
      -3.02778631e-07 -2.38723146e-07 -1.74788880e-07 -1.36906877e-07
      -1.47956570e-07 -1.92606805e-07 -2.61895508e-07 -3.25081999e-07
      -3.60917824e-07 -3.86929145e-07 -3.89376567e-07 -3.53664376e-07
      -3.00270898e-07 -2.19037460e-07 -1.57713103e-07 -1.14324777e-07
      -9.58043032e-08 -9.37253546e-08 -1.18875285e-07 -1.54827731e-07
      -1.90256500e-07 -2.17295991e-07 -2.45184111e-07 -2.60925276e-07
      -2.35270889e-07 -1.46173988e-07 -4.11143208e-09 1.54419411e-07
      2.35449164e-07 2.57164857e-07 2.33165665e-07 1.93247232e-07
      1.30071399e-07 6.01986159e-08 -3.96233180e-09 -6.83989114e-08
      -1.45775360e-07 -2.20882313e-07 -2.72344977e-07 -2.88085914e-07
      -1.75733902e-07 -1.88390118e-07 -2.23949414e-07 -2.73482527e-07
      -3.22823070e-07 -3.59905812e-07 -3.71213304e-07 -3.29589909e-07
      -2.32197650e-07 -9.84528512e-08 4.17870751e-08 1.71028375e-07
      2.63377814e-07 3.10348810e-07 3.35849563e-07 3.21312939e-07
      2.75656532e-07 2.14080117e-07 1.55513007e-07 9.67403793e-08
      2.38563924e-08 -5.78369068e-08 -1.24903679e-07 -1.57580288e-07
      -1.58120230e-07 -1.41918747e-07 -1.18601740e-07 -9.91344251e-08
      -7.09991497e-08 -4.57728362e-08 -5.91846785e-08 -8.69476651e-08
      -1.32991914e-07 -1.72895625e-07 -1.88052070e-07 -1.67735280e-07
      -1.22850764e-07 -6.26638794e-08 1.58559743e-08 1.17488277e-07
      2.81564297e-07 4.51223343e-07 5.96314123e-07 7.05950583e-07
      7.64456672e-07 7.97781240e-07 7.94438904e-07 6.76783827e-07
      5.43159331e-07 4.42106540e-07 3.73690597e-07 3.53827943e-07
      1.31313811e-07 1.12770486e-07 5.83244244e-08 -9.18317067e-09
      -6.45520046e-08 -1.00186362e-07 -1.02340202e-07 -7.41464419e-08
      -2.39948559e-08 2.45733141e-08 5.17239478e-08 4.94099268e-08
      3.15676942e-08 4.44624532e-10 -1.87572340e-08 -6.76232981e-09
      5.50891244e-08 1.46755610e-07 2.56202611e-07 3.53547506e-07
      4.22733450e-07 4.63649627e-07 4.81344216e-07 4.53621851e-07
      3.93648861e-07 3.20700877e-07 2.70380127e-07 2.30856870e-07
      2.10951171e-07 2.02513775e-07 2.27330688e-07 2.46758759e-07
      2.33515081e-07 1.89260987e-07 1.28207176e-07 4.75463828e-08
      -5.79552975e-08 -1.90077202e-07 -3.23608390e-07 -4.57162287e-07
      -5.45854391e-07 -5.92191100e-07 -6.09720871e-07 -6.03697060e-07
      -5.53881648e-07 -4.96538178e-07 -4.06833720e-07 -3.05571291e-07
      -2.05719275e-07 -1.21643268e-07 -7.07926588e-08 -6.29931449e-08
      -1.09804702e-07 -1.17830965e-07 -1.43500614e-07 -1.82362399e-07
      -2.30772940e-07 -2.78012067e-07 -3.19620796e-07 -3.62307162e-07
      -4.09086027e-07 -4.33853245e-07 -4.37089199e-07 -4.25438571e-07
      -4.09277618e-07 -3.86863434e-07 -3.55185108e-07 -2.93837758e-07
      -1.93257080e-07 -8.09106311e-08 4.00761664e-08 1.57806255e-07
      2.74232036e-07 3.60221691e-07 3.95135999e-07 3.85856254e-07
      3.49698951e-07 3.03071573e-07 2.51725453e-07 1.99980121e-07
      1.46961938e-07 1.00526492e-07 9.40332612e-08 1.02632711e-07
      1.09433593e-07 7.98850124e-08 1.16073533e-08 -1.00888307e-07
      -2.30933566e-07 -3.68401459e-07 -4.87077614e-07 -5.91697358e-07
      -6.64530035e-07 -7.10390736e-07 -7.26862140e-07 -7.13621205e-07
      -6.77128185e-07 -6.22992957e-07 -5.61451714e-07 -5.00387671e-07
      -4.73629200e-07 -4.80638960e-07 -4.87400939e-07 -4.97668452e-07
      -4.56404365e-07 -4.61265898e-07 -4.74472415e-07 -4.96516577e-07
      -5.40769861e-07 -5.82156702e-07 -6.32109902e-07 -6.82096413e-07
      -7.24916788e-07 -7.47626530e-07 -7.58340889e-07 -7.34575622e-07
      -6.68725306e-07 -5.80374433e-07 -4.64936477e-07 -3.23859012e-07
      -1.97653478e-07 -9.27691985e-08 -1.72604686e-08 3.37467299e-08
      4.71853276e-08 2.80816437e-08 -2.05162536e-08 -7.33601055e-08
      -1.34605244e-07 -2.14936875e-07 -2.93233313e-07 -3.76993682e-07
      -4.71301320e-07 -5.35863194e-07 -5.86589408e-07 -6.13925465e-07
      -6.11323969e-07 -5.68089320e-07 -5.15313104e-07 -4.66288498e-07
      -4.26479176e-07 -3.86122025e-07 -3.46474735e-07 -3.03982574e-07
      -2.67430579e-07 -2.52817301e-07 -2.63676526e-07 -2.94611056e-07
      -3.50268408e-07 -4.20112627e-07 -4.73574630e-07 -5.03176068e-07
      -5.31286616e-07 -5.66764754e-07 -5.93406185e-07 -5.96383529e-07
      -2.53614928e-07 -2.62424379e-07 -2.95363350e-07 -3.47884964e-07
      -3.97991528e-07 -4.38138812e-07 -4.74142041e-07 -4.94595554e-07
      -4.89890681e-07 -4.66573539e-07 -4.28678760e-07 -3.69730856e-07
      -3.00433555e-07 -2.30343019e-07 -1.41542813e-07 -4.18795985e-08
      3.04773238e-08 6.89191140e-08 6.66860345e-08 3.24317071e-08
      -4.38908181e-08 -1.48496866e-07 -2.77845487e-07 -4.18215166e-07
      -5.57553221e-07 -6.80741209e-07 -7.89968226e-07 -8.79447725e-07
      -9.32981322e-07 -9.18471244e-07 -8.61663182e-07 -7.68428833e-07
      -6.36726554e-07 -4.79992309e-07 -3.29751998e-07 -1.87916598e-07
      -8.66890559e-08 -3.90927433e-08 -3.54317571e-08 -7.33401890e-08
      -1.42337726e-07 -2.20691646e-07 -3.05979341e-07 -3.77449027e-07
      -4.27700172e-07 -4.71271420e-07 -4.88330215e-07 -4.77398430e-07
      -4.52836389e-07 -4.26892541e-07 -4.05851267e-07 -3.95693434e-07
      -1.59284127e-07 -1.61532995e-07 -1.86736514e-07 -2.22002370e-07
      -2.34103211e-07 -2.39671778e-07 -2.25246183e-07 -1.97178736e-07
      -1.47516857e-07 -9.93055735e-08 -4.37843788e-08 6.46289022e-09
      3.23915010e-08 5.68500766e-08 7.12871042e-08 5.18717798e-08
      8.54611582e-09 -3.94922424e-08 -8.57453131e-08 -1.61088380e-07
      -2.47932775e-07 -3.08201663e-07 -3.30472545e-07 -3.46555396e-07
      -3.76732771e-07 -3.98234448e-07 -4.56822249e-07 -5.15017234e-07
      -5.49594290e-07 -5.67877635e-07 -5.79522407e-07 -5.65717130e-07
      -5.16565080e-07 -4.56568358e-07 -3.78372761e-07 -3.04109818e-07
      -2.56559673e-07 -2.47761989e-07 -2.82901908e-07 -3.40810175e-07
      -4.26026588e-07 -5.01391696e-07 -5.57108990e-07 -5.73009402e-07
      -5.57494559e-07 -5.10198333e-07 -4.50558133e-07 -3.83306144e-07
      -3.05338631e-07 -2.23394736e-07 -1.67088785e-07 -1.48775342e-07
      -1.80615473e-07 -1.88159348e-07 -1.83577598e-07 -1.71821867e-07
      -1.56527946e-07 -1.44567835e-07 -1.20082433e-07 -9.56803348e-08
      -7.22877260e-08 -6.24329743e-08 -3.97671087e-08 -3.41845592e-08
      -5.40096892e-08 -7.89324801e-08 -1.11900967e-07 -1.61401488e-07
      -1.95074705e-07 -1.95851712e-07 -1.69695412e-07 -1.34552991e-07
      -7.72892861e-08 1.43585659e-08 1.27714685e-07 2.19384702e-07
      2.89086586e-07 3.33119118e-07 3.44640227e-07 3.55698546e-07
      3.58683309e-07 3.17230274e-07 2.37244322e-07 9.70312897e-08
      -1.09523178e-07 -3.34525339e-07 -4.95692007e-07 -5.73822604e-07
      -5.68701296e-07 -5.10486643e-07 -4.29532690e-07 -3.25810191e-07
      -2.28694361e-07 -1.59147916e-07 -1.22394241e-07 -1.34487266e-07
      -1.87061971e-07 -2.59903459e-07 -3.45556572e-07 -4.24252676e-07
      -4.69710699e-07 -4.92012418e-07 -5.02004582e-07 -5.01629529e-07
      -5.25001610e-07 -5.39268569e-07 -5.41441864e-07 -5.20718913e-07
      -4.59960148e-07 -3.55124484e-07 -2.38764699e-07 -1.19853595e-07
      -2.11158966e-08 5.55804469e-08 9.61691669e-08 7.79309488e-08
      4.46720776e-08 -2.54089638e-09 -5.48957360e-08 -1.02917149e-07
      -1.14066296e-07 -1.13924521e-07 -1.17744406e-07 -8.96719143e-08
      -2.82038179e-08 7.14263848e-08 2.00126777e-07 3.45469630e-07
      4.88497733e-07 5.73781733e-07 6.23828612e-07 6.11786731e-07
      5.12002487e-07 3.04113996e-07 8.67254712e-08 -1.31294044e-07
      -3.24024086e-07 -4.47019488e-07 -5.13995076e-07 -5.12480881e-07
      -4.08568752e-07 -2.60075097e-07 -1.04874239e-07 2.87741706e-08
      1.45459907e-07 2.09612594e-07 2.26978358e-07 1.68957683e-07
      7.94311035e-08 -3.83330310e-08 -1.70371109e-07 -2.96462474e-07
      -4.05553209e-07 -4.71447265e-07 -4.90098842e-07 -4.93121945e-07
      -4.18987241e-07 -3.91605909e-07 -3.29374842e-07 -2.39688916e-07
      -1.38468224e-07 -3.15441433e-08 4.69494736e-08 1.00332628e-07
      1.26945409e-07 1.38717837e-07 1.17542079e-07 9.15487277e-08
      1.06449562e-07 1.42115127e-07 1.67420339e-07 1.83125806e-07
      1.82260749e-07 1.59943554e-07 8.38049630e-08 -2.35129960e-08
      -1.51752246e-07 -2.51260019e-07 -2.79187901e-07 -2.40431007e-07
      -1.58921225e-07 -1.01464984e-07 -5.18273175e-08 -7.08185155e-08
      -1.61372029e-07 -3.07021537e-07 -4.46243490e-07 -5.41433508e-07
      -5.93607922e-07 -5.57944873e-07 -4.51047214e-07 -3.08552472e-07
      -1.70702634e-07 -6.15189180e-08 5.75386245e-08 1.77322221e-07
      2.59451923e-07 2.93895454e-07 3.04588639e-07 2.89317001e-07
      2.65325809e-07 2.32623321e-07 1.99941653e-07 1.72951061e-07
      1.42490350e-07 1.27292580e-07 1.28845841e-07 1.27892207e-07
      2.78967747e-07 3.02611539e-07 3.38744599e-07 3.80232564e-07
      3.98790149e-07 3.81441225e-07 3.37888025e-07 2.73716125e-07
      1.99517117e-07 1.30010221e-07 7.24318170e-08 4.45183268e-08
      3.33586705e-08 3.04761585e-08 6.73704719e-08 1.61506193e-07
      2.96584943e-07 4.43559003e-07 5.42687644e-07 5.53607265e-07
      4.83485394e-07 3.65393333e-07 2.46258850e-07 1.48350324e-07
      8.04707057e-08 2.07287858e-08 -1.17410526e-08 -4.68184886e-08
      -7.55793650e-08 -1.14953806e-07 -1.76565052e-07 -2.19178133e-07
      -2.56099469e-07 -2.36960830e-07 -1.69612917e-07 -8.09925353e-08
      -2.70495573e-08 -5.05210735e-08 -1.01368599e-07 -1.41021204e-07
      -1.73978734e-07 -1.80815576e-07 -1.40570933e-07 -4.95887029e-08
      5.40076570e-08 1.57355842e-07 2.25931828e-07 2.50820648e-07
      2.31407697e-07 1.99867301e-07 1.75100752e-07 1.61039011e-07
      6.12086353e-07 5.94986943e-07 5.52457948e-07 5.07184893e-07
      4.68974292e-07 4.30607940e-07 4.04424696e-07 3.85023696e-07
      3.58769228e-07 3.11400981e-07 2.34178472e-07 1.06949969e-07
      -8.12767311e-08 -2.66665239e-07 -3.85511299e-07 -3.95249799e-07
      -2.42932174e-07 7.11765793e-08 4.03717820e-07 6.15767647e-07
      6.86059934e-07 6.48580169e-07 5.81568315e-07 5.00397618e-07
      4.18955409e-07 3.09559510e-07 2.12835559e-07 1.58743532e-07
      1.47112615e-07 1.29444302e-07 1.11311124e-07 1.10417517e-07
      1.00644954e-07 1.12111316e-07 1.23428677e-07 5.43501386e-08
      -1.80636022e-07 -4.33046665e-07 -5.24618770e-07 -5.82606390e-07
      -6.30256693e-07 -6.23089534e-07 -5.28425005e-07 -3.49395407e-07
      -1.33283820e-07 9.68315064e-08 2.89171965e-07 4.33181242e-07
      5.39024541e-07 5.85077544e-07 5.93351047e-07 5.92372544e-07
      -1.36168509e-07 -1.48189983e-07 -1.58480120e-07 -1.49893609e-07
      -1.35398466e-07 -9.52876462e-08 -5.03576203e-08 9.88973126e-10
      1.91670626e-08 -1.55002700e-09 -7.30387910e-08 -1.78318558e-07
      -3.18583062e-07 -4.33987225e-07 -5.31135584e-07 -6.12910412e-07
      -5.83815108e-07 -3.83875204e-07 -1.16371744e-07 -8.97060346e-08
      -3.46024116e-08 -4.33129532e-09 -1.57263180e-08 -6.11010407e-08
      -6.10892883e-08 -3.74405822e-08 -4.26884483e-09 4.42310522e-10
      -4.67383039e-08 -1.40441529e-07 -2.39222544e-07 -3.01799133e-07
      -3.34510645e-07 -3.36571389e-07 -3.99407810e-07 -5.79707034e-07
      -6.17271212e-07 -4.36300780e-07 -2.57524647e-07 -2.03494807e-07
      -2.00056803e-07 -1.83169121e-07 -1.42217587e-07 -4.90175758e-08
      5.82253818e-08 1.61243776e-07 2.40635785e-07 3.15099385e-07
      3.93815100e-07 4.60999530e-07 4.90804098e-07 5.07867412e-07
      1.17386975e-07 1.26755239e-07 1.41859090e-07 1.51434890e-07
      1.28417526e-07 8.22870234e-08 -5.42835110e-09 -1.15649769e-07
      -2.22974023e-07 -3.03354284e-07 -3.46768360e-07 -3.05972776e-07
      -1.98001516e-07 -2.81417059e-08 1.52854227e-07 2.93747462e-07
      3.44435591e-07 3.25627980e-07 1.72271115e-07 -2.11799165e-08
      -2.27487021e-07 -4.75910866e-07 -6.86823739e-07 -7.89805597e-07
      -6.75403044e-07 -5.76283924e-07 -5.40747521e-07 -5.85228861e-07
      -6.58998147e-07 -6.81668496e-07 -6.99340603e-07 -6.76376828e-07
      -5.89332387e-07 -4.24930846e-07 -2.08471235e-07 -2.25739143e-08
      1.56562962e-07 3.40854001e-07 4.17502378e-07 3.60501105e-07
      2.90943518e-07 1.83524563e-07 3.91728712e-08 -1.31431065e-07
      -2.73511176e-07 -3.61749272e-07 -4.16174515e-07 -4.41006222e-07
      -4.54109767e-07 -4.45572027e-07 -4.28275854e-07 -4.09545265e-07
      7.82874565e-07 7.69181668e-07 7.24873416e-07 6.52431879e-07
      5.56368207e-07 4.33676036e-07 2.88511586e-07 1.31422325e-07
      -6.44103260e-09 -1.10735520e-07 -1.57871213e-07 -1.36905314e-07
      -4.76268660e-08 9.44740179e-08 2.49291361e-07 3.64590903e-07
      4.43126652e-07 4.85987812e-07 5.08718927e-07 5.00234535e-07
      4.49352370e-07 3.48544546e-07 1.99859429e-07 8.64161009e-08
      6.67020359e-08 4.34544134e-08 -8.31647284e-08 -2.51672333e-07
      -4.00916008e-07 -4.65149782e-07 -4.43132279e-07 -3.28101748e-07
      -1.32140585e-07 9.65138511e-08 3.41443894e-07 5.23288691e-07
      6.14723035e-07 6.13374880e-07 5.10046732e-07 3.04913556e-07
      5.68875755e-08 -1.46181762e-07 -2.79420163e-07 -3.45920569e-07
      -3.37806256e-07 -2.80220036e-07 -2.05615208e-07 -1.51498611e-07
      -1.17192918e-07 -9.32644966e-08 -5.82125033e-08 -4.55218121e-08
      -2.44943323e-07 -2.48931542e-07 -2.51541451e-07 -2.62948021e-07
      -2.84763615e-07 -3.45583828e-07 -4.30073925e-07 -5.33353898e-07
      -6.35999641e-07 -7.06318417e-07 -7.07716538e-07 -6.54398946e-07
      -5.36229720e-07 -3.78600845e-07 -1.86864114e-07 8.41954395e-10
      1.69231043e-07 3.55093562e-07 5.37258302e-07 6.57983094e-07
      6.88059117e-07 6.42163968e-07 5.35359561e-07 4.07434698e-07
      2.48996145e-07 7.68999655e-08 -9.67467955e-08 -2.48877484e-07
      -2.97360941e-07 -2.99359414e-07 -3.18825641e-07 -3.10581498e-07
      -2.55577731e-07 -1.61166639e-07 -3.10548955e-08 7.10528383e-08
      1.42252617e-07 1.76016854e-07 8.21577899e-08 -5.90865987e-08
      -1.95022722e-07 -2.94754301e-07 -3.40544432e-07 -3.52759969e-07
      -3.20307350e-07 -2.52827391e-07 -1.70359243e-07 -8.42365182e-08
      -3.83299170e-09 3.76253020e-08 6.04109189e-08 5.89309153e-08
      -4.90030232e-07 -4.73465718e-07 -4.20453574e-07 -3.51105399e-07
      -2.74353994e-07 -2.09406053e-07 -1.46352860e-07 -1.07790349e-07
      -7.94630353e-08 -5.15319769e-08 -1.25549677e-08 3.55591077e-08
      1.04827130e-07 1.86528496e-07 3.14004836e-07 4.47722726e-07
      5.65501011e-07 6.43867509e-07 6.82257507e-07 6.65507628e-07
      5.82192513e-07 4.74664489e-07 3.74599267e-07 3.05835641e-07
      2.35687466e-07 1.36957368e-07 1.81541751e-08 -1.07829585e-07
      -1.96566901e-07 -2.70887227e-07 -3.56530137e-07 -4.32265040e-07
      -4.68936435e-07 -4.70006967e-07 -4.33614616e-07 -3.41242952e-07
      -2.07690505e-07 -8.23897608e-08 -2.13255067e-08 -4.27303206e-08
      -9.85769333e-08 -1.78341239e-07 -2.47447190e-07 -2.83382434e-07
      -2.65852975e-07 -2.27626515e-07 -1.46718904e-07 -3.55575622e-08
      7.36334087e-08 1.65041811e-07 2.30869816e-07 2.56209745e-07
      6.29164321e-09 4.77339377e-08 1.56324546e-07 3.06898755e-07
      4.45069418e-07 5.57529688e-07 6.45151033e-07 7.11987809e-07
      7.45715113e-07 7.72704936e-07 7.84663769e-07 7.98539929e-07
      8.13663235e-07 8.09265828e-07 7.66632638e-07 6.76928778e-07
      5.50712969e-07 4.05794424e-07 2.68275016e-07 1.56391764e-07
      9.16787144e-08 5.27561710e-08 6.57551666e-08 1.41745957e-07
      2.25010041e-07 2.84803349e-07 2.95854846e-07 2.82285413e-07
      2.52084305e-07 2.11261792e-07 1.72993140e-07 1.52647502e-07
      1.15700331e-07 5.96449681e-08 7.83526577e-09 -3.59466834e-09
      5.64619214e-08 2.11864034e-07 3.98991943e-07 5.64683319e-07
      6.99967984e-07 7.88129455e-07 8.50457980e-07 8.96959648e-07
      9.27798283e-07 9.27595522e-07 9.19061790e-07 9.02585327e-07
      8.77029322e-07 8.62843137e-07 8.55595658e-07 8.41751898e-07
      -3.28742317e-07 -3.09490616e-07 -2.70751116e-07 -2.10059213e-07
      -1.29204608e-07 -3.05725969e-08 6.26750847e-08 1.60597551e-07
      2.78912353e-07 4.07505468e-07 5.22170410e-07 6.03688989e-07
      6.43296346e-07 6.31368493e-07 5.42401267e-07 4.17653354e-07
      2.70473407e-07 1.49697371e-07 9.16541651e-08 1.02318715e-07
      1.76081798e-07 2.72851594e-07 3.91008086e-07 5.23954725e-07
      6.67955533e-07 7.87567956e-07 8.72918406e-07 9.64609626e-07
      1.05513016e-06 1.11842053e-06 1.07577148e-06 9.72728799e-07
      8.26808559e-07 6.63148057e-07 5.09231597e-07 3.74759793e-07
      2.85775627e-07 2.63642818e-07 3.23982306e-07 4.12293218e-07
      4.73863452e-07 5.15854538e-07 5.38863617e-07 5.44105092e-07
      5.22667563e-07 4.89759202e-07 4.23869437e-07 3.52850748e-07
      2.95441737e-07 2.74254518e-07 2.57419373e-07 2.43346818e-07
      -1.56200599e-07 -1.43631041e-07 -1.32361720e-07 -1.23568569e-07
      -1.08918584e-07 -9.39398390e-08 -6.06944326e-08 -1.52954058e-08
      6.17951486e-08 1.38599347e-07 1.93393504e-07 1.99833195e-07
      1.53225770e-07 7.47388071e-08 -2.16463718e-08 -8.81462157e-08
      -1.18897681e-07 -9.29130479e-08 -1.05866738e-09 1.36893220e-07
      2.65071463e-07 3.52185566e-07 4.07739520e-07 4.43161525e-07
      4.53220480e-07 4.40216439e-07 4.09023386e-07 3.70960919e-07
      3.72976217e-07 4.10849879e-07 4.42852325e-07 3.99219772e-07
      2.91050497e-07 1.66955672e-07 6.04497501e-08 -2.08716511e-08
      -5.44088579e-08 -4.08552481e-08 -1.77486825e-08 1.28111024e-08
      1.64034031e-08 1.05635440e-11 -6.01286274e-08 -1.36920804e-07
      -2.12821973e-07 -2.55450288e-07 -2.65262742e-07 -2.32691249e-07
      -1.33665566e-07 -4.41103012e-08 1.39575329e-08 4.50653168e-08
      1.14095478e-07 1.23226812e-07 1.68675186e-07 2.36215214e-07
      3.00354657e-07 3.19928517e-07 2.84279679e-07 1.91571743e-07
      5.84474407e-08 -9.64914264e-08 -2.25791212e-07 -3.05350568e-07
      -3.35246710e-07 -3.04818087e-07 -2.14290935e-07 -9.99994043e-08
      2.44438709e-08 1.18650057e-07 1.55285733e-07 1.54501450e-07
      1.30893582e-07 1.11245107e-07 9.65773452e-08 5.43631486e-08
      -4.45060344e-09 -4.10986907e-08 -6.38162447e-08 -6.57820749e-08
      -8.23850499e-09 9.13446172e-08 2.12322803e-07 3.10339942e-07
      3.52501530e-07 3.52026291e-07 3.24911895e-07 2.97838909e-07
      2.90213507e-07 3.04010996e-07 3.05521638e-07 3.09251618e-07
      3.33731549e-07 3.12753201e-07 2.20538993e-07 8.32189713e-08
      -6.13762339e-08 -1.54777851e-07 -1.53951390e-07 -3.91824173e-08
      1.17629789e-07 2.72823343e-07 3.92055597e-07 4.37528598e-07
      4.61382044e-08 3.33044063e-08 2.07137454e-08 2.25668106e-08
      2.61359840e-08 1.67861174e-08 -1.37991236e-08 -5.74949333e-08
      -1.23230862e-07 -1.70018453e-07 -1.44454305e-07 -5.71666625e-08
      8.23775110e-08 2.57960664e-07 4.33762068e-07 5.85812927e-07
      7.22119182e-07 8.16278543e-07 8.52041239e-07 8.25658617e-07
      7.45276907e-07 6.05160153e-07 4.34183335e-07 2.76933264e-07
      1.66455138e-07 1.35717258e-07 1.67134203e-07 2.52696935e-07
      3.95851345e-07 5.58074134e-07 7.23564767e-07 8.62521858e-07
      9.89505452e-07 1.09311395e-06 1.17005993e-06 1.23639450e-06
      1.28983436e-06 1.29566649e-06 1.24200756e-06 1.14342197e-06
      1.01559829e-06 8.44334750e-07 6.46527553e-07 4.31378339e-07
      2.47779354e-07 8.43631796e-08 -1.23679156e-08 -4.95814767e-08
      -4.10478620e-08 -1.74181380e-08 2.28874288e-08 3.85638117e-08
      -3.61681543e-07 -3.52491526e-07 -3.18630441e-07 -2.64133092e-07
      -2.03475835e-07 -1.43847970e-07 -9.52740749e-08 -5.35531086e-08
      -8.81899531e-09 5.81265027e-08 1.48577229e-07 2.79112669e-07
      4.69686569e-07 7.08507400e-07 9.74509135e-07 1.24629003e-06
      1.48166862e-06 1.66139534e-06 1.78370442e-06 1.84889734e-06
      1.83909185e-06 1.59324111e-06 1.28607337e-06 9.86914756e-07
      7.34861771e-07 5.84766724e-07 5.40615019e-07 6.02106468e-07
      7.50324148e-07 9.65157483e-07 1.20392212e-06 1.24259122e-06
      1.30272622e-06 1.43476905e-06 1.64124492e-06 1.86493764e-06
      2.01292073e-06 2.02242518e-06 1.88807132e-06 1.63562390e-06
      1.26818190e-06 8.37110349e-07 4.36521674e-07 1.35234473e-07
      2.06195114e-08 -1.55639016e-10 6.62903261e-08 1.79901718e-07
      2.95391658e-07 4.00860245e-07 4.77642232e-07 5.02414423e-07
      -3.72106683e-07 -3.35349881e-07 -2.29339264e-07 -9.16428462e-08
      4.89583734e-08 1.53007633e-07 1.96560578e-07 1.69575614e-07
      1.11344519e-07 3.63308743e-08 -3.26645400e-09 1.05395330e-07
      3.69305951e-07 8.10442486e-07 1.37003337e-06 1.90969172e-06
      2.33639048e-06 2.63770130e-06 2.78843754e-06 2.79003621e-06
      2.73475439e-06 2.58643399e-06 2.27009809e-06 1.83581540e-06
      1.43687100e-06 1.18291939e-06 1.09227835e-06 1.15957812e-06
      1.34828804e-06 1.60908940e-06 1.88629258e-06 2.02605861e-06
      2.04373146e-06 2.08576762e-06 2.25265421e-06 2.47651701e-06
      2.59797775e-06 2.55589157e-06 2.34987874e-06 2.01561897e-06
      1.59207582e-06 1.11556255e-06 7.08822427e-07 4.32779444e-07
      3.34494104e-07 3.96302283e-07 4.88184185e-07 5.72335182e-07
      6.20026867e-07 6.50211121e-07 6.66722713e-07 6.68178131e-07
      7.54809832e-07 7.68592031e-07 8.06757896e-07 8.49013247e-07
      8.80048560e-07 8.88432623e-07 8.63152138e-07 7.94262462e-07
      6.80511391e-07 5.52540882e-07 4.78662344e-07 5.23556423e-07
      7.60565570e-07 1.20036725e-06 1.70489841e-06 2.23103098e-06
      2.75517459e-06 3.19894912e-06 3.39377561e-06 3.48319486e-06
      3.58689181e-06 3.47827790e-06 3.03387674e-06 2.36336268e-06
      1.71943111e-06 1.21818573e-06 9.06262187e-07 8.63821981e-07
      1.02254739e-06 1.38483438e-06 1.94863514e-06 2.59205831e-06
      3.13035684e-06 3.22803953e-06 3.03490356e-06 2.78078619e-06
      2.54201336e-06 2.29197690e-06 2.01391731e-06 1.77607774e-06
      1.54119073e-06 1.28667421e-06 1.01216585e-06 8.24619690e-07
      7.50841537e-07 7.47200772e-07 7.44592796e-07 7.24977326e-07
      7.02999785e-07 6.79593711e-07 6.32605975e-07 6.17209821e-07
      1.33123865e-06 1.32278012e-06 1.29427610e-06 1.25477629e-06
      1.21126186e-06 1.18005232e-06 1.14440866e-06 1.08879260e-06
      9.70610586e-07 8.19139416e-07 6.82398195e-07 6.08752600e-07
      6.95036761e-07 9.84259941e-07 1.39792814e-06 1.84465205e-06
      2.44098351e-06 2.79839105e-06 2.90884941e-06 2.96672079e-06
      2.95724908e-06 2.80340487e-06 2.41115458e-06 1.79817062e-06
      1.08835854e-06 4.49378234e-07 2.92153839e-08 -1.05344824e-07
      6.54754828e-08 4.97269980e-07 1.16753279e-06 1.93808296e-06
      2.60089814e-06 2.93191397e-06 2.95718814e-06 2.76664287e-06
      2.25394683e-06 1.92158450e-06 1.75843263e-06 1.64602443e-06
      1.54555266e-06 1.24696612e-06 9.71308395e-07 8.22221125e-07
      8.04701131e-07 8.47396677e-07 8.22981974e-07 7.59318993e-07
      7.00581666e-07 6.49893309e-07 6.05563912e-07 6.02798423e-07
      2.99031456e-07 3.12670295e-07 3.60164620e-07 4.24561762e-07
      5.14338012e-07 6.01674230e-07 6.67806660e-07 6.93862944e-07
      6.58733256e-07 6.01422585e-07 6.21627692e-07 7.27699387e-07
      9.69099119e-07 1.37691245e-06 1.76411538e-06 1.97855206e-06
      2.08124357e-06 2.08376582e-06 2.04160688e-06 1.92796551e-06
      1.79551989e-06 1.60943557e-06 1.32961452e-06 9.00426016e-07
      3.69838091e-07 -1.50027446e-07 -5.24878317e-07 -6.71136434e-07
      -5.50872471e-07 -2.20111815e-07 2.94842039e-07 8.97582197e-07
      1.43258092e-06 1.78144285e-06 1.96938527e-06 1.95797361e-06
      1.95382745e-06 2.02741421e-06 2.03636500e-06 1.90821493e-06
      1.69297391e-06 1.40397731e-06 1.09538053e-06 8.23293647e-07
      6.17081582e-07 5.33842581e-07 4.81573579e-07 4.02241795e-07
      2.99665857e-07 1.91898991e-07 1.29809038e-07 1.06160108e-07
      2.33905944e-08 2.89532753e-08 3.24516378e-08 3.61166386e-08
      4.22090984e-08 2.13021742e-08 1.23275647e-08 1.29864173e-08
      8.51204263e-08 2.47643783e-07 5.07520554e-07 8.33270633e-07
      1.27194721e-06 1.79382334e-06 2.14324268e-06 2.30347723e-06
      2.18569880e-06 1.82183328e-06 1.38393887e-06 9.79796596e-07
      7.62166565e-07 6.45500563e-07 5.68476878e-07 4.90624871e-07
      3.40527407e-07 6.27366177e-08 -1.91424249e-07 -3.29670485e-07
      -2.83038958e-07 -6.55217320e-08 2.68628327e-07 6.23338167e-07
      8.37385642e-07 9.61869887e-07 1.07340486e-06 1.22604649e-06
      1.63544337e-06 2.03976879e-06 2.22133644e-06 2.14538886e-06
      1.95444272e-06 1.67568794e-06 1.32623632e-06 9.42977920e-07
      5.93580580e-07 3.92276377e-07 3.09718530e-07 2.65777260e-07
      2.22130964e-07 1.96384946e-07 1.82094155e-07 1.63602337e-07
      2.85919356e-07 2.86160997e-07 2.65089227e-07 2.37384512e-07
      1.90935765e-07 1.34989065e-07 7.36064365e-08 2.71546234e-08
      4.99344353e-08 2.07877633e-07 4.25682487e-07 6.61939055e-07
      1.04937760e-06 1.46433285e-06 1.83981297e-06 2.08368965e-06
      1.95213829e-06 1.53024814e-06 1.01071669e-06 7.18757519e-07
      6.35987760e-07 5.31364719e-07 4.00654386e-07 2.52925162e-07
      1.38860415e-07 1.15025806e-07 1.36672512e-07 1.81385815e-07
      2.69118942e-07 3.80386354e-07 4.96230257e-07 6.18814568e-07
      7.96927623e-07 1.03781724e-06 1.30258093e-06 1.64964092e-06
      1.78643154e-06 1.92894254e-06 1.93593792e-06 1.79636015e-06
      1.58134549e-06 1.40496161e-06 1.18703895e-06 9.15362477e-07
      6.53140546e-07 4.69736960e-07 4.37272973e-07 4.94551614e-07
      5.66513961e-07 6.36422385e-07 6.77016203e-07 6.95990821e-07
      -1.22536534e-07 -1.13788118e-07 -7.98392037e-08 -9.17523479e-09
      8.62328662e-08 1.87840854e-07 2.44006515e-07 2.71220927e-07
      2.84725417e-07 3.04996831e-07 3.82776960e-07 6.01324871e-07
      8.46387479e-07 1.08920881e-06 1.39223721e-06 1.75943558e-06
      1.87775913e-06 1.69435521e-06 1.44519652e-06 1.25157544e-06
      1.07520532e-06 8.77204002e-07 7.24267920e-07 6.27911845e-07
      5.46007811e-07 5.36191010e-07 5.98567226e-07 6.88022624e-07
      7.86163127e-07 9.01941235e-07 1.02769434e-06 1.12940711e-06
      1.22724225e-06 1.42615932e-06 1.65650090e-06 1.89469029e-06
      2.01958733e-06 2.05874494e-06 2.03233617e-06 1.89264154e-06
      1.51346524e-06 1.07097128e-06 6.23368408e-07 2.22440534e-07
      8.99012349e-08 6.07575288e-08 5.29387201e-08 1.25263583e-07
      2.30278388e-07 3.30392027e-07 4.05226245e-07 4.46439429e-07
      -1.12948818e-07 -1.15628119e-07 -1.24949281e-07 -1.31648790e-07
      -1.13891375e-07 -6.75954013e-08 -2.53332786e-08 1.52193067e-08
      7.11016028e-08 1.54968390e-07 2.51429469e-07 3.73253954e-07
      5.03535830e-07 6.33821060e-07 7.75234923e-07 9.19185027e-07
      1.06519758e-06 1.21316668e-06 1.34153834e-06 1.41592693e-06
      1.41632563e-06 1.27959277e-06 1.02791466e-06 6.54711926e-07
      2.64183114e-07 6.55458976e-08 -4.92954975e-08 -1.13910879e-07
      -1.05553504e-07 -3.55065239e-08 1.34926992e-07 4.38572073e-07
      7.86277496e-07 1.11434542e-06 1.42532042e-06 1.61938317e-06
      1.72430305e-06 1.75307662e-06 1.67740563e-06 1.49240691e-06
      1.19057916e-06 7.82128097e-07 3.34805435e-07 -7.45425481e-08
      -3.82193917e-07 -5.59715886e-07 -6.26405495e-07 -6.27770817e-07
      -5.85457201e-07 -5.21112554e-07 -4.52142132e-07 -4.14778555e-07
      -1.66506069e-07 -1.84993212e-07 -2.44197508e-07 -3.04035183e-07
      -3.07419924e-07 -2.51463263e-07 -1.88210251e-07 -2.05372601e-07
      -1.85927107e-07 -1.39930876e-07 -1.04181609e-07 -1.24240628e-07
      -1.56880290e-07 -1.21402351e-07 -1.58896309e-08 1.53581794e-07
      3.85062606e-07 6.09077631e-07 9.19129434e-07 1.11546728e-06
      1.14037107e-06 9.72076464e-07 5.93711775e-07 1.03301900e-07
      -4.93365121e-07 -9.91567958e-07 -1.29127193e-06 -1.33655260e-06
      -1.22240772e-06 -9.53414599e-07 -5.65407163e-07 -1.07582387e-07
      3.76488288e-07 7.69241183e-07 1.08159895e-06 1.19755316e-06
      1.38881433e-06 1.57019394e-06 1.59270485e-06 1.29365162e-06
      8.74721252e-07 4.10286560e-07 -6.81656189e-08 -5.03148613e-07
      -8.52573407e-07 -1.10502287e-06 -1.25915062e-06 -1.30376372e-06
      -1.29342618e-06 -1.22047231e-06 -1.18449088e-06 -1.16480226e-06
      -6.77905803e-07 -6.40967414e-07 -6.20237415e-07 -6.28229714e-07
      -5.58536556e-07 -4.28542023e-07 -3.00393395e-07 -1.86238509e-07
      -7.51688205e-08 6.09779462e-08 1.64641335e-07 1.38045323e-07
      7.95517252e-08 2.03845669e-08 -1.68260801e-08 -8.18840604e-08
      -1.35194327e-07 -1.29469427e-07 -2.18918373e-07 -3.20072616e-07
      -3.24562222e-07 -1.46722726e-07 -3.24001235e-08 -5.26272750e-08
      -3.17057847e-08 -6.31039896e-08 -9.93768907e-08 -2.24814016e-08
      1.06543695e-07 1.39673432e-07 1.69203204e-07 1.57958468e-07
      5.44449712e-08 -4.91766272e-08 -1.62442397e-08 8.47789892e-08
      1.81838018e-07 8.99629242e-08 -1.23243415e-08 -3.46221540e-08
      -7.19092839e-08 -1.06750093e-07 -7.83121337e-08 -3.78554361e-08
      5.44224754e-08 1.25886700e-07 1.38277755e-07 1.59465401e-07
      2.21391744e-07 3.00268283e-07 3.61527640e-07 3.94710383e-07
      -7.01177385e-07 -5.66440917e-07 -5.46952492e-07 -5.69363635e-07
      -4.91378444e-07 -3.07757603e-07 -2.47534530e-07 -2.00804223e-07
      -1.34632813e-07 1.05467784e-07 3.15506867e-07 2.49359942e-07
      1.22669491e-07 5.34509237e-09 3.15822248e-08 -1.21701325e-08
      -1.25651965e-07 -1.45013146e-07 -1.82136276e-07 -2.51836298e-07
      -2.07675853e-07 -8.08286771e-08 -2.74136056e-08 -7.14041164e-08
      -3.43791520e-08 -8.86571740e-08 -1.39523991e-07 -6.13373956e-08
      6.63267163e-10 6.55037624e-08 1.51109546e-07 1.77984845e-07
      7.79585534e-08 -3.14292237e-08 -6.44125961e-08 -5.85677178e-08
      -1.90635969e-08 4.90287810e-10 3.41568085e-09 1.83627460e-08
      1.76694783e-08 -6.03098371e-08 -8.23929653e-08 -8.20822166e-08
      -8.49516368e-09 1.14125676e-07 1.23547849e-07 1.38993244e-07
      2.16857629e-07 2.42796744e-07 3.09184827e-07 3.65331772e-07
      -7.44670388e-07 -5.90143543e-07 -4.98321469e-07 -4.35377558e-07
      -4.30127272e-07 -2.88059226e-07 -2.08268332e-07 -1.80165983e-07
      -1.26180353e-07 1.78144873e-07 4.16395892e-07 3.18157845e-07
      1.86929867e-07 7.06461591e-08 1.16438649e-07 1.00880605e-07
      -3.98105051e-08 -1.97253030e-07 -2.67805717e-07 -2.65097157e-07
      -2.10335330e-07 -7.98689612e-08 3.15152242e-08 1.70229969e-10
      1.14125749e-08 -5.76158321e-08 -9.11899463e-08 -8.50474180e-08
      -1.33306344e-07 -8.72951276e-08 -6.45584874e-09 7.01865943e-09
      1.59996805e-09 5.32917959e-08 6.54627907e-09 -1.16380427e-07
      -2.27381861e-07 -2.14822705e-07 -5.65238878e-08 7.16685093e-08
      9.57289288e-08 4.00264533e-08 -1.84608560e-08 -6.39190958e-08
      -3.32991803e-08 5.18029921e-08 1.45116189e-07 1.54700530e-07
      1.06907244e-07 7.22748794e-08 1.01918189e-07 2.20753520e-07
      -4.33196277e-07 -4.99392286e-07 -5.30507691e-07 -4.12524372e-07
      -3.12690673e-07 -2.40314648e-07 -1.41001365e-07 -9.99417225e-08
      -4.83076263e-08 2.01132465e-07 3.54257452e-07 2.86264651e-07
      2.11636063e-07 1.50120130e-07 2.11856019e-07 2.47638923e-07
      9.72056426e-08 -9.31757711e-08 -2.07025224e-07 -2.04160074e-07
      -2.33496877e-07 -2.04197164e-07 -1.18598038e-07 -4.13408792e-08
      -2.42973091e-08 -7.58508918e-08 -9.50563575e-08 -1.39451174e-07
      -1.86905879e-07 -1.99551749e-07 -1.40379129e-07 -1.87487530e-07
      -2.01028740e-07 -8.38325320e-08 -7.31816812e-08 -1.93581755e-07
      -3.43292101e-07 -3.71088788e-07 -1.77147797e-07 -1.25779440e-08
      3.49067086e-08 7.27279970e-09 3.92368378e-08 6.93939350e-09
      4.89998975e-09 5.14745686e-08 2.09029153e-07 2.83155913e-07
      1.85229482e-07 1.08009992e-07 8.07028115e-08 1.07037252e-07
      -3.55539072e-07 -3.11372276e-07 -2.78040091e-07 -2.99509253e-07
      -1.87555045e-07 -1.04665631e-07 -7.79132776e-08 -5.51966792e-08
      6.61746036e-09 1.84781669e-07 2.57848257e-07 2.24762402e-07
      1.88473066e-07 1.82408201e-07 2.57250377e-07 3.05072462e-07
      2.08060598e-07 6.17360598e-08 -4.22295585e-08 -3.40517126e-08
      -1.18307931e-07 -1.90317365e-07 -1.80159319e-07 -1.45050706e-07
      -1.09143826e-07 -1.18129137e-07 -1.71539199e-07 -2.13036088e-07
      -2.25575221e-07 -2.00575741e-07 -1.13322173e-07 -2.15938144e-07
      -3.18988469e-07 -2.56486203e-07 -2.38159799e-07 -1.71557019e-07
      -2.34897328e-07 -2.54931990e-07 -1.42038530e-07 -4.19242383e-08
      -9.35159932e-08 -1.29049056e-07 -3.76091229e-08 -1.02001412e-08
      -8.60656169e-09 5.09225053e-08 1.76071424e-07 2.20312785e-07
      1.75132215e-07 1.81678956e-07 1.77587935e-07 1.23199172e-07
      -6.90799880e-07 -5.71481280e-07 -3.42008263e-07 -1.29051088e-07
      -1.05165839e-07 -1.11546619e-07 -6.84861234e-08 -5.56996156e-08
      -7.48379847e-09 6.36620072e-08 1.74175341e-07 2.00928625e-07
      1.31908962e-07 1.26575259e-07 2.27268487e-07 2.74829830e-07
      2.09641868e-07 4.58175897e-08 -1.61043250e-08 7.82426639e-08
      4.25394227e-08 -7.72781021e-08 -1.11431433e-07 -1.13918873e-07
      -1.24379454e-07 -1.46187489e-07 -2.34326876e-07 -2.91096285e-07
      -2.79606780e-07 -1.92352189e-07 -8.58762448e-08 -2.02383703e-07
      -3.07655313e-07 -2.27333004e-07 -1.92084286e-07 -7.55147695e-08
      -4.06309368e-08 -9.63982743e-08 -3.52866714e-08 6.46003429e-09
      -7.09729662e-08 -1.24944961e-07 -7.88693910e-08 -4.95626793e-08
      -8.39518250e-08 -4.53053488e-08 2.53958916e-08 3.14236424e-08
      -2.34044180e-08 -5.13236493e-08 -7.42331494e-08 -8.98967798e-08
      -7.11525729e-07 -7.93510139e-07 -6.81651613e-07 -4.57456622e-07
      -3.02592127e-07 -2.72667108e-07 -1.82802935e-07 -1.06514591e-07
      -9.31781088e-08 -8.18823267e-08 5.13937906e-08 1.45354917e-07
      6.85811514e-08 3.40204687e-09 4.90207022e-08 1.31995606e-07
      1.42889220e-07 -1.40061598e-08 -7.94395731e-08 3.57295598e-08
      5.09729645e-08 -1.03603945e-07 -1.44002811e-07 -5.88663056e-08
      -9.01826525e-08 -1.58341777e-07 -2.79082172e-07 -3.71941667e-07
      -3.72887826e-07 -2.25852858e-07 -1.36529152e-07 -2.57968935e-07
      -3.55030778e-07 -2.59102450e-07 -7.66595534e-08 2.51079939e-08
      4.12810088e-08 -6.41918803e-08 -1.12154929e-07 -8.08838223e-08
      -5.27814876e-08 -6.77897063e-08 -7.89693075e-08 -1.34261370e-07
      -2.31783503e-07 -2.75774283e-07 -1.99313845e-07 -1.76110206e-07
      -2.85886358e-07 -3.98292372e-07 -4.16689119e-07 -4.12156226e-07
      -4.79972471e-07 -6.42395719e-07 -8.18690296e-07 -7.89490173e-07
      -6.77134892e-07 -5.39234122e-07 -3.17451935e-07 -2.81878897e-07
      -2.79206489e-07 -1.56115831e-07 -1.41320387e-08 8.83725022e-08
      2.52701096e-08 -1.22044298e-07 -1.88276815e-07 -9.59190913e-08
      -1.39772371e-08 -9.07798139e-08 -1.19544978e-07 -1.13378329e-08
      -4.22539799e-08 -1.96965999e-07 -1.77788564e-07 -4.30937170e-08
      -5.86174345e-08 -1.02138607e-07 -2.25423719e-07 -3.27016210e-07
      -3.41464471e-07 -2.17636028e-07 -1.67038792e-07 -3.26882457e-07
      -4.20995917e-07 -3.55576361e-07 -1.92676538e-07 -8.92180978e-08
      -1.08095350e-07 -2.52967538e-07 -3.17547119e-07 -2.87590836e-07
      -1.92529797e-07 -1.39482310e-07 -1.42490990e-07 -2.24011202e-07
      -3.50937114e-07 -4.31471932e-07 -4.01702351e-07 -3.84617806e-07
      -4.13168493e-07 -5.09330050e-07 -6.24574454e-07 -7.47820422e-07
      -2.97695749e-07 -4.72370999e-07 -7.04614536e-07 -7.98328472e-07
      -8.61982812e-07 -8.30851263e-07 -7.41137569e-07 -6.30479121e-07
      -5.62825051e-07 -3.55075088e-07 -1.82536056e-07 -1.09722890e-07
      -1.16761399e-07 -2.15167034e-07 -2.78430008e-07 -2.20376421e-07
      -1.20472549e-07 -1.61280923e-07 -1.48748796e-07 -7.10915984e-08
      -7.56203278e-08 -2.20760825e-07 -1.87626696e-07 -6.58424071e-08
      -8.89128700e-08 -1.14669824e-07 -8.40080432e-08 -1.60071707e-07
      -1.68907292e-07 -9.84706361e-08 -8.81828370e-08 -2.15593573e-07
      -3.54798686e-07 -3.43328793e-07 -3.74810014e-07 -3.62202968e-07
      -4.99231021e-07 -6.99104532e-07 -6.87194586e-07 -5.18302329e-07
      -4.10202006e-07 -3.48094034e-07 -3.57201912e-07 -3.86691681e-07
      -4.61914539e-07 -5.14671058e-07 -5.47821458e-07 -5.64116419e-07
      -4.94693779e-07 -4.55331843e-07 -5.09692541e-07 -6.39493010e-07
      -3.50292538e-07 -4.36275229e-07 -5.51599442e-07 -6.23656774e-07
      -7.99725854e-07 -9.59650038e-07 -1.04171772e-06 -9.68038421e-07
      -8.56914710e-07 -5.44617308e-07 -3.46816250e-07 -3.44272934e-07
      -3.60984188e-07 -3.35209847e-07 -2.96021597e-07 -2.74649523e-07
      -2.26219953e-07 -2.59254051e-07 -2.42988534e-07 -1.53487917e-07
      -5.59088846e-08 -1.41379900e-07 -1.77022073e-07 -7.45456390e-08
      -1.36048598e-07 -1.70811916e-07 -1.38508241e-07 -9.13567888e-08
      -5.45009478e-08 1.95178842e-08 1.00087107e-07 1.22422339e-08
      -1.96871113e-07 -3.12511617e-07 -3.80282245e-07 -4.67038774e-07
      -7.17698242e-07 -1.01114551e-06 -1.00075556e-06 -7.53200482e-07
      -4.98237569e-07 -4.73366640e-07 -5.22704624e-07 -5.83105816e-07
      -5.69647966e-07 -5.50592745e-07 -6.44416218e-07 -7.20173716e-07
      -6.19080538e-07 -5.62469779e-07 -5.38143183e-07 -4.84238114e-07
      -3.45320643e-07 -4.43627783e-07 -5.22275457e-07 -6.09276356e-07
      -8.17686555e-07 -9.71407985e-07 -1.09668281e-06 -1.16020942e-06
      -1.05068989e-06 -6.85246448e-07 -3.47556409e-07 -4.01524062e-07
      -4.53866875e-07 -2.94858978e-07 -2.61417199e-07 -2.96110699e-07
      -3.61412987e-07 -3.99183875e-07 -3.92093227e-07 -2.75983467e-07
      -9.60549755e-08 -1.28011763e-07 -2.20800260e-07 -1.75771262e-07
      -1.91905926e-07 -2.52488036e-07 -2.56926000e-07 -1.92000513e-07
      -8.48542214e-08 5.15732275e-08 2.72742852e-07 2.95743064e-07
      4.52527757e-08 -1.08631092e-07 -2.37863745e-07 -3.74147419e-07
      -6.86547423e-07 -9.08506195e-07 -9.53049039e-07 -8.31966190e-07
      -4.60245957e-07 -3.26793980e-07 -4.06603192e-07 -5.24459381e-07
      -5.78163963e-07 -6.27552197e-07 -7.10432744e-07 -8.23379196e-07
      -8.29868554e-07 -7.61786850e-07 -6.70609325e-07 -4.89894262e-07
      -3.90147022e-07 -4.27291695e-07 -5.13878263e-07 -5.57147700e-07
      -7.36561049e-07 -8.90676745e-07 -1.05874221e-06 -1.16744479e-06
      -1.07248127e-06 -8.01498686e-07 -4.16542036e-07 -2.51599772e-07
      -3.00313133e-07 -1.15190481e-07 -6.65178348e-08 -1.30513698e-07
      -2.53603616e-07 -3.11203706e-07 -4.00952530e-07 -3.35849023e-07
      -1.84262618e-07 -1.93474165e-07 -3.15870921e-07 -3.40317484e-07
      -3.25917284e-07 -3.44431186e-07 -3.37252686e-07 -2.97171596e-07
      -1.90711745e-07 -2.35298714e-08 3.00291788e-07 4.95211737e-07
      3.85481115e-07 1.59530330e-07 -9.40032052e-08 -2.83336021e-07
      -4.98810778e-07 -5.98431484e-07 -5.78857737e-07 -5.36406048e-07
      -2.69018784e-07 -1.28605691e-07 -1.55977276e-07 -3.91738922e-07
      -5.29885369e-07 -6.91155151e-07 -7.52528194e-07 -7.84099029e-07
      -8.75153546e-07 -9.47583544e-07 -9.34948389e-07 -6.78427568e-07
      -4.39593322e-07 -4.69356308e-07 -5.65562971e-07 -6.24591621e-07
      -6.70406848e-07 -8.59912291e-07 -1.06563471e-06 -1.21158507e-06
      -1.14052295e-06 -9.72691737e-07 -5.94723190e-07 -1.49770585e-07
      4.83484222e-08 2.11577273e-07 1.82752572e-07 8.15834582e-08
      -5.02588762e-08 -1.33434483e-07 -2.47957445e-07 -3.60842193e-07
      -2.75128201e-07 -2.83764223e-07 -3.97142315e-07 -4.63271107e-07
      -4.10024455e-07 -4.32564519e-07 -4.02178443e-07 -3.46565145e-07
      -2.76565970e-07 -1.25048885e-07 2.17814375e-07 5.37353344e-07
      5.83411008e-07 3.55222795e-07 -9.29910282e-09 -2.76233209e-07
      -4.42363756e-07 -4.98896611e-07 -4.74822883e-07 -3.43645212e-07
      -1.98964386e-07 6.35279918e-09 -7.44433777e-08 -3.65936842e-07
      -5.10393306e-07 -7.22667721e-07 -8.26486826e-07 -7.43802104e-07
      -7.42588838e-07 -8.78112928e-07 -1.02797458e-06 -8.84338704e-07
      -3.29409460e-07 -4.51913195e-07 -6.27851989e-07 -7.35897459e-07
      -7.49282151e-07 -8.58321528e-07 -1.03743059e-06 -1.23868745e-06
      -1.28786212e-06 -1.21182097e-06 -9.35614651e-07 -3.56579790e-07
      1.33169166e-07 2.54428926e-07 3.03776886e-07 1.09380856e-07
      -5.15953360e-08 -1.39531423e-07 -2.92972857e-07 -4.36594576e-07
      -4.26685432e-07 -4.41957155e-07 -4.78862546e-07 -5.30075511e-07
      -4.72168779e-07 -4.04726876e-07 -3.81923428e-07 -3.10327806e-07
      -3.19941194e-07 -2.34473049e-07 6.35599520e-08 4.06017421e-07
      5.82454504e-07 4.20590311e-07 2.05951398e-08 -3.20435191e-07
      -5.09620406e-07 -6.39315147e-07 -6.85851205e-07 -5.28320754e-07
      -3.90968665e-07 -1.73878405e-07 2.72495377e-08 -3.59517031e-07
      -5.01531304e-07 -6.97899395e-07 -8.26513940e-07 -8.28655516e-07
      -6.72819226e-07 -7.08591529e-07 -8.78398282e-07 -9.15370322e-07
      -1.38108746e-07 -4.01086737e-07 -6.61378806e-07 -8.19328079e-07
      -9.11070288e-07 -8.44628801e-07 -8.88159548e-07 -1.02608669e-06
      -1.20052539e-06 -1.26447685e-06 -1.20685934e-06 -8.55723897e-07
      -5.39339737e-08 1.90496692e-07 2.49965069e-07 1.20062140e-07
      -2.81512147e-08 -1.85170279e-07 -3.87712731e-07 -5.82400560e-07
      -6.45940816e-07 -6.23191681e-07 -5.85583905e-07 -5.88647765e-07
      -5.01812224e-07 -3.38592002e-07 -2.53147846e-07 -1.86179221e-07
      -3.25540810e-07 -3.83845389e-07 -1.91604087e-07 1.57921917e-07
      4.24899071e-07 3.80412956e-07 2.22554650e-08 -3.06158483e-07
      -5.37732433e-07 -7.28473196e-07 -8.20557659e-07 -7.75384649e-07
      -6.48180674e-07 -6.13916654e-07 -2.15951346e-07 -2.72221115e-07
      -5.17134197e-07 -6.26955057e-07 -6.79430855e-07 -7.34982052e-07
      -7.02069485e-07 -6.24714005e-07 -6.56764939e-07 -7.95389212e-07
      -8.18158767e-08 -3.01039904e-07 -6.49849312e-07 -8.46030957e-07
      -9.69643679e-07 -9.14888062e-07 -6.91984440e-07 -6.82411667e-07
      -7.93206823e-07 -9.16339502e-07 -1.02304375e-06 -1.08551194e-06
      -5.89932597e-07 -1.58268278e-08 8.03699436e-08 1.37155567e-07
      1.06468924e-07 -2.40667308e-08 -2.69727110e-07 -5.69717770e-07
      -7.97794826e-07 -7.95859364e-07 -6.89044441e-07 -6.55561848e-07
      -5.10414395e-07 -2.71326229e-07 -1.39967582e-07 -8.83338558e-08
      -2.59727813e-07 -5.36320613e-07 -5.44879811e-07 -2.24954931e-07
      1.71017817e-07 2.69253349e-07 2.44006859e-08 -1.86958061e-07
      -3.83222186e-07 -6.04634295e-07 -7.04135175e-07 -7.08559639e-07
      -7.34108539e-07 -7.88467162e-07 -5.11208953e-07 -3.11267854e-07
      -4.51269472e-07 -5.10736527e-07 -4.91600588e-07 -4.51153795e-07
      -4.89702472e-07 -5.83105930e-07 -4.95559959e-07 -5.82148459e-07
      -2.04117754e-07 -2.70179896e-07 -5.16426780e-07 -7.79999084e-07
      -9.29633757e-07 -9.17647583e-07 -6.75520425e-07 -4.01558680e-07
      -3.44614421e-07 -3.53780791e-07 -5.10298207e-07 -8.80896891e-07
      -8.94944662e-07 -4.53911611e-07 -1.27671697e-07 -7.34950021e-08
      1.50433280e-07 1.96716300e-07 6.95691540e-08 -2.96324004e-07
      -6.29122383e-07 -7.63282458e-07 -7.29587498e-07 -7.23977337e-07
      -5.38365896e-07 -2.50527904e-07 -8.53519069e-08 -7.41193418e-08
      -2.69011394e-07 -6.00232909e-07 -8.12437406e-07 -5.94661913e-07
      -2.55625508e-07 2.08822417e-08 4.96871664e-08 -4.29182379e-09
      -4.86994338e-08 -2.67392522e-07 -3.66598329e-07 -4.35825086e-07
      -4.72082434e-07 -5.57249393e-07 -4.87880698e-07 -3.98952579e-07
      -4.96667269e-07 -4.72514529e-07 -3.53184049e-07 -2.22283077e-07
      -1.45373136e-07 -3.42816890e-07 -3.83852864e-07 -4.51006940e-07
      -4.14892554e-07 -4.10200840e-07 -4.48834783e-07 -5.71800001e-07
      -8.08831714e-07 -8.29463659e-07 -6.87410704e-07 -3.63494962e-07
      -9.58268132e-08 4.77433382e-08 8.10124590e-09 -3.91983633e-07
      -6.81123879e-07 -5.74915816e-07 -4.28020002e-07 -3.04465800e-07
      -8.98854893e-08 1.29886772e-07 1.37552590e-07 -3.93097714e-08
      -3.55207646e-07 -5.71174780e-07 -7.00297164e-07 -7.70720249e-07
      -5.94068240e-07 -3.05049781e-07 -1.39077130e-07 -1.37561727e-07
      -3.19423037e-07 -6.05149808e-07 -9.29079533e-07 -8.24428298e-07
      -5.18177501e-07 -3.07544354e-07 -6.21926262e-08 1.07860103e-07
      1.40456237e-07 3.69637405e-08 7.48548867e-09 -1.11148225e-07
      -2.27292972e-07 -2.46385127e-07 -1.82033901e-07 -2.29646744e-07
      -4.74531163e-07 -5.06697802e-07 -3.44764800e-07 -1.19139365e-07
      -3.25530607e-08 -8.45229664e-08 -2.22738379e-07 -2.99892235e-07
      -5.24802090e-07 -5.43366127e-07 -4.87387297e-07 -4.43368180e-07
      -5.79657069e-07 -6.58604733e-07 -6.04351385e-07 -4.06569256e-07
      -1.36884950e-07 1.37814709e-07 2.26028362e-07 6.91100599e-09
      -2.17506212e-07 -2.54576321e-07 -3.78546048e-07 -3.73074158e-07
      -2.18560615e-07 -5.32195195e-08 -6.84519819e-08 -1.95607029e-07
      -3.40613184e-07 -5.00279555e-07 -6.90779302e-07 -7.98528561e-07
      -6.43097621e-07 -3.88019828e-07 -2.36327452e-07 -2.20821875e-07
      -3.33147426e-07 -5.53635914e-07 -8.74342163e-07 -8.97095958e-07
      -6.40062410e-07 -4.23809468e-07 -1.91178486e-07 6.06204580e-08
      8.77889121e-08 -1.28585267e-08 -7.80232270e-08 -1.51013808e-07
      -2.05132594e-07 -1.54906303e-07 -5.69764254e-08 -2.24695640e-08
      -1.55763516e-07 -3.14591574e-07 -3.09819143e-07 -1.76236441e-07
      -3.53938958e-08 -9.87750592e-09 -7.51792584e-08 -1.03427951e-07
      -3.92828213e-07 -4.67038944e-07 -4.39229609e-07 -3.58270370e-07
      -4.15662555e-07 -4.43832448e-07 -4.08865844e-07 -3.11015498e-07
      -2.11703650e-07 -7.05678787e-08 7.55814327e-08 7.62064971e-08
      4.87380944e-08 9.55142543e-09 -1.50809669e-07 -2.21938393e-07
      -1.59122095e-07 -7.34939363e-08 -1.26224677e-07 -2.32187048e-07
      -3.66068832e-07 -5.42936732e-07 -7.30938609e-07 -8.07613276e-07
      -6.37647418e-07 -4.19251649e-07 -2.88471938e-07 -2.76873834e-07
      -2.82439515e-07 -4.42633080e-07 -7.27580414e-07 -8.42689929e-07
      -6.15955173e-07 -3.90994131e-07 -2.02829469e-07 -1.27749846e-08
      -2.81560730e-08 -1.19384268e-07 -1.51308214e-07 -1.58128657e-07
      -1.68924643e-07 -9.40495255e-08 -7.99562514e-08 -9.62124744e-08
      -7.69541657e-08 -6.06936652e-08 -7.28270209e-08 -1.78703246e-07
      -1.12937471e-07 1.10799618e-08 1.38034917e-08 -4.02538713e-09
      -2.12394866e-07 -3.02787129e-07 -3.01580371e-07 -2.44436762e-07
      -2.65729000e-07 -2.46665905e-07 -2.33941464e-07 -1.75110955e-07
      -1.59177077e-07 -1.09849708e-07 -4.31452598e-08 -1.28970861e-08
      1.51405413e-08 -2.47559506e-09 -8.79311841e-08 -8.72099477e-08
      -2.91146822e-08 5.35031752e-09 -1.11259176e-07 -2.35462139e-07
      -3.41564004e-07 -5.01621116e-07 -7.04125284e-07 -7.21961612e-07
      -5.03986257e-07 -3.10993499e-07 -2.25851068e-07 -2.18639698e-07
      -2.36403835e-07 -2.47682294e-07 -4.38132986e-07 -6.04912316e-07
      -4.22829117e-07 -2.13926739e-07 -1.36579089e-07 -5.42613492e-08
      -7.25110283e-09 -7.41720996e-08 -9.28893229e-08 -4.38424941e-08
      4.53621105e-08 1.06899456e-07 6.03782553e-08 -4.31004068e-08
      -6.40211297e-08 -3.29501582e-08 -3.08580961e-09 -7.28711171e-08
      -9.80126771e-08 4.92825016e-08 5.50747892e-08 8.18087571e-08
      -2.05128586e-07 -2.22265825e-07 -1.80671918e-07 -1.29634671e-07
      -1.38636281e-07 -1.12580842e-07 -7.07661698e-08 -8.10341447e-08
      -1.14070559e-07 -8.27064568e-08 -3.45700215e-08 -7.42684776e-08
      -1.10740132e-07 -4.77603024e-08 -1.84556139e-08 1.97111003e-08
      8.23106632e-08 6.47199059e-08 -1.02537790e-07 -2.59365464e-07
      -3.11216070e-07 -4.63770391e-07 -5.96660470e-07 -5.41687712e-07
      -3.18005505e-07 -1.46747695e-07 -1.05183062e-07 -1.57777166e-07
      -2.02329332e-07 -1.55128802e-07 -2.40099723e-07 -3.31687346e-07
      -1.51569978e-07 1.46746846e-08 -2.28662529e-08 -3.94198540e-09
      1.29861588e-08 3.26866889e-08 -5.82885185e-10 4.11755181e-08
      1.39231062e-07 1.72241911e-07 1.19894352e-07 7.84245344e-08
      2.19059562e-08 9.24272214e-09 5.19455945e-09 -1.29737971e-08
      -1.72011578e-08 7.41961088e-08 6.09684534e-08 8.11601666e-08
      -2.57542524e-07 -2.13094623e-07 -1.47263179e-07 -1.03245640e-07
      -1.07111724e-07 -7.72535529e-08 2.45393306e-08 1.98756904e-08
      -2.69145861e-08 -1.45242041e-08 -1.98102672e-08 -9.16313638e-08
      -1.24794681e-07 -1.30668703e-08 1.16651520e-07 1.41126350e-07
      1.86255889e-07 1.63794951e-07 4.31201741e-09 -1.90627546e-07
      -2.83544551e-07 -4.73441986e-07 -5.23990082e-07 -3.74550297e-07
      -1.62067522e-07 -9.76940573e-09 2.63891824e-08 -6.17128251e-08
      -1.19192705e-07 -9.39470226e-08 -1.25426595e-07 -1.53552548e-07
      3.99172109e-08 1.70334843e-07 1.38862561e-07 1.22736196e-07
      1.13932614e-07 9.88928832e-08 7.16526074e-08 8.47876791e-08
      1.64876226e-07 1.60528685e-07 1.21608522e-07 9.59313269e-08
      9.35868627e-08 9.68227738e-08 6.89843134e-08 4.10911944e-08
      4.05917930e-08 1.45691786e-07 1.36266124e-07 7.70322899e-08
      -3.67295058e-07 -3.04568715e-07 -1.85584824e-07 -1.50536479e-07
      -1.33818716e-07 -6.93978564e-08 3.29794148e-08 3.76899436e-08
      2.46439580e-08 5.61576208e-08 9.32794109e-09 -4.61513991e-08
      2.66532627e-08 1.86167185e-07 2.16294239e-07 2.46827682e-07
      3.12621324e-07 3.09161663e-07 2.33342817e-07 4.94871450e-08
      -1.60200386e-07 -4.14291435e-07 -4.93159462e-07 -3.43019337e-07
      -1.05350892e-07 6.44719336e-08 1.00390658e-07 6.11562641e-08
      6.68856970e-08 6.64901734e-08 4.66431231e-08 4.82657327e-08
      1.59621990e-07 2.32973647e-07 2.24102521e-07 2.09424272e-07
      2.47360902e-07 2.90168629e-07 2.16342542e-07 1.59325879e-07
      1.80279557e-07 1.39087675e-07 1.09541872e-07 1.05886592e-07
      1.16871647e-07 1.07633340e-07 8.43731272e-08 5.97990848e-08
      7.61447509e-08 1.64801648e-07 1.95079906e-07 1.16623681e-07
      -4.22148332e-07 -3.67501315e-07 -2.48623053e-07 -1.89370411e-07
      -1.63873807e-07 -7.59319860e-08 1.49245718e-08 4.15831067e-08
      3.40759421e-08 6.54581385e-08 5.77428860e-09 2.58246913e-09
      2.00550332e-07 3.00105512e-07 2.47491329e-07 2.66509232e-07
      3.84202366e-07 4.03557237e-07 3.78032155e-07 2.45026456e-07
      4.51475053e-08 -1.80208076e-07 -3.48243930e-07 -3.06783534e-07
      -1.43421630e-07 2.79914669e-08 8.02253410e-08 9.21161671e-08
      1.90583307e-07 2.32556630e-07 2.34984071e-07 2.42500761e-07
      3.08404339e-07 3.32992329e-07 3.11636768e-07 2.94952031e-07
      3.00826684e-07 3.52840630e-07 3.72864008e-07 2.61310618e-07
      2.33561153e-07 1.72930058e-07 1.15185571e-07 9.28958528e-08
      1.13711870e-07 8.97508770e-08 5.69078331e-08 4.19113739e-08
      6.44447411e-08 1.21858093e-07 1.29532566e-07 8.48238528e-08
      -3.45950497e-07 -3.22481299e-07 -2.48067977e-07 -2.11371074e-07
      -1.63183657e-07 -6.34697344e-08 7.81574272e-09 4.17979926e-08
      7.46056799e-08 6.41392432e-08 -1.02089208e-08 9.59027791e-09
      1.73558718e-07 2.24924321e-07 2.37343357e-07 3.16024057e-07
      4.02999461e-07 3.83280138e-07 3.63009207e-07 2.88417027e-07
      1.93750452e-07 9.82297053e-08 -3.87809713e-08 -1.41426213e-07
      -1.06748942e-07 -1.43034273e-09 1.22178410e-08 3.30523307e-08
      1.65514678e-07 3.07793727e-07 3.26477959e-07 3.54239745e-07
      4.29721041e-07 4.37619320e-07 3.78134104e-07 3.62537634e-07
      3.57391144e-07 3.63973982e-07 3.98753627e-07 3.29849399e-07
      2.50848188e-07 2.08994322e-07 1.30414094e-07 1.20423749e-07
      1.49500963e-07 8.49444390e-08 4.54652778e-08 1.80280182e-08
      2.54892090e-08 5.28413011e-08 4.85208886e-08 2.23835492e-08
      -2.10142744e-07 -1.97487481e-07 -1.87522403e-07 -1.85655480e-07
      -1.22352205e-07 -2.80823311e-08 1.75702901e-08 6.03013035e-08
      9.70534231e-08 8.07995235e-08 -3.51504204e-09 -4.74073614e-10
      9.95880995e-08 1.16310645e-07 2.13575930e-07 3.80258456e-07
      4.06909635e-07 3.48863324e-07 2.84008706e-07 2.22606545e-07
      2.27691544e-07 2.14150305e-07 1.77523816e-07 1.13652931e-07
      5.64256162e-08 5.67757290e-08 6.25160368e-09 -5.89785536e-08
      5.03415940e-08 2.22248417e-07 2.98345896e-07 3.66375758e-07
      3.92562043e-07 3.31847389e-07 2.52914333e-07 2.76645807e-07
      2.96238113e-07 2.77523810e-07 3.16441543e-07 2.99632148e-07
      2.07136296e-07 1.74166004e-07 1.29604445e-07 1.19352904e-07
      1.59848426e-07 9.02907757e-08 5.28037560e-08 5.60446942e-08
      1.09271436e-08 -1.77351822e-08 -2.95041893e-08 -4.95587855e-08
      -1.04879774e-07 -1.07481931e-07 -1.14242802e-07 -1.09093712e-07
      -5.53713733e-08 -3.44632517e-10 1.26726381e-08 9.13866245e-08
      1.19509011e-07 7.08732060e-08 3.80681797e-08 4.06384579e-08
      1.03244950e-07 9.28964496e-08 2.33178042e-07 3.92196569e-07
      4.30934847e-07 3.56367735e-07 2.68308014e-07 1.84472626e-07
      2.06181596e-07 2.09651915e-07 1.66487553e-07 1.98003164e-07
      2.11641407e-07 1.87861943e-07 7.35546664e-08 -4.96482535e-08
      -2.55979558e-08 8.46548502e-08 2.45309366e-07 3.35933919e-07
      3.72304640e-07 2.73742444e-07 1.30410129e-07 1.77175224e-07
      1.93258316e-07 1.66611784e-07 1.77742336e-07 1.78421558e-07
      9.08997819e-08 6.56243841e-08 1.11830708e-07 9.04933657e-08
      9.48027647e-08 3.29983578e-08 2.53593164e-08 9.01780552e-08
      5.71286414e-08 -3.73625539e-08 -7.67770629e-08 -9.45395584e-08
      -5.13359950e-08 -5.65948994e-08 -9.03309996e-08 -9.53333767e-08
      -4.76334563e-08 -2.39542253e-08 -3.62532369e-08 4.20405115e-08
      8.86314595e-08 5.26976756e-08 5.19756043e-08 8.77873134e-08
      8.01946598e-08 9.73228467e-08 2.61980006e-07 3.80885837e-07
      4.73337934e-07 4.35034480e-07 3.08158974e-07 1.63968139e-07
      1.37448751e-07 1.07672101e-07 3.80113896e-08 9.38511491e-08
      2.28306092e-07 2.68482751e-07 1.85219108e-07 5.99948464e-08
      5.14151317e-08 5.98081940e-08 1.04084663e-07 2.07060779e-07
      3.17495164e-07 3.16408602e-07 3.09723163e-07 3.26319821e-07
      2.83524372e-07 1.95863564e-07 1.48167032e-07 9.49522203e-08
      -5.33131690e-08 -7.25748492e-08 4.65261429e-08 3.35481616e-08
      1.78919226e-08 -4.78436348e-08 -4.52472335e-08 2.38123832e-08
      2.01361221e-08 -6.37359179e-08 -8.29453555e-08 -8.33599501e-08
      7.20670634e-09 -1.05574864e-08 -6.61223751e-08 -9.23952399e-08
      -8.14861707e-08 -1.00440012e-07 -1.17440955e-07 -8.25978148e-08
      -1.02624345e-08 -8.63404725e-09 5.51676784e-08 1.33240761e-07
      6.75109817e-08 1.25727283e-07 3.33403761e-07 4.03239710e-07
      5.09897689e-07 5.09408608e-07 3.95303346e-07 2.30151642e-07
      5.63682576e-08 -1.10334909e-07 -2.18601514e-07 -1.00803774e-07
      1.43709215e-07 2.89160681e-07 3.40436685e-07 2.95390123e-07
      2.62334510e-07 1.67387967e-07 7.13442603e-08 9.19093779e-08
      1.44531398e-07 2.92825234e-07 4.13758755e-07 5.15220620e-07
      5.04897059e-07 3.85451528e-07 2.73333228e-07 1.26738982e-07
      -6.68375222e-08 -1.34668085e-07 -3.62918549e-08 -8.15583192e-08
      -9.29063830e-08 -1.01919746e-07 -9.86095259e-08 -6.66652440e-08
      -6.20789251e-08 -8.69486243e-08 -4.21165289e-08 3.30802008e-09
      1.01521302e-07 4.64464520e-08 -1.43947023e-08 -5.87719242e-08
      -8.98494150e-08 -1.45872818e-07 -1.94154453e-07 -1.72231282e-07
      -1.18571045e-07 -1.17337663e-07 -1.24588544e-08 1.34456158e-07
      7.48222391e-08 1.61597171e-07 4.14677203e-07 4.57164447e-07
      4.83960775e-07 4.81529753e-07 4.50077920e-07 3.67413293e-07
      2.69538617e-07 1.10404386e-07 -1.82294002e-07 -3.73485420e-07
      -9.08720139e-08 1.67349569e-07 3.45456328e-07 3.66845995e-07
      3.58462842e-07 3.28365104e-07 2.31393216e-07 1.31338581e-07
      6.50111787e-08 1.41685774e-07 2.69080090e-07 4.17190364e-07
      4.98526731e-07 4.88859541e-07 4.13497702e-07 1.93126908e-07
      -3.09891171e-08 -1.48128592e-07 -9.17502305e-08 -1.38409632e-07
      -1.65098669e-07 -9.61073070e-08 -1.02355656e-07 -8.63350920e-08
      -6.43741842e-08 -1.69764061e-08 6.68316034e-08 1.39282776e-07
      1.71794014e-07 8.40298426e-08 2.91171318e-08 -1.33531195e-08
      -6.05058759e-08 -1.23958444e-07 -2.08859390e-07 -1.89280200e-07
      -1.25719296e-07 -1.20300442e-07 -4.64790766e-08 1.26730271e-07
      1.16349689e-07 2.17597460e-07 5.19457558e-07 5.20712774e-07
      4.35100617e-07 3.99179243e-07 4.35929081e-07 4.48790843e-07
      4.42056063e-07 3.67836805e-07 1.35258333e-07 -1.53416579e-07
      -1.76259618e-07 -2.44725857e-08 2.02762635e-07 2.39515884e-07
      2.71292976e-07 3.13709165e-07 3.06071655e-07 2.10438785e-07
      7.20691986e-08 5.74168837e-08 3.93651369e-08 1.14640308e-07
      2.19959304e-07 2.93814679e-07 2.67215938e-07 9.40991782e-08
      -9.05674682e-08 -2.26719052e-07 -2.05451613e-07 -1.99859571e-07
      -1.88185666e-07 -6.07277357e-08 -5.46510250e-08 -3.74685953e-08
      2.04767261e-08 1.24275218e-07 1.98970213e-07 2.69231663e-07
      6.06792057e-08 3.68114357e-08 2.53748667e-08 4.17423962e-08
      -6.97334368e-09 -8.50742552e-08 -1.69582620e-07 -1.16559498e-07
      -1.86625559e-08 -3.06476551e-08 2.27449632e-08 1.70563055e-07
      2.24079116e-07 3.02367198e-07 5.52258257e-07 6.06219032e-07
      5.06903518e-07 4.68140854e-07 4.78965831e-07 4.63824591e-07
      4.78739253e-07 4.31485404e-07 2.92237360e-07 8.77119675e-08
      -7.67068720e-09 -3.82390084e-08 5.86480766e-08 9.79841346e-08
      8.48534114e-08 9.29514385e-08 1.21782634e-07 8.32344398e-08
      1.62618434e-08 1.92567260e-08 -8.92666474e-09 -1.05236655e-08
      1.06976890e-08 5.09135560e-08 4.85522178e-10 -1.04908707e-07
      -2.03021273e-07 -3.04706020e-07 -2.90753007e-07 -2.47854075e-07
      -1.75283802e-07 -3.37308634e-08 2.01728145e-08 6.83159485e-08
      1.50003089e-07 2.38253193e-07 2.62971838e-07 3.21147951e-07
      -7.02580962e-08 -6.11375128e-08 -3.56254510e-08 2.21133316e-08
      -3.77949982e-09 -6.78610093e-08 -1.00782444e-07 -6.07745818e-08
      6.82088626e-08 7.93842077e-08 1.31578545e-07 2.33186526e-07
      2.69426693e-07 2.93562636e-07 5.45795501e-07 6.97894563e-07
      5.69243014e-07 3.86384158e-07 3.11248698e-07 3.07542962e-07
      3.97389044e-07 4.26472667e-07 3.18162051e-07 1.60472197e-07
      1.52376273e-07 6.88138684e-08 2.41879317e-08 1.21940902e-08
      -5.25359845e-08 -1.72007418e-07 -9.78697869e-08 -2.94117015e-08
      -4.88227236e-08 6.22754399e-08 1.06175598e-07 4.42644570e-08
      2.36607001e-08 -1.55767452e-08 -1.67772598e-07 -2.70553073e-07
      -2.76740053e-07 -3.23109475e-07 -2.95075466e-07 -1.86445121e-07
      -9.19062373e-08 4.55527811e-08 1.07414181e-07 1.58152758e-07
      2.61854041e-07 2.87831597e-07 2.82860896e-07 3.23800833e-07
      -3.69762432e-07 -2.82470751e-07 -1.90247832e-07 -7.74400064e-08
      -4.85624483e-08 -5.20600132e-08 -5.37866605e-08 -2.67442175e-08
      1.45484194e-07 2.05814374e-07 1.89786476e-07 2.33622174e-07
      2.46001150e-07 2.14561069e-07 3.56104209e-07 5.12341444e-07
      5.27194345e-07 3.72452291e-07 2.71517223e-07 2.47233828e-07
      2.12325972e-07 3.09517361e-07 3.30153085e-07 2.52491162e-07
      2.20230859e-07 1.27733870e-07 5.66590828e-08 4.22794386e-08
      -5.77606940e-08 -2.04359807e-07 -2.13178723e-07 -3.35476358e-08
      -3.43736417e-08 8.61286580e-08 1.15702932e-07 9.27385244e-08
      9.60150786e-08 8.10444050e-08 -7.82483269e-08 -2.55830457e-07
      -2.71397596e-07 -3.02917329e-07 -3.30863486e-07 -2.01553135e-07
      -9.37743607e-08 8.17344201e-08 1.70481130e-07 2.22035055e-07
      2.92856157e-07 2.96822918e-07 3.19702508e-07 3.34506666e-07
      -6.17671901e-07 -5.14334658e-07 -3.74800067e-07 -1.95850120e-07
      -1.30528917e-07 -3.97258297e-08 7.52705720e-09 -4.43760584e-09
      1.47459005e-07 2.67937139e-07 2.55351011e-07 2.41567648e-07
      2.34854340e-07 1.70940567e-07 2.01644724e-07 2.14656438e-07
      2.55469303e-07 2.14666116e-07 1.55813140e-07 1.41706082e-07
      1.83095509e-07 1.93901684e-07 2.46777063e-07 3.16111851e-07
      2.60880086e-07 1.61566973e-07 1.30304329e-07 1.14390609e-07
      4.99222885e-09 -1.57765371e-07 -1.71221714e-07 1.56052238e-08
      1.33982795e-07 1.86666611e-07 1.75384699e-07 4.69290491e-08
      8.31989482e-08 8.24561042e-08 -9.74795498e-08 -2.79870960e-07
      -3.23868875e-07 -3.37647748e-07 -3.79514603e-07 -2.88870410e-07
      -1.94782714e-07 -1.72421668e-08 1.08641160e-07 1.52674545e-07
      2.03025309e-07 2.65759894e-07 3.25399412e-07 3.48076526e-07
      -6.70553106e-07 -5.84106033e-07 -4.44460625e-07 -2.67163500e-07
      -1.79150135e-07 -6.67431408e-08 -3.30253158e-10 -3.78698850e-08
      6.26554808e-08 2.43879612e-07 2.71874285e-07 2.59951747e-07
      2.56281595e-07 1.74620666e-07 1.03438097e-07 8.78297612e-08
      9.29352808e-08 1.03195930e-07 8.43473558e-08 5.16161833e-08
      9.30608408e-08 1.99887040e-07 2.72502803e-07 3.24806138e-07
      3.39918927e-07 2.62517716e-07 2.37400172e-07 2.66443806e-07
      1.14788733e-07 -9.10542326e-08 -1.61504374e-07 2.37161331e-08
      1.45841327e-07 2.32674878e-07 1.33477315e-07 3.64129136e-08
      4.79544582e-08 9.59386313e-08 8.82740014e-09 -2.44846888e-07
      -4.01312690e-07 -4.46814312e-07 -4.43848620e-07 -3.68811556e-07
      -2.73451889e-07 -1.11537673e-07 1.92594474e-08 6.20342178e-08
      8.95697099e-08 1.82634381e-07 2.88208071e-07 3.20364819e-07
      -6.66643075e-07 -5.77378614e-07 -4.19545728e-07 -2.62105203e-07
      -1.57714112e-07 -7.29873904e-08 -6.53368701e-08 -1.23769752e-07
      -6.61428885e-08 1.17237349e-07 1.76045518e-07 1.95648624e-07
      2.25579811e-07 1.92217698e-07 1.04050976e-07 3.89054797e-08
      1.82992608e-08 4.66455568e-08 8.65615064e-08 1.03238222e-07
      1.31362199e-07 2.42495474e-07 3.27692049e-07 3.47700876e-07
      3.52345609e-07 3.54008279e-07 3.10000871e-07 3.65813207e-07
      2.09271633e-07 -8.91135699e-09 -1.26436845e-07 -2.40965381e-08
      1.12657432e-07 2.08085453e-07 1.42124094e-07 -1.56866697e-09
      2.19631442e-08 3.09964143e-08 -2.02015826e-08 -1.56549191e-07
      -2.77846937e-07 -3.02471278e-07 -3.69446411e-07 -3.38656605e-07
      -2.14944706e-07 -1.49319987e-07 -8.13875545e-08 -4.62974281e-09
      4.25553148e-09 7.58288223e-08 2.40897123e-07 3.07327468e-07
      -6.89231683e-07 -5.97330597e-07 -4.01237088e-07 -1.74944645e-07
      -5.52281847e-08 2.31910180e-09 -1.58809925e-08 -5.72723948e-08
      -9.31250881e-08 -4.33893206e-08 1.85725906e-08 7.61835466e-08
      1.22783618e-07 1.55696370e-07 1.54598254e-07 1.14888863e-07
      7.85047760e-08 2.38665265e-08 2.57163393e-08 8.47639754e-08
      2.12639605e-07 3.14669393e-07 4.44212077e-07 4.36793471e-07
      3.75999207e-07 3.28326934e-07 2.75179502e-07 3.04244793e-07
      2.20604392e-07 2.90517796e-08 -5.90461724e-08 -2.55862886e-08
      6.37608579e-08 1.32357286e-07 1.32263892e-07 3.49042217e-08
      -3.10254267e-09 -4.73685944e-08 -8.25535977e-08 -1.37588984e-07
      -1.96379673e-07 -2.28742408e-07 -2.28849999e-07 -1.47847459e-07
      -4.88309695e-08 -7.29116394e-08 -8.74385577e-08 -5.50284867e-08
      5.35135991e-10 3.17954019e-08 1.60782278e-07 2.70205589e-07
      -7.88206933e-07 -6.92600793e-07 -5.05716002e-07 -2.45660544e-07
      -5.95486576e-08 1.19783845e-08 9.12761564e-08 1.41289391e-07
      1.03706803e-07 -3.82794134e-08 -1.01201053e-07 -6.04442789e-08
      -2.58653934e-08 7.03351049e-08 1.98161743e-07 2.41787120e-07
      1.54166457e-07 1.07906708e-07 8.65796110e-08 3.88308301e-08
      9.84919168e-08 2.77428768e-07 4.42811768e-07 5.09151789e-07
      4.43561248e-07 3.45779114e-07 2.64724804e-07 1.98045043e-07
      1.20620555e-07 7.51940732e-08 1.96945056e-08 -3.00135348e-08
      -5.42468648e-08 -1.01665654e-08 4.83842122e-08 2.34586448e-08
      -4.51801840e-09 -2.44224108e-08 -5.21797574e-08 -1.19836230e-07
      -1.53479007e-07 -1.86437433e-07 -1.63611688e-07 4.93144370e-09
      5.69565550e-08 4.54392968e-09 9.95076377e-09 -3.01115790e-08
      2.56784123e-08 8.14881389e-08 1.64272535e-07 2.12732104e-07
      -1.10205087e-06 -9.79247829e-07 -7.59309501e-07 -4.28964626e-07
      -1.76581224e-07 -5.91771183e-08 1.13871948e-07 2.95595385e-07
      2.76783396e-07 9.11044253e-08 -9.64860902e-09 -5.14988621e-08
      -7.33808960e-08 5.19177483e-08 1.74776105e-07 1.76132986e-07
      1.44125764e-07 1.43195408e-07 1.13645804e-07 -3.81490350e-09
      -2.07951150e-08 1.16744054e-07 2.24814031e-07 3.71844635e-07
      4.42618955e-07 3.35464648e-07 3.20492461e-07 2.66654126e-07
      1.49375936e-07 9.32831199e-08 1.47113781e-07 7.83655238e-08
      -5.38959668e-08 -3.83549263e-08 3.90160615e-08 4.03679472e-08
      3.46007702e-08 7.61608874e-08 6.34666648e-08 9.82215642e-09
      4.20143245e-08 2.80466050e-08 3.58198946e-08 1.63586932e-07
      1.26875904e-07 7.36057757e-08 1.27364984e-07 1.38406136e-07
      1.55896231e-07 1.88012820e-07 2.31501929e-07 2.56023270e-07
      -1.46089428e-06 -1.30395142e-06 -9.98933501e-07 -5.83547035e-07
      -2.70369185e-07 -8.97065604e-08 1.46755681e-07 3.65778305e-07
      3.83997502e-07 2.31197589e-07 1.23338808e-07 -3.86228187e-08
      -1.29102503e-07 -1.39251997e-08 1.08752168e-07 7.49686322e-08
      5.75766492e-08 6.08119421e-08 2.46575507e-08 -1.44391137e-07
      -2.42614703e-07 -1.25591200e-07 1.45900287e-08 1.52753771e-07
      2.45540377e-07 2.29123572e-07 2.18472692e-07 2.29700490e-07
      1.63801644e-07 8.34111233e-08 1.53922002e-07 1.35618194e-07
      6.08545179e-08 5.61628219e-08 1.07303187e-07 5.29663886e-08
      5.04391906e-09 1.58428630e-08 -4.56807321e-08 -7.97548267e-08
      3.39468009e-08 2.21273552e-07 3.22100163e-07 3.98233595e-07
      3.25976316e-07 2.03133496e-07 2.27176201e-07 3.22467201e-07
      3.49512334e-07 3.16436484e-07 3.29390247e-07 3.76595494e-07
      -1.79335620e-06 -1.58834962e-06 -1.19842412e-06 -6.75403555e-07
      -2.61939874e-07 -6.68267264e-09 2.08105078e-07 4.53504128e-07
      4.99440262e-07 3.91772033e-07 2.38309582e-07 -3.25271330e-08
      -2.19671975e-07 -1.91524293e-07 -1.09086997e-07 -7.46074136e-08
      -8.00027706e-08 -3.95354007e-08 -1.19924991e-07 -2.94172651e-07
      -3.21649964e-07 -2.39084187e-07 -1.29371870e-07 -2.57824373e-10
      1.00082346e-07 1.19181195e-07 1.10677675e-07 2.25513730e-07
      2.58162459e-07 1.68814523e-07 1.07071834e-07 4.37740546e-08
      1.24450406e-08 3.18496234e-08 5.67804967e-08 3.68594506e-08
      -4.76556181e-08 -1.43070949e-07 -2.51639051e-07 -2.96522330e-07
      -2.15329109e-07 -1.38276963e-08 2.41782317e-07 4.53375094e-07
      4.79135679e-07 4.22793306e-07 3.97146067e-07 4.34721102e-07
      4.22119683e-07 4.00250769e-07 4.24947359e-07 5.08814480e-07
      -2.04541061e-06 -1.79808239e-06 -1.35422010e-06 -7.50104732e-07
      -2.00665184e-07 1.53899649e-07 3.46496023e-07 5.17328431e-07
      5.60954845e-07 5.08664925e-07 3.71678169e-07 4.94729413e-08
      -2.25005422e-07 -2.66797770e-07 -2.68531664e-07 -3.56503932e-07
      -2.71993088e-07 -1.20103564e-07 -1.86727846e-07 -3.76799647e-07
      -3.58322410e-07 -2.34058689e-07 -1.83265911e-07 -1.74989793e-07
      -9.82600881e-08 -7.59557111e-08 -3.59632644e-08 1.51419883e-07
      3.88871371e-07 2.79133900e-07 1.08989383e-07 1.12397283e-08
      -5.50306432e-08 -5.84574877e-08 -8.39306722e-08 -8.84859617e-08
      -7.52801412e-08 -1.39249778e-07 -2.62866081e-07 -3.81849247e-07
      -4.29310830e-07 -3.21112594e-07 -6.62449580e-08 2.12197619e-07
      3.68939709e-07 4.52349184e-07 4.70252502e-07 5.06488561e-07
      4.44490098e-07 3.94068337e-07 4.02017719e-07 4.63709654e-07
      -2.18025821e-06 -1.93218261e-06 -1.44228818e-06 -8.10789118e-07
      -1.81886790e-07 2.60633698e-07 4.71126242e-07 5.26583619e-07
      5.05883690e-07 4.57316133e-07 3.72658491e-07 8.90898519e-08
      -1.75353605e-07 -1.90129967e-07 -2.49042699e-07 -3.90773010e-07
      -3.94789794e-07 -2.42680272e-07 -2.18722860e-07 -2.70478523e-07
      -2.51156081e-07 -1.71626397e-07 -3.16666473e-07 -4.84980433e-07
      -4.64446998e-07 -4.15901013e-07 -3.58249878e-07 -1.57025440e-07
      3.25735861e-09 -3.39504282e-08 -1.23238593e-07 -1.25637953e-07
      -1.72184471e-07 -1.95162571e-07 -2.29053228e-07 -2.38877590e-07
      -9.89842803e-08 1.99893861e-08 -9.88052840e-09 -1.82564307e-07
      -3.76514947e-07 -4.53088830e-07 -3.43867612e-07 -9.46351122e-08
      1.08684802e-07 2.63645717e-07 3.38450548e-07 3.88446495e-07
      3.72059503e-07 3.17417602e-07 2.78751202e-07 2.96246128e-07
      -2.13608109e-06 -1.88508261e-06 -1.42872375e-06 -8.27596352e-07
      -2.04105291e-07 2.80205455e-07 4.97737972e-07 4.43494116e-07
      3.37000017e-07 2.52523961e-07 1.78294286e-07 -2.47328149e-08
      -2.00326596e-07 -1.89534077e-07 -2.30227968e-07 -4.01960449e-07
      -4.52954879e-07 -2.76240058e-07 -1.68932885e-07 -1.23315033e-07
      -4.81088023e-08 -6.12991613e-08 -3.45309729e-07 -6.76402010e-07
      -7.92744970e-07 -7.33865022e-07 -6.35621689e-07 -4.71704652e-07
      -3.32573507e-07 -3.27147518e-07 -3.56512913e-07 -3.27219908e-07
      -3.51932840e-07 -3.11240740e-07 -2.86158752e-07 -2.69726939e-07
      -1.19765105e-07 9.55487209e-08 2.71450972e-07 1.79955222e-07
      -7.69996404e-08 -3.01606775e-07 -3.51542667e-07 -1.77697245e-07
      -1.06289100e-07 -1.97089882e-08 8.97033701e-08 1.79745314e-07
      2.03110929e-07 2.27329508e-07 1.71341767e-07 1.42818379e-07
      -2.02098295e-06 -1.85906163e-06 -1.42306817e-06 -8.66703829e-07
      -3.01849980e-07 2.07363342e-07 4.47883366e-07 4.09613108e-07
      2.55544052e-07 6.26580956e-08 -5.37538796e-08 -2.05626819e-07
      -3.46717400e-07 -3.26780253e-07 -3.60084158e-07 -4.74219490e-07
      -4.97601320e-07 -3.87765169e-07 -2.14531667e-07 -4.61402783e-09
      1.56529552e-07 1.30075591e-07 -1.05071017e-07 -4.78724587e-07
      -7.61726085e-07 -8.61866170e-07 -7.50389745e-07 -5.99691646e-07
      -4.94130404e-07 -4.64727606e-07 -4.54117838e-07 -4.05461293e-07
      -4.31988241e-07 -3.95761958e-07 -3.52408051e-07 -2.35782750e-07
      -9.54319219e-08 1.20144378e-07 3.86546020e-07 4.92579602e-07
      3.11228632e-07 1.46013033e-08 -1.50233603e-07 -1.43203152e-07
      -1.83207732e-07 -1.92113973e-07 -1.33569301e-07 -3.98089064e-08
      4.85589879e-08 1.72088633e-07 1.57477785e-07 7.04884187e-08
      -1.67207759e-06 -1.65256438e-06 -1.33775131e-06 -8.84060398e-07
      -4.13793629e-07 4.39858461e-08 3.31798105e-07 4.39783292e-07
      2.72503968e-07 6.34246788e-09 -1.45491640e-07 -2.00288639e-07
      -3.65795557e-07 -4.85144028e-07 -5.45541866e-07 -6.16946124e-07
      -6.13236125e-07 -6.45497266e-07 -4.56482894e-07 -1.34661704e-07
      8.29531359e-08 1.48036250e-07 8.83901663e-08 -6.58738344e-08
      -3.53451924e-07 -6.10506220e-07 -6.76898196e-07 -5.68027076e-07
      -4.72527063e-07 -5.24204779e-07 -5.30163391e-07 -4.63740292e-07
      -4.64630659e-07 -4.59813748e-07 -4.55221368e-07 -3.49482804e-07
      -2.23234963e-07 -4.50542963e-08 1.85329128e-07 3.23743393e-07
      3.05396270e-07 2.23745019e-07 4.72044448e-08 -6.65172379e-08
      -1.51455851e-07 -2.30193962e-07 -2.91711132e-07 -2.71924108e-07
      -1.78339036e-07 -8.21464923e-08 -2.10443254e-08 1.92424174e-08
      -1.18972855e-06 -1.30203750e-06 -1.12700889e-06 -7.86548071e-07
      -4.40473883e-07 -7.83439020e-08 1.75471996e-07 3.44167546e-07
      2.55432980e-07 7.96689825e-09 -1.60267405e-07 -1.71905839e-07
      -2.95556987e-07 -5.29600186e-07 -6.62333434e-07 -6.59675891e-07
      -7.69133919e-07 -9.20703485e-07 -8.13403517e-07 -4.18901777e-07
      -1.74965038e-07 -4.85251235e-08 1.36476700e-07 8.74110100e-08
      -1.01628167e-07 -2.91069966e-07 -3.73468026e-07 -3.71547287e-07
      -4.65553939e-07 -5.64693494e-07 -6.60283490e-07 -6.47244917e-07
      -5.42830776e-07 -5.93805623e-07 -6.26578526e-07 -5.94152425e-07
      -4.71489017e-07 -3.64820039e-07 -2.29590043e-07 -1.65260886e-07
      -8.36664142e-08 3.06731707e-08 1.20463653e-07 -2.30496813e-08
      -1.05929480e-07 -1.75673478e-07 -2.67553759e-07 -4.24302101e-07
      -4.32026241e-07 -3.91213518e-07 -3.11515862e-07 -2.27037262e-07
      -9.96210588e-07 -1.04023832e-06 -9.72433099e-07 -7.52972653e-07
      -4.70050594e-07 -1.71517556e-07 8.67913315e-08 1.52446177e-07
      1.13252092e-07 -3.73653322e-08 -1.86071702e-07 -2.19704461e-07
      -3.48928154e-07 -5.35057836e-07 -7.35962828e-07 -6.81237793e-07
      -8.48466755e-07 -1.14775628e-06 -1.10821009e-06 -7.08228470e-07
      -4.42350967e-07 -2.98340240e-07 -3.79436536e-08 4.06126155e-08
      -5.95376335e-08 -8.93209204e-08 -1.48487572e-07 -2.44192421e-07
      -3.23001530e-07 -4.84592647e-07 -6.81777465e-07 -7.85362488e-07
      -7.53454344e-07 -8.09563176e-07 -8.49848107e-07 -8.49163030e-07
      -7.06957167e-07 -6.15588078e-07 -4.87170496e-07 -5.21726633e-07
      -4.82012638e-07 -2.60651603e-07 -7.44234896e-08 -8.83438602e-08
      -7.30411429e-08 -9.05644200e-08 -1.98574924e-07 -4.41496297e-07
      -5.77794083e-07 -6.57838541e-07 -5.95823224e-07 -4.64270983e-07
      -7.37813878e-07 -8.44639715e-07 -9.10409256e-07 -8.20743026e-07
      -5.95672475e-07 -3.04496979e-07 -5.19833918e-08 -2.05871018e-08
      -7.14554460e-08 -1.70815852e-07 -3.01171269e-07 -3.66560499e-07
      -5.13154646e-07 -6.85817724e-07 -8.13152326e-07 -7.63875107e-07
      -9.90621629e-07 -1.27389671e-06 -1.23971517e-06 -8.60850548e-07
      -6.12590327e-07 -4.52107116e-07 -2.07129290e-07 -4.69567993e-08
      -1.85847038e-09 3.21249196e-08 -7.12565251e-09 -1.36610055e-07
      -2.49971777e-07 -4.29817362e-07 -6.40837641e-07 -8.19636057e-07
      -8.72818475e-07 -9.63682396e-07 -1.13639885e-06 -1.19848494e-06
      -9.86242412e-07 -7.53029440e-07 -5.68569931e-07 -5.38638176e-07
      -4.52176266e-07 -2.02956940e-07 -7.76013351e-08 -5.58532918e-08
      -3.52903173e-09 -1.27741595e-08 -7.64065291e-08 -3.28010486e-07
      -5.57919009e-07 -7.58822694e-07 -7.70918007e-07 -6.94927337e-07
      -6.09624976e-07 -8.10416623e-07 -9.18924627e-07 -8.92190428e-07
      -7.41851977e-07 -4.41811579e-07 -1.70754802e-07 -1.30663366e-07
      -2.01033245e-07 -2.75967238e-07 -4.30788049e-07 -5.40263557e-07
      -6.92410481e-07 -8.68496386e-07 -9.77585614e-07 -8.98413532e-07
      -1.14008742e-06 -1.40034865e-06 -1.32990579e-06 -9.41003577e-07
      -6.86324029e-07 -5.06566948e-07 -3.45262947e-07 -1.26608654e-07
      -9.18251786e-09 6.93200803e-08 4.08361807e-08 -3.94764790e-08
      -1.53345184e-07 -3.53421626e-07 -6.11741314e-07 -7.88686123e-07
      -8.91358582e-07 -1.03457364e-06 -1.25608926e-06 -1.38550843e-06
      -1.18350658e-06 -8.62375543e-07 -6.51929440e-07 -5.28070302e-07
      -3.53050211e-07 -7.32545686e-08 2.40783287e-08 6.23580476e-08
      1.15130355e-07 6.94844786e-08 1.95228314e-08 -1.98249509e-07
      -4.56638418e-07 -6.90024308e-07 -7.75323485e-07 -7.62922070e-07
      -1.88061691e-07 -2.37741702e-07 -2.74691871e-07 -2.31595976e-07
      -1.13960255e-07 -2.77034733e-08 -4.12047818e-08 -1.14594123e-07
      -1.26869168e-07 -6.86012100e-08 -6.22322673e-08 -6.98841802e-08
      -6.06138286e-08 -7.44938120e-08 -6.25381986e-08 -7.04677428e-09
      3.65927981e-08 -5.04386222e-08 -1.63474795e-07 -1.68054456e-07
      -8.63742855e-08 -7.59550716e-08 -9.06583537e-08 -1.14523779e-07
      -1.12594321e-07 -1.02556122e-07 -7.86561003e-08 -5.47886465e-08
      -5.37431113e-08 2.97055607e-08 8.84192772e-08 1.21540708e-07
      7.30443404e-08 -3.95489543e-08 -8.92222403e-08 -1.13805243e-07
      -1.62993331e-07 -2.41959839e-07 -2.69954626e-07 -1.61747337e-07
      -5.70400438e-08 9.51466816e-09 1.92432950e-08 -2.85891346e-08
      -9.55486215e-08 -1.54597615e-07 -1.34282246e-07 -2.80249246e-08
      1.47568144e-08 -5.09797649e-10 -4.84773430e-08 -6.36561950e-08
      -2.40910509e-07 -1.77451767e-07 -1.91330500e-07 -2.11292331e-07
      -1.79222141e-07 -1.01375541e-07 -2.19282565e-08 -1.87029983e-08
      -6.39075566e-08 -5.70610048e-08 -3.17536148e-08 -8.47876720e-08
      -6.87720174e-08 -8.06985341e-08 -1.27818993e-07 -1.15601367e-07
      -5.67463054e-08 -5.25542276e-08 -1.51634168e-07 -2.15349218e-07
      -1.81739239e-07 -7.47400080e-08 -4.40269154e-08 -7.96636712e-08
      -9.32405939e-08 -8.09858776e-08 -6.51821068e-08 -2.85497137e-08
      -4.24090416e-08 -6.55872299e-08 1.32754092e-08 7.76598128e-08
      8.45805346e-08 3.39321105e-08 -1.52148463e-08 -4.61256597e-08
      -7.91624473e-08 -9.55416226e-08 -1.33698691e-07 -1.50266885e-07
      -9.13054379e-08 -6.04134911e-08 -3.35513448e-08 -6.09394064e-08
      -1.27931628e-07 -1.90951681e-07 -2.06559378e-07 -9.66566702e-08
      1.01651443e-08 5.23403898e-08 4.06967970e-08 -3.77597615e-08
      -2.62591243e-07 -1.93586047e-07 -1.48106025e-07 -1.18114073e-07
      -1.37711368e-07 -1.20982776e-07 -7.64099184e-08 -2.47444216e-08
      -1.91911713e-08 -3.83757133e-08 -7.42988036e-08 -6.83370303e-08
      -8.72378578e-08 -9.77020491e-08 -1.35559262e-07 -1.55059794e-07
      -1.41645003e-07 -1.07059861e-07 -1.47386700e-07 -2.20711627e-07
      -2.35933555e-07 -1.84242253e-07 -7.55244187e-08 -6.04818808e-08
      -8.65800516e-08 -8.89943195e-08 -5.34561444e-08 -4.21060093e-08
      -2.31599397e-08 -5.35964801e-08 -5.99178094e-08 1.19798171e-09
      4.53973108e-08 1.45355008e-08 -3.31304300e-08 -7.01424199e-08
      -5.79241757e-08 -3.19162972e-08 -2.30138930e-08 -9.66364269e-08
      -1.25216090e-07 -9.00267239e-08 -1.16427636e-07 -1.07226086e-07
      -1.03068267e-07 -1.58180910e-07 -2.25250389e-07 -1.86732080e-07
      -5.70424952e-08 4.66600163e-08 1.15978480e-07 8.40724965e-08
      -1.71611120e-07 -1.97721164e-07 -1.38654073e-07 -8.65172183e-08
      -5.57878259e-08 -7.75168303e-08 -8.95338559e-08 -5.93671814e-08
      -3.50262219e-08 -3.16875379e-08 -7.03465730e-08 -9.18497705e-08
      -5.55785782e-08 -6.64038780e-08 -1.31813323e-07 -1.65749199e-07
      -1.61852569e-07 -1.62503298e-07 -1.55626580e-07 -1.87648268e-07
      -2.31752779e-07 -2.24571167e-07 -1.69168075e-07 -1.14960244e-07
      -1.08898945e-07 -1.26171017e-07 -1.02078559e-07 -4.56369342e-08
      -4.46491946e-08 -2.25904824e-08 -3.77513807e-08 -2.55760924e-08
      1.26782593e-08 1.52664423e-08 -3.69819624e-08 -8.63032810e-08
      -9.50983434e-08 -6.03850481e-08 -1.91614657e-09 -4.78684647e-09
      -1.08256494e-07 -1.28771887e-07 -1.24365627e-07 -1.24766586e-07
      -9.34835924e-08 -7.50810685e-08 -1.29008427e-07 -2.07035782e-07
      -1.44895495e-07 -1.62954858e-08 9.83767308e-08 1.59985305e-07
      1.27091253e-08 -1.14501709e-07 -1.24881439e-07 -7.47016600e-08
      -2.89957853e-08 -2.27672015e-08 -7.46693871e-08 -8.92569432e-08
      -5.52252075e-08 -5.87557452e-08 -7.02305769e-08 -1.00168251e-07
      -7.07656937e-08 4.70246420e-09 -3.79130256e-08 -1.40530020e-07
      -1.62536281e-07 -1.69267636e-07 -2.00466900e-07 -1.70370996e-07
      -1.62661493e-07 -1.82487284e-07 -1.75283205e-07 -1.44110786e-07
      -1.48299804e-07 -1.47932340e-07 -1.36323479e-07 -8.95379486e-08
      -4.08622682e-08 -2.68170020e-08 -1.80507982e-08 -7.32412886e-09
      -1.66581937e-09 1.89625524e-08 -2.02980424e-08 -7.83028966e-08
      -9.10666458e-08 -8.81866740e-08 -3.47062219e-08 1.73207777e-08
      -3.16001163e-08 -1.19565584e-07 -1.47179918e-07 -1.15297013e-07
      -1.02120332e-07 -7.49245359e-08 -3.61651757e-08 -1.02084904e-07
      -1.85574677e-07 -9.02850843e-08 2.76154921e-08 1.43948981e-07
      1.81231712e-07 2.86683388e-08 -7.14771957e-08 -4.64110812e-08
      1.20982211e-08 2.76973626e-08 -1.84613356e-08 -5.84816036e-08
      -7.18107742e-08 -1.04016920e-07 -1.12882731e-07 -1.26908262e-07
      -1.26890370e-07 -4.48098874e-08 2.05077342e-08 -3.07484385e-08
      -1.14139411e-07 -1.45466501e-07 -2.00049158e-07 -2.34076694e-07
      -1.85504746e-07 -1.21177138e-07 -1.06876769e-07 -8.65486172e-08
      -1.06670257e-07 -1.33393982e-07 -1.37515087e-07 -1.04737325e-07
      -5.56989903e-08 -1.77527344e-08 -1.12917151e-08 1.25249082e-08
      2.05886530e-09 1.90200815e-08 2.13307381e-08 -4.36686456e-08
      -7.31878202e-08 -8.55600675e-08 -4.75389150e-08 1.06371116e-08
      1.47150103e-09 -8.38467429e-08 -1.69873928e-07 -1.90816650e-07
      -1.72453881e-07 -1.38952117e-07 -9.66020863e-08 -1.72901782e-08
      -1.20099870e-07 -1.52833906e-07 -4.83921561e-08 7.16640827e-08
      2.80821467e-07 1.37160697e-07 7.56895524e-09 -3.22473461e-08
      1.32703590e-08 5.80331374e-08 6.62411068e-08 1.81053341e-08
      -4.38850449e-08 -1.10248081e-07 -1.64469881e-07 -2.08519040e-07
      -1.96009779e-07 -1.44570009e-07 -4.02943137e-08 -1.20125898e-09
      -6.55013110e-09 -6.70133531e-08 -1.20481189e-07 -2.17889863e-07
      -2.70494809e-07 -2.04393700e-07 -1.06841469e-07 -7.44812354e-08
      -4.70166555e-08 -6.98057079e-08 -9.52352650e-08 -8.63167813e-08
      -4.08832257e-08 -1.38225351e-08 -9.87846871e-09 -7.36259409e-09
      1.08153220e-08 9.10067843e-09 4.56344651e-08 4.16015595e-08
      -1.05908526e-08 -4.70092232e-08 -4.55531755e-08 1.50968287e-08
      -8.15257639e-09 -1.20342563e-07 -2.18252467e-07 -2.99499959e-07
      -3.57868828e-07 -3.34859351e-07 -2.92688185e-07 -2.21216510e-07
      -1.06231219e-07 -1.34096510e-07 -1.20022563e-07 -4.92046892e-09
      2.93781000e-07 2.01630883e-07 7.42549204e-08 -1.86363880e-09
      7.86603938e-09 5.68700251e-08 1.15873014e-07 1.04054124e-07
      3.27992176e-08 -6.56809931e-08 -1.68427519e-07 -2.68077997e-07
      -3.60417999e-07 -3.22384381e-07 -1.79655814e-07 -8.08427956e-08
      1.14885417e-08 6.91824198e-08 1.82542212e-08 -8.53841016e-08
      -2.14531525e-07 -2.82657851e-07 -2.13386386e-07 -1.07631450e-07
      -6.07359283e-08 -1.56865081e-08 -1.45392489e-08 -2.87061841e-08
      -1.56288706e-08 -3.38093376e-09 -9.15708220e-09 -1.27033131e-08
      -1.41779283e-10 1.19795622e-08 2.26982717e-08 4.97006951e-08
      4.47041941e-08 5.91023730e-10 -3.03732790e-08 1.43862557e-08
      2.80462942e-08 -1.18447083e-07 -2.95948524e-07 -4.05242844e-07
      -4.92987908e-07 -5.59305136e-07 -5.22449568e-07 -4.74930630e-07
      -3.49829065e-07 -1.60995654e-07 -1.00267080e-07 -5.93992233e-08
      1.94177716e-07 1.77522708e-07 1.31076817e-07 6.18286222e-08
